{"learner":{"attributes":{"scikit_learn":"{\"_estimator_type\": \"regressor\"}"},"feature_names":["Unnamed: 0","jugador_anonimizado","gol","asistencia","edad","peso","altura","minutos_predictor","avg_dist_sess_m_predictor","zona_4_19.9_25.1_kmh_predictor","zona_5_mas_25.1_kmh_predictor","num_aceleraciones_intensas_predictor","num_desaceleraciones_intensas_predictor","num_acel_desintensas_predictor","num_sprints_total_predictor","gol_predictor","asistencia_predictor","max_vel_kmh_predictor","torneo_Libertadores","torneo_Torneo Local","categoria_partido_Normal","posicion_habitual_Delantero","posicion_habitual_Extremo","posicion_habitual_Lateral","posicion_habitual_Lateral ","posicion_habitual_Lateral / Volante","posicion_habitual_Volante / Extremo","posicion_habitual_Volante Central","posicion_habitual_Volante Ofensivo","posicion_habitual_Volante Ofensivo / Extremo"],"feature_types":["int","int","int","int","int","int","int","float","float","float","float","float","float","float","float","float","float","float","i","i","i","i","i","i","i","i","i","i","i","i"],"gradient_booster":{"model":{"gbtree_model_param":{"num_parallel_tree":"1","num_trees":"50"},"iteration_indptr":[0,1,2,3,4,5,6,7,8,9,10,11,12,13,14,15,16,17,18,19,20,21,22,23,24,25,26,27,28,29,30,31,32,33,34,35,36,37,38,39,40,41,42,43,44,45,46,47,48,49,50],"tree_info":[0,0,0,0,0,0,0,0,0,0,0,0,0,0,0,0,0,0,0,0,0,0,0,0,0,0,0,0,0,0,0,0,0,0,0,0,0,0,0,0,0,0,0,0,0,0,0,0,0,0],"trees":[{"base_weights":[-1.5904354E-1,-1.3501351E0,5.0141845E0,-4.101152E-1,-3.653402E0,2.3903985E0,5.413587E0,5.798913E-1,-5.8092635E-2,-4.0668997E-1,3.0489132E-1,4.985507E-1,-1.451087E-1,5.712103E-1,1.298913E-1],"categories":[],"categories_nodes":[],"categories_segments":[],"categories_sizes":[],"default_left":[0,0,0,0,0,0,0,0,0,0,0,0,0,0,0],"id":0,"left_children":[1,3,5,7,9,11,13,-1,-1,-1,-1,-1,-1,-1,-1],"loss_changes":[1.5472168E3,4.4018555E2,3.6312866E1,1.5821216E2,1.7591162E2,8.6986984E1,4.171228E1,0E0,0E0,0E0,0E0,0E0,0E0,0E0,0E0],"parents":[2147483647,0,0,1,1,2,2,3,3,4,4,5,5,6,6],"right_children":[2,4,6,8,10,12,14,-1,-1,-1,-1,-1,-1,-1,-1],"split_conditions":[1.844E2,3.08E2,1E1,3.1E1,1E0,5E0,1E0,5.798913E-1,-5.8092635E-2,-4.0668997E-1,3.0489132E-1,4.985507E-1,-1.451087E-1,5.712103E-1,1.298913E-1],"split_indices":[10,0,0,0,3,0,2,0,0,0,0,0,0,0,0],"split_type":[0,0,0,0,0,0,0,0,0,0,0,0,0,0,0],"sum_hessian":[2.49E2,2.03E2,4.6E1,1.45E2,5.8E1,7E0,3.9E1,3E0,1.42E2,5.5E1,3E0,4E0,3E0,3.6E1,3E0],"tree_param":{"num_deleted":"0","num_feature":"30","num_nodes":"15","size_leaf_vector":"1"}},{"base_weights":[8.781625E-2,-1.4555964E0,4.0094376E0,3.3079413E-1,-3.2652528E0,2.420277E0,5.447284E0,7.448063E-2,-2.5258553E-1,-8.40891E-1,-2.6681665E-1,4.1139832E-1,8.5961305E-2,6.491899E-1,3.0193877E-1],"categories":[],"categories_nodes":[],"categories_segments":[],"categories_sizes":[],"default_left":[0,0,0,0,0,0,0,0,0,0,0,0,0,0,0],"id":1,"left_children":[1,3,5,7,9,11,13,-1,-1,-1,-1,-1,-1,-1,-1],"loss_changes":[1.5432168E3,5.9267395E2,1.5133386E2,1.11871216E2,2.5704352E2,9.1622574E1,7.42384E1,0E0,0E0,0E0,0E0,0E0,0E0,0E0,0E0],"parents":[2147483647,0,0,1,1,2,2,3,3,4,4,5,5,6,6],"right_children":[2,4,6,8,10,12,14,-1,-1,-1,-1,-1,-1,-1,-1],"split_conditions":[6.5E1,2.5E2,1.97E2,3.1E1,2.6E2,2.5E1,2.32E2,7.448063E-2,-2.5258553E-1,-8.40891E-1,-2.6681665E-1,4.1139832E-1,8.5961305E-2,6.491899E-1,3.0193877E-1],"split_indices":[11,0,0,4,0,0,0,0,0,0,0,0,0,0,0],"split_type":[0,0,0,0,0,0,0,0,0,0,0,0,0,0,0],"sum_hessian":[2.53E2,1.82E2,7.1E1,9.2E1,9E1,3.5E1,3.6E1,8.1E1,1.1E1,8E0,8.2E1,1.6E1,1.9E1,2.4E1,1.2E1],"tree_param":{"num_deleted":"0","num_feature":"30","num_nodes":"15","size_leaf_vector":"1"}},{"base_weights":[-1.6930889E-1,-1.9583558E0,3.4108498E0,-5.914878E0,-1.3991227E0,3.7988782E0,-1.5859073E-1,-1.4955069E-1,-7.288301E-1,-6.3201886E-1,-9.8778315E-2,5.420215E-1,2.5702345E-1,3.372397E-1,-3.6578605E-1],"categories":[],"categories_nodes":[],"categories_segments":[],"categories_sizes":[],"default_left":[0,0,0,0,0,0,0,0,0,0,0,0,0,0,0],"id":2,"left_children":[1,3,5,7,9,11,13,-1,-1,-1,-1,-1,-1,-1,-1],"loss_changes":[1.5759222E3,3.5459375E2,1.1417621E2,1.1049359E2,2.8727026E2,1.334801E2,1.2353865E2,0E0,0E0,0E0,0E0,0E0,0E0,0E0,0E0],"parents":[2147483647,0,0,1,1,2,2,3,3,4,4,5,5,6,6],"right_children":[2,4,6,8,10,12,14,-1,-1,-1,-1,-1,-1,-1,-1],"split_conditions":[5.74E2,3E2,1E0,3.29E2,6.6E1,1E0,9.1E1,-1.4955069E-1,-7.288301E-1,-6.3201886E-1,-9.8778315E-2,5.420215E-1,2.5702345E-1,3.372397E-1,-3.6578605E-1],"split_indices":[9,9,2,0,5,20,10,0,0,0,0,0,0,0,0],"split_type":[0,0,0,0,0,0,0,0,0,0,0,0,0,0,0],"sum_hessian":[2.44E2,1.63E2,8.1E1,1.9E1,1.44E2,7.3E1,8E0,5E0,1.4E1,1E1,1.34E2,3E1,4.3E1,4E0,4E0],"tree_param":{"num_deleted":"0","num_feature":"30","num_nodes":"15","size_leaf_vector":"1"}},{"base_weights":[-3.635538E-2,-1.6187747E0,3.2476192E0,-6.0421457E0,-1.2348617E0,2.9425244E0,8.3087844E-1,-2.188973E-1,-6.9792E-1,-1.5272279E-1,3.6451754E-1,3.2899755E-1,-4.6548653E-2],"categories":[],"categories_nodes":[],"categories_segments":[],"categories_sizes":[],"default_left":[0,0,0,0,0,0,0,0,0,0,0,0,0],"id":3,"left_children":[1,3,5,7,9,11,-1,-1,-1,-1,-1,-1,-1],"loss_changes":[1.2784302E3,2.744382E2,9.908185E1,3.166095E1,2.2528775E2,9.2708374E1,0E0,0E0,0E0,0E0,0E0,0E0,0E0],"parents":[2147483647,0,0,1,1,2,2,3,3,4,4,5,5],"right_children":[2,4,6,8,10,12,-1,-1,-1,-1,-1,-1,-1],"split_conditions":[5.74E2,2.67E2,2.39E2,3.3E2,1E0,2.29E2,8.3087844E-1,-2.188973E-1,-6.9792E-1,-1.5272279E-1,3.6451754E-1,3.2899755E-1,-4.6548653E-2],"split_indices":[9,9,0,0,3,0,0,0,0,0,0,0,0],"split_type":[0,0,0,0,0,0,0,0,0,0,0,0,0],"sum_hessian":[2.44E2,1.65E2,7.9E1,1.2E1,1.53E2,7.6E1,3E0,3E0,9E0,1.45E2,8E0,6.9E1,7E0],"tree_param":{"num_deleted":"0","num_feature":"30","num_nodes":"13","size_leaf_vector":"1"}},{"base_weights":[1.5093511E-1,-1.4075845E0,2.563633E0,-3.2965143E0,-2.4856074E-1,9.944268E-1,5.1803374E0,2.2813056E-1,-4.325567E-1,-1.3328288E-1,2.692185E-1,1.8707594E-1,-1.2256815E-1,5.435769E-1,3.2726008E-1],"categories":[],"categories_nodes":[],"categories_segments":[],"categories_sizes":[],"default_left":[0,0,0,0,0,0,0,0,0,0,0,0,0,0,0],"id":4,"left_children":[1,3,5,7,9,11,13,-1,-1,-1,-1,-1,-1,-1,-1],"loss_changes":[9.775099E2,3.4509235E2,4.1367572E2,3.5426E2,3.1925537E2,1.287539E2,7.2821045E-1,0E0,0E0,0E0,0E0,0E0,0E0,0E0,0E0],"parents":[2147483647,0,0,1,1,2,2,3,3,4,4,5,5,6,6],"right_children":[2,4,6,8,10,12,14,-1,-1,-1,-1,-1,-1,-1,-1],"split_conditions":[1.322E2,1E0,1.97E2,2.2E1,1.85E2,3E1,1E0,2.2813056E-1,-4.325567E-1,-1.3328288E-1,2.692185E-1,1.8707594E-1,-1.2256815E-1,5.435769E-1,3.2726008E-1],"split_indices":[13,20,0,4,6,4,2,0,0,0,0,0,0,0,0],"split_type":[0,0,0,0,0,0,0,0,0,0,0,0,0,0,0],"sum_hessian":[2.58E2,1.57E2,1.01E2,5.9E1,9.8E1,6.4E1,3.7E1,9E0,5E1,7.2E1,2.6E1,4.6E1,1.8E1,3.1E1,6E0],"tree_param":{"num_deleted":"0","num_feature":"30","num_nodes":"15","size_leaf_vector":"1"}},{"base_weights":[-9.9725336E-2,1.6438524E0,-2.738171E0,8.3100426E-1,3.7285895E0,-3.1018558E0,3.0043563E-1,1.919819E-1,3.4151442E-2,4.0911418E-1,2.0142885E-1,-1.8634717E-1,-4.7200647E-1],"categories":[],"categories_nodes":[],"categories_segments":[],"categories_sizes":[],"default_left":[0,0,0,0,0,0,0,0,0,0,0,0,0],"id":5,"left_children":[1,3,5,7,9,11,-1,-1,-1,-1,-1,-1,-1],"loss_changes":[1.2603927E3,2.7650632E2,2.3696228E2,6.3299995E1,2.0349365E1,1.9761267E2,0E0,0E0,0E0,0E0,0E0,0E0,0E0],"parents":[2147483647,0,0,1,1,2,2,3,3,4,4,5,5],"right_children":[2,4,6,8,10,12,-1,-1,-1,-1,-1,-1,-1],"split_conditions":[2.44E2,1.74E2,1.88E2,1E0,2.34E2,1.78E2,3.0043563E-1,1.919819E-1,3.4151442E-2,4.0911418E-1,2.0142885E-1,-1.8634717E-1,-4.7200647E-1],"split_indices":[0,0,6,19,0,6,0,0,0,0,0,0,0],"split_type":[0,0,0,0,0,0,0,0,0,0,0,0,0],"sum_hessian":[2.72E2,1.64E2,1.08E2,1.19E2,4.5E1,1.02E2,6E0,3.6E1,8.3E1,3.6E1,9E0,5.9E1,4.3E1],"tree_param":{"num_deleted":"0","num_feature":"30","num_nodes":"13","size_leaf_vector":"1"}},{"base_weights":[-1.3387387E-2,1.5223718E0,-2.2401044E0,1.0972658E0,3.8492253E0,1.7529641E0,-3.138009E0,2.295279E-1,4.0966745E-2,5.334231E-1,-9.49628E-3,-1.8875627E-1,3.1879783E-1,-4.5723692E-1,-1.730744E-1],"categories":[],"categories_nodes":[],"categories_segments":[],"categories_sizes":[],"default_left":[0,0,0,0,0,0,0,0,0,0,0,0,0,0,0],"id":6,"left_children":[1,3,5,7,9,11,13,-1,-1,-1,-1,-1,-1,-1,-1],"loss_changes":[8.378174E2,1.3920447E2,3.6404034E2,1.01204956E2,1.2936368E2,1.05277466E2,1.5760547E2,0E0,0E0,0E0,0E0,0E0,0E0,0E0,0E0],"parents":[2147483647,0,0,1,1,2,2,3,3,4,4,5,5,6,6],"right_children":[2,4,6,8,10,12,14,-1,-1,-1,-1,-1,-1,-1,-1],"split_conditions":[2.44E2,2.1E2,2.3E1,6.5E1,2.31E2,3.8E1,2.9E1,2.295279E-1,4.0966745E-2,5.334231E-1,-9.49628E-3,-1.8875627E-1,3.1879783E-1,-4.5723692E-1,-1.730744E-1],"split_indices":[0,0,4,0,0,7,17,0,0,0,0,0,0,0,0],"split_type":[0,0,0,0,0,0,0,0,0,0,0,0,0,0,0],"sum_hessian":[2.43E2,1.44E2,9.9E1,1.23E2,2.1E1,1.8E1,8.1E1,4.4E1,7.9E1,1.5E1,6E0,5E0,1.3E1,3.9E1,4.2E1],"tree_param":{"num_deleted":"0","num_feature":"30","num_nodes":"15","size_leaf_vector":"1"}},{"base_weights":[2.0787351E-1,-3.8321033E0,5.856933E-1,-2.2151103E0,-8.5634595E-1,1.9992381E-1,2.4686725E0,-3.9693292E-2,-5.4822797E-1,6.805068E-2,-7.343297E-2,3.742058E-1,1.8112908E-1],"categories":[],"categories_nodes":[],"categories_segments":[],"categories_sizes":[],"default_left":[0,0,0,0,0,0,0,0,0,0,0,0,0],"id":7,"left_children":[1,3,5,7,-1,9,11,-1,-1,-1,-1,-1,-1],"loss_changes":[3.7468195E2,1.4169296E2,1.6221913E2,9.88089E1,0E0,8.446016E1,2.5031876E1,0E0,0E0,0E0,0E0,0E0,0E0],"parents":[2147483647,0,0,1,1,2,2,3,3,5,5,6,6],"right_children":[2,4,6,8,-1,10,12,-1,-1,-1,-1,-1,-1],"split_conditions":[4.72E1,1E0,7.78E1,3.77E2,-8.5634595E-1,2.5E2,2.1E2,-3.9693292E-2,-5.4822797E-1,6.805068E-2,-7.343297E-2,3.742058E-1,1.8112908E-1],"split_indices":[12,18,12,0,0,0,0,0,0,0,0,0,0],"split_type":[0,0,0,0,0,0,0,0,0,0,0,0,0],"sum_hessian":[2.43E2,2E1,2.23E2,1.6E1,4E0,1.86E2,3.7E1,1.1E1,5E0,1.23E2,6.3E1,1.1E1,2.6E1],"tree_param":{"num_deleted":"0","num_feature":"30","num_nodes":"13","size_leaf_vector":"1"}},{"base_weights":[-2.781172E-2,-1.4503604E0,1.2452041E0,-3.215141E0,-4.0956163E-1,8.162793E-1,4.5649943E0,-4.8487645E-1,-1.3611192E-1,4.6561995E-1,-7.5566225E-2,2.7792528E-2,1.3969815E-1,6.8917054E-1,1.6676585E-1],"categories":[],"categories_nodes":[],"categories_segments":[],"categories_sizes":[],"default_left":[0,0,0,0,0,0,0,0,0,0,0,0,0,0,0],"id":8,"left_children":[1,3,5,7,9,11,13,-1,-1,-1,-1,-1,-1,-1,-1],"loss_changes":[4.5634863E2,2.1726021E2,1.8565778E2,1.2666626E2,1.367665E2,3.681391E1,8.962598E1,0E0,0E0,0E0,0E0,0E0,0E0,0E0,0E0],"parents":[2147483647,0,0,1,1,2,2,3,3,4,4,5,5,6,6],"right_children":[2,4,6,8,10,12,14,-1,-1,-1,-1,-1,-1,-1,-1],"split_conditions":[1.206E2,1E0,1.14668E4,7.2E1,3.3E1,6.5E1,2.31E2,-4.8487645E-1,-1.3611192E-1,4.6561995E-1,-7.5566225E-2,2.7792528E-2,1.3969815E-1,6.8917054E-1,1.6676585E-1],"split_indices":[13,20,8,5,0,11,0,0,0,0,0,0,0,0,0],"split_type":[0,0,0,0,0,0,0,0,0,0,0,0,0,0,0],"sum_hessian":[2.5E2,1.18E2,1.32E2,4.3E1,7.5E1,1.18E2,1.4E1,2.2E1,2.1E1,4E0,7.1E1,6.2E1,5.6E1,7E0,7E0],"tree_param":{"num_deleted":"0","num_feature":"30","num_nodes":"15","size_leaf_vector":"1"}},{"base_weights":[1.8342E-1,-3.6353478E-1,2.7485697E0,-2.3960786E0,-2.2688175E-2,3.3832366E0,-4.5100188E-1,-1.6733027E-1,-6.495103E-1,2.1708547E-1,-2.7403265E-2,4.5701852E-1,1.19158976E-1,-3.186237E-1,1.8273865E-1],"categories":[],"categories_nodes":[],"categories_segments":[],"categories_sizes":[],"default_left":[0,0,0,0,0,0,0,0,0,0,0,0,0,0,0],"id":9,"left_children":[1,3,5,7,9,11,13,-1,-1,-1,-1,-1,-1,-1,-1],"loss_changes":[3.4333633E2,1.3988835E2,8.88443E1,7.504935E1,9.652715E1,8.820361E1,5.567791E1,0E0,0E0,0E0,0E0,0E0,0E0,0E0,0E0],"parents":[2147483647,0,0,1,1,2,2,3,3,4,4,5,5,6,6],"right_children":[2,4,6,8,10,12,14,-1,-1,-1,-1,-1,-1,-1,-1],"split_conditions":[7.78E1,8.96E1,1E0,1E0,3.3E1,2.32E2,2.39E2,-1.6733027E-1,-6.495103E-1,2.1708547E-1,-2.7403265E-2,4.5701852E-1,1.19158976E-1,-3.186237E-1,1.8273865E-1],"split_indices":[12,13,2,18,0,0,0,0,0,0,0,0,0,0,0],"split_type":[0,0,0,0,0,0,0,0,0,0,0,0,0,0,0],"sum_hessian":[2.43E2,2.01E2,4.2E1,2.8E1,1.73E2,3.5E1,7E0,2.5E1,3E0,1.7E1,1.56E2,2.2E1,1.3E1,3E0,4E0],"tree_param":{"num_deleted":"0","num_feature":"30","num_nodes":"15","size_leaf_vector":"1"}},{"base_weights":[-1.6256636E-1,-1.3688087E0,1.4759284E0,-4.5630336E-1,-3.1669803E0,8.096274E-1,2.4872656E0,-7.65016E-2,5.6857246E-1,-4.6442696E-1,-1.567884E-1,1.0367221E-1,-3.1398416E-1,3.216966E-1,-7.078991E-2],"categories":[],"categories_nodes":[],"categories_segments":[],"categories_sizes":[],"default_left":[0,0,0,0,0,0,0,0,0,0,0,0,0,0,0],"id":10,"left_children":[1,3,5,7,9,11,13,-1,-1,-1,-1,-1,-1,-1,-1],"loss_changes":[5.218192E2,2.4796274E2,7.345799E1,1.9775404E2,1.1319705E2,6.514148E1,1.0486389E2,0E0,0E0,0E0,0E0,0E0,0E0,0E0,0E0],"parents":[2147483647,0,0,1,1,2,2,3,3,4,4,5,5,6,6],"right_children":[2,4,6,8,10,12,14,-1,-1,-1,-1,-1,-1,-1,-1],"split_conditions":[4.838E2,3.21E2,1.97E2,3.14E2,3.72E2,1.92E2,1E0,-7.65016E-2,5.6857246E-1,-4.6442696E-1,-1.567884E-1,1.0367221E-1,-3.1398416E-1,3.216966E-1,-7.078991E-2],"split_indices":[9,0,0,0,0,0,18,0,0,0,0,0,0,0,0],"split_type":[0,0,0,0,0,0,0,0,0,0,0,0,0,0,0],"sum_hessian":[2.62E2,1.51E2,1.11E2,1.01E2,5E1,6.8E1,4.3E1,9.7E1,4E0,2.5E1,2.5E1,6.5E1,3E0,3.5E1,8E0],"tree_param":{"num_deleted":"0","num_feature":"30","num_nodes":"15","size_leaf_vector":"1"}},{"base_weights":[1.1516173E-1,-2.4617455E0,4.226998E-1,2.5035498E-1,-3.106169E0,7.6014847E-1,-7.391456E-1,-1.5456967E-1,-4.4447723E-1,5.4958016E-2,5.6134856E-1,4.5471635E-2,-2.6591405E-1],"categories":[],"categories_nodes":[],"categories_segments":[],"categories_sizes":[],"default_left":[0,0,0,0,0,0,0,0,0,0,0,0,0],"id":11,"left_children":[1,3,5,-1,7,9,11,-1,-1,-1,-1,-1,-1],"loss_changes":[2.2293976E2,1.0376904E2,9.896971E1,0E0,4.9528778E1,1.9619695E2,1.3186507E2,0E0,0E0,0E0,0E0,0E0,0E0],"parents":[2147483647,0,0,1,1,2,2,4,4,5,5,6,6],"right_children":[2,4,6,-1,8,10,12,-1,-1,-1,-1,-1,-1],"split_conditions":[4.06E1,3.06E2,3E1,2.5035498E-1,3.2E1,3.74E2,2.5E2,-1.5456967E-1,-4.4447723E-1,5.4958016E-2,5.6134856E-1,4.5471635E-2,-2.6591405E-1],"split_indices":[11,0,4,0,11,0,0,0,0,0,0,0,0],"split_type":[0,0,0,0,0,0,0,0,0,0,0,0,0],"sum_hessian":[2.79E2,2.9E1,2.5E2,3E0,2.6E1,1.94E2,5.6E1,1.3E1,1.3E1,1.87E2,7E0,3.5E1,2.1E1],"tree_param":{"num_deleted":"0","num_feature":"30","num_nodes":"13","size_leaf_vector":"1"}},{"base_weights":[-5.0346904E-2,-2.3448455E0,8.2283384E-1,-4.1915236E0,-1.1583649E0,9.820417E-1,-5.073218E-1,-2.1943136E-1,-6.173572E-1,-1.6904825E-1,1.0988126E-1,5.650217E-2,2.578497E-1],"categories":[],"categories_nodes":[],"categories_segments":[],"categories_sizes":[],"default_left":[0,0,0,0,0,0,0,0,0,0,0,0,0],"id":12,"left_children":[1,3,5,7,9,11,-1,-1,-1,-1,-1,-1,-1],"loss_changes":[5.0881796E2,1.48518E2,1.7770251E2,9.333453E1,5.470521E1,1.183788E2,0E0,0E0,0E0,0E0,0E0,0E0,0E0],"parents":[2147483647,0,0,1,1,2,2,3,3,4,4,5,5],"right_children":[2,4,6,8,10,12,-1,-1,-1,-1,-1,-1,-1],"split_conditions":[1.054E2,1E0,3.93E2,2.7E1,7.2E1,7.78E1,-5.073218E-1,-2.1943136E-1,-6.173572E-1,-1.6904825E-1,1.0988126E-1,5.650217E-2,2.578497E-1],"split_indices":[13,20,0,4,5,12,0,0,0,0,0,0,0],"split_type":[0,0,0,0,0,0,0,0,0,0,0,0,0],"sum_hessian":[2.52E2,6.9E1,1.83E2,2.6E1,4.3E1,1.79E2,4E0,1.4E1,1.2E1,3.5E1,8E0,1.43E2,3.6E1],"tree_param":{"num_deleted":"0","num_feature":"30","num_nodes":"13","size_leaf_vector":"1"}},{"base_weights":[2.3185754E-1,-6.175577E-1,1.5749552E0,1.8784958E-1,-3.7345736E0,3.3384671E0,9.4606364E-1,-3.541728E-1,7.081119E-2,-6.1053682E-2,-5.34667E-1,4.797626E-1,9.6179835E-2,-4.3472808E-2,1.5016839E-1],"categories":[],"categories_nodes":[],"categories_segments":[],"categories_sizes":[],"default_left":[0,0,0,0,0,0,0,0,0,0,0,0,0,0,0],"id":13,"left_children":[1,3,5,7,9,11,13,-1,-1,-1,-1,-1,-1,-1,-1],"loss_changes":[2.622267E2,3.5467743E2,9.554773E1,2.2176843E2,1.4278687E2,7.514819E1,5.2054943E1,0E0,0E0,0E0,0E0,0E0,0E0,0E0,0E0],"parents":[2147483647,0,0,1,1,2,2,3,3,4,4,5,5,6,6],"right_children":[2,4,6,8,10,12,14,-1,-1,-1,-1,-1,-1,-1,-1],"split_conditions":[1.322E2,1E0,1E0,6.8E1,2.8E1,7.2E1,9.52E1,-3.541728E-1,7.081119E-2,-6.1053682E-2,-5.34667E-1,4.797626E-1,9.6179835E-2,-4.3472808E-2,1.5016839E-1],"split_indices":[13,18,19,5,17,5,7,0,0,0,0,0,0,0,0],"split_type":[0,0,0,0,0,0,0,0,0,0,0,0,0,0,0],"sum_hessian":[2.28E2,1.4E2,8.8E1,1.12E2,2.8E1,2.2E1,6.6E1,1.3E1,9.9E1,1E1,1.8E1,1.3E1,9E0,1.9E1,4.7E1],"tree_param":{"num_deleted":"0","num_feature":"30","num_nodes":"15","size_leaf_vector":"1"}},{"base_weights":[-9.19841E-2,-2.5267258E0,4.5505986E-1,-2.1954563E0,-5.290556E-1,5.4074466E-1,3.500619E-1,7.6881126E-2,-2.5366965E-1,4.7861595E-2,-5.84377E-1],"categories":[],"categories_nodes":[],"categories_segments":[],"categories_sizes":[],"default_left":[0,0,0,0,0,0,0,0,0,0,0],"id":14,"left_children":[1,3,5,7,-1,-1,9,-1,-1,-1,-1],"loss_changes":[3.194765E2,2.8670013E1,1.00025185E2,4.3422836E1,0E0,0E0,1.5647163E2,0E0,0E0,0E0,0E0],"parents":[2147483647,0,0,1,1,2,2,3,3,6,6],"right_children":[2,4,6,8,-1,-1,10,-1,-1,-1,-1],"split_conditions":[5E1,1E0,5.76E1,2.69E2,-5.290556E-1,5.4074466E-1,3.93E2,7.6881126E-2,-2.5366965E-1,4.7861595E-2,-5.84377E-1],"split_indices":[12,18,12,0,0,0,0,0,0,0,0],"split_type":[0,0,0,0,0,0,0,0,0,0,0],"sum_hessian":[2.38E2,4.3E1,1.95E2,4E1,3E0,3E0,1.92E2,4E0,3.6E1,1.89E2,3E0],"tree_param":{"num_deleted":"0","num_feature":"30","num_nodes":"11","size_leaf_vector":"1"}},{"base_weights":[1.6708049E-1,-2.2810374E-1,1.5178583E0,-4.5331377E-1,3.7584033E0,1.0598907E0,2.8806875E0,2.0170239E-1,-7.4751064E-2,1.5734366E-1,6.642495E-1,3.149804E-2,2.6973847E-1,3.624957E-1,2.998419E-2],"categories":[],"categories_nodes":[],"categories_segments":[],"categories_sizes":[],"default_left":[0,0,0,0,0,0,0,0,0,0,0,0,0,0,0],"id":15,"left_children":[1,3,5,7,9,11,13,-1,-1,-1,-1,-1,-1,-1,-1],"loss_changes":[1.27392075E2,1.67797E2,3.0649887E1,1.2941849E2,5.2564896E1,5.03814E1,2.3884064E1,0E0,0E0,0E0,0E0,0E0,0E0,0E0,0E0],"parents":[2147483647,0,0,1,1,2,2,3,3,4,4,5,5,6,6],"right_children":[2,4,6,8,10,12,14,-1,-1,-1,-1,-1,-1,-1,-1],"split_conditions":[1.616E2,1E0,2.39E2,2.2E1,9.44E1,1E0,1E0,2.0170239E-1,-7.4751064E-2,1.5734366E-1,6.642495E-1,3.149804E-2,2.6973847E-1,3.624957E-1,2.998419E-2],"split_indices":[10,3,0,4,10,18,18,0,0,0,0,0,0,0,0],"split_type":[0,0,0,0,0,0,0,0,0,0,0,0,0,0,0],"sum_hessian":[2.37E2,1.84E2,5.3E1,1.75E2,9E0,4.1E1,1.2E1,1.8E1,1.57E2,6E0,3E0,2.9E1,1.2E1,9E0,3E0],"tree_param":{"num_deleted":"0","num_feature":"30","num_nodes":"15","size_leaf_vector":"1"}},{"base_weights":[3.6153674E-2,-1.1027985E0,5.3548265E-1,-3.0076747E0,-2.024172E-1,2.0657706E0,2.213999E-1,-3.779156E-1,6.7978494E-2,-2.7136257E-1,5.3750765E-2,3.2330918E-1,-4.75449E-2,-4.8379606E-4,2.4841507E-1],"categories":[],"categories_nodes":[],"categories_segments":[],"categories_sizes":[],"default_left":[0,0,0,0,0,0,0,0,0,0,0,0,0,0,0],"id":16,"left_children":[1,3,5,7,9,11,13,-1,-1,-1,-1,-1,-1,-1,-1],"loss_changes":[1.3992493E2,1.2802481E2,8.173158E1,7.084433E1,9.8080086E1,8.756334E1,7.321657E1,0E0,0E0,0E0,0E0,0E0,0E0,0E0,0E0],"parents":[2147483647,0,0,1,1,2,2,3,3,4,4,5,5,6,6],"right_children":[2,4,6,8,10,12,14,-1,-1,-1,-1,-1,-1,-1,-1],"split_conditions":[1.182E2,1E0,9.46E1,3.72E2,2.67E2,2.13E2,3.45E2,-3.779156E-1,6.7978494E-2,-2.7136257E-1,5.3750765E-2,3.2330918E-1,-4.75449E-2,-4.8379606E-4,2.4841507E-1],"split_indices":[13,20,7,0,9,0,0,0,0,0,0,0,0,0,0],"split_type":[0,0,0,0,0,0,0,0,0,0,0,0,0,0,0],"sum_hessian":[2.44E2,7.4E1,1.7E2,2.3E1,5.1E1,2.8E1,1.42E2,1.9E1,4E0,1.1E1,4E1,1.9E1,9E0,1.3E2,1.2E1],"tree_param":{"num_deleted":"0","num_feature":"30","num_nodes":"15","size_leaf_vector":"1"}},{"base_weights":[2.1407191E-1,8.1595737E-1,-1.7738851E0,1.636978E0,-3.600308E-1,8.704222E-1,-2.4705782E0,3.584484E-1,1.22002244E-1,1.6355308E-2,-2.2682445E-1,2.65874E-1,-7.867677E-2,-1.756684E-1,-4.9723253E-1],"categories":[],"categories_nodes":[],"categories_segments":[],"categories_sizes":[],"default_left":[0,0,0,0,0,0,0,0,0,0,0,0,0,0,0],"id":17,"left_children":[1,3,5,7,9,11,13,-1,-1,-1,-1,-1,-1,-1,-1],"loss_changes":[2.778441E2,1.7245026E2,1.0163306E2,8.088931E1,7.430511E1,3.7654797E1,6.806247E1,0E0,0E0,0E0,0E0,0E0,0E0,0E0,0E0],"parents":[2147483647,0,0,1,1,2,2,3,3,4,4,5,5,6,6],"right_children":[2,4,6,8,10,12,14,-1,-1,-1,-1,-1,-1,-1,-1],"split_conditions":[7.9E1,1.49E2,8.1E1,6.36E1,1E0,1E0,6.84E1,3.584484E-1,1.22002244E-1,1.6355308E-2,-2.2682445E-1,2.65874E-1,-7.867677E-2,-1.756684E-1,-4.9723253E-1],"split_indices":[5,10,0,7,18,20,12,0,0,0,0,0,0,0,0],"split_type":[0,0,0,0,0,0,0,0,0,0,0,0,0,0,0],"sum_hessian":[2.3E2,1.77E2,5.3E1,1.04E2,7.3E1,1.1E1,4.2E1,1.7E1,8.7E1,5.8E1,1.5E1,5E0,6E0,3.4E1,8E0],"tree_param":{"num_deleted":"0","num_feature":"30","num_nodes":"15","size_leaf_vector":"1"}},{"base_weights":[-4.1257197E-1,-1.0211976E0,1.2459606E0,-4.733096E-1,-2.692727E0,3.396012E0,9.444818E-3,-2.3687017E-1,-1.865116E-2,-3.8950837E-1,2.1487017E-1,2.7690408E-1,5.099301E-1,6.1245747E-2,-3.610205E-1],"categories":[],"categories_nodes":[],"categories_segments":[],"categories_sizes":[],"default_left":[0,0,0,0,0,0,0,0,0,0,0,0,0,0,0],"id":18,"left_children":[1,3,5,7,9,11,13,-1,-1,-1,-1,-1,-1,-1,-1],"loss_changes":[2.3646848E2,1.5532918E2,1.6745801E2,7.022552E1,2.5285657E2,1.04418335E1,9.170158E1,0E0,0E0,0E0,0E0,0E0,0E0,0E0,0E0],"parents":[2147483647,0,0,1,1,2,2,3,3,4,4,5,5,6,6],"right_children":[2,4,6,8,10,12,14,-1,-1,-1,-1,-1,-1,-1,-1],"split_conditions":[6.2E2,1E0,1E0,3E2,1E0,2.29E2,2.34E2,-2.3687017E-1,-1.865116E-2,-3.8950837E-1,2.1487017E-1,2.7690408E-1,5.099301E-1,6.1245747E-2,-3.610205E-1],"split_indices":[9,18,20,9,21,0,0,0,0,0,0,0,0,0,0],"split_type":[0,0,0,0,0,0,0,0,0,0,0,0,0,0,0],"sum_hessian":[2.32E2,1.7E2,6.2E1,1.29E2,4.1E1,2.2E1,4E1,1.6E1,1.13E2,3.3E1,8E0,1.8E1,4E0,3.5E1,5E0],"tree_param":{"num_deleted":"0","num_feature":"30","num_nodes":"15","size_leaf_vector":"1"}},{"base_weights":[-3.609229E-1,-7.946223E-2,-2.4317012E0,-3.1428638E-1,2.1831064E0,-3.8010356E0,2.7906176E-1,-1.2027643E-2,-6.6318995E-1,-5.9010508E-3,3.3083802E-1,-5.9117985E-1,-2.9038578E-1,-1.14002965E-1,3.047479E-1],"categories":[],"categories_nodes":[],"categories_segments":[],"categories_sizes":[],"default_left":[0,0,0,0,0,0,0,0,0,0,0,0,0,0,0],"id":19,"left_children":[1,3,5,7,9,11,13,-1,-1,-1,-1,-1,-1,-1,-1],"loss_changes":[1.4610028E2,1.18636E2,1.12418976E2,2.4678966E2,5.317814E1,2.070758E1,4.668923E1,0E0,0E0,0E0,0E0,0E0,0E0,0E0,0E0],"parents":[2147483647,0,0,1,1,2,2,3,3,4,4,5,5,6,6],"right_children":[2,4,6,8,10,12,14,-1,-1,-1,-1,-1,-1,-1,-1],"split_conditions":[3.64E2,3.37E2,4.72E1,3.3E2,1E0,3.69E2,4.03E2,-1.2027643E-2,-6.6318995E-1,-5.9010508E-3,3.3083802E-1,-5.9117985E-1,-2.9038578E-1,-1.14002965E-1,3.047479E-1],"split_indices":[0,0,12,0,19,0,0,0,0,0,0,0,0,0,0],"split_type":[0,0,0,0,0,0,0,0,0,0,0,0,0,0,0],"sum_hessian":[2.5E2,2.21E2,2.9E1,2.01E2,2E1,1.9E1,1E1,1.96E2,5E0,7E0,1.3E1,4E0,1.5E1,7E0,3E0],"tree_param":{"num_deleted":"0","num_feature":"30","num_nodes":"15","size_leaf_vector":"1"}},{"base_weights":[1.6369273E-1,1.1917914E-2,2.4698756E0,6.7455846E-1,-3.6940897E-1,1.5876166E0,4.4991833E-1,1.8300971E-1,2.3501098E-2,-6.691885E-2,1.3506751E-1,2.9444918E-1,-9.0090714E-2],"categories":[],"categories_nodes":[],"categories_segments":[],"categories_sizes":[],"default_left":[0,0,0,0,0,0,0,0,0,0,0,0,0],"id":20,"left_children":[1,3,5,7,9,11,-1,-1,-1,-1,-1,-1,-1],"loss_changes":[8.5025536E1,5.8113514E1,1.9712639E1,4.223469E1,7.6188156E1,4.317211E1,0E0,0E0,0E0,0E0,0E0,0E0,0E0],"parents":[2147483647,0,0,1,1,2,2,3,3,4,4,5,5],"right_children":[2,4,6,8,10,12,-1,-1,-1,-1,-1,-1,-1],"split_conditions":[1.16638E4,1.5E2,2.37E2,1E0,3.72E2,2.31E2,4.4991833E-1,1.8300971E-1,2.3501098E-2,-6.691885E-2,1.3506751E-1,2.9444918E-1,-9.0090714E-2],"split_indices":[8,0,0,19,0,0,0,0,0,0,0,0,0],"split_type":[0,0,0,0,0,0,0,0,0,0,0,0,0],"sum_hessian":[2.42E2,2.28E2,1.4E1,8.3E1,1.45E2,1.1E1,3E0,2.2E1,6.1E1,1.24E2,2.1E1,7E0,4E0],"tree_param":{"num_deleted":"0","num_feature":"30","num_nodes":"13","size_leaf_vector":"1"}},{"base_weights":[-8.040737E-2,1.23052604E-1,-2.4115238E0,-2.891913E-2,1.9002444E0,3.9428934E-1,-3.6896431E0,-4.3459658E-2,5.1228534E-2,4.9507234E-1,1.115061E-2,-4.192133E-1,-1.5447426E-1],"categories":[],"categories_nodes":[],"categories_segments":[],"categories_sizes":[],"default_left":[0,0,0,0,0,0,0,0,0,0,0,0,0],"id":21,"left_children":[1,3,5,7,9,-1,11,-1,-1,-1,-1,-1,-1],"loss_changes":[1.2408615E2,6.5144936E1,1.8510364E2,4.9183285E1,1.0312162E2,0E0,1.2924454E1,0E0,0E0,0E0,0E0,0E0,0E0],"parents":[2147483647,0,0,1,1,2,2,3,3,4,4,6,6],"right_children":[2,4,6,8,10,-1,12,-1,-1,-1,-1,-1,-1],"split_conditions":[1E0,1E0,3.56E2,5.536E2,8.8036E3,3.9428934E-1,3.74E2,-4.3459658E-2,5.1228534E-2,4.9507234E-1,1.115061E-2,-4.192133E-1,-1.5447426E-1],"split_indices":[28,3,0,9,8,0,0,0,0,0,0,0,0],"split_type":[0,0,0,0,0,0,0,0,0,0,0,0,0],"sum_hessian":[2.6E2,2.4E2,2E1,2.22E2,1.8E1,3E0,1.7E1,1.27E2,9.5E1,6E0,1.2E1,1.3E1,4E0],"tree_param":{"num_deleted":"0","num_feature":"30","num_nodes":"13","size_leaf_vector":"1"}},{"base_weights":[-1.1539467E-1,-3.302132E-1,1.3006966E0,-4.9423674E-1,1.510616E0,2.874343E-1,9.170332E-1,-7.3141665E-3,-1.4303331E-1,3.4972635E-1,-8.646164E-2,-1.17688276E-1,1.4234011E-1],"categories":[],"categories_nodes":[],"categories_segments":[],"categories_sizes":[],"default_left":[0,0,0,0,0,0,0,0,0,0,0,0,0],"id":22,"left_children":[1,3,5,7,9,-1,11,-1,-1,-1,-1,-1,-1],"loss_changes":[7.617596E1,6.626743E1,1.7287903E1,7.873249E1,8.796129E1,0E0,3.1363346E1,0E0,0E0,0E0,0E0,0E0,0E0],"parents":[2147483647,0,0,1,1,2,2,3,3,4,4,6,6],"right_children":[2,4,6,8,10,-1,12,-1,-1,-1,-1,-1,-1],"split_conditions":[9.3E1,1E0,2.07E2,3.08E2,9.8E1,2.874343E-1,2.19E2,-7.3141665E-3,-1.4303331E-1,3.4972635E-1,-8.646164E-2,-1.17688276E-1,1.4234011E-1],"split_indices":[12,2,0,0,10,0,0,0,0,0,0,0,0],"split_type":[0,0,0,0,0,0,0,0,0,0,0,0,0],"sum_hessian":[2.48E2,2.16E2,3.2E1,1.99E2,1.7E1,5E0,2.7E1,1.38E2,6.1E1,9E0,8E0,5E0,2.2E1],"tree_param":{"num_deleted":"0","num_feature":"30","num_nodes":"13","size_leaf_vector":"1"}},{"base_weights":[6.206576E-2,-5.323701E-1,6.811636E-1,-1.08450934E-1,-2.7101312E0,2.284571E0,1.5694165E-1,-3.5866636E-1,1.4109946E-2,-4.1368642E-1,-5.2923444E-3,5.572141E-1,1.5356742E-1,-3.5456162E-2,2.9589996E-1],"categories":[],"categories_nodes":[],"categories_segments":[],"categories_sizes":[],"default_left":[0,0,0,0,0,0,0,0,0,0,0,0,0,0,0],"id":23,"left_children":[1,3,5,7,9,11,13,-1,-1,-1,-1,-1,-1,-1,-1],"loss_changes":[8.868599E1,1.13259026E2,9.882535E1,9.077696E1,7.560358E1,6.2842453E1,1.300427E2,0E0,0E0,0E0,0E0,0E0,0E0,0E0,0E0],"parents":[2147483647,0,0,1,1,2,2,3,3,4,4,5,5,6,6],"right_children":[2,4,6,8,10,12,14,-1,-1,-1,-1,-1,-1,-1,-1],"split_conditions":[4.838E2,1E0,1E0,7E1,2.4E1,1E0,2.35E2,-3.5866636E-1,1.4109946E-2,-4.1368642E-1,-5.2923444E-3,5.572141E-1,1.5356742E-1,-3.5456162E-2,2.9589996E-1],"split_indices":[9,18,19,0,4,18,0,0,0,0,0,0,0,0,0],"split_type":[0,0,0,0,0,0,0,0,0,0,0,0,0,0,0],"sum_hessian":[2.39E2,1.22E2,1.17E2,1.03E2,1.9E1,2.8E1,8.9E1,6E0,9.7E1,1.2E1,7E0,4E0,2.4E1,7.6E1,1.3E1],"tree_param":{"num_deleted":"0","num_feature":"30","num_nodes":"15","size_leaf_vector":"1"}},{"base_weights":[1.3637386E-1,-1.0550835E0,2.9352406E-1,8.670791E-2,-1.3973128E0,1.2973015E-1,2.5124726E0,-4.6294084E-1,-5.612275E-2,3.9864853E-2,-9.895244E-2,4.8128802E-1,-1.0199392E-2],"categories":[],"categories_nodes":[],"categories_segments":[],"categories_sizes":[],"default_left":[0,0,0,0,0,0,0,0,0,0,0,0,0],"id":24,"left_children":[1,3,5,-1,7,9,11,-1,-1,-1,-1,-1,-1],"loss_changes":[4.655742E1,2.0288368E1,7.926966E1,0E0,6.495953E1,6.2097042E1,9.070596E1,0E0,0E0,0E0,0E0,0E0,0E0],"parents":[2147483647,0,0,1,1,2,2,4,4,5,5,6,6],"right_children":[2,4,6,-1,8,10,12,-1,-1,-1,-1,-1,-1],"split_conditions":[4.06E1,3.08E2,3.74E2,8.670791E-2,3.13E2,3E1,3.88E2,-4.6294084E-1,-5.612275E-2,3.9864853E-2,-9.895244E-2,4.8128802E-1,-1.0199392E-2],"split_indices":[11,0,0,0,0,4,0,0,0,0,0,0,0],"split_type":[0,0,0,0,0,0,0,0,0,0,0,0,0],"sum_hessian":[2.46E2,2.8E1,2.18E2,4E0,2.4E1,2.04E2,1.4E1,4E0,2E1,1.65E2,3.9E1,7E0,7E0],"tree_param":{"num_deleted":"0","num_feature":"30","num_nodes":"13","size_leaf_vector":"1"}},{"base_weights":[-3.1097192E-1,5.3958565E-2,-1.5731696E0,-2.5516963E0,2.8148052E-1,-3.1509142E0,-1.482574E-1,-4.9837956E-1,-1.6070735E-1,4.5984056E-2,-1.7468077E-1,-4.0043375E-1,2.7573538E-1,-1.6714256E-1,6.5665245E-2],"categories":[],"categories_nodes":[],"categories_segments":[],"categories_sizes":[],"default_left":[0,0,0,0,0,0,0,0,0,0,0,0,0,0,0],"id":25,"left_children":[1,3,5,7,9,11,13,-1,-1,-1,-1,-1,-1,-1,-1],"loss_changes":[1.1708093E2,1.18101295E2,1.2767726E2,2.8749344E1,6.700635E1,1.4718222E2,3.910395E1,0E0,0E0,0E0,0E0,0E0,0E0,0E0,0E0],"parents":[2147483647,0,0,1,1,2,2,3,3,4,4,5,5,6,6],"right_children":[2,4,6,8,10,12,14,-1,-1,-1,-1,-1,-1,-1,-1],"split_conditions":[1E0,3.2E0,9.7E1,1E0,1E0,1E0,9.24E1,-4.9837956E-1,-1.6070735E-1,4.5984056E-2,-1.7468077E-1,-4.0043375E-1,2.7573538E-1,-1.6714256E-1,6.5665245E-2],"split_indices":[18,14,7,20,26,3,10,0,0,0,0,0,0,0,0],"split_type":[0,0,0,0,0,0,0,0,0,0,0,0,0,0,0],"sum_hessian":[2.53E2,1.97E2,5.6E1,1.5E1,1.82E2,2.6E1,3E1,3E0,1.2E1,1.68E2,1.4E1,2.3E1,3E0,1E1,2E1],"tree_param":{"num_deleted":"0","num_feature":"30","num_nodes":"15","size_leaf_vector":"1"}},{"base_weights":[1.5229824E-1,-5.591098E-1,5.7007456E-1,-7.5328547E-1,2.381984E-1,-9.714376E-3,1.2118372E0,-4.269752E-2,-3.255808E-1,1.1645823E-1,-7.185403E-2,1.5706431E-2,1.619118E-1],"categories":[],"categories_nodes":[],"categories_segments":[],"categories_sizes":[],"default_left":[0,0,0,0,0,0,0,0,0,0,0,0,0],"id":26,"left_children":[1,3,5,7,-1,9,11,-1,-1,-1,-1,-1,-1],"loss_changes":[7.4621086E1,5.4905563E1,5.8801483E1,7.0470535E1,0E0,7.075604E1,3.1964867E1,0E0,0E0,0E0,0E0,0E0,0E0],"parents":[2147483647,0,0,1,1,2,2,3,3,5,5,6,6],"right_children":[2,4,6,8,-1,10,12,-1,-1,-1,-1,-1,-1],"split_conditions":[5.14E1,4.03E2,1.41E2,3.93E2,2.381984E-1,4.9E1,1.7E2,-4.269752E-2,-3.255808E-1,1.1645823E-1,-7.185403E-2,1.5706431E-2,1.619118E-1],"split_indices":[11,0,0,0,0,0,6,0,0,0,0,0,0],"split_type":[0,0,0,0,0,0,0,0,0,0,0,0,0],"sum_hessian":[2.49E2,9.2E1,1.57E2,8.7E1,5E0,8.3E1,7.4E1,7.8E1,9E0,3.1E1,5.2E1,2.1E1,5.3E1],"tree_param":{"num_deleted":"0","num_feature":"30","num_nodes":"13","size_leaf_vector":"1"}},{"base_weights":[3.2617882E-2,-1.4437287E-1,2.4565134E0,1.9667319E0,-3.4099773E-1,3.8224921E0,-1.5863335E-1,-1.658418E-1,4.5216998E-1,-1.732039E-1,-1.4783333E-2,4.8301148E-1,1.2442726E-1],"categories":[],"categories_nodes":[],"categories_segments":[],"categories_sizes":[],"default_left":[0,0,0,0,0,0,0,0,0,0,0,0,0],"id":27,"left_children":[1,3,5,7,9,11,-1,-1,-1,-1,-1,-1,-1],"loss_changes":[1.0717742E2,9.7387955E1,9.9945274E1,1.927417E2,5.7245667E1,2.776236E1,0E0,0E0,0E0,0E0,0E0,0E0,0E0],"parents":[2147483647,0,0,1,1,2,2,3,3,4,4,5,5],"right_children":[2,4,6,8,10,12,-1,-1,-1,-1,-1,-1,-1],"split_conditions":[1E0,5.8E1,9.82E1,2.68E2,4.3E1,6.546E2,-1.5863335E-1,-1.658418E-1,4.5216998E-1,-1.732039E-1,-1.4783333E-2,4.8301148E-1,1.2442726E-1],"split_indices":[3,7,7,0,11,9,0,0,0,0,0,0,0],"split_type":[0,0,0,0,0,0,0,0,0,0,0,0,0],"sum_hessian":[2.48E2,2.32E2,1.6E1,1.9E1,2.13E2,1.2E1,4E0,8E0,1.1E1,2.5E1,1.88E2,8E0,4E0],"tree_param":{"num_deleted":"0","num_feature":"30","num_nodes":"13","size_leaf_vector":"1"}},{"base_weights":[-2.3774331E-2,-3.5381742E0,1.0233472E-1,-6.813237E-1,-7.651032E-2,-1.4371993E-1,1.5293459E0,1.4647001E-1,-3.727338E-2,2.8706643E-1,-4.5971395E-3],"categories":[],"categories_nodes":[],"categories_segments":[],"categories_sizes":[],"default_left":[0,0,0,0,0,0,0,0,0,0,0],"id":28,"left_children":[1,3,5,-1,-1,7,9,-1,-1,-1,-1],"loss_changes":[1.1515026E2,7.6525E1,8.835161E1,0E0,0E0,7.974129E1,7.8313034E1,0E0,0E0,0E0,0E0],"parents":[2147483647,0,0,1,1,2,2,5,5,6,6],"right_children":[2,4,6,-1,-1,8,10,-1,-1,-1,-1],"split_conditions":[4.88E1,3.85E2,3.37E2,-6.813237E-1,-7.651032E-2,3.3E1,3.64E2,1.4647001E-1,-3.727338E-2,2.8706643E-1,-4.5971395E-3],"split_indices":[7,0,0,0,0,0,0,0,0,0,0],"split_type":[0,0,0,0,0,0,0,0,0,0,0],"sum_hessian":[2.58E2,8E0,2.5E2,3E0,5E0,2.14E2,3.6E1,2.6E1,1.88E2,1.9E1,1.7E1],"tree_param":{"num_deleted":"0","num_feature":"30","num_nodes":"11","size_leaf_vector":"1"}},{"base_weights":[2.6715398E-1,1.3571377E-1,2.9832284E0,2.4709097E-1,-2.093858E0,1.168824E0,5.28963E-1,5.296358E-2,-8.0483176E-2,-4.4522294E-1,2.0983079E-1,2.7758208E-1,-3.5053827E-2],"categories":[],"categories_nodes":[],"categories_segments":[],"categories_sizes":[],"default_left":[0,0,0,0,0,0,0,0,0,0,0,0,0],"id":29,"left_children":[1,3,5,7,9,11,-1,-1,-1,-1,-1,-1,-1],"loss_changes":[9.27725E1,6.259824E1,4.403431E1,7.146072E1,1.2798236E2,2.0505913E1,0E0,0E0,0E0,0E0,0E0,0E0,0E0],"parents":[2147483647,0,0,1,1,2,2,3,3,4,4,5,5],"right_children":[2,4,6,8,10,12,-1,-1,-1,-1,-1,-1,-1],"split_conditions":[1.16638E4,7.418E2,2.35E2,1E0,1E0,2.29E2,5.28963E-1,5.296358E-2,-8.0483176E-2,-4.4522294E-1,2.0983079E-1,2.7758208E-1,-3.5053827E-2],"split_indices":[8,9,0,18,18,0,0,0,0,0,0,0,0],"split_type":[0,0,0,0,0,0,0,0,0,0,0,0,0],"sum_hessian":[2.6E2,2.49E2,1.1E1,2.38E2,1.1E1,7E0,4E0,1.88E2,5E1,7E0,4E0,3E0,4E0],"tree_param":{"num_deleted":"0","num_feature":"30","num_nodes":"13","size_leaf_vector":"1"}},{"base_weights":[4.3509612E-4,-1.9781637E0,2.3031199E-1,-1.253652E0,-5.060187E-1,5.0751823E-1,-1.9856013E0,-2.910337E-1,-4.0029146E-2,3.467105E-2,2.4858952E-1,-3.406356E-1,3.5547656E-1],"categories":[],"categories_nodes":[],"categories_segments":[],"categories_sizes":[],"default_left":[0,0,0,0,0,0,0,0,0,0,0,0,0],"id":30,"left_children":[1,3,5,7,-1,9,11,-1,-1,-1,-1,-1,-1],"loss_changes":[1.2235114E2,5.6179214E1,1.4904562E2,3.276501E1,0E0,6.753785E1,2.2463933E2,0E0,0E0,0E0,0E0,0E0,0E0],"parents":[2147483647,0,0,1,1,2,2,3,3,5,5,6,6],"right_children":[2,4,6,8,-1,10,12,-1,-1,-1,-1,-1,-1],"split_conditions":[6.32E1,1E0,3.3E1,3.9E1,-5.060187E-1,1.16638E4,1E0,-2.910337E-1,-4.0029146E-2,3.467105E-2,2.4858952E-1,-3.406356E-1,3.5547656E-1],"split_indices":[7,18,4,0,0,8,18,0,0,0,0,0,0],"split_type":[0,0,0,0,0,0,0,0,0,0,0,0,0],"sum_hessian":[2.67E2,2.7E1,2.4E2,2.3E1,4E0,2.14E2,2.6E1,7E0,1.6E1,1.99E2,1.5E1,2.1E1,5E0],"tree_param":{"num_deleted":"0","num_feature":"30","num_nodes":"13","size_leaf_vector":"1"}},{"base_weights":[-1.0162986E-1,5.330919E-1,-1.621831E0,1.4073887E0,-9.210569E-3,-4.587098E0,-1.0783426E0,9.094538E-2,3.227467E-1,2.7071342E-1,-4.3801017E-2,-6.0286236E-1,-2.9021373E-1,-2.3689337E-1,-2.2339074E-2],"categories":[],"categories_nodes":[],"categories_segments":[],"categories_sizes":[],"default_left":[0,0,0,0,0,0,0,0,0,0,0,0,0,0,0],"id":31,"left_children":[1,3,5,7,9,11,13,-1,-1,-1,-1,-1,-1,-1,-1],"loss_changes":[2.3919606E2,8.29863E1,1.1269948E2,5.7785538E1,1.2814542E2,9.222168E0,6.898458E1,0E0,0E0,0E0,0E0,0E0,0E0,0E0,0E0],"parents":[2147483647,0,0,1,1,2,2,3,3,4,4,5,5,6,6],"right_children":[2,4,6,8,10,12,14,-1,-1,-1,-1,-1,-1,-1,-1],"split_conditions":[3.08E2,1.72E2,3.22E2,2.53E2,5.2E1,1E0,4.72E1,9.094538E-2,3.227467E-1,2.7071342E-1,-4.3801017E-2,-6.0286236E-1,-2.9021373E-1,-2.3689337E-1,-2.2339074E-2],"split_indices":[0,6,0,0,0,20,12,0,0,0,0,0,0,0,0],"split_type":[0,0,0,0,0,0,0,0,0,0,0,0,0,0,0],"sum_hessian":[2.46E2,1.74E2,7.2E1,6.6E1,1.08E2,1E1,6.2E1,5.3E1,1.3E1,1.4E1,9.4E1,4E0,6E0,2.4E1,3.8E1],"tree_param":{"num_deleted":"0","num_feature":"30","num_nodes":"15","size_leaf_vector":"1"}},{"base_weights":[-4.646489E-1,-3.282238E-1,-3.561491E-1,6.0477567E-1,-6.482564E-1,3.2701513E-1,2.7934372E-2,-5.056594E-2,-5.623579E-1],"categories":[],"categories_nodes":[],"categories_segments":[],"categories_sizes":[],"default_left":[0,0,0,0,0,0,0,0,0],"id":32,"left_children":[1,-1,3,5,7,-1,-1,-1,-1],"loss_changes":[7.403515E1,0E0,6.719702E1,4.7660805E1,1.2698871E2,0E0,0E0,0E0,0E0],"parents":[2147483647,0,0,2,2,3,3,4,4],"right_children":[2,-1,4,6,8,-1,-1,-1,-1],"split_conditions":[4.88E1,-3.282238E-1,5.86E1,2.2E1,3.93E2,3.2701513E-1,2.7934372E-2,-5.056594E-2,-5.623579E-1],"split_indices":[7,0,12,4,0,0,0,0,0],"split_type":[0,0,0,0,0,0,0,0,0],"sum_hessian":[2.45E2,8E0,2.37E2,5.5E1,1.82E2,5E0,5E1,1.78E2,4E0],"tree_param":{"num_deleted":"0","num_feature":"30","num_nodes":"9","size_leaf_vector":"1"}},{"base_weights":[2.8896692E-1,-2.58341E-1,6.6285855E-1,-8.8691145E-1,8.401851E-1,-3.4646988E-1,1.0206088E0,-3.1559024E-2,-2.185171E-1,6.5660477E-4,1.6734587E-1,-4.983034E-1,1.6414434E-2,1.17976E-1,-2.589347E-1],"categories":[],"categories_nodes":[],"categories_segments":[],"categories_sizes":[],"default_left":[0,0,0,0,0,0,0,0,0,0,0,0,0,0,0],"id":33,"left_children":[1,3,5,7,9,11,13,-1,-1,-1,-1,-1,-1,-1,-1],"loss_changes":[5.1738976E1,7.186678E1,5.451674E1,4.8264114E1,2.6385056E1,9.551775E1,6.682747E1,0E0,0E0,0E0,0E0,0E0,0E0,0E0,0E0],"parents":[2147483647,0,0,1,1,2,2,3,3,4,4,5,5,6,6],"right_children":[2,4,6,8,10,12,14,-1,-1,-1,-1,-1,-1,-1,-1],"split_conditions":[1.68E2,1.00218E4,4.4E0,9.7E1,1.15E2,2.76E2,3.98E2,-3.1559024E-2,-2.185171E-1,6.5660477E-4,1.6734587E-1,-4.983034E-1,1.6414434E-2,1.17976E-1,-2.589347E-1],"split_indices":[0,8,14,0,0,0,0,0,0,0,0,0,0,0,0],"split_type":[0,0,0,0,0,0,0,0,0,0,0,0,0,0,0],"sum_hessian":[2.51E2,1.02E2,1.49E2,6.5E1,3.7E1,3.9E1,1.1E2,4.6E1,1.9E1,1.9E1,1.8E1,3E0,3.6E1,1.06E2,4E0],"tree_param":{"num_deleted":"0","num_feature":"30","num_nodes":"15","size_leaf_vector":"1"}},{"base_weights":[1.1285191E-2,4.2803383E-1,-5.471072E-1,2.3201105E-1,4.175329E-1,-3.0602057E0,7.2918095E-2,1.2568377E-1,-1.2191976E-2,-2.2918181E-1,-5.7528985E-1,4.3771052E-1,-4.8701428E-2],"categories":[],"categories_nodes":[],"categories_segments":[],"categories_sizes":[],"default_left":[0,0,0,0,0,0,0,0,0,0,0,0,0],"id":34,"left_children":[1,3,5,7,-1,9,11,-1,-1,-1,-1,-1,-1],"loss_changes":[5.771337E1,1.0333813E2,1.6539072E2,4.948284E1,0E0,3.026506E1,2.0939633E2,0E0,0E0,0E0,0E0,0E0,0E0],"parents":[2147483647,0,0,1,1,2,2,3,3,5,5,6,6],"right_children":[2,4,6,8,-1,10,12,-1,-1,-1,-1,-1,-1],"split_conditions":[2.31E2,2.21E2,2.64E2,1E0,4.175329E-1,1E0,2.79E2,1.2568377E-1,-1.2191976E-2,-2.2918181E-1,-5.7528985E-1,4.3771052E-1,-4.8701428E-2],"split_indices":[0,0,0,19,0,18,0,0,0,0,0,0,0],"split_type":[0,0,0,0,0,0,0,0,0,0,0,0,0],"sum_hessian":[2.46E2,1.41E2,1.05E2,1.35E2,6E0,2E1,8.5E1,3.4E1,1.01E2,1.7E1,3E0,9E0,7.6E1],"tree_param":{"num_deleted":"0","num_feature":"30","num_nodes":"13","size_leaf_vector":"1"}},{"base_weights":[5.0465393E-1,6.5988266E-1,-1.259141E0,3.2774992E0,5.2224874E-1,-3.8555038E0,4.3547785E-1,4.7855522E-2,5.5301934E-1,3.8781904E-2,1.5703249E-1,-1.0037315E-1,-6.4563435E-1,2.577717E-1,-8.030414E-2],"categories":[],"categories_nodes":[],"categories_segments":[],"categories_sizes":[],"default_left":[0,0,0,0,0,0,0,0,0,0,0,0,0,0,0],"id":35,"left_children":[1,3,5,7,9,11,13,-1,-1,-1,-1,-1,-1,-1,-1],"loss_changes":[6.736226E1,7.8989456E1,8.967589E1,6.6710304E1,2.9542011E1,5.2855583E1,3.656167E1,0E0,0E0,0E0,0E0,0E0,0E0,0E0,0E0],"parents":[2147483647,0,0,1,1,2,2,3,3,4,4,5,5,6,6],"right_children":[2,4,6,8,10,12,14,-1,-1,-1,-1,-1,-1,-1,-1],"split_conditions":[1E0,5.8E1,1E0,1E0,1.14668E4,3.63E2,3.63E2,4.7855522E-2,5.5301934E-1,3.8781904E-2,1.5703249E-1,-1.0037315E-1,-6.4563435E-1,2.577717E-1,-8.030414E-2],"split_indices":[28,7,20,20,8,0,0,0,0,0,0,0,0,0,0],"split_type":[0,0,0,0,0,0,0,0,0,0,0,0,0,0,0],"sum_hessian":[2.42E2,2.23E2,1.9E1,1E1,2.13E2,7E0,1.2E1,5E0,5E0,1.9E2,2.3E1,4E0,3E0,4E0,8E0],"tree_param":{"num_deleted":"0","num_feature":"30","num_nodes":"15","size_leaf_vector":"1"}},{"base_weights":[1.7633475E-1,7.3085225E-1,-5.9956074E-1,5.204658E-1,5.7043636E-1,4.306921E-1,-1.1355578E0,-8.788403E-3,1.4425358E-1,9.353932E-2,-2.3328292E-1,-1.3859087E-1,3.3417106E-1],"categories":[],"categories_nodes":[],"categories_segments":[],"categories_sizes":[],"default_left":[0,0,0,0,0,0,0,0,0,0,0,0,0],"id":36,"left_children":[1,3,5,-1,7,9,11,-1,-1,-1,-1,-1,-1],"loss_changes":[1.0929084E2,1.0324615E2,5.90236E1,0E0,8.2800156E1,5.378795E1,8.3093506E1,0E0,0E0,0E0,0E0,0E0,0E0],"parents":[2147483647,0,0,1,1,2,2,4,4,5,5,6,6],"right_children":[2,4,6,-1,8,10,12,-1,-1,-1,-1,-1,-1],"split_conditions":[1.408E2,3.3E1,1E0,5.204658E-1,2.76E2,1E0,1E0,-8.788403E-3,1.4425358E-1,9.353932E-2,-2.3328292E-1,-1.3859087E-1,3.3417106E-1],"split_indices":[10,0,20,0,0,23,3,0,0,0,0,0,0],"split_type":[0,0,0,0,0,0,0,0,0,0,0,0,0],"sum_hessian":[2.52E2,1.47E2,1.05E2,4E0,1.43E2,3.6E1,6.9E1,8.2E1,6.1E1,3.1E1,5E0,6.6E1,3E0],"tree_param":{"num_deleted":"0","num_feature":"30","num_nodes":"13","size_leaf_vector":"1"}},{"base_weights":[-1.1436807E-1,-4.3585846E-1,-4.2556167E-2,5.3416163E-2,-2.0279322E0,-1.7850062E-2,6.772337E-2,1.9846943E-1,-4.6043894E-1],"categories":[],"categories_nodes":[],"categories_segments":[],"categories_sizes":[],"default_left":[0,0,0,0,0,0,0,0,0],"id":37,"left_children":[1,-1,3,5,7,-1,-1,-1,-1],"loss_changes":[7.326777E1,0E0,4.5457123E1,3.3106503E1,1.2286026E2,0E0,0E0,0E0,0E0],"parents":[2147483647,0,0,2,2,3,3,4,4],"right_children":[2,-1,4,6,8,-1,-1,-1,-1],"split_conditions":[2.6E1,-4.3585846E-1,1.16638E4,1.0662E4,2.31E2,-1.7850062E-2,6.772337E-2,1.9846943E-1,-4.6043894E-1],"split_indices":[17,0,8,8,0,0,0,0,0],"split_type":[0,0,0,0,0,0,0,0,0],"sum_hessian":[2.4E2,3E0,2.37E2,2.27E2,1E1,1.66E2,6.1E1,4E0,6E0],"tree_param":{"num_deleted":"0","num_feature":"30","num_nodes":"9","size_leaf_vector":"1"}},{"base_weights":[-1.6939037E-1,4.3147534E-1,-9.0580976E-1,-2.5588179E-2,3.0227206E0,-1.7368491E-1,-3.045704E0,-2.4692353E-2,2.7316505E-1,3.3107522E-1,9.708977E-2,-1.6415642E-1,3.8826413E-2,-6.2515324E-1,-2.2827101E-1],"categories":[],"categories_nodes":[],"categories_segments":[],"categories_sizes":[],"default_left":[0,0,0,0,0,0,0,0,0,0,0,0,0,0,0],"id":38,"left_children":[1,3,5,7,9,11,13,-1,-1,-1,-1,-1,-1,-1,-1],"loss_changes":[1.1234059E2,1.6588826E2,1.7807135E2,7.3907425E1,9.196396E0,7.157646E1,5.6664337E1,0E0,0E0,0E0,0E0,0E0,0E0,0E0,0E0],"parents":[2147483647,0,0,1,1,2,2,3,3,4,4,5,5,6,6],"right_children":[2,4,6,8,10,12,14,-1,-1,-1,-1,-1,-1,-1,-1],"split_conditions":[2.32E2,7.418E2,1.0033E4,2.02E2,1E0,2.65E1,2.37E2,-2.4692353E-2,2.7316505E-1,3.3107522E-1,9.708977E-2,-1.6415642E-1,3.8826413E-2,-6.2515324E-1,-2.2827101E-1],"split_indices":[0,9,8,0,3,17,0,0,0,0,0,0,0,0,0],"split_type":[0,0,0,0,0,0,0,0,0,0,0,0,0,0,0],"sum_hessian":[2.52E2,1.39E2,1.13E2,1.19E2,2E1,8.5E1,2.8E1,1.11E2,8E0,1.7E1,3E0,2.3E1,6.2E1,4E0,2.4E1],"tree_param":{"num_deleted":"0","num_feature":"30","num_nodes":"15","size_leaf_vector":"1"}},{"base_weights":[1.4454834E-1,4.1508946E-1,-2.8133798E0,1.0786302E0,3.0732136E-2,-3.1184715E-1,-3.731964E0,4.0181574E-1,8.145409E-2,-2.6617092E-1,1.39677515E-2,-1.23816155E-1,6.924291E-2,-8.681664E-1,-1.9219054E-1],"categories":[],"categories_nodes":[],"categories_segments":[],"categories_sizes":[],"default_left":[0,0,0,0,0,0,0,0,0,0,0,0,0,0,0],"id":39,"left_children":[1,3,5,7,9,11,13,-1,-1,-1,-1,-1,-1,-1,-1],"loss_changes":[2.1003075E2,6.1175667E1,4.9389297E1,6.504124E1,4.525112E1,7.3692684E0,1.2666263E2,0E0,0E0,0E0,0E0,0E0,0E0,0E0,0E0],"parents":[2147483647,0,0,1,1,2,2,3,3,4,4,5,5,6,6],"right_children":[2,4,6,8,10,12,14,-1,-1,-1,-1,-1,-1,-1,-1],"split_conditions":[1.14668E4,9.24E1,2.31E2,3.8E1,9.4E1,2.26E2,2.37E2,4.0181574E-1,8.145409E-2,-2.6617092E-1,1.39677515E-2,-1.23816155E-1,6.924291E-2,-8.681664E-1,-1.9219054E-1],"split_indices":[8,10,0,0,10,0,0,0,0,0,0,0,0,0,0],"split_type":[0,0,0,0,0,0,0,0,0,0,0,0,0,0,0],"sum_hessian":[2.6E2,2.39E2,2.1E1,8.7E1,1.52E2,6E0,1.5E1,6E0,8.1E1,5E0,1.47E2,3E0,3E0,3E0,1.2E1],"tree_param":{"num_deleted":"0","num_feature":"30","num_nodes":"15","size_leaf_vector":"1"}},{"base_weights":[6.6010274E-2,7.0117444E-1,-6.321255E-1,8.392464E-1,-2.7251717E-1,2.0446987E0,-8.5769564E-1,-1.3407306E-1,1.0736952E-1,9.312534E-2,2.7492043E-1,-3.3408937E-1,-5.87278E-2],"categories":[],"categories_nodes":[],"categories_segments":[],"categories_sizes":[],"default_left":[0,0,0,0,0,0,0,0,0,0,0,0,0],"id":40,"left_children":[1,3,5,7,-1,9,11,-1,-1,-1,-1,-1,-1],"loss_changes":[1.04206055E2,6.0476185E1,6.938062E1,6.2259613E1,0E0,4.499649E0,6.787402E1,0E0,0E0,0E0,0E0,0E0,0E0],"parents":[2147483647,0,0,1,1,2,2,3,3,5,5,6,6],"right_children":[2,4,6,8,-1,10,12,-1,-1,-1,-1,-1,-1],"split_conditions":[2.6E1,4.08E2,5.2E1,1.7E1,-2.7251717E-1,1E0,6.8E1,-1.3407306E-1,1.0736952E-1,9.312534E-2,2.7492043E-1,-3.3408937E-1,-5.87278E-2],"split_indices":[4,0,0,0,0,18,0,0,0,0,0,0,0],"split_type":[0,0,0,0,0,0,0,0,0,0,0,0,0],"sum_hessian":[2.33E2,1.22E2,1.11E2,1.18E2,4E0,8E0,1.03E2,1.1E1,1.07E2,4E0,4E0,9E0,9.4E1],"tree_param":{"num_deleted":"0","num_feature":"30","num_nodes":"13","size_leaf_vector":"1"}},{"base_weights":[-1.2680843E-1,4.1858193E-1,-8.7747467E-1,4.537873E-1,2.970298E-1,-1.5725476E0,-4.9659085E-1,2.3099051E-1,1.060022E-2,-2.906765E-1,-9.475884E-2,-1.3614229E-2,-2.3519933E-1],"categories":[],"categories_nodes":[],"categories_segments":[],"categories_sizes":[],"default_left":[0,0,0,0,0,0,0,0,0,0,0,0,0],"id":41,"left_children":[1,3,5,-1,7,9,11,-1,-1,-1,-1,-1,-1],"loss_changes":[1.0026238E2,6.975273E1,2.6487518E1,0E0,5.320269E1,2.7263512E1,4.5156635E1,0E0,0E0,0E0,0E0,0E0,0E0],"parents":[2147483647,0,0,1,1,2,2,4,4,5,5,6,6],"right_children":[2,4,6,-1,8,10,12,-1,-1,-1,-1,-1,-1],"split_conditions":[2.95E1,3.68E1,4.16E2,4.537873E-1,6.5E1,1E0,3.64E2,2.3099051E-1,1.060022E-2,-2.906765E-1,-9.475884E-2,-1.3614229E-2,-2.3519933E-1],"split_indices":[17,10,9,0,0,19,0,0,0,0,0,0,0],"split_type":[0,0,0,0,0,0,0,0,0,0,0,0,0],"sum_hessian":[2.43E2,1.41E2,1.02E2,3E0,1.38E2,3.5E1,6.7E1,1.1E1,1.27E2,1E1,2.5E1,5.7E1,1E1],"tree_param":{"num_deleted":"0","num_feature":"30","num_nodes":"13","size_leaf_vector":"1"}},{"base_weights":[-1.9912103E-2,6.621654E-1,-6.159509E-1,1.2967749E0,-1.1606668E0,-9.4385594E-1,1.316696E0,-5.6815207E-2,1.9270256E-1,-2.7882594E-1,7.613157E-2,-1.1747446E-1,2.3199847E-1,2.7746737E-2,4.3788886E-1],"categories":[],"categories_nodes":[],"categories_segments":[],"categories_sizes":[],"default_left":[0,0,0,0,0,0,0,0,0,0,0,0,0,0,0],"id":42,"left_children":[1,3,5,7,9,11,13,-1,-1,-1,-1,-1,-1,-1,-1],"loss_changes":[1.0285711E2,1.3800594E2,8.679562E1,1.0452753E2,9.909708E1,9.014112E1,6.2431377E1,0E0,0E0,0E0,0E0,0E0,0E0,0E0,0E0],"parents":[2147483647,0,0,1,1,2,2,3,3,4,4,5,5,6,6],"right_children":[2,4,6,8,10,12,14,-1,-1,-1,-1,-1,-1,-1,-1],"split_conditions":[2.5E1,1E0,7.78E1,6E0,4.08E2,1E0,1.1E1,-5.6815207E-2,1.9270256E-1,-2.7882594E-1,7.613157E-2,-1.1747446E-1,2.3199847E-1,2.7746737E-2,4.3788886E-1],"split_indices":[4,18,12,1,9,3,1,0,0,0,0,0,0,0,0],"split_type":[0,0,0,0,0,0,0,0,0,0,0,0,0,0,0],"sum_hessian":[2.51E2,1.17E2,1.34E2,8.7E1,3E1,1.15E2,1.9E1,2.2E1,6.5E1,1.6E1,1.4E1,1.08E2,7E0,1.5E1,4E0],"tree_param":{"num_deleted":"0","num_feature":"30","num_nodes":"15","size_leaf_vector":"1"}},{"base_weights":[2.7977046E-1,5.031126E-1,-6.236605E-1,8.687001E-1,-4.3571702E-1,-1.154808E0,2.804076E-1,-6.0669286E-3,1.4373222E-1,-7.292753E-2,3.6362478E-1,-2.3842592E-2,-4.692025E-1],"categories":[],"categories_nodes":[],"categories_segments":[],"categories_sizes":[],"default_left":[0,0,0,0,0,0,0,0,0,0,0,0,0],"id":43,"left_children":[1,3,5,7,9,11,-1,-1,-1,-1,-1,-1,-1],"loss_changes":[5.075733E1,6.936659E1,9.426987E1,7.6713875E1,7.078726E1,1.4150476E2,0E0,0E0,0E0,0E0,0E0,0E0,0E0],"parents":[2147483647,0,0,1,1,2,2,3,3,4,4,5,5],"right_children":[2,4,6,8,10,12,-1,-1,-1,-1,-1,-1,-1],"split_conditions":[1E0,5.82E2,3.3E1,2.85E1,2.39E2,2.9E1,2.804076E-1,-6.0669286E-3,1.4373222E-1,-7.292753E-2,3.6362478E-1,-2.3842592E-2,-4.692025E-1],"split_indices":[18,9,4,17,0,4,0,0,0,0,0,0,0],"split_type":[0,0,0,0,0,0,0,0,0,0,0,0,0],"sum_hessian":[2.49E2,2E2,4.9E1,1.44E2,5.6E1,4.3E1,6E0,5.5E1,8.9E1,5.3E1,3E0,3.5E1,8E0],"tree_param":{"num_deleted":"0","num_feature":"30","num_nodes":"13","size_leaf_vector":"1"}},{"base_weights":[-4.1947696E-2,1.762319E-1,-1.4423152E0,4.6707305E-1,-8.0079216E-1,-4.4878632E-1,-5.993096E-1,3.7655678E-2,3.993584E-1,-1.9627026E-1,-6.2821577E-3,-1.7195888E-1,2.8471434E-1],"categories":[],"categories_nodes":[],"categories_segments":[],"categories_sizes":[],"default_left":[0,0,0,0,0,0,0,0,0,0,0,0,0],"id":44,"left_children":[1,3,5,7,9,-1,11,-1,-1,-1,-1,-1,-1],"loss_changes":[7.48039E1,6.0615692E1,8.2035034E1,5.084606E1,4.1892036E1,0E0,1.0914264E2,0E0,0E0,0E0,0E0,0E0,0E0],"parents":[2147483647,0,0,1,1,2,2,3,3,4,4,6,6],"right_children":[2,4,6,8,10,-1,12,-1,-1,-1,-1,-1,-1],"split_conditions":[3.63E2,3E1,3.72E2,3.58E2,1.97E2,-4.4878632E-1,2.85E1,3.7655678E-2,3.993584E-1,-1.9627026E-1,-6.2821577E-3,-1.7195888E-1,2.8471434E-1],"split_indices":[0,4,0,0,0,0,17,0,0,0,0,0,0],"split_type":[0,0,0,0,0,0,0,0,0,0,0,0,0],"sum_hessian":[2.43E2,2.11E2,3.2E1,1.63E2,4.8E1,6E0,2.6E1,1.6E2,3E0,1.8E1,3E1,2E1,6E0],"tree_param":{"num_deleted":"0","num_feature":"30","num_nodes":"13","size_leaf_vector":"1"}},{"base_weights":[-4.8468006E-1,-1.269352E-1,-1.6930678E0,-2.1511738E0,1.8935482E-1,-2.3603616E0,4.9038023E-1,-9.940874E-2,-3.2254198E-1,6.1470747E-2,-1.2219318E-1,-3.9531508E-1,-1.8386285E-1,-1.8980174E-1,1.3967012E-1],"categories":[],"categories_nodes":[],"categories_segments":[],"categories_sizes":[],"default_left":[0,0,0,0,0,0,0,0,0,0,0,0,0,0,0],"id":45,"left_children":[1,3,5,7,9,11,13,-1,-1,-1,-1,-1,-1,-1,-1],"loss_changes":[9.834823E1,1.13730965E2,7.6921555E1,2.6625542E1,9.319648E1,2.5972061E1,3.079148E1,0E0,0E0,0E0,0E0,0E0,0E0,0E0,0E0],"parents":[2147483647,0,0,1,1,2,2,3,3,4,4,5,5,6,6],"right_children":[2,4,6,8,10,12,14,-1,-1,-1,-1,-1,-1,-1,-1],"split_conditions":[1.07432E4,4.06E1,1E0,3E0,1E0,9.7E1,1.71E2,-9.940874E-2,-3.2254198E-1,6.1470747E-2,-1.2219318E-1,-3.9531508E-1,-1.8386285E-1,-1.8980174E-1,1.3967012E-1],"split_indices":[8,11,18,14,18,7,6,0,0,0,0,0,0,0,0],"split_type":[0,0,0,0,0,0,0,0,0,0,0,0,0,0,0],"sum_hessian":[2.27E2,1.76E2,5.1E1,2.3E1,1.53E2,3.9E1,1.2E1,1.2E1,1.1E1,1.18E2,3.5E1,8E0,3.1E1,3E0,9E0],"tree_param":{"num_deleted":"0","num_feature":"30","num_nodes":"15","size_leaf_vector":"1"}},{"base_weights":[-2.4987166E-1,-5.468346E-1,1.6114687E0,-1.3472698E0,-1.7374428E-2,2.2906048E0,-1.238266E-1,8.135558E-2,-1.7293192E-1,6.90082E-2,-1.0238053E-1,2.9701102E-1,-5.826826E-2],"categories":[],"categories_nodes":[],"categories_segments":[],"categories_sizes":[],"default_left":[0,0,0,0,0,0,0,0,0,0,0,0,0],"id":46,"left_children":[1,3,5,7,9,11,-1,-1,-1,-1,-1,-1,-1],"loss_changes":[1.3243549E2,8.727908E1,6.6703186E1,6.9101364E1,8.970726E1,5.4445816E1,0E0,0E0,0E0,0E0,0E0,0E0,0E0],"parents":[2147483647,0,0,1,1,2,2,3,3,4,4,5,5],"right_children":[2,4,6,8,10,12,-1,-1,-1,-1,-1,-1,-1],"split_conditions":[1E0,2.9E1,1E0,6.5E1,2.31E2,3.1E1,-1.238266E-1,8.135558E-2,-1.7293192E-1,6.90082E-2,-1.0238053E-1,2.9701102E-1,-5.826826E-2],"split_indices":[23,17,18,0,0,4,0,0,0,0,0,0,0],"split_type":[0,0,0,0,0,0,0,0,0,0,0,0,0],"sum_hessian":[2.37E2,2.05E2,3.2E1,8.1E1,1.24E2,2.6E1,6E0,1.2E1,6.9E1,7.3E1,5.1E1,2.1E1,5E0],"tree_param":{"num_deleted":"0","num_feature":"30","num_nodes":"13","size_leaf_vector":"1"}},{"base_weights":[2.8235665E-1,7.663136E-1,-5.102296E-1,5.3404635E-1,5.6008154E-1,-7.504665E-1,-3.8264636E-2,6.4334214E-2,-3.588763E-1,1.5258116E-1,-6.9751136E-2],"categories":[],"categories_nodes":[],"categories_segments":[],"categories_sizes":[],"default_left":[0,0,0,0,0,0,0,0,0,0,0],"id":47,"left_children":[1,3,5,7,-1,-1,9,-1,-1,-1,-1],"loss_changes":[9.5901825E1,1.7105789E2,3.1332004E2,6.9449066E1,0E0,0E0,9.3864365E1,0E0,0E0,0E0,0E0],"parents":[2147483647,0,0,1,1,2,2,3,3,6,6],"right_children":[2,4,6,8,-1,-1,10,-1,-1,-1,-1],"split_conditions":[2.5E2,2.37E2,2.6E2,2.34E2,5.6008154E-1,-7.504665E-1,3.06E2,6.4334214E-2,-3.588763E-1,1.5258116E-1,-6.9751136E-2],"split_indices":[0,0,0,0,0,0,0,0,0,0,0],"split_type":[0,0,0,0,0,0,0,0,0,0,0],"sum_hessian":[2.48E2,1.54E2,9.4E1,1.48E2,6E0,5E0,8.9E1,1.45E2,3E0,2.6E1,6.3E1],"tree_param":{"num_deleted":"0","num_feature":"30","num_nodes":"11","size_leaf_vector":"1"}},{"base_weights":[1.8389921E-1,6.779553E-1,-5.114478E-1,8.5791063E-1,-1.0800458E0,-6.638721E-1,-1.9996966E-1,5.2114584E-2,1.9491646E-1,5.035643E-2,-2.330699E-1,-1.306096E-1,5.2863725E-2],"categories":[],"categories_nodes":[],"categories_segments":[],"categories_sizes":[],"default_left":[0,0,0,0,0,0,0,0,0,0,0,0,0],"id":48,"left_children":[1,3,5,7,9,-1,11,-1,-1,-1,-1,-1,-1],"loss_changes":[8.58883E1,4.7115395E1,1.9715765E2,4.786116E1,2.8901314E1,0E0,8.128358E1,0E0,0E0,0E0,0E0,0E0,0E0],"parents":[2147483647,0,0,1,1,2,2,3,3,4,4,6,6],"right_children":[2,4,6,8,10,-1,12,-1,-1,-1,-1,-1,-1],"split_conditions":[2.5E2,2.582E2,2.56E2,1.68E2,2.05E2,-6.638721E-1,2.4E1,5.2114584E-2,1.9491646E-1,5.035643E-2,-2.330699E-1,-1.306096E-1,5.2863725E-2],"split_indices":[0,10,0,0,0,0,4,0,0,0,0,0,0],"split_type":[0,0,0,0,0,0,0,0,0,0,0,0,0],"sum_hessian":[2.48E2,1.45E2,1.03E2,1.32E2,1.3E1,4E0,9.9E1,1.02E2,3E1,6E0,7E0,3.9E1,6E1],"tree_param":{"num_deleted":"0","num_feature":"30","num_nodes":"13","size_leaf_vector":"1"}},{"base_weights":[-3.2609427E-1,2.8497937E-1,-7.651607E-1,-1.0535907E0,4.7102752E-1,-9.783766E-1,6.0569715E-1,1.5983376E-1,-2.4098185E-1,6.390574E-2,-2.04391E-1,-2.1967475E-1,-6.0403503E-2,3.4334216E-1,-8.514291E-2],"categories":[],"categories_nodes":[],"categories_segments":[],"categories_sizes":[],"default_left":[0,0,0,0,0,0,0,0,0,0,0,0,0,0,0],"id":49,"left_children":[1,3,5,7,9,11,13,-1,-1,-1,-1,-1,-1,-1,-1],"loss_changes":[6.648862E1,2.6396276E1,4.268219E1,5.0607742E1,4.018396E1,5.5683937E1,8.5330345E1,0E0,0E0,0E0,0E0,0E0,0E0,0E0,0E0],"parents":[2147483647,0,0,1,1,2,2,3,3,4,4,5,5,6,6],"right_children":[2,4,6,8,10,12,14,-1,-1,-1,-1,-1,-1,-1,-1],"split_conditions":[7E1,1.7E1,1E0,1E0,1E0,8.9E1,7.8E1,1.5983376E-1,-2.4098185E-1,6.390574E-2,-2.04391E-1,-2.1967475E-1,-6.0403503E-2,3.4334216E-1,-8.514291E-2],"split_indices":[5,0,2,20,3,0,0,0,0,0,0,0,0,0,0],"split_type":[0,0,0,0,0,0,0,0,0,0,0,0,0,0,0],"sum_hessian":[2.46E2,1.03E2,1.43E2,1.2E1,9.1E1,1.24E2,1.9E1,4E0,8E0,8.6E1,5E0,2.8E1,9.6E1,6E0,1.3E1],"tree_param":{"num_deleted":"0","num_feature":"30","num_nodes":"15","size_leaf_vector":"1"}}]},"name":"gbtree"},"learner_model_param":{"base_score":"1.8268116E1","boost_from_average":"1","num_class":"0","num_feature":"30","num_target":"1"},"objective":{"name":"reg:squarederror","reg_loss_param":{"scale_pos_weight":"1"}}},"version":[2,1,0]}