{"learner":{"attributes":{"scikit_learn":"{\"_estimator_type\": \"regressor\"}"},"feature_names":["Unnamed: 0","jugador_anonimizado","gol","asistencia","edad","peso","altura","minutos_predictor","avg_dist_sess_m_predictor","zona_4_19.9_25.1_kmh_predictor","zona_5_mas_25.1_kmh_predictor","num_aceleraciones_intensas_predictor","num_desaceleraciones_intensas_predictor","num_acel_desintensas_predictor","num_sprints_total_predictor","gol_predictor","asistencia_predictor","max_vel_kmh_predictor","torneo_Libertadores","torneo_Torneo Local","categoria_partido_Normal","posicion_habitual_Delantero","posicion_habitual_Extremo","posicion_habitual_Lateral","posicion_habitual_Lateral ","posicion_habitual_Lateral / Volante","posicion_habitual_Volante / Extremo","posicion_habitual_Volante Central","posicion_habitual_Volante Ofensivo","posicion_habitual_Volante Ofensivo / Extremo"],"feature_types":["int","int","int","int","int","int","int","float","float","float","float","float","float","float","float","float","float","float","i","i","i","i","i","i","i","i","i","i","i","i"],"gradient_booster":{"model":{"gbtree_model_param":{"num_parallel_tree":"1","num_trees":"50"},"iteration_indptr":[0,1,2,3,4,5,6,7,8,9,10,11,12,13,14,15,16,17,18,19,20,21,22,23,24,25,26,27,28,29,30,31,32,33,34,35,36,37,38,39,40,41,42,43,44,45,46,47,48,49,50],"tree_info":[0,0,0,0,0,0,0,0,0,0,0,0,0,0,0,0,0,0,0,0,0,0,0,0,0,0,0,0,0,0,0,0,0,0,0,0,0,0,0,0,0,0,0,0,0,0,0,0,0,0],"trees":[{"base_weights":[-9.8336285E-1,-6.1005096E0,3.674573E1,-2.3107069E1,-1.2483599E0,2.3556246E1,4.544615E0,-1.4250907E0,-2.6595056E0,-5.9451884E-1,5.7476187E-1,2.899912E0,2.699275E-1],"categories":[],"categories_nodes":[],"categories_segments":[],"categories_sizes":[],"default_left":[0,0,0,0,0,0,0,0,0,0,0,0,0],"id":0,"left_children":[1,3,5,7,9,11,-1,-1,-1,-1,-1,-1,-1],"loss_changes":[4.8490496E4,1.8207715E4,2.372082E3,1.1346172E3,5.7187617E3,1.5110293E3,0E0,0E0,0E0,0E0,0E0,0E0,0E0],"parents":[2147483647,0,0,1,1,2,2,3,3,4,4,5,5],"right_children":[2,4,6,8,10,12,-1,-1,-1,-1,-1,-1,-1],"split_conditions":[9.3E1,4.82E1,2.21E2,3.3E2,9.82E1,2.15E2,4.544615E0,-1.4250907E0,-2.6595056E0,-5.9451884E-1,5.7476187E-1,2.899912E0,2.699275E-1],"split_indices":[12,12,0,0,7,0,0,0,0,0,0,0,0],"split_type":[0,0,0,0,0,0,0,0,0,0,0,0,0],"sum_hessian":[2.49E2,2.2E2,2.9E1,4.8E1,1.72E2,1.3E1,1.6E1,1.5E1,3.3E1,1.03E2,6.9E1,1E1,3E0],"tree_param":{"num_deleted":"0","num_feature":"30","num_nodes":"13","size_leaf_vector":"1"}},{"base_weights":[6.802077E-1,-8.699012E0,1.7290344E1,-1.4711974E1,3.0527549E0,8.703215E0,3.3906853E1,-2.1941261E0,-9.779076E-1,4.5172253E-1,-1.7114662E0,-9.045157E-1,1.0083191E0,4.3562527E0,2.07033E0],"categories":[],"categories_nodes":[],"categories_segments":[],"categories_sizes":[],"default_left":[0,0,0,0,0,0,0,0,0,0,0,0,0,0,0],"id":1,"left_children":[1,3,5,7,9,11,13,-1,-1,-1,-1,-1,-1,-1,-1],"loss_changes":[3.97211E4,1.156297E4,1.2832211E4,3.6368594E3,1.7312473E3,1.6097285E3,3.0502773E3,0E0,0E0,0E0,0E0,0E0,0E0,0E0,0E0],"parents":[2147483647,0,0,1,1,2,2,3,3,4,4,5,5,6,6],"right_children":[2,4,6,8,10,12,14,-1,-1,-1,-1,-1,-1,-1,-1],"split_conditions":[5.74E2,9.82E1,1.98E2,9.06E1,3.93E2,7E0,1E0,-2.1941261E0,-9.779076E-1,4.5172253E-1,-1.7114662E0,-9.045157E-1,1.0083191E0,4.3562527E0,2.07033E0],"split_indices":[9,7,0,13,0,0,20,0,0,0,0,0,0,0,0],"split_type":[0,0,0,0,0,0,0,0,0,0,0,0,0,0,0],"sum_hessian":[2.53E2,1.62E2,9.1E1,1.07E2,5.5E1,6.1E1,3E1,4.2E1,6.5E1,5.2E1,3E0,4E0,5.7E1,1.6E1,1.4E1],"tree_param":{"num_deleted":"0","num_feature":"30","num_nodes":"15","size_leaf_vector":"1"}},{"base_weights":[-1.4506015E0,-9.200035E0,1.9706198E1,-2.293106E1,-3.1333175E0,7.8083005E0,2.7742989E1,-9.6214026E-1,-2.35139E0,-1.838958E0,-1.6595916E-1,-5.974388E-2,1.7553189E0,3.3680017E0,1.3278168E0],"categories":[],"categories_nodes":[],"categories_segments":[],"categories_sizes":[],"default_left":[0,0,0,0,0,0,0,0,0,0,0,0,0,0,0],"id":2,"left_children":[1,3,5,7,9,11,13,-1,-1,-1,-1,-1,-1,-1,-1],"loss_changes":[4.0349836E4,1.4922557E4,6.0943555E3,2.0041797E2,2.8024077E3,2.3040503E3,2.9020332E3,0E0,0E0,0E0,0E0,0E0,0E0,0E0,0E0],"parents":[2147483647,0,0,1,1,2,2,3,3,4,4,5,5,6,6],"right_children":[2,4,6,8,10,12,14,-1,-1,-1,-1,-1,-1,-1,-1],"split_conditions":[6.5E1,1.03E2,1.97E2,2.1E1,6.6E1,6.3E1,2.32E2,-9.6214026E-1,-2.35139E0,-1.838958E0,-1.6595916E-1,-5.974388E-2,1.7553189E0,3.3680017E0,1.3278168E0],"split_indices":[11,13,0,4,5,5,0,0,0,0,0,0,0,0,0],"split_type":[0,0,0,0,0,0,0,0,0,0,0,0,0,0,0],"sum_hessian":[2.44E2,1.79E2,6.5E1,5.4E1,1.25E2,2.7E1,3.8E1,3E0,5.1E1,1E1,1.15E2,1.5E1,1.2E1,2.6E1,1.2E1],"tree_param":{"num_deleted":"0","num_feature":"30","num_nodes":"15","size_leaf_vector":"1"}},{"base_weights":[-7.641772E-1,-1.526376E1,7.1743627E0,-1.9417612E1,-1.0955329E1,3.168661E0,1.9418352E1,-2.8575754E0,-1.684309E0,-1.2152665E0,-2.719416E-1,1.9951425E-1,1.7550766E0,2.3426182E0,5.4530257E-1],"categories":[],"categories_nodes":[],"categories_segments":[],"categories_sizes":[],"default_left":[0,0,0,0,0,0,0,0,0,0,0,0,0,0,0],"id":3,"left_children":[1,3,5,7,9,11,13,-1,-1,-1,-1,-1,-1,-1,-1],"loss_changes":[2.8310357E4,1.3442773E3,7.7367466E3,5.32542E2,4.1070312E2,2.0071815E3,2.0551133E3,0E0,0E0,0E0,0E0,0E0,0E0,0E0,0E0],"parents":[2147483647,0,0,1,1,2,2,3,3,4,4,5,5,6,6],"right_children":[2,4,6,8,10,12,14,-1,-1,-1,-1,-1,-1,-1,-1],"split_conditions":[6.2E1,4.84E1,9.3E1,1E0,3.14E2,1E0,1E0,-2.8575754E0,-1.684309E0,-1.2152665E0,-2.719416E-1,1.9951425E-1,1.7550766E0,2.3426182E0,5.4530257E-1],"split_indices":[12,12,12,19,0,3,18,0,0,0,0,0,0,0,0],"split_type":[0,0,0,0,0,0,0,0,0,0,0,0,0,0,0],"sum_hessian":[2.44E2,8.6E1,1.58E2,4.2E1,4.4E1,1.2E2,3.8E1,7E0,3.5E1,3.8E1,6E0,1.12E2,8E0,2.9E1,9E0],"tree_param":{"num_deleted":"0","num_feature":"30","num_nodes":"15","size_leaf_vector":"1"}},{"base_weights":[1.3590632E-2,-4.2173023E0,2.72118E1,-1.1283625E1,1.7343112E0,6.2477336E0,3.7877934E1,-1.7381715E0,-9.106266E-1,-1.855107E-1,7.3814255E-1,1.4436435E0,-5.711824E-1,4.484165E0,1.0673788E0],"categories":[],"categories_nodes":[],"categories_segments":[],"categories_sizes":[],"default_left":[0,0,0,0,0,0,0,0,0,0,0,0,0,0,0],"id":4,"left_children":[1,3,5,7,9,11,13,-1,-1,-1,-1,-1,-1,-1,-1],"loss_changes":[2.9918594E4,9.482174E3,7.589543E3,1.2093223E3,2.5068853E3,1.3555906E3,3.8785352E3,0E0,0E0,0E0,0E0,0E0,0E0,0E0,0E0],"parents":[2147483647,0,0,1,1,2,2,3,3,4,4,5,5,6,6],"right_children":[2,4,6,8,10,12,14,-1,-1,-1,-1,-1,-1,-1,-1],"split_conditions":[9.3E1,6.2E1,2.21E2,4.72E1,1.0662E4,2.05E2,1E0,-1.7381715E0,-9.106266E-1,-1.855107E-1,7.3814255E-1,1.4436435E0,-5.711824E-1,4.484165E0,1.0673788E0],"split_indices":[12,12,0,12,8,0,2,0,0,0,0,0,0,0,0],"split_type":[0,0,0,0,0,0,0,0,0,0,0,0,0,0,0],"sum_hessian":[2.58E2,2.24E2,3.4E1,1.02E2,1.22E2,1.2E1,2.2E1,2.5E1,7.7E1,7.5E1,4.7E1,7E0,5E0,1.7E1,5E0],"tree_param":{"num_deleted":"0","num_feature":"30","num_nodes":"15","size_leaf_vector":"1"}},{"base_weights":[1.5302197E0,-6.677678E0,1.3753538E1,-1.1102385E1,7.8074825E-1,7.736378E0,2.4509485E1,-1.3948646E0,-6.270806E-1,2.9491052E-1,-1.0789617E0,1.6256558E0,3.662369E-1,2.8225272E0,1.7403964E0],"categories":[],"categories_nodes":[],"categories_segments":[],"categories_sizes":[],"default_left":[0,0,0,0,0,0,0,0,0,0,0,0,0,0,0],"id":5,"left_children":[1,3,5,7,9,11,13,-1,-1,-1,-1,-1,-1,-1,-1],"loss_changes":[2.7481314E4,5.420889E3,6.9296133E3,1.3289795E3,1.5873179E3,2.4396758E3,5.384707E2,0E0,0E0,0E0,0E0,0E0,0E0,0E0,0E0],"parents":[2147483647,0,0,1,1,2,2,3,3,4,4,5,5,6,6],"right_children":[2,4,6,8,10,12,14,-1,-1,-1,-1,-1,-1,-1,-1],"split_conditions":[5.72E1,9.7E1,1.97E2,5.3E1,3.93E2,1E0,2.34E2,-1.3948646E0,-6.270806E-1,2.9491052E-1,-1.0789617E0,1.6256558E0,3.662369E-1,2.8225272E0,1.7403964E0],"split_indices":[11,7,0,11,0,19,0,0,0,0,0,0,0,0,0],"split_type":[0,0,0,0,0,0,0,0,0,0,0,0,0,0,0],"sum_hessian":[2.72E2,1.63E2,1.09E2,1.02E2,6.1E1,7.1E1,3.8E1,6.3E1,3.9E1,5.2E1,9E0,2.2E1,4.9E1,2.3E1,1.5E1],"tree_param":{"num_deleted":"0","num_feature":"30","num_nodes":"15","size_leaf_vector":"1"}},{"base_weights":[-6.8400925E-1,-7.878461E0,9.241196E0,-2.8654015E0,-1.5303805E1,5.6770306E0,2.9772495E1,-9.627885E-1,-5.3247787E-2,-1.725705E0,-9.220053E-1,1.3744782E0,2.3108028E-1,3.474406E0,1.9127272E0],"categories":[],"categories_nodes":[],"categories_segments":[],"categories_sizes":[],"default_left":[0,0,0,0,0,0,0,0,0,0,0,0,0,0,0],"id":6,"left_children":[1,3,5,7,9,11,13,-1,-1,-1,-1,-1,-1,-1,-1],"loss_changes":[1.7495969E4,5.241913E3,7.368205E3,1.3516399E3,5.1822266E2,2.3852913E3,1.2929395E2,0E0,0E0,0E0,0E0,0E0,0E0,0E0,0E0],"parents":[2147483647,0,0,1,1,2,2,3,3,4,4,5,5,6,6],"right_children":[2,4,6,8,10,12,14,-1,-1,-1,-1,-1,-1,-1,-1],"split_conditions":[1.322E2,6E0,9.04E2,5.86E1,3.74E2,1E0,2.31E2,-9.627885E-1,-5.3247787E-2,-1.725705E0,-9.220053E-1,1.3744782E0,2.3108028E-1,3.474406E0,1.9127272E0],"split_indices":[13,14,9,12,0,20,0,0,0,0,0,0,0,0,0],"split_type":[0,0,0,0,0,0,0,0,0,0,0,0,0,0,0],"sum_hessian":[2.43E2,1.41E2,1.02E2,8.5E1,5.6E1,8.8E1,1.4E1,2.1E1,6.4E1,4.1E1,1.5E1,2.5E1,6.3E1,8E0,6E0],"tree_param":{"num_deleted":"0","num_feature":"30","num_nodes":"15","size_leaf_vector":"1"}},{"base_weights":[1.6618677E0,-1.1765089E0,1.9845928E1,-1.2189794E1,1.0701281E0,1.1521311E1,2.906738E1,-9.149955E-1,-2.3476274E0,2.2638004E-2,1.1696919E0,1.6602248E0,-2.2544281E-1,3.5825021E0,1.2960083E0],"categories":[],"categories_nodes":[],"categories_segments":[],"categories_sizes":[],"default_left":[0,0,0,0,0,0,0,0,0,0,0,0,0,0,0],"id":7,"left_children":[1,3,5,7,9,11,13,-1,-1,-1,-1,-1,-1,-1,-1],"loss_changes":[1.2616973E4,5.2585293E3,2.1983525E3,1.02031934E3,1.5843932E3,1.3673083E3,1.168415E3,0E0,0E0,0E0,0E0,0E0,0E0,0E0,0E0],"parents":[2147483647,0,0,1,1,2,2,3,3,4,4,5,5,6,6],"right_children":[2,4,6,8,10,12,14,-1,-1,-1,-1,-1,-1,-1,-1],"split_conditions":[9.3E1,4.82E1,2.23E2,1E0,1E0,2.13E2,2.42E2,-9.149955E-1,-2.3476274E0,2.2638004E-2,1.1696919E0,1.6602248E0,-2.2544281E-1,3.5825021E0,1.2960083E0],"split_indices":[12,12,0,18,3,0,0,0,0,0,0,0,0,0,0],"split_type":[0,0,0,0,0,0,0,0,0,0,0,0,0,0,0],"sum_hessian":[2.43E2,2.11E2,3.2E1,3.5E1,1.76E2,1.8E1,1.4E1,2.9E1,6E0,1.64E2,1.2E1,1.3E1,5E0,9E0,5E0],"tree_param":{"num_deleted":"0","num_feature":"30","num_nodes":"15","size_leaf_vector":"1"}},{"base_weights":[3.5071453E-1,-9.266971E0,5.784619E0,-1.8111178E0,-7.423723E0,3.6767097E0,2.605649E1,-8.7749434E-1,6.2663205E-2,-1.213363E0,4.3188602E-1,3.7542756E0,1.1313165E0],"categories":[],"categories_nodes":[],"categories_segments":[],"categories_sizes":[],"default_left":[0,0,0,0,0,0,0,0,0,0,0,0,0],"id":8,"left_children":[1,3,5,-1,7,9,11,-1,-1,-1,-1,-1,-1],"loss_changes":[1.3171264E4,1.3490347E3,6.7839326E3,0E0,8.4308936E2,1.5448374E3,2.115458E3,0E0,0E0,0E0,0E0,0E0,0E0],"parents":[2147483647,0,0,1,1,2,2,4,4,5,5,6,6],"right_children":[2,4,6,-1,8,10,12,-1,-1,-1,-1,-1,-1],"split_conditions":[6.2E1,4.9E1,1.14668E4,-1.8111178E0,3.66E2,9E0,2.31E2,-8.7749434E-1,6.2663205E-2,-1.213363E0,4.3188602E-1,3.7542756E0,1.1313165E0],"split_indices":[12,7,8,0,0,0,0,0,0,0,0,0,0],"split_type":[0,0,0,0,0,0,0,0,0,0,0,0,0],"sum_hessian":[2.5E2,9E1,1.6E2,1.4E1,7.6E1,1.46E2,1.4E1,6.5E1,1.1E1,5E0,1.41E2,7E0,7E0],"tree_param":{"num_deleted":"0","num_feature":"30","num_nodes":"13","size_leaf_vector":"1"}},{"base_weights":[-7.500481E-2,-2.8251076E0,1.2845827E1,-9.001111E0,5.182358E-1,1.8269958E1,5.0327144E0,-1.0651597E0,-4.259792E-1,-9.873339E-2,5.670084E-1,1.1616772E0,3.7402256E0,-2.3058767E0,1.671244E0],"categories":[],"categories_nodes":[],"categories_segments":[],"categories_sizes":[],"default_left":[0,0,0,0,0,0,0,0,0,0,0,0,0,0,0],"id":9,"left_children":[1,3,5,7,9,11,13,-1,-1,-1,-1,-1,-1,-1,-1],"loss_changes":[8.706492E3,4.1756616E3,1.7303652E3,5.1023584E2,1.0294517E3,2.7477754E3,6.6192847E3,0E0,0E0,0E0,0E0,0E0,0E0,0E0,0E0],"parents":[2147483647,0,0,1,1,2,2,3,3,4,4,5,5,6,6],"right_children":[2,4,6,8,10,12,14,-1,-1,-1,-1,-1,-1,-1,-1],"split_conditions":[7.78E1,5.96E1,2.32E2,3.75E2,1E0,2.24E2,2.39E2,-1.0651597E0,-4.259792E-1,-9.873339E-2,5.670084E-1,1.1616772E0,3.7402256E0,-2.3058767E0,1.671244E0],"split_indices":[12,12,0,0,18,0,0,0,0,0,0,0,0,0,0],"split_type":[0,0,0,0,0,0,0,0,0,0,0,0,0,0,0],"sum_hessian":[2.43E2,2.01E2,4.2E1,7E1,1.31E2,2.4E1,1.8E1,5.1E1,1.9E1,1.02E2,2.9E1,1.9E1,5E0,5E0,1.3E1],"tree_param":{"num_deleted":"0","num_feature":"30","num_nodes":"15","size_leaf_vector":"1"}},{"base_weights":[-2.1966556E-1,-5.373254E0,6.776451E0,-2.9417644E0,-1.0130875E1,4.858816E0,2.1006226E1,-3.9909506E-1,1.8210636E0,-8.3754414E-1,-2.4605775E0,-1.5927514E0,5.890825E-1,5.797028E-1,2.4989283E0],"categories":[],"categories_nodes":[],"categories_segments":[],"categories_sizes":[],"default_left":[0,0,0,0,0,0,0,0,0,0,0,0,0,0,0],"id":10,"left_children":[1,3,5,7,9,11,13,-1,-1,-1,-1,-1,-1,-1,-1],"loss_changes":[9.518904E3,1.7285493E3,2.9541362E3,2.336344E3,1.0898115E3,2.2389934E3,6.4266504E2,0E0,0E0,0E0,0E0,0E0,0E0,0E0,0E0],"parents":[2147483647,0,0,1,1,2,2,3,3,4,4,5,5,6,6],"right_children":[2,4,6,8,10,12,14,-1,-1,-1,-1,-1,-1,-1,-1],"split_conditions":[4.838E2,3.21E2,9.04E2,3.14E2,5.12E1,9E0,2.29E2,-3.9909506E-1,1.8210636E0,-8.3754414E-1,-2.4605775E0,-1.5927514E0,5.890825E-1,5.797028E-1,2.4989283E0],"split_indices":[9,0,9,0,11,0,0,0,0,0,0,0,0,0,0],"split_type":[0,0,0,0,0,0,0,0,0,0,0,0,0,0,0],"sum_hessian":[2.62E2,1.51E2,1.11E2,1.01E2,5E1,9.9E1,1.2E1,9.7E1,4E0,4.6E1,4E0,4E0,9.5E1,3E0,9E0],"tree_param":{"num_deleted":"0","num_feature":"30","num_nodes":"15","size_leaf_vector":"1"}},{"base_weights":[-1.545501E-1,-4.1428533E0,6.046853E0,-7.5878944E0,1.1869581E0,2.8366716E0,1.0620745E1,-6.3675237E-1,-1.6413444E0,2.7205896E-1,-1.2566203E0,1.2470297E0,-2.965169E-1,6.210522E-1,1.3330874E0],"categories":[],"categories_nodes":[],"categories_segments":[],"categories_sizes":[],"default_left":[0,0,0,0,0,0,0,0,0,0,0,0,0,0,0],"id":11,"left_children":[1,3,5,7,9,11,13,-1,-1,-1,-1,-1,-1,-1,-1],"loss_changes":[6.950312E3,3.1488098E3,1.5850054E3,1.0156128E3,1.4684628E3,3.7258984E3,4.5506055E2,0E0,0E0,0E0,0E0,0E0,0E0,0E0,0E0],"parents":[2147483647,0,0,1,1,2,2,3,3,4,4,5,5,6,6],"right_children":[2,4,6,8,10,12,14,-1,-1,-1,-1,-1,-1,-1,-1],"split_conditions":[6.14E1,9.7E1,9.82E1,5.46E1,3.93E2,1E0,1E0,-6.3675237E-1,-1.6413444E0,2.7205896E-1,-1.2566203E0,1.2470297E0,-2.965169E-1,6.210522E-1,1.3330874E0],"split_indices":[11,7,7,11,0,20,20,0,0,0,0,0,0,0,0],"split_type":[0,0,0,0,0,0,0,0,0,0,0,0,0,0,0],"sum_hessian":[2.79E2,1.7E2,1.09E2,1.03E2,6.7E1,6.5E1,4.4E1,9.2E1,1.1E1,6.1E1,6E0,2.4E1,4.1E1,1.8E1,2.6E1],"tree_param":{"num_deleted":"0","num_feature":"30","num_nodes":"15","size_leaf_vector":"1"}},{"base_weights":[-5.317316E-1,-9.796079E0,3.1362066E0,-4.825303E0,-1.2337442E1,-1.6036773E-1,7.7361703E0,-1.0694373E0,-2.1001522E-1,-5.4322314E-1,-1.3614609E0,5.1779132E-2,-1.4098371E0,1.1440711E0,5.8938384E-2],"categories":[],"categories_nodes":[],"categories_segments":[],"categories_sizes":[],"default_left":[0,0,0,0,0,0,0,0,0,0,0,0,0,0,0],"id":12,"left_children":[1,3,5,7,9,11,13,-1,-1,-1,-1,-1,-1,-1,-1],"loss_changes":[8.627929E3,8.500117E2,2.7611106E3,3.9338672E2,3.4053955E2,1.0186835E3,2.0053999E3,0E0,0E0,0E0,0E0,0E0,0E0,0E0,0E0],"parents":[2147483647,0,0,1,1,2,2,3,3,4,4,5,5,6,6],"right_children":[2,4,6,8,10,12,14,-1,-1,-1,-1,-1,-1,-1,-1],"split_conditions":[1.112E2,5.76E1,7.6E1,2.87E2,2.69E2,3.93E2,2.31E2,-1.0694373E0,-2.1001522E-1,-5.4322314E-1,-1.3614609E0,5.1779132E-2,-1.4098371E0,1.1440711E0,5.8938384E-2],"split_indices":[13,10,12,0,0,0,0,0,0,0,0,0,0,0,0],"split_type":[0,0,0,0,0,0,0,0,0,0,0,0,0,0,0],"sum_hessian":[2.52E2,7.1E1,1.81E2,2.5E1,4.6E1,1.06E2,7.5E1,7E0,1.8E1,8E0,3.8E1,1.02E2,4E0,4.9E1,2.6E1],"tree_param":{"num_deleted":"0","num_feature":"30","num_nodes":"15","size_leaf_vector":"1"}},{"base_weights":[8.1803405E-1,-2.9966567E0,6.852341E0,-6.079674E0,1.9346006E0,1.12621975E1,4.052565E0,-4.4039035E-1,-1.324066E0,-1.3922073E-1,7.826125E-1,1.6499544E0,6.771079E-1,1.3837329E0,3.2376286E-1],"categories":[],"categories_nodes":[],"categories_segments":[],"categories_sizes":[],"default_left":[0,0,0,0,0,0,0,0,0,0,0,0,0,0,0],"id":13,"left_children":[1,3,5,7,9,11,13,-1,-1,-1,-1,-1,-1,-1,-1],"loss_changes":[5.291888E3,2.1554058E3,1.0532075E3,9.8570435E2,1.088894E3,6.880127E2,4.0174152E2,0E0,0E0,0E0,0E0,0E0,0E0,0E0,0E0],"parents":[2147483647,0,0,1,1,2,2,3,3,4,4,5,5,6,6],"right_children":[2,4,6,8,10,12,14,-1,-1,-1,-1,-1,-1,-1,-1],"split_conditions":[1.322E2,9.7E1,1E0,1E0,9.24E1,6.5E1,1E0,-4.4039035E-1,-1.324066E0,-1.3922073E-1,7.826125E-1,1.6499544E0,6.771079E-1,1.3837329E0,3.2376286E-1],"split_indices":[13,7,20,18,10,5,19,0,0,0,0,0,0,0,0],"split_type":[0,0,0,0,0,0,0,0,0,0,0,0,0,0,0],"sum_hessian":[2.28E2,1.4E2,8.8E1,8.6E1,5.4E1,3.3E1,5.5E1,7.1E1,1.5E1,3.5E1,1.9E1,1.4E1,1.9E1,3E0,5.2E1],"tree_param":{"num_deleted":"0","num_feature":"30","num_nodes":"15","size_leaf_vector":"1"}},{"base_weights":[3.2662746E-1,-4.7225924E0,5.0474567E0,-8.661299E0,-1.712773E0,2.7184796E0,1.2254303E1,-6.8213E-1,-1.2144965E0,-9.1380703E-1,-9.105253E-3,-9.618665E-1,3.3664712E-1,1.8596594E0,1.19115196E-1],"categories":[],"categories_nodes":[],"categories_segments":[],"categories_sizes":[],"default_left":[0,0,0,0,0,0,0,0,0,0,0,0,0,0,0],"id":14,"left_children":[1,3,5,7,9,11,13,-1,-1,-1,-1,-1,-1,-1,-1],"loss_changes":[5.7207617E3,1.360321E3,2.0479751E3,2.3765283E2,8.059657E2,7.918457E2,2.0828193E3,0E0,0E0,0E0,0E0,0E0,0E0,0E0,0E0],"parents":[2147483647,0,0,1,1,2,2,3,3,4,4,5,5,6,6],"right_children":[2,4,6,8,10,12,14,-1,-1,-1,-1,-1,-1,-1,-1],"split_conditions":[4.634E2,4.9E1,9.3E1,4.82E1,7E1,9E0,2.27E2,-6.8213E-1,-1.2144965E0,-9.1380703E-1,-9.105253E-3,-9.618665E-1,3.3664712E-1,1.8596594E0,1.19115196E-1],"split_indices":[9,11,12,12,0,0,0,0,0,0,0,0,0,0,0],"split_type":[0,0,0,0,0,0,0,0,0,0,0,0,0,0,0],"sum_hessian":[2.38E2,1.15E2,1.23E2,4.9E1,6.6E1,9.4E1,2.9E1,3.4E1,1.5E1,1.1E1,5.5E1,4E0,9E1,1.8E1,1.1E1],"tree_param":{"num_deleted":"0","num_feature":"30","num_nodes":"15","size_leaf_vector":"1"}},{"base_weights":[6.2231725E-1,-1.2609681E0,9.441005E0,-2.34243E0,1.4226066E1,1.8602299E1,3.6624231E0,-8.711813E-2,-7.1807134E-1,2.1015933E0,7.355408E-1,2.7479763E0,1.3353165E0,1.3487397E-1,1.3572882E0],"categories":[],"categories_nodes":[],"categories_segments":[],"categories_sizes":[],"default_left":[0,0,0,0,0,0,0,0,0,0,0,0,0,0,0],"id":15,"left_children":[1,3,5,7,9,11,13,-1,-1,-1,-1,-1,-1,-1,-1],"loss_changes":[3.964634E3,3.3328052E3,2.1553203E3,1.3106333E3,4.5188037E2,3.7864258E2,6.007946E2,0E0,0E0,0E0,0E0,0E0,0E0,0E0,0E0],"parents":[2147483647,0,0,1,1,2,2,3,3,4,4,5,5,6,6],"right_children":[2,4,6,8,10,12,14,-1,-1,-1,-1,-1,-1,-1,-1],"split_conditions":[7.78E1,1E0,1E0,3E1,9.52E1,2.07E2,3.03E2,-8.711813E-2,-7.1807134E-1,2.1015933E0,7.355408E-1,2.7479763E0,1.3353165E0,1.3487397E-1,1.3572882E0],"split_indices":[12,3,20,4,7,0,0,0,0,0,0,0,0,0,0],"split_type":[0,0,0,0,0,0,0,0,0,0,0,0,0,0,0],"sum_hessian":[2.37E2,1.96E2,4.1E1,1.84E2,1.2E1,1.5E1,2.6E1,1.42E2,4.2E1,5E0,7E0,4E0,1.1E1,2.2E1,4E0],"tree_param":{"num_deleted":"0","num_feature":"30","num_nodes":"15","size_leaf_vector":"1"}},{"base_weights":[1.3262734E-1,-2.0498536E0,1.328608E1,4.3227705E-1,-6.119746E0,1.8785042E1,7.049004E0,-5.685493E-2,8.908424E-1,-9.342379E-1,-1.2468332E-1,2.3595712E0,-3.951237E-1,-1.2720881E-1,1.1315558E0],"categories":[],"categories_nodes":[],"categories_segments":[],"categories_sizes":[],"default_left":[0,0,0,0,0,0,0,0,0,0,0,0,0,0,0],"id":16,"left_children":[1,3,5,7,9,11,13,-1,-1,-1,-1,-1,-1,-1,-1],"loss_changes":[7.0604883E3,2.1341685E3,1.0679946E3,1.1248407E3,1.2446404E3,2.0620137E3,6.534373E2,0E0,0E0,0E0,0E0,0E0,0E0,0E0,0E0],"parents":[2147483647,0,0,1,1,2,2,3,3,4,4,5,5,6,6],"right_children":[2,4,6,8,10,12,14,-1,-1,-1,-1,-1,-1,-1,-1],"split_conditions":[1.618E2,2.95E1,1E0,3.2E1,9.52E1,2.42E2,2.16E2,-5.685493E-2,8.908424E-1,-9.342379E-1,-1.2468332E-1,2.3595712E0,-3.951237E-1,-1.2720881E-1,1.1315558E0],"split_indices":[13,17,20,4,10,0,0,0,0,0,0,0,0,0,0],"split_type":[0,0,0,0,0,0,0,0,0,0,0,0,0,0,0],"sum_hessian":[2.44E2,2.1E2,3.4E1,1.31E2,7.9E1,1.7E1,1.7E1,1.18E2,1.3E1,4.7E1,3.2E1,1.4E1,3E0,6E0,1.1E1],"tree_param":{"num_deleted":"0","num_feature":"30","num_nodes":"15","size_leaf_vector":"1"}},{"base_weights":[-5.70025E-1,-4.989209E0,1.3430177E0,-3.470335E0,-1.3755421E1,-5.461785E0,3.6188693E0,4.1868144E-1,-7.03397E-1,-2.3641542E-1,-2.0955572E0,-7.4876165E-1,1.514906E0,4.7448856E-1,-5.406461E-1],"categories":[],"categories_nodes":[],"categories_segments":[],"categories_sizes":[],"default_left":[0,0,0,0,0,0,0,0,0,0,0,0,0,0,0],"id":17,"left_children":[1,3,5,7,9,11,13,-1,-1,-1,-1,-1,-1,-1,-1],"loss_changes":[1.9595948E3,8.842982E2,2.5286143E3,1.6939741E3,7.7064624E2,1.8253485E3,1.2654985E3,0E0,0E0,0E0,0E0,0E0,0E0,0E0,0E0],"parents":[2147483647,0,0,1,1,2,2,3,3,4,4,5,5,6,6],"right_children":[2,4,6,8,10,12,14,-1,-1,-1,-1,-1,-1,-1,-1],"split_conditions":[4.002E2,3.858E2,1.7E2,1E0,3.21E2,2.53E2,3.56E2,4.1868144E-1,-7.03397E-1,-2.3641542E-1,-2.0955572E0,-7.4876165E-1,1.514906E0,4.7448856E-1,-5.406461E-1],"split_indices":[9,9,6,20,0,0,0,0,0,0,0,0,0,0,0],"split_type":[0,0,0,0,0,0,0,0,0,0,0,0,0,0,0],"sum_hessian":[2.3E2,6.9E1,1.61E2,6E1,9E0,4E1,1.21E2,1.9E1,4.1E1,4E0,5E0,3.7E1,3E0,1.08E2,1.3E1],"tree_param":{"num_deleted":"0","num_feature":"30","num_nodes":"15","size_leaf_vector":"1"}},{"base_weights":[1.1247095E-2,-1.7849587E0,1.1349445E1,1.3505744E0,-3.8521163E0,1.605111E1,9.143476E-1,-1.858156E-1,8.6124563E-1,-1.7445289E-1,-1.0865284E0,1.1205311E0,2.710569E0,-2.09617E0,1.6409473E0],"categories":[],"categories_nodes":[],"categories_segments":[],"categories_sizes":[],"default_left":[0,0,0,0,0,0,0,0,0,0,0,0,0,0,0],"id":18,"left_children":[1,3,5,7,9,11,13,-1,-1,-1,-1,-1,-1,-1,-1],"loss_changes":[4.7654756E3,1.3144941E3,1.5553184E3,1.9034186E3,1.7843107E3,8.747739E2,4.0726636E3,0E0,0E0,0E0,0E0,0E0,0E0,0E0,0E0],"parents":[2147483647,0,0,1,1,2,2,3,3,4,4,5,5,6,6],"right_children":[2,4,6,8,10,12,14,-1,-1,-1,-1,-1,-1,-1,-1],"split_conditions":[9.3E1,1.36E2,2.34E2,1E0,1E0,2.26E2,2.39E2,-1.858156E-1,8.6124563E-1,-1.7445289E-1,-1.0865284E0,1.1205311E0,2.710569E0,-2.09617E0,1.6409473E0],"split_indices":[12,0,0,18,18,0,0,0,0,0,0,0,0,0,0],"split_type":[0,0,0,0,0,0,0,0,0,0,0,0,0,0,0],"sum_hessian":[2.32E2,2.01E2,3.1E1,8E1,1.21E2,2.1E1,1E1,5.6E1,2.4E1,9.4E1,2.7E1,1.6E1,5E0,4E0,6E0],"tree_param":{"num_deleted":"0","num_feature":"30","num_nodes":"15","size_leaf_vector":"1"}},{"base_weights":[-3.869511E-1,-1.8878319E0,8.629083E0,-9.035974E0,-1.2317798E0,1.2590003E1,2.24446E0,2.2839165E-1,-1.1452212E0,-1.7813486E-1,4.3934035E-1,5.937806E-1,2.3489125E0,-8.4967595E-1,6.9227904E-1],"categories":[],"categories_nodes":[],"categories_segments":[],"categories_sizes":[],"default_left":[0,0,0,0,0,0,0,0,0,0,0,0,0,0,0],"id":19,"left_children":[1,3,5,7,9,11,13,-1,-1,-1,-1,-1,-1,-1,-1],"loss_changes":[3.4128203E3,1.0018132E3,8.821455E2,5.18484E2,6.230198E2,1.4555945E3,8.125859E2,0E0,0E0,0E0,0E0,0E0,0E0,0E0,0E0],"parents":[2147483647,0,0,1,1,2,2,3,3,4,4,5,5,6,6],"right_children":[2,4,6,8,10,12,14,-1,-1,-1,-1,-1,-1,-1,-1],"split_conditions":[9.3E1,3.68E1,2.35E2,3.3E2,1E0,2.24E2,2.39E2,2.2839165E-1,-1.1452212E0,-1.7813486E-1,4.3934035E-1,5.937806E-1,2.3489125E0,-8.4967595E-1,6.9227904E-1],"split_indices":[12,11,0,0,3,0,0,0,0,0,0,0,0,0,0],"split_type":[0,0,0,0,0,0,0,0,0,0,0,0,0,0,0],"sum_hessian":[2.5E2,2.15E2,3.5E1,1.7E1,1.98E2,2.1E1,1.4E1,3E0,1.4E1,1.81E2,1.7E1,1.4E1,7E0,4E0,1E1],"tree_param":{"num_deleted":"0","num_feature":"30","num_nodes":"15","size_leaf_vector":"1"}},{"base_weights":[-9.818892E-1,-2.0161133E0,4.015615E0,-1.0253879E-1,-4.3029685E0,-2.3030736E0,6.619859E0,-1.4309418E-1,1.9838154E0,-8.0603284E-1,-8.411965E-2,4.3959457E-1,-1.8474854E0,2.04806E0,3.0284876E-1],"categories":[],"categories_nodes":[],"categories_segments":[],"categories_sizes":[],"default_left":[0,0,0,0,0,0,0,0,0,0,0,0,0,0,0],"id":20,"left_children":[1,3,5,7,9,11,13,-1,-1,-1,-1,-1,-1,-1,-1],"loss_changes":[1.264051E3,8.835244E2,7.063733E2,2.968697E3,1.1898751E3,1.4895703E3,1.4313468E3,0E0,0E0,0E0,0E0,0E0,0E0,0E0,0E0],"parents":[2147483647,0,0,1,1,2,2,3,3,4,4,5,5,6,6],"right_children":[2,4,6,8,10,12,14,-1,-1,-1,-1,-1,-1,-1,-1],"split_conditions":[3.1E1,2.31E2,1.98E2,2.21E2,3.13E2,9.2E1,2.07E2,-1.4309418E-1,1.9838154E0,-8.0603284E-1,-8.411965E-2,4.3959457E-1,-1.8474854E0,2.04806E0,3.0284876E-1],"split_indices":[4,0,0,0,0,0,0,0,0,0,0,0,0,0,0],"split_type":[0,0,0,0,0,0,0,0,0,0,0,0,0,0,0],"sum_hessian":[2.42E2,2.01E2,4.1E1,1.1E2,9.1E1,1.2E1,2.9E1,1.04E2,6E0,4.3E1,4.8E1,9E0,3E0,5E0,2.4E1],"tree_param":{"num_deleted":"0","num_feature":"30","num_nodes":"15","size_leaf_vector":"1"}},{"base_weights":[1.2971225E-1,-2.0270076E0,5.819255E0,-1.000615E1,-1.0294251E0,-4.8545856E0,7.2293377E0,-6.9176644E-1,-2.14028E0,-1.9883874E-1,1.070484E0,-1.6169512E0,1.333145E0,5.3941876E-1,1.4013836E0],"categories":[],"categories_nodes":[],"categories_segments":[],"categories_sizes":[],"default_left":[0,0,0,0,0,0,0,0,0,0,0,0,0,0,0],"id":21,"left_children":[1,3,5,7,9,11,13,-1,-1,-1,-1,-1,-1,-1,-1],"loss_changes":[3.2144612E3,1.5020715E3,1.1187673E3,5.911089E2,1.9342472E3,2.067526E3,7.2124365E2,0E0,0E0,0E0,0E0,0E0,0E0,0E0,0E0],"parents":[2147483647,0,0,1,1,2,2,3,3,4,4,5,5,6,6],"right_children":[2,4,6,8,10,12,14,-1,-1,-1,-1,-1,-1,-1,-1],"split_conditions":[6.5E1,3.338E2,9E0,2.67E2,1E0,1E0,1.07432E4,-6.9176644E-1,-2.14028E0,-1.9883874E-1,1.070484E0,-1.6169512E0,1.333145E0,5.3941876E-1,1.4013836E0],"split_indices":[11,9,0,9,3,18,8,0,0,0,0,0,0,0,0],"split_type":[0,0,0,0,0,0,0,0,0,0,0,0,0,0,0],"sum_hessian":[2.6E2,1.89E2,7.1E1,2E1,1.69E2,8E0,6.3E1,1.7E1,3E0,1.57E2,1.2E1,5E0,3E0,5.1E1,1.2E1],"tree_param":{"num_deleted":"0","num_feature":"30","num_nodes":"15","size_leaf_vector":"1"}},{"base_weights":[5.5165946E-1,4.594779E0,-1.4250516E0,7.7045736E0,2.4504185E0,-2.237767E0,3.7958837E0,4.325606E-1,1.5043639E0,-7.626205E-1,4.5513517E-1,6.0211E-2,-3.5920736E-1,-3.4178433E-1,7.1655047E-1],"categories":[],"categories_nodes":[],"categories_segments":[],"categories_sizes":[],"default_left":[0,0,0,0,0,0,0,0,0,0,0,0,0,0,0],"id":22,"left_children":[1,3,5,7,9,11,13,-1,-1,-1,-1,-1,-1,-1,-1],"loss_changes":[1.9965753E3,5.2793945E2,7.2134094E2,7.532765E2,1.0932253E3,5.6368805E2,5.835637E2,0E0,0E0,0E0,0E0,0E0,0E0,0E0,0E0],"parents":[2147483647,0,0,1,1,2,2,3,3,4,4,5,5,6,6],"right_children":[2,4,6,8,10,12,14,-1,-1,-1,-1,-1,-1,-1,-1],"split_conditions":[6.9E1,2.34E2,6.5E1,2.16E2,2.48E2,2.8E1,1E0,4.325606E-1,1.5043639E0,-7.626205E-1,4.5513517E-1,6.0211E-2,-3.5920736E-1,-3.4178433E-1,7.1655047E-1],"split_indices":[5,0,11,0,0,17,20,0,0,0,0,0,0,0,0],"split_type":[0,0,0,0,0,0,0,0,0,0,0,0,0,0,0],"sum_hessian":[2.48E2,8.1E1,1.67E2,3.2E1,4.9E1,1.45E2,2.2E1,2.3E1,9E0,8E0,4.1E1,4.7E1,9.8E1,7E0,1.5E1],"tree_param":{"num_deleted":"0","num_feature":"30","num_nodes":"15","size_leaf_vector":"1"}},{"base_weights":[1.0412292E0,-2.495826E0,4.2080255E0,-1.3716845E1,-1.4033879E0,1.040114E1,2.2692347E0,-5.020052E-1,-1.6726893E0,1.5686598E-2,-8.473846E-1,2.418187E0,7.350957E-1,3.6543626E-3,1.0454029E0],"categories":[],"categories_nodes":[],"categories_segments":[],"categories_sizes":[],"default_left":[0,0,0,0,0,0,0,0,0,0,0,0,0,0,0],"id":23,"left_children":[1,3,5,7,9,11,13,-1,-1,-1,-1,-1,-1,-1,-1],"loss_changes":[2.6987742E3,1.3781926E3,1.5013062E3,1.7780762E2,1.1596587E3,1.0832524E3,1.7904812E3,0E0,0E0,0E0,0E0,0E0,0E0,0E0,0E0],"parents":[2147483647,0,0,1,1,2,2,3,3,4,4,5,5,6,6],"right_children":[2,4,6,8,10,12,14,-1,-1,-1,-1,-1,-1,-1,-1],"split_conditions":[4.774E2,7.5E1,1E0,3.3E1,1E0,1E0,2.37E2,-5.020052E-1,-1.6726893E0,1.5686598E-2,-8.473846E-1,2.418187E0,7.350957E-1,3.6543626E-3,1.0454029E0],"split_indices":[9,0,19,0,18,18,0,0,0,0,0,0,0,0,0],"split_type":[0,0,0,0,0,0,0,0,0,0,0,0,0,0,0],"sum_hessian":[2.39E2,1.13E2,1.26E2,9E0,1.04E2,2.9E1,9.7E1,3E0,6E0,8.6E1,1.8E1,4E0,2.5E1,7.7E1,2E1],"tree_param":{"num_deleted":"0","num_feature":"30","num_nodes":"15","size_leaf_vector":"1"}},{"base_weights":[2.820043E-1,-3.7920028E-1,1.05339155E1,3.3871046E-1,-9.520814E0,1.349057E1,-9.695282E-2,-5.962688E-1,1.2655549E-1,-2.744226E0,-1.8955803E-1,4.400823E-1,1.7485341E0],"categories":[],"categories_nodes":[],"categories_segments":[],"categories_sizes":[],"default_left":[0,0,0,0,0,0,0,0,0,0,0,0,0],"id":24,"left_children":[1,3,5,7,9,11,-1,-1,-1,-1,-1,-1,-1],"loss_changes":[1.6783113E3,1.5323717E3,5.2325525E2,1.2749163E3,2.2711196E3,3.5878735E2,0E0,0E0,0E0,0E0,0E0,0E0,0E0],"parents":[2147483647,0,0,1,1,2,2,3,3,4,4,5,5],"right_children":[2,4,6,8,10,12,-1,-1,-1,-1,-1,-1,-1],"split_conditions":[1E0,1E0,1.79E2,4.06E1,1.77E2,2.5E1,-9.695282E-2,-5.962688E-1,1.2655549E-1,-2.744226E0,-1.8955803E-1,4.400823E-1,1.7485341E0],"split_indices":[3,2,6,11,6,0,0,0,0,0,0,0,0],"split_type":[0,0,0,0,0,0,0,0,0,0,0,0,0],"sum_hessian":[2.46E2,2.32E2,1.4E1,2.16E2,1.6E1,1.1E1,3E0,2.7E1,1.89E2,4E0,1.2E1,4E0,7E0],"tree_param":{"num_deleted":"0","num_feature":"30","num_nodes":"13","size_leaf_vector":"1"}},{"base_weights":[-1.1240075E0,-2.5548732E0,2.077972E0,-3.4798863E0,1.1636676E1,-1.0662953E0,3.161898E0,-2.264638E-1,-7.805376E-1,5.1717365E-1,1.8360256E0,-4.2175093E-1,9.861091E-1,5.63071E-1,-5.1757646E-1],"categories":[],"categories_nodes":[],"categories_segments":[],"categories_sizes":[],"default_left":[0,0,0,0,0,0,0,0,0,0,0,0,0,0,0],"id":25,"left_children":[1,3,5,7,9,11,13,-1,-1,-1,-1,-1,-1,-1,-1],"loss_changes":[1.1690359E3,2.3509111E3,2.7261566E2,8.549099E2,3.8318872E2,7.6471436E2,1.2436067E3,0E0,0E0,0E0,0E0,0E0,0E0,0E0,0E0],"parents":[2147483647,0,0,1,1,2,2,3,3,4,4,5,5,6,6],"right_children":[2,4,6,8,10,12,14,-1,-1,-1,-1,-1,-1,-1,-1],"split_conditions":[9.84E1,1E0,4.6E0,1E0,9.52E1,1E0,1E0,-2.264638E-1,-7.805376E-1,5.1717365E-1,1.8360256E0,-4.2175093E-1,9.861091E-1,5.63071E-1,-5.1757646E-1],"split_indices":[7,3,14,18,10,18,18,0,0,0,0,0,0,0,0],"split_type":[0,0,0,0,0,0,0,0,0,0,0,0,0,0,0],"sum_hessian":[2.53E2,1.75E2,7.8E1,1.65E2,1E1,2E1,5.8E1,1.3E2,3.5E1,6E0,4E0,1.6E1,4E0,4.5E1,1.3E1],"tree_param":{"num_deleted":"0","num_feature":"30","num_nodes":"15","size_leaf_vector":"1"}},{"base_weights":[7.816395E-1,3.3969202E0,-7.3652065E-1,-4.183272E0,6.4464393E0,6.3083756E-1,-6.1829376E0,-1.2976137E0,-2.0898978E-1,7.693205E-1,1.948951E-2,1.2878554E-1,-1.0910165E0,-2.91486E-1,-1.9858798E0],"categories":[],"categories_nodes":[],"categories_segments":[],"categories_sizes":[],"default_left":[0,0,0,0,0,0,0,0,0,0,0,0,0,0,0],"id":26,"left_children":[1,3,5,7,9,11,13,-1,-1,-1,-1,-1,-1,-1,-1],"loss_changes":[9.951056E2,2.1536338E3,1.1880056E3,4.698636E2,5.129182E2,9.8462915E2,1.372315E3,0E0,0E0,0E0,0E0,0E0,0E0,0E0,0E0],"parents":[2147483647,0,0,1,1,2,2,3,3,4,4,5,5,6,6],"right_children":[2,4,6,8,10,12,14,-1,-1,-1,-1,-1,-1,-1,-1],"split_conditions":[1E0,4.9E1,6.2E2,2.65E1,3.37E2,1E0,2.24E2,-1.2976137E0,-2.0898978E-1,7.693205E-1,1.948951E-2,1.2878554E-1,-1.0910165E0,-2.91486E-1,-1.9858798E0],"split_indices":[20,11,9,17,0,3,0,0,0,0,0,0,0,0,0],"split_type":[0,0,0,0,0,0,0,0,0,0,0,0,0,0,0],"sum_hessian":[2.49E2,9.1E1,1.58E2,2.6E1,6.5E1,1.27E2,3.1E1,4E0,2.2E1,5.4E1,1.1E1,1.21E2,6E0,2.6E1,5E0],"tree_param":{"num_deleted":"0","num_feature":"30","num_nodes":"15","size_leaf_vector":"1"}},{"base_weights":[2.9083353E-1,-1.7092812E0,1.8859551E0,-6.464297E-1,-2.997895E0,4.4435267E0,-8.887807E0,-2.6840338E-1,6.2257767E-1,6.0724344E-2,8.4780216E-1,-1.5210986E0,3.3826977E-1],"categories":[],"categories_nodes":[],"categories_segments":[],"categories_sizes":[],"default_left":[0,0,0,0,0,0,0,0,0,0,0,0,0],"id":27,"left_children":[1,3,5,7,-1,9,11,-1,-1,-1,-1,-1,-1],"loss_changes":[7.976397E2,3.3157776E3,3.8695923E3,1.5290164E3,0E0,1.7438054E3,2.1463462E3,0E0,0E0,0E0,0E0,0E0,0E0],"parents":[2147483647,0,0,1,1,2,2,3,3,5,5,6,6],"right_children":[2,4,6,8,-1,10,12,-1,-1,-1,-1,-1,-1],"split_conditions":[1.81E2,1.76E2,1E0,1E0,-2.997895E0,4.9E1,9.7E1,-2.6840338E-1,6.2257767E-1,6.0724344E-2,8.4780216E-1,-1.5210986E0,3.3826977E-1],"split_indices":[0,0,18,18,0,11,7,0,0,0,0,0,0],"split_type":[0,0,0,0,0,0,0,0,0,0,0,0,0],"sum_hessian":[2.48E2,1.1E2,1.38E2,1.07E2,3E0,1.12E2,2.6E1,8.3E1,2.4E1,5.8E1,5.4E1,1.7E1,9E0],"tree_param":{"num_deleted":"0","num_feature":"30","num_nodes":"13","size_leaf_vector":"1"}},{"base_weights":[-3.3124015E-1,-2.8588943E0,1.1998794E0,-7.6680946E0,-6.244224E-1,-3.1198427E-1,5.526918E0,-1.5847989E0,-3.0182406E-1,5.9204437E-2,-1.6070312E0,-2.504738E-1,4.0276504E-1,-4.4152346E-1,8.3722097E-1],"categories":[],"categories_nodes":[],"categories_segments":[],"categories_sizes":[],"default_left":[0,0,0,0,0,0,0,0,0,0,0,0,0,0,0],"id":28,"left_children":[1,3,5,7,9,11,13,-1,-1,-1,-1,-1,-1,-1,-1],"loss_changes":[1.0057969E3,1.0483221E3,1.061511E3,1.1312616E3,1.2871943E3,1.1614938E3,1.2250745E3,0E0,0E0,0E0,0E0,0E0,0E0,0E0,0E0],"parents":[2147483647,0,0,1,1,2,2,3,3,4,4,5,5,6,6],"right_children":[2,4,6,8,10,12,14,-1,-1,-1,-1,-1,-1,-1,-1],"split_conditions":[6.9E1,6.6E0,3.37E2,2.74E2,1E0,5.536E2,1E0,-1.5847989E0,-3.0182406E-1,5.9204437E-2,-1.6070312E0,-2.504738E-1,4.0276504E-1,-4.4152346E-1,8.3722097E-1],"split_indices":[5,14,0,0,2,9,19,0,0,0,0,0,0,0,0],"split_type":[0,0,0,0,0,0,0,0,0,0,0,0,0,0,0],"sum_hessian":[2.58E2,9.7E1,1.61E2,3E1,6.7E1,1.2E2,4.1E1,1E1,2E1,6.3E1,4E0,8E1,4E1,9E0,3.2E1],"tree_param":{"num_deleted":"0","num_feature":"30","num_nodes":"15","size_leaf_vector":"1"}},{"base_weights":[1.0544742E0,1.5333994E-1,1.9740234E1,1.473789E0,-1.8420715E0,2.2709186E0,8.1250346E-1,2.5320283E-1,-2.2422703E-1,2.4081688E-1,-3.6980054E-1],"categories":[],"categories_nodes":[],"categories_segments":[],"categories_sizes":[],"default_left":[0,0,0,0,0,0,0,0,0,0,0],"id":29,"left_children":[1,3,5,7,9,-1,-1,-1,-1,-1,-1],"loss_changes":[4.3917905E3,6.6142456E2,2.2930664E2,5.9948193E2,7.9772205E2,0E0,0E0,0E0,0E0,0E0,0E0],"parents":[2147483647,0,0,1,1,2,2,3,3,4,4],"right_children":[2,4,6,8,10,-1,-1,-1,-1,-1,-1],"split_conditions":[1.16638E4,3E1,2.39E2,1.07432E4,8.4E1,2.2709186E0,8.1250346E-1,2.5320283E-1,-2.2422703E-1,2.4081688E-1,-3.6980054E-1],"split_indices":[8,17,0,8,0,0,0,0,0,0,0],"split_type":[0,0,0,0,0,0,0,0,0,0,0],"sum_hessian":[2.6E2,2.49E2,1.1E1,1.5E2,9.9E1,8E0,3E0,1.17E2,3.3E1,3E1,6.9E1],"tree_param":{"num_deleted":"0","num_feature":"30","num_nodes":"11","size_leaf_vector":"1"}},{"base_weights":[3.3882102E-1,1.1610497E0,-6.2228947E0,-4.489511E0,1.6139734E0,-7.6679873E0,5.087202E-1,-8.2512206E-1,2.6004928E-1,5.207136E-1,6.452653E-2,-4.4431844E-1,-1.2705834E0],"categories":[],"categories_nodes":[],"categories_segments":[],"categories_sizes":[],"default_left":[0,0,0,0,0,0,0,0,0,0,0,0,0],"id":30,"left_children":[1,3,5,7,9,11,-1,-1,-1,-1,-1,-1,-1],"loss_changes":[1.4531469E3,6.189121E2,5.2933276E2,5.015269E2,7.693611E2,3.8218933E2,0E0,0E0,0E0,0E0,0E0,0E0,0E0],"parents":[2147483647,0,0,1,1,2,2,3,3,4,4,5,5],"right_children":[2,4,6,8,10,12,-1,-1,-1,-1,-1,-1,-1],"split_conditions":[3.64E2,6.32E1,4.11E2,2.66E2,2.8E1,3.98E2,5.087202E-1,-8.2512206E-1,2.6004928E-1,5.207136E-1,6.452653E-2,-4.4431844E-1,-1.2705834E0],"split_indices":[0,7,0,0,17,0,0,0,0,0,0,0,0],"split_type":[0,0,0,0,0,0,0,0,0,0,0,0,0],"sum_hessian":[2.67E2,2.38E2,2.9E1,1.7E1,2.21E2,2.6E1,3E0,1.1E1,6E0,4.6E1,1.75E2,1.7E1,9E0],"tree_param":{"num_deleted":"0","num_feature":"30","num_nodes":"13","size_leaf_vector":"1"}},{"base_weights":[-9.2361784E-1,-5.069498E0,3.754855E-1,-3.1856449E0,-1.2182451E1,1.5179781E0,-4.877583E0,-6.06945E-1,-9.090187E-2,-6.151702E-1,-1.3509178E0,1.9937667E-1,-8.894345E-1,2.4530208E-1,-1.0131657E0],"categories":[],"categories_nodes":[],"categories_segments":[],"categories_sizes":[],"default_left":[0,0,0,0,0,0,0,0,0,0,0,0,0,0,0],"id":31,"left_children":[1,3,5,7,9,11,13,-1,-1,-1,-1,-1,-1,-1,-1],"loss_changes":[1.3322274E3,7.5177673E2,1.1417048E3,3.096193E2,1.2909424E1,7.905672E2,1.3343813E3,0E0,0E0,0E0,0E0,0E0,0E0,0E0,0E0],"parents":[2147483647,0,0,1,1,2,2,3,3,4,4,5,5,6,6],"right_children":[2,4,6,8,10,12,14,-1,-1,-1,-1,-1,-1,-1,-1],"split_conditions":[1.03E2,1E0,7.418E2,3.27E2,4.06E1,3.93E2,1E0,-6.06945E-1,-9.090187E-2,-6.151702E-1,-1.3509178E0,1.9937667E-1,-8.894345E-1,2.4530208E-1,-1.0131657E0],"split_indices":[13,18,9,0,11,0,20,0,0,0,0,0,0,0,0],"split_type":[0,0,0,0,0,0,0,0,0,0,0,0,0,0,0],"sum_hessian":[2.46E2,5.8E1,1.88E2,4.7E1,1.1E1,1.55E2,3.3E1,2E1,2.7E1,3E0,8E0,1.49E2,6E0,1.4E1,1.9E1],"tree_param":{"num_deleted":"0","num_feature":"30","num_nodes":"15","size_leaf_vector":"1"}},{"base_weights":[-1.552815E0,-4.6287887E-2,-4.5108585E0,-7.6948524E-1,1.2494276E1,-1.2366125E1,-1.6507503E0,6.723481E-2,-4.5741254E-1,2.4984643E0,-2.4949463E-1,-1.7464144E0,-1.064201E0,1.6052426E0,-3.148425E-1],"categories":[],"categories_nodes":[],"categories_segments":[],"categories_sizes":[],"default_left":[0,0,0,0,0,0,0,0,0,0,0,0,0,0,0],"id":32,"left_children":[1,3,5,7,9,11,13,-1,-1,-1,-1,-1,-1,-1,-1],"loss_changes":[1.096059E3,1.4969797E3,1.8443405E3,8.588378E2,1.7473232E3,7.51709E0,1.694383E3,0E0,0E0,0E0,0E0,0E0,0E0,0E0,0E0],"parents":[2147483647,0,0,1,1,2,2,3,3,4,4,5,5,6,6],"right_children":[2,4,6,8,10,12,14,-1,-1,-1,-1,-1,-1,-1,-1],"split_conditions":[2.68E2,2.53E2,3.13E2,3E1,1E0,2.76E2,3.21E2,6.723481E-2,-4.5741254E-1,2.4984643E0,-2.4949463E-1,-1.7464144E0,-1.064201E0,1.6052426E0,-3.148425E-1],"split_indices":[0,0,0,4,20,0,0,0,0,0,0,0,0,0,0],"split_type":[0,0,0,0,0,0,0,0,0,0,0,0,0,0,0],"sum_hessian":[2.45E2,1.63E2,8.2E1,1.55E2,8E0,2.1E1,6.1E1,1.13E2,4.2E1,4E0,4E0,3E0,1.8E1,4E0,5.7E1],"tree_param":{"num_deleted":"0","num_feature":"30","num_nodes":"15","size_leaf_vector":"1"}},{"base_weights":[4.1208845E-1,2.1197963E0,-2.0788658E0,-4.947463E0,2.6059864E0,-4.1745434E0,1.6157022E0,-4.5166288E-2,-1.1578248E0,3.0626282E-1,-1.0427202E0,-1.3278507E-1,-7.546313E-1,8.5887617E-1,-5.300724E-2],"categories":[],"categories_nodes":[],"categories_segments":[],"categories_sizes":[],"default_left":[0,0,0,0,0,0,0,0,0,0,0,0,0,0,0],"id":33,"left_children":[1,3,5,7,9,11,13,-1,-1,-1,-1,-1,-1,-1,-1],"loss_changes":[1.07637E3,5.282978E2,8.04235E2,2.9287732E2,8.710963E2,6.2347327E2,5.73132E2,0E0,0E0,0E0,0E0,0E0,0E0,0E0,0E0],"parents":[2147483647,0,0,1,1,2,2,3,3,4,4,5,5,6,6],"right_children":[2,4,6,8,10,12,14,-1,-1,-1,-1,-1,-1,-1,-1],"split_conditions":[2.95E1,5.7E1,2.87E2,5.2E1,1E0,8.4E1,3.3E2,-4.5166288E-2,-1.1578248E0,3.0626282E-1,-1.0427202E0,-1.3278507E-1,-7.546313E-1,8.5887617E-1,-5.300724E-2],"split_indices":[17,0,0,0,3,0,0,0,0,0,0,0,0,0,0],"split_type":[0,0,0,0,0,0,0,0,0,0,0,0,0,0,0],"sum_hessian":[2.51E2,1.49E2,1.02E2,9E0,1.4E2,6.5E1,3.7E1,6E0,3E0,1.36E2,4E0,3.6E1,2.9E1,8E0,2.9E1],"tree_param":{"num_deleted":"0","num_feature":"30","num_nodes":"15","size_leaf_vector":"1"}},{"base_weights":[1.287932E-1,5.5914384E-1,-5.064843E0,-1.0620177E0,2.066621E0,1.5249335E0,-9.996038E0,-4.0272128E-2,-9.5001185E-1,1.1811363E0,6.5483294E-2,-4.3881083E-1,7.1329886E-1,-1.2904823E0,-3.9245343E-1],"categories":[],"categories_nodes":[],"categories_segments":[],"categories_sizes":[],"default_left":[0,0,0,0,0,0,0,0,0,0,0,0,0,0,0],"id":34,"left_children":[1,3,5,7,9,11,13,-1,-1,-1,-1,-1,-1,-1,-1],"loss_changes":[5.5489795E2,5.618396E2,6.3265735E2,6.136904E2,1.6294092E3,3.2974628E2,1.436222E2,0E0,0E0,0E0,0E0,0E0,0E0,0E0,0E0],"parents":[2147483647,0,0,1,1,2,2,3,3,4,4,5,5,6,6],"right_children":[2,4,6,8,10,12,14,-1,-1,-1,-1,-1,-1,-1,-1],"split_conditions":[1E0,1.84E2,3.67E2,1.73E2,2.07E2,3.59E2,3.74E2,-4.0272128E-2,-9.5001185E-1,1.1811363E0,6.5483294E-2,-4.3881083E-1,7.1329886E-1,-1.2904823E0,-3.9245343E-1],"split_indices":[28,0,0,0,0,0,0,0,0,0,0,0,0,0,0],"split_type":[0,0,0,0,0,0,0,0,0,0,0,0,0,0,0],"sum_hessian":[2.46E2,2.28E2,1.8E1,1.1E2,1.18E2,8E0,1E1,1.03E2,7E0,1.4E1,1.04E2,4E0,4E0,6E0,4E0],"tree_param":{"num_deleted":"0","num_feature":"30","num_nodes":"15","size_leaf_vector":"1"}},{"base_weights":[1.137764E0,1.6400293E0,-7.874625E0,1.1036521E0,9.290284E0,-1.7385998E1,6.119643E-1,5.2491285E-2,6.209528E-1,1.5585362E0,1.833921E-1,-2.3223581E0,-9.238731E-1],"categories":[],"categories_nodes":[],"categories_segments":[],"categories_sizes":[],"default_left":[0,0,0,0,0,0,0,0,0,0,0,0,0],"id":35,"left_children":[1,3,5,7,9,11,-1,-1,-1,-1,-1,-1,-1],"loss_changes":[1.112881E3,9.376372E2,1.8367572E3,6.3796924E2,6.754934E2,1.6592627E2,0E0,0E0,0E0,0E0,0E0,0E0,0E0],"parents":[2147483647,0,0,1,1,2,2,3,3,4,4,5,5],"right_children":[2,4,6,8,10,12,-1,-1,-1,-1,-1,-1,-1],"split_conditions":[1.16638E4,1E0,2.37E2,1.1157E4,9.6094E3,2.24E2,6.119643E-1,5.2491285E-2,6.209528E-1,1.5585362E0,1.833921E-1,-2.3223581E0,-9.238731E-1],"split_indices":[8,3,0,8,8,0,0,0,0,0,0,0,0],"split_type":[0,0,0,0,0,0,0,0,0,0,0,0,0],"sum_hessian":[2.42E2,2.3E2,1.2E1,2.16E2,1.4E1,7E0,5E0,1.95E2,2.1E1,7E0,7E0,3E0,4E0],"tree_param":{"num_deleted":"0","num_feature":"30","num_nodes":"13","size_leaf_vector":"1"}},{"base_weights":[-2.1921156E-1,-1.1223933E1,1.3955666E-1,9.212494E-2,-1.8695294E0,1.2120699E0,-2.3696911E0,7.1971186E-2,9.165535E-1,8.0687296E-1,-4.126768E-1],"categories":[],"categories_nodes":[],"categories_segments":[],"categories_sizes":[],"default_left":[0,0,0,0,0,0,0,0,0,0,0],"id":36,"left_children":[1,3,5,-1,-1,7,9,-1,-1,-1,-1],"loss_changes":[1.00044696E3,7.431513E2,6.649078E2,0E0,0E0,6.7086316E2,1.3905398E3,0E0,0E0,0E0,0E0],"parents":[2147483647,0,0,1,1,2,2,5,5,6,6],"right_children":[2,4,6,-1,-1,8,10,-1,-1,-1,-1],"split_conditions":[1.2E1,1E0,1.83E2,9.212494E-2,-1.8695294E0,1E0,8.4E1,7.1971186E-2,9.165535E-1,8.0687296E-1,-4.126768E-1],"split_indices":[0,19,6,0,0,3,0,0,0,0,0],"split_type":[0,0,0,0,0,0,0,0,0,0,0],"sum_hessian":[2.52E2,7E0,2.45E2,3E0,4E0,1.72E2,7.3E1,1.63E2,9E0,1E1,6.3E1],"tree_param":{"num_deleted":"0","num_feature":"30","num_nodes":"11","size_leaf_vector":"1"}},{"base_weights":[7.012869E-1,-4.4949837E0,1.4333003E0,-8.973253E0,1.1501223E0,3.8374414E0,-2.3576407E-2,-2.2293499E0,-5.19453E-1,-7.611515E-1,4.7021922E-1,-2.0518409E-1,2.129867E-1],"categories":[],"categories_nodes":[],"categories_segments":[],"categories_sizes":[],"default_left":[0,0,0,0,0,0,0,0,0,0,0,0,0],"id":37,"left_children":[1,3,5,7,-1,9,11,-1,-1,-1,-1,-1,-1],"loss_changes":[9.2314386E2,2.2522632E3,7.426284E2,1.0922001E3,0E0,8.278302E2,5.8528125E2,0E0,0E0,0E0,0E0,0E0,0E0],"parents":[2147483647,0,0,1,1,2,2,3,3,5,5,6,6],"right_children":[2,4,6,8,-1,10,12,-1,-1,-1,-1,-1,-1],"split_conditions":[2.65E1,1E0,9.1E1,1.81E2,1.1501223E0,3.4E1,1.56E2,-2.2293499E0,-5.19453E-1,-7.611515E-1,4.7021922E-1,-2.0518409E-1,2.129867E-1],"split_indices":[17,18,10,0,0,0,10,0,0,0,0,0,0],"split_type":[0,0,0,0,0,0,0,0,0,0,0,0,0],"sum_hessian":[2.4E2,2.9E1,2.11E2,2.3E1,6E0,7.9E1,1.32E2,4E0,1.9E1,5E0,7.4E1,6.8E1,6.4E1],"tree_param":{"num_deleted":"0","num_feature":"30","num_nodes":"13","size_leaf_vector":"1"}},{"base_weights":[-9.4793653E-1,1.4964645E0,-3.9415174E0,-1.8164963E-1,1.4513202E1,-1.4014773E1,-2.6190286E0,-3.3706075E-1,5.182378E-1,2.101512E0,1.1396211E0,-1.5501118E-2,-1.81572E0,-7.966652E-1,-1.3782683E-1],"categories":[],"categories_nodes":[],"categories_segments":[],"categories_sizes":[],"default_left":[0,0,0,0,0,0,0,0,0,0,0,0,0,0,0],"id":38,"left_children":[1,3,5,7,9,11,13,-1,-1,-1,-1,-1,-1,-1,-1],"loss_changes":[1.8572289E3,3.060736E3,1.4819763E3,2.1556753E3,8.477002E1,7.435552E2,6.6580194E2,0E0,0E0,0E0,0E0,0E0,0E0,0E0,0E0],"parents":[2147483647,0,0,1,1,2,2,3,3,4,4,5,5,6,6],"right_children":[2,4,6,8,10,12,14,-1,-1,-1,-1,-1,-1,-1,-1],"split_conditions":[2.32E2,2.02E2,2.53E2,1.00218E4,2.07E2,1E0,1E0,-3.3706075E-1,5.182378E-1,2.101512E0,1.1396211E0,-1.5501118E-2,-1.81572E0,-7.966652E-1,-1.3782683E-1],"split_indices":[0,0,0,8,0,19,19,0,0,0,0,0,0,0,0],"split_type":[0,0,0,0,0,0,0,0,0,0,0,0,0,0,0],"sum_hessian":[2.52E2,1.39E2,1.13E2,1.24E2,1.5E1,1.2E1,1.01E2,7.8E1,4.6E1,3E0,1.2E1,3E0,9E0,1.8E1,8.3E1],"tree_param":{"num_deleted":"0","num_feature":"30","num_nodes":"15","size_leaf_vector":"1"}},{"base_weights":[6.2450096E-2,-1.8810604E0,1.2617625E0,-2.5551462E0,9.105474E-1,1.5896633E0,-7.528604E-1,-6.324677E-1,-1.8804073E-1,1.10833965E-1,6.835992E-1],"categories":[],"categories_nodes":[],"categories_segments":[],"categories_sizes":[],"default_left":[0,0,0,0,0,0,0,0,0,0,0],"id":39,"left_children":[1,3,5,7,-1,9,-1,-1,-1,-1,-1],"loss_changes":[6.107321E2,7.638523E2,4.7891168E2,2.2973468E2,0E0,3.8887692E2,0E0,0E0,0E0,0E0,0E0],"parents":[2147483647,0,0,1,1,2,2,3,3,5,5],"right_children":[2,4,6,8,-1,10,-1,-1,-1,-1,-1],"split_conditions":[7E1,1E0,3.96E2,5.76E1,9.105474E-1,3.75E2,-7.528604E-1,-6.324677E-1,-1.8804073E-1,1.10833965E-1,6.835992E-1],"split_indices":[5,3,0,10,0,0,0,0,0,0,0],"split_type":[0,0,0,0,0,0,0,0,0,0,0],"sum_hessian":[2.6E2,9.9E1,1.61E2,9.4E1,5E0,1.56E2,5E0,1.3E1,8.1E1,1.44E2,1.2E1],"tree_param":{"num_deleted":"0","num_feature":"30","num_nodes":"11","size_leaf_vector":"1"}},{"base_weights":[-1.2916507E-1,-1.2333479E0,5.59855E0,-2.318888E0,2.5940733E0,-1.91136E0,1.1769018E1,-5.1829755E-2,-4.5884833E-1,1.974081E0,3.8587924E-2,3.6852098E-1,-9.3677235E-1,1.7592312E0,6.832198E-1],"categories":[],"categories_nodes":[],"categories_segments":[],"categories_sizes":[],"default_left":[0,0,0,0,0,0,0,0,0,0,0,0,0,0,0],"id":40,"left_children":[1,3,5,7,9,11,13,-1,-1,-1,-1,-1,-1,-1,-1],"loss_changes":[1.4868248E3,8.245147E2,1.783402E3,6.2696E2,1.6583687E3,7.856631E2,4.8352588E2,0E0,0E0,0E0,0E0,0E0,0E0,0E0,0E0],"parents":[2147483647,0,0,1,1,2,2,3,3,4,4,5,5,6,6],"right_children":[2,4,6,8,10,12,14,-1,-1,-1,-1,-1,-1,-1,-1],"split_conditions":[7.78E1,3.35E2,2.27E2,1.0033E4,3.42E2,2.15E2,2.42E2,-5.1829755E-2,-4.5884833E-1,1.974081E0,3.8587924E-2,3.6852098E-1,-9.3677235E-1,1.7592312E0,6.832198E-1],"split_indices":[12,0,0,8,0,0,0,0,0,0,0,0,0,0,0],"split_type":[0,0,0,0,0,0,0,0,0,0,0,0,0,0,0],"sum_hessian":[2.33E2,1.96E2,3.7E1,1.53E2,4.3E1,1.7E1,2E1,8.6E1,6.7E1,4E0,3.9E1,1E1,7E0,8E0,1.2E1],"tree_param":{"num_deleted":"0","num_feature":"30","num_nodes":"15","size_leaf_vector":"1"}},{"base_weights":[4.553183E-1,1.0452026E0,-7.482855E0,5.27434E0,2.768262E-1,6.2673986E-1,-1.668449E0,-5.388934E-1,6.8240833E-1,1.05764486E-1,-3.30054E-1,-2.8475854E-1,3.4175542E-1],"categories":[],"categories_nodes":[],"categories_segments":[],"categories_sizes":[],"default_left":[0,0,0,0,0,0,0,0,0,0,0,0,0],"id":41,"left_children":[1,3,5,7,9,11,-1,-1,-1,-1,-1,-1,-1],"loss_changes":[1.1503763E3,7.394418E2,1.2790231E3,6.1516144E2,5.453859E2,1.0669373E2,0E0,0E0,0E0,0E0,0E0,0E0,0E0],"parents":[2147483647,0,0,1,1,2,2,3,3,4,4,5,5],"right_children":[2,4,6,8,10,12,-1,-1,-1,-1,-1,-1,-1],"split_conditions":[9.1E1,2.65E1,8.3E1,1.81E2,1E0,1E0,-1.668449E0,-5.388934E-1,6.8240833E-1,1.05764486E-1,-3.30054E-1,-2.8475854E-1,3.4175542E-1],"split_indices":[5,17,0,0,27,20,0,0,0,0,0,0,0],"split_type":[0,0,0,0,0,0,0,0,0,0,0,0,0],"sum_hessian":[2.43E2,2.27E2,1.6E1,3.4E1,1.93E2,9E0,7E0,4E0,3E1,1.59E2,3.4E1,4E0,5E0],"tree_param":{"num_deleted":"0","num_feature":"30","num_nodes":"13","size_leaf_vector":"1"}},{"base_weights":[-5.7552505E-1,5.352598E-1,-4.1389575E0,-1.710986E0,2.6853416E0,5.621154E0,-5.534088E0,-2.1915169E-1,5.782139E-1,4.632965E-1,-3.2649425E-1,6.9881696E-1,2.5070953E-1,-2.6413822E-1,-9.816241E-1],"categories":[],"categories_nodes":[],"categories_segments":[],"categories_sizes":[],"default_left":[0,0,0,0,0,0,0,0,0,0,0,0,0,0,0],"id":42,"left_children":[1,3,5,7,9,11,13,-1,-1,-1,-1,-1,-1,-1,-1],"loss_changes":[9.996835E2,9.367098E2,8.481057E2,3.547359E2,1.1624287E3,1.6535736E1,6.305834E2,0E0,0E0,0E0,0E0,0E0,0E0,0E0,0E0],"parents":[2147483647,0,0,1,1,2,2,3,3,4,4,5,5,6,6],"right_children":[2,4,6,8,10,12,14,-1,-1,-1,-1,-1,-1,-1,-1],"split_conditions":[3E1,9.24E1,8.76E1,2.1E1,1E0,1.7E1,1.79E2,-2.1915169E-1,5.782139E-1,4.632965E-1,-3.2649425E-1,6.9881696E-1,2.5070953E-1,-2.6413822E-1,-9.816241E-1],"split_indices":[4,10,10,1,18,1,6,0,0,0,0,0,0,0,0],"split_type":[0,0,0,0,0,0,0,0,0,0,0,0,0,0,0],"sum_hessian":[2.51E2,1.92E2,5.9E1,9.4E1,9.8E1,7E0,5.2E1,8.9E1,5E0,7.4E1,2.4E1,4E0,3E0,3.2E1,2E1],"tree_param":{"num_deleted":"0","num_feature":"30","num_nodes":"15","size_leaf_vector":"1"}},{"base_weights":[4.6721792E-1,-8.822142E-3,9.909414E0,3.8330528E-1,-4.3217826E0,4.587662E-2,1.4577393E1,7.2728336E-2,-5.639589E-1,4.0882394E-1,-3.0369496E0,1.863748E0,8.413844E-1],"categories":[],"categories_nodes":[],"categories_segments":[],"categories_sizes":[],"default_left":[0,0,0,0,0,0,0,0,0,0,0,0,0],"id":43,"left_children":[1,3,5,7,9,-1,11,-1,-1,-1,-1,-1,-1],"loss_changes":[1.1238033E3,4.0586053E2,5.226975E2,4.5988525E2,4.505395E3,0E0,4.3383423E1,0E0,0E0,0E0,0E0,0E0,0E0],"parents":[2147483647,0,0,1,1,2,2,3,3,4,4,6,6],"right_children":[2,4,6,8,10,-1,12,-1,-1,-1,-1,-1,-1],"split_conditions":[1E0,1E0,2.5E1,3.98E2,5.82E2,4.587662E-2,4.16E2,7.2728336E-2,-5.639589E-1,4.0882394E-1,-3.0369496E0,1.863748E0,8.413844E-1],"split_indices":[3,2,0,0,9,0,9,0,0,0,0,0,0],"split_type":[0,0,0,0,0,0,0,0,0,0,0,0,0],"sum_hessian":[2.49E2,2.38E2,1.1E1,2.19E2,1.9E1,4E0,7E0,2.08E2,1.1E1,1.5E1,4E0,3E0,4E0],"tree_param":{"num_deleted":"0","num_feature":"30","num_nodes":"13","size_leaf_vector":"1"}},{"base_weights":[-2.7798447E-1,8.973493E-1,-3.8972971E0,2.5168514E0,-1.2597079E0,5.383699E0,-5.6406827E0,1.9709371E-1,1.5944932E0,-1.6757721E0,-2.2352668E-2,-4.3501654E-1,1.259797E0,-1.5369753E0,-3.1899354E-1],"categories":[],"categories_nodes":[],"categories_segments":[],"categories_sizes":[],"default_left":[0,0,0,0,0,0,0,0,0,0,0,0,0,0,0],"id":44,"left_children":[1,3,5,7,9,11,13,-1,-1,-1,-1,-1,-1,-1,-1],"loss_changes":[1.0414489E3,6.494418E2,1.0011889E3,7.456151E2,1.2809542E3,7.570305E2,1.1669896E3,0E0,0E0,0E0,0E0,0E0,0E0,0E0,0E0],"parents":[2147483647,0,0,1,1,2,2,3,3,4,4,5,5,6,6],"right_children":[2,4,6,8,10,12,14,-1,-1,-1,-1,-1,-1,-1,-1],"split_conditions":[3E1,2.32E2,8.4E1,2.29E2,2.39E2,7.5E1,1.97E2,1.9709371E-1,1.5944932E0,-1.6757721E0,-2.2352668E-2,-4.3501654E-1,1.259797E0,-1.5369753E0,-3.1899354E-1],"split_indices":[4,0,0,0,0,0,0,0,0,0,0,0,0,0,0],"split_type":[0,0,0,0,0,0,0,0,0,0,0,0,0,0,0],"sum_hessian":[2.43E2,1.84E2,5.9E1,1.05E2,7.9E1,9E0,5E1,1.02E2,3E0,4E0,7.5E1,4E0,5E0,9E0,4.1E1],"tree_param":{"num_deleted":"0","num_feature":"30","num_nodes":"15","size_leaf_vector":"1"}},{"base_weights":[-2.017278E0,-5.972905E-1,-6.811903E0,-6.8572845E0,3.821715E-1,-1.34798765E1,-3.7443497E0,3.2492265E-1,-8.4557974E-1,3.6630264E-1,-8.0113746E-2,-2.4186654E0,-4.637145E-1,-8.1110287E-1,1.8700391E-1],"categories":[],"categories_nodes":[],"categories_segments":[],"categories_sizes":[],"default_left":[0,0,0,0,0,0,0,0,0,0,0,0,0,0,0],"id":45,"left_children":[1,3,5,7,9,11,13,-1,-1,-1,-1,-1,-1,-1,-1],"loss_changes":[1.5482255E3,1.0878832E3,1.0131538E3,4.1520398E2,6.0080334E2,1.402677E3,9.222687E2,0E0,0E0,0E0,0E0,0E0,0E0,0E0,0E0],"parents":[2147483647,0,0,1,1,2,2,3,3,4,4,5,5,6,6],"right_children":[2,4,6,8,10,12,14,-1,-1,-1,-1,-1,-1,-1,-1],"split_conditions":[1.07432E4,4.06E1,2.4E1,2.6E1,3.774E2,1.84E2,2.37E2,3.2492265E-1,-8.4557974E-1,3.6630264E-1,-8.0113746E-2,-2.4186654E0,-4.637145E-1,-8.1110287E-1,1.8700391E-1],"split_indices":[8,11,4,17,9,0,0,0,0,0,0,0,0,0,0],"split_type":[0,0,0,0,0,0,0,0,0,0,0,0,0,0,0],"sum_hessian":[2.27E2,1.76E2,5.1E1,2.3E1,1.53E2,1.5E1,3.6E1,3E0,2E1,4E1,1.13E2,6E0,9E0,2E1,1.6E1],"tree_param":{"num_deleted":"0","num_feature":"30","num_nodes":"15","size_leaf_vector":"1"}},{"base_weights":[7.176661E-2,-1.2888038E0,3.3555472E0,-1.977214E0,3.938712E0,1.3226631E0,2.223467E0,-1.2793848E-2,-4.1462484E-1,-2.6541534E-1,5.752813E-1,-1.1811371E0,3.613053E-1],"categories":[],"categories_nodes":[],"categories_segments":[],"categories_sizes":[],"default_left":[0,0,0,0,0,0,0,0,0,0,0,0,0],"id":46,"left_children":[1,3,5,7,9,-1,11,-1,-1,-1,-1,-1,-1],"loss_changes":[1.0676646E3,6.159637E2,7.528311E2,6.0114087E2,2.5447131E2,0E0,1.2908422E3,0E0,0E0,0E0,0E0,0E0,0E0],"parents":[2147483647,0,0,1,1,2,2,3,3,4,4,6,6],"right_children":[2,4,6,8,10,-1,12,-1,-1,-1,-1,-1,-1],"split_conditions":[2.9E1,1E0,8.3E1,2.35E2,1.44E2,1.3226631E0,9.1E1,-1.2793848E-2,-4.1462484E-1,-2.6541534E-1,5.752813E-1,-1.1811371E0,3.613053E-1],"split_indices":[4,23,0,0,0,0,0,0,0,0,0,0,0],"split_type":[0,0,0,0,0,0,0,0,0,0,0,0,0],"sum_hessian":[2.37E2,1.68E2,6.9E1,1.49E2,1.9E1,6E0,6.3E1,8.1E1,6.8E1,4E0,1.5E1,5E0,5.8E1],"tree_param":{"num_deleted":"0","num_feature":"30","num_nodes":"13","size_leaf_vector":"1"}},{"base_weights":[7.5864387E-1,5.55455E0,-2.1340767E-1,3.9195487E0,2.0107179E0,-3.6211598E0,2.7398546E0,1.2776821E0,2.24122E-1,-1.0530266E0,-2.9667822E-1,3.8484377E-1,-4.1521713E-1],"categories":[],"categories_nodes":[],"categories_segments":[],"categories_sizes":[],"default_left":[0,0,0,0,0,0,0,0,0,0,0,0,0],"id":47,"left_children":[1,3,5,7,-1,9,11,-1,-1,-1,-1,-1,-1],"loss_changes":[1.1619905E3,9.205188E2,2.1032305E3,5.511154E2,0E0,4.07312E2,8.7170233E2,0E0,0E0,0E0,0E0,0E0,0E0],"parents":[2147483647,0,0,1,1,2,2,3,3,5,5,6,6],"right_children":[2,4,6,8,-1,10,12,-1,-1,-1,-1,-1,-1],"split_conditions":[6.62E1,3.34E2,7.34E1,1.02E2,2.0107179E0,5E0,2.5E2,1.2776821E0,2.24122E-1,-1.0530266E0,-2.9667822E-1,3.8484377E-1,-4.1521713E-1],"split_indices":[10,0,12,0,0,14,0,0,0,0,0,0,0],"split_type":[0,0,0,0,0,0,0,0,0,0,0,0,0],"sum_hessian":[2.48E2,4.1E1,2.07E2,3.8E1,3E0,9.6E1,1.11E2,5E0,3.3E1,7E0,8.9E1,9.6E1,1.5E1],"tree_param":{"num_deleted":"0","num_feature":"30","num_nodes":"13","size_leaf_vector":"1"}},{"base_weights":[5.1685214E-1,3.1882226E0,-2.158653E0,1.4243041E0,1.9965906E0,-1.5081815E0,-1.606798E0,6.3754076E-1,7.5806834E-2,-1.1582693E-1,-1.1781012E0],"categories":[],"categories_nodes":[],"categories_segments":[],"categories_sizes":[],"default_left":[0,0,0,0,0,0,0,0,0,0,0],"id":48,"left_children":[1,3,5,-1,7,-1,9,-1,-1,-1,-1],"loss_changes":[1.7865515E3,1.6182219E3,8.672305E2,0E0,6.134188E2,0E0,5.3852905E2,0E0,0E0,0E0,0E0],"parents":[2147483647,0,0,1,1,2,2,4,4,6,6],"right_children":[2,4,6,-1,8,-1,10,-1,-1,-1,-1],"split_conditions":[2.13E2,2.2E1,2.21E2,1.4243041E0,4.6E1,-1.5081815E0,1E0,6.3754076E-1,7.5806834E-2,-1.1582693E-1,-1.1781012E0],"split_indices":[0,4,0,0,0,0,3,0,0,0,0],"split_type":[0,0,0,0,0,0,0,0,0,0,0],"sum_hessian":[2.48E2,1.24E2,1.24E2,1.1E1,1.13E2,4E0,1.2E2,2.4E1,8.9E1,1.16E2,4E0],"tree_param":{"num_deleted":"0","num_feature":"30","num_nodes":"11","size_leaf_vector":"1"}},{"base_weights":[-3.165607E-2,-1.1445562E0,6.1194143E0,2.3151224E0,-2.8540096E0,1.866355E0,3.6532257E0,4.1826755E-1,-9.308464E-1,-7.1398157E-1,-1.3165921E-1,-1.1156148E-1,1.107572E0],"categories":[],"categories_nodes":[],"categories_segments":[],"categories_sizes":[],"default_left":[0,0,0,0,0,0,0,0,0,0,0,0,0],"id":49,"left_children":[1,3,5,7,9,-1,11,-1,-1,-1,-1,-1,-1],"loss_changes":[1.697849E3,1.2485809E3,1.1073934E3,1.5584708E3,9.196594E2,0E0,1.180447E3,0E0,0E0,0E0,0E0,0E0,0E0],"parents":[2147483647,0,0,1,1,2,2,3,3,4,4,6,6],"right_children":[2,4,6,8,10,-1,12,-1,-1,-1,-1,-1,-1],"split_conditions":[9.3E1,1E0,2.07E2,8.3E1,8.9E1,1.866355E0,2.37E2,4.1826755E-1,-9.308464E-1,-7.1398157E-1,-1.3165921E-1,-1.1156148E-1,1.107572E0],"split_indices":[12,20,0,5,0,0,0,0,0,0,0,0,0],"split_type":[0,0,0,0,0,0,0,0,0,0,0,0,0],"sum_hessian":[2.46E2,2.09E2,3.7E1,6.9E1,1.4E2,5E0,3.2E1,6E1,9E0,3.6E1,1.04E2,2E1,1.2E1],"tree_param":{"num_deleted":"0","num_feature":"30","num_nodes":"13","size_leaf_vector":"1"}}]},"name":"gbtree"},"learner_model_param":{"base_score":"5.3400967E1","boost_from_average":"1","num_class":"0","num_feature":"30","num_target":"1"},"objective":{"name":"reg:squarederror","reg_loss_param":{"scale_pos_weight":"1"}}},"version":[2,1,0]}