{"learner":{"attributes":{"scikit_learn":"{\"_estimator_type\": \"regressor\"}"},"feature_names":["jugador_anonimizado","gol","asistencia","edad","peso","altura","minutos_predictor","avg_dist_sess_m_predictor","zona_4_19.9_25.1_kmh_predictor","zona_5_mas_25.1_kmh_predictor","num_aceleraciones_intensas_predictor","num_desaceleraciones_intensas_predictor","num_acel_desintensas_predictor","num_sprints_total_predictor","gol_predictor","asistencia_predictor","max_vel_kmh_predictor","torneo_Libertadores","torneo_Torneo Local","categoria_partido_Normal","posicion_habitual_Delantero","posicion_habitual_Extremo","posicion_habitual_Lateral","posicion_habitual_Lateral ","posicion_habitual_Lateral / Volante","posicion_habitual_Volante / Extremo","posicion_habitual_Volante Central","posicion_habitual_Volante Ofensivo","posicion_habitual_Volante Ofensivo / Extremo"],"feature_types":["int","int","int","int","int","int","float","float","float","float","float","float","float","float","float","float","float","i","i","i","i","i","i","i","i","i","i","i","i"],"gradient_booster":{"model":{"gbtree_model_param":{"num_parallel_tree":"1","num_trees":"50"},"iteration_indptr":[0,1,2,3,4,5,6,7,8,9,10,11,12,13,14,15,16,17,18,19,20,21,22,23,24,25,26,27,28,29,30,31,32,33,34,35,36,37,38,39,40,41,42,43,44,45,46,47,48,49,50],"tree_info":[0,0,0,0,0,0,0,0,0,0,0,0,0,0,0,0,0,0,0,0,0,0,0,0,0,0,0,0,0,0,0,0,0,0,0,0,0,0,0,0,0,0,0,0,0,0,0,0,0,0],"trees":[{"base_weights":[8.3333276E-2,-1.3317754E0,5.2276677E-1,5.174323E-1,-3.3810833E0,-1.0890269E-1,1.2911634E-1,-6.20471E-1,-2.5935355E-1],"categories":[],"categories_nodes":[],"categories_segments":[],"categories_sizes":[],"default_left":[0,0,0,0,0,0,0,0,0],"id":0,"left_children":[1,3,-1,5,7,-1,-1,-1,-1],"loss_changes":[1.8560295E3,7.5966864E2,0E0,1.3316068E2,1.9516321E2,0E0,0E0,0E0,0E0],"parents":[2147483647,0,0,1,1,3,3,4,4],"right_children":[2,4,-1,6,8,-1,-1,-1,-1],"split_conditions":[1.844E2,1E1,5.2276677E-1,8.8036E3,1E0,-1.0890269E-1,1.2911634E-1,-6.20471E-1,-2.5935355E-1],"split_indices":[9,0,0,7,18,0,0,0,0],"split_type":[0,0,0,0,0,0,0,0,0],"sum_hessian":[2.53E2,1.99E2,5.4E1,1.05E2,9.4E1,3.4E1,7.1E1,1.9E1,7.5E1],"tree_param":{"num_deleted":"0","num_feature":"29","num_nodes":"9","size_leaf_vector":"1"}},{"base_weights":[-1.7808089E-1,-2.0887733E0,3.6454756E0,-2.7230212E-1,-3.4385676E0,4.071457E0,-2.620896E-1,1.7670034E-1,-1.22397E-1,-4.0956703E-1,1.3929377E-1,5.204572E-1,2.1337071E-1,3.2822144E-1,-3.7539756E-1],"categories":[],"categories_nodes":[],"categories_segments":[],"categories_sizes":[],"default_left":[0,0,0,0,0,0,0,0,0,0,0,0,0,0,0],"id":1,"left_children":[1,3,5,7,9,11,13,-1,-1,-1,-1,-1,-1,-1,-1],"loss_changes":[1.7974965E3,4.011692E2,1.3756006E2,1.3995538E2,3.0413562E2,1.5137622E2,1.2370811E2,0E0,0E0,0E0,0E0,0E0,0E0,0E0,0E0],"parents":[2147483647,0,0,1,1,2,2,3,3,4,4,5,5,6,6],"right_children":[2,4,6,8,10,12,14,-1,-1,-1,-1,-1,-1,-1,-1],"split_conditions":[5.74E2,1E1,1E0,7.9E1,7.78E1,6.5E1,9.1E1,1.7670034E-1,-1.22397E-1,-4.0956703E-1,1.3929377E-1,5.204572E-1,2.1337071E-1,3.2822144E-1,-3.7539756E-1],"split_indices":[8,0,1,4,11,4,9,0,0,0,0,0,0,0,0],"split_type":[0,0,0,0,0,0,0,0,0,0,0,0,0,0,0],"sum_hessian":[2.44E2,1.63E2,8.1E1,7E1,9.3E1,7.3E1,8E0,2.2E1,4.8E1,8.2E1,1.1E1,4.5E1,2.8E1,4E0,4E0],"tree_param":{"num_deleted":"0","num_feature":"29","num_nodes":"15","size_leaf_vector":"1"}},{"base_weights":[-1.587796E-2,-1.6810898E0,3.4396348E0,-6.5744704E-1,-1.257096E0,4.5167623E0,2.6660082E0,-1.5676215E-1,3.9199945E-1,5.1425505E-1,2.3461305E-1,1.2203264E-1,3.466071E-1],"categories":[],"categories_nodes":[],"categories_segments":[],"categories_sizes":[],"default_left":[0,0,0,0,0,0,0,0,0,0,0,0,0],"id":2,"left_children":[1,3,5,-1,7,9,11,-1,-1,-1,-1,-1,-1],"loss_changes":[1.4155518E3,3.3614587E2,5.4621765E1,0E0,2.537183E2,3.1402344E1,5.2445435E1,0E0,0E0,0E0,0E0,0E0,0E0],"parents":[2147483647,0,0,1,1,2,2,4,4,5,5,6,6],"right_children":[2,4,6,-1,8,10,12,-1,-1,-1,-1,-1,-1],"split_conditions":[5.74E2,2.67E2,1E0,-6.5744704E-1,1E0,9.9E1,4E0,-1.5676215E-1,3.9199945E-1,5.1425505E-1,2.3461305E-1,1.2203264E-1,3.466071E-1],"split_indices":[8,8,19,0,2,6,0,0,0,0,0,0,0],"split_type":[0,0,0,0,0,0,0,0,0,0,0,0,0],"sum_hessian":[2.44E2,1.65E2,7.9E1,1.2E1,1.53E2,3.1E1,4.8E1,1.45E2,8E0,2.3E1,8E0,1.8E1,3E1],"tree_param":{"num_deleted":"0","num_feature":"29","num_nodes":"13","size_leaf_vector":"1"}},{"base_weights":[1.7355067E-1,-1.4275281E0,2.6519518E0,-3.2395158E0,-3.1493446E-1,1.4763117E0,4.8602824E0,1.950691E-1,-4.1936833E-1,-1.3702069E-1,2.5498736E-1,3.4371662E-1,3.9771568E-2,5.850897E-1,7.855969E-2],"categories":[],"categories_nodes":[],"categories_segments":[],"categories_sizes":[],"default_left":[0,0,0,0,0,0,0,0,0,0,0,0,0,0,0],"id":3,"left_children":[1,3,5,7,9,11,13,-1,-1,-1,-1,-1,-1,-1,-1],"loss_changes":[1.0315276E3,3.1750876E2,2.5763733E2,3.053202E2,3.02786E2,1.4245094E2,1.3667908E2,0E0,0E0,0E0,0E0,0E0,0E0,0E0,0E0],"parents":[2147483647,0,0,1,1,2,2,3,3,4,4,5,5,6,6],"right_children":[2,4,6,8,10,12,14,-1,-1,-1,-1,-1,-1,-1,-1],"split_conditions":[1.322E2,1E0,1.618E2,2.2E1,1.85E2,1E0,1E0,1.950691E-1,-4.1936833E-1,-1.3702069E-1,2.5498736E-1,3.4371662E-1,3.9771568E-2,5.850897E-1,7.855969E-2],"split_indices":[12,19,12,3,5,19,1,0,0,0,0,0,0,0,0],"split_type":[0,0,0,0,0,0,0,0,0,0,0,0,0,0,0],"sum_hessian":[2.58E2,1.57E2,1.01E2,5.9E1,9.8E1,6.7E1,3.4E1,9E0,5E1,7.2E1,2.6E1,2.3E1,4.4E1,2.7E1,7E0],"tree_param":{"num_deleted":"0","num_feature":"29","num_nodes":"15","size_leaf_vector":"1"}},{"base_weights":[-8.537338E-2,1.6769098E0,-2.7522666E0,9.9810326E-1,4.2629557E0,-3.5747867E0,1.0962413E-2,2.140177E-1,4.961564E-2,5.3237396E-1,3.5241577E-1,-2.201352E-1,-4.773333E-1,8.922436E-2,-3.8688675E-1],"categories":[],"categories_nodes":[],"categories_segments":[],"categories_sizes":[],"default_left":[0,0,0,0,0,0,0,0,0,0,0,0,0,0,0],"id":4,"left_children":[1,3,5,7,9,11,13,-1,-1,-1,-1,-1,-1,-1,-1],"loss_changes":[1.2876665E3,2.8539026E2,2.4777563E2,7.4608505E1,7.8842773E0,1.27766846E2,9.235173E1,0E0,0E0,0E0,0E0,0E0,0E0,0E0,0E0],"parents":[2147483647,0,0,1,1,2,2,3,3,4,4,5,5,6,6],"right_children":[2,4,6,8,10,12,14,-1,-1,-1,-1,-1,-1,-1,-1],"split_conditions":[1.2E1,1E1,7E0,1E0,1E0,1.75E2,1E0,2.140177E-1,4.961564E-2,5.3237396E-1,3.5241577E-1,-2.201352E-1,-4.773333E-1,8.922436E-2,-3.8688675E-1],"split_indices":[0,0,13,18,19,5,17,0,0,0,0,0,0,0,0],"split_type":[0,0,0,0,0,0,0,0,0,0,0,0,0,0,0],"sum_hessian":[2.72E2,1.64E2,1.08E2,1.31E2,3.3E1,8.3E1,2.5E1,3.9E1,9.2E1,1.1E1,2.2E1,4E1,4.3E1,2.1E1,4E0],"tree_param":{"num_deleted":"0","num_feature":"29","num_nodes":"15","size_leaf_vector":"1"}},{"base_weights":[1.568122E-3,1.57298E0,-2.2769947E0,7.0613945E-1,2.69004E0,1.5067973E0,-3.125959E0,5.5079486E-2,2.6079294E-1,3.440659E-1,1.6913608E-1,-2.4263518E-1,3.0848044E-1,-3.9041173E-1,-5.1846184E-2],"categories":[],"categories_nodes":[],"categories_segments":[],"categories_sizes":[],"default_left":[0,0,0,0,0,0,0,0,0,0,0,0,0,0,0],"id":5,"left_children":[1,3,5,7,9,11,13,-1,-1,-1,-1,-1,-1,-1,-1],"loss_changes":[8.772385E2,1.3850586E2,3.2594055E2,2.3084492E1,4.1407135E1,1.2540903E2,1.643576E2,0E0,0E0,0E0,0E0,0E0,0E0,0E0,0E0],"parents":[2147483647,0,0,1,1,2,2,3,3,4,4,5,5,6,6],"right_children":[2,4,6,8,10,12,14,-1,-1,-1,-1,-1,-1,-1,-1],"split_conditions":[1.2E1,6.5E1,2.3E1,1E0,2.5E1,3.8E1,1.0662E4,5.5079486E-2,2.6079294E-1,3.440659E-1,1.6913608E-1,-2.4263518E-1,3.0848044E-1,-3.9041173E-1,-5.1846184E-2],"split_indices":[0,10,3,2,3,6,7,0,0,0,0,0,0,0,0],"split_type":[0,0,0,0,0,0,0,0,0,0,0,0,0,0,0],"sum_hessian":[2.43E2,1.44E2,9.9E1,8.2E1,6.2E1,1.8E1,8.1E1,7.7E1,5E0,3.4E1,2.8E1,5E0,1.3E1,6.2E1,1.9E1],"tree_param":{"num_deleted":"0","num_feature":"29","num_nodes":"15","size_leaf_vector":"1"}},{"base_weights":[2.1970053E-1,-3.825489E0,5.9795624E-1,-2.2729259E0,-8.339106E-1,1.5563323E-1,2.7589154E0,-6.0581225E-1,-1.9091733E-2,-3.5243344E-2,1.1856456E-1,4.39239E-1,1.2274176E-1],"categories":[],"categories_nodes":[],"categories_segments":[],"categories_sizes":[],"default_left":[0,0,0,0,0,0,0,0,0,0,0,0,0],"id":6,"left_children":[1,3,5,7,-1,9,11,-1,-1,-1,-1,-1,-1],"loss_changes":[3.756358E2,1.28207E2,2.1367921E2,1.328172E2,0E0,9.827775E1,8.9671875E1,0E0,0E0,0E0,0E0,0E0,0E0],"parents":[2147483647,0,0,1,1,2,2,3,3,5,5,6,6],"right_children":[2,4,6,8,-1,10,12,-1,-1,-1,-1,-1,-1],"split_conditions":[4.72E1,1E0,7.78E1,2.3E1,-8.339106E-1,5.74E2,1E0,-6.0581225E-1,-1.9091733E-2,-3.5243344E-2,1.1856456E-1,4.39239E-1,1.2274176E-1],"split_indices":[11,17,11,3,0,8,19,0,0,0,0,0,0],"split_type":[0,0,0,0,0,0,0,0,0,0,0,0,0],"sum_hessian":[2.43E2,2E1,2.23E2,1.6E1,4E0,1.86E2,3.7E1,5E0,1.1E1,1.25E2,6.1E1,1.7E1,2E1],"tree_param":{"num_deleted":"0","num_feature":"29","num_nodes":"13","size_leaf_vector":"1"}},{"base_weights":[2.0640936E-2,-8.4043896E-1,2.2154975E0,-2.9113631E0,-1.9374707E-1,1.5699083E0,4.521037E-1,-6.110494E-1,-2.2274366E-1,3.2622945E-1,-3.7418727E-2,1.868161E-1,-4.9040962E-2],"categories":[],"categories_nodes":[],"categories_segments":[],"categories_sizes":[],"default_left":[0,0,0,0,0,0,0,0,0,0,0,0,0],"id":7,"left_children":[1,3,5,7,9,11,-1,-1,-1,-1,-1,-1,-1],"loss_changes":[4.7623868E2,2.4184018E2,9.8581024E1,8.0471985E1,8.790233E1,3.5942383E1,0E0,0E0,0E0,0E0,0E0,0E0,0E0],"parents":[2147483647,0,0,1,1,2,2,3,3,4,4,5,5],"right_children":[2,4,6,8,10,12,-1,-1,-1,-1,-1,-1,-1],"split_conditions":[6.5E1,9.06E1,1.07432E4,2.3E1,5.2E1,1E0,4.521037E-1,-6.110494E-1,-2.2274366E-1,3.2622945E-1,-3.7418727E-2,1.868161E-1,-4.9040962E-2],"split_indices":[10,12,7,3,11,1,0,0,0,0,0,0,0],"split_type":[0,0,0,0,0,0,0,0,0,0,0,0,0],"sum_hessian":[2.5E2,1.8E2,7E1,4.2E1,1.38E2,5.6E1,1.4E1,6E0,3.6E1,6E0,1.32E2,4.9E1,7E0],"tree_param":{"num_deleted":"0","num_feature":"29","num_nodes":"13","size_leaf_vector":"1"}},{"base_weights":[1.7549641E-1,-4.1410434E-1,2.9411676E0,-2.5696406E0,-5.2468393E-2,3.6220057E0,-4.902506E-1,-1.8358548E-1,-6.696839E-1,3.847562E-2,-1.4801666E-1,4.5598274E-1,2.1647397E-1,-3.5779992E-1,2.0779984E-1],"categories":[],"categories_nodes":[],"categories_segments":[],"categories_sizes":[],"default_left":[0,0,0,0,0,0,0,0,0,0,0,0,0,0,0],"id":8,"left_children":[1,3,5,7,9,11,13,-1,-1,-1,-1,-1,-1,-1,-1],"loss_changes":[3.990945E2,1.573281E2,1.0223404E2,7.553148E1,1.0918461E2,3.9328796E1,7.087592E1,0E0,0E0,0E0,0E0,0E0,0E0,0E0,0E0],"parents":[2147483647,0,0,1,1,2,2,3,3,4,4,5,5,6,6],"right_children":[2,4,6,8,10,12,14,-1,-1,-1,-1,-1,-1,-1,-1],"split_conditions":[7.78E1,8.96E1,1E0,1E0,3E1,9.84E1,1.2E1,-1.8358548E-1,-6.696839E-1,3.847562E-2,-1.4801666E-1,4.5598274E-1,2.1647397E-1,-3.5779992E-1,2.0779984E-1],"split_indices":[11,12,1,17,3,6,0,0,0,0,0,0,0,0,0],"split_type":[0,0,0,0,0,0,0,0,0,0,0,0,0,0,0],"sum_hessian":[2.43E2,2.01E2,4.2E1,2.8E1,1.73E2,3.5E1,7E0,2.5E1,3E0,1.33E2,4E1,2E1,1.5E1,3E0,4E0],"tree_param":{"num_deleted":"0","num_feature":"29","num_nodes":"15","size_leaf_vector":"1"}},{"base_weights":[-1.7986882E-1,-1.4378517E0,1.5289996E0,-1.6670873E0,3.5487568E0,9.5543265E-1,2.7133234E0,-2.354683E-1,-6.1326545E-2,-3.1006003E-2,6.5203846E-1,5.276459E-2,1.5405189E-1,3.501263E-1,-4.821234E-2],"categories":[],"categories_nodes":[],"categories_segments":[],"categories_sizes":[],"default_left":[0,0,0,0,0,0,0,0,0,0,0,0,0,0,0],"id":9,"left_children":[1,3,5,7,9,11,13,-1,-1,-1,-1,-1,-1,-1,-1],"loss_changes":[5.6757666E2,1.7966858E2,7.3487946E1,1.0434799E2,8.229048E1,1.8459648E1,9.232956E1,0E0,0E0,0E0,0E0,0E0,0E0,0E0,0E0],"parents":[2147483647,0,0,1,1,2,2,3,3,4,4,5,5,6,6],"right_children":[2,4,6,8,10,12,14,-1,-1,-1,-1,-1,-1,-1,-1],"split_conditions":[4.838E2,1E0,1.618E2,8E1,9.52E1,1.368E2,1E0,-2.354683E-1,-6.1326545E-2,-3.1006003E-2,6.5203846E-1,5.276459E-2,1.5405189E-1,3.501263E-1,-4.821234E-2],"split_indices":[8,2,12,4,9,12,17,0,0,0,0,0,0,0,0],"split_type":[0,0,0,0,0,0,0,0,0,0,0,0,0,0,0],"sum_hessian":[2.62E2,1.51E2,1.11E2,1.45E2,6E0,7.6E1,3.5E1,8.7E1,5.8E1,3E0,3E0,4.5E1,3.1E1,2.8E1,7E0],"tree_param":{"num_deleted":"0","num_feature":"29","num_nodes":"15","size_leaf_vector":"1"}},{"base_weights":[1.2532052E-1,-2.5745068E0,4.4750974E-1,-2.0198064E0,-4.944047E-1,7.8633887E-1,-7.1949357E-1,-4.5872164E-1,-1.3444947E-1,4.106217E-2,2.0296048E-1,-2.874387E-1,-1.7493594E-3],"categories":[],"categories_nodes":[],"categories_segments":[],"categories_sizes":[],"default_left":[0,0,0,0,0,0,0,0,0,0,0,0,0],"id":10,"left_children":[1,3,5,7,-1,9,11,-1,-1,-1,-1,-1,-1],"loss_changes":[2.4471158E2,2.9445526E1,9.981485E1,3.891137E1,0E0,9.025428E1,8.617561E1,0E0,0E0,0E0,0E0,0E0,0E0],"parents":[2147483647,0,0,1,1,2,2,3,3,5,5,6,6],"right_children":[2,4,6,8,-1,10,12,-1,-1,-1,-1,-1,-1],"split_conditions":[4.06E1,1E0,3E1,1E0,-4.944047E-1,7.64E1,3.1E1,-4.5872164E-1,-1.3444947E-1,4.106217E-2,2.0296048E-1,-2.874387E-1,-1.7493594E-3],"split_indices":[10,27,3,18,0,11,3,0,0,0,0,0,0],"split_type":[0,0,0,0,0,0,0,0,0,0,0,0,0],"sum_hessian":[2.79E2,2.9E1,2.5E2,2.5E1,4E0,1.94E2,5.6E1,4E0,2.1E1,1.5E2,4.4E1,1.3E1,4.3E1],"tree_param":{"num_deleted":"0","num_feature":"29","num_nodes":"13","size_leaf_vector":"1"}},{"base_weights":[-5.2506488E-2,-2.2012026E0,9.5383394E-1,-1.741749E0,-3.958873E0,4.6200138E-1,2.7491643E0,-2.0962766E-1,-3.9660405E-2,-2.4305478E-1,-7.9362124E-1,1.5029073E-1,-1.4008663E-3,4.3583146E-1,1.9007425E-1],"categories":[],"categories_nodes":[],"categories_segments":[],"categories_sizes":[],"default_left":[0,0,0,0,0,0,0,0,0,0,0,0,0,0,0],"id":11,"left_children":[1,3,5,7,9,11,13,-1,-1,-1,-1,-1,-1,-1,-1],"loss_changes":[5.4916644E2,5.851764E1,1.5148921E2,3.0643402E1,7.796936E1,6.790204E1,4.2229767E1,0E0,0E0,0E0,0E0,0E0,0E0,0E0,0E0],"parents":[2147483647,0,0,1,1,2,2,3,3,4,4,5,5,6,6],"right_children":[2,4,6,8,10,12,14,-1,-1,-1,-1,-1,-1,-1,-1],"split_conditions":[5.12E1,1.83E2,7.78E1,4.08E2,1E0,4E0,1E0,-2.0962766E-1,-3.9660405E-2,-2.4305478E-1,-7.9362124E-1,1.5029073E-1,-1.4008663E-3,4.3583146E-1,1.9007425E-1],"split_indices":[10,5,11,8,17,0,18,0,0,0,0,0,0,0,0],"split_type":[0,0,0,0,0,0,0,0,0,0,0,0,0,0,0],"sum_hessian":[2.52E2,8E1,1.72E2,6.5E1,1.5E1,1.36E2,3.6E1,5.1E1,1.4E1,1.2E1,3E0,4.2E1,9.4E1,1.1E1,2.5E1],"tree_param":{"num_deleted":"0","num_feature":"29","num_nodes":"15","size_leaf_vector":"1"}},{"base_weights":[2.2464369E-1,-6.044365E-1,1.5356061E0,1.9334401E-1,-3.6921868E0,3.182523E0,9.4732726E-1,-3.5127097E-1,7.102581E-2,-5.034902E-1,4.6180345E-2,4.7653246E-1,6.48348E-2,-2.7092725E-2,1.4351973E-1],"categories":[],"categories_nodes":[],"categories_segments":[],"categories_sizes":[],"default_left":[0,0,0,0,0,0,0,0,0,0,0,0,0,0,0],"id":12,"left_children":[1,3,5,7,9,11,13,-1,-1,-1,-1,-1,-1,-1,-1],"loss_changes":[2.4982668E2,3.4804578E2,8.321243E1,2.189703E2,1.6407632E2,8.9165634E1,4.021027E1,0E0,0E0,0E0,0E0,0E0,0E0,0E0,0E0],"parents":[2147483647,0,0,1,1,2,2,3,3,4,4,5,5,6,6],"right_children":[2,4,6,8,10,12,14,-1,-1,-1,-1,-1,-1,-1,-1],"split_conditions":[1.322E2,1E0,1E0,6.8E1,1.10018E4,7.2E1,9.52E1,-3.5127097E-1,7.102581E-2,-5.034902E-1,4.6180345E-2,4.7653246E-1,6.48348E-2,-2.7092725E-2,1.4351973E-1],"split_indices":[12,17,18,4,7,4,6,0,0,0,0,0,0,0,0],"split_type":[0,0,0,0,0,0,0,0,0,0,0,0,0,0,0],"sum_hessian":[2.28E2,1.4E2,8.8E1,1.12E2,2.8E1,2.2E1,6.6E1,1.3E1,9.9E1,2.1E1,7E0,1.3E1,9E0,1.9E1,4.7E1],"tree_param":{"num_deleted":"0","num_feature":"29","num_nodes":"15","size_leaf_vector":"1"}},{"base_weights":[-1.01322025E-1,-2.5653532E0,4.5234478E-1,-2.162586E0,-3.7185028E-1,2.0859623E-1,3.1814787E-1,-2.3287128E-1,-9.71522E-2,6.1697006E-2,-1.4533809E-1],"categories":[],"categories_nodes":[],"categories_segments":[],"categories_sizes":[],"default_left":[0,0,0,0,0,0,0,0,0,0,0],"id":13,"left_children":[1,3,5,7,-1,9,-1,-1,-1,-1,-1],"loss_changes":[3.2721674E2,1.2394226E1,1.2971996E2,4.662964E0,0E0,1.2374282E2,0E0,0E0,0E0,0E0,0E0],"parents":[2147483647,0,0,1,1,2,2,3,3,5,5],"right_children":[2,4,6,8,-1,10,-1,-1,-1,-1,-1],"split_conditions":[5E1,4.82E1,2.582E2,2.7E1,-3.7185028E-1,3E1,3.1814787E-1,-2.3287128E-1,-9.71522E-2,6.1697006E-2,-1.4533809E-1],"split_indices":[11,11,9,0,0,3,0,0,0,0,0],"split_type":[0,0,0,0,0,0,0,0,0,0,0],"sum_hessian":[2.38E2,4.3E1,1.95E2,3.4E1,9E0,1.8E2,1.5E1,2.9E1,5E0,1.45E2,3.5E1],"tree_param":{"num_deleted":"0","num_feature":"29","num_nodes":"11","size_leaf_vector":"1"}},{"base_weights":[1.5035075E-1,-2.3264116E-1,1.4596684E0,2.026453E0,-5.0341976E-1,2.8034108E0,7.099247E-1,1.3672306E-1,4.3215355E-1,-1.0733588E-2,-1.3944454E-1,4.8435718E-1,2.1181574E-1,1.4268205E-2,2.677439E-1],"categories":[],"categories_nodes":[],"categories_segments":[],"categories_sizes":[],"default_left":[0,0,0,0,0,0,0,0,0,0,0,0,0,0,0],"id":14,"left_children":[1,3,5,7,9,11,13,-1,-1,-1,-1,-1,-1,-1,-1],"loss_changes":[1.19686584E2,1.1418731E2,5.2412766E1,2.4350868E1,5.8435196E1,1.630307E1,3.9796055E1,0E0,0E0,0E0,0E0,0E0,0E0,0E0,0E0],"parents":[2147483647,0,0,1,1,2,2,3,3,4,4,5,5,6,6],"right_children":[2,4,6,8,10,12,14,-1,-1,-1,-1,-1,-1,-1,-1],"split_conditions":[1.616E2,2.2E1,1E0,2.4E1,3E1,1E0,1.2E1,1.3672306E-1,4.3215355E-1,-1.0733588E-2,-1.3944454E-1,4.8435718E-1,2.1181574E-1,1.4268205E-2,2.677439E-1],"split_indices":[9,3,18,0,3,17,0,0,0,0,0,0,0,0,0],"split_type":[0,0,0,0,0,0,0,0,0,0,0,0,0,0,0],"sum_hessian":[2.37E2,1.84E2,5.3E1,1.9E1,1.65E2,1.8E1,3.5E1,1.6E1,3E0,1.15E2,5E1,3E0,1.5E1,2.8E1,7E0],"tree_param":{"num_deleted":"0","num_feature":"29","num_nodes":"15","size_leaf_vector":"1"}},{"base_weights":[4.246391E-2,-1.2688501E0,5.131432E-1,-3.7129245E0,-1.00085385E-1,9.909174E-1,-3.974644E-1,-5.5773634E-1,-2.1365495E-1,-3.1253093E-1,6.384849E-2,2.589858E-1,3.7303295E-2,4.2822756E-2,-1.4448732E-1],"categories":[],"categories_nodes":[],"categories_segments":[],"categories_sizes":[],"default_left":[0,0,0,0,0,0,0,0,0,0,0,0,0,0,0],"id":15,"left_children":[1,3,5,7,9,11,13,-1,-1,-1,-1,-1,-1,-1,-1],"loss_changes":[1.5186713E2,1.85304E2,7.9140594E1,4.9803833E1,1.0254078E2,1.1660118E2,5.5103466E1,0E0,0E0,0E0,0E0,0E0,0E0,0E0,0E0],"parents":[2147483647,0,0,1,1,2,2,3,3,4,4,5,5,6,6],"right_children":[2,4,6,8,10,12,14,-1,-1,-1,-1,-1,-1,-1,-1],"split_conditions":[4.9E1,1E0,1.79E2,6.9E1,3.2E1,1E0,2.3E1,-5.5773634E-1,-2.1365495E-1,-3.1253093E-1,6.384849E-2,2.589858E-1,3.7303295E-2,4.2822756E-2,-1.4448732E-1],"split_indices":[10,19,5,4,10,18,3,0,0,0,0,0,0,0,0],"split_type":[0,0,0,0,0,0,0,0,0,0,0,0,0,0,0],"sum_hessian":[2.44E2,6.4E1,1.8E2,2E1,4.4E1,1.18E2,6.2E1,8E0,1.2E1,8E0,3.6E1,3.2E1,8.6E1,3.5E1,2.7E1],"tree_param":{"num_deleted":"0","num_feature":"29","num_nodes":"15","size_leaf_vector":"1"}},{"base_weights":[2.4201931E-1,8.242518E-1,-1.6816732E0,1.6560754E0,-3.6717698E-1,-2.3890083E0,2.6841292E-1,4.0778303E-1,1.1418974E-1,-1.8912463E-2,-2.3535827E-1,-1.800759E-1,-4.3854547E-1],"categories":[],"categories_nodes":[],"categories_segments":[],"categories_sizes":[],"default_left":[0,0,0,0,0,0,0,0,0,0,0,0,0],"id":16,"left_children":[1,3,5,7,9,11,-1,-1,-1,-1,-1,-1,-1],"loss_changes":[2.601145E2,1.770165E2,1.7316898E2,1.2609091E2,2.5727512E1,4.730002E1,0E0,0E0,0E0,0E0,0E0,0E0,0E0],"parents":[2147483647,0,0,1,1,2,2,3,3,4,4,5,5],"right_children":[2,4,6,8,10,12,-1,-1,-1,-1,-1,-1,-1],"split_conditions":[7.9E1,1.49E2,1E0,6.36E1,1E0,1.00218E4,2.6841292E-1,4.0778303E-1,1.1418974E-1,-1.8912463E-2,-2.3535827E-1,-1.800759E-1,-4.3854547E-1],"split_indices":[4,9,1,6,1,7,0,0,0,0,0,0,0],"split_type":[0,0,0,0,0,0,0,0,0,0,0,0,0],"sum_hessian":[2.3E2,1.77E2,5.3E1,1.04E2,7.3E1,4.6E1,7E0,1.7E1,8.7E1,6.8E1,5E0,3.7E1,9E0],"tree_param":{"num_deleted":"0","num_feature":"29","num_nodes":"13","size_leaf_vector":"1"}},{"base_weights":[-4.190985E-1,-9.1335994E-1,1.556348E0,-1.1180176E0,2.462801E0,3.3984306E0,5.866708E-1,-5.907718E-2,-2.6983115E-1,5.568665E-1,-2.377969E-1,1.9943562E-1,3.8553414E-1,2.8799176E-2,1.3179627E-1],"categories":[],"categories_nodes":[],"categories_segments":[],"categories_sizes":[],"default_left":[0,0,0,0,0,0,0,0,0,0,0,0,0,0,0],"id":17,"left_children":[1,3,5,7,9,11,13,-1,-1,-1,-1,-1,-1,-1,-1],"loss_changes":[2.2891966E2,1.3196245E2,8.195883E1,1.4588289E2,1.7862462E2,2.5756683E0,6.609927E0,0E0,0E0,0E0,0E0,0E0,0E0,0E0,0E0],"parents":[2147483647,0,0,1,1,2,2,3,3,4,4,5,5,6,6],"right_children":[2,4,6,8,10,12,14,-1,-1,-1,-1,-1,-1,-1,-1],"split_conditions":[7.8E1,1E0,1E0,1E0,9.82E1,2E0,2.5E1,-5.907718E-2,-2.6983115E-1,5.568665E-1,-2.377969E-1,1.9943562E-1,3.8553414E-1,2.8799176E-2,1.3179627E-1],"split_indices":[10,2,19,17,6,0,3,0,0,0,0,0,0,0,0],"split_type":[0,0,0,0,0,0,0,0,0,0,0,0,0,0,0],"sum_hessian":[2.32E2,1.86E2,4.6E1,1.76E2,1E1,1.5E1,3.1E1,1.33E2,4.3E1,6E0,4E0,5E0,1E1,2.3E1,8E0],"tree_param":{"num_deleted":"0","num_feature":"29","num_nodes":"15","size_leaf_vector":"1"}},{"base_weights":[-3.942876E-1,-3.3101493E-1,-1.6830555E-1,-5.364861E-1,9.581816E-1,3.7037954E-3,-8.5375845E-2,7.715295E-2,1.8886733E-1],"categories":[],"categories_nodes":[],"categories_segments":[],"categories_sizes":[],"default_left":[0,0,0,0,0,0,0,0,0],"id":18,"left_children":[1,-1,3,5,7,-1,-1,-1,-1],"loss_changes":[1.648349E2,0E0,9.75657E1,3.2239136E1,8.616173E0,0E0,0E0,0E0,0E0],"parents":[2147483647,0,0,2,2,3,3,4,4],"right_children":[2,-1,4,6,8,-1,-1,-1,-1],"split_conditions":[8.64E1,-3.3101493E-1,1.56E2,5E0,1.4E1,3.7037954E-3,-8.5375845E-2,7.715295E-2,1.8886733E-1],"split_indices":[12,0,9,13,0,0,0,0,0],"split_type":[0,0,0,0,0,0,0,0,0],"sum_hessian":[2.5E2,1.7E1,2.33E2,1.76E2,5.7E1,6.3E1,1.13E2,4.9E1,8E0],"tree_param":{"num_deleted":"0","num_feature":"29","num_nodes":"9","size_leaf_vector":"1"}},{"base_weights":[1.5839379E-1,-5.8569926E-1,6.317525E-1,1.0128727E0,-1.02549E0,1.0570611E0,-8.378812E-1,-4.56154E-3,2.7386177E-1,-1.5542439E-1,7.352437E-2,3.980511E-1,8.327981E-2,2.1735168E-1,-3.0545357E-1],"categories":[],"categories_nodes":[],"categories_segments":[],"categories_sizes":[],"default_left":[0,0,0,0,0,0,0,0,0,0,0,0,0,0,0],"id":19,"left_children":[1,3,5,7,9,11,13,-1,-1,-1,-1,-1,-1,-1,-1],"loss_changes":[8.596019E1,6.782724E1,9.401781E1,3.848521E1,7.096734E1,7.273714E1,2.3359685E2,0E0,0E0,0E0,0E0,0E0,0E0,0E0,0E0],"parents":[2147483647,0,0,1,1,2,2,3,3,4,4,5,5,6,6],"right_children":[2,4,6,8,10,12,14,-1,-1,-1,-1,-1,-1,-1,-1],"split_conditions":[5.3E1,5.8E1,1E0,1.74E2,1E0,1E0,6E0,-4.56154E-3,2.7386177E-1,-1.5542439E-1,7.352437E-2,3.980511E-1,8.327981E-2,2.1735168E-1,-3.0545357E-1],"split_indices":[10,6,17,5,17,18,0,0,0,0,0,0,0,0,0],"split_type":[0,0,0,0,0,0,0,0,0,0,0,0,0,0,0],"sum_hessian":[2.42E2,9.4E1,1.48E2,2E1,7.4E1,1.15E2,3.3E1,1.3E1,7E0,5.7E1,1.7E1,7E0,1.08E2,1.4E1,1.9E1],"tree_param":{"num_deleted":"0","num_feature":"29","num_nodes":"15","size_leaf_vector":"1"}},{"base_weights":[-4.1571163E-2,-2.1722507E0,2.0340723E-1,-1.6092068E0,-4.3278033E-1,1.3472327E0,-4.5273583E-2,-4.4497065E-2,-3.3707997E-1,1.09347045E-1,3.4846064E-1,-6.851127E-2,4.9237695E-2],"categories":[],"categories_nodes":[],"categories_segments":[],"categories_sizes":[],"default_left":[0,0,0,0,0,0,0,0,0,0,0,0,0],"id":20,"left_children":[1,3,5,7,-1,9,11,-1,-1,-1,-1,-1,-1],"loss_changes":[1.3667615E2,2.5804787E1,6.690614E1,4.567102E1,0E0,1.8969849E1,6.707524E1,0E0,0E0,0E0,0E0,0E0,0E0],"parents":[2147483647,0,0,1,1,2,2,3,3,5,5,6,6],"right_children":[2,4,6,8,-1,10,12,-1,-1,-1,-1,-1,-1],"split_conditions":[4.72E1,1E0,8.36E3,2.3E1,-4.3278033E-1,4.16E2,5.536E2,-4.4497065E-2,-3.3707997E-1,1.09347045E-1,3.4846064E-1,-6.851127E-2,4.9237695E-2],"split_indices":[11,17,7,0,0,8,8,0,0,0,0,0,0],"split_type":[0,0,0,0,0,0,0,0,0,0,0,0,0],"sum_hessian":[2.6E2,2.6E1,2.34E2,2.2E1,4E0,4.1E1,1.93E2,1.4E1,8E0,3.8E1,3E0,8.8E1,1.05E2],"tree_param":{"num_deleted":"0","num_feature":"29","num_nodes":"13","size_leaf_vector":"1"}},{"base_weights":[-1.4716089E-1,-1.6322714E0,7.151203E-2,-1.1192065E0,-1.9691437E0,2.895684E-1,-1.3046267E0,1.0224527E-1,-1.9909419E-1,-5.033428E-1,-7.341034E-2,1.1431899E-2,2.1773076E-1,-4.642372E-1,-8.69489E-3],"categories":[],"categories_nodes":[],"categories_segments":[],"categories_sizes":[],"default_left":[0,0,0,0,0,0,0,0,0,0,0,0,0,0,0],"id":21,"left_children":[1,3,5,7,9,11,13,-1,-1,-1,-1,-1,-1,-1,-1],"loss_changes":[8.098034E1,3.3269196E0,6.5794304E1,3.0040049E1,6.44262E1,6.227705E1,1.2152533E2,0E0,0E0,0E0,0E0,0E0,0E0,0E0,0E0],"parents":[2147483647,0,0,1,1,2,2,3,3,4,4,5,5,6,6],"right_children":[2,4,6,8,10,12,14,-1,-1,-1,-1,-1,-1,-1,-1],"split_conditions":[4.06E1,2.572E2,8.3E1,1E0,1E0,1E0,1E0,1.0224527E-1,-1.9909419E-1,-5.033428E-1,-7.341034E-2,1.1431899E-2,2.1773076E-1,-4.642372E-1,-8.69489E-3],"split_indices":[10,8,4,19,19,1,19,0,0,0,0,0,0,0,0],"split_type":[0,0,0,0,0,0,0,0,0,0,0,0,0,0,0],"sum_hessian":[2.48E2,3.1E1,2.17E2,1.4E1,1.7E1,1.88E2,2.9E1,4E0,1E1,4E0,1.3E1,1.73E2,1.5E1,7E0,2.2E1],"tree_param":{"num_deleted":"0","num_feature":"29","num_nodes":"15","size_leaf_vector":"1"}},{"base_weights":[7.912164E-2,1.4281374E0,-2.0599285E-1,3.728126E-1,8.616218E-1,1.169061E0,-3.9232978E-1,2.2530925E-1,2.1490982E-2,-4.9867477E-2,1.5275419E-1,-5.7006665E-2,1.4206678E-1],"categories":[],"categories_nodes":[],"categories_segments":[],"categories_sizes":[],"default_left":[0,0,0,0,0,0,0,0,0,0,0,0,0],"id":22,"left_children":[1,3,5,-1,7,9,11,-1,-1,-1,-1,-1,-1],"loss_changes":[9.2603935E1,5.1512894E1,5.144709E1,0E0,3.1011614E1,1.511018E1,5.752349E1,0E0,0E0,0E0,0E0,0E0,0E0],"parents":[2147483647,0,0,1,1,2,2,4,4,5,5,6,6],"right_children":[2,4,6,-1,8,10,12,-1,-1,-1,-1,-1,-1],"split_conditions":[1.7E2,5.74E2,2.2E1,3.728126E-1,1E0,1.74E2,1E0,2.2530925E-1,2.1490982E-2,-4.9867477E-2,1.5275419E-1,-5.7006665E-2,1.4206678E-1],"split_indices":[5,8,3,0,19,5,1,0,0,0,0,0,0],"split_type":[0,0,0,0,0,0,0,0,0,0,0,0,0],"sum_hessian":[2.39E2,4.1E1,1.98E2,7E0,3.4E1,2.3E1,1.75E2,1E1,2.4E1,4E0,1.9E1,1.6E2,1.5E1],"tree_param":{"num_deleted":"0","num_feature":"29","num_nodes":"13","size_leaf_vector":"1"}},{"base_weights":[1.3767E-1,-3.0298743E-1,7.670652E-1,-7.4093795E-1,6.352688E-1,1.5453827E0,1.8330485E-2,-2.4493483E-1,-3.0996088E-2,1.7078392E-1,1.7493783E-2,1.9949618E-1,5.5531997E-2,5.0693195E-2,-1.3789831E-1],"categories":[],"categories_nodes":[],"categories_segments":[],"categories_sizes":[],"default_left":[0,0,0,0,0,0,0,0,0,0,0,0,0,0,0],"id":23,"left_children":[1,3,5,7,9,11,13,-1,-1,-1,-1,-1,-1,-1,-1],"loss_changes":[6.873729E1,6.046353E1,5.9412518E1,7.2869354E1,2.2906889E1,2.1147713E1,3.6883713E1,0E0,0E0,0E0,0E0,0E0,0E0,0E0,0E0],"parents":[2147483647,0,0,1,1,2,2,3,3,4,4,5,5,6,6],"right_children":[2,4,6,8,10,12,14,-1,-1,-1,-1,-1,-1,-1,-1],"split_conditions":[7.2E1,9.64E1,9.9E1,1E0,1E0,8.3E1,1E0,-2.4493483E-1,-3.0996088E-2,1.7078392E-1,1.7493783E-2,1.9949618E-1,5.5531997E-2,5.0693195E-2,-1.3789831E-1],"split_indices":[4,6,6,18,18,4,17,0,0,0,0,0,0,0,0],"split_type":[0,0,0,0,0,0,0,0,0,0,0,0,0,0,0],"sum_hessian":[2.46E2,1.45E2,1.01E2,9.9E1,4.6E1,4.9E1,5.2E1,1.9E1,8E1,1.3E1,3.3E1,3.3E1,1.6E1,3.9E1,1.3E1],"tree_param":{"num_deleted":"0","num_feature":"29","num_nodes":"15","size_leaf_vector":"1"}},{"base_weights":[-3.4354505E-1,1.9350307E-2,-1.5981017E0,-2.6337523E0,2.5120983E-1,-3.3156672E0,-5.0606113E-2,-3.1274328E-1,-9.221687E-2,4.21561E-2,-1.6848277E-1,-4.1566268E-1,2.5590077E-1,-2.1698976E-1,6.57933E-2],"categories":[],"categories_nodes":[],"categories_segments":[],"categories_sizes":[],"default_left":[0,0,0,0,0,0,0,0,0,0,0,0,0,0,0],"id":24,"left_children":[1,3,5,7,9,11,13,-1,-1,-1,-1,-1,-1,-1,-1],"loss_changes":[1.1567023E2,1.22460754E2,1.513339E2,1.063559E1,6.1064808E1,1.440267E2,4.7977276E1,0E0,0E0,0E0,0E0,0E0,0E0,0E0,0E0],"parents":[2147483647,0,0,1,1,2,2,3,3,4,4,5,5,6,6],"right_children":[2,4,6,8,10,12,14,-1,-1,-1,-1,-1,-1,-1,-1],"split_conditions":[1E0,3.2E0,9.7E1,1.83E2,1E0,1E0,6.4E1,-3.1274328E-1,-9.221687E-2,4.21561E-2,-1.6848277E-1,-4.1566268E-1,2.5590077E-1,-2.1698976E-1,6.57933E-2],"split_indices":[17,13,6,5,25,2,11,0,0,0,0,0,0,0,0],"split_type":[0,0,0,0,0,0,0,0,0,0,0,0,0,0,0],"sum_hessian":[2.53E2,1.97E2,5.6E1,1.5E1,1.82E2,2.6E1,3E1,1.1E1,4E0,1.68E2,1.4E1,2.3E1,3E0,7E0,2.3E1],"tree_param":{"num_deleted":"0","num_feature":"29","num_nodes":"15","size_leaf_vector":"1"}},{"base_weights":[1.3792334E-1,-1.1659338E-1,1.560927E0,-1.1145302E0,1.0647022E-1,2.3487273E-1,7.344705E-1,1.5937519E-1,-1.98014E-1,-1.6563107E-1,3.5760473E-2,4.5255225E-2,8.2296744E-2],"categories":[],"categories_nodes":[],"categories_segments":[],"categories_sizes":[],"default_left":[0,0,0,0,0,0,0,0,0,0,0,0,0],"id":25,"left_children":[1,3,5,7,9,-1,11,-1,-1,-1,-1,-1,-1],"loss_changes":[9.072655E1,4.7533184E1,2.3016075E1,9.458415E1,7.806394E1,0E0,1.2654305E-1,0E0,0E0,0E0,0E0,0E0,0E0],"parents":[2147483647,0,0,1,1,2,2,3,3,4,4,6,6],"right_children":[2,4,6,8,10,-1,12,-1,-1,-1,-1,-1,-1],"split_conditions":[7.78E1,2.65E1,2.176E2,1E0,5.76E1,2.3487273E-1,1E0,1.5937519E-1,-1.98014E-1,-1.6563107E-1,3.5760473E-2,4.5255225E-2,8.2296744E-2],"split_indices":[11,16,9,18,9,0,18,0,0,0,0,0,0],"split_type":[0,0,0,0,0,0,0,0,0,0,0,0,0],"sum_hessian":[2.49E2,2.12E2,3.7E1,3.8E1,1.74E2,1.8E1,1.9E1,9E0,2.9E1,2.1E1,1.53E2,6E0,1.3E1],"tree_param":{"num_deleted":"0","num_feature":"29","num_nodes":"13","size_leaf_vector":"1"}},{"base_weights":[5.1006686E-2,-1.2681764E-1,2.4852457E0,2.0950286E0,-3.3387423E-1,3.7969923E0,-1.4223446E-1,5.814701E-2,5.5297536E-1,-1.3608071E-1,-8.997697E-3,5.480522E-1,1.5710354E-1],"categories":[],"categories_nodes":[],"categories_segments":[],"categories_sizes":[],"default_left":[0,0,0,0,0,0,0,0,0,0,0,0,0],"id":26,"left_children":[1,3,5,7,9,11,-1,-1,-1,-1,-1,-1,-1],"loss_changes":[1.0809904E2,1.0789063E2,9.2538704E1,1.0075777E2,5.3477306E1,4.0106934E1,0E0,0E0,0E0,0E0,0E0,0E0,0E0],"parents":[2147483647,0,0,1,1,2,2,3,3,4,4,5,5],"right_children":[2,4,6,8,10,12,-1,-1,-1,-1,-1,-1,-1],"split_conditions":[1E0,5.8E1,9.82E1,1.74E2,1.03E2,4.486E2,-1.4223446E-1,5.814701E-2,5.5297536E-1,-1.3608071E-1,-8.997697E-3,5.480522E-1,1.5710354E-1],"split_indices":[2,6,6,5,12,8,0,0,0,0,0,0,0],"split_type":[0,0,0,0,0,0,0,0,0,0,0,0,0],"sum_hessian":[2.48E2,2.32E2,1.6E1,1.9E1,2.13E2,1.2E1,4E0,1.4E1,5E0,4E1,1.73E2,6E0,6E0],"tree_param":{"num_deleted":"0","num_feature":"29","num_nodes":"13","size_leaf_vector":"1"}},{"base_weights":[9.859063E-3,-6.742181E-1,1.1532118E-1,4.5399594E-1,-1.1306355E0,1.7490524E-1,1.1333527E-2,-2.338999E-1,9.3714334E-2],"categories":[],"categories_nodes":[],"categories_segments":[],"categories_sizes":[],"default_left":[0,0,0,0,0,0,0,0,0],"id":27,"left_children":[1,-1,3,5,7,-1,-1,-1,-1],"loss_changes":[1.852074E2,0E0,1.08538666E2,8.8919075E1,1.3961655E2,0E0,0E0,0E0,0E0],"parents":[2147483647,0,0,2,2,3,3,4,4],"right_children":[2,-1,4,6,8,-1,-1,-1,-1],"split_conditions":[2.6E1,-6.742181E-1,1E0,5.76E1,5.72E1,1.7490524E-1,1.1333527E-2,-2.338999E-1,9.3714334E-2],"split_indices":[16,0,17,11,10,0,0,0,0],"split_type":[0,0,0,0,0,0,0,0,0],"sum_hessian":[2.58E2,3E0,2.55E2,2.01E2,5.4E1,4.1E1,1.6E2,3.4E1,2E1],"tree_param":{"num_deleted":"0","num_feature":"29","num_nodes":"9","size_leaf_vector":"1"}},{"base_weights":[2.5138938E-1,1.2245532E-1,2.9165664E-1,5.056462E-1,-4.573875E-1,3.3495497E-2,3.5148832E-1,9.7004905E-2,-1.2074313E-1],"categories":[],"categories_nodes":[],"categories_segments":[],"categories_sizes":[],"default_left":[0,0,0,0,0,0,0,0,0],"id":28,"left_children":[1,3,-1,5,7,-1,-1,-1,-1],"loss_changes":[8.9330826E1,5.57789E1,0E0,7.6383896E1,1.0823526E2,0E0,0E0,0E0,0E0],"parents":[2147483647,0,0,1,1,3,3,4,4],"right_children":[2,4,-1,6,8,-1,-1,-1,-1],"split_conditions":[9.04E2,7.1E1,2.9165664E-1,1E0,1E0,3.3495497E-2,3.5148832E-1,9.7004905E-2,-1.2074313E-1],"split_indices":[8,11,0,2,19,0,0,0,0],"split_type":[0,0,0,0,0,0,0,0,0],"sum_hessian":[2.6E2,2.49E2,1.1E1,1.5E2,9.9E1,1.43E2,7E0,3.4E1,6.5E1],"tree_param":{"num_deleted":"0","num_feature":"29","num_nodes":"9","size_leaf_vector":"1"}},{"base_weights":[1.0209859E-2,-2.8245413E-1,1.6374582E0,-1.5073359E-2,-2.046665E0,-4.6462193E-1,3.0013742E0,-1.47662265E-2,2.063409E-1,-3.423472E-1,4.031143E-1,-2.2116256E-1,1.3340065E-1,3.7134787E-1,1.274643E-2],"categories":[],"categories_nodes":[],"categories_segments":[],"categories_sizes":[],"default_left":[0,0,0,0,0,0,0,0,0,0,0,0,0,0,0],"id":29,"left_children":[1,3,5,7,9,11,13,-1,-1,-1,-1,-1,-1,-1,-1],"loss_changes":[1.2809402E2,1.0752041E2,1.1894399E2,5.514584E1,2.648396E2,5.63679E1,5.0689774E1,0E0,0E0,0E0,0E0,0E0,0E0,0E0,0E0],"parents":[2147483647,0,0,1,1,2,2,3,3,4,4,5,5,6,6],"right_children":[2,4,6,8,10,12,14,-1,-1,-1,-1,-1,-1,-1,-1],"split_conditions":[9.3E1,3.1E1,1E0,1E0,1E0,9.668E3,1E0,-1.47662265E-2,2.063409E-1,-3.423472E-1,4.031143E-1,-2.2116256E-1,1.3340065E-1,3.7134787E-1,1.274643E-2],"split_indices":[11,3,19,2,17,7,1,0,0,0,0,0,0,0,0],"split_type":[0,0,0,0,0,0,0,0,0,0,0,0,0,0,0],"sum_hessian":[2.67E2,2.27E2,4E1,1.98E2,2.9E1,1.6E1,2.4E1,1.87E2,1.1E1,2.4E1,5E0,8E0,8E0,1.9E1,5E0],"tree_param":{"num_deleted":"0","num_feature":"29","num_nodes":"15","size_leaf_vector":"1"}},{"base_weights":[-1.22760154E-1,-1.011788E0,7.672577E-1,-1.7465243E0,1.8793036E-1,1.1029314E0,-1.9181015E-1,-3.0698907E-1,-1.2600785E-1,1.8326145E-1,-2.3860225E-2,2.4167943E-1,9.490303E-2,1.072638E-1,-7.882067E-2],"categories":[],"categories_nodes":[],"categories_segments":[],"categories_sizes":[],"default_left":[0,0,0,0,0,0,0,0,0,0,0,0,0,0,0],"id":30,"left_children":[1,3,5,7,9,11,13,-1,-1,-1,-1,-1,-1,-1,-1],"loss_changes":[1.9621523E2,1.0963132E2,4.0131355E1,4.570015E1,3.4109814E1,1.6309242E1,2.5731174E1,0E0,0E0,0E0,0E0,0E0,0E0,0E0,0E0],"parents":[2147483647,0,0,1,1,2,2,3,3,4,4,5,5,6,6],"right_children":[2,4,6,8,10,12,14,-1,-1,-1,-1,-1,-1,-1,-1],"split_conditions":[4.486E2,5.3E1,9.9E1,1E0,8.2902E3,4.56E1,1E0,-3.0698907E-1,-1.2600785E-1,1.8326145E-1,-2.3860225E-2,2.4167943E-1,9.490303E-2,1.072638E-1,-7.882067E-2],"split_indices":[8,10,6,18,7,10,19,0,0,0,0,0,0,0,0],"split_type":[0,0,0,0,0,0,0,0,0,0,0,0,0,0,0],"sum_hessian":[2.46E2,1.23E2,1.23E2,7.6E1,4.7E1,9.1E1,3.2E1,1.9E1,5.7E1,9E0,3.8E1,8E0,8.3E1,1E1,2.2E1],"tree_param":{"num_deleted":"0","num_feature":"29","num_nodes":"15","size_leaf_vector":"1"}},{"base_weights":[-4.7307628E-1,-1.9683177E0,-2.797437E-1,1.3247965E-1,-2.926658E0,-4.031679E-1,1.311399E0,-4.5327994E-1,-1.8749386E-1,-3.1945977E-1,-2.5795016E-2,3.7607163E-1,1.8156689E-2],"categories":[],"categories_nodes":[],"categories_segments":[],"categories_sizes":[],"default_left":[0,0,0,0,0,0,0,0,0,0,0,0,0],"id":31,"left_children":[1,3,5,-1,7,9,11,-1,-1,-1,-1,-1,-1],"loss_changes":[7.056279E1,9.224307E1,4.3537148E1,0E0,2.866391E1,8.1870445E1,4.3594257E1,0E0,0E0,0E0,0E0,0E0,0E0],"parents":[2147483647,0,0,1,1,2,2,4,4,5,5,6,6],"right_children":[2,4,6,-1,8,10,12,-1,-1,-1,-1,-1,-1],"split_conditions":[4E0,3.2E1,1E0,1.3247965E-1,1E0,4.06E1,6.74E1,-4.5327994E-1,-1.8749386E-1,-3.1945977E-1,-2.5795016E-2,3.7607163E-1,1.8156689E-2],"split_indices":[13,10,2,0,19,10,6,0,0,0,0,0,0],"split_type":[0,0,0,0,0,0,0,0,0,0,0,0,0],"sum_hessian":[2.45E2,2.7E1,2.18E2,6E0,2.1E1,2.03E2,1.5E1,7E0,1.4E1,9E0,1.94E2,4E0,1.1E1],"tree_param":{"num_deleted":"0","num_feature":"29","num_nodes":"13","size_leaf_vector":"1"}},{"base_weights":[3.26244E-1,-5.053932E-1,8.075941E-1,-6.143748E-1,2.073041E-1,-4.03312E-1,1.1498743E0,-2.9286394E-2,-1.1353085E-1,-1.1496142E-1,1.9633296E-1,8.9547046E-2,1.6313042E-1],"categories":[],"categories_nodes":[],"categories_segments":[],"categories_sizes":[],"default_left":[0,0,0,0,0,0,0,0,0,0,0,0,0],"id":32,"left_children":[1,3,5,7,-1,9,11,-1,-1,-1,-1,-1,-1],"loss_changes":[1.01285934E2,2.7406797E1,6.677881E1,1.4741234E1,0E0,6.584135E1,1.3848923E1,0E0,0E0,0E0,0E0,0E0,0E0],"parents":[2147483647,0,0,1,1,2,2,3,3,5,5,6,6],"right_children":[2,4,6,8,-1,10,12,-1,-1,-1,-1,-1,-1],"split_conditions":[9.24E1,1E0,5E0,2.95E1,2.073041E-1,1E0,7.4E1,-2.9286394E-2,-1.1353085E-1,-1.1496142E-1,1.9633296E-1,8.9547046E-2,1.6313042E-1],"split_indices":[9,1,0,16,0,17,4,0,0,0,0,0,0],"split_type":[0,0,0,0,0,0,0,0,0,0,0,0,0],"sum_hessian":[2.51E2,9.2E1,1.59E2,8.9E1,3E0,3.5E1,1.24E2,5.6E1,3.3E1,2.7E1,8E0,8.3E1,4.1E1],"tree_param":{"num_deleted":"0","num_feature":"29","num_nodes":"13","size_leaf_vector":"1"}},{"base_weights":[4.7179107E-2,-1.4455655E-1,1.2949363E0,-8.398536E-3,-1.548692E0,8.5936123E-1,3.1117973E-1,4.892723E-2,-3.1835414E-2,-9.717903E-2,-2.9696587E-1,-3.7013475E-2,1.07969955E-1],"categories":[],"categories_nodes":[],"categories_segments":[],"categories_sizes":[],"default_left":[0,0,0,0,0,0,0,0,0,0,0,0,0],"id":33,"left_children":[1,3,5,7,9,11,-1,-1,-1,-1,-1,-1,-1],"loss_changes":[5.9279358E1,4.109162E1,2.3441368E1,3.0544165E1,1.2689518E1,7.984976E0,0E0,0E0,0E0,0E0,0E0,0E0,0E0],"parents":[2147483647,0,0,1,1,2,2,3,3,4,4,5,5],"right_children":[2,4,6,8,10,12,-1,-1,-1,-1,-1,-1,-1],"split_conditions":[1E0,1E0,1E0,9.52E1,1E0,1E0,3.1117973E-1,4.892723E-2,-3.1835414E-2,-9.717903E-2,-2.9696587E-1,-3.7013475E-2,1.07969955E-1],"split_indices":[20,27,17,6,17,19,0,0,0,0,0,0,0],"split_type":[0,0,0,0,0,0,0,0,0,0,0,0,0],"sum_hessian":[2.46E2,2.14E2,3.2E1,1.96E2,1.8E1,2.7E1,5E0,7.5E1,1.21E2,1.4E1,4E0,4E0,2.3E1],"tree_param":{"num_deleted":"0","num_feature":"29","num_nodes":"13","size_leaf_vector":"1"}},{"base_weights":[5.160481E-1,-1.8613951E-1,6.2607306E-1,2.406279E0,2.8854164E-1,1.2273312E-2,3.247491E-1,5.2931257E-2,-3.7561547E-2],"categories":[],"categories_nodes":[],"categories_segments":[],"categories_sizes":[],"default_left":[0,0,0,0,0,0,0,0,0],"id":34,"left_children":[1,-1,3,5,7,-1,-1,-1,-1],"loss_changes":[6.4728874E1,0E0,1.3930966E2,7.067645E1,3.170103E1,0E0,0E0,0E0,0E0],"parents":[2147483647,0,0,2,2,3,3,4,4],"right_children":[2,-1,4,6,8,-1,-1,-1,-1],"split_conditions":[3.68E1,-1.8613951E-1,4.56E1,4.06E1,1E0,1.2273312E-2,3.247491E-1,5.2931257E-2,-3.7561547E-2],"split_indices":[9,0,10,10,17,0,0,0,0],"split_type":[0,0,0,0,0,0,0,0,0],"sum_hessian":[2.42E2,1E1,2.32E2,3.6E1,1.96E2,1E1,2.6E1,1.44E2,5.2E1],"tree_param":{"num_deleted":"0","num_feature":"29","num_nodes":"9","size_leaf_vector":"1"}},{"base_weights":[1.6770144E-1,9.084862E-1,-5.744038E-1,1.511684E-2,2.0053413E0,4.3001688E-1,-1.0757648E0,-1.5589686E-2,2.9185706E-1,-5.2265823E-2,3.0928075E-1,-3.5324028E-1,1.16804175E-1,-1.4828649E-1,2.355335E-2],"categories":[],"categories_nodes":[],"categories_segments":[],"categories_sizes":[],"default_left":[0,0,0,0,0,0,0,0,0,0,0,0,0,0,0],"id":35,"left_children":[1,3,5,7,9,11,13,-1,-1,-1,-1,-1,-1,-1,-1],"loss_changes":[1.3960612E2,1.24416565E2,6.4416916E1,3.5708652E1,1.58316E2,1.2987366E2,4.572477E1,0E0,0E0,0E0,0E0,0E0,0E0,0E0,0E0],"parents":[2147483647,0,0,1,1,2,2,3,3,4,4,5,5,6,6],"right_children":[2,4,6,8,10,12,14,-1,-1,-1,-1,-1,-1,-1,-1],"split_conditions":[5.56E1,2.85E1,1E0,1E0,1E0,5.72E1,9.9E1,-1.5589686E-2,2.9185706E-1,-5.2265823E-2,3.0928075E-1,-3.5324028E-1,1.16804175E-1,-1.4828649E-1,2.355335E-2],"split_indices":[10,16,19,2,19,10,6,0,0,0,0,0,0,0,0],"split_type":[0,0,0,0,0,0,0,0,0,0,0,0,0,0,0],"sum_hessian":[2.52E2,1.26E2,1.26E2,7E1,5.6E1,4.2E1,8.4E1,6.7E1,3E0,1.7E1,3.9E1,6E0,3.6E1,6.4E1,2E1],"tree_param":{"num_deleted":"0","num_feature":"29","num_nodes":"15","size_leaf_vector":"1"}},{"base_weights":[-9.908823E-2,-4.302933E-1,-2.8019039E-2,7.3842704E-2,-2.1367879E-1,-1.4271415E-2,6.5595806E-2],"categories":[],"categories_nodes":[],"categories_segments":[],"categories_sizes":[],"default_left":[0,0,0,0,0,0,0],"id":36,"left_children":[1,-1,3,5,-1,-1,-1],"loss_changes":[7.1881516E1,0E0,5.1280865E1,2.8835539E1,0E0,0E0,0E0],"parents":[2147483647,0,0,2,2,3,3],"right_children":[2,-1,4,6,-1,-1,-1],"split_conditions":[2.6E1,-4.302933E-1,1.16638E4,1.0662E4,-2.1367879E-1,-1.4271415E-2,6.5595806E-2],"split_indices":[16,0,7,7,0,0,0],"split_type":[0,0,0,0,0,0,0],"sum_hessian":[2.4E2,3E0,2.37E2,2.27E2,1E1,1.66E2,6.1E1],"tree_param":{"num_deleted":"0","num_feature":"29","num_nodes":"7","size_leaf_vector":"1"}},{"base_weights":[-1.9289877E-1,-3.3506748E-1,2.258058E0,-6.545308E-1,8.6166006E-1,2.832288E-1,1.1441088E-2,-3.480595E-2,-1.955879E-1,5.439325E-2,2.1099499E-1],"categories":[],"categories_nodes":[],"categories_segments":[],"categories_sizes":[],"default_left":[0,0,0,0,0,0,0,0,0,0,0],"id":37,"left_children":[1,3,5,7,9,-1,-1,-1,-1,-1,-1],"loss_changes":[8.89143E1,9.231853E1,1.690921E1,7.509617E1,1.907975E1,0E0,0E0,0E0,0E0,0E0,0E0],"parents":[2147483647,0,0,1,1,2,2,3,3,4,4],"right_children":[2,4,6,8,10,-1,-1,-1,-1,-1,-1],"split_conditions":[1E0,1.87E2,1E0,1E0,1E0,2.832288E-1,1.1441088E-2,-3.480595E-2,-1.955879E-1,5.439325E-2,2.1099499E-1],"split_indices":[25,5,2,17,17,0,0,0,0,0,0],"split_type":[0,0,0,0,0,0,0,0,0,0,0],"sum_hessian":[2.52E2,2.39E2,1.3E1,1.89E2,5E1,1E1,3E0,1.54E2,3.5E1,4.1E1,9E0],"tree_param":{"num_deleted":"0","num_feature":"29","num_nodes":"11","size_leaf_vector":"1"}},{"base_weights":[1.5362388E-1,2.8273603E-1,-2.5490148E0,7.773411E-1,-1.512306E-1,9.126424E-2,-6.1627793E-1,9.59195E-2,-2.2173904E-1,-2.3829262E-1,1.9339977E-2],"categories":[],"categories_nodes":[],"categories_segments":[],"categories_sizes":[],"default_left":[0,0,0,0,0,0,0,0,0,0,0],"id":38,"left_children":[1,3,5,7,9,-1,-1,-1,-1,-1,-1],"loss_changes":[9.179496E1,5.3778084E1,1.5573978E2,6.584551E1,1.035216E2,0E0,0E0,0E0,0E0,0E0,0E0],"parents":[2147483647,0,0,1,1,2,2,3,3,4,4],"right_children":[2,4,6,8,10,-1,-1,-1,-1,-1,-1],"split_conditions":[9.04E2,9.52E1,1E0,1E0,6.2E1,9.126424E-2,-6.1627793E-1,9.59195E-2,-2.2173904E-1,-2.3829262E-1,1.9339977E-2],"split_indices":[8,6,19,1,11,0,0,0,0,0,0],"split_type":[0,0,0,0,0,0,0,0,0,0,0],"sum_hessian":[2.6E2,2.49E2,1.1E1,1.16E2,1.33E2,6E0,5E0,1.1E2,6E0,1.7E1,1.16E2],"tree_param":{"num_deleted":"0","num_feature":"29","num_nodes":"11","size_leaf_vector":"1"}},{"base_weights":[7.675592E-2,-9.241211E-2,2.9597208E0,9.0010685E-1,-5.0906074E-1,1.7718565E-1,3.724768E-1,-4.470285E-2,1.732434E-1,1.1128529E-1,-1.0008108E-1],"categories":[],"categories_nodes":[],"categories_segments":[],"categories_sizes":[],"default_left":[0,0,0,0,0,0,0,0,0,0,0],"id":39,"left_children":[1,3,5,7,9,-1,-1,-1,-1,-1,-1],"loss_changes":[1.143966E2,9.2262245E1,5.214279E0,7.477742E1,1.26333206E2,0E0,0E0,0E0,0E0,0E0,0E0],"parents":[2147483647,0,0,1,1,2,2,3,3,4,4],"right_children":[2,4,6,8,10,-1,-1,-1,-1,-1,-1],"split_conditions":[1.16638E4,9.06E1,1E0,1E0,1E0,1.7718565E-1,3.724768E-1,-4.470285E-2,1.732434E-1,1.1128529E-1,-1.0008108E-1],"split_indices":[7,9,19,19,18,0,0,0,0,0,0],"split_type":[0,0,0,0,0,0,0,0,0,0,0],"sum_hessian":[2.33E2,2.21E2,1.2E1,6.5E1,1.56E2,6E0,6E0,2.5E1,4E1,3.6E1,1.2E2],"tree_param":{"num_deleted":"0","num_feature":"29","num_nodes":"11","size_leaf_vector":"1"}},{"base_weights":[-1.4413048E-1,3.4681457E-1,-2.3421218E-1,-4.4296217E-1,1.180722E0,5.72666E-2,-6.4355664E-2,1.8808053E-1,7.01636E-2],"categories":[],"categories_nodes":[],"categories_segments":[],"categories_sizes":[],"default_left":[0,0,0,0,0,0,0,0,0],"id":40,"left_children":[1,-1,3,5,7,-1,-1,-1,-1],"loss_changes":[8.020988E1,0E0,7.1115845E1,4.2947968E1,9.077759E0,0E0,0E0,0E0,0E0],"parents":[2147483647,0,0,2,2,3,3,4,4],"right_children":[2,-1,4,6,8,-1,-1,-1,-1],"split_conditions":[4.88E1,3.4681457E-1,1E0,3.73E2,1E0,5.72666E-2,-6.4355664E-2,1.8808053E-1,7.01636E-2],"split_indices":[6,0,22,8,19,0,0,0,0],"split_type":[0,0,0,0,0,0,0,0,0],"sum_hessian":[2.43E2,5E0,2.38E2,2.08E2,3E1,3.4E1,1.74E2,1.1E1,1.9E1],"tree_param":{"num_deleted":"0","num_feature":"29","num_nodes":"9","size_leaf_vector":"1"}},{"base_weights":[-1.1370738E-2,-3.5722035E-1,1.5451998E0,3.4319345E-2,-1.9433157E0,2.0540226E0,-2.1892901E-1,5.060407E-2,-1.3377617E-1,-2.3046033E-1,1.9747458E-1,1.6751449E-1,4.4469142E-1],"categories":[],"categories_nodes":[],"categories_segments":[],"categories_sizes":[],"default_left":[0,0,0,0,0,0,0,0,0,0,0,0,0],"id":41,"left_children":[1,3,5,7,9,11,-1,-1,-1,-1,-1,-1,-1],"loss_changes":[1.3621349E2,1.286177E2,9.190576E1,1.0876603E2,6.2588425E1,2.972194E1,0E0,0E0,0E0,0E0,0E0,0E0,0E0],"parents":[2147483647,0,0,1,1,2,2,3,3,4,4,5,5],"right_children":[2,4,6,8,10,12,-1,-1,-1,-1,-1,-1,-1],"split_conditions":[7.78E1,3E1,1E0,1E0,1E0,3.3E1,-2.1892901E-1,5.060407E-2,-1.3377617E-1,-2.3046033E-1,1.9747458E-1,1.6751449E-1,4.4469142E-1],"split_indices":[11,3,1,17,2,3,0,0,0,0,0,0,0],"split_type":[0,0,0,0,0,0,0,0,0,0,0,0,0],"sum_hessian":[2.51E2,2.06E2,4.5E1,1.66E2,4E1,4E1,5E0,1.24E2,4.2E1,3.7E1,3E0,3.6E1,4E0],"tree_param":{"num_deleted":"0","num_feature":"29","num_nodes":"13","size_leaf_vector":"1"}},{"base_weights":[3.1118605E-1,1.6629838E0,1.8640806E-1,1.9089508E-1,4.0312663E-1,-5.044636E-1,4.6162698E-1,9.901377E-2,-1.445769E-1,-1.468909E-2,-4.8374724E-1,6.847485E-2,2.6857208E-3],"categories":[],"categories_nodes":[],"categories_segments":[],"categories_sizes":[],"default_left":[0,0,0,0,0,0,0,0,0,0,0,0,0],"id":42,"left_children":[1,3,5,7,-1,9,11,-1,-1,-1,-1,-1,-1],"loss_changes":[4.1858658E1,7.244321E1,4.3965294E1,1.9744795E1,0E0,1.01547554E2,1.5987682E1,0E0,0E0,0E0,0E0,0E0,0E0],"parents":[2147483647,0,0,1,1,2,2,3,3,5,5,6,6],"right_children":[2,4,6,8,-1,10,12,-1,-1,-1,-1,-1,-1],"split_conditions":[5.8E1,1.74E2,9.46E1,1.4E1,4.0312663E-1,1E0,5.82E2,9.901377E-2,-1.445769E-1,-1.468909E-2,-4.8374724E-1,6.847485E-2,2.6857208E-3],"split_indices":[6,5,6,0,0,1,8,0,0,0,0,0,0],"split_type":[0,0,0,0,0,0,0,0,0,0,0,0,0],"sum_hessian":[2.49E2,2E1,2.29E2,1.3E1,7E0,6.5E1,1.64E2,9E0,4E0,6.1E1,4E0,1.08E2,5.6E1],"tree_param":{"num_deleted":"0","num_feature":"29","num_nodes":"13","size_leaf_vector":"1"}},{"base_weights":[-2.4974015E-2,-2.5280413E-1,1.6086409E0,6.402617E-2,-1.3564434E0,3.3933058E-1,8.0543077E-1,-1.00433104E-1,7.3113374E-2,-2.0519058E-1,9.0093635E-2,1.1924789E-1,-1.23440556E-1],"categories":[],"categories_nodes":[],"categories_segments":[],"categories_sizes":[],"default_left":[0,0,0,0,0,0,0,0,0,0,0,0,0],"id":43,"left_children":[1,3,5,7,9,-1,11,-1,-1,-1,-1,-1,-1],"loss_changes":[9.1220215E1,7.5265114E1,4.0270752E1,1.2046942E2,7.720495E1,0E0,1.8841328E1,0E0,0E0,0E0,0E0,0E0,0E0],"parents":[2147483647,0,0,1,1,2,2,3,3,4,4,6,6],"right_children":[2,4,6,8,10,-1,12,-1,-1,-1,-1,-1,-1],"split_conditions":[7.418E2,1E0,1E0,4.002E2,8E1,3.3933058E-1,1E0,-1.00433104E-1,7.3113374E-2,-2.0519058E-1,9.0093635E-2,1.1924789E-1,-1.23440556E-1],"split_indices":[8,17,18,8,4,0,1,0,0,0,0,0,0],"split_type":[0,0,0,0,0,0,0,0,0,0,0,0,0],"sum_hessian":[2.43E2,2.14E2,2.9E1,1.67E2,4.7E1,8E0,2.1E1,6.4E1,1.03E2,3.6E1,1.1E1,1.8E1,3E0],"tree_param":{"num_deleted":"0","num_feature":"29","num_nodes":"13","size_leaf_vector":"1"}},{"base_weights":[-4.756129E-1,-1.1074429E-1,-1.7084231E0,-2.1915698E0,2.1425933E-1,-3.480221E-2,-2.7533486E0,-1.0923785E-1,-3.1997296E-1,3.194053E-1,7.278679E-4,7.501548E-2,-1.164762E-1,-4.409955E-1,-2.1131006E-1],"categories":[],"categories_nodes":[],"categories_segments":[],"categories_sizes":[],"default_left":[0,0,0,0,0,0,0,0,0,0,0,0,0,0,0],"id":44,"left_children":[1,3,5,7,9,11,13,-1,-1,-1,-1,-1,-1,-1,-1],"loss_changes":[1.02368324E2,1.2017038E2,9.0842255E1,2.3100533E1,9.4957726E1,1.950012E1,2.462178E1,0E0,0E0,0E0,0E0,0E0,0E0,0E0,0E0],"parents":[2147483647,0,0,1,1,2,2,3,3,4,4,5,5,6,6],"right_children":[2,4,6,8,10,12,14,-1,-1,-1,-1,-1,-1,-1,-1],"split_conditions":[1.07432E4,4.06E1,1E0,5.72E1,5.8E1,1E0,9.7E1,-1.0923785E-1,-3.1997296E-1,3.194053E-1,7.278679E-4,7.501548E-2,-1.164762E-1,-4.409955E-1,-2.1131006E-1],"split_indices":[7,10,19,9,6,18,6,0,0,0,0,0,0,0,0],"split_type":[0,0,0,0,0,0,0,0,0,0,0,0,0,0,0],"sum_hessian":[2.27E2,1.76E2,5.1E1,2.3E1,1.53E2,2E1,3.1E1,1.2E1,1.1E1,9E0,1.44E2,1.2E1,8E0,7E0,2.4E1],"tree_param":{"num_deleted":"0","num_feature":"29","num_nodes":"15","size_leaf_vector":"1"}},{"base_weights":[-2.0821027E-1,-5.1862556E-1,1.7358432E0,-1.4169328E0,-7.543478E-2,-6.7499936E-1,2.296586E0,-2.5684375E-1,-6.877225E-2,8.896955E-2,-6.805696E-2,3.12212E-2,-1.493461E-1,3.877219E-1,5.5191107E-2],"categories":[],"categories_nodes":[],"categories_segments":[],"categories_sizes":[],"default_left":[0,0,0,0,0,0,0,0,0,0,0,0,0,0,0],"id":45,"left_children":[1,3,5,7,9,11,13,-1,-1,-1,-1,-1,-1,-1,-1],"loss_changes":[1.4452467E2,8.190615E1,4.6161674E1,5.5332474E1,8.178622E1,6.122237E0,7.2317764E1,0E0,0E0,0E0,0E0,0E0,0E0,0E0,0E0],"parents":[2147483647,0,0,1,1,2,2,3,3,4,4,5,5,6,6],"right_children":[2,4,6,8,10,12,14,-1,-1,-1,-1,-1,-1,-1,-1],"split_conditions":[1E0,1.182E2,1E0,1E0,1E0,8E0,1.71E2,-2.5684375E-1,-6.877225E-2,8.896955E-2,-6.805696E-2,3.12212E-2,-1.493461E-1,3.877219E-1,5.5191107E-2],"split_indices":[22,12,18,19,19,0,5,0,0,0,0,0,0,0,0],"split_type":[0,0,0,0,0,0,0,0,0,0,0,0,0,0,0],"sum_hessian":[2.37E2,2.05E2,3.2E1,6.7E1,1.38E2,6E0,2.6E1,2.5E1,4.2E1,5.3E1,8.5E1,3E0,3E0,1.3E1,1.3E1],"tree_param":{"num_deleted":"0","num_feature":"29","num_nodes":"15","size_leaf_vector":"1"}},{"base_weights":[2.595689E-1,5.460031E-1,-1.0163472E0,7.5341666E-1,-5.923892E-1,1.4459975E0,-2.2544494E0,6.0449284E-2,1.7480989E-1,-2.067596E-1,1.0120423E-1,2.6467845E-1,6.5956846E-2,-3.1473982E-1,-7.759511E-2],"categories":[],"categories_nodes":[],"categories_segments":[],"categories_sizes":[],"default_left":[0,0,0,0,0,0,0,0,0,0,0,0,0,0,0],"id":46,"left_children":[1,3,5,7,9,11,13,-1,-1,-1,-1,-1,-1,-1,-1],"loss_changes":[9.1555954E1,4.86144E1,1.434971E2,2.4570107E1,7.7832275E1,1.33636055E1,3.8484695E1,0E0,0E0,0E0,0E0,0E0,0E0,0E0,0E0],"parents":[2147483647,0,0,1,1,2,2,3,3,4,4,5,5,6,6],"right_children":[2,4,6,8,10,12,14,-1,-1,-1,-1,-1,-1,-1,-1],"split_conditions":[2E1,1E0,2.3E1,1E0,1.71E2,1.408E2,2.3E1,6.0449284E-2,1.7480989E-1,-2.067596E-1,1.0120423E-1,2.6467845E-1,6.5956846E-2,-3.1473982E-1,-7.759511E-2],"split_indices":[0,22,3,20,5,9,0,0,0,0,0,0,0,0,0],"split_type":[0,0,0,0,0,0,0,0,0,0,0,0,0,0,0],"sum_hessian":[2.48E2,2.03E2,4.5E1,1.72E2,3.1E1,1.5E1,3E1,1.51E2,2.1E1,1.6E1,1.5E1,5E0,1E1,1.8E1,1.2E1],"tree_param":{"num_deleted":"0","num_feature":"29","num_nodes":"15","size_leaf_vector":"1"}},{"base_weights":[1.8865748E-1,7.7514124E-1,-3.1233722E-1,5.6372696E-1,2.542803E-1,-7.7768266E-1,4.943036E-1,9.6061E-2,1.7845359E-2,-1.1667051E-1,9.9721E-2,8.880054E-2,3.1653054E-2],"categories":[],"categories_nodes":[],"categories_segments":[],"categories_sizes":[],"default_left":[0,0,0,0,0,0,0,0,0,0,0,0,0],"id":47,"left_children":[1,3,5,7,-1,9,11,-1,-1,-1,-1,-1,-1],"loss_changes":[7.340459E1,4.154309E1,5.1058903E1,1.5731052E1,0E0,6.0544144E1,3.218399E0,0E0,0E0,0E0,0E0,0E0,0E0],"parents":[2147483647,0,0,1,1,2,2,3,3,5,5,6,6],"right_children":[2,4,6,8,-1,10,12,-1,-1,-1,-1,-1,-1],"split_conditions":[1E1,9E0,9.7E1,2.6E1,2.542803E-1,6E-1,1E0,9.6061E-2,1.7845359E-2,-1.1667051E-1,9.9721E-2,8.880054E-2,3.1653054E-2],"split_indices":[0,0,6,3,0,14,18,0,0,0,0,0,0],"split_type":[0,0,0,0,0,0,0,0,0,0,0,0,0],"sum_hessian":[2.48E2,1.14E2,1.34E2,1.03E2,1.1E1,8.5E1,4.9E1,5E1,5.3E1,7E1,1.5E1,1.4E1,3.5E1],"tree_param":{"num_deleted":"0","num_feature":"29","num_nodes":"13","size_leaf_vector":"1"}},{"base_weights":[-2.9728273E-1,3.2972053E-1,-7.4805397E-1,1.5096484E0,-3.1714788E-1,-9.3689436E-1,2.8614533E-1,9.713324E-2,3.6779553E-1,-1.6804807E-2,-2.660733E-1,-1.1106074E-1,6.0505357E-2,8.368249E-2,-1.8636662E-1],"categories":[],"categories_nodes":[],"categories_segments":[],"categories_sizes":[],"default_left":[0,0,0,0,0,0,0,0,0,0,0,0,0,0,0],"id":48,"left_children":[1,3,5,7,9,11,13,-1,-1,-1,-1,-1,-1,-1,-1],"loss_changes":[7.00575E1,7.985762E1,2.8391083E1,3.961515E1,2.3313976E1,3.3350456E1,2.878828E1,0E0,0E0,0E0,0E0,0E0,0E0,0E0,0E0],"parents":[2147483647,0,0,1,1,2,2,3,3,4,4,5,5,6,6],"right_children":[2,4,6,8,10,12,14,-1,-1,-1,-1,-1,-1,-1,-1],"split_conditions":[1.75E2,1E0,6.5E1,1.5E1,1E0,1E0,1E0,9.713324E-2,3.6779553E-1,-1.6804807E-2,-2.660733E-1,-1.1106074E-1,6.0505357E-2,8.368249E-2,-1.8636662E-1],"split_indices":[5,19,10,0,2,2,17,0,0,0,0,0,0,0,0],"split_type":[0,0,0,0,0,0,0,0,0,0,0,0,0,0,0],"sum_hessian":[2.46E2,1.03E2,1.43E2,3.6E1,6.7E1,1.21E2,2.2E1,3E1,6E0,6.4E1,3E0,1.09E2,1.2E1,1.8E1,4E0],"tree_param":{"num_deleted":"0","num_feature":"29","num_nodes":"15","size_leaf_vector":"1"}},{"base_weights":[-6.151741E-2,1.1107886E0,-3.8521245E-1,-1.2013208E0,2.0901494E0,4.7073197E-1,-7.236993E-1,-4.8196837E-1,7.0797056E-2,1.4350824E-1,4.1142526E-1,-3.082527E-2,2.486146E-1,-5.422599E-2,-3.0826172E-1],"categories":[],"categories_nodes":[],"categories_segments":[],"categories_sizes":[],"default_left":[0,0,0,0,0,0,0,0,0,0,0,0,0,0,0],"id":49,"left_children":[1,3,5,7,9,11,13,-1,-1,-1,-1,-1,-1,-1,-1],"loss_changes":[9.643371E1,1.27052345E2,5.799613E1,1.2085683E2,4.5806732E1,9.0255035E1,5.9532516E1,0E0,0E0,0E0,0E0,0E0,0E0,0E0,0E0],"parents":[2147483647,0,0,1,1,2,2,3,3,4,4,5,5,6,6],"right_children":[2,4,6,8,10,12,14,-1,-1,-1,-1,-1,-1,-1,-1],"split_conditions":[7.6E1,1E0,1E0,2.8E1,4.9E1,6.546E2,9.04E2,-4.8196837E-1,7.0797056E-2,1.4350824E-1,4.1142526E-1,-3.082527E-2,2.486146E-1,-5.422599E-2,-3.0826172E-1],"split_indices":[6,19,18,16,10,8,8,0,0,0,0,0,0,0,0],"split_type":[0,0,0,0,0,0,0,0,0,0,0,0,0,0,0],"sum_hessian":[2.52E2,5.4E1,1.98E2,1.6E1,3.8E1,5.6E1,1.42E2,5E0,1.1E1,3E1,8E0,4.1E1,1.5E1,1.33E2,9E0],"tree_param":{"num_deleted":"0","num_feature":"29","num_nodes":"15","size_leaf_vector":"1"}}]},"name":"gbtree"},"learner_model_param":{"base_score":"1.8268116E1","boost_from_average":"1","num_class":"0","num_feature":"29","num_target":"1"},"objective":{"name":"reg:squarederror","reg_loss_param":{"scale_pos_weight":"1"}}},"version":[2,0,3]}