{"learner":{"attributes":{"scikit_learn":"{\"_estimator_type\": \"regressor\"}"},"feature_names":["Unnamed: 0","jugador_anonimizado","gol","asistencia","edad","peso","altura","minutos_predictor","avg_dist_sess_m_predictor","zona_4_19.9_25.1_kmh_predictor","zona_5_mas_25.1_kmh_predictor","num_aceleraciones_intensas_predictor","num_desaceleraciones_intensas_predictor","num_acel_desintensas_predictor","num_sprints_total_predictor","gol_predictor","asistencia_predictor","max_vel_kmh_predictor","torneo_Libertadores","torneo_Torneo Local","categoria_partido_Normal","posicion_habitual_Delantero","posicion_habitual_Extremo","posicion_habitual_Lateral","posicion_habitual_Lateral ","posicion_habitual_Lateral / Volante","posicion_habitual_Volante / Extremo","posicion_habitual_Volante Central","posicion_habitual_Volante Ofensivo","posicion_habitual_Volante Ofensivo / Extremo"],"feature_types":["int","int","int","int","int","int","int","float","float","float","float","float","float","float","float","float","float","float","i","i","i","i","i","i","i","i","i","i","i","i"],"gradient_booster":{"model":{"gbtree_model_param":{"num_parallel_tree":"1","num_trees":"50"},"iteration_indptr":[0,1,2,3,4,5,6,7,8,9,10,11,12,13,14,15,16,17,18,19,20,21,22,23,24,25,26,27,28,29,30,31,32,33,34,35,36,37,38,39,40,41,42,43,44,45,46,47,48,49,50],"tree_info":[0,0,0,0,0,0,0,0,0,0,0,0,0,0,0,0,0,0,0,0,0,0,0,0,0,0,0,0,0,0,0,0,0,0,0,0,0,0,0,0,0,0,0,0,0,0,0,0,0,0],"trees":[{"base_weights":[6.002839E-2,-6.664257E-1,1.5839441E0,-1.1510204E0,-1.1975964E-1,2.105432E0,3.3159363E-1,-1.8284063E-1,-8.769952E-2,-7.438814E-2,2.4261368E-2,2.9555148E-1,1.8379012E-1,1.3811052E-1,-2.4353566E-2],"categories":[],"categories_nodes":[],"categories_segments":[],"categories_sizes":[],"default_left":[0,0,0,0,0,0,0,0,0,0,0,0,0,0,0],"id":0,"left_children":[1,3,5,7,9,11,13,-1,-1,-1,-1,-1,-1,-1,-1],"loss_changes":[2.7781927E2,4.4897118E1,5.2201797E1,1.5102386E1,1.849985E1,7.531189E0,1.5426469E1,0E0,0E0,0E0,0E0,0E0,0E0,0E0,0E0],"parents":[2147483647,0,0,1,1,2,2,3,3,4,4,5,5,6,6],"right_children":[2,4,6,8,10,12,14,-1,-1,-1,-1,-1,-1,-1,-1],"split_conditions":[1.44E2,7.4E1,9.7672E3,6.62E1,1.19E2,1.8E1,1E0,-1.8284063E-1,-8.769952E-2,-7.438814E-2,2.4261368E-2,2.9555148E-1,1.8379012E-1,1.3811052E-1,-2.4353566E-2],"split_indices":[10,5,8,10,13,0,20,0,0,0,0,0,0,0,0],"split_type":[0,0,0,0,0,0,0,0,0,0,0,0,0,0,0],"sum_hessian":[2.49E2,1.69E2,8E1,8.9E1,8E1,5.6E1,2.4E1,2.4E1,6.5E1,2.9E1,5.1E1,1.1E1,4.5E1,8E0,1.6E1],"tree_param":{"num_deleted":"0","num_feature":"30","num_nodes":"15","size_leaf_vector":"1"}},{"base_weights":[-7.745988E-2,-7.9527766E-1,1.3340362E0,-1.6142651E0,-4.1748607E-1,6.990947E-1,2.0138721E0,-3.544584E-2,-1.7675498E-1,1.0758172E-2,-6.9164574E-2,1.2583767E-1,2.9461432E-2,2.2153185E-1,1.3424335E-1],"categories":[],"categories_nodes":[],"categories_segments":[],"categories_sizes":[],"default_left":[0,0,0,0,0,0,0,0,0,0,0,0,0,0,0],"id":1,"left_children":[1,3,5,7,9,11,13,-1,-1,-1,-1,-1,-1,-1,-1],"loss_changes":[2.5841296E2,5.161576E1,3.5714508E1,9.608261E0,1.6916836E1,1.0035322E1,2.571701E0,0E0,0E0,0E0,0E0,0E0,0E0,0E0,0E0],"parents":[2147483647,0,0,1,1,2,2,3,3,4,4,5,5,6,6],"right_children":[2,4,6,8,10,12,14,-1,-1,-1,-1,-1,-1,-1,-1],"split_conditions":[6.8E0,4.4E0,1.12E1,1E2,2.6E1,5E1,1E0,-3.544584E-2,-1.7675498E-1,1.0758172E-2,-6.9164574E-2,1.2583767E-1,2.9461432E-2,2.2153185E-1,1.3424335E-1],"split_indices":[14,14,14,0,4,12,18,0,0,0,0,0,0,0,0],"split_type":[0,0,0,0,0,0,0,0,0,0,0,0,0,0,0],"sum_hessian":[2.53E2,1.68E2,8.5E1,5.2E1,1.16E2,4.5E1,4E1,6E0,4.6E1,4E1,7.6E1,1.8E1,2.7E1,2.9E1,1.1E1],"tree_param":{"num_deleted":"0","num_feature":"30","num_nodes":"15","size_leaf_vector":"1"}},{"base_weights":[-3.6295895E-2,-8.1948686E-1,1.0697412E0,-2.988535E0,-4.0385085E-1,1.4341846E0,5.5348873E-2,-3.4392226E-1,-1.4670743E-1,-1.1324038E-1,-8.570771E-3,7.8033745E-2,1.6908695E-1,9.4614446E-2,-4.9210113E-2],"categories":[],"categories_nodes":[],"categories_segments":[],"categories_sizes":[],"default_left":[0,0,0,0,0,0,0,0,0,0,0,0,0,0,0],"id":2,"left_children":[1,3,5,7,9,11,13,-1,-1,-1,-1,-1,-1,-1,-1],"loss_changes":[2.1310504E2,1.2861404E2,3.7628853E1,1.0725586E1,2.8180609E1,1.1268005E1,1.4120248E1,0E0,0E0,0E0,0E0,0E0,0E0,0E0,0E0],"parents":[2147483647,0,0,1,1,2,2,3,3,4,4,5,5,6,6],"right_children":[2,4,6,8,10,12,14,-1,-1,-1,-1,-1,-1,-1,-1],"split_conditions":[1.182E2,4.3E1,9.7672E3,3.82E2,1.182E2,1.44E2,1E0,-3.4392226E-1,-1.4670743E-1,-1.1324038E-1,-8.570771E-3,7.8033745E-2,1.6908695E-1,9.4614446E-2,-4.9210113E-2],"split_indices":[10,11,8,0,13,10,20,0,0,0,0,0,0,0,0],"split_type":[0,0,0,0,0,0,0,0,0,0,0,0,0,0,0],"sum_hessian":[2.44E2,1.43E2,1.01E2,2.2E1,1.21E2,7.4E1,2.7E1,1.6E1,6E0,3.6E1,8.5E1,2.2E1,5.2E1,1E1,1.7E1],"tree_param":{"num_deleted":"0","num_feature":"30","num_nodes":"15","size_leaf_vector":"1"}},{"base_weights":[1.6398955E-2,-5.792454E-1,1.2074877E0,-1.3434497E0,-2.124412E-1,1.5418214E0,3.8353425E-1,-9.650781E-2,-1.9697422E-1,3.384879E-2,-5.6067944E-2,1.6935997E-1,1.0375535E-1,8.5434556E-2,1.529773E-2],"categories":[],"categories_nodes":[],"categories_segments":[],"categories_sizes":[],"default_left":[0,0,0,0,0,0,0,0,0,0,0,0,0,0,0],"id":3,"left_children":[1,3,5,7,9,11,13,-1,-1,-1,-1,-1,-1,-1,-1],"loss_changes":[1.7451843E2,4.5685978E1,2.1997643E1,1.0658531E1,2.1677494E1,2.6819305E0,2.5830247E0,0E0,0E0,0E0,0E0,0E0,0E0,0E0,0E0],"parents":[2147483647,0,0,1,1,2,2,3,3,4,4,5,5,6,6],"right_children":[2,4,6,8,10,12,14,-1,-1,-1,-1,-1,-1,-1,-1],"split_conditions":[1.44E2,4.4E0,9.7672E3,3.29E2,3.774E2,3.06E2,2.29E2,-9.650781E-2,-1.9697422E-1,3.384879E-2,-5.6067944E-2,1.6935997E-1,1.0375535E-1,8.5434556E-2,1.529773E-2],"split_indices":[10,14,8,0,9,0,0,0,0,0,0,0,0,0,0],"split_type":[0,0,0,0,0,0,0,0,0,0,0,0,0,0,0],"sum_hessian":[2.44E2,1.63E2,8.1E1,5.2E1,1.11E2,5.7E1,2.4E1,3.4E1,1.8E1,4.3E1,6.8E1,4.2E1,1.5E1,7E0,1.7E1],"tree_param":{"num_deleted":"0","num_feature":"30","num_nodes":"15","size_leaf_vector":"1"}},{"base_weights":[1.3463208E-2,-6.05581E-1,1.0535738E0,-1.5151742E0,-4.2982006E-1,1.5394983E0,6.211178E-1,6.280998E-2,-1.9334105E-1,2.3699356E-2,-5.794425E-2,2.1931028E-1,1.263535E-1,1.0742015E-1,2.0911045E-2],"categories":[],"categories_nodes":[],"categories_segments":[],"categories_sizes":[],"default_left":[0,0,0,0,0,0,0,0,0,0,0,0,0,0,0],"id":4,"left_children":[1,3,5,7,9,11,13,-1,-1,-1,-1,-1,-1,-1,-1],"loss_changes":[1.674015E2,2.5407711E1,1.9427467E1,2.4520638E1,1.39056225E1,5.345627E0,9.669086E0,0E0,0E0,0E0,0E0,0E0,0E0,0E0,0E0],"parents":[2147483647,0,0,1,1,2,2,3,3,4,4,5,5,6,6],"right_children":[2,4,6,8,10,12,14,-1,-1,-1,-1,-1,-1,-1,-1],"split_conditions":[1.408E2,4.3E1,2.4E1,2.1E1,2.3E1,1.5E1,1E0,6.280998E-2,-1.9334105E-1,2.3699356E-2,-5.794425E-2,2.1931028E-1,1.263535E-1,1.0742015E-1,2.0911045E-2],"split_indices":[10,11,4,4,4,0,20,0,0,0,0,0,0,0,0],"split_type":[0,0,0,0,0,0,0,0,0,0,0,0,0,0,0],"sum_hessian":[2.58E2,1.62E2,9.6E1,2.5E1,1.37E2,4.4E1,5.2E1,4E0,2.1E1,2.5E1,1.12E2,1.1E1,3.3E1,2.4E1,2.8E1],"tree_param":{"num_deleted":"0","num_feature":"30","num_nodes":"15","size_leaf_vector":"1"}},{"base_weights":[1.56793E-2,-5.131088E-1,9.502473E-1,3.8424456E-1,-7.089574E-1,1.1428819E0,1.9898415E-2,1.0653632E-1,1.5091683E-2,-5.9113663E-2,-3.3203113E-1,8.796329E-2,1.3202028E-1,8.8489175E-2,-7.6058544E-2],"categories":[],"categories_nodes":[],"categories_segments":[],"categories_sizes":[],"default_left":[0,0,0,0,0,0,0,0,0,0,0,0,0,0,0],"id":5,"left_children":[1,3,5,7,9,11,13,-1,-1,-1,-1,-1,-1,-1,-1],"loss_changes":[1.3540103E2,3.1027851E1,1.7719772E1,4.9247823E0,4.234195E1,2.6664276E0,1.2825075E1,0E0,0E0,0E0,0E0,0E0,0E0,0E0,0E0],"parents":[2147483647,0,0,1,1,2,2,3,3,4,4,5,5,6,6],"right_children":[2,4,6,8,10,12,14,-1,-1,-1,-1,-1,-1,-1,-1],"split_conditions":[6.8E0,2.3E1,9.84E1,1E0,8.3E1,1.616E2,2.34E2,1.0653632E-1,1.5091683E-2,-5.9113663E-2,-3.3203113E-1,8.796329E-2,1.3202028E-1,8.8489175E-2,-7.6058544E-2],"split_indices":[14,4,7,19,5,10,0,0,0,0,0,0,0,0,0],"split_type":[0,0,0,0,0,0,0,0,0,0,0,0,0,0,0],"sum_hessian":[2.72E2,1.74E2,9.8E1,3.1E1,1.43E2,8.1E1,1.7E1,7E0,2.4E1,1.38E2,5E0,3.5E1,4.6E1,8E0,9E0],"tree_param":{"num_deleted":"0","num_feature":"30","num_nodes":"15","size_leaf_vector":"1"}},{"base_weights":[-5.154197E-2,-2.8566664E-1,1.1146282E0,3.6570024E-1,-4.4184247E-1,1.2496673E0,4.013834E-1,7.805837E-2,5.6586983E-3,-7.367015E-2,2.3120705E-3,7.799246E-2,1.3875778E-1,-1.8943787E-2,7.937638E-2],"categories":[],"categories_nodes":[],"categories_segments":[],"categories_sizes":[],"default_left":[0,0,0,0,0,0,0,0,0,0,0,0,0,0,0],"id":6,"left_children":[1,3,5,7,9,11,13,-1,-1,-1,-1,-1,-1,-1,-1],"loss_changes":[6.6937546E1,2.0914045E1,3.4473534E0,5.085667E0,2.2638306E1,1.1203995E0,2.004982E0,0E0,0E0,0E0,0E0,0E0,0E0,0E0,0E0],"parents":[2147483647,0,0,1,1,2,2,3,3,4,4,5,5,6,6],"right_children":[2,4,6,8,10,12,14,-1,-1,-1,-1,-1,-1,-1,-1],"split_conditions":[1.12E1,2.3E1,1E0,1.76E2,6.4E0,1E0,2E2,7.805837E-2,5.6586983E-3,-7.367015E-2,2.3120705E-3,7.799246E-2,1.3875778E-1,-1.8943787E-2,7.937638E-2],"split_indices":[14,4,2,0,14,20,0,0,0,0,0,0,0,0,0],"split_type":[0,0,0,0,0,0,0,0,0,0,0,0,0,0,0],"sum_hessian":[2.43E2,2.03E2,4E1,3.9E1,1.64E2,3.3E1,7E0,1.6E1,2.3E1,1E2,6.4E1,9E0,2.4E1,3E0,4E0],"tree_param":{"num_deleted":"0","num_feature":"30","num_nodes":"15","size_leaf_vector":"1"}},{"base_weights":[7.198747E-2,-4.674549E-1,9.528827E-1,-2.4269237E-1,-8.378014E-1,1.8894768E0,7.908011E-1,-2.6063896E-3,-1.0151243E-1,-1.641925E-1,-4.8395008E-2,7.868576E-2,2.1415769E-1,5.894546E-2,1.2182392E-1],"categories":[],"categories_nodes":[],"categories_segments":[],"categories_sizes":[],"default_left":[0,0,0,0,0,0,0,0,0,0,0,0,0,0,0],"id":7,"left_children":[1,3,5,7,9,11,13,-1,-1,-1,-1,-1,-1,-1,-1],"loss_changes":[1.1639233E2,1.2449154E1,1.2623634E1,1.6037296E1,1.5424183E1,1.9284935E0,6.2530174E0,0E0,0E0,0E0,0E0,0E0,0E0,0E0,0E0],"parents":[2147483647,0,0,1,1,2,2,3,3,4,4,5,5,6,6],"right_children":[2,4,6,8,10,12,14,-1,-1,-1,-1,-1,-1,-1,-1],"split_conditions":[1.408E2,2.89E2,1.5E1,1E0,2.7E1,4E0,2.56E2,-2.6063896E-3,-1.0151243E-1,-1.641925E-1,-4.8395008E-2,7.868576E-2,2.1415769E-1,5.894546E-2,1.2182392E-1],"split_indices":[10,0,0,18,4,0,0,0,0,0,0,0,0,0,0],"split_type":[0,0,0,0,0,0,0,0,0,0,0,0,0,0,0],"sum_hessian":[2.43E2,1.51E2,9.2E1,9.5E1,5.6E1,1.2E1,8E1,7.5E1,2E1,1.6E1,4E1,3E0,9E0,5.6E1,2.4E1],"tree_param":{"num_deleted":"0","num_feature":"30","num_nodes":"15","size_leaf_vector":"1"}},{"base_weights":[8.289456E-2,-6.736438E-1,5.3246236E-1,-1.8554268E0,-5.1086694E-1,1.4027984E-1,9.0354604E-1,-1.1736908E-2,-2.8318354E-1,-5.9986483E-2,5.538044E-2,5.1042087E-2,-1.1471574E-2,1.1923511E-1,3.728323E-2],"categories":[],"categories_nodes":[],"categories_segments":[],"categories_sizes":[],"default_left":[0,0,0,0,0,0,0,0,0,0,0,0,0,0,0],"id":8,"left_children":[1,3,5,7,9,11,13,-1,-1,-1,-1,-1,-1,-1,-1],"loss_changes":[8.572763E1,1.7134617E1,2.2867393E1,1.8335232E1,8.291498E0,7.4205303E0,1.1970551E1,0E0,0E0,0E0,0E0,0E0,0E0,0E0,0E0],"parents":[2147483647,0,0,1,1,2,2,3,3,4,4,5,5,6,6],"right_children":[2,4,6,8,10,12,14,-1,-1,-1,-1,-1,-1,-1,-1],"split_conditions":[9.1E1,3.68E1,7.2E0,3.29E2,1E0,2.3E1,9.74E1,-1.1736908E-2,-2.8318354E-1,-5.9986483E-2,5.538044E-2,5.1042087E-2,-1.1471574E-2,1.1923511E-1,3.728323E-2],"split_indices":[10,10,14,0,3,4,7,0,0,0,0,0,0,0,0],"split_type":[0,0,0,0,0,0,0,0,0,0,0,0,0,0,0],"sum_hessian":[2.5E2,9.3E1,1.57E2,1E1,8.3E1,7.7E1,8E1,4E0,6E0,7.7E1,6E0,3.1E1,4.6E1,5.1E1,2.9E1],"tree_param":{"num_deleted":"0","num_feature":"30","num_nodes":"15","size_leaf_vector":"1"}},{"base_weights":[3.656392E-2,-4.1247952E-1,6.2505895E-1,-4.9568376E-1,1.0119507E0,8.2717353E-1,-4.8172748E-1,-3.980862E-2,-2.8950456E-1,-6.582637E-2,2.1457322E-1,1.861605E-1,6.892539E-2,2.7188739E-2,-1.3635302E-1],"categories":[],"categories_nodes":[],"categories_segments":[],"categories_sizes":[],"default_left":[0,0,0,0,0,0,0,0,0,0,0,0,0,0,0],"id":9,"left_children":[1,3,5,7,9,11,13,-1,-1,-1,-1,-1,-1,-1,-1],"loss_changes":[6.473722E1,1.69757E1,2.4110428E1,2.9758217E1,1.6561722E1,1.1557037E1,1.16679E1,0E0,0E0,0E0,0E0,0E0,0E0,0E0,0E0],"parents":[2147483647,0,0,1,1,2,2,3,3,4,4,5,5,6,6],"right_children":[2,4,6,8,10,12,14,-1,-1,-1,-1,-1,-1,-1,-1],"split_conditions":[1.182E2,8.6E1,1.0662E4,8.3E1,1.61E2,2.65E1,2.32E2,-3.980862E-2,-2.8950456E-1,-6.582637E-2,2.1457322E-1,1.861605E-1,6.892539E-2,2.7188739E-2,-1.3635302E-1],"split_indices":[10,5,8,5,0,17,0,0,0,0,0,0,0,0,0],"split_type":[0,0,0,0,0,0,0,0,0,0,0,0,0,0,0],"sum_hessian":[2.43E2,1.38E2,1.05E2,1.31E2,7E0,8.9E1,1.6E1,1.27E2,4E0,3E0,4E0,9E0,8E1,9E0,7E0],"tree_param":{"num_deleted":"0","num_feature":"30","num_nodes":"15","size_leaf_vector":"1"}},{"base_weights":[-4.1587982E-2,-5.0101906E-1,6.12113E-1,-9.2653096E-1,-2.643441E-1,5.3185636E-1,1.0453637E0,1.3437405E-2,-1.1370205E-1,2.2007504E-2,-4.3521043E-2,6.353868E-2,-1.4380614E-1,1.2521443E-1,4.9203873E-2],"categories":[],"categories_nodes":[],"categories_segments":[],"categories_sizes":[],"default_left":[0,0,0,0,0,0,0,0,0,0,0,0,0,0,0],"id":10,"left_children":[1,3,5,7,9,11,13,-1,-1,-1,-1,-1,-1,-1,-1],"loss_changes":[7.929362E1,1.5364819E1,3.2340813E0,1.2434807E1,8.455641E0,2.0084682E1,1.2145653E0,0E0,0E0,0E0,0E0,0E0,0E0,0E0,0E0],"parents":[2147483647,0,0,1,1,2,2,3,3,4,4,5,5,6,6],"right_children":[2,4,6,8,10,12,14,-1,-1,-1,-1,-1,-1,-1,-1],"split_conditions":[1.182E2,7.78E1,3.14E2,1.05E2,3.73E2,3.08E2,4.06E2,1.3437405E-2,-1.1370205E-1,2.2007504E-2,-4.3521043E-2,6.353868E-2,-1.4380614E-1,1.2521443E-1,4.9203873E-2],"split_indices":[10,10,0,0,9,0,0,0,0,0,0,0,0,0,0],"split_type":[0,0,0,0,0,0,0,0,0,0,0,0,0,0,0],"sum_hessian":[2.62E2,1.54E2,1.08E2,5.4E1,1E2,9.3E1,1.5E1,9E0,4.5E1,2.6E1,7.4E1,8.9E1,4E0,1E1,5E0],"tree_param":{"num_deleted":"0","num_feature":"30","num_nodes":"15","size_leaf_vector":"1"}},{"base_weights":[3.737872E-3,-4.4939905E-1,3.040195E-1,-3.4839776E-1,-3.089335E-1,1.4437774E-1,8.152548E-1,-4.6415377E-2,1.1710413E-1,6.705803E-2,6.4642476E-3,9.6984014E-2,7.5683594E-3],"categories":[],"categories_nodes":[],"categories_segments":[],"categories_sizes":[],"default_left":[0,0,0,0,0,0,0,0,0,0,0,0,0],"id":11,"left_children":[1,3,5,7,-1,9,11,-1,-1,-1,-1,-1,-1],"loss_changes":[3.823586E1,2.8787022E1,1.3675149E1,1.9714922E1,0E0,5.411049E0,4.499672E0,0E0,0E0,0E0,0E0,0E0,0E0],"parents":[2147483647,0,0,1,1,2,2,3,3,5,5,6,6],"right_children":[2,4,6,8,-1,10,12,-1,-1,-1,-1,-1,-1],"split_conditions":[9.4E1,9.24E1,2.176E2,1E0,-3.089335E-1,4.9E1,1E0,-4.6415377E-2,1.1710413E-1,6.705803E-2,6.4642476E-3,9.6984014E-2,7.5683594E-3],"split_indices":[10,10,10,3,0,7,2,0,0,0,0,0,0],"split_type":[0,0,0,0,0,0,0,0,0,0,0,0,0],"sum_hessian":[2.79E2,1.11E2,1.68E2,1.08E2,3E0,1.29E2,3.9E1,1.01E2,7E0,1.6E1,1.13E2,3.2E1,7E0],"tree_param":{"num_deleted":"0","num_feature":"30","num_nodes":"13","size_leaf_vector":"1"}},{"base_weights":[-4.593509E-2,-3.3895087E-1,4.4496435E-1,-8.91186E-1,-1.3309565E-1,1.3460782E0,2.98465E-1,-1.491826E-1,-4.7999848E-2,-7.7946777E-3,-1.3528411E-1,5.542137E-2,1.6364387E-1,8.632983E-3,8.82734E-2],"categories":[],"categories_nodes":[],"categories_segments":[],"categories_sizes":[],"default_left":[0,0,0,0,0,0,0,0,0,0,0,0,0,0,0],"id":12,"left_children":[1,3,5,7,9,11,13,-1,-1,-1,-1,-1,-1,-1,-1],"loss_changes":[3.654267E1,1.7956583E1,1.2139435E1,9.903881E0,7.764859E0,2.0821037E0,1.0211147E1,0E0,0E0,0E0,0E0,0E0,0E0,0E0,0E0],"parents":[2147483647,0,0,1,1,2,2,3,3,4,4,5,5,6,6],"right_children":[2,4,6,8,10,12,14,-1,-1,-1,-1,-1,-1,-1,-1],"split_conditions":[6.8E0,5.96E1,1.5E1,1E0,3.93E2,4E0,2.72E2,-1.491826E-1,-4.7999848E-2,-7.7946777E-3,-1.3528411E-1,5.542137E-2,1.6364387E-1,8.632983E-3,8.82734E-2],"split_indices":[14,12,0,20,0,0,0,0,0,0,0,0,0,0,0],"split_type":[0,0,0,0,0,0,0,0,0,0,0,0,0,0,0],"sum_hessian":[2.52E2,1.58E2,9.4E1,4.2E1,1.16E2,1.2E1,8.2E1,1.6E1,2.6E1,1.12E2,4E0,4E0,8E0,6.1E1,2.1E1],"tree_param":{"num_deleted":"0","num_feature":"30","num_nodes":"15","size_leaf_vector":"1"}},{"base_weights":[-2.6960872E-2,-3.3120432E-1,5.1220477E-1,-5.228986E-1,1.2941867E-1,3.919844E-1,1.5902727E0,-1.318992E-1,-4.2417604E-2,3.7325833E-2,-8.603198E-2,5.85846E-2,-2.6522765E-2,2.0582174E-1,6.0777377E-2],"categories":[],"categories_nodes":[],"categories_segments":[],"categories_sizes":[],"default_left":[0,0,0,0,0,0,0,0,0,0,0,0,0,0,0],"id":13,"left_children":[1,3,5,7,9,11,13,-1,-1,-1,-1,-1,-1,-1,-1],"loss_changes":[3.773426E1,1.30476E1,1.0133911E1,7.614126E0,1.0939971E1,9.838401E0,2.4271107E0,0E0,0E0,0E0,0E0,0E0,0E0,0E0,0E0],"parents":[2147483647,0,0,1,1,2,2,3,3,4,4,5,5,6,6],"right_children":[2,4,6,8,10,12,14,-1,-1,-1,-1,-1,-1,-1,-1],"split_conditions":[1.182E2,1.85E2,1E0,3.68E1,1E0,1E0,2.4E1,-1.318992E-1,-4.2417604E-2,3.7325833E-2,-8.603198E-2,5.85846E-2,-2.6522765E-2,2.0582174E-1,6.0777377E-2],"split_indices":[10,6,3,10,18,23,4,0,0,0,0,0,0,0,0],"split_type":[0,0,0,0,0,0,0,0,0,0,0,0,0,0,0],"sum_hessian":[2.28E2,1.46E2,8.2E1,1.03E2,4.3E1,7.5E1,7E0,1E1,9.3E1,3.5E1,8E0,5.8E1,1.7E1,4E0,3E0],"tree_param":{"num_deleted":"0","num_feature":"30","num_nodes":"15","size_leaf_vector":"1"}},{"base_weights":[3.828238E-2,-1.0361462E-1,8.682996E-1,-2.0620628E-1,3.6778012E-1,1.4146833E0,4.811327E-1,-7.683427E-3,-1.8924206E-1,5.2670807E-2,-5.575024E-3,1.6987477E-1,8.879408E-2,-3.599866E-3,7.7920765E-2],"categories":[],"categories_nodes":[],"categories_segments":[],"categories_sizes":[],"default_left":[0,0,0,0,0,0,0,0,0,0,0,0,0,0,0],"id":14,"left_children":[1,3,5,7,9,11,13,-1,-1,-1,-1,-1,-1,-1,-1],"loss_changes":[2.823866E1,9.989878E0,6.7233086E0,3.6721767E1,2.519864E0,5.8641815E-1,3.4192162E0,0E0,0E0,0E0,0E0,0E0,0E0,0E0,0E0],"parents":[2147483647,0,0,1,1,2,2,3,3,4,4,5,5,6,6],"right_children":[2,4,6,8,10,12,14,-1,-1,-1,-1,-1,-1,-1,-1],"split_conditions":[2.176E2,3.37E2,1E0,3.21E2,3.95E2,2.5E1,2.3E1,-7.683427E-3,-1.8924206E-1,5.2670807E-2,-5.575024E-3,1.6987477E-1,8.879408E-2,-3.599866E-3,7.7920765E-2],"split_indices":[10,0,20,0,0,0,0,0,0,0,0,0,0,0,0],"split_type":[0,0,0,0,0,0,0,0,0,0,0,0,0,0,0],"sum_hessian":[2.38E2,2.04E2,3.4E1,1.68E2,3.6E1,1.3E1,2.1E1,1.57E2,1.1E1,2.6E1,1E1,7E0,6E0,8E0,1.3E1],"tree_param":{"num_deleted":"0","num_feature":"30","num_nodes":"15","size_leaf_vector":"1"}},{"base_weights":[6.791091E-2,-6.9452055E-2,4.505771E-1,1.7928146E-1,-1.2318393E-1,5.4109526E-1,-3.5086712E-1,-2.708366E-2,4.0461328E-2,-1.8270819E-2,6.298311E-2,-9.219432E-2,3.079257E-2],"categories":[],"categories_nodes":[],"categories_segments":[],"categories_sizes":[],"default_left":[0,0,0,0,0,0,0,0,0,0,0,0,0],"id":15,"left_children":[1,3,5,-1,7,9,11,-1,-1,-1,-1,-1,-1],"loss_changes":[1.2541564E1,1.7831945E1,4.7602005E0,0E0,1.3513659E1,3.7760353E0,2.9174356E0,0E0,0E0,0E0,0E0,0E0,0E0],"parents":[2147483647,0,0,1,1,2,2,4,4,5,5,6,6],"right_children":[2,4,6,-1,8,10,12,-1,-1,-1,-1,-1,-1],"split_conditions":[1.56E2,3.4E1,1E0,1.7928146E-1,3.37E2,1.2E1,2.39E2,-2.708366E-2,4.0461328E-2,-1.8270819E-2,6.298311E-2,-9.219432E-2,3.079257E-2],"split_indices":[10,0,2,0,0,0,0,0,0,0,0,0,0],"split_type":[0,0,0,0,0,0,0,0,0,0,0,0,0],"sum_hessian":[2.37E2,1.75E2,6.2E1,4E0,1.71E2,5.6E1,6E0,1.34E2,3.7E1,6E0,5E1,3E0,3E0],"tree_param":{"num_deleted":"0","num_feature":"30","num_nodes":"13","size_leaf_vector":"1"}},{"base_weights":[-2.6099738E-2,7.0308745E-1,-1.3894987E-1,4.7893253E-1,1.1707504E-1,-1.4600283E0,-8.0273494E-2,1.2304367E-1,2.1640848E-2,-1.5411663E-2,-2.0872982E-1,-2.374564E-2,3.0354276E-2],"categories":[],"categories_nodes":[],"categories_segments":[],"categories_sizes":[],"default_left":[0,0,0,0,0,0,0,0,0,0,0,0,0],"id":16,"left_children":[1,3,5,7,-1,9,11,-1,-1,-1,-1,-1,-1],"loss_changes":[2.0258465E1,2.8986454E0,1.6393726E1,4.468633E0,0E0,7.050741E0,1.2439595E1,0E0,0E0,0E0,0E0,0E0,0E0],"parents":[2147483647,0,0,1,1,2,2,3,3,5,5,6,6],"right_children":[2,4,6,8,-1,10,12,-1,-1,-1,-1,-1,-1],"split_conditions":[5E1,3.3E1,3.68E1,7E0,1.1707504E-1,3.27E2,1.44E2,1.2304367E-1,2.1640848E-2,-1.5411663E-2,-2.0872982E-1,-2.374564E-2,3.0354276E-2],"split_indices":[0,0,10,0,0,0,10,0,0,0,0,0,0],"split_type":[0,0,0,0,0,0,0,0,0,0,0,0,0],"sum_hessian":[2.44E2,3.2E1,2.12E2,2.3E1,9E0,8E0,2.04E2,5E0,1.8E1,3E0,5E0,1.45E2,5.9E1],"tree_param":{"num_deleted":"0","num_feature":"30","num_nodes":"13","size_leaf_vector":"1"}},{"base_weights":[5.812755E-2,-1.1188559E-3,1.0517303E0,7.1032923E-1,-8.0162995E-2,-8.011437E-3,1.5636739E0,3.795786E-2,8.393743E-2,-3.5394218E-2,1.0456389E-2,5.254812E-2,1.9951901E-1],"categories":[],"categories_nodes":[],"categories_segments":[],"categories_sizes":[],"default_left":[0,0,0,0,0,0,0,0,0,0,0,0,0],"id":17,"left_children":[1,3,5,7,9,-1,11,-1,-1,-1,-1,-1,-1],"loss_changes":[1.3599543E1,1.2372582E1,7.658001E0,6.2038994E-1,1.0050735E1,0E0,2.9835377E0,0E0,0E0,0E0,0E0,0E0,0E0],"parents":[2147483647,0,0,1,1,2,2,3,3,4,4,6,6],"right_children":[2,4,6,8,10,-1,12,-1,-1,-1,-1,-1,-1],"split_conditions":[1E0,3.8E1,7.6E1,1E1,9.4E1,-8.011437E-3,1E0,3.795786E-2,8.393743E-2,-3.5394218E-2,1.0456389E-2,5.254812E-2,1.9951901E-1],"split_indices":[3,0,0,0,10,0,20,0,0,0,0,0,0],"split_type":[0,0,0,0,0,0,0,0,0,0,0,0,0],"sum_hessian":[2.3E2,2.18E2,1.2E1,2.1E1,1.97E2,4E0,8E0,7E0,1.4E1,7.9E1,1.18E2,3E0,5E0],"tree_param":{"num_deleted":"0","num_feature":"30","num_nodes":"13","size_leaf_vector":"1"}},{"base_weights":[1.2834111E-1,3.8481414E-1,-1.0021032E-1,6.241931E-1,6.261233E-2,2.8598767E-2,-6.6709363E-1,1.8239956E-1,4.8931364E-2,2.0991746E-2,-1.2461952E-1,-2.1988899E-2,2.208979E-2,-2.452097E-1,-3.5031743E-3],"categories":[],"categories_nodes":[],"categories_segments":[],"categories_sizes":[],"default_left":[0,0,0,0,0,0,0,0,0,0,0,0,0,0,0],"id":18,"left_children":[1,3,5,7,9,11,13,-1,-1,-1,-1,-1,-1,-1,-1],"loss_changes":[1.3696388E1,8.445034E0,9.073523E0,9.302702E0,9.515713E0,4.922539E0,2.5863447E1,0E0,0E0,0E0,0E0,0E0,0E0,0E0,0E0],"parents":[2147483647,0,0,1,1,2,2,3,3,4,4,5,5,6,6],"right_children":[2,4,6,8,10,12,14,-1,-1,-1,-1,-1,-1,-1,-1],"split_conditions":[2.9E1,2.4E1,3.29E2,1E2,3.96E2,2.6E1,3.37E2,1.8239956E-1,4.8931364E-2,2.0991746E-2,-1.2461952E-1,-2.1988899E-2,2.208979E-2,-2.452097E-1,-3.5031743E-3],"split_indices":[17,4,0,0,0,4,0,0,0,0,0,0,0,0,0],"split_type":[0,0,0,0,0,0,0,0,0,0,0,0,0,0,0],"sum_hessian":[2.32E2,1.09E2,1.23E2,6.2E1,4.7E1,1.01E2,2.2E1,5E0,5.7E1,4.3E1,4E0,4.4E1,5.7E1,5E0,1.7E1],"tree_param":{"num_deleted":"0","num_feature":"30","num_nodes":"15","size_leaf_vector":"1"}},{"base_weights":[-2.342595E-2,1.3484809E-1,-3.8283545E-1,2.416997E-1,-5.8181036E-1,5.9699904E-2,-4.740468E-1,-7.621177E-2,2.8785631E-2,-1.0475858E-2,-1.0103779E-1,-3.6681537E-2,-1.09147705E-1],"categories":[],"categories_nodes":[],"categories_segments":[],"categories_sizes":[],"default_left":[0,0,0,0,0,0,0,0,0,0,0,0,0],"id":19,"left_children":[1,3,5,7,9,-1,11,-1,-1,-1,-1,-1,-1],"loss_changes":[1.4329807E1,1.3541441E1,7.16465E0,7.308299E0,4.5964785E0,0E0,4.300394E0,0E0,0E0,0E0,0E0,0E0,0E0],"parents":[2147483647,0,0,1,1,2,2,3,3,4,4,6,6],"right_children":[2,4,6,8,10,-1,12,-1,-1,-1,-1,-1,-1],"split_conditions":[1.0662E4,1E0,4.7E1,2.7E1,3.67E2,5.9699904E-2,2.89E2,-7.621177E-2,2.8785631E-2,-1.0475858E-2,-1.0103779E-1,-3.6681537E-2,-1.09147705E-1],"split_indices":[8,28,0,10,0,0,0,0,0,0,0,0,0],"split_type":[0,0,0,0,0,0,0,0,0,0,0,0,0],"sum_hessian":[2.5E2,1.74E2,7.6E1,1.52E2,2.2E1,6E0,7E1,6E0,1.46E2,1.1E1,1.1E1,6.1E1,9E0],"tree_param":{"num_deleted":"0","num_feature":"30","num_nodes":"13","size_leaf_vector":"1"}},{"base_weights":[4.6711517E-3,-2.1398905E-1,5.87161E-2,8.613874E-3,8.5973644E-1,4.597663E-2,-9.4413385E-3,1.7295806E-1,1.8431408E-2],"categories":[],"categories_nodes":[],"categories_segments":[],"categories_sizes":[],"default_left":[0,0,0,0,0,0,0,0,0],"id":20,"left_children":[1,-1,3,5,7,-1,-1,-1,-1],"loss_changes":[2.8290007E1,0E0,9.544225E0,1.0501633E1,7.9063864E0,0E0,0E0,0E0,0E0],"parents":[2147483647,0,0,2,2,3,3,4,4],"right_children":[2,-1,4,6,8,-1,-1,-1,-1],"split_conditions":[2.168E2,-2.1398905E-1,1E0,3.774E2,4.838E2,4.597663E-2,-9.4413385E-3,1.7295806E-1,1.8431408E-2],"split_indices":[9,0,3,9,9,0,0,0,0],"split_type":[0,0,0,0,0,0,0,0,0],"sum_hessian":[2.42E2,5E0,2.37E2,2.24E2,1.3E1,4.1E1,1.83E2,5E0,8E0],"tree_param":{"num_deleted":"0","num_feature":"30","num_nodes":"9","size_leaf_vector":"1"}},{"base_weights":[-2.6547758E-2,-8.324537E-2,6.6082066E-1,-1.2891296E-1,8.874935E-1,1.3953822E0,1.5795048E-1,6.954079E-4,-6.364767E-2,4.9721036E-2,1.2563913E-1,6.9507025E-2,1.6765553E-1,5.4320253E-2,-5.6709327E-2],"categories":[],"categories_nodes":[],"categories_segments":[],"categories_sizes":[],"default_left":[0,0,0,0,0,0,0,0,0,0,0,0,0,0,0],"id":21,"left_children":[1,3,5,7,9,11,13,-1,-1,-1,-1,-1,-1,-1,-1],"loss_changes":[1.022674E1,1.08425865E1,7.1673803E0,1.600342E1,9.5902824E-1,4.0994644E-1,3.939266E0,0E0,0E0,0E0,0E0,0E0,0E0,0E0,0E0],"parents":[2147483647,0,0,1,1,2,2,3,3,4,4,5,5,6,6],"right_children":[2,4,6,8,10,12,14,-1,-1,-1,-1,-1,-1,-1,-1],"split_conditions":[1E0,4E2,7E1,3.29E2,3.8E1,2.1E1,9.52E1,6.954079E-4,-6.364767E-2,4.9721036E-2,1.2563913E-1,6.9507025E-2,1.6765553E-1,5.4320253E-2,-5.6709327E-2],"split_indices":[3,0,5,0,7,0,7,0,0,0,0,0,0,0,0],"split_type":[0,0,0,0,0,0,0,0,0,0,0,0,0,0,0],"sum_hessian":[2.6E2,2.41E2,1.9E1,2.31E2,1E1,7E0,1.2E1,1.83E2,4.8E1,6E0,4E0,3E0,4E0,8E0,4E0],"tree_param":{"num_deleted":"0","num_feature":"30","num_nodes":"15","size_leaf_vector":"1"}},{"base_weights":[2.2196865E-2,4.9158826E-1,-1.1971406E-1,5.58411E-1,-7.5036185E-3,-1.1649541E-2,-5.4336077E-1,4.2413697E-2,1.7357598E-1,-2.6118277E-2,1.33606E-2,-1.8638639E-2,-2.9335093E-1],"categories":[],"categories_nodes":[],"categories_segments":[],"categories_sizes":[],"default_left":[0,0,0,0,0,0,0,0,0,0,0,0,0],"id":22,"left_children":[1,3,5,7,-1,9,11,-1,-1,-1,-1,-1,-1],"loss_changes":[1.664518E1,2.237979E0,8.783657E0,7.4843464E0,0E0,5.6167917E0,3.272889E1,0E0,0E0,0E0,0E0,0E0,0E0],"parents":[2147483647,0,0,1,1,2,2,3,3,5,5,6,6],"right_children":[2,4,6,8,-1,10,12,-1,-1,-1,-1,-1,-1],"split_conditions":[6.7E1,3.3E1,8.2E1,2.56E2,-7.5036185E-3,1E0,3.18E2,4.2413697E-2,1.7357598E-1,-2.6118277E-2,1.33606E-2,-1.8638639E-2,-2.9335093E-1],"split_indices":[5,4,5,0,0,20,0,0,0,0,0,0,0],"split_type":[0,0,0,0,0,0,0,0,0,0,0,0,0],"sum_hessian":[2.48E2,5.7E1,1.91E2,5.1E1,6E0,1.53E2,3.8E1,4.7E1,4E0,5.6E1,9.7E1,3.4E1,4E0],"tree_param":{"num_deleted":"0","num_feature":"30","num_nodes":"13","size_leaf_vector":"1"}},{"base_weights":[-8.075558E-2,-2.929221E-1,2.0916504E-1,-2.1385312E-1,-1.1935562E0,1.1349659E-1,7.162894E-1,-3.0794902E-2,2.5779275E-2,-6.595001E-2,-1.5286861E-1,2.1683829E-2,-1.8349066E-2,1.3122551E-1,2.2748452E-2],"categories":[],"categories_nodes":[],"categories_segments":[],"categories_sizes":[],"default_left":[0,0,0,0,0,0,0,0,0,0,0,0,0,0,0],"id":23,"left_children":[1,3,5,7,9,11,13,-1,-1,-1,-1,-1,-1,-1,-1],"loss_changes":[1.4824017E1,9.643251E0,4.867316E0,5.804399E0,9.6059227E-1,2.7099192E0,4.3624573E0,0E0,0E0,0E0,0E0,0E0,0E0,0E0,0E0],"parents":[2147483647,0,0,1,1,2,2,3,3,4,4,5,5,6,6],"right_children":[2,4,6,8,10,12,14,-1,-1,-1,-1,-1,-1,-1,-1],"split_conditions":[9.8E1,3.2E1,2.69E2,8.3E1,3.88E2,2.29E2,3.16E2,-3.0794902E-2,2.5779275E-2,-6.595001E-2,-1.5286861E-1,2.1683829E-2,-1.8349066E-2,1.3122551E-1,2.2748452E-2],"split_indices":[10,4,0,5,0,0,0,0,0,0,0,0,0,0,0],"split_type":[0,0,0,0,0,0,0,0,0,0,0,0,0,0,0],"sum_hessian":[2.39E2,1.38E2,1.01E2,1.28E2,1E1,8.6E1,1.5E1,1.07E2,2.1E1,5E0,5E0,6.4E1,2.2E1,6E0,9E0],"tree_param":{"num_deleted":"0","num_feature":"30","num_nodes":"15","size_leaf_vector":"1"}},{"base_weights":[5.8568753E-2,2.0399308E-1,-1.6089381E-1,-4.7171748E-1,3.1853715E-1,5.5626135E-2,-2.131432E-1,-6.344218E-2,2.0836143E-2,2.65213E-2,9.212407E-2,-7.744839E-2,-1.3618066E-2],"categories":[],"categories_nodes":[],"categories_segments":[],"categories_sizes":[],"default_left":[0,0,0,0,0,0,0,0,0,0,0,0,0],"id":24,"left_children":[1,3,5,7,9,-1,11,-1,-1,-1,-1,-1,-1],"loss_changes":[7.915875E0,1.1682655E1,3.8281837E0,2.5665274E0,3.869421E0,0E0,3.9123363E0,0E0,0E0,0E0,0E0,0E0,0E0],"parents":[2147483647,0,0,1,1,2,2,3,3,4,4,6,6],"right_children":[2,4,6,8,10,-1,12,-1,-1,-1,-1,-1,-1],"split_conditions":[1.00218E4,4.72E1,4.7E1,3.84E2,1E0,5.5626135E-2,6.2E1,-6.344218E-2,2.0836143E-2,2.65213E-2,9.212407E-2,-7.744839E-2,-1.3618066E-2],"split_indices":[8,12,0,0,3,0,0,0,0,0,0,0,0],"split_type":[0,0,0,0,0,0,0,0,0,0,0,0,0],"sum_hessian":[2.46E2,1.48E2,9.8E1,2.1E1,1.27E2,6E0,9.2E1,1.7E1,4E0,1.18E2,9E0,1E1,8.2E1],"tree_param":{"num_deleted":"0","num_feature":"30","num_nodes":"13","size_leaf_vector":"1"}},{"base_weights":[-1.2643567E-1,-4.0387747E-1,7.1787596E-2,-3.1614068E-1,-1.5995634E0,3.903085E-2,7.307058E-1,-1.8435372E-2,-8.340708E-2,-3.1679964E-1,3.687606E-2,-4.1013364E-2,9.095672E-3,1.3557939E-1,-7.7058794E-3],"categories":[],"categories_nodes":[],"categories_segments":[],"categories_sizes":[],"default_left":[0,0,0,0,0,0,0,0,0,0,0,0,0,0,0],"id":25,"left_children":[1,3,5,7,9,11,13,-1,-1,-1,-1,-1,-1,-1,-1],"loss_changes":[1.3997829E1,1.0614311E1,3.1874988E0,6.671878E0,2.2778524E1,3.3725295E0,3.6389441E0,0E0,0E0,0E0,0E0,0E0,0E0,0E0,0E0],"parents":[2147483647,0,0,1,1,2,2,3,3,4,4,5,5,6,6],"right_children":[2,4,6,8,10,12,14,-1,-1,-1,-1,-1,-1,-1,-1],"split_conditions":[9.44E1,6E0,1E0,1E0,1E0,2.65E1,1E0,-1.8435372E-2,-8.340708E-2,-3.1679964E-1,3.687606E-2,-4.1013364E-2,9.095672E-3,1.3557939E-1,-7.7058794E-3],"split_indices":[10,14,3,18,20,17,18,0,0,0,0,0,0,0,0],"split_type":[0,0,0,0,0,0,0,0,0,0,0,0,0,0,0],"sum_hessian":[2.53E2,1.05E2,1.48E2,9.9E1,6E0,1.42E2,6E0,8E1,1.9E1,3E0,3E0,1.4E1,1.28E2,3E0,3E0],"tree_param":{"num_deleted":"0","num_feature":"30","num_nodes":"15","size_leaf_vector":"1"}},{"base_weights":[-1.3001002E-1,-1.654266E-1,4.3587798E-1,-3.8697317E-1,-5.570294E-2,6.852102E-1,-4.2108823E-2,-6.5679304E-2,-1.1422453E-2,-2.7845702E-3,-1.1282096E-1,8.8429905E-2,2.296261E-2],"categories":[],"categories_nodes":[],"categories_segments":[],"categories_sizes":[],"default_left":[0,0,0,0,0,0,0,0,0,0,0,0,0],"id":26,"left_children":[1,3,5,7,9,11,-1,-1,-1,-1,-1,-1,-1],"loss_changes":[5.0825586E0,5.7153454E0,3.4935737E0,5.6652327E0,4.719039E0,8.853626E-1,0E0,0E0,0E0,0E0,0E0,0E0,0E0],"parents":[2147483647,0,0,1,1,2,2,3,3,4,4,5,5],"right_children":[2,4,6,8,10,12,-1,-1,-1,-1,-1,-1,-1],"split_conditions":[1E0,1.182E2,9.84E1,3.11E2,3.96E2,6.546E2,-4.2108823E-2,-6.5679304E-2,-1.1422453E-2,-2.7845702E-3,-1.1282096E-1,8.8429905E-2,2.296261E-2],"split_indices":[3,13,7,0,0,9,0,0,0,0,0,0,0],"split_type":[0,0,0,0,0,0,0,0,0,0,0,0,0],"sum_hessian":[2.49E2,2.35E2,1.4E1,7.7E1,1.58E2,1.1E1,3E0,3.8E1,3.9E1,1.55E2,3E0,7E0,4E0],"tree_param":{"num_deleted":"0","num_feature":"30","num_nodes":"13","size_leaf_vector":"1"}},{"base_weights":[-4.056873E-2,1.0398901E-1,-2.800415E-1,-4.9572654E-2,3.57295E-1,-1.0556417E-1,-8.8153106E-1,-1.5920974E-2,6.7953214E-2,1.44092515E-2,9.7308286E-2,-1.8208731E-2,6.528841E-2,-1.7060788E-1,-5.8716226E-2],"categories":[],"categories_nodes":[],"categories_segments":[],"categories_sizes":[],"default_left":[0,0,0,0,0,0,0,0,0,0,0,0,0,0,0],"id":27,"left_children":[1,3,5,7,9,11,13,-1,-1,-1,-1,-1,-1,-1,-1],"loss_changes":[8.648913E0,6.0858145E0,9.771893E0,7.9420066E0,7.6057496E0,4.413756E0,4.095398E0,0E0,0E0,0E0,0E0,0E0,0E0,0E0,0E0],"parents":[2147483647,0,0,1,1,2,2,3,3,4,4,5,5,6,6],"right_children":[2,4,6,8,10,12,14,-1,-1,-1,-1,-1,-1,-1,-1],"split_conditions":[1.00218E4,1.44E2,2.5E2,1E0,3.11E2,2.42E2,2.76E2,-1.5920974E-2,6.7953214E-2,1.44092515E-2,9.7308286E-2,-1.8208731E-2,6.528841E-2,-1.7060788E-1,-5.8716226E-2],"split_indices":[8,10,0,2,0,0,0,0,0,0,0,0,0,0,0],"split_type":[0,0,0,0,0,0,0,0,0,0,0,0,0,0,0],"sum_hessian":[2.48E2,1.55E2,9.3E1,9.7E1,5.8E1,7.3E1,2E1,8.5E1,1.2E1,4.4E1,1.4E1,6.7E1,6E0,4E0,1.6E1],"tree_param":{"num_deleted":"0","num_feature":"30","num_nodes":"15","size_leaf_vector":"1"}},{"base_weights":[-3.0591765E-2,-3.6599544E-1,8.835637E-2,1.2121916E-1,-5.104895E-1,7.9345274E-1,4.1121487E-2,-1.8896718E-1,-4.100359E-2,-1.682026E-2,1.2953058E-1,-1.1560698E-2,3.3651143E-2],"categories":[],"categories_nodes":[],"categories_segments":[],"categories_sizes":[],"default_left":[0,0,0,0,0,0,0,0,0,0,0,0,0],"id":28,"left_children":[1,3,5,-1,7,9,11,-1,-1,-1,-1,-1,-1],"loss_changes":[1.0365309E1,1.6125443E1,6.3619595E0,0E0,7.953432E0,6.009189E0,8.418482E0,0E0,0E0,0E0,0E0,0E0,0E0],"parents":[2147483647,0,0,1,1,2,2,4,4,5,5,6,6],"right_children":[2,4,6,-1,8,10,12,-1,-1,-1,-1,-1,-1],"split_conditions":[4.6E0,1.71E2,1.5E1,1.2121916E-1,4.88E1,1E0,2.56E2,-1.8896718E-1,-4.100359E-2,-1.682026E-2,1.2953058E-1,-1.1560698E-2,3.3651143E-2],"split_indices":[14,6,0,0,7,19,0,0,0,0,0,0,0],"split_type":[0,0,0,0,0,0,0,0,0,0,0,0,0],"sum_hessian":[2.58E2,6.7E1,1.91E2,5E0,6.2E1,1.1E1,1.8E2,3E0,5.9E1,4E0,7E0,1.18E2,6.2E1],"tree_param":{"num_deleted":"0","num_feature":"30","num_nodes":"13","size_leaf_vector":"1"}},{"base_weights":[8.1039906E-2,2.6793187E-2,8.5806376E-1,1.0072552E-1,-3.5462815E-1,3.2616633E-1,1.5713221E-1,4.281063E-3,8.353211E-2,-1.8266578E-1,1.2973844E-3,5.9720453E-2,-1.1852036E-2],"categories":[],"categories_nodes":[],"categories_segments":[],"categories_sizes":[],"default_left":[0,0,0,0,0,0,0,0,0,0,0,0,0],"id":29,"left_children":[1,3,5,7,9,11,-1,-1,-1,-1,-1,-1,-1],"loss_changes":[1.0978419E1,6.944565E0,5.9369516E0,8.728306E0,2.1668537E1,1.3965786E0,0E0,0E0,0E0,0E0,0E0,0E0,0E0],"parents":[2147483647,0,0,1,1,2,2,3,3,4,4,5,5],"right_children":[2,4,6,8,10,12,-1,-1,-1,-1,-1,-1,-1],"split_conditions":[3.82E2,3.29E2,3E2,3.11E2,3.37E2,4.04E2,1.5713221E-1,4.281063E-3,8.353211E-2,-1.8266578E-1,1.2973844E-3,5.9720453E-2,-1.1852036E-2],"split_indices":[0,0,9,0,0,0,0,0,0,0,0,0,0],"split_type":[0,0,0,0,0,0,0,0,0,0,0,0,0],"sum_hessian":[2.6E2,2.44E2,1.6E1,2.05E2,3.9E1,1E1,6E0,1.91E2,1.4E1,7E0,3.2E1,6E0,4E0],"tree_param":{"num_deleted":"0","num_feature":"30","num_nodes":"13","size_leaf_vector":"1"}},{"base_weights":[8.103418E-2,2.9915118E-1,-1.11719504E-1,6.524171E-1,1.9156075E-1,-1.6421355E-1,3.8370514E-1,2.3169534E-2,1.9415864E-1,-9.807684E-2,3.2113075E-2,-8.002902E-3,-7.190855E-2,9.7273685E-2,1.34629505E-2],"categories":[],"categories_nodes":[],"categories_segments":[],"categories_sizes":[],"default_left":[0,0,0,0,0,0,0,0,0,0,0,0,0,0,0],"id":30,"left_children":[1,3,5,7,9,11,13,-1,-1,-1,-1,-1,-1,-1,-1],"loss_changes":[1.1300907E1,4.6640368E0,3.7819884E0,1.527921E1,1.5201027E1,6.014965E0,1.923029E0,0E0,0E0,0E0,0E0,0E0,0E0,0E0,0E0],"parents":[2147483647,0,0,1,1,2,2,3,3,4,4,5,5,6,6],"right_children":[2,4,6,8,10,12,14,-1,-1,-1,-1,-1,-1,-1,-1],"split_conditions":[2.5E1,1E2,3.74E2,2.6E1,1.55E2,3.3E2,3.87E2,2.3169534E-2,1.9415864E-1,-9.807684E-2,3.2113075E-2,-8.002902E-3,-7.190855E-2,9.7273685E-2,1.34629505E-2],"split_indices":[4,0,0,0,0,0,0,0,0,0,0,0,0,0,0],"split_type":[0,0,0,0,0,0,0,0,0,0,0,0,0,0,0],"sum_hessian":[2.67E2,1.25E2,1.42E2,2.8E1,9.7E1,1.29E2,1.3E1,2.2E1,6E0,9E0,8.8E1,1.13E2,1.6E1,3E0,1E1],"tree_param":{"num_deleted":"0","num_feature":"30","num_nodes":"15","size_leaf_vector":"1"}},{"base_weights":[2.2401255E-2,5.79368E-1,-8.1637524E-2,4.4603717E-1,1.3968103E-1,1.2874527E-1,-1.2844537E-1,7.581324E-2,2.2715673E-2,-1.953192E-2,3.7846025E-2],"categories":[],"categories_nodes":[],"categories_segments":[],"categories_sizes":[],"default_left":[0,0,0,0,0,0,0,0,0,0,0],"id":31,"left_children":[1,3,5,7,-1,-1,9,-1,-1,-1,-1],"loss_changes":[1.4359994E1,3.6275911E0,1.3558958E1,2.2186885E0,0E0,0E0,6.9553604E0,0E0,0E0,0E0,0E0],"parents":[2147483647,0,0,1,1,2,2,3,3,6,6],"right_children":[2,4,6,8,-1,-1,10,-1,-1,-1,-1],"split_conditions":[1.7E2,2.21E2,3.8E1,1E0,1.3968103E-1,1.2874527E-1,1E0,7.581324E-2,2.2715673E-2,-1.953192E-2,3.7846025E-2],"split_indices":[6,0,0,20,0,0,2,0,0,0,0],"split_type":[0,0,0,0,0,0,0,0,0,0,0],"sum_hessian":[2.46E2,3.8E1,2.08E2,3.4E1,4E0,6E0,2.02E2,1.3E1,2.1E1,1.79E2,2.3E1],"tree_param":{"num_deleted":"0","num_feature":"30","num_nodes":"11","size_leaf_vector":"1"}},{"base_weights":[-6.545746E-2,-1.3188997E-1,3.6733085E-1,-4.1978714E-1,5.0135452E-2,-2.6101714E-1,7.388162E-1,-5.165424E-2,5.5186104E-2,1.0109521E-2,-6.575474E-2,6.1152317E-2,-5.8393158E-2,1.5272358E-2,9.630717E-2],"categories":[],"categories_nodes":[],"categories_segments":[],"categories_sizes":[],"default_left":[0,0,0,0,0,0,0,0,0,0,0,0,0,0,0],"id":32,"left_children":[1,3,5,7,9,11,13,-1,-1,-1,-1,-1,-1,-1,-1],"loss_changes":[7.1212444E0,1.1235632E1,7.895773E0,8.08806E0,4.826837E0,4.019913E0,2.6130419E0,0E0,0E0,0E0,0E0,0E0,0E0,0E0,0E0],"parents":[2147483647,0,0,1,1,2,2,3,3,4,4,5,5,6,6],"right_children":[2,4,6,8,10,12,14,-1,-1,-1,-1,-1,-1,-1,-1],"split_conditions":[1E0,2.9E1,4.4E0,1E0,3.66E2,1.44E2,2.52E2,-5.165424E-2,5.5186104E-2,1.0109521E-2,-6.575474E-2,6.1152317E-2,-5.8393158E-2,1.5272358E-2,9.630717E-2],"split_indices":[23,17,14,2,0,0,0,0,0,0,0,0,0,0,0],"split_type":[0,0,0,0,0,0,0,0,0,0,0,0,0,0,0],"sum_hessian":[2.45E2,2.13E2,3.2E1,8.2E1,1.31E2,1.2E1,2E1,7.5E1,7E0,1.23E2,8E0,3E0,9E0,6E0,1.4E1],"tree_param":{"num_deleted":"0","num_feature":"30","num_nodes":"15","size_leaf_vector":"1"}},{"base_weights":[1.9021945E-1,3.0269423E-1,-8.4418505E-2,2.7150095E-1,1.3339211E-1,3.671751E-1,-5.4593575E-1,7.76905E-2,2.29527E-2,6.174745E-2,-5.7782237E-3,1.015611E-2,-9.4448E-2],"categories":[],"categories_nodes":[],"categories_segments":[],"categories_sizes":[],"default_left":[0,0,0,0,0,0,0,0,0,0,0,0,0],"id":33,"left_children":[1,3,5,7,-1,9,11,-1,-1,-1,-1,-1,-1],"loss_changes":[7.8097944E0,5.3957977E0,1.56234045E1,3.534093E0,0E0,4.077609E0,9.643999E0,0E0,0E0,0E0,0E0,0E0,0E0],"parents":[2147483647,0,0,1,1,2,2,3,3,5,5,6,6],"right_children":[2,4,6,8,-1,10,12,-1,-1,-1,-1,-1,-1],"split_conditions":[2.89E2,2.84E2,2.95E1,1.5E1,1.3339211E-1,3.2E1,1E0,7.76905E-2,2.29527E-2,6.174745E-2,-5.7782237E-3,1.015611E-2,-9.4448E-2],"split_indices":[0,0,17,0,0,4,20,0,0,0,0,0,0],"split_type":[0,0,0,0,0,0,0,0,0,0,0,0,0],"sum_hessian":[2.51E2,1.78E2,7.3E1,1.74E2,4E0,3.7E1,3.6E1,1.2E1,1.62E2,2.3E1,1.4E1,1.4E1,2.2E1],"tree_param":{"num_deleted":"0","num_feature":"30","num_nodes":"13","size_leaf_vector":"1"}},{"base_weights":[-5.7581943E-2,-8.463027E-3,-4.414598E-1,8.91021E-2,-3.100355E-1,-6.069538E-1,-8.287525E-2,5.412544E-2,5.6855115E-3,8.212058E-3,-1.5531524E-1,-2.936077E-3,-9.414363E-2,5.7837706E-2,-8.59803E-2],"categories":[],"categories_nodes":[],"categories_segments":[],"categories_sizes":[],"default_left":[0,0,0,0,0,0,0,0,0,0,0,0,0,0,0],"id":34,"left_children":[1,3,5,7,9,11,13,-1,-1,-1,-1,-1,-1,-1,-1],"loss_changes":[4.653613E0,6.500675E0,1.6113186E0,2.4041789E0,2.6452322E1,3.6430593E0,5.634743E0,0E0,0E0,0E0,0E0,0E0,0E0,0E0,0E0],"parents":[2147483647,0,0,1,1,2,2,3,3,4,4,5,5,6,6],"right_children":[2,4,6,8,10,12,14,-1,-1,-1,-1,-1,-1,-1,-1],"split_conditions":[1.14668E4,7.9E1,2.81E2,2.572E2,3.21E2,2.31E2,2.87E2,5.412544E-2,5.6855115E-3,8.212058E-3,-1.5531524E-1,-2.936077E-3,-9.414363E-2,5.7837706E-2,-8.59803E-2],"split_indices":[8,5,0,9,0,0,0,0,0,0,0,0,0,0,0],"split_type":[0,0,0,0,0,0,0,0,0,0,0,0,0,0,0],"sum_hessian":[2.46E2,2.19E2,2.7E1,1.66E2,5.3E1,1.8E1,9E0,1E1,1.56E2,4.1E1,1.2E1,7E0,1.1E1,5E0,4E0],"tree_param":{"num_deleted":"0","num_feature":"30","num_nodes":"15","size_leaf_vector":"1"}},{"base_weights":[6.795429E-2,-7.8683734E-1,1.4814563E-1,6.816297E-2,-1.0694501E0,1.862013E-2,3.9843023E-1,-3.1201893E-1,-4.5128975E-2,4.810549E-3,-1.0548792E-1,6.851012E-2,-2.512362E-2],"categories":[],"categories_nodes":[],"categories_segments":[],"categories_sizes":[],"default_left":[0,0,0,0,0,0,0,0,0,0,0,0,0],"id":35,"left_children":[1,3,5,-1,7,9,11,-1,-1,-1,-1,-1,-1],"loss_changes":[1.6773462E1,9.44413E0,7.2218485E0,0E0,2.141023E1,4.735317E0,1.4326403E1,0E0,0E0,0E0,0E0,0E0,0E0],"parents":[2147483647,0,0,1,1,2,2,4,4,5,5,6,6],"right_children":[2,4,6,-1,8,10,12,-1,-1,-1,-1,-1,-1],"split_conditions":[4.06E1,3.08E2,2.42E2,6.816297E-2,3.11E2,2.37E2,1.83E2,-3.1201893E-1,-4.5128975E-2,4.810549E-3,-1.0548792E-1,6.851012E-2,-2.512362E-2],"split_indices":[11,0,0,0,0,0,6,0,0,0,0,0,0],"split_type":[0,0,0,0,0,0,0,0,0,0,0,0,0],"sum_hessian":[2.42E2,2E1,2.22E2,3E0,1.7E1,1.47E2,7.5E1,3E0,1.4E1,1.44E2,3E0,5.2E1,2.3E1],"tree_param":{"num_deleted":"0","num_feature":"30","num_nodes":"13","size_leaf_vector":"1"}},{"base_weights":[-1.2952442E-2,4.2476952E-1,-8.054151E-2,-1.1976242E-2,5.3844345E-1,-1.3387705E-1,4.055638E-1,5.2298468E-2,-6.7768335E-2,6.068754E-2,-6.75869E-4,3.310829E-2,-1.8194536E-2,6.371531E-2,-3.181998E-2],"categories":[],"categories_nodes":[],"categories_segments":[],"categories_sizes":[],"default_left":[0,0,0,0,0,0,0,0,0,0,0,0,0,0,0],"id":36,"left_children":[1,3,5,7,9,11,13,-1,-1,-1,-1,-1,-1,-1,-1],"loss_changes":[7.5192714E0,1.6944337E0,5.7581687E0,3.2034364E0,1.0114508E0,4.5078554E0,3.8902912E0,0E0,0E0,0E0,0E0,0E0,0E0,0E0,0E0],"parents":[2147483647,0,0,1,1,2,2,3,3,4,4,5,5,6,6],"right_children":[2,4,6,8,10,12,14,-1,-1,-1,-1,-1,-1,-1,-1],"split_conditions":[1.69E2,1.2E1,1E0,5E0,1E0,5.5E1,7.6E1,5.2298468E-2,-6.7768335E-2,6.068754E-2,-6.75869E-4,3.310829E-2,-1.8194536E-2,6.371531E-2,-3.181998E-2],"split_indices":[6,0,2,0,3,0,12,0,0,0,0,0,0,0,0],"split_type":[0,0,0,0,0,0,0,0,0,0,0,0,0,0,0],"sum_hessian":[2.52E2,3.3E1,2.19E2,7E0,2.6E1,1.98E2,2.1E1,4E0,3E0,2.3E1,3E0,1.8E1,1.8E2,1.6E1,5E0],"tree_param":{"num_deleted":"0","num_feature":"30","num_nodes":"15","size_leaf_vector":"1"}},{"base_weights":[3.9375037E-2,1.1126662E-1,-5.8621895E-1,-1.3285045E-1,3.0244672E-1,7.0720516E-2,-1.1074371E0,-7.8635E-2,-2.1021005E-3,-1.9932718E-3,6.704221E-2,7.248437E-2,-3.469465E-2,-1.4532872E-1,-5.539747E-2],"categories":[],"categories_nodes":[],"categories_segments":[],"categories_sizes":[],"default_left":[0,0,0,0,0,0,0,0,0,0,0,0,0,0,0],"id":37,"left_children":[1,3,5,7,9,11,13,-1,-1,-1,-1,-1,-1,-1,-1],"loss_changes":[1.0904188E1,1.0167642E1,8.638538E0,6.999197E0,1.448594E1,3.5299494E0,1.8747253E0,0E0,0E0,0E0,0E0,0E0,0E0,0E0,0E0],"parents":[2147483647,0,0,1,1,2,2,3,3,4,4,5,5,6,6],"right_children":[2,4,6,8,10,12,14,-1,-1,-1,-1,-1,-1,-1,-1],"split_conditions":[1.14668E4,9.5934E3,1E0,1.71E2,1.63E2,2.44E2,2.76E2,-7.8635E-2,-2.1021005E-3,-1.9932718E-3,6.704221E-2,7.248437E-2,-3.469465E-2,-1.4532872E-1,-5.539747E-2],"split_indices":[8,8,20,6,0,0,0,0,0,0,0,0,0,0,0],"split_type":[0,0,0,0,0,0,0,0,0,0,0,0,0,0,0],"sum_hessian":[2.4E2,2.16E2,2.4E1,9.5E1,1.21E2,1.1E1,1.3E1,1.3E1,8.2E1,6.5E1,5.6E1,4E0,7E0,7E0,6E0],"tree_param":{"num_deleted":"0","num_feature":"30","num_nodes":"15","size_leaf_vector":"1"}},{"base_weights":[-3.9305508E-2,7.822445E-2,-3.6020648E-1,-2.9039258E-1,1.6258873E-1,-1.7021899E0,-1.5290552E-1,6.0268402E-2,-5.351862E-2,2.8521834E-2,-1.3533537E-2,-9.277611E-2,-2.4382858E-1,4.9577247E-2,-4.2088922E-2],"categories":[],"categories_nodes":[],"categories_segments":[],"categories_sizes":[],"default_left":[0,0,0,0,0,0,0,0,0,0,0,0,0,0,0],"id":38,"left_children":[1,3,5,7,9,11,13,-1,-1,-1,-1,-1,-1,-1,-1],"loss_changes":[9.570194E0,5.8314633E0,1.8656948E1,7.9742284E0,5.5918145E0,2.8683376E0,1.0638772E1,0E0,0E0,0E0,0E0,0E0,0E0,0E0,0E0],"parents":[2147483647,0,0,1,1,2,2,3,3,4,4,5,5,6,6],"right_children":[2,4,6,8,10,12,14,-1,-1,-1,-1,-1,-1,-1,-1],"split_conditions":[3.08E2,4.4E0,3.22E2,1E2,1.07432E4,3.14E2,1.78E2,6.0268402E-2,-5.351862E-2,2.8521834E-2,-1.3533537E-2,-9.277611E-2,-2.4382858E-1,4.9577247E-2,-4.2088922E-2],"split_indices":[0,14,0,0,8,0,6,0,0,0,0,0,0,0,0],"split_type":[0,0,0,0,0,0,0,0,0,0,0,0,0,0,0],"sum_hessian":[2.52E2,1.85E2,6.7E1,3.4E1,1.51E2,8E0,5.9E1,7E0,2.7E1,1.07E2,4.4E1,5E0,3E0,1.7E1,4.2E1],"tree_param":{"num_deleted":"0","num_feature":"30","num_nodes":"15","size_leaf_vector":"1"}},{"base_weights":[2.1456284E-3,3.7606895E-1,-1.1624289E-1,2.3856397E-1,1.4420283E-1,-7.065832E-2,-1.5707703E-1,-1.0260971E-1,3.5337042E-2,1.443985E-2,-1.9876068E-2],"categories":[],"categories_nodes":[],"categories_segments":[],"categories_sizes":[],"default_left":[0,0,0,0,0,0,0,0,0,0,0],"id":39,"left_children":[1,3,5,7,-1,9,-1,-1,-1,-1,-1],"loss_changes":[1.1597724E1,8.890192E0,1.308351E1,8.638493E0,0E0,5.373263E0,0E0,0E0,0E0,0E0,0E0],"parents":[2147483647,0,0,1,1,2,2,3,3,5,5],"right_children":[2,4,6,8,-1,10,-1,-1,-1,-1,-1],"split_conditions":[3.774E2,1E0,8.3E1,7.3E1,1.4420283E-1,1E0,-1.5707703E-1,-1.0260971E-1,3.5337042E-2,1.443985E-2,-1.9876068E-2],"split_indices":[9,2,5,0,0,20,0,0,0,0,0],"split_type":[0,0,0,0,0,0,0,0,0,0,0],"sum_hessian":[2.6E2,6.2E1,1.98E2,5.6E1,6E0,1.93E2,5E0,4E0,5.2E1,7.2E1,1.21E2],"tree_param":{"num_deleted":"0","num_feature":"30","num_nodes":"11","size_leaf_vector":"1"}},{"base_weights":[4.8346225E-2,4.4503802E-1,-1.0040595E-1,5.1146483E-1,-2.823318E-2,1.1314519E-1,-3.1278956E-1,2.4711002E-2,7.9531804E-2,-7.3893294E-3,3.877982E-2,-2.0699993E-1,-2.2433622E-2],"categories":[],"categories_nodes":[],"categories_segments":[],"categories_sizes":[],"default_left":[0,0,0,0,0,0,0,0,0,0,0,0,0],"id":40,"left_children":[1,3,5,7,-1,9,11,-1,-1,-1,-1,-1,-1],"loss_changes":[1.38527355E1,3.236681E0,7.7910547E0,4.230707E0,0E0,4.446534E0,1.2902698E1,0E0,0E0,0E0,0E0,0E0,0E0],"parents":[2147483647,0,0,1,1,2,2,3,3,5,5,6,6],"right_children":[2,4,6,8,-1,10,12,-1,-1,-1,-1,-1,-1],"split_conditions":[8.76E1,3.82E2,2.5E1,2.74E2,-2.823318E-2,7.1E1,4.3E1,2.4711002E-2,7.9531804E-2,-7.3893294E-3,3.877982E-2,-2.0699993E-1,-2.2433622E-2],"split_indices":[10,0,4,0,0,12,11,0,0,0,0,0,0],"split_type":[0,0,0,0,0,0,0,0,0,0,0,0,0],"sum_hessian":[2.33E2,6.3E1,1.7E2,5.8E1,5E0,8.5E1,8.5E1,3.1E1,2.7E1,5.1E1,3.4E1,3E0,8.2E1],"tree_param":{"num_deleted":"0","num_feature":"30","num_nodes":"13","size_leaf_vector":"1"}},{"base_weights":[-1.958393E-2,6.6804886E-1,-9.417037E-2,-5.6579876E-1,1.209386E0,-5.8371574E-1,-4.7886956E-2,1.631527E-2,-1.3355385E-1,1.3933943E-1,6.398051E-2,-1.5190847E-1,4.1002482E-2,7.383474E-2,-7.147039E-3],"categories":[],"categories_nodes":[],"categories_segments":[],"categories_sizes":[],"default_left":[0,0,0,0,0,0,0,0,0,0,0,0,0,0,0],"id":41,"left_children":[1,3,5,7,9,11,13,-1,-1,-1,-1,-1,-1,-1,-1],"loss_changes":[1.2577202E1,1.671453E1,4.9794283E0,4.7067194E0,8.9022636E-1,1.828363E1,3.8168166E0,0E0,0E0,0E0,0E0,0E0,0E0,0E0,0E0],"parents":[2147483647,0,0,1,1,2,2,3,3,4,4,5,5,6,6],"right_children":[2,4,6,8,10,12,14,-1,-1,-1,-1,-1,-1,-1,-1],"split_conditions":[4.06E1,2.168E2,4.3E1,3.29E2,3.84E2,1E0,7E0,1.631527E-2,-1.3355385E-1,1.3933943E-1,6.398051E-2,-1.5190847E-1,4.1002482E-2,7.383474E-2,-7.147039E-3],"split_indices":[11,9,11,0,0,20,0,0,0,0,0,0,0,0,0],"split_type":[0,0,0,0,0,0,0,0,0,0,0,0,0,0,0],"sum_hessian":[2.43E2,2.3E1,2.2E2,7E0,1.6E1,1.8E1,2.02E2,4E0,3E0,1.1E1,5E0,9E0,9E0,5E0,1.97E2],"tree_param":{"num_deleted":"0","num_feature":"30","num_nodes":"15","size_leaf_vector":"1"}},{"base_weights":[-4.0213086E-2,-1.5351647E-1,2.6863015E-1,-4.0668335E-2,-4.747566E-1,4.9719122E-1,1.4850982E-1,3.5147917E-2,-1.1807113E-2,-7.6534025E-2,-2.5798319E-2,1.0007757E-1,1.6189449E-2,8.187056E-4,2.1614382E-2],"categories":[],"categories_nodes":[],"categories_segments":[],"categories_sizes":[],"default_left":[0,0,0,0,0,0,0,0,0,0,0,0,0,0,0],"id":42,"left_children":[1,3,5,7,9,11,13,-1,-1,-1,-1,-1,-1,-1,-1],"loss_changes":[8.85947E0,6.6871924E0,1.7930908E0,4.2302566E0,2.8261137E0,3.7215347E0,4.3479753E-1,0E0,0E0,0E0,0E0,0E0,0E0,0E0,0E0],"parents":[2147483647,0,0,1,1,2,2,3,3,4,4,5,5,6,6],"right_children":[2,4,6,8,10,12,14,-1,-1,-1,-1,-1,-1,-1,-1],"split_conditions":[7.64E1,2.9E1,7.78E1,8.96E1,1E0,1E0,1.1E1,3.5147917E-2,-1.1807113E-2,-7.6534025E-2,-2.5798319E-2,1.0007757E-1,1.6189449E-2,8.187056E-4,2.1614382E-2],"split_indices":[12,4,12,13,20,19,1,0,0,0,0,0,0,0,0],"split_type":[0,0,0,0,0,0,0,0,0,0,0,0,0,0,0],"sum_hessian":[2.51E2,1.84E2,6.7E1,1.37E2,4.7E1,2.2E1,4.5E1,2.2E1,1.15E2,1.9E1,2.8E1,8E0,1.4E1,1.5E1,3E1],"tree_param":{"num_deleted":"0","num_feature":"30","num_nodes":"15","size_leaf_vector":"1"}},{"base_weights":[1.174881E-1,-6.7725813E-1,1.4997761E-1,4.728703E-2,-1.5228221E-1,4.3659988E-1,7.643115E-2,-1.1945295E-1,5.6894597E-2,-1.2107204E-2,2.2342514E-2],"categories":[],"categories_nodes":[],"categories_segments":[],"categories_sizes":[],"default_left":[0,0,0,0,0,0,0,0,0,0,0],"id":43,"left_children":[1,3,5,-1,-1,7,9,-1,-1,-1,-1],"loss_changes":[6.556804E0,1.04451685E1,5.046924E0,0E0,0E0,1.1257424E1,5.630184E0,0E0,0E0,0E0,0E0],"parents":[2147483647,0,0,1,1,2,2,5,5,6,6],"right_children":[2,4,6,-1,-1,8,10,-1,-1,-1,-1],"split_conditions":[2.572E2,1E0,2.3E1,4.728703E-2,-1.5228221E-1,1.55E2,5.2E0,-1.1945295E-1,5.6894597E-2,-1.2107204E-2,2.2342514E-2],"split_indices":[9,20,4,0,0,0,14,0,0,0,0],"split_type":[0,0,0,0,0,0,0,0,0,0,0],"sum_hessian":[2.49E2,9E0,2.4E2,4E0,5E0,4.8E1,1.92E2,3E0,4.5E1,8.2E1,1.1E2],"tree_param":{"num_deleted":"0","num_feature":"30","num_nodes":"11","size_leaf_vector":"1"}},{"base_weights":[-3.7093505E-2,5.7733573E-2,-5.691729E-1,-7.203639E-1,1.1330091E-1,-8.7560326E-1,4.8145506E-1,2.8865162E-2,-1.513207E-1,3.4171157E-2,-1.449311E-3,-1.6520621E-1,-5.0113976E-2,-2.5895387E-2,1.1255729E-1],"categories":[],"categories_nodes":[],"categories_segments":[],"categories_sizes":[],"default_left":[0,0,0,0,0,0,0,0,0,0,0,0,0,0,0],"id":44,"left_children":[1,3,5,7,9,11,13,-1,-1,-1,-1,-1,-1,-1,-1],"loss_changes":[1.2344011E1,9.074873E0,1.2333501E1,1.1636663E1,5.696908E0,7.6039963E0,4.5836678E0,0E0,0E0,0E0,0E0,0E0,0E0,0E0,0E0],"parents":[2147483647,0,0,1,1,2,2,3,3,4,4,5,5,6,6],"right_children":[2,4,6,8,10,12,14,-1,-1,-1,-1,-1,-1,-1,-1],"split_conditions":[8.3E1,3.68E1,1E0,3.3E2,5.14E1,1E0,8.9E1,2.8865162E-2,-1.513207E-1,3.4171157E-2,-1.449311E-3,-1.6520621E-1,-5.0113976E-2,-2.5895387E-2,1.1255729E-1],"split_indices":[5,10,2,0,11,20,0,0,0,0,0,0,0,0,0],"split_type":[0,0,0,0,0,0,0,0,0,0,0,0,0,0,0],"sum_hessian":[2.43E2,2.07E2,3.6E1,1.3E1,1.94E2,2.8E1,8E0,6E0,7E0,6.9E1,1.25E2,8E0,2E1,4E0,4E0],"tree_param":{"num_deleted":"0","num_feature":"30","num_nodes":"15","size_leaf_vector":"1"}},{"base_weights":[-1.736945E-1,-3.6916015E-1,6.291032E-2,-3.332755E-3,-5.0034463E-1,2.6924852E-1,-1.3312966E-1,7.188447E-2,-3.3419188E-2,7.6803206E-3,-6.3218884E-2,1.0610055E-2,1.2795928E-1,-4.1671753E-2,7.4859443E-3],"categories":[],"categories_nodes":[],"categories_segments":[],"categories_sizes":[],"default_left":[0,0,0,0,0,0,0,0,0,0,0,0,0,0,0],"id":45,"left_children":[1,3,5,7,9,11,13,-1,-1,-1,-1,-1,-1,-1,-1],"loss_changes":[1.0567795E1,5.9971924E0,4.2427006E0,8.364158E0,7.0491657E0,8.27085E0,3.2162874E0,0E0,0E0,0E0,0E0,0E0,0E0,0E0,0E0],"parents":[2147483647,0,0,1,1,2,2,3,3,4,4,5,5,6,6],"right_children":[2,4,6,8,10,12,14,-1,-1,-1,-1,-1,-1,-1,-1],"split_conditions":[9.74E1,4.82E1,1.76E2,3.29E2,3.1E1,1.63E2,2.39E2,7.188447E-2,-3.3419188E-2,7.6803206E-3,-6.3218884E-2,1.0610055E-2,1.2795928E-1,-4.1671753E-2,7.4859443E-3],"split_indices":[7,12,0,0,0,0,0,0,0,0,0,0,0,0,0],"split_type":[0,0,0,0,0,0,0,0,0,0,0,0,0,0,0],"sum_hessian":[2.27E2,1.24E2,1.03E2,3.3E1,9.1E1,5E1,5.3E1,1E1,2.3E1,1.7E1,7.4E1,4.4E1,6E0,2.2E1,3.1E1],"tree_param":{"num_deleted":"0","num_feature":"30","num_nodes":"15","size_leaf_vector":"1"}},{"base_weights":[2.427731E-2,-4.6378878E-1,1.1932881E-1,-9.9653184E-1,9.214373E-2,3.974913E-1,1.8910293E-2,-7.074245E-2,-1.722369E-1,-9.7153775E-2,4.187852E-2,1.2134153E-1,1.2908881E-2,-1.0641139E-2,4.5886196E-2],"categories":[],"categories_nodes":[],"categories_segments":[],"categories_sizes":[],"default_left":[0,0,0,0,0,0,0,0,0,0,0,0,0,0,0],"id":46,"left_children":[1,3,5,7,9,11,13,-1,-1,-1,-1,-1,-1,-1,-1],"loss_changes":[1.10965E1,1.1642423E1,5.579017E0,2.9784508E0,7.3557158E0,1.1450152E1,8.208879E0,0E0,0E0,0E0,0E0,0E0,0E0,0E0,0E0],"parents":[2147483647,0,0,1,1,2,2,3,3,4,4,5,5,6,6],"right_children":[2,4,6,8,10,12,14,-1,-1,-1,-1,-1,-1,-1,-1],"split_conditions":[6.62E1,2.8E1,1E0,1E0,2.81E2,9.4E1,3.4E2,-7.074245E-2,-1.722369E-1,-9.7153775E-2,4.187852E-2,1.2134153E-1,1.2908881E-2,-1.0641139E-2,4.5886196E-2],"split_indices":[10,17,19,18,0,10,0,0,0,0,0,0,0,0,0],"split_type":[0,0,0,0,0,0,0,0,0,0,0,0,0,0,0],"sum_hessian":[2.37E2,3.8E1,1.99E2,1.9E1,1.9E1,5.2E1,1.47E2,1.5E1,4E0,4E0,1.5E1,1.2E1,4E1,1.15E2,3.2E1],"tree_param":{"num_deleted":"0","num_feature":"30","num_nodes":"15","size_leaf_vector":"1"}},{"base_weights":[2.304491E-3,-3.486604E-1,6.520242E-2,7.8234446E-1,-7.2663933E-1,3.0104148E-1,-4.1128054E-2,-1.7833186E-2,1.2195388E-1,-1.3832673E-1,-2.156868E-3,9.189599E-2,1.0128197E-2,-1.3020098E-2,2.587379E-2],"categories":[],"categories_nodes":[],"categories_segments":[],"categories_sizes":[],"default_left":[0,0,0,0,0,0,0,0,0,0,0,0,0,0,0],"id":47,"left_children":[1,3,5,7,9,11,13,-1,-1,-1,-1,-1,-1,-1,-1],"loss_changes":[5.5194006E0,1.6813328E1,5.32868E0,4.4175053E0,1.3396271E1,8.05364E0,3.9600492E0,0E0,0E0,0E0,0E0,0E0,0E0,0E0,0E0],"parents":[2147483647,0,0,1,1,2,2,3,3,4,4,5,5,6,6],"right_children":[2,4,6,8,10,12,14,-1,-1,-1,-1,-1,-1,-1,-1],"split_conditions":[2.65E1,1.81E2,6.14E1,1E0,3.11E2,9.9E1,8.44E1,-1.7833186E-2,1.2195388E-1,-1.3832673E-1,-2.156868E-3,9.189599E-2,1.0128197E-2,-1.3020098E-2,2.587379E-2],"split_indices":[17,0,12,19,0,0,11,0,0,0,0,0,0,0,0],"split_type":[0,0,0,0,0,0,0,0,0,0,0,0,0,0,0],"sum_hessian":[2.48E2,3.7E1,2.11E2,9E0,2.8E1,6.5E1,1.46E2,3E0,6E0,1.4E1,1.4E1,1.5E1,5E1,1.13E2,3.3E1],"tree_param":{"num_deleted":"0","num_feature":"30","num_nodes":"15","size_leaf_vector":"1"}},{"base_weights":[4.90203E-2,-1.1787943E-1,1.9547328E-1,1.4456874E-1,-2.5609365E-1,3.543619E-1,6.0025647E-2,3.0207539E-2,-8.245659E-2,-4.4608787E-2,3.0769426E-2,2.5388507E-2,1.2330853E-1,3.5865616E-2,-9.356188E-3],"categories":[],"categories_nodes":[],"categories_segments":[],"categories_sizes":[],"default_left":[0,0,0,0,0,0,0,0,0,0,0,0,0,0,0],"id":48,"left_children":[1,3,5,7,9,11,13,-1,-1,-1,-1,-1,-1,-1,-1],"loss_changes":[6.1093407E0,4.2810893E0,2.841034E0,6.507532E0,8.385224E0,5.0727096E0,3.3817687E0,0E0,0E0,0E0,0E0,0E0,0E0,0E0,0E0],"parents":[2147483647,0,0,1,1,2,2,3,3,4,4,5,5,6,6],"right_children":[2,4,6,8,10,12,14,-1,-1,-1,-1,-1,-1,-1,-1],"split_conditions":[9.64E1,1E0,4.838E2,1E0,1.56E2,1E0,1.28E2,3.0207539E-2,-8.245659E-2,-4.4608787E-2,3.0769426E-2,2.5388507E-2,1.2330853E-1,3.5865616E-2,-9.356188E-3],"split_indices":[7,20,9,25,10,2,0,0,0,0,0,0,0,0,0],"split_type":[0,0,0,0,0,0,0,0,0,0,0,0,0,0,0],"sum_hessian":[2.48E2,1.16E2,1.32E2,4E1,7.6E1,6E1,7.2E1,3.5E1,5E0,5.7E1,1.9E1,5.5E1,5E0,2.4E1,4.8E1],"tree_param":{"num_deleted":"0","num_feature":"30","num_nodes":"15","size_leaf_vector":"1"}},{"base_weights":[-5.953513E-2,-2.9460266E-1,6.7858726E-2,-1.994955E-1,-2.2182027E-1,2.7415108E-2,3.6867866E-1,-2.8145552E-2,9.128939E-2,7.9392735E-3,-9.937777E-2,1.2296057E-1,1.3040448E-2],"categories":[],"categories_nodes":[],"categories_segments":[],"categories_sizes":[],"default_left":[0,0,0,0,0,0,0,0,0,0,0,0,0],"id":49,"left_children":[1,3,5,7,-1,9,11,-1,-1,-1,-1,-1,-1],"loss_changes":[7.416693E0,1.5473968E1,1.9486582E0,7.9153414E0,0E0,7.6692204E0,3.7372508E0,0E0,0E0,0E0,0E0,0E0,0E0],"parents":[2147483647,0,0,1,1,2,2,3,3,5,5,6,6],"right_children":[2,4,6,8,-1,10,12,-1,-1,-1,-1,-1,-1],"split_conditions":[1.19E2,8.3E1,2.56E2,1E0,-2.2182027E-1,2.45E2,2.6E2,-2.8145552E-2,9.128939E-2,7.9392735E-3,-9.937777E-2,1.2296057E-1,1.3040448E-2],"split_indices":[13,5,0,3,0,0,0,0,0,0,0,0,0],"split_type":[0,0,0,0,0,0,0,0,0,0,0,0,0],"sum_hessian":[2.46E2,8.6E1,1.6E2,8.3E1,3E0,1.42E2,1.8E1,7.8E1,5E0,1.36E2,6E0,3E0,1.5E1],"tree_param":{"num_deleted":"0","num_feature":"30","num_nodes":"13","size_leaf_vector":"1"}}]},"name":"gbtree"},"learner_model_param":{"base_score":"2.8321257E1","boost_from_average":"1","num_class":"0","num_feature":"30","num_target":"1"},"objective":{"name":"reg:squarederror","reg_loss_param":{"scale_pos_weight":"1"}}},"version":[2,1,0]}