{"learner":{"attributes":{"scikit_learn":"{\"_estimator_type\": \"regressor\"}"},"feature_names":["jugador_anonimizado","gol","asistencia","edad","peso","altura","minutos_predictor","avg_dist_sess_m_predictor","zona_4_19.9_25.1_kmh_predictor","zona_5_mas_25.1_kmh_predictor","num_aceleraciones_intensas_predictor","num_desaceleraciones_intensas_predictor","num_acel_desintensas_predictor","num_sprints_total_predictor","gol_predictor","asistencia_predictor","max_vel_kmh_predictor","torneo_Libertadores","torneo_Torneo Local","categoria_partido_Normal","posicion_habitual_Delantero","posicion_habitual_Extremo","posicion_habitual_Lateral","posicion_habitual_Lateral ","posicion_habitual_Lateral / Volante","posicion_habitual_Volante / Extremo","posicion_habitual_Volante Central","posicion_habitual_Volante Ofensivo","posicion_habitual_Volante Ofensivo / Extremo"],"feature_types":["int","int","int","int","int","int","float","float","float","float","float","float","float","float","float","float","float","i","i","i","i","i","i","i","i","i","i","i","i"],"gradient_booster":{"model":{"gbtree_model_param":{"num_parallel_tree":"1","num_trees":"50"},"iteration_indptr":[0,1,2,3,4,5,6,7,8,9,10,11,12,13,14,15,16,17,18,19,20,21,22,23,24,25,26,27,28,29,30,31,32,33,34,35,36,37,38,39,40,41,42,43,44,45,46,47,48,49,50],"tree_info":[0,0,0,0,0,0,0,0,0,0,0,0,0,0,0,0,0,0,0,0,0,0,0,0,0,0,0,0,0,0,0,0,0,0,0,0,0,0,0,0,0,0,0,0,0,0,0,0,0,0],"trees":[{"base_weights":[5.5161965E-1,-2.7359037E1,8.212813E1,-5.398678E1,-2.0566795E1,3.766493E1,1.0723672E1,-3.886577E0,-6.029507E0,9.788758E-1,-2.2758014E0,6.8062434E0,4.3701243E-1],"categories":[],"categories_nodes":[],"categories_segments":[],"categories_sizes":[],"default_left":[0,0,0,0,0,0,0,0,0,0,0,0,0],"id":0,"left_children":[1,3,5,7,9,11,-1,-1,-1,-1,-1,-1,-1],"loss_changes":[5.805678E5,3.325347E4,6.85275E4,1.2813281E3,1.0399668E4,2.5004531E4,0E0,0E0,0E0,0E0,0E0,0E0,0E0],"parents":[2147483647,0,0,1,1,2,2,3,3,4,4,5,5],"right_children":[2,4,6,8,10,12,-1,-1,-1,-1,-1,-1,-1],"split_conditions":[1.56E2,6.56E1,2.176E2,1E0,7.1548E3,1E0,1.0723672E1,-3.886577E0,-6.029507E0,9.788758E-1,-2.2758014E0,6.8062434E0,4.3701243E-1],"split_indices":[9,9,9,19,7,19,0,0,0,0,0,0,0],"split_type":[0,0,0,0,0,0,0,0,0,0,0,0,0],"sum_hessian":[2.53E2,1.89E2,6.4E1,3.7E1,1.52E2,2.4E1,4E1,1.3E1,2.4E1,1E1,1.42E2,1.2E1,1.2E1],"tree_param":{"num_deleted":"0","num_feature":"29","num_nodes":"13","size_leaf_vector":"1"}},{"base_weights":[-1.346542E0,-1.8384142E1,9.492926E1,-2.934135E1,1.2076474E1,1.0203973E2,1.0757973E0,-4.7833805E0,-1.7670557E0,3.148513E0,3.5258833E-1,1.06865835E1,5.267517E0],"categories":[],"categories_nodes":[],"categories_segments":[],"categories_sizes":[],"default_left":[0,0,0,0,0,0,0,0,0,0,0,0,0],"id":1,"left_children":[1,3,5,7,9,11,-1,-1,-1,-1,-1,-1,-1],"loss_changes":[4.036208E5,7.011088E4,2.1046656E4,3.2391281E4,9.182492E3,2.4709062E3,0E0,0E0,0E0,0E0,0E0,0E0,0E0],"parents":[2147483647,0,0,1,1,2,2,3,3,4,4,5,5],"right_children":[2,4,6,8,10,12,-1,-1,-1,-1,-1,-1,-1],"split_conditions":[2.176E2,6.8E0,1E0,1.182E2,1E0,1.1E1,1.0757973E0,-4.7833805E0,-1.7670557E0,3.148513E0,3.5258833E-1,1.06865835E1,5.267517E0],"split_indices":[9,13,1,12,19,0,0,0,0,0,0,0,0],"split_type":[0,0,0,0,0,0,0,0,0,0,0,0,0],"sum_hessian":[2.44E2,2.08E2,3.6E1,1.53E2,5.5E1,3.3E1,3E0,5.8E1,9.5E1,1.6E1,3.9E1,2.9E1,4E0],"tree_param":{"num_deleted":"0","num_feature":"29","num_nodes":"13","size_leaf_vector":"1"}},{"base_weights":[2.245738E0,-1.1742964E1,9.919171E1,-2.4544E1,1.7528227E1,7.7678795E1,1.1450515E1,-3.7258642E0,-1.565359E0,1.2205412E0,9.698049E0,1.1312591E1,5.6435933E0],"categories":[],"categories_nodes":[],"categories_segments":[],"categories_sizes":[],"default_left":[0,0,0,0,0,0,0,0,0,0,0,0,0],"id":2,"left_children":[1,3,5,7,9,11,-1,-1,-1,-1,-1,-1,-1],"loss_changes":[3.3342112E5,8.099106E4,1.3179062E3,1.6372516E4,2.6728346E4,5.6636016E3,0E0,0E0,0E0,0E0,0E0,0E0,0E0],"parents":[2147483647,0,0,1,1,2,2,3,3,4,4,5,5],"right_children":[2,4,6,8,10,12,-1,-1,-1,-1,-1,-1,-1],"split_conditions":[2.48E2,1.182E2,2E0,8.76E1,1E0,1E0,1.1450515E1,-3.7258642E0,-1.565359E0,1.2205412E0,9.698049E0,1.1312591E1,5.6435933E0],"split_indices":[9,9,0,9,2,19,0,0,0,0,0,0,0],"split_type":[0,0,0,0,0,0,0,0,0,0,0,0,0],"sum_hessian":[2.44E2,2.14E2,3E1,1.49E2,6.5E1,1.5E1,1.5E1,6E1,8.9E1,6.2E1,3E0,4E0,1.1E1],"tree_param":{"num_deleted":"0","num_feature":"29","num_nodes":"13","size_leaf_vector":"1"}},{"base_weights":[-1.3115313E0,-2.2893688E1,4.3923836E1,-4.235706E1,-1.6668833E1,5.3591354E1,2.670017E0,-2.865431E0,-4.522586E0,-4.3269736E-1,-2.0780678E0,3.785701E0,6.8212256E0,2.6899066E0,-9.6670085E-1],"categories":[],"categories_nodes":[],"categories_segments":[],"categories_sizes":[],"default_left":[0,0,0,0,0,0,0,0,0,0,0,0,0,0,0],"id":3,"left_children":[1,3,5,7,9,11,13,-1,-1,-1,-1,-1,-1,-1,-1],"loss_changes":[2.5386127E5,2.0617523E4,3.3357953E4,3.55125E2,6.761039E3,1.3061109E4,5.341578E3,0E0,0E0,0E0,0E0,0E0,0E0,0E0,0E0],"parents":[2147483647,0,0,1,1,2,2,3,3,4,4,5,5,6,6],"right_children":[2,4,6,8,10,12,14,-1,-1,-1,-1,-1,-1,-1,-1],"split_conditions":[7.2E0,6.56E1,3.3E1,1E0,2.3E1,2.176E2,1E0,-2.865431E0,-4.522586E0,-4.3269736E-1,-2.0780678E0,3.785701E0,6.8212256E0,2.6899066E0,-9.6670085E-1],"split_indices":[13,9,3,18,3,9,19,0,0,0,0,0,0,0,0],"split_type":[0,0,0,0,0,0,0,0,0,0,0,0,0,0,0],"sum_hessian":[2.58E2,1.75E2,8.3E1,4.1E1,1.34E2,6.7E1,1.6E1,9E0,3.2E1,3.4E1,1E2,3.4E1,3.3E1,5E0,1.1E1],"tree_param":{"num_deleted":"0","num_feature":"29","num_nodes":"15","size_leaf_vector":"1"}},{"base_weights":[2.1456847E0,-1.218517E1,8.125551E1,-2.1309778E1,1.5556064E1,8.551181E1,1.9442688E0,-3.237042E0,-1.5550056E0,4.531481E0,2.1118334E-1,7.0231895E0,1.0308721E1],"categories":[],"categories_nodes":[],"categories_segments":[],"categories_sizes":[],"default_left":[0,0,0,0,0,0,0,0,0,0,0,0,0],"id":4,"left_children":[1,3,5,7,9,11,-1,-1,-1,-1,-1,-1,-1],"loss_changes":[3.1049338E5,5.905717E4,9.387344E3,1.0645219E4,2.3109137E4,3.2334688E3,0E0,0E0,0E0,0E0,0E0,0E0,0E0],"parents":[2147483647,0,0,1,1,2,2,3,3,4,4,5,5],"right_children":[2,4,6,8,10,12,-1,-1,-1,-1,-1,-1,-1],"split_conditions":[1.12E1,6.8E0,1E0,4.4E0,1E0,2.4E1,1.9442688E0,-3.237042E0,-1.5550056E0,4.531481E0,2.1118334E-1,7.0231895E0,1.0308721E1],"split_indices":[13,13,2,13,19,3,0,0,0,0,0,0,0],"split_type":[0,0,0,0,0,0,0,0,0,0,0,0,0],"sum_hessian":[2.72E2,2.31E2,4.1E1,1.74E2,5.7E1,3.8E1,3E0,5.8E1,1.16E2,1.7E1,4E1,2.3E1,1.5E1],"tree_param":{"num_deleted":"0","num_feature":"29","num_nodes":"13","size_leaf_vector":"1"}},{"base_weights":[-2.3558757E0,-1.8296621E1,3.1803875E1,-2.012139E1,2.048579E1,1.4799803E1,4.678804E1,-2.3906844E0,-9.265458E-1,3.4345167E0,5.301132E-1,3.363091E0,3.662391E-1,4.858873E0,1.7984488E0],"categories":[],"categories_nodes":[],"categories_segments":[],"categories_sizes":[],"default_left":[0,0,0,0,0,0,0,0,0,0,0,0,0,0,0],"id":5,"left_children":[1,3,5,7,9,11,13,-1,-1,-1,-1,-1,-1,-1,-1],"loss_changes":[1.334477E5,1.2230598E4,1.9181305E4,6.353633E3,1.5015303E3,7.8465625E3,1.2526719E3,0E0,0E0,0E0,0E0,0E0,0E0,0E0,0E0],"parents":[2147483647,0,0,1,1,2,2,3,3,4,4,5,5,6,6],"right_children":[2,4,6,8,10,12,14,-1,-1,-1,-1,-1,-1,-1,-1],"split_conditions":[8E0,2.7E1,1.12E1,5.7E1,1E0,1E0,1E0,-2.3906844E0,-9.265458E-1,3.4345167E0,5.301132E-1,3.363091E0,3.662391E-1,4.858873E0,1.7984488E0],"split_indices":[13,0,13,10,19,19,2,0,0,0,0,0,0,0,0],"split_type":[0,0,0,0,0,0,0,0,0,0,0,0,0,0,0],"sum_hessian":[2.43E2,1.66E2,7.7E1,1.59E2,7E0,3.7E1,4E1,1.17E2,4.2E1,3E0,4E0,1.3E1,2.4E1,3.7E1,3E0],"tree_param":{"num_deleted":"0","num_feature":"29","num_nodes":"15","size_leaf_vector":"1"}},{"base_weights":[1.4843785E0,-1.3833142E1,4.8688663E1,-2.0969873E1,5.8554296E0,3.4644783E1,8.2173485E1,-2.2917144E0,1.3051085E0,-3.629462E-2,7.745749E0,4.7586856E0,2.1876934E0,1.07681265E1,5.847095E0],"categories":[],"categories_nodes":[],"categories_segments":[],"categories_sizes":[],"default_left":[0,0,0,0,0,0,0,0,0,0,0,0,0,0,0],"id":6,"left_children":[1,3,5,7,9,11,13,-1,-1,-1,-1,-1,-1,-1,-1],"loss_changes":[1.7709836E5,2.611752E4,2.5368516E4,9.308824E3,2.2290537E4,6.2296094E3,3.9819531E3,0E0,0E0,0E0,0E0,0E0,0E0,0E0,0E0],"parents":[2147483647,0,0,1,1,2,2,3,3,4,4,5,5,6,6],"right_children":[2,4,6,8,10,12,14,-1,-1,-1,-1,-1,-1,-1,-1],"split_conditions":[1.56E2,6.4E0,2.5E1,1E0,1E0,1E0,1E0,-2.2917144E0,1.3051085E0,-3.629462E-2,7.745749E0,4.7586856E0,2.1876934E0,1.07681265E1,5.847095E0],"split_indices":[9,13,3,1,2,19,19,0,0,0,0,0,0,0,0],"split_type":[0,0,0,0,0,0,0,0,0,0,0,0,0,0,0],"sum_hessian":[2.43E2,1.84E2,5.9E1,1.35E2,4.9E1,4.3E1,1.6E1,1.28E2,7E0,4.6E1,3E0,2E1,2.3E1,6E0,1E1],"tree_param":{"num_deleted":"0","num_feature":"29","num_nodes":"15","size_leaf_vector":"1"}},{"base_weights":[-1.128942E0,-1.0332724E1,3.1104452E1,-4.572618E0,-7.775943E0,4.614305E1,1.9224731E1,-1.169298E0,9.2335314E-1,5.4833293E0,2.1534912E-1,2.7680595E0,-1.6137129E0],"categories":[],"categories_nodes":[],"categories_segments":[],"categories_sizes":[],"default_left":[0,0,0,0,0,0,0,0,0,0,0,0,0],"id":7,"left_children":[1,3,5,-1,7,9,11,-1,-1,-1,-1,-1,-1],"loss_changes":[7.478535E4,1.738112E4,9.117555E3,0E0,1.2367289E4,9.056633E3,1.0314181E4,0E0,0E0,0E0,0E0,0E0,0E0],"parents":[2147483647,0,0,1,1,2,2,4,4,5,5,6,6],"right_children":[2,4,6,-1,8,10,12,-1,-1,-1,-1,-1,-1],"split_conditions":[7.32E1,3.68E1,1E0,-4.572618E0,1E0,1.2E1,9.84E1,-1.169298E0,9.2335314E-1,5.4833293E0,2.1534912E-1,2.7680595E0,-1.6137129E0],"split_indices":[10,10,19,0,22,0,6,0,0,0,0,0,0],"split_type":[0,0,0,0,0,0,0,0,0,0,0,0,0],"sum_hessian":[2.5E2,1.95E2,5.5E1,1.2E1,1.83E2,2.3E1,3.2E1,1.49E2,3.4E1,1.9E1,4E0,2.6E1,6E0],"tree_param":{"num_deleted":"0","num_feature":"29","num_nodes":"13","size_leaf_vector":"1"}},{"base_weights":[2.5955133E0,-6.728457E0,5.6654243E1,-1.3983338E1,4.233966E0,3.258633E1,6.884105E1,-2.1626077E0,-7.3563504E-1,8.3512574E-2,7.2001987E0,3.6425602E0,1.3881756E0,8.571241E0,1.8033307E0],"categories":[],"categories_nodes":[],"categories_segments":[],"categories_sizes":[],"default_left":[0,0,0,0,0,0,0,0,0,0,0,0,0,0,0],"id":8,"left_children":[1,3,5,7,9,11,13,-1,-1,-1,-1,-1,-1,-1,-1],"loss_changes":[1.23367445E5,1.66812E4,8.315906E3,6.2225996E3,1.928781E4,4.9971582E2,1.8169836E4,0E0,0E0,0E0,0E0,0E0,0E0,0E0,0E0],"parents":[2147483647,0,0,1,1,2,2,3,3,4,4,5,5,6,6],"right_children":[2,4,6,8,10,12,14,-1,-1,-1,-1,-1,-1,-1,-1],"split_conditions":[1.12E1,6.4E0,2E0,1.19E2,1E0,1E0,1E0,-2.1626077E0,-7.3563504E-1,8.3512574E-2,7.2001987E0,3.6425602E0,1.3881756E0,8.571241E0,1.8033307E0],"split_indices":[13,13,0,12,2,2,17,0,0,0,0,0,0,0,0],"split_type":[0,0,0,0,0,0,0,0,0,0,0,0,0,0,0],"sum_hessian":[2.43E2,2.08E2,3.5E1,1.25E2,8.3E1,1.3E1,2.2E1,5.7E1,6.8E1,8E1,3E0,1E1,3E0,1.6E1,6E0],"tree_param":{"num_deleted":"0","num_feature":"29","num_nodes":"15","size_leaf_vector":"1"}},{"base_weights":[-1.7229478E-1,-1.6527431E1,2.308659E1,-2.6317896E1,-7.9388485E0,1.9961065E1,6.577836E0,-2.9100409E0,-1.3804325E0,-1.2170254E0,-6.4263743E-1,4.4652247E-1,2.8951478E0],"categories":[],"categories_nodes":[],"categories_segments":[],"categories_sizes":[],"default_left":[0,0,0,0,0,0,0,0,0,0,0,0,0],"id":9,"left_children":[1,3,5,7,9,11,-1,-1,-1,-1,-1,-1,-1],"loss_changes":[1.0042735E5,1.2824434E4,1.323132E4,2.1052695E3,4.5937988E2,1.42200625E4,0E0,0E0,0E0,0E0,0E0,0E0,0E0],"parents":[2147483647,0,0,1,1,2,2,3,3,4,4,5,5],"right_children":[2,4,6,8,10,12,-1,-1,-1,-1,-1,-1,-1],"split_conditions":[1.182E2,9.06E1,1E0,1E0,1E0,1.56E2,6.577836E0,-2.9100409E0,-1.3804325E0,-1.2170254E0,-6.4263743E-1,4.4652247E-1,2.8951478E0],"split_indices":[9,9,2,22,18,9,0,0,0,0,0,0,0],"split_type":[0,0,0,0,0,0,0,0,0,0,0,0,0],"sum_hessian":[2.62E2,1.54E2,1.08E2,7.1E1,8.3E1,1.02E2,6E0,5.7E1,1.4E1,2E1,6.3E1,3.8E1,6.4E1],"tree_param":{"num_deleted":"0","num_feature":"29","num_nodes":"13","size_leaf_vector":"1"}},{"base_weights":[-7.65652E-1,-1.11516E1,1.99039E1,-3.3633053E0,-8.257814E0,9.833635E0,3.3252914E1,-9.5696366E-1,1.1216182E0,1.4389586E0,-9.6983117E-1,3.551487E0,4.0166208E-1],"categories":[],"categories_nodes":[],"categories_segments":[],"categories_sizes":[],"default_left":[0,0,0,0,0,0,0,0,0,0,0,0,0],"id":10,"left_children":[1,3,5,-1,7,9,11,-1,-1,-1,-1,-1,-1],"loss_changes":[6.0330367E4,1.188783E4,1.2309246E4,0E0,4.373588E3,5.033817E3,2.5025938E3,0E0,0E0,0E0,0E0,0E0,0E0],"parents":[2147483647,0,0,1,1,2,2,4,4,5,5,6,6],"right_children":[2,4,6,-1,8,10,12,-1,-1,-1,-1,-1,-1],"split_conditions":[7E0,3.2E0,2.176E2,-3.3633053E0,1E0,1E0,1E0,-9.5696366E-1,1.1216182E0,1.4389586E0,-9.6983117E-1,3.551487E0,4.0166208E-1],"split_indices":[13,13,9,0,2,17,2,0,0,0,0,0,0],"split_type":[0,0,0,0,0,0,0,0,0,0,0,0,0],"sum_hessian":[2.79E2,1.86E2,9.3E1,2E1,1.66E2,5.4E1,3.9E1,1.56E2,1E1,4.4E1,1E1,3.6E1,3E0],"tree_param":{"num_deleted":"0","num_feature":"29","num_nodes":"13","size_leaf_vector":"1"}},{"base_weights":[8.759362E-1,4.3939045E1,-4.895355E0,7.1598434E1,3.0626612E0,-1.1362057E1,4.0053463E0,8.906127E0,2.7504578E0,-2.8735373E-2,-1.5600376E0,1.6304396E-1,3.3628395E0],"categories":[],"categories_nodes":[],"categories_segments":[],"categories_sizes":[],"default_left":[0,0,0,0,0,0,0,0,0,0,0,0,0],"id":11,"left_children":[1,3,5,7,-1,9,11,-1,-1,-1,-1,-1,-1],"loss_changes":[6.309312E4,8.853598E3,1.2938544E4,4.4804375E3,0E0,6.0974707E3,6.628609E3,0E0,0E0,0E0,0E0,0E0,0E0],"parents":[2147483647,0,0,1,1,2,2,3,3,5,5,6,6],"right_children":[2,4,6,8,-1,10,12,-1,-1,-1,-1,-1,-1],"split_conditions":[6.3E1,1E0,5.56E1,2E0,3.0626612E0,2.65E1,1.6E1,8.906127E0,2.7504578E0,-2.8735373E-2,-1.5600376E0,1.6304396E-1,3.3628395E0],"split_indices":[4,18,10,0,0,16,0,0,0,0,0,0,0],"split_type":[0,0,0,0,0,0,0,0,0,0,0,0,0],"sum_hessian":[2.52E2,2.9E1,2.23E2,8E0,2.1E1,1.29E2,9.4E1,5E0,3E0,3.6E1,9.3E1,8.8E1,6E0],"tree_param":{"num_deleted":"0","num_feature":"29","num_nodes":"13","size_leaf_vector":"1"}},{"base_weights":[-1.7108405E0,-1.401729E1,1.8915201E1,-1.6451221E1,3.9341867E0,3.867414E1,8.709607E0,-2.6484296E0,-1.2792877E0,3.66831E0,-5.0611347E-1,6.927645E0,1.8921534E0,4.2865187E-1,5.473705E0],"categories":[],"categories_nodes":[],"categories_segments":[],"categories_sizes":[],"default_left":[0,0,0,0,0,0,0,0,0,0,0,0,0,0,0],"id":12,"left_children":[1,3,5,7,9,11,13,-1,-1,-1,-1,-1,-1,-1,-1],"loss_changes":[5.839298E4,6.356465E3,1.7005213E4,4.3226523E3,5.488223E3,1.6218973E4,1.1573209E4,0E0,0E0,0E0,0E0,0E0,0E0,0E0,0E0],"parents":[2147483647,0,0,1,1,2,2,3,3,4,4,5,5,6,6],"right_children":[2,4,6,8,10,12,14,-1,-1,-1,-1,-1,-1,-1,-1],"split_conditions":[6.6E0,1.368E2,6.3E1,1E0,1E0,1E0,1E0,-2.6484296E0,-1.2792877E0,3.66831E0,-5.0611347E-1,6.927645E0,1.8921534E0,4.2865187E-1,5.473705E0],"split_indices":[13,12,4,18,18,19,2,0,0,0,0,0,0,0,0],"split_type":[0,0,0,0,0,0,0,0,0,0,0,0,0,0,0],"sum_hessian":[2.28E2,1.43E2,8.5E1,1.26E2,1.7E1,2.8E1,5.7E1,3.2E1,9.4E1,3E0,1.4E1,1E1,1.8E1,5.3E1,4E0],"tree_param":{"num_deleted":"0","num_feature":"29","num_nodes":"15","size_leaf_vector":"1"}},{"base_weights":[-7.983506E-1,3.6843433E1,-7.8755255E0,1.5706626E1,5.1501717E1,-9.269345E0,3.227651E0,5.7539043E0,-6.5184695E-1,3.1164765E0,5.5649953E0,-1.9478706E0,-5.826589E-1],"categories":[],"categories_nodes":[],"categories_segments":[],"categories_sizes":[],"default_left":[0,0,0,0,0,0,0,0,0,0,0,0,0],"id":13,"left_children":[1,3,5,7,9,11,-1,-1,-1,-1,-1,-1,-1],"loss_changes":[6.395916E4,1.0964598E4,1.1604052E4,1.6180469E4,1.2165625E2,6.77558E3,0E0,0E0,0E0,0E0,0E0,0E0,0E0],"parents":[2147483647,0,0,1,1,2,2,3,3,4,4,5,5],"right_children":[2,4,6,8,10,12,-1,-1,-1,-1,-1,-1,-1],"split_conditions":[1.7E2,2E0,2.7E1,1E0,1E0,4.56E1,3.227651E0,5.7539043E0,-6.5184695E-1,3.1164765E0,5.5649953E0,-1.9478706E0,-5.826589E-1],"split_indices":[5,0,0,18,18,10,0,0,0,0,0,0,0],"split_type":[0,0,0,0,0,0,0,0,0,0,0,0,0],"sum_hessian":[2.38E2,3.7E1,2.01E2,1.6E1,2.1E1,1.95E2,6E0,5E0,1.1E1,5E0,1.6E1,4.8E1,1.47E2],"tree_param":{"num_deleted":"0","num_feature":"29","num_nodes":"13","size_leaf_vector":"1"}},{"base_weights":[3.6438334E0,-3.2969759E0,4.026117E1,2.0711227E1,-6.0642424E0,1.8965263E1,5.1893563E0,3.2412705E0,-3.7123222E0,-7.472528E-1,1.6379489E0,4.538501E0,-3.6906755E-1],"categories":[],"categories_nodes":[],"categories_segments":[],"categories_sizes":[],"default_left":[0,0,0,0,0,0,0,0,0,0,0,0,0],"id":14,"left_children":[1,3,5,7,9,11,-1,-1,-1,-1,-1,-1,-1],"loss_changes":[6.062138E4,1.3479456E4,8.429277E3,1.5414982E4,5.8432954E3,9.145963E3,0E0,0E0,0E0,0E0,0E0,0E0,0E0],"parents":[2147483647,0,0,1,1,2,2,3,3,4,4,5,5],"right_children":[2,4,6,8,10,12,-1,-1,-1,-1,-1,-1,-1],"split_conditions":[2.176E2,4.72E1,2E0,1E0,1E0,1E0,5.1893563E0,3.2412705E0,-3.7123222E0,-7.472528E-1,1.6379489E0,4.538501E0,-3.6906755E-1],"split_indices":[9,11,0,17,23,19,0,0,0,0,0,0,0],"split_type":[0,0,0,0,0,0,0,0,0,0,0,0,0],"sum_hessian":[2.37E2,2E2,3.7E1,2E1,1.8E2,1.4E1,2.3E1,1.7E1,3E0,1.7E2,1E1,6E0,8E0],"tree_param":{"num_deleted":"0","num_feature":"29","num_nodes":"13","size_leaf_vector":"1"}},{"base_weights":[2.3563719E0,-6.043985E0,3.290189E1,9.333488E0,-8.387856E0,2.6537483E1,4.8735775E1,-7.032336E-1,1.3564986E0,-3.2966022E0,-6.455844E-1,2.306978E0,5.197939E0,6.163072E0,2.7036436E0],"categories":[],"categories_nodes":[],"categories_segments":[],"categories_sizes":[],"default_left":[0,0,0,0,0,0,0,0,0,0,0,0,0,0,0],"id":15,"left_children":[1,3,5,7,9,11,13,-1,-1,-1,-1,-1,-1,-1,-1],"loss_changes":[6.3064207E4,7.034551E3,4.0476602E3,1.8959443E3,7.764708E3,2.3298496E3,2.2510898E3,0E0,0E0,0E0,0E0,0E0,0E0,0E0,0E0],"parents":[2147483647,0,0,1,1,2,2,3,3,4,4,5,5,6,6],"right_children":[2,4,6,8,10,12,14,-1,-1,-1,-1,-1,-1,-1,-1],"split_conditions":[1.844E2,7.1548E3,2.5E1,1E0,1.71E2,1E0,1E0,-7.032336E-1,1.3564986E0,-3.2966022E0,-6.455844E-1,2.306978E0,5.197939E0,6.163072E0,2.7036436E0],"split_indices":[9,7,3,19,5,1,19,0,0,0,0,0,0,0,0],"split_type":[0,0,0,0,0,0,0,0,0,0,0,0,0,0,0],"sum_hessian":[2.44E2,1.92E2,5.2E1,2.5E1,1.67E2,3.9E1,1.3E1,5E0,2E1,1.1E1,1.56E2,3.6E1,3E0,7E0,6E0],"tree_param":{"num_deleted":"0","num_feature":"29","num_nodes":"15","size_leaf_vector":"1"}},{"base_weights":[1.6575186E0,-1.1720569E1,6.4201255E0,-7.6381893E0,-2.2724874E1,2.6765701E1,3.393307E0,-1.7135318E-1,-1.2129713E0,-1.6332659E0,-3.0656457E0,-1.4288367E0,3.3999944E0,1.1935396E0,-1.5359448E-1],"categories":[],"categories_nodes":[],"categories_segments":[],"categories_sizes":[],"default_left":[0,0,0,0,0,0,0,0,0,0,0,0,0,0,0],"id":16,"left_children":[1,3,5,7,9,11,13,-1,-1,-1,-1,-1,-1,-1,-1],"loss_changes":[1.4793313E4,2.5667725E3,1.0439762E4,1.2033093E3,3.1050488E2,7.0196924E3,6.334248E3,0E0,0E0,0E0,0E0,0E0,0E0,0E0,0E0],"parents":[2147483647,0,0,1,1,2,2,3,3,4,4,5,5,6,6],"right_children":[2,4,6,8,10,12,14,-1,-1,-1,-1,-1,-1,-1,-1],"split_conditions":[4.6E0,1.7E1,2.8E1,1E0,2.67E2,1E0,1E0,-1.7135318E-1,-1.2129713E0,-1.6332659E0,-3.0656457E0,-1.4288367E0,3.3999944E0,1.1935396E0,-1.5359448E-1],"split_indices":[13,0,16,19,8,18,19,0,0,0,0,0,0,0,0],"split_type":[0,0,0,0,0,0,0,0,0,0,0,0,0,0,0],"sum_hessian":[2.3E2,6E1,1.7E2,4.5E1,1.5E1,2.1E1,1.49E2,2E1,2.5E1,1E1,5E0,3E0,1.8E1,5.4E1,9.5E1],"tree_param":{"num_deleted":"0","num_feature":"29","num_nodes":"15","size_leaf_vector":"1"}},{"base_weights":[8.83275E-1,2.0684784E1,-2.2579703E0,4.762283E0,8.073253E0,-1.1959542E1,1.8284091E0,1.2516505E0,1.0453766E-1,-5.1978654E-1,-2.3402536E0,-7.7545047E-1,5.7563895E-1],"categories":[],"categories_nodes":[],"categories_segments":[],"categories_sizes":[],"default_left":[0,0,0,0,0,0,0,0,0,0,0,0,0],"id":17,"left_children":[1,3,5,-1,7,9,11,-1,-1,-1,-1,-1,-1],"loss_changes":[1.4539632E4,1.0486887E4,8.0300166E3,0E0,7.0512805E2,4.520786E3,5.4273716E3,0E0,0E0,0E0,0E0,0E0,0E0],"parents":[2147483647,0,0,1,1,2,2,4,4,5,5,6,6],"right_children":[2,4,6,-1,8,10,12,-1,-1,-1,-1,-1,-1],"split_conditions":[1.69E2,1E0,9.06E1,4.762283E0,2.4E1,1.5E1,1E0,1.2516505E0,1.0453766E-1,-5.1978654E-1,-2.3402536E0,-7.7545047E-1,5.7563895E-1],"split_indices":[5,18,9,0,3,0,18,0,0,0,0,0,0],"split_type":[0,0,0,0,0,0,0,0,0,0,0,0,0],"sum_hessian":[2.32E2,3.1E1,2.01E2,9E0,2.2E1,5.9E1,1.42E2,1.3E1,9E0,3.8E1,2.1E1,4.1E1,1.01E2],"tree_param":{"num_deleted":"0","num_feature":"29","num_nodes":"13","size_leaf_vector":"1"}},{"base_weights":[-1.4821576E0,-6.0686774E0,2.6078133E1,1.0999484E0,-9.441026E0,2.2659246E1,4.7764406E0,2.5554376E0,-1.0640714E0,-7.751365E-1,-2.4939132E0,1.4884199E0,3.2147942E0],"categories":[],"categories_nodes":[],"categories_segments":[],"categories_sizes":[],"default_left":[0,0,0,0,0,0,0,0,0,0,0,0,0],"id":18,"left_children":[1,3,5,7,9,11,-1,-1,-1,-1,-1,-1,-1],"loss_changes":[3.1886121E4,5.2322065E3,1.5868359E3,2.03697E4,3.6561074E3,1.9560801E3,0E0,0E0,0E0,0E0,0E0,0E0,0E0],"parents":[2147483647,0,0,1,1,2,2,3,3,4,4,5,5],"right_children":[2,4,6,8,10,12,-1,-1,-1,-1,-1,-1,-1],"split_conditions":[2.176E2,1E0,1E0,1E0,1.616E2,2.4E1,4.7764406E0,2.5554376E0,-1.0640714E0,-7.751365E-1,-2.4939132E0,1.4884199E0,3.2147942E0],"split_indices":[9,19,1,17,9,3,0,0,0,0,0,0,0],"split_type":[0,0,0,0,0,0,0,0,0,0,0,0,0],"sum_hessian":[2.5E2,2.15E2,3.5E1,6.9E1,1.46E2,3.2E1,3E0,2.2E1,4.7E1,1.33E2,1.3E1,1.9E1,1.3E1],"tree_param":{"num_deleted":"0","num_feature":"29","num_nodes":"13","size_leaf_vector":"1"}},{"base_weights":[-4.0292048E-1,-4.707799E0,2.1562035E1,-9.191844E0,-7.924166E-1,3.3496403E1,-2.9943924E0,5.198757E-2,-1.5396216E0,-2.4630772E-1,8.491966E-1,1.6625398E0,3.7525003E0,1.4247121E0,-1.4156024E0],"categories":[],"categories_nodes":[],"categories_segments":[],"categories_sizes":[],"default_left":[0,0,0,0,0,0,0,0,0,0,0,0,0,0,0],"id":19,"left_children":[1,3,5,7,9,11,13,-1,-1,-1,-1,-1,-1,-1,-1],"loss_changes":[2.307873E4,3.5742935E3,1.1822918E4,5.73224E3,1.7271322E3,1.2112305E3,2.8958901E3,0E0,0E0,0E0,0E0,0E0,0E0,0E0,0E0],"parents":[2147483647,0,0,1,1,2,2,3,3,4,4,5,5,6,6],"right_children":[2,4,6,8,10,12,14,-1,-1,-1,-1,-1,-1,-1,-1],"split_conditions":[3.2E1,9.64E1,1.1E1,6.36E1,2.7E1,1E0,1E0,5.198757E-2,-1.5396216E0,-2.4630772E-1,8.491966E-1,1.6625398E0,3.7525003E0,1.4247121E0,-1.4156024E0],"split_indices":[3,6,0,6,3,18,19,0,0,0,0,0,0,0,0],"split_type":[0,0,0,0,0,0,0,0,0,0,0,0,0,0,0],"sum_hessian":[2.42E2,2.03E2,3.9E1,9.4E1,1.09E2,2.6E1,1.3E1,3.7E1,5.7E1,9.3E1,1.6E1,6E0,2E1,5E0,8E0],"tree_param":{"num_deleted":"0","num_feature":"29","num_nodes":"15","size_leaf_vector":"1"}},{"base_weights":[4.771304E-1,-5.407726E0,1.1165986E1,-2.398206E0,-1.1949349E1,4.9815173E0,7.9279366E0,-6.284094E-1,2.0965056E-1,-7.277207E-1,-2.7306068E0,2.0790331E0,1.4713712E-1],"categories":[],"categories_nodes":[],"categories_segments":[],"categories_sizes":[],"default_left":[0,0,0,0,0,0,0,0,0,0,0,0,0],"id":20,"left_children":[1,3,5,7,9,-1,11,-1,-1,-1,-1,-1,-1],"loss_changes":[1.6477902E4,3.2984702E3,1.1243827E4,2.0566902E3,3.6039731E3,0E0,7.1944897E3,0E0,0E0,0E0,0E0,0E0,0E0],"parents":[2147483647,0,0,1,1,2,2,3,3,4,4,6,6],"right_children":[2,4,6,8,10,-1,12,-1,-1,-1,-1,-1,-1],"split_conditions":[6.8E0,1.7E1,2.65E1,8E0,1E0,4.9815173E0,1E0,-6.284094E-1,2.0965056E-1,-7.277207E-1,-2.7306068E0,2.0790331E0,1.4713712E-1],"split_indices":[13,0,16,0,17,0,19,0,0,0,0,0,0],"split_type":[0,0,0,0,0,0,0,0,0,0,0,0,0],"sum_hessian":[2.6E2,1.68E2,9.2E1,1.16E2,5.2E1,6E0,8.6E1,6.2E1,5.4E1,4.1E1,1.1E1,2.8E1,5.8E1],"tree_param":{"num_deleted":"0","num_feature":"29","num_nodes":"13","size_leaf_vector":"1"}},{"base_weights":[5.515883E-1,-5.0426865E0,1.4928987E1,1.9391667E0,-5.5663857E0,-5.112271E0,2.1453773E1,-6.8324375E-1,5.996653E-1,1.1872352E0,-4.1060243E0,5.8003173E0,1.1605002E0],"categories":[],"categories_nodes":[],"categories_segments":[],"categories_sizes":[],"default_left":[0,0,0,0,0,0,0,0,0,0,0,0,0],"id":21,"left_children":[1,3,5,-1,7,9,11,-1,-1,-1,-1,-1,-1],"loss_changes":[2.010263E4,2.4112656E3,9.263223E3,0E0,2.632147E3,1.147761E4,1.8405105E4,0E0,0E0,0E0,0E0,0E0,0E0],"parents":[2147483647,0,0,1,1,2,2,4,4,5,5,6,6],"right_children":[2,4,6,-1,8,10,12,-1,-1,-1,-1,-1,-1],"split_conditions":[1.49E2,2.1E1,1E0,1.9391667E0,1E0,1.2E1,1E0,-6.8324375E-1,5.996653E-1,1.1872352E0,-4.1060243E0,5.8003173E0,1.1605002E0],"split_indices":[9,3,18,0,1,0,19,0,0,0,0,0,0],"split_type":[0,0,0,0,0,0,0,0,0,0,0,0,0],"sum_hessian":[2.48E2,1.79E2,6.9E1,3E0,1.76E2,1.7E1,5.2E1,1.59E2,1.7E1,1.2E1,5E0,1E1,4.2E1],"tree_param":{"num_deleted":"0","num_feature":"29","num_nodes":"13","size_leaf_vector":"1"}},{"base_weights":[-3.6523816E-1,1.41486E1,-3.4266248E0,-2.7890697E0,2.9673256E1,-1.0465622E1,-5.274101E-1,9.7164357E-1,-8.439035E-1,2.3231354E0,4.015857E0,-1.8330212E0,-8.015507E-1,5.032277E-2,-2.0475888E0],"categories":[],"categories_nodes":[],"categories_segments":[],"categories_sizes":[],"default_left":[0,0,0,0,0,0,0,0,0,0,0,0,0,0,0],"id":22,"left_children":[1,3,5,7,9,11,13,-1,-1,-1,-1,-1,-1,-1,-1],"loss_changes":[1.0712273E4,1.1126725E4,4.055586E3,1.5657661E3,5.530586E2,9.706846E2,2.9297751E3,0E0,0E0,0E0,0E0,0E0,0E0,0E0,0E0],"parents":[2147483647,0,0,1,1,2,2,3,3,4,4,5,5,6,6],"right_children":[2,4,6,8,10,12,14,-1,-1,-1,-1,-1,-1,-1,-1],"split_conditions":[1.7E2,9.46E1,9.06E1,1E0,2.4E1,1E0,3.4E1,9.7164357E-1,-8.439035E-1,2.3231354E0,4.015857E0,-1.8330212E0,-8.015507E-1,5.032277E-2,-2.0475888E0],"split_indices":[5,6,9,19,3,19,3,0,0,0,0,0,0,0,0],"split_type":[0,0,0,0,0,0,0,0,0,0,0,0,0,0,0],"sum_hessian":[2.39E2,4.1E1,1.98E2,2E1,2.1E1,5.7E1,1.41E2,6E0,1.4E1,1.5E1,6E0,1.2E1,4.5E1,1.35E2,6E0],"tree_param":{"num_deleted":"0","num_feature":"29","num_nodes":"15","size_leaf_vector":"1"}},{"base_weights":[6.900485E-1,-4.0298886E0,1.2446933E1,-9.719704E0,6.5597993E-1,1.8554045E1,-5.6805778E0,-1.312361E0,-5.409121E-1,-1.1037554E-1,1.8180447E0,2.5224183E0,5.830293E-1],"categories":[],"categories_nodes":[],"categories_segments":[],"categories_sizes":[],"default_left":[0,0,0,0,0,0,0,0,0,0,0,0,0],"id":23,"left_children":[1,3,5,7,9,11,-1,-1,-1,-1,-1,-1,-1],"loss_changes":[1.3756623E4,4.7255015E3,3.1082291E4,1.1028379E3,3.0422322E3,5.4543027E3,0E0,0E0,0E0,0E0,0E0,0E0,0E0],"parents":[2147483647,0,0,1,1,2,2,3,3,4,4,5,5],"right_children":[2,4,6,8,10,12,-1,-1,-1,-1,-1,-1,-1],"split_conditions":[1.49E2,7.2E1,1E0,7.88E1,1E0,9.7672E3,-5.6805778E0,-1.312361E0,-5.409121E-1,-1.1037554E-1,1.8180447E0,2.5224183E0,5.830293E-1],"split_indices":[9,4,1,6,1,7,0,0,0,0,0,0,0],"split_type":[0,0,0,0,0,0,0,0,0,0,0,0,0],"sum_hessian":[2.46E2,1.76E2,7E1,7.9E1,9.7E1,6.5E1,5E0,4.3E1,3.6E1,8.9E1,8E0,4.2E1,2.3E1],"tree_param":{"num_deleted":"0","num_feature":"29","num_nodes":"13","size_leaf_vector":"1"}},{"base_weights":[-2.8306649E0,-4.0538054E-2,-1.2473023E1,-4.7366123E0,1.0097663E1,-4.146415E0,-6.8935704E0,-6.257481E-1,2.0379465E0,1.7827336E0,1.5435706E-1,-6.1831187E-2,-2.2537553E0],"categories":[],"categories_nodes":[],"categories_segments":[],"categories_sizes":[],"default_left":[0,0,0,0,0,0,0,0,0,0,0,0,0],"id":24,"left_children":[1,3,5,7,9,-1,11,-1,-1,-1,-1,-1,-1],"loss_changes":[6.8329585E3,9.474559E3,8.934178E3,5.3224844E3,4.1380635E3,0E0,4.796396E3,0E0,0E0,0E0,0E0,0E0,0E0],"parents":[2147483647,0,0,1,1,2,2,3,3,4,4,6,6],"right_children":[2,4,6,8,10,-1,12,-1,-1,-1,-1,-1,-1],"split_conditions":[1E0,1.49E2,6.74E1,1E0,9.64E1,-4.146415E0,7.72E1,-6.257481E-1,2.0379465E0,1.7827336E0,1.5435706E-1,-6.1831187E-2,-2.2537553E0],"split_indices":[17,9,6,2,6,0,11,0,0,0,0,0,0],"split_type":[0,0,0,0,0,0,0,0,0,0,0,0,0],"sum_hessian":[2.53E2,1.97E2,5.6E1,1.35E2,6.2E1,8E0,4.8E1,1.28E2,7E0,3.2E1,3E1,3.5E1,1.3E1],"tree_param":{"num_deleted":"0","num_feature":"29","num_nodes":"13","size_leaf_vector":"1"}},{"base_weights":[-1.9468286E0,6.477139E-1,-1.3780805E1,-1.2458273E1,2.5267632E0,-1.8831507E1,-1.1373533E1,-2.6379142E0,-4.8057133E-1,8.221046E-1,4.083961E-3,-4.5583803E-2,-2.6947823E0,-5.459439E-1,-2.0052183E0],"categories":[],"categories_nodes":[],"categories_segments":[],"categories_sizes":[],"default_left":[0,0,0,0,0,0,0,0,0,0,0,0,0,0,0],"id":25,"left_children":[1,3,5,7,9,11,13,-1,-1,-1,-1,-1,-1,-1,-1],"loss_changes":[7.6848643E3,5.1045996E3,3.3294824E2,2.6430166E3,2.5618193E3,1.9265718E3,1.5842964E3,0E0,0E0,0E0,0E0,0E0,0E0,0E0,0E0],"parents":[2147483647,0,0,1,1,2,2,3,3,4,4,5,5,6,6],"right_children":[2,4,6,8,10,12,14,-1,-1,-1,-1,-1,-1,-1,-1],"split_conditions":[1E0,2.65E1,1E0,1.8E1,1.77E2,1E1,6.9E1,-2.6379142E0,-4.8057133E-1,8.221046E-1,4.083961E-3,-4.5583803E-2,-2.6947823E0,-5.459439E-1,-2.0052183E0],"split_indices":[26,16,18,0,5,0,4,0,0,0,0,0,0,0,0],"split_type":[0,0,0,0,0,0,0,0,0,0,0,0,0,0,0],"sum_hessian":[2.49E2,2.05E2,4.4E1,2.5E1,1.8E2,1.2E1,3.2E1,8E0,1.7E1,5.4E1,1.26E2,4E0,8E0,2E1,1.2E1],"tree_param":{"num_deleted":"0","num_feature":"29","num_nodes":"15","size_leaf_vector":"1"}},{"base_weights":[1.6549147E0,2.0511162E1,8.045868E-3,2.74724E-1,2.348437E1,-1.7012674E0,2.1524809E1,1.006221E0,2.5641818E0,-4.925463E-1,9.859714E-1,3.8281007E0,-2.6346262E0],"categories":[],"categories_nodes":[],"categories_segments":[],"categories_sizes":[],"default_left":[0,0,0,0,0,0,0,0,0,0,0,0,0],"id":26,"left_children":[1,3,5,-1,7,9,11,-1,-1,-1,-1,-1,-1],"loss_changes":[7.732222E3,9.917998E2,8.495764E3,0E0,2.3426562E2,8.0253853E3,1.4644891E4,0E0,0E0,0E0,0E0,0E0,0E0],"parents":[2147483647,0,0,1,1,2,2,4,4,5,5,6,6],"right_children":[2,4,6,-1,8,10,12,-1,-1,-1,-1,-1,-1],"split_conditions":[5.8E1,3.8E1,1E0,2.74724E-1,2.1E1,7.72E1,9.82E1,1.006221E0,2.5641818E0,-4.925463E-1,9.859714E-1,3.8281007E0,-2.6346262E0],"split_indices":[6,6,2,0,3,11,6,0,0,0,0,0,0],"split_type":[0,0,0,0,0,0,0,0,0,0,0,0,0],"sum_hessian":[2.48E2,1.9E1,2.29E2,3E0,1.6E1,2.13E2,1.6E1,3E0,1.3E1,1.67E2,4.6E1,1.2E1,4E0],"tree_param":{"num_deleted":"0","num_feature":"29","num_nodes":"13","size_leaf_vector":"1"}},{"base_weights":[-2.11639E0,1.184175E0,-1.4380015E1,1.3814632E1,-2.3534322E0,1.9952814E1,-2.245293E1,-1.6043748E0,1.9737065E0,-1.2415957E0,3.3781234E-2,3.3314753E-1,2.5769384E0,-1.0424904E0,-3.6966717E0],"categories":[],"categories_nodes":[],"categories_segments":[],"categories_sizes":[],"default_left":[0,0,0,0,0,0,0,0,0,0,0,0,0,0,0],"id":27,"left_children":[1,3,5,7,9,11,13,-1,-1,-1,-1,-1,-1,-1,-1],"loss_changes":[1.0500544E4,9.192239E3,1.5692126E4,8.274196E3,4.3641895E3,9.776211E2,7.470377E3,0E0,0E0,0E0,0E0,0E0,0E0,0E0,0E0],"parents":[2147483647,0,0,1,1,2,2,3,3,4,4,5,5,6,6],"right_children":[2,4,6,8,10,12,14,-1,-1,-1,-1,-1,-1,-1,-1],"split_conditions":[1E0,5.76E1,5E0,3.68E1,9.5536E3,8.8036E3,6.4E0,-1.6043748E0,1.9737065E0,-1.2415957E0,3.3781234E-2,3.3314753E-1,2.5769384E0,-1.0424904E0,-3.6966717E0],"split_indices":[17,11,0,9,7,7,13,0,0,0,0,0,0,0,0],"split_type":[0,0,0,0,0,0,0,0,0,0,0,0,0,0,0],"sum_hessian":[2.58E2,2.04E2,5.4E1,4.4E1,1.6E2,1E1,4.4E1,7E0,3.7E1,3.3E1,1.27E2,3E0,7E0,2.5E1,1.9E1],"tree_param":{"num_deleted":"0","num_feature":"29","num_nodes":"15","size_leaf_vector":"1"}},{"base_weights":[4.4486217E0,8.432144E-1,2.043005E1,-7.468251E-2,3.2676086E0,1.1271015E1,3.3816418E1,-1.4275597E-1,2.2254016E0,1.5694369E0,3.3281213E-1,-8.2665473E-1,4.9436517E0],"categories":[],"categories_nodes":[],"categories_segments":[],"categories_sizes":[],"default_left":[0,0,0,0,0,0,0,0,0,0,0,0,0],"id":28,"left_children":[1,3,5,7,-1,9,11,-1,-1,-1,-1,-1,-1],"loss_changes":[1.5021477E4,6.255369E3,5.503953E3,6.345239E3,0E0,1.0017937E3,1.2898131E4,0E0,0E0,0E0,0E0,0E0,0E0],"parents":[2147483647,0,0,1,1,2,2,3,3,5,5,6,6],"right_children":[2,4,6,8,-1,10,12,-1,-1,-1,-1,-1,-1],"split_conditions":[1.844E2,3.5E1,1.1E1,1E0,3.2676086E0,2E0,1E0,-1.4275597E-1,2.2254016E0,1.5694369E0,3.3281213E-1,-8.2665473E-1,4.9436517E0],"split_indices":[9,3,0,2,0,0,18,0,0,0,0,0,0],"split_type":[0,0,0,0,0,0,0,0,0,0,0,0,0],"sum_hessian":[2.6E2,2.13E2,4.7E1,2.08E2,5E0,2.9E1,1.8E1,1.97E2,1.1E1,1.8E1,1.1E1,5E0,1.3E1],"tree_param":{"num_deleted":"0","num_feature":"29","num_nodes":"13","size_leaf_vector":"1"}},{"base_weights":[1.3840734E0,6.38065E0,-2.13494E0,1.0345998E1,-6.3391724E0,-4.584731E0,4.7403107E0,4.6250692E-1,1.7642742E0,6.5311444E-1,-2.8871827E0,-2.8510702E-1,-2.2849796E0,-4.5435762E-1,8.18116E-1],"categories":[],"categories_nodes":[],"categories_segments":[],"categories_sizes":[],"default_left":[0,0,0,0,0,0,0,0,0,0,0,0,0,0,0],"id":29,"left_children":[1,3,5,7,9,11,13,-1,-1,-1,-1,-1,-1,-1,-1],"loss_changes":[4.725872E3,5.6642607E3,2.6829158E3,3.4666533E3,8.01863E3,3.6397087E3,1.378839E3,0E0,0E0,0E0,0E0,0E0,0E0,0E0,0E0],"parents":[2147483647,0,0,1,1,2,2,3,3,4,4,5,5,6,6],"right_children":[2,4,6,8,10,12,14,-1,-1,-1,-1,-1,-1,-1,-1],"split_conditions":[2.4E1,1E0,3.2E1,7E0,1E1,1E0,1E0,4.6250692E-1,1.7642742E0,6.5311444E-1,-2.8871827E0,-2.8510702E-1,-2.2849796E0,-4.5435762E-1,8.18116E-1],"split_indices":[3,17,3,13,0,1,19,0,0,0,0,0,0,0,0],"split_type":[0,0,0,0,0,0,0,0,0,0,0,0,0,0,0],"sum_hessian":[2.67E2,1.1E2,1.57E2,8.4E1,2.6E1,1.16E2,4.1E1,4.8E1,3.6E1,1.7E1,9E0,1.07E2,9E0,1.1E1,3E1],"tree_param":{"num_deleted":"0","num_feature":"29","num_nodes":"15","size_leaf_vector":"1"}},{"base_weights":[6.688293E-1,2.4947262E1,-3.864796E0,3.3972776E0,1.7890781E1,-6.147622E0,1.3988142E1,2.34421E0,1.1390275E0,1.8921687E-1,-1.0796758E0,2.0623589E0,-2.4344983E0],"categories":[],"categories_nodes":[],"categories_segments":[],"categories_sizes":[],"default_left":[0,0,0,0,0,0,0,0,0,0,0,0,0],"id":30,"left_children":[1,3,5,-1,7,9,11,-1,-1,-1,-1,-1,-1],"loss_changes":[2.7283537E4,1.8760449E3,8.603822E3,0E0,5.990615E2,6.9727515E3,6.606657E3,0E0,0E0,0E0,0E0,0E0,0E0],"parents":[2147483647,0,0,1,1,2,2,4,4,5,5,6,6],"right_children":[2,4,6,-1,8,10,12,-1,-1,-1,-1,-1,-1],"split_conditions":[1.7E2,1E0,1E0,3.3972776E0,3.1E1,1E0,6.2E2,2.34421E0,1.1390275E0,1.8921687E-1,-1.0796758E0,2.0623589E0,-2.4344983E0],"split_indices":[5,19,1,0,3,19,8,0,0,0,0,0,0],"split_type":[0,0,0,0,0,0,0,0,0,0,0,0,0],"sum_hessian":[2.46E2,3.8E1,2.08E2,1.5E1,2.3E1,1.85E2,2.3E1,1.1E1,1.2E1,6.8E1,1.17E2,2E1,3E0],"tree_param":{"num_deleted":"0","num_feature":"29","num_nodes":"13","size_leaf_vector":"1"}},{"base_weights":[-2.370924E0,-4.192204E0,2.2409393E1,-2.9411333E0,-3.1509233E0,5.260019E1,1.1598496E0,1.6590073E0,-4.0629378E-1,-3.8731024E-1,9.592343E0,2.211974E0,-1.3977194E0],"categories":[],"categories_nodes":[],"categories_segments":[],"categories_sizes":[],"default_left":[0,0,0,0,0,0,0,0,0,0,0,0,0],"id":31,"left_children":[1,3,5,-1,7,9,11,-1,-1,-1,-1,-1,-1],"loss_changes":[1.1196393E4,5.947173E3,1.0845181E4,0E0,4.0643079E3,1.7497768E4,3.7991504E3,0E0,0E0,0E0,0E0,0E0,0E0],"parents":[2147483647,0,0,1,1,2,2,4,4,5,5,6,6],"right_children":[2,4,6,-1,8,10,12,-1,-1,-1,-1,-1,-1],"split_conditions":[1E0,4.88E1,9.46E1,-2.9411333E0,5.8E1,4.84E1,1E0,1.6590073E0,-4.0629378E-1,-3.8731024E-1,9.592343E0,2.211974E0,-1.3977194E0],"split_indices":[2,6,6,0,6,11,19,0,0,0,0,0,0],"split_type":[0,0,0,0,0,0,0,0,0,0,0,0,0],"sum_hessian":[2.45E2,2.29E2,1.6E1,8E0,2.21E2,6E0,1E1,9E0,2.12E2,3E0,3E0,4E0,6E0],"tree_param":{"num_deleted":"0","num_feature":"29","num_nodes":"13","size_leaf_vector":"1"}},{"base_weights":[3.6504657E0,1.5088577E1,3.8049248E-1,1.0731668E1,2.3690293E0,-6.849879E0,3.0892394E0,1.8030516E0,7.593083E-1,-1.0324801E0,-2.076025E-1,4.2050663E-1,-2.327562E0],"categories":[],"categories_nodes":[],"categories_segments":[],"categories_sizes":[],"default_left":[0,0,0,0,0,0,0,0,0,0,0,0,0],"id":32,"left_children":[1,3,5,7,-1,9,11,-1,-1,-1,-1,-1,-1],"loss_changes":[9.419643E3,1.8444688E3,3.8794543E3,7.5650684E2,0E0,8.7435913E2,4.3341567E3,0E0,0E0,0E0,0E0,0E0,0E0],"parents":[2147483647,0,0,1,1,2,2,3,3,5,5,6,6],"right_children":[2,4,6,8,-1,10,12,-1,-1,-1,-1,-1,-1],"split_conditions":[6.7E1,3.1E1,9.06E1,1E0,2.3690293E0,9.7E1,1.844E2,1.8030516E0,7.593083E-1,-1.0324801E0,-2.076025E-1,4.2050663E-1,-2.327562E0],"split_indices":[4,3,9,18,0,6,9,0,0,0,0,0,0],"split_type":[0,0,0,0,0,0,0,0,0,0,0,0,0],"sum_hessian":[2.51E2,5.5E1,1.96E2,3.8E1,1.7E1,5.3E1,1.43E2,1E1,2.8E1,3E1,2.3E1,1.38E2,5E0],"tree_param":{"num_deleted":"0","num_feature":"29","num_nodes":"13","size_leaf_vector":"1"}},{"base_weights":[6.9656825E-1,6.4513345E0,-2.6434338E0,5.0236692E0,2.7695837E0,-5.1922116E0,9.8207655E0,2.0902429E-2,3.127167E0,-2.4263544E-1,-1.878549E0,5.662839E-1,2.3429701E0],"categories":[],"categories_nodes":[],"categories_segments":[],"categories_sizes":[],"default_left":[0,0,0,0,0,0,0,0,0,0,0,0,0],"id":33,"left_children":[1,3,5,-1,7,9,11,-1,-1,-1,-1,-1,-1],"loss_changes":[4.7646235E3,1.4530682E4,5.0386426E3,0E0,6.1968726E3,4.879635E3,1.3951152E3,0E0,0E0,0E0,0E0,0E0,0E0],"parents":[2147483647,0,0,1,1,2,2,4,4,5,5,6,6],"right_children":[2,4,6,-1,8,10,12,-1,-1,-1,-1,-1,-1],"split_conditions":[1E0,4.9E1,2.176E2,5.0236692E0,2.582E2,8E0,1.1E1,2.0902429E-2,3.127167E0,-2.4263544E-1,-1.878549E0,5.662839E-1,2.3429701E0],"split_indices":[19,6,9,0,9,13,0,0,0,0,0,0,0],"split_type":[0,0,0,0,0,0,0,0,0,0,0,0,0],"sum_hessian":[2.46E2,9E1,1.56E2,6E0,8.4E1,1.3E2,2.6E1,7.8E1,6E0,1.09E2,2.1E1,2.1E1,5E0],"tree_param":{"num_deleted":"0","num_feature":"29","num_nodes":"13","size_leaf_vector":"1"}},{"base_weights":[7.714482E-1,2.3073308E0,-2.6579348E1,8.4658414E-1,1.6145943E1,-1.5877769E0,-3.1283116E0,-1.175836E0,1.9467773E-1,-3.102609E-1,2.3558064E0],"categories":[],"categories_nodes":[],"categories_segments":[],"categories_sizes":[],"default_left":[0,0,0,0,0,0,0,0,0,0,0],"id":34,"left_children":[1,3,5,7,9,-1,-1,-1,-1,-1,-1],"loss_changes":[1.0269177E4,4.6559287E3,1.5768555E2,2.935144E3,3.2118877E3,0E0,0E0,0E0,0E0,0E0,0E0],"parents":[2147483647,0,0,1,1,2,2,3,3,4,4],"right_children":[2,4,6,8,10,-1,-1,-1,-1,-1,-1],"split_conditions":[1.16638E4,1E0,1E0,3.464E2,1E0,-1.5877769E0,-3.1283116E0,-1.175836E0,1.9467773E-1,-3.102609E-1,2.3558064E0],"split_indices":[7,14,19,8,19,0,0,0,0,0,0],"split_type":[0,0,0,0,0,0,0,0,0,0,0],"sum_hessian":[2.42E2,2.3E2,1.2E1,2.09E2,2.1E1,5E0,7E0,1.6E1,1.93E2,6E0,1.5E1],"tree_param":{"num_deleted":"0","num_feature":"29","num_nodes":"11","size_leaf_vector":"1"}},{"base_weights":[8.912895E-1,-5.529358E-1,2.2318436E1,-4.0228353E0,7.3450947E0,3.4720707E0,-2.3568554E0,-1.899039E-1,-1.2212307E0,4.136673E-1,2.0570824E0],"categories":[],"categories_nodes":[],"categories_segments":[],"categories_sizes":[],"default_left":[0,0,0,0,0,0,0,0,0,0,0],"id":35,"left_children":[1,3,5,7,9,-1,-1,-1,-1,-1,-1],"loss_changes":[7.8415835E3,6.5520264E3,9.923961E3,2.8640083E3,3.0125662E3,0E0,0E0,0E0,0E0,0E0,0E0],"parents":[2147483647,0,0,1,1,2,2,3,3,4,4],"right_children":[2,4,6,8,10,-1,-1,-1,-1,-1,-1],"split_conditions":[2.582E2,1.0662E4,1E0,1E0,1E0,3.4720707E0,-2.3568554E0,-1.899039E-1,-1.2212307E0,4.136673E-1,2.0570824E0],"split_indices":[9,7,17,17,17,0,0,0,0,0,0],"split_type":[0,0,0,0,0,0,0,0,0,0,0],"sum_hessian":[2.52E2,2.37E2,1.5E1,1.65E2,7.2E1,1.2E1,3E0,1.32E2,3.3E1,5.9E1,1.3E1],"tree_param":{"num_deleted":"0","num_feature":"29","num_nodes":"11","size_leaf_vector":"1"}},{"base_weights":[-5.731799E-1,1.1630008E0,-1.5620301E1,-2.4147367E0,4.7300687E0,-2.1837547E0,-1.0019636E0,-1.8167489E0,-4.611881E-2,-2.2301789E-1,6.41638E-1],"categories":[],"categories_nodes":[],"categories_segments":[],"categories_sizes":[],"default_left":[0,0,0,0,0,0,0,0,0,0,0],"id":36,"left_children":[1,3,5,7,9,-1,-1,-1,-1,-1,-1],"loss_changes":[6.314177E3,2.780783E3,6.517134E2,3.3459617E3,1.2936584E3,0E0,0E0,0E0,0E0,0E0,0E0],"parents":[2147483647,0,0,1,1,2,2,3,3,4,4],"right_children":[2,4,6,8,10,-1,-1,-1,-1,-1,-1],"split_conditions":[1.14668E4,2.9E1,1.2E1,6.8E1,4.82E1,-2.1837547E0,-1.0019636E0,-1.8167489E0,-4.611881E-2,-2.2301789E-1,6.41638E-1],"split_indices":[7,16,0,4,11,0,0,0,0,0,0],"split_type":[0,0,0,0,0,0,0,0,0,0,0],"sum_hessian":[2.4E2,2.16E2,2.4E1,1.08E2,1.08E2,1E1,1.4E1,1.1E1,9.7E1,2.1E1,8.7E1],"tree_param":{"num_deleted":"0","num_feature":"29","num_nodes":"11","size_leaf_vector":"1"}},{"base_weights":[-1.8204447E0,-3.531479E0,1.6305935E0,-2.3880668E0,-1.6992706E1,-7.4449664E-1,7.242751E-2,-2.2843776E0,-1.2985082E0],"categories":[],"categories_nodes":[],"categories_segments":[],"categories_sizes":[],"default_left":[0,0,0,0,0,0,0,0,0],"id":37,"left_children":[1,3,-1,5,7,-1,-1,-1,-1],"loss_changes":[7.9043423E3,3.5303013E3,0E0,3.389234E3,1.2545166E2,0E0,0E0,0E0,0E0],"parents":[2147483647,0,0,1,1,3,3,4,4],"right_children":[2,4,-1,6,8,-1,-1,-1,-1],"split_conditions":[1.89E2,1E0,1.6305935E0,1.72E2,1E0,-7.4449664E-1,7.242751E-2,-2.2843776E0,-1.2985082E0],"split_indices":[5,27,0,5,19,0,0,0,0],"split_type":[0,0,0,0,0,0,0,0,0],"sum_hessian":[2.52E2,2.31E2,2.1E1,2.14E2,1.7E1,8.1E1,1.33E2,5E0,1.2E1],"tree_param":{"num_deleted":"0","num_feature":"29","num_nodes":"9","size_leaf_vector":"1"}},{"base_weights":[-6.219131E-1,5.5436482E0,-4.1837926E0,8.165834E0,-4.38133E0,-1.5606987E0,-2.3302004E0,1.6376842E0,-5.061758E-1,-4.0172035E-1,1.0509009E0],"categories":[],"categories_nodes":[],"categories_segments":[],"categories_sizes":[],"default_left":[0,0,0,0,0,0,0,0,0,0,0],"id":38,"left_children":[1,3,5,7,-1,-1,9,-1,-1,-1,-1],"loss_changes":[5.7550103E3,1.2782388E4,3.478507E3,1.00751875E4,0E0,0E0,3.1612258E3,0E0,0E0,0E0,0E0],"parents":[2147483647,0,0,1,1,2,2,3,3,6,6],"right_children":[2,4,6,8,-1,-1,10,-1,-1,-1,-1],"split_conditions":[1E0,1E0,4.8E1,1.4E1,-4.38133E0,-1.5606987E0,2E1,1.6376842E0,-5.061758E-1,-4.0172035E-1,1.0509009E0],"split_indices":[19,1,11,0,0,0,0,0,0,0,0],"split_type":[0,0,0,0,0,0,0,0,0,0,0],"sum_hessian":[2.6E2,9.5E1,1.65E2,9.1E1,4E0,2.2E1,1.43E2,5.6E1,3.5E1,1.27E2,1.6E1],"tree_param":{"num_deleted":"0","num_feature":"29","num_nodes":"11","size_leaf_vector":"1"}},{"base_weights":[-1.5547898E0,-5.306384E0,2.5093634E0,-9.889823E0,1.0434082E1,-1.5143213E1,8.227535E0,-3.58443E-1,-1.5492989E0,9.3379594E-2,2.132412E0,-9.961541E-2,-2.569125E0,2.3597012E-1,2.7473404E0],"categories":[],"categories_nodes":[],"categories_segments":[],"categories_sizes":[],"default_left":[0,0,0,0,0,0,0,0,0,0,0,0,0,0,0],"id":39,"left_children":[1,3,5,7,9,11,13,-1,-1,-1,-1,-1,-1,-1,-1],"loss_changes":[3.5811262E3,8.904937E3,1.1530865E4,3.300832E3,2.8769253E3,4.152671E3,9.647285E3,0E0,0E0,0E0,0E0,0E0,0E0,0E0,0E0],"parents":[2147483647,0,0,1,1,2,2,3,3,4,4,5,5,6,6],"right_children":[2,4,6,8,10,12,14,-1,-1,-1,-1,-1,-1,-1,-1],"split_conditions":[1.1E1,1E0,1E0,9.24E1,2.95E1,6.4E0,8E0,-3.58443E-1,-1.5492989E0,9.3379594E-2,2.132412E0,-9.961541E-2,-2.569125E0,2.3597012E-1,2.7473404E0],"split_indices":[0,17,18,9,16,13,13,0,0,0,0,0,0,0,0],"split_type":[0,0,0,0,0,0,0,0,0,0,0,0,0,0,0],"sum_hessian":[2.33E2,1.21E2,1.12E2,9.4E1,2.7E1,2.7E1,8.5E1,4.5E1,4.9E1,1.5E1,1.2E1,1.2E1,1.5E1,6.6E1,1.9E1],"tree_param":{"num_deleted":"0","num_feature":"29","num_nodes":"15","size_leaf_vector":"1"}},{"base_weights":[2.7063644E0,9.794887E0,-2.454369E0,1.3931717E1,-7.021866E0,-3.63731E0,8.6209E0,4.4723707E-1,3.2352848E0,1.1938137E0,-2.2236714E0,-5.102367E-1,5.1131445E-1,1.3563102E0,3.2188606E-1],"categories":[],"categories_nodes":[],"categories_segments":[],"categories_sizes":[],"default_left":[0,0,0,0,0,0,0,0,0,0,0,0,0,0,0],"id":40,"left_children":[1,3,5,7,9,11,13,-1,-1,-1,-1,-1,-1,-1,-1],"loss_changes":[8.950042E3,7.263337E3,1.8917542E3,1.4318207E4,6.323409E3,1.6798583E3,3.301139E2,0E0,0E0,0E0,0E0,0E0,0E0,0E0,0E0],"parents":[2147483647,0,0,1,1,2,2,3,3,4,4,5,5,6,6],"right_children":[2,4,6,8,10,12,14,-1,-1,-1,-1,-1,-1,-1,-1],"split_conditions":[9.64E1,1E0,1E0,6.8E0,9.1E1,2.1E1,1E0,4.4723707E-1,3.2352848E0,1.1938137E0,-2.2236714E0,-5.102367E-1,5.1131445E-1,1.3563102E0,3.2188606E-1],"split_indices":[6,17,23,13,9,0,19,0,0,0,0,0,0,0,0],"split_type":[0,0,0,0,0,0,0,0,0,0,0,0,0,0,0],"sum_hessian":[2.43E2,1.02E2,1.41E2,8.2E1,2E1,1.28E2,1.3E1,5.5E1,2.7E1,9E0,1.1E1,1.1E2,1.8E1,6E0,7E0],"tree_param":{"num_deleted":"0","num_feature":"29","num_nodes":"15","size_leaf_vector":"1"}},{"base_weights":[3.177344E-1,3.1842668E0,-9.325223E0,6.587833E0,-7.091417E0,-1.3228358E1,1.6722916E0,1.2864652E-1,1.5432185E0,1.4383814E0,-2.2397916E0,-1.8490477E0,6.3342616E-2],"categories":[],"categories_nodes":[],"categories_segments":[],"categories_sizes":[],"default_left":[0,0,0,0,0,0,0,0,0,0,0,0,0],"id":41,"left_children":[1,3,5,7,9,11,-1,-1,-1,-1,-1,-1,-1],"loss_changes":[6.99544E3,6.8666406E3,6.1180425E3,6.8725596E3,1.6428986E4,3.7317725E3,0E0,0E0,0E0,0E0,0E0,0E0,0E0],"parents":[2147483647,0,0,1,1,2,2,3,3,4,4,5,5],"right_children":[2,4,6,8,10,12,-1,-1,-1,-1,-1,-1,-1],"split_conditions":[8E1,1E0,1E0,1.49E2,1E1,1E0,1.6722916E0,1.2864652E-1,1.5432185E0,1.4383814E0,-2.2397916E0,-1.8490477E0,6.3342616E-2],"split_indices":[4,17,1,9,0,17,0,0,0,0,0,0,0],"split_type":[0,0,0,0,0,0,0,0,0,0,0,0,0],"sum_hessian":[2.51E2,1.94E2,5.7E1,1.46E2,4.8E1,5E1,7E0,9.2E1,5.4E1,2E1,2.8E1,3.6E1,1.4E1],"tree_param":{"num_deleted":"0","num_feature":"29","num_nodes":"13","size_leaf_vector":"1"}},{"base_weights":[1.2865496E0,-2.3504591E-1,3.1484447E1,-8.996789E0,4.3984556E0,7.5801253E0,-1.4911461E-1,-3.0566537E0,-4.1773248E-1,1.3917604E-1,1.0804948E0,1.1728537E0,-9.621412E-1],"categories":[],"categories_nodes":[],"categories_segments":[],"categories_sizes":[],"default_left":[0,0,0,0,0,0,0,0,0,0,0,0,0],"id":42,"left_children":[1,3,5,7,9,-1,11,-1,-1,-1,-1,-1,-1],"loss_changes":[1.1494646E4,9.742386E3,1.6834086E4,8.500549E3,3.0091548E3,0E0,1.01291437E3,0E0,0E0,0E0,0E0,0E0,0E0],"parents":[2147483647,0,0,1,1,2,2,3,3,4,4,6,6],"right_children":[2,4,6,8,10,-1,12,-1,-1,-1,-1,-1,-1],"split_conditions":[1E0,9.46E1,9.6094E3,1E0,3E1,7.5801253E0,1E0,-3.0566537E0,-4.1773248E-1,1.3917604E-1,1.0804948E0,1.1728537E0,-9.621412E-1],"split_indices":[2,6,7,18,16,0,19,0,0,0,0,0,0],"split_type":[0,0,0,0,0,0,0,0,0,0,0,0,0],"sum_hessian":[2.49E2,2.38E2,1.1E1,8.2E1,1.56E2,4E0,7E0,1.4E1,6.8E1,1.07E2,4.9E1,3E0,4E0],"tree_param":{"num_deleted":"0","num_feature":"29","num_nodes":"13","size_leaf_vector":"1"}},{"base_weights":[1.3960372E-1,2.9769979E0,-8.611355E0,-4.7560325E0,5.4238725E0,-1.4002844E1,-2.365182E0,-1.8351287E0,-8.4746085E-2,2.1958406E0,3.573034E-1,-2.113324E0,-1.0293853E0,9.042508E-1,-5.7342535E-1],"categories":[],"categories_nodes":[],"categories_segments":[],"categories_sizes":[],"default_left":[0,0,0,0,0,0,0,0,0,0,0,0,0,0,0],"id":43,"left_children":[1,3,5,7,9,11,13,-1,-1,-1,-1,-1,-1,-1,-1],"loss_changes":[6.084136E3,3.5263213E3,1.9874507E3,2.3756587E3,4.23653E3,6.2874805E2,1.1664183E3,0E0,0E0,0E0,0E0,0E0,0E0,0E0,0E0],"parents":[2147483647,0,0,1,1,2,2,3,3,4,4,5,5,6,6],"right_children":[2,4,6,8,10,12,14,-1,-1,-1,-1,-1,-1,-1,-1],"split_conditions":[3E1,3.91E2,3.3E1,1E0,4.08E2,1E0,1E0,-1.8351287E0,-8.4746085E-2,2.1958406E0,3.573034E-1,-2.113324E0,-1.0293853E0,9.042508E-1,-5.7342535E-1],"split_indices":[3,8,3,18,8,18,19,0,0,0,0,0,0,0,0],"split_type":[0,0,0,0,0,0,0,0,0,0,0,0,0,0,0],"sum_hessian":[2.43E2,1.84E2,5.9E1,4.4E1,1.4E2,3.1E1,2.8E1,9E0,3.5E1,1.3E1,1.27E2,9E0,2.2E1,6E0,2.2E1],"tree_param":{"num_deleted":"0","num_feature":"29","num_nodes":"15","size_leaf_vector":"1"}},{"base_weights":[-3.5045621E0,-6.351282E0,1.4790764E1,-5.128743E0,-2.8822134E1,2.0588057E1,1.0045733E1,1.13274E-1,-8.576712E-1,-7.4973297E0,1.6674048E-1,1.2160672E0,2.6074293E0,1.9351552E0,6.274079E-1],"categories":[],"categories_nodes":[],"categories_segments":[],"categories_sizes":[],"default_left":[0,0,0,0,0,0,0,0,0,0,0,0,0,0,0],"id":44,"left_children":[1,3,5,7,9,11,13,-1,-1,-1,-1,-1,-1,-1,-1],"loss_changes":[1.1968561E4,5.291532E3,6.4593555E2,4.0901108E3,1.4196287E4,2.8396924E2,5.454552E2,0E0,0E0,0E0,0E0,0E0,0E0,0E0,0E0],"parents":[2147483647,0,0,1,1,2,2,3,3,4,4,5,5,6,6],"right_children":[2,4,6,8,10,12,14,-1,-1,-1,-1,-1,-1,-1,-1],"split_conditions":[6E-1,1E0,7.2E1,1E0,6.5E1,1E0,1E0,1.13274E-1,-8.576712E-1,-7.4973297E0,1.6674048E-1,1.2160672E0,2.6074293E0,1.9351552E0,6.274079E-1],"split_indices":[14,1,4,19,4,19,18,0,0,0,0,0,0,0,0],"split_type":[0,0,0,0,0,0,0,0,0,0,0,0,0,0,0],"sum_hessian":[2.27E2,1.97E2,3E1,1.88E2,9E0,1.2E1,1.8E1,6.7E1,1.21E2,3E0,6E0,6E0,6E0,4E0,1.4E1],"tree_param":{"num_deleted":"0","num_feature":"29","num_nodes":"15","size_leaf_vector":"1"}},{"base_weights":[3.8195653E0,8.9072657E-1,1.7466272E1,-1.4052878E1,2.4719431E0,1.9760914E0,8.147324E-1,5.8826727E-1,-2.3706415E0,3.4675726E-1,-9.509946E-1],"categories":[],"categories_nodes":[],"categories_segments":[],"categories_sizes":[],"default_left":[0,0,0,0,0,0,0,0,0,0,0],"id":45,"left_children":[1,3,5,7,9,-1,-1,-1,-1,-1,-1],"loss_changes":[9.497064E3,4.689666E3,7.371162E2,3.79598E3,2.168361E3,0E0,0E0,0E0,0E0,0E0,0E0],"parents":[2147483647,0,0,1,1,2,2,3,3,4,4],"right_children":[2,4,6,8,10,-1,-1,-1,-1,-1,-1],"split_conditions":[3.2E1,4.9E1,1.7E1,1E0,1E0,1.9760914E0,8.147324E-1,5.8826727E-1,-2.3706415E0,3.4675726E-1,-9.509946E-1],"split_indices":[3,6,0,19,1,0,0,0,0,0,0],"split_type":[0,0,0,0,0,0,0,0,0,0,0],"sum_hessian":[2.37E2,1.96E2,4.1E1,1.8E1,1.78E2,3.2E1,9E0,6E0,1.2E1,1.65E2,1.3E1],"tree_param":{"num_deleted":"0","num_feature":"29","num_nodes":"11","size_leaf_vector":"1"}},{"base_weights":[-3.8988795E0,-1.2956363E-1,-7.949815E0,-1.4473151E0,1.7747684E1,-4.6586833E0,-1.150565E1,4.282263E-1,-6.7066556E-1,1.809565E-1,3.0136268E0,-7.627943E-1,-1.2517951E-1,2.2079258E-1,-1.2308403E0],"categories":[],"categories_nodes":[],"categories_segments":[],"categories_sizes":[],"default_left":[0,0,0,0,0,0,0,0,0,0,0,0,0,0,0],"id":46,"left_children":[1,3,5,7,9,11,13,-1,-1,-1,-1,-1,-1,-1,-1],"loss_changes":[3.8010142E3,3.0881965E3,1.3507246E3,3.7050437E3,1.7225232E3,6.3787134E2,6.54667E2,0E0,0E0,0E0,0E0,0E0,0E0,0E0,0E0],"parents":[2147483647,0,0,1,1,2,2,3,3,4,4,5,5,6,6],"right_children":[2,4,6,8,10,12,14,-1,-1,-1,-1,-1,-1,-1,-1],"split_conditions":[9.52E1,1E0,6.9E1,6.2E1,8E0,9.64E1,2.1E1,4.282263E-1,-6.7066556E-1,1.809565E-1,3.0136268E0,-7.627943E-1,-1.2517951E-1,2.2079258E-1,-1.2308403E0],"split_indices":[9,1,4,11,0,6,3,0,0,0,0,0,0,0,0],"split_type":[0,0,0,0,0,0,0,0,0,0,0,0,0,0,0],"sum_hessian":[2.48E2,1.29E2,1.19E2,1.21E2,8E0,6.3E1,5.6E1,5.8E1,6.3E1,4E0,4E0,3.3E1,3E1,3E0,5.3E1],"tree_param":{"num_deleted":"0","num_feature":"29","num_nodes":"15","size_leaf_vector":"1"}},{"base_weights":[-2.1601608E0,8.293136E-1,-2.5785275E1,-4.1065884E0,4.4195886E0,-6.375851E-1,-3.581247E0,-9.965238E-1,-1.839466E-1,3.602386E-2,6.9014376E-1,3.126962E0,-2.180279E0],"categories":[],"categories_nodes":[],"categories_segments":[],"categories_sizes":[],"default_left":[0,0,0,0,0,0,0,0,0,0,0,0,0],"id":47,"left_children":[1,3,5,7,9,11,-1,-1,-1,-1,-1,-1,-1],"loss_changes":[1.7607426E4,3.9522664E3,7.037668E3,1.230203E3,1.2971492E3,6.7596675E3,0E0,0E0,0E0,0E0,0E0,0E0,0E0],"parents":[2147483647,0,0,1,1,2,2,3,3,4,4,5,5],"right_children":[2,4,6,8,10,12,-1,-1,-1,-1,-1,-1,-1],"split_conditions":[1.034E2,9.52E1,1E0,1E0,9.957E3,1.1E1,-3.581247E0,-9.965238E-1,-1.839466E-1,3.602386E-2,6.9014376E-1,3.126962E0,-2.180279E0],"split_indices":[11,6,18,18,7,0,0,0,0,0,0,0,0],"split_type":[0,0,0,0,0,0,0,0,0,0,0,0,0],"sum_hessian":[2.48E2,2.21E2,2.7E1,9.3E1,1.28E2,8E0,1.9E1,2.5E1,6.8E1,4.9E1,7.9E1,3E0,5E0],"tree_param":{"num_deleted":"0","num_feature":"29","num_nodes":"13","size_leaf_vector":"1"}},{"base_weights":[-1.0863869E0,7.626445E0,-3.5636892E0,3.421376E0,2.4135685E1,4.906463E0,-8.210704E0,5.5429953E-1,-7.0839864E-1,1.3567622E0,2.8236349E0,1.5465807E0,-1.068871E-1,-1.479401E0,-4.054173E-1],"categories":[],"categories_nodes":[],"categories_segments":[],"categories_sizes":[],"default_left":[0,0,0,0,0,0,0,0,0,0,0,0,0,0,0],"id":48,"left_children":[1,3,5,7,9,11,13,-1,-1,-1,-1,-1,-1,-1,-1],"loss_changes":[5.358505E3,3.7356597E3,7.6369434E3,1.0422434E3,9.359668E1,4.370127E3,3.3604873E3,0E0,0E0,0E0,0E0,0E0,0E0,0E0,0E0],"parents":[2147483647,0,0,1,1,2,2,3,3,4,4,5,5,6,6],"right_children":[2,4,6,8,10,12,14,-1,-1,-1,-1,-1,-1,-1,-1],"split_conditions":[2.3E1,1.408E2,1E0,2.4E1,1E0,1E0,2.6E1,5.5429953E-1,-7.0839864E-1,1.3567622E0,2.8236349E0,1.5465807E0,-1.068871E-1,-1.479401E0,-4.054173E-1],"split_indices":[3,9,19,0,19,17,3,0,0,0,0,0,0,0,0],"split_type":[0,0,0,0,0,0,0,0,0,0,0,0,0,0,0],"sum_hessian":[2.46E2,5.4E1,1.92E2,4.4E1,1E1,6.8E1,1.24E2,3.7E1,7E0,4E0,6E0,2.4E1,4.4E1,4.7E1,7.7E1],"tree_param":{"num_deleted":"0","num_feature":"29","num_nodes":"15","size_leaf_vector":"1"}},{"base_weights":[-2.503401E0,-6.0412793E0,6.3028917E0,-3.3226757E0,-1.4688829E1,4.287202E0,4.000175E0,-7.926404E-1,1.0714381E-1,-6.437171E-1,-2.0953176E0,2.1843897E-1,2.6353133E0],"categories":[],"categories_nodes":[],"categories_segments":[],"categories_sizes":[],"default_left":[0,0,0,0,0,0,0,0,0,0,0,0,0],"id":49,"left_children":[1,3,5,7,9,11,-1,-1,-1,-1,-1,-1,-1],"loss_changes":[7.920443E3,4.20637E3,4.7871357E3,2.8203655E3,2.0878438E3,3.1904697E3,0E0,0E0,0E0,0E0,0E0,0E0,0E0],"parents":[2147483647,0,0,1,1,2,2,3,3,4,4,5,5],"right_children":[2,4,6,8,10,12,-1,-1,-1,-1,-1,-1,-1],"split_conditions":[1.5E1,1.1E1,1E0,6E0,1E0,1.49E2,4.000175E0,-7.926404E-1,1.0714381E-1,-6.437171E-1,-2.0953176E0,2.1843897E-1,2.6353133E0],"split_indices":[0,0,2,0,19,9,0,0,0,0,0,0,0],"split_type":[0,0,0,0,0,0,0,0,0,0,0,0,0],"sum_hessian":[2.52E2,1.8E2,7.2E1,1.38E2,4.2E1,6.9E1,3E0,6.7E1,7.1E1,1.9E1,2.3E1,6.4E1,5E0],"tree_param":{"num_deleted":"0","num_feature":"29","num_nodes":"13","size_leaf_vector":"1"}}]},"name":"gbtree"},"learner_model_param":{"base_score":"8.4932365E1","boost_from_average":"1","num_class":"0","num_feature":"29","num_target":"1"},"objective":{"name":"reg:squarederror","reg_loss_param":{"scale_pos_weight":"1"}}},"version":[2,0,3]}