{"learner":{"attributes":{"scikit_learn":"{\"_estimator_type\": \"regressor\"}"},"feature_names":["Unnamed: 0","jugador_anonimizado","gol","asistencia","edad","peso","altura","minutos_predictor","avg_dist_sess_m_predictor","zona_4_19.9_25.1_kmh_predictor","zona_5_mas_25.1_kmh_predictor","num_aceleraciones_intensas_predictor","num_desaceleraciones_intensas_predictor","num_acel_desintensas_predictor","num_sprints_total_predictor","gol_predictor","asistencia_predictor","max_vel_kmh_predictor","torneo_Libertadores","torneo_Torneo Local","categoria_partido_Normal","posicion_habitual_Delantero","posicion_habitual_Extremo","posicion_habitual_Lateral","posicion_habitual_Lateral ","posicion_habitual_Lateral / Volante","posicion_habitual_Volante / Extremo","posicion_habitual_Volante Central","posicion_habitual_Volante Ofensivo","posicion_habitual_Volante Ofensivo / Extremo"],"feature_types":["int","int","int","int","int","int","int","float","float","float","float","float","float","float","float","float","float","float","i","i","i","i","i","i","i","i","i","i","i","i"],"gradient_booster":{"model":{"gbtree_model_param":{"num_parallel_tree":"1","num_trees":"50"},"iteration_indptr":[0,1,2,3,4,5,6,7,8,9,10,11,12,13,14,15,16,17,18,19,20,21,22,23,24,25,26,27,28,29,30,31,32,33,34,35,36,37,38,39,40,41,42,43,44,45,46,47,48,49,50],"tree_info":[0,0,0,0,0,0,0,0,0,0,0,0,0,0,0,0,0,0,0,0,0,0,0,0,0,0,0,0,0,0,0,0,0,0,0,0,0,0,0,0,0,0,0,0,0,0,0,0,0,0],"trees":[{"base_weights":[-7.1448755E0,-9.8570755E1,9.272125E1,-1.9557314E1,-7.8274185E1,4.9950478E1,2.5325217E2,-1.563004E1,-5.810732E0,1.1313217E1,2.7318635E0,1.5961594E1,3.4139008E1],"categories":[],"categories_nodes":[],"categories_segments":[],"categories_sizes":[],"default_left":[0,0,0,0,0,0,0,0,0,0,0,0,0],"id":0,"left_children":[1,3,5,-1,7,9,11,-1,-1,-1,-1,-1,-1],"loss_changes":[2.2917268E6,2.426065E5,8.112736E5,0E0,1.6400762E5,1.3418153E5,1.5183138E5,0E0,0E0,0E0,0E0,0E0,0E0],"parents":[2147483647,0,0,1,1,2,2,4,4,5,5,6,6],"right_children":[2,4,6,-1,8,10,12,-1,-1,-1,-1,-1,-1],"split_conditions":[4.774E2,3E2,8.44E1,-1.9557314E1,1E0,1.01306E4,2.21E2,-1.563004E1,-5.810732E0,1.1313217E1,2.7318635E0,1.5961594E1,3.4139008E1],"split_indices":[9,9,11,0,19,8,0,0,0,0,0,0,0],"split_type":[0,0,0,0,0,0,0,0,0,0,0,0,0],"sum_hessian":[2.49E2,1.3E2,1.19E2,2.1E1,1.09E2,9.5E1,2.4E1,2.1E1,8.8E1,2.4E1,7.1E1,1.3E1,1.1E1],"tree_param":{"num_deleted":"0","num_feature":"30","num_nodes":"13","size_leaf_vector":"1"}},{"base_weights":[1.1890724E1,-5.60242E1,1.74728E2,-9.4980225E1,8.020716E0,2.4436084E2,1.0769025E2,-1.64647E1,-7.804564E0,-9.97808E0,3.0186188E0,2.0176435E1,3.68228E1,1.2781339E1,-5.87344E0],"categories":[],"categories_nodes":[],"categories_segments":[],"categories_sizes":[],"default_left":[0,0,0,0,0,0,0,0,0,0,0,0,0,0,0],"id":1,"left_children":[1,3,5,7,9,11,13,-1,-1,-1,-1,-1,-1,-1,-1],"loss_changes":[2.8187955E6,4.498502E5,3.23787E5,1.1928519E5,1.6788552E5,1.156515E5,1.4146644E5,0E0,0E0,0E0,0E0,0E0,0E0,0E0,0E0],"parents":[2147483647,0,0,1,1,2,2,3,3,4,4,5,5,6,6],"right_children":[2,4,6,8,10,12,14,-1,-1,-1,-1,-1,-1,-1,-1],"split_conditions":[5.82E2,4.486E2,1E0,4.06E1,6.6E1,2.21E2,2.32E2,-1.64647E1,-7.804564E0,-9.97808E0,3.0186188E0,2.0176435E1,3.68228E1,1.2781339E1,-5.87344E0],"split_indices":[9,9,20,11,5,0,0,0,0,0,0,0,0,0,0],"split_type":[0,0,0,0,0,0,0,0,0,0,0,0,0,0,0],"sum_hessian":[2.53E2,1.79E2,7.4E1,1.11E2,6.8E1,3.5E1,3.9E1,2E1,9.1E1,1.1E1,5.7E1,2.8E1,7E0,3.5E1,4E0],"tree_param":{"num_deleted":"0","num_feature":"30","num_nodes":"15","size_leaf_vector":"1"}},{"base_weights":[-7.5161643E0,-8.218649E1,1.4191615E2,-1.1391339E2,4.2449265E0,1.0177164E2,2.0810759E2,-1.9545105E1,-9.855814E0,-2.945787E0,5.643567E0,1.1775446E1,-4.305287E0,2.8090025E1,1.2685777E1],"categories":[],"categories_nodes":[],"categories_segments":[],"categories_sizes":[],"default_left":[0,0,0,0,0,0,0,0,0,0,0,0,0,0,0],"id":2,"left_children":[1,3,5,7,9,11,13,-1,-1,-1,-1,-1,-1,-1,-1],"loss_changes":[2.7454128E6,4.502045E5,1.9671275E5,1.309805E5,8.0816305E4,1.2774906E5,1.4179725E5,0E0,0E0,0E0,0E0,0E0,0E0,0E0,0E0],"parents":[2147483647,0,0,1,1,2,2,3,3,4,4,5,5,6,6],"right_children":[2,4,6,8,10,12,14,-1,-1,-1,-1,-1,-1,-1,-1],"split_conditions":[5.74E2,9.82E1,1.07432E4,3E2,1.87E2,1E0,1E0,-1.9545105E1,-9.855814E0,-2.945787E0,5.643567E0,1.1775446E1,-4.305287E0,2.8090025E1,1.2685777E1],"split_indices":[9,7,8,9,6,2,20,0,0,0,0,0,0,0,0],"split_type":[0,0,0,0,0,0,0,0,0,0,0,0,0,0,0],"sum_hessian":[2.44E2,1.63E2,8.1E1,1.19E2,4.4E1,5.2E1,2.9E1,1.7E1,1.02E2,2.7E1,1.7E1,4.7E1,5E0,1.4E1,1.5E1],"tree_param":{"num_deleted":"0","num_feature":"30","num_nodes":"15","size_leaf_vector":"1"}},{"base_weights":[-1.6428711E0,-7.369095E1,9.3530464E1,-1.773157E1,-6.521813E1,4.4731354E1,1.2744061E2,-7.144976E0,2.7193878E0,2.5875576E0,1.0066052E1,1.4414522E1,-5.2493186E0],"categories":[],"categories_nodes":[],"categories_segments":[],"categories_sizes":[],"default_left":[0,0,0,0,0,0,0,0,0,0,0,0,0],"id":3,"left_children":[1,3,5,-1,7,9,11,-1,-1,-1,-1,-1,-1],"loss_changes":[1.686871E6,1.1135481E5,1.6970656E5,0E0,7.738294E4,4.4851812E4,1.9392144E5,0E0,0E0,0E0,0E0,0E0,0E0],"parents":[2147483647,0,0,1,1,2,2,4,4,5,5,6,6],"right_children":[2,4,6,-1,8,10,12,-1,-1,-1,-1,-1,-1],"split_conditions":[4.838E2,2.572E2,6.2E2,-1.773157E1,1E0,2.48E2,1E0,-7.144976E0,2.7193878E0,2.5875576E0,1.0066052E1,1.4414522E1,-5.2493186E0],"split_indices":[9,9,9,0,3,0,2,0,0,0,0,0,0],"split_type":[0,0,0,0,0,0,0,0,0,0,0,0,0],"sum_hessian":[2.44E2,1.39E2,1.05E2,9E0,1.3E2,4.4E1,6.1E1,1.22E2,8E0,3.4E1,1E1,5.6E1,5E0],"tree_param":{"num_deleted":"0","num_feature":"30","num_nodes":"13","size_leaf_vector":"1"}},{"base_weights":[-4.0067282E-1,-5.4498085E1,9.050942E1,-6.4881195E1,7.029792E1,4.498959E1,2.4364568E2,-1.5007782E1,-5.77745E0,-1.9257942E0,9.909047E0,7.3187785E0,-5.7179885E0,2.9913046E1,4.583121E0],"categories":[],"categories_nodes":[],"categories_segments":[],"categories_sizes":[],"default_left":[0,0,0,0,0,0,0,0,0,0,0,0,0,0,0],"id":4,"left_children":[1,3,5,7,9,11,13,-1,-1,-1,-1,-1,-1,-1,-1],"loss_changes":[1.2786948E6,2.1577169E5,6.651999E5,8.275475E4,3.542932E4,2.2314042E5,2.2775562E5,0E0,0E0,0E0,0E0,0E0,0E0,0E0,0E0],"parents":[2147483647,0,0,1,1,2,2,3,3,4,4,5,5,6,6],"right_children":[2,4,6,8,10,12,14,-1,-1,-1,-1,-1,-1,-1,-1],"split_conditions":[6.14E1,1.88E2,2.24E2,1.7E2,1.76E2,3.3E1,1E0,-1.5007782E1,-5.77745E0,-1.9257942E0,9.909047E0,7.3187785E0,-5.7179885E0,2.9913046E1,4.583121E0],"split_indices":[11,6,0,6,0,4,2,0,0,0,0,0,0,0,0],"split_type":[0,0,0,0,0,0,0,0,0,0,0,0,0,0,0],"sum_hessian":[2.58E2,1.62E2,9.6E1,1.5E2,1.2E1,7.5E1,2.1E1,1E1,1.4E2,3E0,9E0,5.9E1,1.6E1,1.6E1,5E0],"tree_param":{"num_deleted":"0","num_feature":"30","num_nodes":"15","size_leaf_vector":"1"}},{"base_weights":[1.5377333E0,-5.4206306E1,1.04880455E2,-2.8538246E1,-9.4340805E1,5.0954044E1,1.5347368E2,1.0956405E0,-5.1263137E0,-1.098561E1,5.877411E0,1.005569E1,2.9030688E0,1.2773357E1,2.0018805E1],"categories":[],"categories_nodes":[],"categories_segments":[],"categories_sizes":[],"default_left":[0,0,0,0,0,0,0,0,0,0,0,0,0,0,0],"id":5,"left_children":[1,3,5,7,9,11,13,-1,-1,-1,-1,-1,-1,-1,-1],"loss_changes":[1.5783675E6,1.8067875E5,2.4374388E5,9.9287945E4,1.7037469E5,4.819143E4,3.4550875E4,0E0,0E0,0E0,0E0,0E0,0E0,0E0,0E0],"parents":[2147483647,0,0,1,1,2,2,3,3,4,4,5,5,6,6],"right_children":[2,4,6,8,10,12,14,-1,-1,-1,-1,-1,-1,-1,-1],"split_conditions":[5.74E2,3.08E2,6.546E2,5.14E1,1.88E2,1E0,2.24E2,1.0956405E0,-5.1263137E0,-1.098561E1,5.877411E0,1.005569E1,2.9030688E0,1.2773357E1,2.0018805E1],"split_indices":[9,0,9,11,6,19,0,0,0,0,0,0,0,0,0],"split_type":[0,0,0,0,0,0,0,0,0,0,0,0,0,0,0],"sum_hessian":[2.72E2,1.77E2,9.5E1,1.09E2,6.8E1,4.6E1,4.9E1,4E1,6.9E1,6.2E1,6E0,1.3E1,3.3E1,3.4E1,1.5E1],"tree_param":{"num_deleted":"0","num_feature":"30","num_nodes":"15","size_leaf_vector":"1"}},{"base_weights":[-1.0552268E1,-5.5924053E1,7.497759E1,-1.4536787E2,-3.907097E1,4.419612E1,2.1567805E2,-1.5876558E1,-3.5338523E0,-2.9574182E0,-1.3473991E1,9.943238E0,1.7366936E0,2.6371542E1,1.2310458E1],"categories":[],"categories_nodes":[],"categories_segments":[],"categories_sizes":[],"default_left":[0,0,0,0,0,0,0,0,0,0,0,0,0,0,0],"id":6,"left_children":[1,3,5,7,9,11,13,-1,-1,-1,-1,-1,-1,-1,-1],"loss_changes":[9.510699E5,2.35505E5,3.5860003E5,3.1243E4,1.19577625E5,1.0349119E5,3.424025E4,0E0,0E0,0E0,0E0,0E0,0E0,0E0,0E0],"parents":[2147483647,0,0,1,1,2,2,3,3,4,4,5,5,6,6],"right_children":[2,4,6,8,10,12,14,-1,-1,-1,-1,-1,-1,-1,-1],"split_conditions":[5.74E2,1.71E2,2.21E2,3.32E2,3.92E2,1E0,2.31E2,-1.5876558E1,-3.5338523E0,-2.9574182E0,-1.3473991E1,9.943238E0,1.7366936E0,2.6371542E1,1.2310458E1],"split_indices":[9,6,0,0,0,20,0,0,0,0,0,0,0,0,0],"split_type":[0,0,0,0,0,0,0,0,0,0,0,0,0,0,0],"sum_hessian":[2.43E2,1.59E2,8.4E1,2.4E1,1.35E2,7E1,1.4E1,2.1E1,3E0,1.24E2,1.1E1,2.2E1,4.8E1,8E0,6E0],"tree_param":{"num_deleted":"0","num_feature":"30","num_nodes":"15","size_leaf_vector":"1"}},{"base_weights":[5.1393704E0,-2.3984066E1,8.919217E1,-1.5467555E1,-1.7086323E1,1.2763017E2,-4.2318123E1,1.0443834E0,-4.4736524E0,1.0088063E1,1.9394575E1,-2.2148678E1,2.093127E0],"categories":[],"categories_nodes":[],"categories_segments":[],"categories_sizes":[],"default_left":[0,0,0,0,0,0,0,0,0,0,0,0,0],"id":7,"left_children":[1,3,5,-1,7,9,11,-1,-1,-1,-1,-1,-1],"loss_changes":[5.994283E5,1.6142586E5,3.2386566E5,0E0,1.3291852E5,6.735631E4,1.7462062E5,0E0,0E0,0E0,0E0,0E0,0E0],"parents":[2147483647,0,0,1,1,2,2,4,4,5,5,6,6],"right_children":[2,4,6,-1,8,10,12,-1,-1,-1,-1,-1,-1],"split_conditions":[7.64E1,3.68E1,2.5E2,-1.5467555E1,1.78E2,2.24E2,2.56E2,1.0443834E0,-4.4736524E0,1.0088063E1,1.9394575E1,-2.2148678E1,2.093127E0],"split_indices":[12,10,0,0,6,0,0,0,0,0,0,0,0],"split_type":[0,0,0,0,0,0,0,0,0,0,0,0,0],"sum_hessian":[2.43E2,1.81E2,6.2E1,8E0,1.73E2,4.8E1,1.4E1,8.7E1,8.6E1,3.6E1,1.2E1,3E0,1.1E1],"tree_param":{"num_deleted":"0","num_feature":"30","num_nodes":"13","size_leaf_vector":"1"}},{"base_weights":[3.4947097E0,-4.887992E1,5.0329945E1,-1.371023E2,-3.770449E1,6.0399044E1,-7.95599E1,-6.4698534E0,-1.6209303E1,-4.816163E0,1.3263392E0,-9.468181E0,6.7710695E0,-1.9398308E0,-1.0257225E1],"categories":[],"categories_nodes":[],"categories_segments":[],"categories_sizes":[],"default_left":[0,0,0,0,0,0,0,0,0,0,0,0,0,0,0],"id":8,"left_children":[1,3,5,7,9,11,13,-1,-1,-1,-1,-1,-1,-1,-1],"loss_changes":[6.181577E5,1.1215544E5,1.787526E5,1.3035297E4,5.7667453E4,1.4701412E5,1.1854875E4,0E0,0E0,0E0,0E0,0E0,0E0,0E0,0E0],"parents":[2147483647,0,0,1,1,2,2,3,3,4,4,5,5,6,6],"right_children":[2,4,6,8,10,12,14,-1,-1,-1,-1,-1,-1,-1,-1],"split_conditions":[1.206E2,3.68E1,7.9E1,3.29E2,3.66E2,9E0,7.3E1,-6.4698534E0,-1.6209303E1,-4.816163E0,1.3263392E0,-9.468181E0,6.7710695E0,-1.9398308E0,-1.0257225E1],"split_indices":[13,11,5,0,0,0,0,0,0,0,0,0,0,0,0],"split_type":[0,0,0,0,0,0,0,0,0,0,0,0,0,0,0],"sum_hessian":[2.5E2,1.18E2,1.32E2,1.2E1,1.06E2,1.23E2,9E0,4E0,8E0,8.8E1,1.8E1,5E0,1.18E2,3E0,6E0],"tree_param":{"num_deleted":"0","num_feature":"30","num_nodes":"15","size_leaf_vector":"1"}},{"base_weights":[-3.9404025E0,-2.4570518E1,7.270484E1,-4.6528942E1,8.400608E0,-8.362948E0,8.747498E1,-5.325237E0,5.089383E0,1.516662E1,-5.6446666E-1,1.2228175E1,2.7479798E-1],"categories":[],"categories_nodes":[],"categories_segments":[],"categories_sizes":[],"default_left":[0,0,0,0,0,0,0,0,0,0,0,0,0],"id":9,"left_children":[1,3,5,7,9,-1,11,-1,-1,-1,-1,-1,-1],"loss_changes":[3.8759925E5,1.4012172E5,1.2738769E5,7.869194E4,1.5780806E5,0E0,1.412195E5,0E0,0E0,0E0,0E0,0E0,0E0],"parents":[2147483647,0,0,1,1,2,2,3,3,4,4,6,6],"right_children":[2,4,6,8,10,-1,12,-1,-1,-1,-1,-1,-1],"split_conditions":[1.844E2,1.0033E4,7E0,1E0,5.2E1,-8.362948E0,2.32E2,-5.325237E0,5.089383E0,1.516662E1,-5.6446666E-1,1.2228175E1,2.7479798E-1],"split_indices":[10,8,0,3,0,0,0,0,0,0,0,0,0],"split_type":[0,0,0,0,0,0,0,0,0,0,0,0,0],"sum_hessian":[2.43E2,1.92E2,5.1E1,1.15E2,7.7E1,4E0,4.7E1,1.08E2,7E0,6E0,7.1E1,3.3E1,1.4E1],"tree_param":{"num_deleted":"0","num_feature":"30","num_nodes":"13","size_leaf_vector":"1"}},{"base_weights":[-2.5482054E0,-3.771565E1,4.520179E1,-1.9156414E1,-7.40946E1,-1.2705736E1,5.2758217E1,-2.7920883E0,1.5645839E1,-1.3982658E1,-5.028407E0,4.230357E0,1.25903425E1],"categories":[],"categories_nodes":[],"categories_segments":[],"categories_sizes":[],"default_left":[0,0,0,0,0,0,0,0,0,0,0,0,0],"id":10,"left_children":[1,3,5,7,9,-1,11,-1,-1,-1,-1,-1,-1],"loss_changes":[4.433463E5,1.01205734E5,1.5248964E5,1.6136378E5,7.278975E4,0E0,7.726222E4,0E0,0E0,0E0,0E0,0E0,0E0],"parents":[2147483647,0,0,1,1,2,2,3,3,4,4,6,6],"right_children":[2,4,6,8,10,-1,12,-1,-1,-1,-1,-1,-1],"split_conditions":[4.838E2,3.21E2,9E0,3.14E2,3.43E2,-1.2705736E1,9.04E2,-2.7920883E0,1.5645839E1,-1.3982658E1,-5.028407E0,4.230357E0,1.25903425E1],"split_indices":[9,0,0,0,0,0,9,0,0,0,0,0,0],"split_type":[0,0,0,0,0,0,0,0,0,0,0,0,0],"sum_hessian":[2.62E2,1.51E2,1.11E2,1.01E2,5E1,4E0,1.07E2,9.7E1,4E0,1.2E1,3.8E1,9.5E1,1.2E1],"tree_param":{"num_deleted":"0","num_feature":"30","num_nodes":"13","size_leaf_vector":"1"}},{"base_weights":[-2.7366085E0,-3.396367E1,3.7398453E1,-2.0999563E1,-8.857721E1,1.3730553E1,9.421447E1,6.5675713E-3,-5.5393133E0,-3.438985E-1,-1.0546729E1,7.912083E-1,7.092624E0,7.145364E0,2.210409E1],"categories":[],"categories_nodes":[],"categories_segments":[],"categories_sizes":[],"default_left":[0,0,0,0,0,0,0,0,0,0,0,0,0,0,0],"id":11,"left_children":[1,3,5,7,9,11,13,-1,-1,-1,-1,-1,-1,-1,-1],"loss_changes":[3.521942E5,1.1000639E5,1.6410639E5,9.346526E4,4.2777062E4,2.8724467E4,8.812616E4,0E0,0E0,0E0,0E0,0E0,0E0,0E0,0E0],"parents":[2147483647,0,0,1,1,2,2,3,3,4,4,5,5,6,6],"right_children":[2,4,6,8,10,12,14,-1,-1,-1,-1,-1,-1,-1,-1],"split_conditions":[5.7E1,2.9E1,1.07432E4,3.08E2,2.5E2,3.45E2,1E0,6.5675713E-3,-5.5393133E0,-3.438985E-1,-1.0546729E1,7.912083E-1,7.092624E0,7.145364E0,2.210409E1],"split_indices":[11,4,8,0,0,0,3,0,0,0,0,0,0,0,0],"split_type":[0,0,0,0,0,0,0,0,0,0,0,0,0,0,0],"sum_hessian":[2.79E2,1.57E2,1.22E2,1.28E2,2.9E1,8.7E1,3.5E1,8E1,4.8E1,5E0,2.4E1,8E1,7E0,3.1E1,4E0],"tree_param":{"num_deleted":"0","num_feature":"30","num_nodes":"15","size_leaf_vector":"1"}},{"base_weights":[-3.155767E0,3.0646791E1,-4.464E1,1.889723E1,2.5118887E1,-1.8710997E1,-3.9103783E1,3.4580429E0,-4.453546E0,-5.438167E0,1.8544457E0],"categories":[],"categories_nodes":[],"categories_segments":[],"categories_sizes":[],"default_left":[0,0,0,0,0,0,0,0,0,0,0],"id":12,"left_children":[1,3,5,7,-1,-1,9,-1,-1,-1,-1],"loss_changes":[3.5614322E5,3.580314E5,8.260014E4,1.3484695E5,0E0,0E0,9.8771E4,0E0,0E0,0E0,0E0],"parents":[2147483647,0,0,1,1,2,2,3,3,6,6],"right_children":[2,4,6,8,-1,-1,10,-1,-1,-1,-1],"split_conditions":[2.31E2,2.24E2,2.37E2,1E0,2.5118887E1,-1.8710997E1,7.34E1,3.4580429E0,-4.453546E0,-5.438167E0,1.8544457E0],"split_indices":[0,0,0,21,0,0,12,0,0,0,0],"split_type":[0,0,0,0,0,0,0,0,0,0,0],"sum_hessian":[2.52E2,1.39E2,1.13E2,1.33E2,6E0,3E0,1.1E2,1.07E2,2.6E1,8.7E1,2.3E1],"tree_param":{"num_deleted":"0","num_feature":"30","num_nodes":"11","size_leaf_vector":"1"}},{"base_weights":[4.8915896E0,-2.4046528E1,5.068241E1,-1.2859764E1,-1.5083866E1,1.0442094E2,1.7150404E1,-2.1748035E-1,-6.472712E0,1.5442197E1,2.196077E0,5.4898804E-1,7.0239825E0],"categories":[],"categories_nodes":[],"categories_segments":[],"categories_sizes":[],"default_left":[0,0,0,0,0,0,0,0,0,0,0,0,0],"id":13,"left_children":[1,3,5,-1,7,9,11,-1,-1,-1,-1,-1,-1],"loss_changes":[3.046667E5,1.3018518E5,1.5858362E5,0E0,8.38103E4,1.3679394E5,3.428121E4,0E0,0E0,0E0,0E0,0E0,0E0],"parents":[2147483647,0,0,1,1,2,2,4,4,5,5,6,6],"right_children":[2,4,6,-1,8,10,12,-1,-1,-1,-1,-1,-1],"split_conditions":[1.322E2,6.6E1,1E0,-1.2859764E1,1E0,7.2E1,1E0,-2.1748035E-1,-6.472712E0,1.5442197E1,2.196077E0,5.4898804E-1,7.0239825E0],"split_indices":[13,5,20,0,18,5,2,0,0,0,0,0,0],"split_type":[0,0,0,0,0,0,0,0,0,0,0,0,0],"sum_hessian":[2.28E2,1.4E2,8.8E1,1E1,1.3E2,3.3E1,5.5E1,1.04E2,2.6E1,2E1,1.3E1,4.6E1,9E0],"tree_param":{"num_deleted":"0","num_feature":"30","num_nodes":"13","size_leaf_vector":"1"}},{"base_weights":[8.878903E-1,-3.9037827E1,3.823059E1,-7.367556E1,-2.7701933E1,1.1916364E1,6.7018875E1,-2.633827E0,-9.471227E0,-2.3909616E0,-1.0231126E1,1.3272336E-1,7.1082764E0,1.2240522E1,3.5477026E0],"categories":[],"categories_nodes":[],"categories_segments":[],"categories_sizes":[],"default_left":[0,0,0,0,0,0,0,0,0,0,0,0,0,0,0],"id":14,"left_children":[1,3,5,7,9,11,13,-1,-1,-1,-1,-1,-1,-1,-1],"loss_changes":[3.578257E5,4.3506406E4,9.313653E4,2.5388422E4,2.2735625E4,4.1256027E4,9.872969E4,0E0,0E0,0E0,0E0,0E0,0E0,0E0,0E0],"parents":[2147483647,0,0,1,1,2,2,3,3,4,4,5,5,6,6],"right_children":[2,4,6,8,10,12,14,-1,-1,-1,-1,-1,-1,-1,-1],"split_conditions":[4.634E2,4.06E1,7.64E1,4.46E1,3.95E2,2.77E2,1E0,-2.633827E0,-9.471227E0,-2.3909616E0,-1.0231126E1,1.3272336E-1,7.1082764E0,1.2240522E1,3.5477026E0],"split_indices":[9,11,12,12,0,0,20,0,0,0,0,0,0,0,0],"split_type":[0,0,0,0,0,0,0,0,0,0,0,0,0,0,0],"sum_hessian":[2.38E2,1.15E2,1.23E2,2.7E1,8.8E1,6.5E1,5.8E1,9E0,1.8E1,8.5E1,3E0,5.6E1,9E0,2E1,3.8E1],"tree_param":{"num_deleted":"0","num_feature":"30","num_nodes":"15","size_leaf_vector":"1"}},{"base_weights":[5.5043774E0,-3.9471703E0,1.4628053E2,-3.880584E1,2.3971342E1,1.999859E2,7.429009E1,5.917019E-1,-4.8037233E0,-1.612934E0,4.234409E0,2.5397886E1,8.249821E0,1.1474175E1,5.1529926E-1],"categories":[],"categories_nodes":[],"categories_segments":[],"categories_sizes":[],"default_left":[0,0,0,0,0,0,0,0,0,0,0,0,0,0,0],"id":15,"left_children":[1,3,5,7,9,11,13,-1,-1,-1,-1,-1,-1,-1,-1],"loss_changes":[3.172489E5,2.1892752E5,4.3137125E4,4.156967E4,9.277792E4,2.979525E4,2.1782418E4,0E0,0E0,0E0,0E0,0E0,0E0,0E0,0E0],"parents":[2147483647,0,0,1,1,2,2,3,3,4,4,5,5,6,6],"right_children":[2,4,6,8,10,12,14,-1,-1,-1,-1,-1,-1,-1,-1],"split_conditions":[1E0,4.16E2,9.52E1,2.3E1,2.9E1,2.9E1,7.6E1,5.917019E-1,-4.8037233E0,-1.612934E0,4.234409E0,2.5397886E1,8.249821E0,1.1474175E1,5.1529926E-1],"split_indices":[3,9,7,4,17,17,0,0,0,0,0,0,0,0,0],"split_type":[0,0,0,0,0,0,0,0,0,0,0,0,0,0,0],"sum_hessian":[2.37E2,2.23E2,1.4E1,9.9E1,1.24E2,7E0,7E0,1.7E1,8.2E1,3.9E1,8.5E1,4E0,3E0,4E0,3E0],"tree_param":{"num_deleted":"0","num_feature":"30","num_nodes":"15","size_leaf_vector":"1"}},{"base_weights":[9.121611E0,-1.7919846E1,7.065451E1,-5.0044518E1,-8.365093E0,1.3004536E2,2.343235E1,-8.972702E0,-2.4233236E0,-1.0348891E1,-3.840812E-1,7.3781123E0,1.3981589E1,-1.1227419E1,4.0229793E0],"categories":[],"categories_nodes":[],"categories_segments":[],"categories_sizes":[],"default_left":[0,0,0,0,0,0,0,0,0,0,0,0,0,0,0],"id":16,"left_children":[1,3,5,7,9,11,13,-1,-1,-1,-1,-1,-1,-1,-1],"loss_changes":[4.089312E5,5.2068676E4,2.0729503E5,3.7771617E4,5.6841312E4,7.825375E3,1.0253626E5,0E0,0E0,0E0,0E0,0E0,0E0,0E0,0E0],"parents":[2147483647,0,0,1,1,2,2,3,3,4,4,5,5,6,6],"right_children":[2,4,6,8,10,12,14,-1,-1,-1,-1,-1,-1,-1,-1],"split_conditions":[5.82E2,7.78E1,1E0,1E0,6.6E1,1.5E1,9E0,-8.972702E0,-2.4233236E0,-1.0348891E1,-3.840812E-1,7.3781123E0,1.3981589E1,-1.1227419E1,4.0229793E0],"split_indices":[9,10,20,20,5,0,0,0,0,0,0,0,0,0,0],"split_type":[0,0,0,0,0,0,0,0,0,0,0,0,0,0,0],"sum_hessian":[2.44E2,1.7E2,7.4E1,3.8E1,1.32E2,3.2E1,4.2E1,1.4E1,2.4E1,5E0,1.27E2,6E0,2.6E1,4E0,3.8E1],"tree_param":{"num_deleted":"0","num_feature":"30","num_nodes":"15","size_leaf_vector":"1"}},{"base_weights":[1.426021E0,-3.924298E1,1.8990244E1,-5.030657E1,-1.1032398E1,3.9092148E1,-4.5410427E1,-7.614089E-1,-7.01732E0,-8.340862E0,5.6641185E-1,1.3390022E1,1.6176442E0,-1.397764E1,-3.3460683E-1],"categories":[],"categories_nodes":[],"categories_segments":[],"categories_sizes":[],"default_left":[0,0,0,0,0,0,0,0,0,0,0,0,0,0,0],"id":17,"left_children":[1,3,5,7,9,11,13,-1,-1,-1,-1,-1,-1,-1,-1],"loss_changes":[1.6575302E5,2.129271E4,2.1149652E5,4.1873484E4,2.5849484E4,2.6723562E5,1.543406E5,0E0,0E0,0E0,0E0,0E0,0E0,0E0,0E0],"parents":[2147483647,0,0,1,1,2,2,3,3,4,4,5,5,6,6],"right_children":[2,4,6,8,10,12,14,-1,-1,-1,-1,-1,-1,-1,-1],"split_conditions":[4.002E2,9.82E1,1E0,1E0,1.55E2,1E0,9.46E1,-7.614089E-1,-7.01732E0,-8.340862E0,5.6641185E-1,1.3390022E1,1.6176442E0,-1.397764E1,-3.3460683E-1],"split_indices":[9,7,18,20,0,20,7,0,0,0,0,0,0,0,0],"split_type":[0,0,0,0,0,0,0,0,0,0,0,0,0,0,0],"sum_hessian":[2.3E2,6.9E1,1.61E2,4.9E1,2E1,1.23E2,3.8E1,1.6E1,3.3E1,3E0,1.7E1,2.3E1,1E2,1.1E1,2.7E1],"tree_param":{"num_deleted":"0","num_feature":"30","num_nodes":"15","size_leaf_vector":"1"}},{"base_weights":[-6.0007256E-1,-2.1323385E1,5.5658447E1,-6.778031E1,-1.5414857E1,1.0991006E1,2.3867094E1,-1.7152828E1,-1.8475446E0,5.2952313E-1,-2.8470075E0,4.2514806E0,-9.199703E0],"categories":[],"categories_nodes":[],"categories_segments":[],"categories_sizes":[],"default_left":[0,0,0,0,0,0,0,0,0,0,0,0,0],"id":18,"left_children":[1,3,5,7,9,-1,11,-1,-1,-1,-1,-1,-1],"loss_changes":[2.7283288E5,4.589333E4,1.06034875E5,9.402125E4,4.1518082E4,0E0,9.249587E4,0E0,0E0,0E0,0E0,0E0,0E0],"parents":[2147483647,0,0,1,1,2,2,3,3,4,4,6,6],"right_children":[2,4,6,8,10,-1,12,-1,-1,-1,-1,-1,-1],"split_conditions":[6.2E2,6.8E1,1E0,1E0,2.8E1,1.0991006E1,2.34E2,-1.7152828E1,-1.8475446E0,5.2952313E-1,-2.8470075E0,4.2514806E0,-9.199703E0],"split_indices":[9,5,20,20,17,0,0,0,0,0,0,0,0],"split_type":[0,0,0,0,0,0,0,0,0,0,0,0,0],"sum_hessian":[2.32E2,1.7E2,6.2E1,1.8E1,1.52E2,2.2E1,4E1,5E0,1.3E1,5.9E1,9.3E1,3.5E1,5E0],"tree_param":{"num_deleted":"0","num_feature":"30","num_nodes":"13","size_leaf_vector":"1"}},{"base_weights":[2.6934662E-1,2.0295082E1,-2.6434128E1,1.6753975E1,1.4004529E1,-7.138975E1,-1.0567565E1,5.994286E0,8.12326E-2,-1.0911326E1,-3.1703934E-1,1.0024239E0,-5.45127E0],"categories":[],"categories_nodes":[],"categories_segments":[],"categories_sizes":[],"default_left":[0,0,0,0,0,0,0,0,0,0,0,0,0],"id":19,"left_children":[1,3,5,7,-1,9,11,-1,-1,-1,-1,-1,-1],"loss_changes":[1.3476042E5,5.871663E4,7.628102E4,9.703009E4,0E0,7.171133E4,7.3844125E4,0E0,0E0,0E0,0E0,0E0,0E0],"parents":[2147483647,0,0,1,1,2,2,3,3,5,5,6,6],"right_children":[2,4,6,8,-1,10,12,-1,-1,-1,-1,-1,-1],"split_conditions":[2.55E2,2.48E2,1E0,1E0,1.4004529E1,9.7E1,3.63E2,5.994286E0,8.12326E-2,-1.0911326E1,-3.1703934E-1,1.0024239E0,-5.45127E0],"split_indices":[0,0,19,19,0,7,0,0,0,0,0,0,0],"split_type":[0,0,0,0,0,0,0,0,0,0,0,0,0],"sum_hessian":[2.5E2,1.43E2,1.07E2,1.4E2,3E0,2.7E1,8E1,3.7E1,1.03E2,1.7E1,1E1,5.5E1,2.5E1],"tree_param":{"num_deleted":"0","num_feature":"30","num_nodes":"13","size_leaf_vector":"1"}},{"base_weights":[-5.7977448E0,-1.0563441E1,7.2909966E1,4.900918E0,-2.9678728E1,1.6057041E1,6.3685675E0,-1.1681376E0,8.994791E0,-4.6192145E0,3.3220322E0,5.4195952E0,-6.6964655E0],"categories":[],"categories_nodes":[],"categories_segments":[],"categories_sizes":[],"default_left":[0,0,0,0,0,0,0,0,0,0,0,0,0],"id":20,"left_children":[1,3,5,7,9,-1,11,-1,-1,-1,-1,-1,-1],"loss_changes":[9.191877E4,6.813475E4,8.064007E4,1.8156581E5,1.0851839E5,0E0,3.519524E4,0E0,0E0,0E0,0E0,0E0,0E0],"parents":[2147483647,0,0,1,1,2,2,3,3,4,4,6,6],"right_children":[2,4,6,8,10,-1,12,-1,-1,-1,-1,-1,-1],"split_conditions":[1E0,2.31E2,2.9E1,1.97E2,3.72E2,1.6057041E1,2.19E2,-1.1681376E0,8.994791E0,-4.6192145E0,3.3220322E0,5.4195952E0,-6.6964655E0],"split_indices":[3,0,17,0,0,0,0,0,0,0,0,0,0],"split_type":[0,0,0,0,0,0,0,0,0,0,0,0,0],"sum_hessian":[2.42E2,2.29E2,1.3E1,1.27E2,1.02E2,5E0,8E0,1.07E2,2E1,8.1E1,2.1E1,5E0,3E0],"tree_param":{"num_deleted":"0","num_feature":"30","num_nodes":"13","size_leaf_vector":"1"}},{"base_weights":[-1.3807886E0,-1.058749E1,5.8370697E1,-1.9001705E1,8.2526115E1,1.6306585E1,3.548598E1,-8.969695E0,-1.3855098E0,1.178527E1,-1.3656917E0,-4.004128E0,6.4770503E0],"categories":[],"categories_nodes":[],"categories_segments":[],"categories_sizes":[],"default_left":[0,0,0,0,0,0,0,0,0,0,0,0,0],"id":21,"left_children":[1,3,5,7,9,-1,11,-1,-1,-1,-1,-1,-1],"loss_changes":[1.441978E5,1.7941764E5,7.8070586E4,7.479994E4,6.616802E4,0E0,6.8946875E4,0E0,0E0,0E0,0E0,0E0,0E0],"parents":[2147483647,0,0,1,1,2,2,3,3,4,4,6,6],"right_children":[2,4,6,8,10,-1,12,-1,-1,-1,-1,-1,-1],"split_conditions":[1.618E2,1E0,2.07E2,5.72E1,2.8E1,1.6306585E1,2.16E2,-8.969695E0,-1.3855098E0,1.178527E1,-1.3656917E0,-4.004128E0,6.4770503E0],"split_indices":[13,3,0,10,4,0,0,0,0,0,0,0,0],"split_type":[0,0,0,0,0,0,0,0,0,0,0,0,0],"sum_hessian":[2.6E2,2.26E2,3.4E1,2.08E2,1.8E1,5E0,2.9E1,1.3E1,1.95E2,1.3E1,5E0,8E0,2.1E1],"tree_param":{"num_deleted":"0","num_feature":"30","num_nodes":"13","size_leaf_vector":"1"}},{"base_weights":[2.050297E0,3.7565254E1,-1.5296588E1,6.937522E1,1.5819371E1,-2.2143068E1,3.1145647E1,2.796552E0,1.9528484E1,-7.968078E0,3.590704E0,-1.1372881E0,-7.1828446E0,-2.5664382E0,5.4053435E0],"categories":[],"categories_nodes":[],"categories_segments":[],"categories_sizes":[],"default_left":[0,0,0,0,0,0,0,0,0,0,0,0,0,0,0],"id":22,"left_children":[1,3,5,7,9,11,13,-1,-1,-1,-1,-1,-1,-1,-1],"loss_changes":[1.5397702E5,5.562486E4,5.4107926E4,1.6659677E5,9.877986E4,7.7845875E4,3.001787E4,0E0,0E0,0E0,0E0,0E0,0E0,0E0,0E0],"parents":[2147483647,0,0,1,1,2,2,3,3,4,4,5,5,6,6],"right_children":[2,4,6,8,10,12,14,-1,-1,-1,-1,-1,-1,-1,-1],"split_conditions":[6.9E1,2.34E2,1E0,2.24E2,2.48E2,3E1,1E0,2.796552E0,1.9528484E1,-7.968078E0,3.590704E0,-1.1372881E0,-7.1828446E0,-2.5664382E0,5.4053435E0],"split_indices":[5,0,2,0,0,4,20,0,0,0,0,0,0,0,0],"split_type":[0,0,0,0,0,0,0,0,0,0,0,0,0,0,0],"sum_hessian":[2.48E2,8.1E1,1.67E2,3.2E1,4.9E1,1.46E2,2.1E1,2.5E1,7E0,8E0,4.1E1,1.21E2,2.5E1,6E0,1.5E1],"tree_param":{"num_deleted":"0","num_feature":"30","num_nodes":"15","size_leaf_vector":"1"}},{"base_weights":[4.532618E0,-1.7589281E1,2.7553474E1,-6.674456E1,-7.3965626E0,1.2492286E1,1.3014082E2,-1.0813574E1,-2.6689866E0,-7.511627E0,-1.1365088E-2,2.4665136E0,-6.1377635E0,2.130144E1,4.9975282E-1],"categories":[],"categories_nodes":[],"categories_segments":[],"categories_sizes":[],"default_left":[0,0,0,0,0,0,0,0,0,0,0,0,0,0,0],"id":23,"left_children":[1,3,5,7,9,11,13,-1,-1,-1,-1,-1,-1,-1,-1],"loss_changes":[1.2270827E5,6.113251E4,1.8069455E5,3.193E4,5.0790723E4,9.503147E4,1.5450152E5,0E0,0E0,0E0,0E0,0E0,0E0,0E0,0E0],"parents":[2147483647,0,0,1,1,2,2,3,3,4,4,5,5,6,6],"right_children":[2,4,6,8,10,12,14,-1,-1,-1,-1,-1,-1,-1,-1],"split_conditions":[4.838E2,1E0,2.37E2,8E1,7.5E1,2.13E2,2.55E2,-1.0813574E1,-2.6689866E0,-7.511627E0,-1.1365088E-2,2.4665136E0,-6.1377635E0,2.130144E1,4.9975282E-1],"split_indices":[9,19,0,5,0,0,0,0,0,0,0,0,0,0,0],"split_type":[0,0,0,0,0,0,0,0,0,0,0,0,0,0,0],"sum_hessian":[2.39E2,1.22E2,1.17E2,2E1,1.02E2,1.03E2,1.4E1,9E0,1.1E1,9E0,9.3E1,8.9E1,1.4E1,8E0,6E0],"tree_param":{"num_deleted":"0","num_feature":"30","num_nodes":"15","size_leaf_vector":"1"}},{"base_weights":[7.52219E-1,-4.9280047E0,8.8934875E1,6.288095E0,-2.0718496E1,1.2951233E2,-5.5031204E0,-3.647585E0,1.306311E0,7.784884E0,-2.5795035E0,2.2471542E0,1.6269575E1],"categories":[],"categories_nodes":[],"categories_segments":[],"categories_sizes":[],"default_left":[0,0,0,0,0,0,0,0,0,0,0,0,0],"id":24,"left_children":[1,3,5,7,9,11,-1,-1,-1,-1,-1,-1,-1],"loss_changes":[1.2415988E5,4.139638E4,9.475388E4,4.0169004E4,5.054507E4,3.8967734E4,0E0,0E0,0E0,0E0,0E0,0E0,0E0],"parents":[2147483647,0,0,1,1,2,2,3,3,4,4,5,5],"right_children":[2,4,6,8,10,12,-1,-1,-1,-1,-1,-1,-1],"split_conditions":[1E0,2.7E1,1.79E2,4.06E1,4.6E1,2.1E1,-5.5031204E0,-3.647585E0,1.306311E0,7.784884E0,-2.5795035E0,2.2471542E0,1.6269575E1],"split_indices":[3,4,6,11,0,0,0,0,0,0,0,0,0],"split_type":[0,0,0,0,0,0,0,0,0,0,0,0,0],"sum_hessian":[2.46E2,2.32E2,1.4E1,1.36E2,9.6E1,1.1E1,3E0,1.8E1,1.18E2,4E0,9.2E1,3E0,8E0],"tree_param":{"num_deleted":"0","num_feature":"30","num_nodes":"13","size_leaf_vector":"1"}},{"base_weights":[-9.167431E0,-1.4593212E1,9.254076E1,-4.3657937E0,-5.09822E1,1.4978323E2,7.9400636E-2,-1.5630589E0,3.3368084E0,-8.520607E0,1.1153509E-1,7.9883623E0,1.9971193E1],"categories":[],"categories_nodes":[],"categories_segments":[],"categories_sizes":[],"default_left":[0,0,0,0,0,0,0,0,0,0,0,0,0],"id":25,"left_children":[1,3,5,7,9,11,-1,-1,-1,-1,-1,-1,-1],"loss_changes":[1.4151945E5,8.984144E4,6.815462E4,8.1283805E4,9.459297E4,1.1966266E4,0E0,0E0,0E0,0E0,0E0,0E0,0E0],"parents":[2147483647,0,0,1,1,2,2,3,3,4,4,5,5],"right_children":[2,4,6,8,10,12,-1,-1,-1,-1,-1,-1,-1],"split_conditions":[1E0,1E0,1.79E2,7.72E1,5.74E2,1E0,7.9400636E-2,-1.5630589E0,3.3368084E0,-8.520607E0,1.1153509E-1,7.9883623E0,1.9971193E1],"split_indices":[3,18,6,12,9,20,0,0,0,0,0,0,0],"split_type":[0,0,0,0,0,0,0,0,0,0,0,0,0],"sum_hessian":[2.53E2,2.41E2,1.2E1,1.89E2,5.2E1,7E0,5E0,1.46E2,4.3E1,3.1E1,2.1E1,4E0,3E0],"tree_param":{"num_deleted":"0","num_feature":"30","num_nodes":"13","size_leaf_vector":"1"}},{"base_weights":[5.9341297E0,2.631416E1,-5.895411E0,4.3222647E0,8.507955E1,-3.3178936E1,6.201779E0,4.2495627E0,-1.8859819E0,1.3887865E1,3.9826494E-1,-2.3690457E0,-8.672545E0,9.2893095E0,-5.264162E-2],"categories":[],"categories_nodes":[],"categories_segments":[],"categories_sizes":[],"default_left":[0,0,0,0,0,0,0,0,0,0,0,0,0,0,0],"id":26,"left_children":[1,3,5,7,9,11,13,-1,-1,-1,-1,-1,-1,-1,-1],"loss_changes":[6.042673E4,1.18529586E5,5.268435E4,6.097725E4,1.0852036E5,2.2841113E4,6.4792547E4,0E0,0E0,0E0,0E0,0E0,0E0,0E0,0E0],"parents":[2147483647,0,0,1,1,2,2,3,3,4,4,5,5,6,6],"right_children":[2,4,6,8,10,12,14,-1,-1,-1,-1,-1,-1,-1,-1],"split_conditions":[1E0,5.82E2,1.74E2,1E0,2.05E2,3.08E2,6.8E1,4.2495627E0,-1.8859819E0,1.3887865E1,3.9826494E-1,-2.3690457E0,-8.672545E0,9.2893095E0,-5.264162E-2],"split_indices":[20,9,6,18,0,0,5,0,0,0,0,0,0,0,0],"split_type":[0,0,0,0,0,0,0,0,0,0,0,0,0,0,0],"sum_hessian":[2.49E2,9.1E1,1.58E2,6.7E1,2.4E1,4.8E1,1.1E2,2.5E1,4.2E1,1.4E1,1E1,4.2E1,6E0,7E0,1.03E2],"tree_param":{"num_deleted":"0","num_feature":"30","num_nodes":"15","size_leaf_vector":"1"}},{"base_weights":[5.233225E0,-1.5428927E1,2.6186434E1,-6.886908E0,-1.851215E1,4.4995598E1,-5.8366657E1,-1.0083656E1,-2.813103E-1,1.5124263E1,2.9148853E0,-1.1168913E1,5.557411E0],"categories":[],"categories_nodes":[],"categories_segments":[],"categories_sizes":[],"default_left":[0,0,0,0,0,0,0,0,0,0,0,0,0],"id":27,"left_children":[1,3,5,7,-1,9,11,-1,-1,-1,-1,-1,-1],"loss_changes":[1.0820569E5,1.8136423E5,1.998325E5,4.6026977E4,0E0,1.6732575E5,1.459459E5,0E0,0E0,0E0,0E0,0E0,0E0],"parents":[2147483647,0,0,1,1,2,2,3,3,5,5,6,6],"right_children":[2,4,6,8,-1,10,12,-1,-1,-1,-1,-1,-1],"split_conditions":[2.02E2,1.95E2,1E0,9E0,-1.851215E1,2.32E2,9.7E1,-1.0083656E1,-2.813103E-1,1.5124263E1,2.9148853E0,-1.1168913E1,5.557411E0],"split_indices":[0,0,18,0,0,0,7,0,0,0,0,0,0],"split_type":[0,0,0,0,0,0,0,0,0,0,0,0,0],"sum_hessian":[2.48E2,1.25E2,1.23E2,1.2E2,5E0,1.01E2,2.2E1,4E0,1.16E2,1.2E1,8.9E1,1.5E1,7E0],"tree_param":{"num_deleted":"0","num_feature":"30","num_nodes":"13","size_leaf_vector":"1"}},{"base_weights":[3.9044178E-1,-4.2900925E0,6.727158E1,-1.6516539E1,2.2793238E1,1.1420531E2,-6.8210406E0,-4.987683E-1,-5.2106223E0,3.8177142E-1,6.37478E0,1.462979E1,3.3597572E0],"categories":[],"categories_nodes":[],"categories_segments":[],"categories_sizes":[],"default_left":[0,0,0,0,0,0,0,0,0,0,0,0,0],"id":28,"left_children":[1,3,5,7,9,11,-1,-1,-1,-1,-1,-1,-1],"loss_changes":[8.136583E4,8.084175E4,1.1588745E5,6.867192E4,5.8818836E4,2.8714594E4,0E0,0E0,0E0,0E0,0E0,0E0,0E0],"parents":[2147483647,0,0,1,1,2,2,3,3,4,4,5,5],"right_children":[2,4,6,8,10,12,-1,-1,-1,-1,-1,-1,-1],"split_conditions":[1E0,9.84E1,9.82E1,2.9E1,2.24E2,1.79E2,-6.8210406E0,-4.987683E-1,-5.2106223E0,3.8177142E-1,6.37478E0,1.462979E1,3.3597572E0],"split_indices":[3,7,7,4,0,6,0,0,0,0,0,0,0],"split_type":[0,0,0,0,0,0,0,0,0,0,0,0,0],"sum_hessian":[2.58E2,2.42E2,1.6E1,1.67E2,7.5E1,1.2E1,4E0,1.27E2,4E1,5.2E1,2.3E1,8E0,4E0],"tree_param":{"num_deleted":"0","num_feature":"30","num_nodes":"13","size_leaf_vector":"1"}},{"base_weights":[1.1869647E1,5.732162E0,1.3874478E2,8.485871E0,-4.959022E1,2.2140938E1,8.658887E1,-7.035568E-1,2.155412E0,-1.849993E0,-6.9154735E0,4.633468E0,1.0952529E1],"categories":[],"categories_nodes":[],"categories_segments":[],"categories_sizes":[],"default_left":[0,0,0,0,0,0,0,0,0,0,0,0,0],"id":29,"left_children":[1,3,5,7,9,-1,11,-1,-1,-1,-1,-1,-1],"loss_changes":[2.0244388E5,3.850625E4,3.2565766E4,4.862993E4,6.01984E3,0E0,3.2347656E3,0E0,0E0,0E0,0E0,0E0,0E0],"parents":[2147483647,0,0,1,1,2,2,3,3,4,4,6,6],"right_children":[2,4,6,8,10,-1,12,-1,-1,-1,-1,-1,-1],"split_conditions":[1.16638E4,1E2,2.29E2,9.52E1,1.47E2,2.2140938E1,2.35E2,-7.035568E-1,2.155412E0,-1.849993E0,-6.9154735E0,4.633468E0,1.0952529E1],"split_indices":[8,7,0,7,0,0,0,0,0,0,0,0,0],"split_type":[0,0,0,0,0,0,0,0,0,0,0,0,0],"sum_hessian":[2.6E2,2.49E2,1.1E1,2.38E2,1.1E1,3E0,8E0,1.09E2,1.29E2,5E0,6E0,4E0,4E0],"tree_param":{"num_deleted":"0","num_feature":"30","num_nodes":"13","size_leaf_vector":"1"}},{"base_weights":[-8.226738E-1,3.935176E0,-4.935811E1,1.5524666E1,-6.1037407E0,-6.2050262E1,2.9615219E0,4.707224E-1,3.2006805E0,-8.6618435E-1,7.7921E0,-4.0342994E0,-8.189397E0],"categories":[],"categories_nodes":[],"categories_segments":[],"categories_sizes":[],"default_left":[0,0,0,0,0,0,0,0,0,0,0,0,0],"id":30,"left_children":[1,3,5,7,9,11,-1,-1,-1,-1,-1,-1,-1],"loss_changes":[6.208195E4,2.8599508E4,2.5893824E4,2.017492E4,2.9047531E4,5.741953E3,0E0,0E0,0E0,0E0,0E0,0E0,0E0],"parents":[2147483647,0,0,1,1,2,2,3,3,4,4,5,5],"right_children":[2,4,6,8,10,12,-1,-1,-1,-1,-1,-1,-1],"split_conditions":[3.77E2,2.5E1,4.11E2,2.24E2,3.72E2,3.98E2,2.9615219E0,4.707224E-1,3.2006805E0,-8.6618435E-1,7.7921E0,-4.0342994E0,-8.189397E0],"split_indices":[0,4,0,0,0,0,0,0,0,0,0,0,0],"split_type":[0,0,0,0,0,0,0,0,0,0,0,0,0],"sum_hessian":[2.67E2,2.44E2,2.3E1,1.13E2,1.31E2,2E1,3E0,6.9E1,4.4E1,1.28E2,3E0,1.1E1,9E0],"tree_param":{"num_deleted":"0","num_feature":"30","num_nodes":"13","size_leaf_vector":"1"}},{"base_weights":[-6.8693485E0,3.8753597E1,-1.53498535E1,2.5474714E1,1.4857513E1,-5.5296715E1,-1.1524888E1,5.687092E0,-4.2056937E0,-8.9415455E0,-1.1242927E0,-2.0561254E0,-1.4795961E-2],"categories":[],"categories_nodes":[],"categories_segments":[],"categories_sizes":[],"default_left":[0,0,0,0,0,0,0,0,0,0,0,0,0],"id":31,"left_children":[1,3,5,7,-1,9,11,-1,-1,-1,-1,-1,-1],"loss_changes":[9.616055E4,5.3089082E4,3.1296945E4,7.872036E4,0E0,2.6049785E4,1.9735723E4,0E0,0E0,0E0,0E0,0E0,0E0],"parents":[2147483647,0,0,1,1,2,2,3,3,5,5,6,6],"right_children":[2,4,6,8,-1,10,12,-1,-1,-1,-1,-1,-1],"split_conditions":[1.7E2,2.53E2,4.9E1,2.07E2,1.4857513E1,3.8E2,2.39E2,5.687092E0,-4.2056937E0,-8.9415455E0,-1.1242927E0,-2.0561254E0,-1.4795961E-2],"split_indices":[6,0,7,0,0,0,0,0,0,0,0,0,0],"split_type":[0,0,0,0,0,0,0,0,0,0,0,0,0],"sum_hessian":[2.46E2,3.8E1,2.08E2,3.5E1,3E0,1.7E1,1.91E2,2.4E1,1.1E1,9E0,8E0,1.06E2,8.5E1],"tree_param":{"num_deleted":"0","num_feature":"30","num_nodes":"13","size_leaf_vector":"1"}},{"base_weights":[-1.1049883E1,2.295796E1,-1.7568066E1,-3.7831623E-2,1.1494586E2,-2.150443E1,9.797157E1,1.1977941E0,-9.014667E0,2.0732178E1,1.8055944E0,-1.3293015E0,-5.754171E0,2.099954E1,-3.854513E0],"categories":[],"categories_nodes":[],"categories_segments":[],"categories_sizes":[],"default_left":[0,0,0,0,0,0,0,0,0,0,0,0,0,0,0],"id":32,"left_children":[1,3,5,7,9,11,13,-1,-1,-1,-1,-1,-1,-1,-1],"loss_changes":[5.4933984E4,8.461773E4,9.625172E4,3.6809773E4,6.785898E4,5.871442E4,1.1514615E5,0E0,0E0,0E0,0E0,0E0,0E0,0E0,0E0],"parents":[2147483647,0,0,1,1,2,2,3,3,4,4,5,5,6,6],"right_children":[2,4,6,8,10,12,14,-1,-1,-1,-1,-1,-1,-1,-1],"split_conditions":[5.5E1,4.1E1,1E0,3.8E1,4.6E1,1.10018E4,1E0,1.1977941E0,-9.014667E0,2.0732178E1,1.8055944E0,-1.3293015E0,-5.754171E0,2.099954E1,-3.854513E0],"split_indices":[0,0,25,0,0,8,20,0,0,0,0,0,0,0,0],"split_type":[0,0,0,0,0,0,0,0,0,0,0,0,0,0,0],"sum_hessian":[2.45E2,3.9E1,2.06E2,3.2E1,7E0,2E2,6E0,2.9E1,3E0,3E0,4E0,1.64E2,3.6E1,3E0,3E0],"tree_param":{"num_deleted":"0","num_feature":"30","num_nodes":"15","size_leaf_vector":"1"}},{"base_weights":[6.865208E0,-2.5914037E0,2.1265171E1,5.401805E0,-1.4814354E1,1.477679E1,1.4454976E1,-3.5270983E-1,1.4171145E1,2.4760156E0,-2.1333363E0],"categories":[],"categories_nodes":[],"categories_segments":[],"categories_sizes":[],"default_left":[0,0,0,0,0,0,0,0,0,0,0],"id":33,"left_children":[1,3,5,7,-1,-1,9,-1,-1,-1,-1],"loss_changes":[3.4371176E4,1.7880481E5,8.401484E4,1.781958E5,0E0,0E0,3.5933523E4,0E0,0E0,0E0,0E0],"parents":[2147483647,0,0,1,1,2,2,3,3,6,6],"right_children":[2,4,6,8,-1,-1,10,-1,-1,-1,-1],"split_conditions":[2.52E2,2.34E2,2.58E2,2.23E2,-1.4814354E1,1.477679E1,1.0033E4,-3.5270983E-1,1.4171145E1,2.4760156E0,-2.1333363E0],"split_indices":[0,0,0,0,0,0,8,0,0,0,0],"split_type":[0,0,0,0,0,0,0,0,0,0,0],"sum_hessian":[2.51E2,1.52E2,9.9E1,1.45E2,7E0,4E0,9.5E1,1.37E2,8E0,7.4E1,2.1E1],"tree_param":{"num_deleted":"0","num_feature":"30","num_nodes":"11","size_leaf_vector":"1"}},{"base_weights":[2.3254328E0,5.6133976E0,-3.7425587E1,6.1390232E1,1.695882E0,-1.2825259E1,-1.03741455E1,-7.3988757E0,1.0140071E1,3.4842625E-1,-9.351226E0,9.9222213E-1,-7.786139E0],"categories":[],"categories_nodes":[],"categories_segments":[],"categories_sizes":[],"default_left":[0,0,0,0,0,0,0,0,0,0,0,0,0],"id":34,"left_children":[1,3,5,7,9,11,-1,-1,-1,-1,-1,-1,-1],"loss_changes":[3.2492973E4,4.9933902E4,2.966594E4,8.875119E4,3.6933527E4,2.296368E4,0E0,0E0,0E0,0E0,0E0,0E0,0E0],"parents":[2147483647,0,0,1,1,2,2,3,3,4,4,5,5],"right_children":[2,4,6,8,10,12,-1,-1,-1,-1,-1,-1,-1],"split_conditions":[1E0,4.8E1,1E0,2.64E2,3.9E2,3.77E2,-1.03741455E1,-7.3988757E0,1.0140071E1,3.4842625E-1,-9.351226E0,9.9222213E-1,-7.786139E0],"split_indices":[28,12,18,0,0,0,0,0,0,0,0,0,0],"split_type":[0,0,0,0,0,0,0,0,0,0,0,0,0],"sum_hessian":[2.46E2,2.28E2,1.8E1,1.4E1,2.14E2,1.4E1,4E0,3E0,1.1E1,2.11E2,3E0,1.1E1,3E0],"tree_param":{"num_deleted":"0","num_feature":"30","num_nodes":"13","size_leaf_vector":"1"}},{"base_weights":[9.487138E0,5.0087433E0,7.722482E1,-2.312883E1,1.5135271E1,4.0136233E-1,1.0348221E2,-9.638879E-1,-2.1295092E1,1.9562657E0,-6.5747437E0,4.6560426E0,1.6247625E1],"categories":[],"categories_nodes":[],"categories_segments":[],"categories_sizes":[],"default_left":[0,0,0,0,0,0,0,0,0,0,0,0,0],"id":35,"left_children":[1,3,5,7,9,-1,11,-1,-1,-1,-1,-1,-1],"loss_changes":[7.3328734E4,6.560039E4,2.8419688E4,1.541495E5,6.180491E4,0E0,2.937354E4,0E0,0E0,0E0,0E0,0E0,0E0],"parents":[2147483647,0,0,1,1,2,2,3,3,4,4,6,6],"right_children":[2,4,6,8,10,-1,12,-1,-1,-1,-1,-1,-1],"split_conditions":[1E0,1.71E2,2.9E1,1E0,3.87E2,4.0136233E-1,1E0,-9.638879E-1,-2.1295092E1,1.9562657E0,-6.5747437E0,4.6560426E0,1.6247625E1],"split_indices":[3,6,0,2,0,0,20,0,0,0,0,0,0],"split_type":[0,0,0,0,0,0,0,0,0,0,0,0,0],"sum_hessian":[2.42E2,2.28E2,1.4E1,6E1,1.68E2,4E0,1E1,5.7E1,3E0,1.6E2,8E0,6E0,4E0],"tree_param":{"num_deleted":"0","num_feature":"30","num_nodes":"13","size_leaf_vector":"1"}},{"base_weights":[1.932189E0,-9.756316E0,4.7440724E0,1.3681463E1,-1.7603281E1,-1.2977773E0,2.0819817E0,-3.6333332E0,1.0775871E0],"categories":[],"categories_nodes":[],"categories_segments":[],"categories_sizes":[],"default_left":[0,0,0,0,0,0,0,0,0],"id":36,"left_children":[1,-1,3,5,7,-1,-1,-1,-1],"loss_changes":[7.124449E4,0E0,4.9573414E4,3.395383E4,3.813107E4,0E0,0E0,0E0,0E0],"parents":[2147483647,0,0,2,2,3,3,4,4],"right_children":[2,-1,4,6,8,-1,-1,-1,-1],"split_conditions":[9E0,-9.756316E0,1.84E2,1E0,1.81E2,-1.2977773E0,2.0819817E0,-3.6333332E0,1.0775871E0],"split_indices":[0,0,6,19,0,0,0,0,0],"split_type":[0,0,0,0,0,0,0,0,0],"sum_hessian":[2.52E2,6E0,2.46E2,1.76E2,7E1,3.7E1,1.39E2,4.2E1,2.8E1],"tree_param":{"num_deleted":"0","num_feature":"30","num_nodes":"9","size_leaf_vector":"1"}},{"base_weights":[3.57325E0,-2.8766516E1,9.959475E0,-5.9224293E1,4.652476E0,-1.3411289E1,2.0648462E1,-3.3472092E0,-1.3493692E1,6.091814E0,-3.793448E0,-6.832414E0,5.7483442E-2,5.7376842E0,1.4710549E0],"categories":[],"categories_nodes":[],"categories_segments":[],"categories_sizes":[],"default_left":[0,0,0,0,0,0,0,0,0,0,0,0,0,0,0],"id":37,"left_children":[1,3,5,7,9,11,13,-1,-1,-1,-1,-1,-1,-1,-1],"loss_changes":[5.005999E4,4.099027E4,5.0738508E4,3.6428484E4,5.0234566E4,4.919243E4,2.947046E4,0E0,0E0,0E0,0E0,0E0,0E0,0E0,0E0],"parents":[2147483647,0,0,1,1,2,2,3,3,4,4,5,5,6,6],"right_children":[2,4,6,8,10,12,14,-1,-1,-1,-1,-1,-1,-1,-1],"split_conditions":[2.3E1,1.84E2,1.71E2,1.76E2,3.5E2,2.9E1,6.2E1,-3.3472092E0,-1.3493692E1,6.091814E0,-3.793448E0,-6.832414E0,5.7483442E-2,5.7376842E0,1.4710549E0],"split_indices":[4,0,6,0,0,17,0,0,0,0,0,0,0,0,0],"split_type":[0,0,0,0,0,0,0,0,0,0,0,0,0,0,0],"sum_hessian":[2.4E2,3.9E1,2.01E2,2E1,1.9E1,6.3E1,1.38E2,1.6E1,4E0,8E0,1.1E1,1.2E1,5.1E1,1.8E1,1.2E2],"tree_param":{"num_deleted":"0","num_feature":"30","num_nodes":"15","size_leaf_vector":"1"}},{"base_weights":[-5.1206536E0,-9.668162E0,7.32024E1,4.9989557E0,-2.5923038E1,1.8171604E1,2.7088133E1,-7.5270844E-1,7.6595764E0,-1.0694163E1,-1.5342993E0,-5.4295115E0,6.439374E0],"categories":[],"categories_nodes":[],"categories_segments":[],"categories_sizes":[],"default_left":[0,0,0,0,0,0,0,0,0,0,0,0,0],"id":38,"left_children":[1,3,5,7,9,-1,11,-1,-1,-1,-1,-1,-1],"loss_changes":[9.0819945E4,5.7348508E4,6.513404E4,1.1447325E5,9.607777E4,0E0,3.689283E4,0E0,0E0,0E0,0E0,0E0,0E0],"parents":[2147483647,0,0,1,1,2,2,3,3,4,4,6,6],"right_children":[2,4,6,8,10,-1,12,-1,-1,-1,-1,-1,-1],"split_conditions":[1E0,2.32E2,4.6E1,1.97E2,2.53E2,1.8171604E1,4.9E1,-7.5270844E-1,7.6595764E0,-1.0694163E1,-1.5342993E0,-5.4295115E0,6.439374E0],"split_indices":[26,0,0,0,0,0,0,0,0,0,0,0,0],"split_type":[0,0,0,0,0,0,0,0,0,0,0,0,0],"sum_hessian":[2.52E2,2.39E2,1.3E1,1.26E2,1.13E2,3E0,1E1,1.08E2,1.8E1,1.2E1,1.01E2,3E0,7E0],"tree_param":{"num_deleted":"0","num_feature":"30","num_nodes":"13","size_leaf_vector":"1"}},{"base_weights":[-7.5083035E-1,6.291764E0,-1.6201027E1,-1.4246458E1,1.47467165E1,-4.375192E1,1.4034747E0,-1.8829851E-1,-5.633141E0,1.6636927E0,-2.6460388E0,-3.623004E-1,-1.200323E1,4.584398E0,-3.123301E0],"categories":[],"categories_nodes":[],"categories_segments":[],"categories_sizes":[],"default_left":[0,0,0,0,0,0,0,0,0,0,0,0,0,0,0],"id":39,"left_children":[1,3,5,7,9,11,13,-1,-1,-1,-1,-1,-1,-1,-1],"loss_changes":[2.85012E4,3.1467035E4,3.9833023E4,2.7470684E4,1.0410154E4,9.751869E4,7.540132E4,0E0,0E0,0E0,0E0,0E0,0E0,0E0,0E0],"parents":[2147483647,0,0,1,1,2,2,3,3,4,4,5,5,6,6],"right_children":[2,4,6,8,10,12,14,-1,-1,-1,-1,-1,-1,-1,-1],"split_conditions":[2.9E1,6.9E1,1.97E2,2.79E2,4.06E2,1.18E2,2.55E2,-1.8829851E-1,-5.633141E0,1.6636927E0,-2.6460388E0,-3.623004E-1,-1.200323E1,4.584398E0,-3.123301E0],"split_indices":[4,5,0,0,0,0,0,0,0,0,0,0,0,0,0],"split_type":[0,0,0,0,0,0,0,0,0,0,0,0,0,0,0],"sum_hessian":[2.6E2,1.79E2,8.1E1,5.2E1,1.27E2,3.1E1,5E1,4.1E1,1.1E1,1.22E2,5E0,2.1E1,1E1,2.1E1,2.9E1],"tree_param":{"num_deleted":"0","num_feature":"30","num_nodes":"15","size_leaf_vector":"1"}},{"base_weights":[2.1999564E0,-1.8684022E0,7.1505775E1,5.421177E0,-2.7052977E1,-9.717613E0,1.3182796E2,9.1094106E-1,-3.711729E0,2.2871227E0,-5.3464575E0,1.5555887E1,5.734189E0],"categories":[],"categories_nodes":[],"categories_segments":[],"categories_sizes":[],"default_left":[0,0,0,0,0,0,0,0,0,0,0,0,0],"id":40,"left_children":[1,3,5,7,9,-1,11,-1,-1,-1,-1,-1,-1],"loss_changes":[6.611245E4,4.090252E4,1.4508892E5,2.7480396E4,6.7151695E4,0E0,8.7561875E3,0E0,0E0,0E0,0E0,0E0,0E0],"parents":[2147483647,0,0,1,1,2,2,3,3,4,4,6,6],"right_children":[2,4,6,8,10,-1,12,-1,-1,-1,-1,-1,-1],"split_conditions":[1.16638E4,7.64E1,2.26E2,3.9E2,1E0,-9.717613E0,1E0,9.1094106E-1,-3.711729E0,2.2871227E0,-5.3464575E0,1.5555887E1,5.734189E0],"split_indices":[8,12,0,0,20,0,18,0,0,0,0,0,0],"split_type":[0,0,0,0,0,0,0,0,0,0,0,0,0],"sum_hessian":[2.33E2,2.21E2,1.2E1,1.72E2,4.9E1,3E0,9E0,1.59E2,1.3E1,1.7E1,3.2E1,6E0,3E0],"tree_param":{"num_deleted":"0","num_feature":"30","num_nodes":"13","size_leaf_vector":"1"}},{"base_weights":[3.864949E0,-1.3601461E1,1.830455E1,1.2857992E1,-2.4481974E1,3.798769E0,3.8441196E1,-3.3225486E-1,1.0413353E1,-1.2831458E0,-5.8209424E0,1.8792788E0,-9.059997E0,-3.3352044E0,6.5520477E0],"categories":[],"categories_nodes":[],"categories_segments":[],"categories_sizes":[],"default_left":[0,0,0,0,0,0,0,0,0,0,0,0,0,0,0],"id":41,"left_children":[1,3,5,7,9,11,13,-1,-1,-1,-1,-1,-1,-1,-1],"loss_changes":[6.178772E4,3.2270848E4,3.899508E4,4.9083277E4,3.029552E4,1.1352051E5,1.1105535E5,0E0,0E0,0E0,0E0,0E0,0E0,0E0,0E0],"parents":[2147483647,0,0,1,1,2,2,3,3,4,4,5,5,6,6],"right_children":[2,4,6,8,10,12,14,-1,-1,-1,-1,-1,-1,-1,-1],"split_conditions":[9.44E1,2.3E1,2.52E2,3.8E2,3.18E2,2.29E2,1E0,-3.3225486E-1,1.0413353E1,-1.2831458E0,-5.8209424E0,1.8792788E0,-9.059997E0,-3.3352044E0,6.5520477E0],"split_indices":[10,4,0,0,0,0,19,0,0,0,0,0,0,0,0],"split_type":[0,0,0,0,0,0,0,0,0,0,0,0,0,0,0],"sum_hessian":[2.43E2,1.1E2,1.33E2,3.2E1,7.8E1,7.8E1,5.5E1,2.8E1,4E0,5.9E1,1.9E1,6.8E1,1E1,1.5E1,4E1],"tree_param":{"num_deleted":"0","num_feature":"30","num_nodes":"15","size_leaf_vector":"1"}},{"base_weights":[3.1673021E0,-1.5960925E1,1.908454E1,-2.1036514E1,5.4554657E1,3.6050987E1,-2.820363E1,2.183974E0,-3.0435264E0,-4.42599E0,1.6443419E1,2.3237524E0,7.4586954E0,6.053141E0,-6.3310366E0],"categories":[],"categories_nodes":[],"categories_segments":[],"categories_sizes":[],"default_left":[0,0,0,0,0,0,0,0,0,0,0,0,0,0,0],"id":42,"left_children":[1,3,5,7,9,11,13,-1,-1,-1,-1,-1,-1,-1,-1],"loss_changes":[7.703068E4,4.2307082E4,1.1173586E5,4.418687E4,9.4139414E4,4.8632266E4,1.1909458E5,0E0,0E0,0E0,0E0,0E0,0E0,0E0,0E0],"parents":[2147483647,0,0,1,1,2,2,3,3,4,4,5,5,6,6],"right_children":[2,4,6,8,10,12,14,-1,-1,-1,-1,-1,-1,-1,-1],"split_conditions":[4.16E2,1E0,1E0,3.464E2,9.24E1,8.44E1,2.4E1,2.183974E0,-3.0435264E0,-4.42599E0,1.6443419E1,2.3237524E0,7.4586954E0,6.053141E0,-6.3310366E0],"split_indices":[9,3,18,9,10,11,4,0,0,0,0,0,0,0,0],"split_type":[0,0,0,0,0,0,0,0,0,0,0,0,0,0,0],"sum_hessian":[2.51E2,1.14E2,1.37E2,1.07E2,7E0,1.01E2,3.6E1,1.9E1,8.8E1,4E0,3E0,7.7E1,2.4E1,1E1,2.6E1],"tree_param":{"num_deleted":"0","num_feature":"30","num_nodes":"15","size_leaf_vector":"1"}},{"base_weights":[-2.5533223E-1,-3.9434438E0,7.322083E1,3.4100635E0,-3.8516087E1,-1.1932877E0,1.02931274E2,9.114974E-1,-2.0082138E0,-2.1813796E0,-1.917344E1,1.4882883E1,5.5177703E0],"categories":[],"categories_nodes":[],"categories_segments":[],"categories_sizes":[],"default_left":[0,0,0,0,0,0,0,0,0,0,0,0,0],"id":43,"left_children":[1,3,5,7,9,-1,11,-1,-1,-1,-1,-1,-1],"loss_changes":[6.803581E4,6.0892355E4,3.1587719E4,2.6719186E4,1.03299625E5,0E0,1.1513914E4,0E0,0E0,0E0,0E0,0E0,0E0],"parents":[2147483647,0,0,1,1,2,2,3,3,4,4,6,6],"right_children":[2,4,6,8,10,-1,12,-1,-1,-1,-1,-1,-1],"split_conditions":[1E0,6.546E2,2.1E1,1E0,1E0,-1.1932877E0,7E1,9.114974E-1,-2.0082138E0,-2.1813796E0,-1.917344E1,1.4882883E1,5.5177703E0],"split_indices":[3,9,0,18,2,0,5,0,0,0,0,0,0],"split_type":[0,0,0,0,0,0,0,0,0,0,0,0,0],"sum_hessian":[2.49E2,2.38E2,1.1E1,1.97E2,4.1E1,3E0,8E0,1.59E2,3.8E1,3.8E1,3E0,3E0,5E0],"tree_param":{"num_deleted":"0","num_feature":"30","num_nodes":"13","size_leaf_vector":"1"}},{"base_weights":[2.4343672E0,1.4514853E1,-3.485437E1,2.5593061E1,-1.2135336E1,1.8473587E1,-4.720296E1,1.1881712E1,2.1721303E0,-5.934943E0,1.0170382E-1,-9.302409E-1,7.635118E0,-8.260975E0,-3.5861742E-1],"categories":[],"categories_nodes":[],"categories_segments":[],"categories_sizes":[],"default_left":[0,0,0,0,0,0,0,0,0,0,0,0,0,0,0],"id":44,"left_children":[1,3,5,7,9,11,13,-1,-1,-1,-1,-1,-1,-1,-1],"loss_changes":[1.1041962E5,5.492931E4,4.0383523E4,4.4702414E4,3.4214117E4,2.0001543E4,7.537593E4,0E0,0E0,0E0,0E0,0E0,0E0,0E0,0E0],"parents":[2147483647,0,0,1,1,2,2,3,3,4,4,5,5,6,6],"right_children":[2,4,6,8,10,12,14,-1,-1,-1,-1,-1,-1,-1,-1],"split_conditions":[3E1,3.08E2,8.6E1,4.9E1,1E0,1E0,2.53E2,1.1881712E1,2.1721303E0,-5.934943E0,1.0170382E-1,-9.302409E-1,7.635118E0,-8.260975E0,-3.5861742E-1],"split_indices":[4,0,0,7,19,18,0,0,0,0,0,0,0,0,0],"split_type":[0,0,0,0,0,0,0,0,0,0,0,0,0,0,0],"sum_hessian":[2.43E2,1.84E2,5.9E1,1.3E2,5.4E1,1.1E1,4.8E1,4E0,1.26E2,1.1E1,4.3E1,8E0,3E0,2.6E1,2.2E1],"tree_param":{"num_deleted":"0","num_feature":"30","num_nodes":"15","size_leaf_vector":"1"}},{"base_weights":[-1.3251642E1,-2.3334879E1,6.0614862E0,-5.6214005E1,-1.8425497E1,-1.6135209E0,9.970966E0,-1.3732721E1,-8.213505E-1,-1.035678E0,-4.231781E0,-7.187591E0,2.3676491E-1],"categories":[],"categories_nodes":[],"categories_segments":[],"categories_sizes":[],"default_left":[0,0,0,0,0,0,0,0,0,0,0,0,0],"id":45,"left_children":[1,3,5,7,9,11,-1,-1,-1,-1,-1,-1,-1],"loss_changes":[4.454189E4,2.3176656E4,5.6942164E4,7.284808E4,2.500873E4,2.086994E4,0E0,0E0,0E0,0E0,0E0,0E0,0E0],"parents":[2147483647,0,0,1,1,2,2,3,3,4,4,5,5],"right_children":[2,4,6,8,10,12,-1,-1,-1,-1,-1,-1,-1],"split_conditions":[3E1,2.2E1,3.74E2,1.84E2,1E0,4E0,9.970966E0,-1.3732721E1,-8.213505E-1,-1.035678E0,-4.231781E0,-7.187591E0,2.3676491E-1],"split_indices":[17,4,0,0,18,0,0,0,0,0,0,0,0],"split_type":[0,0,0,0,0,0,0,0,0,0,0,0,0],"sum_hessian":[2.27E2,1.49E2,7.8E1,1.8E1,1.31E2,7.3E1,5E0,6E0,1.2E1,9.9E1,3.2E1,3E0,7E1],"tree_param":{"num_deleted":"0","num_feature":"30","num_nodes":"13","size_leaf_vector":"1"}},{"base_weights":[-8.869596E-1,-8.496021E0,4.6638912E1,4.3902535E0,-2.652792E1,6.587847E1,-3.4233517E1,-5.5589306E-1,1.4561734E1,-1.2627936E1,-1.3228668E0,1.2224462E0,8.062607E0,-1.4942795E0,-4.4965863E0],"categories":[],"categories_nodes":[],"categories_segments":[],"categories_sizes":[],"default_left":[0,0,0,0,0,0,0,0,0,0,0,0,0,0,0],"id":46,"left_children":[1,3,5,7,9,11,13,-1,-1,-1,-1,-1,-1,-1,-1],"loss_changes":[8.646354E4,4.7983445E4,5.36016E4,1.7082589E5,1.12418766E5,2.0378625E4,7.7732715E2,0E0,0E0,0E0,0E0,0E0,0E0,0E0,0E0],"parents":[2147483647,0,0,1,1,2,2,3,3,4,4,5,5,6,6],"right_children":[2,4,6,8,10,12,14,-1,-1,-1,-1,-1,-1,-1,-1],"split_conditions":[1E0,2.31E2,1E0,2.21E2,2.66E2,2.47E2,1.49E2,-5.5589306E-1,1.4561734E1,-1.2627936E1,-1.3228668E0,1.2224462E0,8.062607E0,-1.4942795E0,-4.4965863E0],"split_indices":[23,0,18,0,0,0,0,0,0,0,0,0,0,0,0],"split_type":[0,0,0,0,0,0,0,0,0,0,0,0,0,0,0],"sum_hessian":[2.37E2,2.05E2,3.2E1,1.2E2,8.5E1,2.6E1,6E0,1.13E2,7E0,9E0,7.6E1,6E0,2E1,3E0,3E0],"tree_param":{"num_deleted":"0","num_feature":"30","num_nodes":"15","size_leaf_vector":"1"}},{"base_weights":[4.0524664E0,4.1685425E1,-3.565979E0,2.914887E1,1.53495455E1,6.1080317E0,-3.1973143E1,9.515753E0,1.6642965E0,4.1641185E-1,7.8935714E0,-4.1355467E0,6.636825E0],"categories":[],"categories_nodes":[],"categories_segments":[],"categories_sizes":[],"default_left":[0,0,0,0,0,0,0,0,0,0,0,0,0],"id":47,"left_children":[1,3,5,7,-1,9,11,-1,-1,-1,-1,-1,-1],"loss_changes":[7.15381E4,5.4397695E4,5.735602E4,3.0610723E4,0E0,2.1756334E4,5.1646234E4,0E0,0E0,0E0,0E0,0E0,0E0],"parents":[2147483647,0,0,1,1,2,2,3,3,5,5,6,6],"right_children":[2,4,6,8,-1,10,12,-1,-1,-1,-1,-1,-1],"split_conditions":[6.62E1,3.34E2,3.08E2,1.02E2,1.53495455E1,3.01E2,8.2E1,9.515753E0,1.6642965E0,4.1641185E-1,7.8935714E0,-4.1355467E0,6.636825E0],"split_indices":[10,0,0,0,0,0,5,0,0,0,0,0,0],"split_type":[0,0,0,0,0,0,0,0,0,0,0,0,0],"sum_hessian":[2.48E2,4.1E1,2.07E2,3.8E1,3E0,1.55E2,5.2E1,5E0,3.3E1,1.52E2,3E0,4.8E1,4E0],"tree_param":{"num_deleted":"0","num_feature":"30","num_nodes":"13","size_leaf_vector":"1"}},{"base_weights":[4.9841046E0,-5.9974003E0,4.670245E1,5.1700436E1,-1.42528515E1,2.820549E1,8.655776E1,1.9609598E0,1.7614187E1,-9.283703E-1,-4.0963264E0,3.4499702E0,-3.2346694E0,9.508624E0,3.7200782E0],"categories":[],"categories_nodes":[],"categories_segments":[],"categories_sizes":[],"default_left":[0,0,0,0,0,0,0,0,0,0,0,0,0,0,0],"id":48,"left_children":[1,3,5,7,9,11,13,-1,-1,-1,-1,-1,-1,-1,-1],"loss_changes":[1.1435451E5,9.504857E4,3.589311E4,9.638167E4,2.2714375E4,1.5217701E4,3.19775E3,0E0,0E0,0E0,0E0,0E0,0E0,0E0,0E0],"parents":[2147483647,0,0,1,1,2,2,3,3,4,4,5,5,6,6],"right_children":[2,4,6,8,10,12,14,-1,-1,-1,-1,-1,-1,-1,-1],"split_conditions":[9.9E1,4.6E1,1.68E2,3.6E1,7.418E2,1.63E2,1.92E2,1.9609598E0,1.7614187E1,-9.283703E-1,-4.0963264E0,3.4499702E0,-3.2346694E0,9.508624E0,3.7200782E0],"split_indices":[7,0,0,0,9,0,0,0,0,0,0,0,0,0,0],"split_type":[0,0,0,0,0,0,0,0,0,0,0,0,0,0,0],"sum_hessian":[2.48E2,1.97E2,5.1E1,2.4E1,1.73E2,3.6E1,1.5E1,2E1,4E0,1.47E2,2.6E1,3.3E1,3E0,1.2E1,3E0],"tree_param":{"num_deleted":"0","num_feature":"30","num_nodes":"15","size_leaf_vector":"1"}},{"base_weights":[-8.803217E-1,-5.0107594E0,7.3853004E1,2.0364511E1,-1.7991598E1,1.8835493E1,2.0349393E0,2.3183827E-1,5.9973254E0,-2.4979875E0,4.061725E0,3.6522694E0,-3.2859802E0],"categories":[],"categories_nodes":[],"categories_segments":[],"categories_sizes":[],"default_left":[0,0,0,0,0,0,0,0,0,0,0,0,0],"id":49,"left_children":[1,3,5,7,9,-1,11,-1,-1,-1,-1,-1,-1],"loss_changes":[7.661436E4,7.777358E4,1.0651968E5,5.704372E4,6.490829E4,0E0,1.20311E4,0E0,0E0,0E0,0E0,0E0,0E0],"parents":[2147483647,0,0,1,1,2,2,3,3,4,4,6,6],"right_children":[2,4,6,8,10,-1,12,-1,-1,-1,-1,-1,-1],"split_conditions":[2.582E2,1E0,2.05E2,1.10018E4,1E0,1.8835493E1,1E0,2.3183827E-1,5.9973254E0,-2.4979875E0,4.061725E0,3.6522694E0,-3.2859802E0],"split_indices":[10,20,0,8,2,0,18,0,0,0,0,0,0],"split_type":[0,0,0,0,0,0,0,0,0,0,0,0,0],"sum_hessian":[2.46E2,2.34E2,1.2E1,7.9E1,1.55E2,4E0,8E0,5.5E1,2.4E1,1.39E2,1.6E1,4E0,4E0],"tree_param":{"num_deleted":"0","num_feature":"30","num_nodes":"13","size_leaf_vector":"1"}}]},"name":"gbtree"},"learner_model_param":{"base_score":"3.79029E2","boost_from_average":"1","num_class":"0","num_feature":"30","num_target":"1"},"objective":{"name":"reg:squarederror","reg_loss_param":{"scale_pos_weight":"1"}}},"version":[2,1,0]}