{"learner":{"attributes":{"scikit_learn":"{\"_estimator_type\": \"regressor\"}"},"feature_names":["Unnamed: 0","jugador_anonimizado","gol","asistencia","edad","peso","altura","minutos_predictor","avg_dist_sess_m_predictor","zona_4_19.9_25.1_kmh_predictor","zona_5_mas_25.1_kmh_predictor","num_aceleraciones_intensas_predictor","num_desaceleraciones_intensas_predictor","num_acel_desintensas_predictor","num_sprints_total_predictor","gol_predictor","asistencia_predictor","max_vel_kmh_predictor","torneo_Libertadores","torneo_Torneo Local","categoria_partido_Normal","posicion_habitual_Delantero","posicion_habitual_Extremo","posicion_habitual_Lateral","posicion_habitual_Lateral ","posicion_habitual_Lateral / Volante","posicion_habitual_Volante / Extremo","posicion_habitual_Volante Central","posicion_habitual_Volante Ofensivo","posicion_habitual_Volante Ofensivo / Extremo"],"feature_types":["int","int","int","int","int","int","int","float","float","float","float","float","float","float","float","float","float","float","i","i","i","i","i","i","i","i","i","i","i","i"],"gradient_booster":{"model":{"gbtree_model_param":{"num_parallel_tree":"1","num_trees":"50"},"iteration_indptr":[0,1,2,3,4,5,6,7,8,9,10,11,12,13,14,15,16,17,18,19,20,21,22,23,24,25,26,27,28,29,30,31,32,33,34,35,36,37,38,39,40,41,42,43,44,45,46,47,48,49,50],"tree_info":[0,0,0,0,0,0,0,0,0,0,0,0,0,0,0,0,0,0,0,0,0,0,0,0,0,0,0,0,0,0,0,0,0,0,0,0,0,0,0,0,0,0,0,0,0,0,0,0,0,0],"trees":[{"base_weights":[5.453356E1,-2.0037435E3,1.307622E3,-2.7610022E3,-8.4560284E2,1.182726E2,2.1337097E3,-2.927501E2,-4.43916E1,-2.5483708E2,-5.2024372E1,-6.410235E1,7.47734E1,2.3453154E2,-3.813144E1],"categories":[],"categories_nodes":[],"categories_segments":[],"categories_sizes":[],"default_left":[0,0,0,0,0,0,0,0,0,0,0,0,0,0,0],"id":0,"left_children":[1,3,5,7,9,11,13,-1,-1,-1,-1,-1,-1,-1,-1],"loss_changes":[6.474209E8,8.098141E7,1.5301874E8,2.0690592E7,2.028066E7,3.1545908E7,4.985613E7,0E0,0E0,0E0,0E0,0E0,0E0,0E0,0E0],"parents":[2147483647,0,0,1,1,2,2,3,3,4,4,5,5,6,6],"right_children":[2,4,6,8,10,12,14,-1,-1,-1,-1,-1,-1,-1,-1],"split_conditions":[9.5536E3,6.74E1,9.74E1,1E0,7.9E1,2.9E1,3.9E2,-2.927501E2,-4.43916E1,-2.5483708E2,-5.2024372E1,-6.410235E1,7.47734E1,2.3453154E2,-3.813144E1],"split_indices":[8,7,7,3,0,17,0,0,0,0,0,0,0,0,0],"split_type":[0,0,0,0,0,0,0,0,0,0,0,0,0,0,0],"sum_hessian":[2.49E2,9.4E1,1.55E2,5.6E1,3.8E1,6.4E1,9.1E1,5.2E1,4E0,5E0,3.3E1,2.9E1,3.5E1,8.4E1,7E0],"tree_param":{"num_deleted":"0","num_feature":"30","num_nodes":"15","size_leaf_vector":"1"}},{"base_weights":[3.0284779E1,-2.4407034E3,7.25486E2,-2.6822798E3,-8.811072E2,-1.08958405E2,1.6971655E3,-3.8356723E2,-2.191269E2,-1.15169655E2,-4.342965E1,-1.160453E2,8.8815186E1,1.8161436E2,-1.3743852E2],"categories":[],"categories_nodes":[],"categories_segments":[],"categories_sizes":[],"default_left":[0,0,0,0,0,0,0,0,0,0,0,0,0,0,0],"id":1,"left_children":[1,3,5,7,9,11,13,-1,-1,-1,-1,-1,-1,-1,-1],"loss_changes":[4.3810058E8,1.8735264E7,1.6153664E8,1.877872E7,5.879415E5,1.1426392E8,3.61172E7,0E0,0E0,0E0,0E0,0E0,0E0,0E0,0E0],"parents":[2147483647,0,0,1,1,2,2,3,3,4,4,5,5,6,6],"right_children":[2,4,6,8,10,12,14,-1,-1,-1,-1,-1,-1,-1,-1],"split_conditions":[7.88E1,6.74E1,9.82E1,4.06E1,3.29E2,5.74E2,3.93E2,-3.8356723E2,-2.191269E2,-1.15169655E2,-4.342965E1,-1.160453E2,8.8815186E1,1.8161436E2,-1.3743852E2],"split_indices":[7,7,7,11,0,9,0,0,0,0,0,0,0,0,0],"split_type":[0,0,0,0,0,0,0,0,0,0,0,0,0,0,0],"sum_hessian":[2.53E2,5.5E1,1.98E2,4.7E1,8E0,1.07E2,9.1E1,1.2E1,3.5E1,4E0,4E0,5.2E1,5.5E1,8.8E1,3E0],"tree_param":{"num_deleted":"0","num_feature":"30","num_nodes":"15","size_leaf_vector":"1"}},{"base_weights":[-2.9517786E2,-2.6903357E3,3.960727E2,-4.2042535E2,-2.3431953E3,-4.5341635E2,1.5552975E3,-3.628482E2,-1.6879681E2,-1.10073074E2,5.572835E1,1.13591896E2,2.1308809E2],"categories":[],"categories_nodes":[],"categories_segments":[],"categories_sizes":[],"default_left":[0,0,0,0,0,0,0,0,0,0,0,0,0],"id":2,"left_children":[1,3,5,-1,7,9,11,-1,-1,-1,-1,-1,-1],"loss_changes":[4.067008E8,1.9053408E7,1.8879222E8,0E0,3.3456512E7,7.323412E7,1.7131872E7,0E0,0E0,0E0,0E0,0E0,0E0],"parents":[2147483647,0,0,1,1,2,2,4,4,5,5,6,6],"right_children":[2,4,6,-1,8,10,12,-1,-1,-1,-1,-1,-1],"split_conditions":[1.03E2,1E0,9.82E1,-4.2042535E2,4.9E1,5.74E2,2.5E1,-3.628482E2,-1.6879681E2,-1.10073074E2,5.572835E1,1.13591896E2,2.1308809E2],"split_indices":[13,19,7,0,7,9,4,0,0,0,0,0,0],"split_type":[0,0,0,0,0,0,0,0,0,0,0,0,0],"sum_hessian":[2.44E2,5.4E1,1.9E2,8E0,4.6E1,1.1E2,8E1,1.4E1,3.2E1,6.7E1,4.3E1,4.8E1,3.2E1],"tree_param":{"num_deleted":"0","num_feature":"30","num_nodes":"13","size_leaf_vector":"1"}},{"base_weights":[-2.5740378E2,-2.1506172E3,4.9704138E2,-1.3917386E3,-2.5162988E3,1.1047189E3,-1.09393005E2,-7.0430756E1,-2.5355821E2,-2.725104E2,-6.700792E1,1.3780096E2,-2.1121521E1,-3.0239725E1,8.629211E1],"categories":[],"categories_nodes":[],"categories_segments":[],"categories_sizes":[],"default_left":[0,0,0,0,0,0,0,0,0,0,0,0,0,0,0],"id":3,"left_children":[1,3,5,7,9,11,13,-1,-1,-1,-1,-1,-1,-1,-1],"loss_changes":[3.5100877E8,1.592352E7,6.497975E7,1.7872008E7,1.5907008E7,3.1938728E7,1.6962752E7,0E0,0E0,0E0,0E0,0E0,0E0,0E0,0E0],"parents":[2147483647,0,0,1,1,2,2,3,3,4,4,5,5,6,6],"right_children":[2,4,6,8,10,12,14,-1,-1,-1,-1,-1,-1,-1,-1],"split_conditions":[8.66E1,7.92E1,5.2E0,3.3E2,1E0,2.92E2,3.45E2,-7.0430756E1,-2.5355821E2,-2.725104E2,-6.700792E1,1.3780096E2,-2.1121521E1,-3.0239725E1,8.629211E1],"split_indices":[7,10,14,0,3,0,0,0,0,0,0,0,0,0,0],"split_type":[0,0,0,0,0,0,0,0,0,0,0,0,0,0,0],"sum_hessian":[2.44E2,6.9E1,1.75E2,2.4E1,4.5E1,8.7E1,8.8E1,1.6E1,8E0,4E1,5E0,7.2E1,1.5E1,7.4E1,1.4E1],"tree_param":{"num_deleted":"0","num_feature":"30","num_nodes":"15","size_leaf_vector":"1"}},{"base_weights":[3.1056534E1,-7.9144165E2,1.483223E3,-1.497322E3,3.0076068E2,1.6251598E3,4.7383496E2,-2.5353514E2,-1.17615746E2,5.636744E-1,2.1692528E2,1.18909546E2,2.1233707E2,1.155122E2,-1.3478413E2],"categories":[],"categories_nodes":[],"categories_segments":[],"categories_sizes":[],"default_left":[0,0,0,0,0,0,0,0,0,0,0,0,0,0,0],"id":4,"left_children":[1,3,5,7,9,11,13,-1,-1,-1,-1,-1,-1,-1,-1],"loss_changes":[3.105246E8,1.2843038E8,1.2697264E7,3.0689216E7,3.63826E7,1.528976E7,1.7691018E7,0E0,0E0,0E0,0E0,0E0,0E0,0E0,0E0],"parents":[2147483647,0,0,1,1,2,2,3,3,4,4,5,5,6,6],"right_children":[2,4,6,8,10,12,14,-1,-1,-1,-1,-1,-1,-1,-1],"split_conditions":[9.82E1,1.322E2,3.2E1,1E0,1E0,2.24E2,3.96E2,-2.5353514E2,-1.17615746E2,5.636744E-1,2.1692528E2,1.18909546E2,2.1233707E2,1.155122E2,-1.3478413E2],"split_indices":[7,13,4,19,3,0,0,0,0,0,0,0,0,0,0],"split_type":[0,0,0,0,0,0,0,0,0,0,0,0,0,0,0],"sum_hessian":[2.58E2,1.65E2,9.3E1,1E2,6.5E1,8.1E1,1.2E1,2.2E1,7.8E1,5.7E1,8E0,4.5E1,3.6E1,9E0,3E0],"tree_param":{"num_deleted":"0","num_feature":"30","num_nodes":"15","size_leaf_vector":"1"}},{"base_weights":[1.7499417E2,-1.9077024E3,6.8540607E2,-8.661083E1,-2.0967744E3,2.4067775E2,1.3625117E3,-1.7904878E2,-3.122978E2,3.9268078E1,-1.6834276E2,1.5836499E2,-7.2998024E1],"categories":[],"categories_nodes":[],"categories_segments":[],"categories_sizes":[],"default_left":[0,0,0,0,0,0,0,0,0,0,0,0,0],"id":5,"left_children":[1,3,5,-1,7,9,11,-1,-1,-1,-1,-1,-1],"loss_changes":[2.9151562E8,8.818528E6,6.592023E7,0E0,8.552416E6,3.9852E7,4.1413536E7,0E0,0E0,0E0,0E0,0E0,0E0],"parents":[2147483647,0,0,1,1,2,2,4,4,5,5,6,6],"right_children":[2,4,6,-1,8,10,12,-1,-1,-1,-1,-1,-1],"split_conditions":[6.74E1,3.8E1,1.0662E4,-8.661083E1,1E0,1.01306E4,2.92E2,-1.7904878E2,-3.122978E2,3.9268078E1,-1.6834276E2,1.5836499E2,-7.2998024E1],"split_indices":[7,0,8,0,18,8,0,0,0,0,0,0,0],"split_type":[0,0,0,0,0,0,0,0,0,0,0,0,0],"sum_hessian":[2.72E2,5.3E1,2.19E2,9E0,4.4E1,1.33E2,8.6E1,3.6E1,8E0,1.24E2,9E0,7.8E1,8E0],"tree_param":{"num_deleted":"0","num_feature":"30","num_nodes":"13","size_leaf_vector":"1"}},{"base_weights":[-2.0359055E2,-1.1441418E3,7.1584735E2,-3.5992816E2,-1.8369584E3,8.758671E2,-2.577185E2,-6.641207E1,1.0001783E2,-2.4651624E2,-9.412259E1,1.6483878E2,4.9309956E1],"categories":[],"categories_nodes":[],"categories_segments":[],"categories_sizes":[],"default_left":[0,0,0,0,0,0,0,0,0,0,0,0,0],"id":6,"left_children":[1,3,5,7,9,11,-1,-1,-1,-1,-1,-1,-1],"loss_changes":[2.1182501E8,6.5080096E7,6.759909E7,2.4660828E7,3.3692704E7,3.4374984E7,0E0,0E0,0E0,0E0,0E0,0E0,0E0],"parents":[2147483647,0,0,1,1,2,2,3,3,4,4,5,5],"right_children":[2,4,6,8,10,12,-1,-1,-1,-1,-1,-1,-1],"split_conditions":[9.7E1,6E0,3.92E2,3.35E2,2.9E1,1E0,-2.577185E2,-6.641207E1,1.0001783E2,-2.4651624E2,-9.412259E1,1.6483878E2,4.9309956E1],"split_indices":[7,14,0,0,17,20,0,0,0,0,0,0,0],"split_type":[0,0,0,0,0,0,0,0,0,0,0,0,0],"sum_hessian":[2.43E2,1.2E2,1.23E2,5.7E1,6.3E1,1.18E2,5E0,4.7E1,1E1,3.6E1,2.7E1,3.8E1,8E1],"tree_param":{"num_deleted":"0","num_feature":"30","num_nodes":"13","size_leaf_vector":"1"}},{"base_weights":[2.6546045E2,-7.4153784E2,8.182667E2,-3.809456E2,-1.728362E3,3.5637027E2,1.2420199E3,-6.782969E1,2.7437601E1,1.4732793E1,-2.1309984E2,-8.940582E1,4.941854E1,4.6890053E1,1.4838503E2],"categories":[],"categories_nodes":[],"categories_segments":[],"categories_sizes":[],"default_left":[0,0,0,0,0,0,0,0,0,0,0,0,0,0,0],"id":7,"left_children":[1,3,5,7,9,11,13,-1,-1,-1,-1,-1,-1,-1,-1],"loss_changes":[1.3643546E8,3.0299768E7,3.0482736E7,1.2852056E7,1.7684032E7,1.3711081E7,1.463524E7,0E0,0E0,0E0,0E0,0E0,0E0,0E0,0E0],"parents":[2147483647,0,0,1,1,2,2,3,3,4,4,5,5,6,6],"right_children":[2,4,6,8,10,12,14,-1,-1,-1,-1,-1,-1,-1,-1],"split_conditions":[9.5536E3,3.56E2,1.0662E4,1.85E2,2.1E1,9E0,2.4E1,-6.782969E1,2.7437601E1,1.4732793E1,-2.1309984E2,-8.940582E1,4.941854E1,4.6890053E1,1.4838503E2],"split_indices":[8,0,8,6,4,0,4,0,0,0,0,0,0,0,0],"split_type":[0,0,0,0,0,0,0,0,0,0,0,0,0,0,0],"sum_hessian":[2.43E2,8.6E1,1.57E2,6.4E1,2.2E1,7.6E1,8.1E1,4.4E1,2E1,4E0,1.8E1,7E0,6.9E1,2E1,6.1E1],"tree_param":{"num_deleted":"0","num_feature":"30","num_nodes":"15","size_leaf_vector":"1"}},{"base_weights":[7.944245E1,-1.3953439E3,4.8125568E2,-2.7192694E2,-8.639883E2,8.314446E1,1.161814E3,-1.0872283E2,1.4169785E2,-4.079378E0,1.3825711E2,2.2730993E1,1.3605014E2],"categories":[],"categories_nodes":[],"categories_segments":[],"categories_sizes":[],"default_left":[0,0,0,0,0,0,0,0,0,0,0,0,0],"id":8,"left_children":[1,3,5,-1,7,9,11,-1,-1,-1,-1,-1,-1],"loss_changes":[1.4941128E8,3.563823E7,5.3549104E7,0E0,2.1908694E7,2.0348532E7,1.324496E7,0E0,0E0,0E0,0E0,0E0,0E0],"parents":[2147483647,0,0,1,1,2,2,4,4,5,5,6,6],"right_children":[2,4,6,-1,8,10,12,-1,-1,-1,-1,-1,-1],"split_conditions":[7.88E1,4.9E1,9.84E1,-2.7192694E2,1E0,1E0,2.2E1,-1.0872283E2,1.4169785E2,-4.079378E0,1.3825711E2,2.2730993E1,1.3605014E2],"split_indices":[7,7,7,0,3,3,4,0,0,0,0,0,0],"split_type":[0,0,0,0,0,0,0,0,0,0,0,0,0],"sum_hessian":[2.5E2,5.3E1,1.97E2,1.4E1,3.9E1,1.25E2,7.2E1,3.6E1,3E0,1.15E2,1E1,1.3E1,5.9E1],"tree_param":{"num_deleted":"0","num_feature":"30","num_nodes":"13","size_leaf_vector":"1"}},{"base_weights":[-7.3546326E1,-8.928118E2,4.195646E2,-1.2299236E3,-5.2896265E2,8.645321E2,-1.20390144E2,-9.525875E1,-2.6786172E2,-7.742126E1,4.3135845E1,2.1780437E2,7.889941E1,3.9295406E1,-7.078656E1],"categories":[],"categories_nodes":[],"categories_segments":[],"categories_sizes":[],"default_left":[0,0,0,0,0,0,0,0,0,0,0,0,0,0,0],"id":9,"left_children":[1,3,5,7,9,11,13,-1,-1,-1,-1,-1,-1,-1,-1],"loss_changes":[9.894786E7,1.0633936E7,3.6864212E7,1.6331808E7,1.1167825E7,6.616024E6,2.1388556E7,0E0,0E0,0E0,0E0,0E0,0E0,0E0,0E0],"parents":[2147483647,0,0,1,1,2,2,3,3,4,4,5,5,6,6],"right_children":[2,4,6,8,10,12,14,-1,-1,-1,-1,-1,-1,-1,-1],"split_conditions":[8.8036E3,9.06E1,5.2E0,1E0,1E0,4.6E1,2.32E2,-9.525875E1,-2.6786172E2,-7.742126E1,4.3135845E1,2.1780437E2,7.889941E1,3.9295406E1,-7.078656E1],"split_indices":[8,13,14,18,18,0,0,0,0,0,0,0,0,0,0],"split_type":[0,0,0,0,0,0,0,0,0,0,0,0,0,0,0],"sum_hessian":[2.43E2,9.1E1,1.52E2,4.6E1,4.5E1,8.3E1,6.9E1,4E1,6E0,3.6E1,9E0,3E0,8E1,3.7E1,3.2E1],"tree_param":{"num_deleted":"0","num_feature":"30","num_nodes":"15","size_leaf_vector":"1"}},{"base_weights":[-2.5242579E1,-4.720533E2,7.698759E2,-1.662379E2,-1.3928229E3,8.8904224E2,-1.5529256E2,-3.0100195E1,3.2091583E2,-9.395912E1,-3.5247543E2,1.4464703E2,7.775931E1],"categories":[],"categories_nodes":[],"categories_segments":[],"categories_sizes":[],"default_left":[0,0,0,0,0,0,0,0,0,0,0,0,0],"id":10,"left_children":[1,3,5,7,9,11,-1,-1,-1,-1,-1,-1,-1],"loss_changes":[9.379877E7,4.7356412E7,2.7676576E7,5.9190864E7,3.727105E7,4.5286E6,0E0,0E0,0E0,0E0,0E0,0E0,0E0],"parents":[2147483647,0,0,1,1,2,2,3,3,4,4,5,5],"right_children":[2,4,6,8,10,12,-1,-1,-1,-1,-1,-1,-1],"split_conditions":[9.82E1,3.21E2,3.93E2,3.14E2,7.5E1,1.36E2,-1.5529256E2,-3.0100195E1,3.2091583E2,-9.395912E1,-3.5247543E2,1.4464703E2,7.775931E1],"split_indices":[7,0,0,0,5,0,0,0,0,0,0,0,0],"split_type":[0,0,0,0,0,0,0,0,0,0,0,0,0],"sum_hessian":[2.62E2,1.68E2,9.4E1,1.27E2,4.1E1,9E1,4E0,1.23E2,4E0,3.5E1,6E0,1.3E1,7.7E1],"tree_param":{"num_deleted":"0","num_feature":"30","num_nodes":"13","size_leaf_vector":"1"}},{"base_weights":[-1.1921393E1,-9.9370233E2,3.3270328E2,-1.9547523E3,-6.670487E2,-3.9661255E2,6.3105164E2,7.555347E0,-2.3658504E2,-8.22935E1,3.7113594E1,8.115931E0,-2.8413647E2,7.078799E1,-1.01761246E2],"categories":[],"categories_nodes":[],"categories_segments":[],"categories_sizes":[],"default_left":[0,0,0,0,0,0,0,0,0,0,0,0,0,0,0],"id":11,"left_children":[1,3,5,7,9,11,13,-1,-1,-1,-1,-1,-1,-1,-1],"loss_changes":[9.5067464E7,2.1613016E7,4.550904E7,1.5202536E7,9.36839E6,7.1480664E7,1.9466588E7,0E0,0E0,0E0,0E0,0E0,0E0,0E0,0E0],"parents":[2147483647,0,0,1,1,2,2,3,3,4,4,5,5,6,6],"right_children":[2,4,6,8,10,12,14,-1,-1,-1,-1,-1,-1,-1,-1],"split_conditions":[8.36E3,4.06E1,6.7E1,3.06E2,3.74E2,2.5E2,3.93E2,7.555347E0,-2.3658504E2,-8.22935E1,3.7113594E1,8.115931E0,-2.8413647E2,7.078799E1,-1.01761246E2],"split_indices":[8,11,5,0,0,0,0,0,0,0,0,0,0,0,0],"split_type":[0,0,0,0,0,0,0,0,0,0,0,0,0,0,0],"sum_hessian":[2.79E2,7.2E1,2.07E2,1.7E1,5.5E1,6E1,1.47E2,3E0,1.4E1,4.8E1,7E0,5.1E1,9E0,1.41E2,6E0],"tree_param":{"num_deleted":"0","num_feature":"30","num_nodes":"15","size_leaf_vector":"1"}},{"base_weights":[-9.958453E1,-1.3325181E3,2.106578E2,-1.6143252E3,-3.845954E2,4.6203207E2,-3.1813477E2,-1.3379172E2,-2.518167E2,-8.645818E1,-7.520345E0,9.057723E1,2.0754848E1,2.1428747E1,-4.927956E1],"categories":[],"categories_nodes":[],"categories_segments":[],"categories_sizes":[],"default_left":[0,0,0,0,0,0,0,0,0,0,0,0,0,0,0],"id":12,"left_children":[1,3,5,7,9,11,13,-1,-1,-1,-1,-1,-1,-1,-1],"loss_changes":[9.705527E7,1.300284E7,2.7130732E7,6.37424E6,1.8655316E6,1.5395604E7,6.2431595E6,0E0,0E0,0E0,0E0,0E0,0E0,0E0,0E0],"parents":[2147483647,0,0,1,1,2,2,3,3,4,4,5,5,6,6],"right_children":[2,4,6,8,10,12,14,-1,-1,-1,-1,-1,-1,-1,-1],"split_conditions":[6.74E1,5E1,3E1,1E0,1E0,1E0,9.46E1,-1.3379172E2,-2.518167E2,-8.645818E1,-7.520345E0,9.057723E1,2.0754848E1,2.1428747E1,-4.927956E1],"split_indices":[7,12,4,18,20,20,7,0,0,0,0,0,0,0,0],"split_type":[0,0,0,0,0,0,0,0,0,0,0,0,0,0,0],"sum_hessian":[2.52E2,5E1,2.02E2,3.8E1,1.2E1,1.37E2,6.5E1,3.1E1,7E0,4E0,8E0,4.9E1,8.8E1,1.6E1,4.9E1],"tree_param":{"num_deleted":"0","num_feature":"30","num_nodes":"15","size_leaf_vector":"1"}},{"base_weights":[1.3116356E2,-4.4756052E2,6.793494E2,-8.039006E2,7.62022E2,4.2444595E2,9.4469446E2,-1.6036504E2,-3.5484543E1,1.2692748E2,3.0541828E1,5.9517067E1,-1.50169525E1,1.1335796E2,-1.8864622E1],"categories":[],"categories_nodes":[],"categories_segments":[],"categories_sizes":[],"default_left":[0,0,0,0,0,0,0,0,0,0,0,0,0,0,0],"id":13,"left_children":[1,3,5,7,9,11,13,-1,-1,-1,-1,-1,-1,-1,-1],"loss_changes":[7.295393E7,4.888713E7,7.58024E6,3.0675412E7,5.63429E6,6.171643E6,1.2415908E7,0E0,0E0,0E0,0E0,0E0,0E0,0E0,0E0],"parents":[2147483647,0,0,1,1,2,2,3,3,4,4,5,5,6,6],"right_children":[2,4,6,8,10,12,14,-1,-1,-1,-1,-1,-1,-1,-1],"split_conditions":[9.7E1,1.322E2,2.5E1,7E1,4E0,7.9E1,1E0,-1.6036504E2,-3.5484543E1,1.2692748E2,3.0541828E1,5.9517067E1,-1.50169525E1,1.1335796E2,-1.8864622E1],"split_indices":[7,13,4,5,1,5,2,0,0,0,0,0,0,0,0],"split_type":[0,0,0,0,0,0,0,0,0,0,0,0,0,0,0],"sum_hessian":[2.28E2,1.11E2,1.17E2,8.6E1,2.5E1,6.1E1,5.6E1,3E1,5.6E1,1.1E1,1.4E1,4.7E1,1.4E1,4.8E1,8E0],"tree_param":{"num_deleted":"0","num_feature":"30","num_nodes":"15","size_leaf_vector":"1"}},{"base_weights":[6.428672E1,-8.235235E2,4.8328735E2,-4.3285778E1,-1.1153397E3,1.1226858E3,1.0975664E2,-8.819232E1,1.0512715E2,-1.5450696E2,-2.6457235E1,1.2606417E2,6.839166E0,1.3110628E2,-1.2356109E1],"categories":[],"categories_nodes":[],"categories_segments":[],"categories_sizes":[],"default_left":[0,0,0,0,0,0,0,0,0,0,0,0,0,0,0],"id":14,"left_children":[1,3,5,7,9,11,13,-1,-1,-1,-1,-1,-1,-1,-1],"loss_changes":[8.930433E7,1.7483552E7,3.8806876E7,2.1121746E7,2.0064824E7,8.64056E6,2.9311742E7,0E0,0E0,0E0,0E0,0E0,0E0,0E0,0E0],"parents":[2147483647,0,0,1,1,2,2,3,3,4,4,5,5,6,6],"right_children":[2,4,6,8,10,12,14,-1,-1,-1,-1,-1,-1,-1,-1],"split_conditions":[6.14E1,1.05E2,1E0,9.4E1,2.9E1,3.37E2,6.4E1,-8.819232E1,1.0512715E2,-1.5450696E2,-2.6457235E1,1.2606417E2,6.839166E0,1.3110628E2,-1.2356109E1],"split_indices":[12,0,20,0,17,0,12,0,0,0,0,0,0,0,0],"split_type":[0,0,0,0,0,0,0,0,0,0,0,0,0,0,0],"sum_hessian":[2.38E2,7.6E1,1.62E2,2.1E1,5.5E1,5.9E1,1.03E2,1.2E1,9E0,3.6E1,1.9E1,5.2E1,7E0,1.6E1,8.7E1],"tree_param":{"num_deleted":"0","num_feature":"30","num_nodes":"15","size_leaf_vector":"1"}},{"base_weights":[6.080575E1,-3.4163647E1,1.4749617E3,-4.5704315E2,3.295854E2,2.072665E3,6.9288806E2,-8.067181E1,9.993818E0,-5.6973194E1,5.697173E1,1.041569E2,2.843369E2,3.7488243E1,9.171731E1],"categories":[],"categories_nodes":[],"categories_segments":[],"categories_sizes":[],"default_left":[0,0,0,0,0,0,0,0,0,0,0,0,0,0,0],"id":15,"left_children":[1,3,5,7,9,11,13,-1,-1,-1,-1,-1,-1,-1,-1],"loss_changes":[3.2014156E7,3.4606764E7,5.5756E6,2.0335906E7,2.645512E7,3.395792E6,2.26759E5,0E0,0E0,0E0,0E0,0E0,0E0,0E0,0E0],"parents":[2147483647,0,0,1,1,2,2,3,3,4,4,5,5,6,6],"right_children":[2,4,6,8,10,12,14,-1,-1,-1,-1,-1,-1,-1,-1],"split_conditions":[1E0,2.9E1,9.52E1,1.82E2,8.1E1,1E0,1.87E2,-8.067181E1,9.993818E0,-5.6973194E1,5.697173E1,1.041569E2,2.843369E2,3.7488243E1,9.171731E1],"split_indices":[3,17,7,6,0,20,6,0,0,0,0,0,0,0,0],"split_type":[0,0,0,0,0,0,0,0,0,0,0,0,0,0,0],"sum_hessian":[2.37E2,2.23E2,1.4E1,1.03E2,1.2E2,7E0,7E0,6.3E1,4E1,2.5E1,9.5E1,4E0,3E0,4E0,3E0],"tree_param":{"num_deleted":"0","num_feature":"30","num_nodes":"15","size_leaf_vector":"1"}},{"base_weights":[-4.137202E1,-3.8683398E2,5.3735095E2,-5.215664E2,9.9774506E2,1.4610533E3,-1.3971834E2,-1.17317314E2,-2.1389769E1,4.227947E1,1.2701847E2,1.6402962E2,7.772196E1,-2.2495059E2,7.405479E0],"categories":[],"categories_nodes":[],"categories_segments":[],"categories_sizes":[],"default_left":[0,0,0,0,0,0,0,0,0,0,0,0,0,0,0],"id":16,"left_children":[1,3,5,7,9,11,13,-1,-1,-1,-1,-1,-1,-1,-1],"loss_changes":[4.918993E7,2.9248738E7,5.7741896E7,2.8016596E7,1.655923E6,3.505456E6,2.4521442E7,0E0,0E0,0E0,0E0,0E0,0E0,0E0,0E0],"parents":[2147483647,0,0,1,1,2,2,3,3,4,4,5,5,6,6],"right_children":[2,4,6,8,10,12,14,-1,-1,-1,-1,-1,-1,-1,-1],"split_conditions":[5.74E2,3.4E1,1E0,1E0,1E0,7.2E1,9E0,-1.17317314E2,-2.1389769E1,4.227947E1,1.2701847E2,1.6402962E2,7.772196E1,-2.2495059E2,7.405479E0],"split_indices":[9,4,20,20,20,5,0,0,0,0,0,0,0,0,0],"split_type":[0,0,0,0,0,0,0,0,0,0,0,0,0,0,0],"sum_hessian":[2.44E2,1.53E2,9.1E1,1.4E2,1.3E1,3.8E1,5.3E1,4.4E1,9.6E1,5E0,8E0,2.9E1,9E0,4E0,4.9E1],"tree_param":{"num_deleted":"0","num_feature":"30","num_nodes":"15","size_leaf_vector":"1"}},{"base_weights":[-3.902696E1,1.2163751E3,-1.9045703E2,1.6960333E2,1.9029161E2,-1.9942632E2,-1.2669037E2,-4.2690807E1,4.4665863E1,1.2374641E1,-5.9713276E1],"categories":[],"categories_nodes":[],"categories_segments":[],"categories_sizes":[],"default_left":[0,0,0,0,0,0,0,0,0,0,0],"id":17,"left_children":[1,3,5,7,-1,-1,9,-1,-1,-1,-1],"loss_changes":[4.4146064E7,1.7643556E7,2.3557042E7,2.0086152E6,0E0,0E0,2.3754924E7,0E0,0E0,0E0,0E0],"parents":[2147483647,0,0,1,1,2,2,3,3,6,6],"right_children":[2,4,6,8,-1,-1,10,-1,-1,-1,-1],"split_conditions":[5.76E1,7.88E1,9E0,3.26E2,1.9029161E2,-1.9942632E2,1.79E2,-4.2690807E1,4.4665863E1,1.2374641E1,-5.9713276E1],"split_indices":[10,7,0,0,0,0,6,0,0,0,0],"split_type":[0,0,0,0,0,0,0,0,0,0,0],"sum_hessian":[2.3E2,2.4E1,2.06E2,1E1,1.4E1,6E0,2E2,3E0,7E0,1.31E2,6.9E1],"tree_param":{"num_deleted":"0","num_feature":"30","num_nodes":"11","size_leaf_vector":"1"}},{"base_weights":[-4.090771E1,3.201689E2,-5.243413E2,2.191977E2,2.1207613E2,-1.1662053E2,-2.1493933E3,-6.792131E0,8.761596E1,-3.3656772E2,9.587173E0,-2.8739566E2,-3.9321095E1],"categories":[],"categories_nodes":[],"categories_segments":[],"categories_sizes":[],"default_left":[0,0,0,0,0,0,0,0,0,0,0,0,0],"id":18,"left_children":[1,3,5,7,-1,9,11,-1,-1,-1,-1,-1,-1],"loss_changes":[4.0839556E7,2.3897404E7,6.6006096E7,2.4203668E7,0E0,5.6245028E7,2.4319224E7,0E0,0E0,0E0,0E0,0E0,0E0],"parents":[2147483647,0,0,1,1,2,2,3,3,5,5,6,6],"right_children":[2,4,6,8,-1,10,12,-1,-1,-1,-1,-1,-1],"split_conditions":[2.34E2,2.24E2,1E0,1E0,2.1207613E2,2.39E2,9.7E1,-6.792131E0,8.761596E1,-3.3656772E2,9.587173E0,-2.8739566E2,-3.9321095E1],"split_indices":[0,0,18,18,0,0,7,0,0,0,0,0,0],"split_type":[0,0,0,0,0,0,0,0,0,0,0,0,0],"sum_hessian":[2.32E2,1.33E2,9.9E1,1.27E2,6E0,8E1,1.9E1,8.9E1,3.8E1,4E0,7.6E1,1.3E1,6E0],"tree_param":{"num_deleted":"0","num_feature":"30","num_nodes":"13","size_leaf_vector":"1"}},{"base_weights":[-8.506476E1,-1.3123773E3,9.707422E0,8.703326E1,-1.8069415E3,-6.5794495E1,9.193857E2,-2.862031E2,-1.163088E2,-2.4264675E1,3.9046124E1,-1.4511943E2,1.490248E2],"categories":[],"categories_nodes":[],"categories_segments":[],"categories_sizes":[],"default_left":[0,0,0,0,0,0,0,0,0,0,0,0,0],"id":19,"left_children":[1,3,5,-1,7,9,11,-1,-1,-1,-1,-1,-1],"loss_changes":[2.9207826E7,2.100346E7,1.6132184E7,0E0,6.861056E6,1.7604442E7,2.6521584E7,0E0,0E0,0E0,0E0,0E0,0E0],"parents":[2147483647,0,0,1,1,2,2,4,4,5,5,6,6],"right_children":[2,4,6,-1,8,10,12,-1,-1,-1,-1,-1,-1],"split_conditions":[3.68E1,3.3E2,1E0,8.703326E1,3.8E2,6.5E1,4.84E1,-2.862031E2,-1.163088E2,-2.4264675E1,3.9046124E1,-1.4511943E2,1.490248E2],"split_indices":[11,0,3,0,0,11,12,0,0,0,0,0,0],"split_type":[0,0,0,0,0,0,0,0,0,0,0,0,0],"sum_hessian":[2.5E2,1.7E1,2.33E2,3E0,1.4E1,2.16E2,1.7E1,4E0,1E1,1.56E2,6E1,3E0,1.4E1],"tree_param":{"num_deleted":"0","num_feature":"30","num_nodes":"13","size_leaf_vector":"1"}},{"base_weights":[-1.3794293E2,9.6819336E1,-4.2743802E2,-8.342574E1,7.042037E2,1.505252E2,-9.019501E2,-1.7383863E1,1.7595999E2,-7.045325E1,1.4085796E2,-1.5443164E2,4.167381E1,-1.4447086E2,-2.3005802E1],"categories":[],"categories_nodes":[],"categories_segments":[],"categories_sizes":[],"default_left":[0,0,0,0,0,0,0,0,0,0,0,0,0,0,0],"id":20,"left_children":[1,3,5,7,9,11,13,-1,-1,-1,-1,-1,-1,-1,-1],"loss_changes":[1.6556279E7,1.4838284E7,3.0029068E7,1.780238E7,3.1753068E7,2.3203008E7,2.1548136E7,0E0,0E0,0E0,0E0,0E0,0E0,0E0,0E0],"parents":[2147483647,0,0,1,1,2,2,3,3,4,4,5,5,6,6],"right_children":[2,4,6,8,10,12,14,-1,-1,-1,-1,-1,-1,-1,-1],"split_conditions":[6.4E0,1E0,2.31E2,4E2,3.91E2,9E0,3.14E2,-1.7383863E1,1.7595999E2,-7.045325E1,1.4085796E2,-1.5443164E2,4.167381E1,-1.4447086E2,-2.3005802E1],"split_indices":[14,18,0,0,9,0,0,0,0,0,0,0,0,0,0],"split_type":[0,0,0,0,0,0,0,0,0,0,0,0,0,0,0],"sum_hessian":[2.42E2,1.34E2,1.08E2,1.04E2,3E1,4.9E1,5.9E1,1E2,4E0,1E1,2E1,6E0,4.3E1,3.2E1,2.7E1],"tree_param":{"num_deleted":"0","num_feature":"30","num_nodes":"15","size_leaf_vector":"1"}},{"base_weights":[7.9962087E0,-4.871313E2,2.2559074E2,-1.10978E3,-3.141288E2,1.409332E2,1.1587158E3,-6.29566E1,-2.513084E2,-4.9265896E1,1.2099967E2,-1.7720549E1,4.0566956E1,8.466193E1,1.613585E2],"categories":[],"categories_nodes":[],"categories_segments":[],"categories_sizes":[],"default_left":[0,0,0,0,0,0,0,0,0,0,0,0,0,0,0],"id":21,"left_children":[1,3,5,7,9,11,13,-1,-1,-1,-1,-1,-1,-1,-1],"loss_changes":[2.822926E7,8.268968E6,1.4213983E7,9.873914E6,1.801067E7,1.4221332E7,7.63354E5,0E0,0E0,0E0,0E0,0E0,0E0,0E0,0E0],"parents":[2147483647,0,0,1,1,2,2,3,3,4,4,5,5,6,6],"right_children":[2,4,6,8,10,12,14,-1,-1,-1,-1,-1,-1,-1,-1],"split_conditions":[9.44E1,3.338E2,1E0,2.572E2,3.74E2,9.82E1,7.418E2,-6.29566E1,-2.513084E2,-4.9265896E1,1.2099967E2,-1.7720549E1,4.0566956E1,8.466193E1,1.613585E2],"split_indices":[7,9,3,9,0,7,9,0,0,0,0,0,0,0,0],"split_type":[0,0,0,0,0,0,0,0,0,0,0,0,0,0,0],"sum_hessian":[2.6E2,7.9E1,1.81E2,1.6E1,6.3E1,1.67E2,1.4E1,1.3E1,3E0,5.7E1,6E0,7.6E1,9.1E1,1E1,4E0],"tree_param":{"num_deleted":"0","num_feature":"30","num_nodes":"15","size_leaf_vector":"1"}},{"base_weights":[1.0511898E2,-1.4602036E1,1.0505813E3,-1.5758461E2,5.2113275E2,1.7942389E2,6.634064E2,-2.263252E0,-7.416912E1,7.876053E1,-1.632387E1,-1.9623375E2,1.4424884E2],"categories":[],"categories_nodes":[],"categories_segments":[],"categories_sizes":[],"default_left":[0,0,0,0,0,0,0,0,0,0,0,0,0],"id":22,"left_children":[1,3,5,7,9,-1,11,-1,-1,-1,-1,-1,-1],"loss_changes":[2.8200076E7,1.7087486E7,6.871608E6,1.385666E7,8.69978E6,0E0,4.374405E7,0E0,0E0,0E0,0E0,0E0,0E0],"parents":[2147483647,0,0,1,1,2,2,3,3,4,4,6,6],"right_children":[2,4,6,8,10,-1,12,-1,-1,-1,-1,-1,-1],"split_conditions":[1.14668E4,6.5E1,2.34E2,1E0,2.07E2,1.7942389E2,2.39E2,-2.263252E0,-7.416912E1,7.876053E1,-1.632387E1,-1.9623375E2,1.4424884E2],"split_indices":[8,11,0,18,0,0,0,0,0,0,0,0,0],"split_type":[0,0,0,0,0,0,0,0,0,0,0,0,0],"sum_hessian":[2.48E2,2.21E2,2.7E1,1.75E2,4.6E1,8E0,1.9E1,1.43E2,3.2E1,3.3E1,1.3E1,4E0,1.5E1],"tree_param":{"num_deleted":"0","num_feature":"30","num_nodes":"13","size_leaf_vector":"1"}},{"base_weights":[1.8955899E2,-2.2819691E2,5.217256E2,-1.6190675E3,-8.39428E1,4.1190204E2,1.4336487E3,-9.823779E0,-2.2568176E2,1.1491044E2,-2.2154425E1,-2.0541739E1,6.268167E1,4.1567837E1,2.7216626E2],"categories":[],"categories_nodes":[],"categories_segments":[],"categories_sizes":[],"default_left":[0,0,0,0,0,0,0,0,0,0,0,0,0,0,0],"id":23,"left_children":[1,3,5,7,9,11,13,-1,-1,-1,-1,-1,-1,-1,-1],"loss_changes":[3.3422548E7,2.1332442E7,1.282966E7,9.477392E6,1.6882146E7,1.618195E7,1.7224902E7,0E0,0E0,0E0,0E0,0E0,0E0,0E0,0E0],"parents":[2147483647,0,0,1,1,2,2,3,3,4,4,5,5,6,6],"right_children":[2,4,6,8,10,12,14,-1,-1,-1,-1,-1,-1,-1,-1],"split_conditions":[9.668E3,7.5E1,1E0,3.3E1,9.5E1,9.7E1,2.47E2,-9.823779E0,-2.2568176E2,1.1491044E2,-2.2154425E1,-2.0541739E1,6.268167E1,4.1567837E1,2.7216626E2],"split_indices":[8,0,23,0,0,7,0,0,0,0,0,0,0,0,0],"split_type":[0,0,0,0,0,0,0,0,0,0,0,0,0,0,0],"sum_hessian":[2.39E2,1.06E2,1.33E2,9E0,9.7E1,1.2E2,1.3E1,3E0,6E0,9E0,8.8E1,3.1E1,8.9E1,8E0,5E0],"tree_param":{"num_deleted":"0","num_feature":"30","num_nodes":"15","size_leaf_vector":"1"}},{"base_weights":[6.883277E1,9.388954E0,9.876046E2,-4.1845096E2,1.738872E2,1.3919967E3,-4.724729E1,-2.778604E1,-2.4929922E2,-4.2555683E1,2.572056E1,5.903662E1,2.095233E2],"categories":[],"categories_nodes":[],"categories_segments":[],"categories_sizes":[],"default_left":[0,0,0,0,0,0,0,0,0,0,0,0,0],"id":24,"left_children":[1,3,5,7,9,11,-1,-1,-1,-1,-1,-1,-1],"loss_changes":[1.3480709E7,1.647105E7,9.514337E6,1.8265256E7,8.55011E6,5.52787E6,0E0,0E0,0E0,0E0,0E0,0E0,0E0],"parents":[2147483647,0,0,1,1,2,2,3,3,4,4,5,5],"right_children":[2,4,6,8,10,12,-1,-1,-1,-1,-1,-1,-1],"split_conditions":[1E0,1.71E2,1.79E2,1E0,4.72E1,1.69E2,-4.724729E1,-2.778604E1,-2.4929922E2,-4.2555683E1,2.572056E1,5.903662E1,2.095233E2],"split_indices":[3,6,6,2,12,6,0,0,0,0,0,0,0],"split_type":[0,0,0,0,0,0,0,0,0,0,0,0,0],"sum_hessian":[2.46E2,2.32E2,1.4E1,6.4E1,1.68E2,1.1E1,3E0,6.1E1,3E0,2E1,1.48E2,6E0,5E0],"tree_param":{"num_deleted":"0","num_feature":"30","num_nodes":"13","size_leaf_vector":"1"}},{"base_weights":[-1.9930043E2,-3.682795E2,5.2001686E1,-4.624939E2,1.0158144E3,-1.1299522E2,5.449923E2,-8.2863464E1,-2.746059E1,1.92063E2,-2.7312714E1,1.5778081E1,-5.2861633E1,7.3924736E1,-2.2573242E1],"categories":[],"categories_nodes":[],"categories_segments":[],"categories_sizes":[],"default_left":[0,0,0,0,0,0,0,0,0,0,0,0,0,0,0],"id":25,"left_children":[1,3,5,7,9,11,13,-1,-1,-1,-1,-1,-1,-1,-1],"loss_changes":[1.0805209E7,2.0290848E7,8.4398E6,9.609918E6,1.2187121E7,8.861544E6,4.0595195E6,0E0,0E0,0E0,0E0,0E0,0E0,0E0,0E0],"parents":[2147483647,0,0,1,1,2,2,3,3,4,4,5,5,6,6],"right_children":[2,4,6,8,10,12,14,-1,-1,-1,-1,-1,-1,-1,-1],"split_conditions":[7.3E1,1E0,5.536E2,5.2E0,2.9E1,6.84E1,1E0,-8.2863464E1,-2.746059E1,1.92063E2,-2.7312714E1,1.5778081E1,-5.2861633E1,7.3924736E1,-2.2573242E1],"split_indices":[5,3,9,14,17,12,18,0,0,0,0,0,0,0,0],"split_type":[0,0,0,0,0,0,0,0,0,0,0,0,0,0,0],"sum_hessian":[2.53E2,1.51E2,1.02E2,1.42E2,9E0,7.7E1,2.5E1,4.7E1,9.5E1,5E0,4E0,4.7E1,3E1,2E1,5E0],"tree_param":{"num_deleted":"0","num_feature":"30","num_nodes":"15","size_leaf_vector":"1"}},{"base_weights":[6.831533E1,-4.4141992E2,2.2114606E2,2.5433229E2,-8.142983E2,-8.1671E1,4.1013876E2,6.2766876E1,-1.489265E2,-3.781132E1,-1.3904207E2,3.0544235E1,-2.9331161E1,1.8685732E2,3.2978138E1],"categories":[],"categories_nodes":[],"categories_segments":[],"categories_sizes":[],"default_left":[0,0,0,0,0,0,0,0,0,0,0,0,0,0,0],"id":26,"left_children":[1,3,5,7,9,11,13,-1,-1,-1,-1,-1,-1,-1,-1],"loss_changes":[1.9573418E7,1.5254097E7,1.107893E7,1.4604683E7,9.023514E6,6.234258E6,1.3330104E7,0E0,0E0,0E0,0E0,0E0,0E0,0E0,0E0],"parents":[2147483647,0,0,1,1,2,2,3,3,4,4,5,5,6,6],"right_children":[2,4,6,8,10,12,14,-1,-1,-1,-1,-1,-1,-1,-1],"split_conditions":[1.71E2,1E0,8.8036E3,2.55E2,9.64E1,1E0,4.7E1,6.2766876E1,-1.489265E2,-3.781132E1,-1.3904207E2,3.0544235E1,-2.9331161E1,1.8685732E2,3.2978138E1],"split_indices":[6,20,8,0,7,20,0,0,0,0,0,0,0,0,0],"split_type":[0,0,0,0,0,0,0,0,0,0,0,0,0,0,0],"sum_hessian":[2.49E2,5.7E1,1.92E2,2E1,3.7E1,7.4E1,1.18E2,1.7E1,3E0,2.2E1,1.5E1,2.6E1,4.8E1,5E0,1.13E2],"tree_param":{"num_deleted":"0","num_feature":"30","num_nodes":"15","size_leaf_vector":"1"}},{"base_weights":[9.304312E0,-5.913709E1,7.959152E2,-1.2940347E2,8.288714E2,1.3004427E3,-5.9805614E1,-2.068125E2,-9.203717E0,1.3340526E2,-6.5037384E1,1.8914487E2,6.9627785E1],"categories":[],"categories_nodes":[],"categories_segments":[],"categories_sizes":[],"default_left":[0,0,0,0,0,0,0,0,0,0,0,0,0],"id":27,"left_children":[1,3,5,7,9,11,-1,-1,-1,-1,-1,-1,-1],"loss_changes":[1.345242E7,1.4458603E7,1.4843675E7,1.5312428E7,1.3571508E7,4.039002E6,0E0,0E0,0E0,0E0,0E0,0E0,0E0],"parents":[2147483647,0,0,1,1,2,2,3,3,4,4,5,5],"right_children":[2,4,6,8,10,12,-1,-1,-1,-1,-1,-1,-1],"split_conditions":[3.74E2,1E0,4.03E2,9E0,9.82E1,9.52E1,-5.9805614E1,-2.068125E2,-9.203717E0,1.3340526E2,-6.5037384E1,1.8914487E2,6.9627785E1],"split_indices":[0,3,0,0,7,10,0,0,0,0,0,0,0],"split_type":[0,0,0,0,0,0,0,0,0,0,0,0,0],"sum_hessian":[2.48E2,2.29E2,1.9E1,2.13E2,1.6E1,1.4E1,5E0,3E0,2.1E2,1.2E1,4E0,6E0,8E0],"tree_param":{"num_deleted":"0","num_feature":"30","num_nodes":"13","size_leaf_vector":"1"}},{"base_weights":[6.315009E0,-3.414613E2,2.1665924E2,-1.099209E3,9.003982E0,1.528952E1,7.9163727E2,-2.1903062E2,-2.9481573E1,1.2449295E1,-1.4710556E2,-2.720485E1,5.8258442E1,-7.2852005E1,1.228302E2],"categories":[],"categories_nodes":[],"categories_segments":[],"categories_sizes":[],"default_left":[0,0,0,0,0,0,0,0,0,0,0,0,0,0,0],"id":28,"left_children":[1,3,5,7,9,11,13,-1,-1,-1,-1,-1,-1,-1,-1],"loss_changes":[1.9020542E7,2.6035196E7,1.8744768E7,2.6562072E7,1.1806413E7,1.9882144E7,2.8774408E7,0E0,0E0,0E0,0E0,0E0,0E0,0E0,0E0],"parents":[2147483647,0,0,1,1,2,2,3,3,4,4,5,5,6,6],"right_children":[2,4,6,8,10,12,14,-1,-1,-1,-1,-1,-1,-1,-1],"split_conditions":[6.9E1,6.6E0,3.37E2,2.81E2,1E0,5.536E2,1E0,-2.1903062E2,-2.9481573E1,1.2449295E1,-1.4710556E2,-2.720485E1,5.8258442E1,-7.2852005E1,1.228302E2],"split_indices":[5,14,0,0,2,9,19,0,0,0,0,0,0,0,0],"split_type":[0,0,0,0,0,0,0,0,0,0,0,0,0,0,0],"sum_hessian":[2.58E2,9.7E1,1.61E2,3E1,6.7E1,1.2E2,4.1E1,1.2E1,1.8E1,6.3E1,4E0,8E1,4E1,9E0,3.2E1],"tree_param":{"num_deleted":"0","num_feature":"30","num_nodes":"15","size_leaf_vector":"1"}},{"base_weights":[1.4588574E2,8.549804E1,1.3918058E3,1.7996689E2,-3.3736307E2,1.780562E2,1.6915283E1,6.995258E0,6.18318E1,-1.4575195E0,-8.8714386E1],"categories":[],"categories_nodes":[],"categories_segments":[],"categories_sizes":[],"default_left":[0,0,0,0,0,0,0,0,0,0,0],"id":29,"left_children":[1,3,5,7,9,-1,-1,-1,-1,-1,-1],"loss_changes":[1.9518188E7,1.0047514E7,5.402578E6,9.84285E6,8.1503485E6,0E0,0E0,0E0,0E0,0E0,0E0],"parents":[2147483647,0,0,1,1,2,2,3,3,4,4],"right_children":[2,4,6,8,10,-1,-1,-1,-1,-1,-1],"split_conditions":[1.16638E4,6E-1,2.39E2,8E1,3.55E2,1.780562E2,1.6915283E1,6.995258E0,6.18318E1,-1.4575195E0,-8.8714386E1],"split_indices":[8,15,0,5,0,0,0,0,0,0,0],"split_type":[0,0,0,0,0,0,0,0,0,0,0],"sum_hessian":[2.6E2,2.49E2,1.1E1,2.04E2,4.5E1,8E0,3E0,1.64E2,4E1,2.9E1,1.6E1],"tree_param":{"num_deleted":"0","num_feature":"30","num_nodes":"11","size_leaf_vector":"1"}},{"base_weights":[4.820563E1,1.4978947E2,-7.626858E2,-6.7266144E2,2.1579996E2,-9.247968E2,5.2223488E1,-1.0267592E2,3.0457659E0,7.63512E1,1.3281311E1,-4.742289E1,-1.6433394E2],"categories":[],"categories_nodes":[],"categories_segments":[],"categories_sizes":[],"default_left":[0,0,0,0,0,0,0,0,0,0,0,0,0],"id":30,"left_children":[1,3,5,7,9,11,-1,-1,-1,-1,-1,-1,-1],"loss_changes":[2.2190332E7,1.312056E7,6.731954E6,4.512785E6,9.989137E6,7.961992E6,0E0,0E0,0E0,0E0,0E0,0E0,0E0],"parents":[2147483647,0,0,1,1,2,2,3,3,4,4,5,5],"right_children":[2,4,6,8,10,12,-1,-1,-1,-1,-1,-1,-1],"split_conditions":[3.64E2,6.32E1,4.11E2,2.66E2,8.36E3,3.98E2,5.2223488E1,-1.0267592E2,3.0457659E0,7.63512E1,1.3281311E1,-4.742289E1,-1.6433394E2],"split_indices":[0,7,0,0,8,0,0,0,0,0,0,0,0],"split_type":[0,0,0,0,0,0,0,0,0,0,0,0,0],"sum_hessian":[2.67E2,2.38E2,2.9E1,1.7E1,2.21E2,2.6E1,3E0,1.1E1,6E0,2.8E1,1.93E2,1.7E1,9E0],"tree_param":{"num_deleted":"0","num_feature":"30","num_nodes":"13","size_leaf_vector":"1"}},{"base_weights":[-1.2896594E2,-7.1297943E2,5.40275E1,-4.4239893E2,-1.7358864E3,2.1698416E2,-6.9524506E2,-7.289648E1,3.3357499E0,-1.0260772E2,-2.0963106E2,1.7045569E2,1.3565822E1,4.2608555E1,-1.5014807E2],"categories":[],"categories_nodes":[],"categories_segments":[],"categories_sizes":[],"default_left":[0,0,0,0,0,0,0,0,0,0,0,0,0,0,0],"id":31,"left_children":[1,3,5,7,9,11,13,-1,-1,-1,-1,-1,-1,-1,-1],"loss_changes":[2.6435566E7,1.556199E7,2.322756E7,6.568421E6,9.19012E5,1.864137E7,3.1377686E7,0E0,0E0,0E0,0E0,0E0,0E0,0E0,0E0],"parents":[2147483647,0,0,1,1,2,2,3,3,4,4,5,5,6,6],"right_children":[2,4,6,8,10,12,14,-1,-1,-1,-1,-1,-1,-1,-1],"split_conditions":[1.03E2,1E0,7.418E2,2.9E1,2.4E1,1.112E2,1E0,-7.289648E1,3.3357499E0,-1.0260772E2,-2.0963106E2,1.7045569E2,1.3565822E1,4.2608555E1,-1.5014807E2],"split_indices":[13,18,9,17,4,13,20,0,0,0,0,0,0,0,0],"split_type":[0,0,0,0,0,0,0,0,0,0,0,0,0,0,0],"sum_hessian":[2.46E2,5.8E1,1.88E2,4.7E1,1.1E1,1.55E2,3.3E1,2.9E1,1.8E1,5E0,6E0,7E0,1.48E2,1.4E1,1.9E1],"tree_param":{"num_deleted":"0","num_feature":"30","num_nodes":"15","size_leaf_vector":"1"}},{"base_weights":[-1.6371898E2,3.2855354E1,-5.501584E2,-5.7475105E1,1.5949327E3,-7.241805E2,1.17182106E2,1.0344417E1,-4.8276165E1,3.1101422E2,-2.392631E1,-1.9882408E2,-5.4622864E1],"categories":[],"categories_nodes":[],"categories_segments":[],"categories_sizes":[],"default_left":[0,0,0,0,0,0,0,0,0,0,0,0,0],"id":32,"left_children":[1,3,5,7,9,11,-1,-1,-1,-1,-1,-1,-1],"loss_changes":[1.8705238E7,2.3232588E7,2.5720588E7,1.072608E7,2.5756858E7,1.6009548E7,0E0,0E0,0E0,0E0,0E0,0E0,0E0],"parents":[2147483647,0,0,1,1,2,2,3,3,4,4,5,5],"right_children":[2,4,6,8,10,12,-1,-1,-1,-1,-1,-1,-1],"split_conditions":[2.68E2,2.53E2,3.1E1,3E1,1E0,2.87E2,1.17182106E2,1.0344417E1,-4.8276165E1,3.1101422E2,-2.392631E1,-1.9882408E2,-5.4622864E1],"split_indices":[0,0,17,4,20,0,0,0,0,0,0,0,0],"split_type":[0,0,0,0,0,0,0,0,0,0,0,0,0],"sum_hessian":[2.45E2,1.63E2,8.2E1,1.55E2,8E0,7.5E1,7E0,1.13E2,4.2E1,4E0,4E0,8E0,6.7E1],"tree_param":{"num_deleted":"0","num_feature":"30","num_nodes":"13","size_leaf_vector":"1"}},{"base_weights":[1.3112508E2,3.1691544E2,-1.4071646E2,2.4621138E2,1.1879746E2,-3.8426505E2,2.8599203E2,-2.0382438E0,4.709796E1,2.2372137E1,-6.1692085E1,5.8629772E1,-5.0442177E1],"categories":[],"categories_nodes":[],"categories_segments":[],"categories_sizes":[],"default_left":[0,0,0,0,0,0,0,0,0,0,0,0,0],"id":33,"left_children":[1,3,5,7,-1,9,11,-1,-1,-1,-1,-1,-1],"loss_changes":[1.277199E7,8.945616E6,1.0814094E7,8.398656E6,0E0,9.473821E6,9.31564E6,0E0,0E0,0E0,0E0,0E0,0E0],"parents":[2147483647,0,0,1,1,2,2,3,3,5,5,6,6],"right_children":[2,4,6,8,-1,10,12,-1,-1,-1,-1,-1,-1],"split_conditions":[2.95E1,1E0,2.87E2,1.84E2,1.1879746E2,2.9E1,3.64E2,-2.0382438E0,4.709796E1,2.2372137E1,-6.1692085E1,5.8629772E1,-5.0442177E1],"split_indices":[17,21,0,0,0,0,0,0,0,0,0,0,0],"split_type":[0,0,0,0,0,0,0,0,0,0,0,0,0],"sum_hessian":[2.51E2,1.49E2,1.02E2,1.39E2,1E1,6.5E1,3.7E1,6.4E1,7.5E1,1.8E1,4.7E1,2.7E1,1E1],"tree_param":{"num_deleted":"0","num_feature":"30","num_nodes":"13","size_leaf_vector":"1"}},{"base_weights":[6.0692604E1,1.3143735E2,-7.9516205E2,6.27441E2,4.7683243E1,-2.1408984E2,-1.1982972E3,2.1048262E2,4.095416E1,-4.517688E0,4.1328865E1,-1.08625015E2,7.008884E1,-1.7736957E2,-1.5307993E1],"categories":[],"categories_nodes":[],"categories_segments":[],"categories_sizes":[],"default_left":[0,0,0,0,0,0,0,0,0,0,0,0,0,0,0],"id":34,"left_children":[1,3,5,7,9,11,13,-1,-1,-1,-1,-1,-1,-1,-1],"loss_changes":[1.5059675E7,9.483276E6,4.194219E6,9.76139E6,6.7068525E6,7.943409E6,6.344063E6,0E0,0E0,0E0,0E0,0E0,0E0,0E0,0E0],"parents":[2147483647,0,0,1,1,2,2,3,3,4,4,5,5,6,6],"right_children":[2,4,6,8,10,12,14,-1,-1,-1,-1,-1,-1,-1,-1],"split_conditions":[1E0,6.56E1,3.67E2,9.7E1,2.176E2,3.59E2,3.74E2,2.1048262E2,4.095416E1,-4.517688E0,4.1328865E1,-1.08625015E2,7.008884E1,-1.7736957E2,-1.5307993E1],"split_indices":[28,10,0,0,10,0,0,0,0,0,0,0,0,0,0],"split_type":[0,0,0,0,0,0,0,0,0,0,0,0,0,0,0],"sum_hessian":[2.46E2,2.28E2,1.8E1,3.2E1,1.96E2,8E0,1E1,3E0,2.9E1,1.57E2,3.9E1,4E0,4E0,6E0,4E0],"tree_param":{"num_deleted":"0","num_feature":"30","num_nodes":"15","size_leaf_vector":"1"}},{"base_weights":[1.27676956E2,2.0305011E2,-1.2214672E3,1.3505103E2,1.4327791E2,-2.7796884E2,-4.760319E2,-1.0648815E2,1.9726154E1,1.0588198E2,-1.2850854E2],"categories":[],"categories_nodes":[],"categories_segments":[],"categories_sizes":[],"default_left":[0,0,0,0,0,0,0,0,0,0,0],"id":35,"left_children":[1,3,5,7,-1,-1,9,-1,-1,-1,-1],"loss_changes":[2.4958502E7,1.9122824E7,1.3776972E7,1.6632708E7,0E0,0E0,1.3778446E7,0E0,0E0,0E0,0E0],"parents":[2147483647,0,0,1,1,2,2,3,3,6,6],"right_children":[2,4,6,8,-1,-1,10,-1,-1,-1,-1],"split_conditions":[1.16638E4,1.14668E4,2.24E2,3.68E1,1.4327791E2,-2.7796884E2,1E0,-1.0648815E2,1.9726154E1,1.0588198E2,-1.2850854E2],"split_indices":[8,8,0,10,0,0,20,0,0,0,0],"split_type":[0,0,0,0,0,0,0,0,0,0,0],"sum_hessian":[2.42E2,2.3E2,1.2E1,2.19E2,1.1E1,3E0,9E0,1E1,2.09E2,3E0,6E0],"tree_param":{"num_deleted":"0","num_feature":"30","num_nodes":"11","size_leaf_vector":"1"}},{"base_weights":[-3.0243923E1,-1.5056018E2,1.1690286E1,7.9668756E2,-5.7220398E1,5.7484722E1,1.00395386E2,-2.022192E1,1.9375633E1],"categories":[],"categories_nodes":[],"categories_segments":[],"categories_sizes":[],"default_left":[0,0,0,0,0,0,0,0,0],"id":36,"left_children":[1,-1,3,5,7,-1,-1,-1,-1],"loss_changes":[1.5670196E7,0E0,1.3406978E7,3.42479E5,8.336403E6,0E0,0E0,0E0,0E0],"parents":[2147483647,0,0,2,2,3,3,4,4],"right_children":[2,-1,4,6,8,-1,-1,-1,-1],"split_conditions":[9E0,-1.5056018E2,4.2E1,2.8E1,2.74E2,5.7484722E1,1.00395386E2,-2.022192E1,1.9375633E1],"split_indices":[0,0,0,0,0,0,0,0,0],"split_type":[0,0,0,0,0,0,0,0,0],"sum_hessian":[2.52E2,6E0,2.46E2,1.9E1,2.27E2,1.1E1,8E0,1.44E2,8.3E1],"tree_param":{"num_deleted":"0","num_feature":"30","num_nodes":"9","size_leaf_vector":"1"}},{"base_weights":[1.1894238E2,-7.9128424E2,2.47187E2,-1.3824171E3,1.3484978E2,7.9143295E1,6.260067E2,-3.301952E2,-5.5913044E1,1.4256663E1,-2.2397388E2,1.0737984E2,-2.980314E1],"categories":[],"categories_nodes":[],"categories_segments":[],"categories_sizes":[],"default_left":[0,0,0,0,0,0,0,0,0,0,0,0,0],"id":37,"left_children":[1,3,5,7,-1,9,11,-1,-1,-1,-1,-1,-1],"loss_changes":[2.8327928E7,3.981105E7,1.3446007E7,3.6081628E7,0E0,2.2085854E7,2.72155E7,0E0,0E0,0E0,0E0,0E0,0E0],"parents":[2147483647,0,0,1,1,2,2,3,3,5,5,6,6],"right_children":[2,4,6,8,-1,10,12,-1,-1,-1,-1,-1,-1],"split_conditions":[2.65E1,1E0,2.74E2,1.84E2,1.3484978E2,2.69E2,3.55E2,-3.301952E2,-5.5913044E1,1.4256663E1,-2.2397388E2,1.0737984E2,-2.980314E1],"split_indices":[17,18,0,0,0,0,0,0,0,0,0,0,0],"split_type":[0,0,0,0,0,0,0,0,0,0,0,0,0],"sum_hessian":[2.4E2,2.9E1,2.11E2,2.3E1,6E0,1.47E2,6.4E1,6E0,1.7E1,1.44E2,3E0,4.3E1,2.1E1],"tree_param":{"num_deleted":"0","num_feature":"30","num_nodes":"13","size_leaf_vector":"1"}},{"base_weights":[-1.15995735E2,2.5152628E2,-5.6632104E2,-1.633118E2,9.1521857E2,-1.9430358E3,-3.8530524E2,-2.858527E1,9.304707E1,6.326233E1,1.5468436E2,-8.350301E1,-2.1919344E2,-1.4373842E2,-1.4274802E1],"categories":[],"categories_nodes":[],"categories_segments":[],"categories_sizes":[],"default_left":[0,0,0,0,0,0,0,0,0,0,0,0,0,0,0],"id":38,"left_children":[1,3,5,7,9,11,13,-1,-1,-1,-1,-1,-1,-1,-1],"loss_changes":[4.201507E7,3.8694944E7,2.7660952E7,1.1926856E7,8.66012E6,1.754824E6,2.5824128E7,0E0,0E0,0E0,0E0,0E0,0E0,0E0,0E0],"parents":[2147483647,0,0,1,1,2,2,3,3,4,4,5,5,6,6],"right_children":[2,4,6,8,10,12,14,-1,-1,-1,-1,-1,-1,-1,-1],"split_conditions":[2.32E2,1.00218E4,2.53E2,2.02E2,1.84E2,1E0,1E0,-2.858527E1,9.304707E1,6.326233E1,1.5468436E2,-8.350301E1,-2.1919344E2,-1.4373842E2,-1.4274802E1],"split_indices":[0,8,0,0,0,19,19,0,0,0,0,0,0,0,0],"split_type":[0,0,0,0,0,0,0,0,0,0,0,0,0,0,0],"sum_hessian":[2.52E2,1.39E2,1.13E2,8.6E1,5.3E1,1.2E1,1.01E2,7.8E1,8E0,3.8E1,1.5E1,3E0,9E0,1.8E1,8.3E1],"tree_param":{"num_deleted":"0","num_feature":"30","num_nodes":"15","size_leaf_vector":"1"}},{"base_weights":[2.552374E1,1.1024438E2,-8.998616E2,3.8664667E2,-1.6026477E2,3.4455902E2,-1.3880542E3,-2.4240402E1,4.5945988E1,-1.1914996E2,-1.0601115E1,-3.0887476E1,9.11853E1,-3.0621558E2,-7.661727E1],"categories":[],"categories_nodes":[],"categories_segments":[],"categories_sizes":[],"default_left":[0,0,0,0,0,0,0,0,0,0,0,0,0,0,0],"id":39,"left_children":[1,3,5,7,9,11,13,-1,-1,-1,-1,-1,-1,-1,-1],"loss_changes":[2.0561406E7,1.800661E7,1.384364E7,5.561954E6,6.699373E6,2.876472E6,1.4311346E7,0E0,0E0,0E0,0E0,0E0,0E0,0E0,0E0],"parents":[2147483647,0,0,1,1,2,2,3,3,4,4,5,5,6,6],"right_children":[2,4,6,8,10,12,14,-1,-1,-1,-1,-1,-1,-1,-1],"split_conditions":[1.14668E4,6E0,2.31E2,6.32E1,9.4E1,2.26E2,2.37E2,-2.4240402E1,4.5945988E1,-1.1914996E2,-1.0601115E1,-3.0887476E1,9.11853E1,-3.0621558E2,-7.661727E1],"split_indices":[8,14,0,7,10,0,0,0,0,0,0,0,0,0,0],"split_type":[0,0,0,0,0,0,0,0,0,0,0,0,0,0,0],"sum_hessian":[2.6E2,2.39E2,2.1E1,1.18E2,1.21E2,6E0,1.5E1,1.2E1,1.06E2,5E0,1.16E2,3E0,3E0,3E0,1.2E1],"tree_param":{"num_deleted":"0","num_feature":"30","num_nodes":"15","size_leaf_vector":"1"}},{"base_weights":[-9.039396E1,-2.223636E2,3.6449033E2,-3.0532874E2,8.7967E2,2.8681516E2,4.3939133E1,-7.4414086E0,-5.8995453E1,-8.8043236E1,1.4957439E2,3.409388E1,-7.819014E1],"categories":[],"categories_nodes":[],"categories_segments":[],"categories_sizes":[],"default_left":[0,0,0,0,0,0,0,0,0,0,0,0,0],"id":40,"left_children":[1,3,5,7,9,-1,11,-1,-1,-1,-1,-1,-1],"loss_changes":[1.4128282E7,1.6908916E7,4.240921E7,1.1129226E7,1.5413493E7,0E0,1.203975E7,0E0,0E0,0E0,0E0,0E0,0E0],"parents":[2147483647,0,0,1,1,2,2,3,3,4,4,6,6],"right_children":[2,4,6,8,10,-1,12,-1,-1,-1,-1,-1,-1],"split_conditions":[3.35E2,1.16638E4,3.43E2,7.1E1,2.26E2,2.8681516E2,3.92E2,-7.4414086E0,-5.8995453E1,-8.8043236E1,1.4957439E2,3.409388E1,-7.819014E1],"split_indices":[0,8,0,12,0,0,0,0,0,0,0,0,0],"split_type":[0,0,0,0,0,0,0,0,0,0,0,0,0],"sum_hessian":[2.33E2,1.81E2,5.2E1,1.69E2,1.2E1,5E0,4.7E1,9.4E1,7.5E1,3E0,9E0,3.5E1,1.2E1],"tree_param":{"num_deleted":"0","num_feature":"30","num_nodes":"13","size_leaf_vector":"1"}},{"base_weights":[2.3615442E1,5.747558E2,-6.835374E1,-1.2063737E2,8.434942E2,3.330202E2,-1.647536E2,2.4266161E1,1.21019585E2,9.96152E0,1.452471E2,-2.8413477E0,-8.266689E1],"categories":[],"categories_nodes":[],"categories_segments":[],"categories_sizes":[],"default_left":[0,0,0,0,0,0,0,0,0,0,0,0,0],"id":41,"left_children":[1,3,5,-1,7,9,11,-1,-1,-1,-1,-1,-1],"loss_changes":[1.240714E7,1.7770596E7,8.180269E6,0E0,6.536446E6,1.0568015E7,1.5318268E7,0E0,0E0,0E0,0E0,0E0,0E0],"parents":[2147483647,0,0,1,1,2,2,4,4,5,5,6,6],"right_children":[2,4,6,-1,8,10,12,-1,-1,-1,-1,-1,-1],"split_conditions":[2.65E1,1.81E2,1.7E2,-1.2063737E2,1E0,2.52E2,3E1,2.4266161E1,1.21019585E2,9.96152E0,1.452471E2,-2.8413477E0,-8.266689E1],"split_indices":[17,0,6,0,20,0,4,0,0,0,0,0,0],"split_type":[0,0,0,0,0,0,0,0,0,0,0,0,0],"sum_hessian":[2.43E2,3.4E1,2.09E2,4E0,3E1,4E1,1.69E2,1.2E1,1.8E1,3.4E1,6E0,1.41E2,2.8E1],"tree_param":{"num_deleted":"0","num_feature":"30","num_nodes":"13","size_leaf_vector":"1"}},{"base_weights":[-9.006491E1,-3.8094876E2,1.5299095E2,1.20169655E2,-6.1082764E2,-2.2732217E2,4.484539E2,-1.3840031E2,5.1727673E1,-7.15316E0,-8.448563E1,6.197074E1,-9.1819E1,-5.0603947E1,7.432359E1],"categories":[],"categories_nodes":[],"categories_segments":[],"categories_sizes":[],"default_left":[0,0,0,0,0,0,0,0,0,0,0,0,0,0,0],"id":42,"left_children":[1,3,5,7,9,11,13,-1,-1,-1,-1,-1,-1,-1,-1],"loss_changes":[1.7874938E7,1.3321007E7,1.5608786E7,2.2816664E7,9.910212E6,3.6265324E7,2.2322768E7,0E0,0E0,0E0,0E0,0E0,0E0,0E0,0E0],"parents":[2147483647,0,0,1,1,2,2,3,3,4,4,5,5,6,6],"right_children":[2,4,6,8,10,12,14,-1,-1,-1,-1,-1,-1,-1,-1],"split_conditions":[4.16E2,1.012E2,1E0,1E0,1E0,1E1,4E0,-1.3840031E2,5.1727673E1,-7.15316E0,-8.448563E1,6.197074E1,-9.1819E1,-5.0603947E1,7.432359E1],"split_indices":[9,13,20,19,19,1,1,0,0,0,0,0,0,0,0],"split_type":[0,0,0,0,0,0,0,0,0,0,0,0,0,0,0],"sum_hessian":[2.51E2,1.14E2,1.37E2,3.6E1,7.8E1,6E1,7.7E1,7E0,2.9E1,2.4E1,5.4E1,2.7E1,3.3E1,1.8E1,5.9E1],"tree_param":{"num_deleted":"0","num_feature":"30","num_nodes":"15","size_leaf_vector":"1"}},{"base_weights":[-4.6765366E0,-5.2364067E1,9.454898E2,-5.750897E2,5.9589853E0,1.5645097E2,4.4041614E2,-1.1032934E2,1.4945037E1,2.6380432E1,-1.6335901E1,5.7814453E1,1.5815162E1],"categories":[],"categories_nodes":[],"categories_segments":[],"categories_sizes":[],"default_left":[0,0,0,0,0,0,0,0,0,0,0,0,0],"id":43,"left_children":[1,3,5,7,9,-1,11,-1,-1,-1,-1,-1,-1],"loss_changes":[1.1377282E7,7.289809E6,3.062773E6,9.349802E6,9.473191E6,0E0,2.1957225E5,0E0,0E0,0E0,0E0,0E0,0E0],"parents":[2147483647,0,0,1,1,2,2,3,3,4,4,6,6],"right_children":[2,4,6,8,10,-1,12,-1,-1,-1,-1,-1,-1],"split_conditions":[1E0,4.06E1,2.9E1,3.8E2,2.4E1,1.5645097E2,1E0,-1.1032934E2,1.4945037E1,2.6380432E1,-1.6335901E1,5.7814453E1,1.5815162E1],"split_indices":[3,11,17,0,4,0,20,0,0,0,0,0,0],"split_type":[0,0,0,0,0,0,0,0,0,0,0,0,0],"sum_hessian":[2.49E2,2.38E2,1.1E1,2.3E1,2.15E2,4E0,7E0,1.3E1,1E1,8.5E1,1.3E2,4E0,3E0],"tree_param":{"num_deleted":"0","num_feature":"30","num_nodes":"13","size_leaf_vector":"1"}},{"base_weights":[-1.580558E1,3.0758234E2,-2.1701524E2,-1.0583117E2,3.642416E2,-9.963273E2,9.201496E-1,5.937219E0,5.62713E1,-2.9487967E2,-2.535852E1,-9.141653E1,2.665802E1],"categories":[],"categories_nodes":[],"categories_segments":[],"categories_sizes":[],"default_left":[0,0,0,0,0,0,0,0,0,0,0,0,0],"id":44,"left_children":[1,3,5,-1,7,9,11,-1,-1,-1,-1,-1,-1],"loss_changes":[1.5943531E7,7.660193E6,2.5646706E7,0E0,5.472807E6,4.7108204E7,2.9172796E7,0E0,0E0,0E0,0E0,0E0,0E0],"parents":[2147483647,0,0,1,1,2,2,4,4,5,5,6,6],"right_children":[2,4,6,-1,8,10,12,-1,-1,-1,-1,-1,-1],"split_conditions":[1.52E2,4E0,1E0,-1.0583117E2,8.8036E3,9.24E1,2.65E1,5.937219E0,5.62713E1,-2.9487967E2,-2.535852E1,-9.141653E1,2.665802E1],"split_indices":[0,0,19,0,8,10,17,0,0,0,0,0,0],"split_type":[0,0,0,0,0,0,0,0,0,0,0,0,0],"sum_hessian":[2.43E2,9.3E1,1.5E2,3E0,9E1,3.2E1,1.18E2,3.6E1,5.4E1,8E0,2.4E1,2.6E1,9.2E1],"tree_param":{"num_deleted":"0","num_feature":"30","num_nodes":"13","size_leaf_vector":"1"}},{"base_weights":[-2.4448871E2,-7.305639E1,-8.233162E2,-2.2200671E2,3.6879803E2,-1.8286084E3,-3.6634348E2,-3.8889202E1,6.280071E0,6.6738014E1,-7.429772E1,-4.0181494E2,-1.130688E1,-9.105867E1,3.2750656E1],"categories":[],"categories_nodes":[],"categories_segments":[],"categories_sizes":[],"default_left":[0,0,0,0,0,0,0,0,0,0,0,0,0,0,0],"id":45,"left_children":[1,3,5,7,9,11,13,-1,-1,-1,-1,-1,-1,-1,-1],"loss_changes":[2.2564232E7,1.1731017E7,2.321844E7,6.3459345E6,1.5433874E7,5.9645584E7,1.4270281E7,0E0,0E0,0E0,0E0,0E0,0E0,0E0,0E0],"parents":[2147483647,0,0,1,1,2,2,3,3,4,4,5,5,6,6],"right_children":[2,4,6,8,10,12,14,-1,-1,-1,-1,-1,-1,-1,-1],"split_conditions":[1.07432E4,1.85E2,2.4E1,9.7E1,1E0,1.84E2,2.37E2,-3.8889202E1,6.280071E0,6.6738014E1,-7.429772E1,-4.0181494E2,-1.130688E1,-9.105867E1,3.2750656E1],"split_indices":[8,6,4,7,18,0,0,0,0,0,0,0,0,0,0],"split_type":[0,0,0,0,0,0,0,0,0,0,0,0,0,0,0],"sum_hessian":[2.27E2,1.76E2,5.1E1,1.32E2,4.4E1,1.5E1,3.6E1,8.3E1,4.9E1,3.5E1,9E0,6E0,9E0,2E1,1.6E1],"tree_param":{"num_deleted":"0","num_feature":"30","num_nodes":"15","size_leaf_vector":"1"}},{"base_weights":[2.2189669E1,1.1662418E2,-9.102866E2,-5.6511224E2,1.8112854E2,6.6486646E2,-1.8578646E3,-1.3349864E2,-3.373242E1,8.052294E1,1.1077773E1,1.528666E2,-7.970493E1,-2.8094952E2,-7.929547E1],"categories":[],"categories_nodes":[],"categories_segments":[],"categories_sizes":[],"default_left":[0,0,0,0,0,0,0,0,0,0,0,0,0,0,0],"id":46,"left_children":[1,3,5,7,9,11,13,-1,-1,-1,-1,-1,-1,-1,-1],"loss_changes":[2.1063952E7,9.644928E6,3.4072E7,2.881671E6,8.648092E6,1.258364E7,1.1959804E7,0E0,0E0,0E0,0E0,0E0,0E0,0E0,0E0],"parents":[2147483647,0,0,1,1,2,2,3,3,4,4,5,5,6,6],"right_children":[2,4,6,8,10,12,14,-1,-1,-1,-1,-1,-1,-1,-1],"split_conditions":[1.14668E4,4.9E1,2.31E2,6.8E1,4.06E1,1E0,2.74E2,-1.3349864E2,-3.373242E1,8.052294E1,1.1077773E1,1.528666E2,-7.970493E1,-2.8094952E2,-7.929547E1],"split_indices":[8,7,0,5,11,18,0,0,0,0,0,0,0,0,0],"split_type":[0,0,0,0,0,0,0,0,0,0,0,0,0,0,0],"sum_hessian":[2.37E2,2.16E2,2.1E1,1.8E1,1.98E2,8E0,1.3E1,3E0,1.5E1,1.9E1,1.79E2,5E0,3E0,6E0,7E0],"tree_param":{"num_deleted":"0","num_feature":"30","num_nodes":"15","size_leaf_vector":"1"}},{"base_weights":[9.281732E1,1.0007189E3,-3.6122246E1,-5.391683E1,1.5834644E3,1.4679219E2,-5.9774585E2,1.907169E2,-1.7271452E2,6.3638546E1,2.0444772E2,-9.919568E1,1.7383638E1,-1.415518E2,-3.0392736E1],"categories":[],"categories_nodes":[],"categories_segments":[],"categories_sizes":[],"default_left":[0,0,0,0,0,0,0,0,0,0,0,0,0,0,0],"id":47,"left_children":[1,3,5,7,9,11,13,-1,-1,-1,-1,-1,-1,-1,-1],"loss_changes":[2.9185194E7,1.9137484E7,2.258541E7,4.2670092E7,7.431236E6,5.284665E6,1.2544722E7,0E0,0E0,0E0,0E0,0E0,0E0,0E0,0E0],"parents":[2147483647,0,0,1,1,2,2,3,3,4,4,5,5,6,6],"right_children":[2,4,6,8,10,12,14,-1,-1,-1,-1,-1,-1,-1,-1],"split_conditions":[6.56E1,2.74E2,3.06E2,1.02E2,1.71E2,4E0,3.37E2,1.907169E2,-1.7271452E2,6.3638546E1,2.0444772E2,-9.919568E1,1.7383638E1,-1.415518E2,-3.0392736E1],"split_indices":[10,0,0,0,6,0,0,0,0,0,0,0,0,0,0],"split_type":[0,0,0,0,0,0,0,0,0,0,0,0,0,0,0],"sum_hessian":[2.48E2,3E1,2.18E2,1.1E1,1.9E1,1.65E2,5.3E1,5E0,6E0,7E0,1.2E1,3E0,1.62E2,1.3E1,4E1],"tree_param":{"num_deleted":"0","num_feature":"30","num_nodes":"15","size_leaf_vector":"1"}},{"base_weights":[1.1414399E2,4.2472388E2,-1.9734906E2,1.8677876E2,2.690968E2,-1.5384758E3,-1.1680086E2,8.276191E1,1.1096175E1,-6.3239784E1,-2.0599348E2,2.0303461E1,-3.515082E1],"categories":[],"categories_nodes":[],"categories_segments":[],"categories_sizes":[],"default_left":[0,0,0,0,0,0,0,0,0,0,0,0,0],"id":48,"left_children":[1,3,5,-1,7,9,11,-1,-1,-1,-1,-1,-1],"loss_changes":[2.4172946E7,2.7569858E7,1.3323472E7,0E0,9.976866E6,2.00468E6,9.00443E6,0E0,0E0,0E0,0E0,0E0,0E0],"parents":[2147483647,0,0,1,1,2,2,4,4,5,5,6,6],"right_children":[2,4,6,-1,8,10,12,-1,-1,-1,-1,-1,-1],"split_conditions":[2.13E2,2.2E1,2.23E2,1.8677876E2,4.6E1,2.18E2,2.98E2,8.276191E1,1.1096175E1,-6.3239784E1,-2.0599348E2,2.0303461E1,-3.515082E1],"split_indices":[0,4,0,0,0,0,0,0,0,0,0,0,0],"split_type":[0,0,0,0,0,0,0,0,0,0,0,0,0],"sum_hessian":[2.48E2,1.24E2,1.24E2,1.1E1,1.13E2,6E0,1.18E2,2.4E1,8.9E1,3E0,3E0,5E1,6.8E1],"tree_param":{"num_deleted":"0","num_feature":"30","num_nodes":"13","size_leaf_vector":"1"}},{"base_weights":[-9.4045734E-1,3.7967126E2,-2.029878E2,6.833761E2,-3.0929028E2,-8.5032404E2,-1.1285966E1,1.9729057E2,4.7583626E1,-2.5850735E2,4.6403225E1,-1.2882932E2,6.5539E1,-3.624734E1,2.5713898E1],"categories":[],"categories_nodes":[],"categories_segments":[],"categories_sizes":[],"default_left":[0,0,0,0,0,0,0,0,0,0,0,0,0,0,0],"id":49,"left_children":[1,3,5,7,9,11,13,-1,-1,-1,-1,-1,-1,-1,-1],"loss_changes":[1.907176E7,1.8206084E7,2.0093884E7,1.5118954E7,4.8717252E7,2.5244212E7,1.1970906E7,0E0,0E0,0E0,0E0,0E0,0E0,0E0,0E0],"parents":[2147483647,0,0,1,1,2,2,3,3,4,4,5,5,6,6],"right_children":[2,4,6,8,10,12,14,-1,-1,-1,-1,-1,-1,-1,-1],"split_conditions":[1E0,1.79E2,8.9E1,4.82E1,1.84E2,1E0,5.14E1,1.9729057E2,4.7583626E1,-2.5850735E2,4.6403225E1,-1.2882932E2,6.5539E1,-3.624734E1,2.5713898E1],"split_indices":[20,6,0,12,6,2,11,0,0,0,0,0,0,0,0],"split_type":[0,0,0,0,0,0,0,0,0,0,0,0,0,0,0],"sum_hessian":[2.46E2,8.5E1,1.61E2,5.9E1,2.6E1,3.6E1,1.25E2,7E0,5.2E1,6E0,2E1,2.8E1,8E0,5.4E1,7.1E1],"tree_param":{"num_deleted":"0","num_feature":"30","num_nodes":"15","size_leaf_vector":"1"}}]},"name":"gbtree"},"learner_model_param":{"base_score":"7.262645E3","boost_from_average":"1","num_class":"0","num_feature":"30","num_target":"1"},"objective":{"name":"reg:squarederror","reg_loss_param":{"scale_pos_weight":"1"}}},"version":[2,1,0]}