{"learner":{"attributes":{"scikit_learn":"{\"_estimator_type\": \"regressor\"}"},"feature_names":["jugador_anonimizado","gol","asistencia","edad","peso","altura","minutos_predictor","avg_dist_sess_m_predictor","zona_4_19.9_25.1_kmh_predictor","zona_5_mas_25.1_kmh_predictor","num_aceleraciones_intensas_predictor","num_desaceleraciones_intensas_predictor","num_acel_desintensas_predictor","num_sprints_total_predictor","gol_predictor","asistencia_predictor","max_vel_kmh_predictor","torneo_Libertadores","torneo_Torneo Local","categoria_partido_Normal","posicion_habitual_Delantero","posicion_habitual_Extremo","posicion_habitual_Lateral","posicion_habitual_Lateral ","posicion_habitual_Lateral / Volante","posicion_habitual_Volante / Extremo","posicion_habitual_Volante Central","posicion_habitual_Volante Ofensivo","posicion_habitual_Volante Ofensivo / Extremo"],"feature_types":["int","int","int","int","int","int","float","float","float","float","float","float","float","float","float","float","float","i","i","i","i","i","i","i","i","i","i","i","i"],"gradient_booster":{"model":{"gbtree_model_param":{"num_parallel_tree":"1","num_trees":"50"},"iteration_indptr":[0,1,2,3,4,5,6,7,8,9,10,11,12,13,14,15,16,17,18,19,20,21,22,23,24,25,26,27,28,29,30,31,32,33,34,35,36,37,38,39,40,41,42,43,44,45,46,47,48,49,50],"tree_info":[0,0,0,0,0,0,0,0,0,0,0,0,0,0,0,0,0,0,0,0,0,0,0,0,0,0,0,0,0,0,0,0,0,0,0,0,0,0,0,0,0,0,0,0,0,0,0,0,0,0],"trees":[{"base_weights":[4.6207912E1,-2.099794E3,1.0815099E3,-2.9637566E3,-8.89516E2,-1.04019714E2,1.7850092E3,-4.1059033E2,-2.4689883E2,-1.2324002E1,-1.1040505E2,7.992106E1,-1.9057521E2,9.769098E1,2.0692871E2],"categories":[],"categories_nodes":[],"categories_segments":[],"categories_sizes":[],"default_left":[0,0,0,0,0,0,0,0,0,0,0,0,0,0,0],"id":0,"left_children":[1,3,5,7,9,11,13,-1,-1,-1,-1,-1,-1,-1,-1],"loss_changes":[5.6659795E8,8.415142E7,1.4363696E8,1.6987264E7,5.78207E6,1.07302744E8,2.27888E7,0E0,0E0,0E0,0E0,0E0,0E0,0E0,0E0],"parents":[2147483647,0,0,1,1,2,2,3,3,4,4,5,5,6,6],"right_children":[2,4,6,8,10,12,14,-1,-1,-1,-1,-1,-1,-1,-1],"split_conditions":[8.8036E3,6.74E1,9.7E1,4.06E1,1E0,9.52E1,9.957E3,-4.1059033E2,-2.4689883E2,-1.2324002E1,-1.1040505E2,7.992106E1,-1.9057521E2,9.769098E1,2.0692871E2],"split_indices":[7,6,6,10,18,6,7,0,0,0,0,0,0,0,0],"split_type":[0,0,0,0,0,0,0,0,0,0,0,0,0,0,0],"sum_hessian":[2.53E2,8.2E1,1.71E2,4.7E1,3.5E1,6.4E1,1.07E2,1.2E1,3.5E1,8E0,2.7E1,4.3E1,2.1E1,2.9E1,7.8E1],"tree_param":{"num_deleted":"0","num_feature":"29","num_nodes":"15","size_leaf_vector":"1"}},{"base_weights":[-2.9099847E2,-2.3739612E3,7.14592E2,-1.1308856E3,-2.8865134E3,1.478426E3,-6.957245E2,-1.8004056E2,-5.6451202E1,-3.8812912E2,-2.4279045E2,1.1390862E2,2.0051744E2,-3.048791E2,-1.5328664E1],"categories":[],"categories_nodes":[],"categories_segments":[],"categories_sizes":[],"default_left":[0,0,0,0,0,0,0,0,0,0,0,0,0,0,0],"id":1,"left_children":[1,3,5,7,9,11,13,-1,-1,-1,-1,-1,-1,-1,-1],"loss_changes":[5.1487523E8,4.770691E7,1.7985168E8,8.463608E6,1.6124608E7,1.7020576E7,7.48398E7,0E0,0E0,0E0,0E0,0E0,0E0,0E0,0E0],"parents":[2147483647,0,0,1,1,2,2,3,3,4,4,5,5,6,6],"right_children":[2,4,6,8,10,12,14,-1,-1,-1,-1,-1,-1,-1,-1],"split_conditions":[6.14E1,6E0,3E1,3E0,5.91E3,2.5E1,3.1E1,-1.8004056E2,-5.6451202E1,-3.8812912E2,-2.4279045E2,1.1390862E2,2.0051744E2,-3.048791E2,-1.5328664E1],"split_indices":[11,0,3,0,7,3,3,0,0,0,0,0,0,0,0],"split_type":[0,0,0,0,0,0,0,0,0,0,0,0,0,0,0],"sum_hessian":[2.44E2,7.9E1,1.65E2,2.4E1,5.5E1,1.07E2,5.8E1,1E1,1.4E1,1.5E1,4E1,6.7E1,4E1,1E1,4.8E1],"tree_param":{"num_deleted":"0","num_feature":"29","num_nodes":"15","size_leaf_vector":"1"}},{"base_weights":[-2.4434395E2,-2.231961E3,6.2884686E2,-2.6600132E3,-1.3724606E3,-1.4752963E2,1.251501E3,-2.874128E2,-2.0097616E1,-6.831771E1,-1.6791481E2,-3.6884483E1,1.8074197E2,1.5178369E2,4.0034714E1],"categories":[],"categories_nodes":[],"categories_segments":[],"categories_sizes":[],"default_left":[0,0,0,0,0,0,0,0,0,0,0,0,0,0,0],"id":2,"left_children":[1,3,5,7,9,11,13,-1,-1,-1,-1,-1,-1,-1,-1],"loss_changes":[4.26618E8,2.3942528E7,8.284843E7,2.5221664E7,4.5605E6,3.398148E7,2.0928176E7,0E0,0E0,0E0,0E0,0E0,0E0,0E0,0E0],"parents":[2147483647,0,0,1,1,2,2,3,3,4,4,5,5,6,6],"right_children":[2,4,6,8,10,12,14,-1,-1,-1,-1,-1,-1,-1,-1],"split_conditions":[9.44E1,6.74E1,9.82E1,1E0,1E0,1E0,1.182E2,-2.874128E2,-2.0097616E1,-6.831771E1,-1.6791481E2,-3.6884483E1,1.8074197E2,1.5178369E2,4.0034714E1],"split_indices":[6,6,6,2,19,2,9,0,0,0,0,0,0,0,0],"split_type":[0,0,0,0,0,0,0,0,0,0,0,0,0,0,0],"sum_hessian":[2.44E2,7.4E1,1.7E2,4.8E1,2.6E1,7.6E1,9.4E1,4.4E1,4E0,9E0,1.7E1,6.9E1,7E0,7.1E1,2.3E1],"tree_param":{"num_deleted":"0","num_feature":"29","num_nodes":"15","size_leaf_vector":"1"}},{"base_weights":[3.5249207E1,-8.8551807E2,1.66091E3,-1.600584E3,2.2216652E2,1.919089E3,8.715726E2,-2.6936795E2,-1.2620806E2,-4.203779E0,1.9001314E2,2.0361906E2,7.570281E1,1.00562645E2,4.610047E1],"categories":[],"categories_nodes":[],"categories_segments":[],"categories_sizes":[],"default_left":[0,0,0,0,0,0,0,0,0,0,0,0,0,0,0],"id":3,"left_children":[1,3,5,7,9,11,13,-1,-1,-1,-1,-1,-1,-1,-1],"loss_changes":[3.8915626E8,1.31838824E8,1.7483664E7,3.397203E7,2.9339362E7,7.98408E6,9.12356E5,0E0,0E0,0E0,0E0,0E0,0E0,0E0,0E0],"parents":[2147483647,0,0,1,1,2,2,3,3,4,4,5,5,6,6],"right_children":[2,4,6,8,10,12,14,-1,-1,-1,-1,-1,-1,-1,-1],"split_conditions":[9.82E1,1.322E2,7.9E1,1E0,1E0,1E0,1E0,-2.6936795E2,-1.2620806E2,-4.203779E0,1.9001314E2,2.0361906E2,7.570281E1,1.00562645E2,4.610047E1],"split_indices":[6,12,4,18,2,1,17,0,0,0,0,0,0,0,0],"split_type":[0,0,0,0,0,0,0,0,0,0,0,0,0,0,0],"sum_hessian":[2.58E2,1.65E2,9.3E1,1E2,6.5E1,6.9E1,2.4E1,2.2E1,7.8E1,5.7E1,8E0,6.2E1,7E0,1.7E1,7E0],"tree_param":{"num_deleted":"0","num_feature":"29","num_nodes":"15","size_leaf_vector":"1"}},{"base_weights":[1.7931563E2,-2.1019258E3,7.3844165E2,-2.2046843E3,-6.539559E1,1.1157244E3,-1.7839761E2,-1.8818663E2,-3.3077707E2,5.13285E1,1.5403978E2,-1.4174121E2,1.8951643E1],"categories":[],"categories_nodes":[],"categories_segments":[],"categories_sizes":[],"default_left":[0,0,0,0,0,0,0,0,0,0,0,0,0],"id":4,"left_children":[1,3,5,7,-1,9,11,-1,-1,-1,-1,-1,-1],"loss_changes":[3.4976403E8,6.59296E6,7.629874E7,1.1580032E7,0E0,3.9120384E7,2.9898928E7,0E0,0E0,0E0,0E0,0E0,0E0],"parents":[2147483647,0,0,1,1,2,2,3,3,5,5,6,6],"right_children":[2,4,6,8,-1,10,12,-1,-1,-1,-1,-1,-1],"split_conditions":[6.74E1,1E0,3E1,1E0,-6.539559E1,9.74E1,3.1E1,-1.8818663E2,-3.3077707E2,5.13285E1,1.5403978E2,-1.4174121E2,1.8951643E1],"split_indices":[6,2,3,17,0,6,3,0,0,0,0,0,0],"split_type":[0,0,0,0,0,0,0,0,0,0,0,0,0],"sum_hessian":[2.72E2,5.3E1,2.19E2,4.9E1,4E0,1.55E2,6.4E1,4E1,9E0,6.5E1,9E1,1.4E1,5E1],"tree_param":{"num_deleted":"0","num_feature":"29","num_nodes":"13","size_leaf_vector":"1"}},{"base_weights":[-1.9031145E2,-1.1815991E3,7.7852826E2,-1.5186398E3,4.041128E2,1.6831526E3,3.4366357E2,-3.9474457E1,-1.7123302E2,1.4612457E2,-3.0433786E1,2.0560408E2,6.417436E1,5.335565E1,-2.24552E2],"categories":[],"categories_nodes":[],"categories_segments":[],"categories_sizes":[],"default_left":[0,0,0,0,0,0,0,0,0,0,0,0,0,0,0],"id":5,"left_children":[1,3,5,7,9,11,13,-1,-1,-1,-1,-1,-1,-1,-1],"loss_changes":[2.3525726E8,6.5282064E7,4.8201816E7,2.1092832E7,1.6921096E7,1.4213712E7,4.298987E7,0E0,0E0,0E0,0E0,0E0,0E0,0E0,0E0],"parents":[2147483647,0,0,1,1,2,2,3,3,4,4,5,5,6,6],"right_children":[2,4,6,8,10,12,14,-1,-1,-1,-1,-1,-1,-1,-1],"split_conditions":[9.7E1,1.0662E4,1E0,1.69E2,1E0,1.2E1,2.2E1,-3.9474457E1,-1.7123302E2,1.4612457E2,-3.0433786E1,2.0560408E2,6.417436E1,5.335565E1,-2.24552E2],"split_indices":[6,7,19,5,19,0,0,0,0,0,0,0,0,0,0],"split_type":[0,0,0,0,0,0,0,0,0,0,0,0,0,0,0],"sum_hessian":[2.43E2,1.2E2,1.23E2,9.9E1,2.1E1,3.9E1,8.4E1,1.5E1,8.4E1,8E0,1.3E1,2.8E1,1.1E1,7.9E1,5E0],"tree_param":{"num_deleted":"0","num_feature":"29","num_nodes":"15","size_leaf_vector":"1"}},{"base_weights":[2.7341885E2,-8.588649E2,8.951611E2,-1.9100989E3,-5.165548E2,4.3536267E2,1.3160063E3,-1.3298497E2,-3.5009262E2,-8.071025E1,-2.278512E1,9.226885E1,1.2171396E1,4.965693E1,1.5723318E2],"categories":[],"categories_nodes":[],"categories_segments":[],"categories_sizes":[],"default_left":[0,0,0,0,0,0,0,0,0,0,0,0,0,0,0],"id":6,"left_children":[1,3,5,7,9,11,13,-1,-1,-1,-1,-1,-1,-1,-1],"loss_changes":[1.7254205E8,3.0320104E7,3.000068E7,1.4728904E7,5.436206E6,1.1657081E7,1.644272E7,0E0,0E0,0E0,0E0,0E0,0E0,0E0,0E0],"parents":[2147483647,0,0,1,1,2,2,3,3,4,4,5,5,6,6],"right_children":[2,4,6,8,10,12,14,-1,-1,-1,-1,-1,-1,-1,-1],"split_conditions":[9.5536E3,4.72E1,1.0662E4,1E0,7.88E1,1E0,2.4E1,-1.3298497E2,-3.5009262E2,-8.071025E1,-2.278512E1,9.226885E1,1.2171396E1,4.965693E1,1.5723318E2],"split_indices":[7,11,7,17,6,19,3,0,0,0,0,0,0,0,0],"split_type":[0,0,0,0,0,0,0,0,0,0,0,0,0,0,0],"sum_hessian":[2.43E2,8.6E1,1.57E2,2E1,6.6E1,7.6E1,8.1E1,1.6E1,4E0,3.2E1,3.4E1,2.9E1,4.7E1,2E1,6.1E1],"tree_param":{"num_deleted":"0","num_feature":"29","num_nodes":"15","size_leaf_vector":"1"}},{"base_weights":[9.3094894E1,-1.493643E3,5.253714E2,-2.9045322E2,-9.272184E2,-2.2699637E0,1.109169E3,-1.8061258E2,-6.860525E1,1.7261036E1,-3.283368E1,1.3019304E2,3.3085552E1],"categories":[],"categories_nodes":[],"categories_segments":[],"categories_sizes":[],"default_left":[0,0,0,0,0,0,0,0,0,0,0,0,0],"id":7,"left_children":[1,3,5,-1,7,9,11,-1,-1,-1,-1,-1,-1],"loss_changes":[1.7294798E8,4.0461624E7,6.0993604E7,0E0,7.239408E6,6.0440545E6,1.3671936E7,0E0,0E0,0E0,0E0,0E0,0E0],"parents":[2147483647,0,0,1,1,2,2,4,4,5,5,6,6],"right_children":[2,4,6,-1,8,10,12,-1,-1,-1,-1,-1,-1],"split_conditions":[7.88E1,4.9E1,9.82E1,-2.9045322E2,1E0,1.79E2,1.87E2,-1.8061258E2,-6.860525E1,1.7261036E1,-3.283368E1,1.3019304E2,3.3085552E1],"split_indices":[6,6,6,0,18,5,5,0,0,0,0,0,0],"split_type":[0,0,0,0,0,0,0,0,0,0,0,0,0],"sum_hessian":[2.5E2,5.3E1,1.97E2,1.4E1,3.9E1,1.04E2,9.3E1,7E0,3.2E1,6.8E1,3.6E1,7.4E1,1.9E1],"tree_param":{"num_deleted":"0","num_feature":"29","num_nodes":"13","size_leaf_vector":"1"}},{"base_weights":[-6.920033E1,-9.9189166E2,4.860729E2,-1.3870039E3,-5.666272E2,8.9364404E2,-9.956368E0,-1.1006402E2,-2.866134E2,-8.0009796E1,3.538773E1,4.053214E1,1.0822178E2,5.965677E1,-4.046707E1],"categories":[],"categories_nodes":[],"categories_segments":[],"categories_sizes":[],"default_left":[0,0,0,0,0,0,0,0,0,0,0,0,0,0,0],"id":8,"left_children":[1,3,5,7,9,11,13,-1,-1,-1,-1,-1,-1,-1,-1],"loss_changes":[1.2549451E8,1.4672592E7,3.0940484E7,1.6753176E7,1.0169037E7,7.29648E6,1.6999674E7,0E0,0E0,0E0,0E0,0E0,0E0,0E0,0E0],"parents":[2147483647,0,0,1,1,2,2,3,3,4,4,5,5,6,6],"right_children":[2,4,6,8,10,12,14,-1,-1,-1,-1,-1,-1,-1,-1],"split_conditions":[8.8036E3,9.06E1,5.2E0,1E0,1E0,9.7E1,9.668E3,-1.1006402E2,-2.866134E2,-8.0009796E1,3.538773E1,4.053214E1,1.0822178E2,5.965677E1,-4.046707E1],"split_indices":[7,12,13,17,17,6,7,0,0,0,0,0,0,0,0],"split_type":[0,0,0,0,0,0,0,0,0,0,0,0,0,0,0],"sum_hessian":[2.43E2,9.1E1,1.52E2,4.6E1,4.5E1,8.3E1,6.9E1,4E1,6E0,3.6E1,9E0,2.4E1,5.9E1,2.7E1,4.2E1],"tree_param":{"num_deleted":"0","num_feature":"29","num_nodes":"15","size_leaf_vector":"1"}},{"base_weights":[-2.7808695E1,-5.16363E2,8.415964E2,-1.2627391E3,-1.3530272E2,-3.3844818E2,9.6902484E2,-1.4043773E2,9.650592E1,-2.5979136E1,1.3320982E2,-6.3070442E1,7.994893E0,7.529845E1,1.1774247E2],"categories":[],"categories_nodes":[],"categories_segments":[],"categories_sizes":[],"default_left":[0,0,0,0,0,0,0,0,0,0,0,0,0,0,0],"id":9,"left_children":[1,3,5,7,9,11,13,-1,-1,-1,-1,-1,-1,-1,-1],"loss_changes":[1.12144216E8,4.7895164E7,1.461324E7,1.9341144E7,2.0988312E7,1.273216E6,2.985376E6,0E0,0E0,0E0,0E0,0E0,0E0,0E0,0E0],"parents":[2147483647,0,0,1,1,2,2,3,3,4,4,5,5,6,6],"right_children":[2,4,6,8,10,12,14,-1,-1,-1,-1,-1,-1,-1,-1],"split_conditions":[9.82E1,6.74E1,3.53E2,1E0,1E0,1E0,5.536E2,-1.4043773E2,9.650592E1,-2.5979136E1,1.3320982E2,-6.3070442E1,7.994893E0,7.529845E1,1.1774247E2],"split_indices":[6,6,8,2,2,19,8,0,0,0,0,0,0,0,0],"split_type":[0,0,0,0,0,0,0,0,0,0,0,0,0,0,0],"sum_hessian":[2.62E2,1.68E2,9.4E1,5.6E1,1.12E2,9E0,8.5E1,5.3E1,3E0,1.04E2,8E0,5E0,4E0,4.4E1,4.1E1],"tree_param":{"num_deleted":"0","num_feature":"29","num_nodes":"15","size_leaf_vector":"1"}},{"base_weights":[-7.229307E0,-6.239737E2,5.7958466E2,-8.6534625E2,8.31323E2,4.609987E2,1.291768E2,6.4055824E1,-9.8068985E1,1.61727E2,-1.1635108E1,-8.340948E1,5.1070503E1],"categories":[],"categories_nodes":[],"categories_segments":[],"categories_sizes":[],"default_left":[0,0,0,0,0,0,0,0,0,0,0,0,0],"id":10,"left_children":[1,3,5,7,9,11,-1,-1,-1,-1,-1,-1,-1],"loss_changes":[1.0169763E8,4.88432E7,1.1566008E7,2.112436E7,1.5084606E7,8.472772E6,0E0,0E0,0E0,0E0,0E0,0E0,0E0],"parents":[2147483647,0,0,1,1,2,2,3,3,4,4,5,5],"right_children":[2,4,6,8,10,12,-1,-1,-1,-1,-1,-1,-1],"split_conditions":[9.7E1,1.10018E4,1E0,2.7E1,1E0,5.72E1,1.291768E2,6.4055824E1,-9.8068985E1,1.61727E2,-1.1635108E1,-8.340948E1,5.1070503E1],"split_indices":[6,7,23,9,19,9,0,0,0,0,0,0,0],"split_type":[0,0,0,0,0,0,0,0,0,0,0,0,0],"sum_hessian":[2.79E2,1.36E2,1.43E2,1.17E2,1.9E1,1.24E2,1.9E1,8E0,1.09E2,1E1,9E0,4E0,1.2E2],"tree_param":{"num_deleted":"0","num_feature":"29","num_nodes":"13","size_leaf_vector":"1"}},{"base_weights":[-9.764029E1,-1.4000673E3,2.300514E2,-1.7672689E3,-1.907648E2,4.895933E2,-3.1611273E2,-1.5037462E2,-2.600451E2,-3.5874504E1,-7.624637E0,3.2400036E1,9.3286064E1,5.1209045E1,-4.7315063E1],"categories":[],"categories_nodes":[],"categories_segments":[],"categories_sizes":[],"default_left":[0,0,0,0,0,0,0,0,0,0,0,0,0,0,0],"id":11,"left_children":[1,3,5,7,9,11,13,-1,-1,-1,-1,-1,-1,-1,-1],"loss_changes":[1.083011E8,2.2309816E7,2.8930518E7,4.652512E6,2.2272581E5,9.827222E6,8.826209E6,0E0,0E0,0E0,0E0,0E0,0E0,0E0,0E0],"parents":[2147483647,0,0,1,1,2,2,3,3,4,4,5,5,6,6],"right_children":[2,4,6,8,10,12,14,-1,-1,-1,-1,-1,-1,-1,-1],"split_conditions":[7.6428E3,5E1,3E1,1E0,1E0,2.7E1,6.3E1,-1.5037462E2,-2.600451E2,-3.5874504E1,-7.624637E0,3.2400036E1,9.3286064E1,5.1209045E1,-4.7315063E1],"split_indices":[7,11,3,17,18,3,4,0,0,0,0,0,0,0,0],"split_type":[0,0,0,0,0,0,0,0,0,0,0,0,0,0,0],"sum_hessian":[2.52E2,5E1,2.02E2,3.8E1,1.2E1,1.37E2,6.5E1,3.1E1,7E0,4E0,8E0,1.01E2,3.6E1,1E1,5.5E1],"tree_param":{"num_deleted":"0","num_feature":"29","num_nodes":"15","size_leaf_vector":"1"}},{"base_weights":[1.3161725E2,-9.231271E2,4.3139572E2,-1.0677662E3,1.0433248E2,6.061862E2,-9.125606E2,-1.8225076E2,-5.541712E1,8.5933205E1,3.03798E1,-1.9956584E2,2.5349733E1],"categories":[],"categories_nodes":[],"categories_segments":[],"categories_sizes":[],"default_left":[0,0,0,0,0,0,0,0,0,0,0,0,0],"id":12,"left_children":[1,3,5,7,-1,9,11,-1,-1,-1,-1,-1,-1],"loss_changes":[7.280566E7,1.5619748E7,4.260221E7,1.7596332E7,0E0,1.1910116E7,2.7027944E7,0E0,0E0,0E0,0E0,0E0,0E0],"parents":[2147483647,0,0,1,1,2,2,3,3,5,5,6,6],"right_children":[2,4,6,8,-1,10,12,-1,-1,-1,-1,-1,-1],"split_conditions":[7.88E1,1E0,1E0,2.85E1,1.0433248E2,1.79E2,6.6E1,-1.8225076E2,-5.541712E1,8.5933205E1,3.03798E1,-1.9956584E2,2.5349733E1],"split_indices":[6,2,22,16,0,5,4,0,0,0,0,0,0],"split_type":[0,0,0,0,0,0,0,0,0,0,0,0,0],"sum_hessian":[2.28E2,5E1,1.78E2,4.7E1,3E0,1.58E2,2E1,1.8E1,2.9E1,8.5E1,7.3E1,1E1,1E1],"tree_param":{"num_deleted":"0","num_feature":"29","num_nodes":"13","size_leaf_vector":"1"}},{"base_weights":[6.59794E1,-8.581528E2,5.0212784E2,-1.1965099E3,-1.872502E2,4.1961407E2,1.6041713E2,-7.8563967E0,-1.3725795E2,6.987321E0,-1.6831781E2,1.0841241E2,2.875803E1],"categories":[],"categories_nodes":[],"categories_segments":[],"categories_sizes":[],"default_left":[0,0,0,0,0,0,0,0,0,0,0,0,0],"id":13,"left_children":[1,3,5,7,9,11,-1,-1,-1,-1,-1,-1,-1],"loss_changes":[9.676196E7,1.7255312E7,1.4149072E7,9.930808E6,1.0502837E7,1.3112106E7,0E0,0E0,0E0,0E0,0E0,0E0,0E0],"parents":[2147483647,0,0,1,1,2,2,3,3,4,4,5,5],"right_children":[2,4,6,8,10,12,-1,-1,-1,-1,-1,-1,-1],"split_conditions":[6.14E1,1.84E2,1E0,2.168E2,1E0,6.4E1,1.6041713E2,-7.8563967E0,-1.3725795E2,6.987321E0,-1.6831781E2,1.0841241E2,2.875803E1],"split_indices":[11,5,2,8,1,11,0,0,0,0,0,0,0],"split_type":[0,0,0,0,0,0,0,0,0,0,0,0,0],"sum_hessian":[2.38E2,7.6E1,1.62E2,5E1,2.6E1,1.52E2,1E1,7E0,4.3E1,2.3E1,3E0,2.4E1,1.28E2],"tree_param":{"num_deleted":"0","num_feature":"29","num_nodes":"13","size_leaf_vector":"1"}},{"base_weights":[4.9419712E1,-3.4514197E2,3.5822238E2,-1.2759513E3,-6.850093E1,1.0155214E3,-9.814848E1,5.3038357E1,-2.604075E2,9.117094E1,-3.1994144E1,1.21667786E2,-3.1835743E1,-9.4320724E1,3.501495E1],"categories":[],"categories_nodes":[],"categories_segments":[],"categories_sizes":[],"default_left":[0,0,0,0,0,0,0,0,0,0,0,0,0,0,0],"id":14,"left_children":[1,3,5,7,9,11,13,-1,-1,-1,-1,-1,-1,-1,-1],"loss_changes":[2.9121964E7,2.6950106E7,4.029594E7,5.8958028E7,2.0501788E7,1.514484E7,3.0637314E7,0E0,0E0,0E0,0E0,0E0,0E0,0E0,0E0],"parents":[2147483647,0,0,1,1,2,2,3,3,4,4,5,5,6,6],"right_children":[2,4,6,8,10,12,14,-1,-1,-1,-1,-1,-1,-1,-1],"split_conditions":[4.16E2,1E0,1E0,6E0,3.464E2,1E0,2.9E1,5.3038357E1,-2.604075E2,9.117094E1,-3.1994144E1,1.21667786E2,-3.1835743E1,-9.4320724E1,3.501495E1],"split_indices":[8,18,19,0,8,22,16,0,0,0,0,0,0,0,0],"split_type":[0,0,0,0,0,0,0,0,0,0,0,0,0,0,0],"sum_hessian":[2.37E2,1.04E2,1.33E2,2.3E1,8.1E1,5.4E1,7.9E1,1E1,1.3E1,1.6E1,6.5E1,4.7E1,7E0,2.7E1,5.2E1],"tree_param":{"num_deleted":"0","num_feature":"29","num_nodes":"15","size_leaf_vector":"1"}},{"base_weights":[-3.889385E1,-7.502855E2,2.854615E2,-1.5542902E2,-6.070865E2,1.11131134E2,8.2700183E2,-7.100793E1,5.5835384E1,3.6197308E1,-2.553964E1,1.3307378E2,3.7491573E1],"categories":[],"categories_nodes":[],"categories_segments":[],"categories_sizes":[],"default_left":[0,0,0,0,0,0,0,0,0,0,0,0,0],"id":15,"left_children":[1,3,5,-1,7,9,11,-1,-1,-1,-1,-1,-1],"loss_changes":[5.674638E7,7.921628E6,1.5862865E7,0E0,8.438618E6,1.1952767E7,8.838092E6,0E0,0E0,0E0,0E0,0E0,0E0],"parents":[2147483647,0,0,1,1,2,2,4,4,5,5,6,6],"right_children":[2,4,6,-1,8,10,12,-1,-1,-1,-1,-1,-1],"split_conditions":[8.8036E3,3.2E1,7.78E1,-1.5542902E2,2.3E1,1.07432E4,1E0,-7.100793E1,5.5835384E1,3.6197308E1,-2.553964E1,1.3307378E2,3.7491573E1],"split_indices":[7,10,11,0,0,7,19,0,0,0,0,0,0],"split_type":[0,0,0,0,0,0,0,0,0,0,0,0,0],"sum_hessian":[2.44E2,7.6E1,1.68E2,1E1,6.6E1,1.28E2,4E1,6.1E1,5E0,7.6E1,5.2E1,1.8E1,2.2E1],"tree_param":{"num_deleted":"0","num_feature":"29","num_nodes":"13","size_leaf_vector":"1"}},{"base_weights":[-3.8495697E1,1.2434741E3,-1.93137E2,2.3809841E1,1.8978514E2,-6.3344604E2,-2.1596586E1,-1.9458199E2,-3.8454983E1,-5.3434414E1,3.1671606E1],"categories":[],"categories_nodes":[],"categories_segments":[],"categories_sizes":[],"default_left":[0,0,0,0,0,0,0,0,0,0,0],"id":16,"left_children":[1,3,5,-1,-1,7,9,-1,-1,-1,-1],"loss_changes":[4.6034864E7,1.5995496E7,1.5621195E7,0E0,0E0,1.8197134E7,2.6189582E7,0E0,0E0,0E0,0E0],"parents":[2147483647,0,0,1,1,2,2,5,5,6,6],"right_children":[2,4,6,-1,-1,8,10,-1,-1,-1,-1],"split_conditions":[5.76E1,7.88E1,4.002E2,2.3809841E1,1.8978514E2,8E1,6.6E1,-1.9458199E2,-3.8454983E1,-5.3434414E1,3.1671606E1],"split_indices":[9,6,8,0,0,4,4,0,0,0,0],"split_type":[0,0,0,0,0,0,0,0,0,0,0],"sum_hessian":[2.3E2,2.4E1,2.06E2,1E1,1.4E1,5.7E1,1.49E2,8E0,4.9E1,5.9E1,9E1],"tree_param":{"num_deleted":"0","num_feature":"29","num_nodes":"11","size_leaf_vector":"1"}},{"base_weights":[-6.2700733E1,-3.741979E2,4.0189825E2,-7.8987463E2,-7.921658E1,5.821335E2,-5.1313184E2,1.7136604E1,-1.6326122E2,-1.00341515E2,2.1083323E1,1.3129521E2,2.194776E1,-1.7822075E1,-1.04161354E2],"categories":[],"categories_nodes":[],"categories_segments":[],"categories_sizes":[],"default_left":[0,0,0,0,0,0,0,0,0,0,0,0,0,0,0],"id":17,"left_children":[1,3,5,7,9,11,13,-1,-1,-1,-1,-1,-1,-1,-1],"loss_changes":[3.3870444E7,1.710379E7,1.5801252E7,4.726405E7,2.2460834E7,2.0649658E7,2.646273E6,0E0,0E0,0E0,0E0,0E0,0E0,0E0,0E0],"parents":[2147483647,0,0,1,1,2,2,3,3,4,4,5,5,6,6],"right_children":[2,4,6,8,10,12,14,-1,-1,-1,-1,-1,-1,-1,-1],"split_conditions":[5.72E1,1E0,1.86E2,2.8E1,6.32E1,1E0,1E0,1.7136604E1,-1.6326122E2,-1.00341515E2,2.1083323E1,1.3129521E2,2.194776E1,-1.7822075E1,-1.04161354E2],"split_indices":[10,19,5,16,6,19,1,0,0,0,0,0,0,0,0],"split_type":[0,0,0,0,0,0,0,0,0,0,0,0,0,0,0],"sum_hessian":[2.32E2,1.39E2,9.3E1,5.7E1,8.2E1,7.8E1,1.5E1,2.7E1,3E1,1.9E1,6.3E1,2.5E1,5.3E1,1E1,5E0],"tree_param":{"num_deleted":"0","num_feature":"29","num_nodes":"15","size_leaf_vector":"1"}},{"base_weights":[-9.241846E1,-1.3356935E2,3.6130266E0,-1.3333621E2,3.6173236E2,1.6421877E1,-5.2157265E1,9.7146126E1,4.864675E0],"categories":[],"categories_nodes":[],"categories_segments":[],"categories_sizes":[],"default_left":[0,0,0,0,0,0,0,0,0],"id":18,"left_children":[1,-1,3,5,7,-1,-1,-1,-1],"loss_changes":[2.9972604E7,0E0,1.1524567E7,1.972434E7,1.2361068E7,0E0,0E0,0E0,0E0],"parents":[2147483647,0,0,2,2,3,3,4,4],"right_children":[2,-1,4,6,8,-1,-1,-1,-1],"split_conditions":[8.64E1,-1.3356935E2,1.4E2,9.4E1,1E0,1.6421877E1,-5.2157265E1,9.7146126E1,4.864675E0],"split_indices":[12,0,12,9,19,0,0,0,0],"split_type":[0,0,0,0,0,0,0,0,0],"sum_hessian":[2.5E2,1.7E1,2.33E2,1.69E2,6.4E1,9.6E1,7.3E1,2.1E1,4.3E1],"tree_param":{"num_deleted":"0","num_feature":"29","num_nodes":"9","size_leaf_vector":"1"}},{"base_weights":[-1.4707816E2,1.2579989E2,-4.8369705E2,-7.765716E1,8.1087054E2,-7.415931E2,3.270092E2,-1.176285E2,1.3306566E1,2.0090434E2,5.1423316E0,-5.65431E1,-1.3463213E2,-4.3857374E0,5.1487896E1],"categories":[],"categories_nodes":[],"categories_segments":[],"categories_sizes":[],"default_left":[0,0,0,0,0,0,0,0,0,0,0,0,0,0,0],"id":19,"left_children":[1,3,5,7,9,11,13,-1,-1,-1,-1,-1,-1,-1,-1],"loss_changes":[2.2381834E7,1.88796E7,2.3032E7,2.446465E7,2.8105106E7,8.080752E6,1.9037958E6,0E0,0E0,0E0,0E0,0E0,0E0,0E0,0E0],"parents":[2147483647,0,0,1,1,2,2,3,3,4,4,5,5,6,6],"right_children":[2,4,6,8,10,12,14,-1,-1,-1,-1,-1,-1,-1,-1],"split_conditions":[6.4E0,1E0,3.1E1,1E0,5.14E1,1E0,1E0,-1.176285E2,1.3306566E1,2.0090434E2,5.1423316E0,-5.65431E1,-1.3463213E2,-4.3857374E0,5.1487896E1],"split_indices":[13,17,3,19,10,17,19,0,0,0,0,0,0,0,0],"split_type":[0,0,0,0,0,0,0,0,0,0,0,0,0,0,0],"sum_hessian":[2.42E2,1.34E2,1.08E2,1.04E2,3E1,8.2E1,2.6E1,1.6E1,8.8E1,1.1E1,1.9E1,6.5E1,1.7E1,9E0,1.7E1],"tree_param":{"num_deleted":"0","num_feature":"29","num_nodes":"15","size_leaf_vector":"1"}},{"base_weights":[1.5349988E1,-7.2512885E2,1.8136697E2,-1.6641078E2,-5.2422736E2,-7.193309E1,5.2453E2,8.045376E1,-9.230843E1,-1.1211594E1,9.068418E1,-1.561983E1,6.718347E1],"categories":[],"categories_nodes":[],"categories_segments":[],"categories_sizes":[],"default_left":[0,0,0,0,0,0,0,0,0,0,0,0,0],"id":20,"left_children":[1,3,5,-1,7,9,11,-1,-1,-1,-1,-1,-1],"loss_changes":[3.2216782E7,8.182456E6,1.8639304E7,0E0,2.2472128E7,4.9785865E6,9.229916E6,0E0,0E0,0E0,0E0,0E0,0E0],"parents":[2147483647,0,0,1,1,2,2,4,4,5,5,6,6],"right_children":[2,4,6,-1,8,10,12,-1,-1,-1,-1,-1,-1],"split_conditions":[4.84E1,1E0,9.82E1,-1.6641078E2,1E0,2.1E1,2.2E1,8.045376E1,-9.230843E1,-1.1211594E1,9.068418E1,-1.561983E1,6.718347E1],"split_indices":[11,18,6,0,19,0,3,0,0,0,0,0,0],"split_type":[0,0,0,0,0,0,0,0,0,0,0,0,0],"sum_hessian":[2.6E2,4.7E1,2.13E2,7E0,4E1,1.23E2,9E1,9E0,3.1E1,1.19E2,4E0,1.6E1,7.4E1],"tree_param":{"num_deleted":"0","num_feature":"29","num_nodes":"13","size_leaf_vector":"1"}},{"base_weights":[9.618486E1,-2.8873163E2,3.6971313E2,-1.076083E3,-6.436804E1,1.5987982E2,2.3755597E2,1.0136302E2,-1.7128717E2,-5.140347E1,3.9783604E1,-3.266981E1,4.0507366E1],"categories":[],"categories_nodes":[],"categories_segments":[],"categories_sizes":[],"default_left":[0,0,0,0,0,0,0,0,0,0,0,0,0],"id":21,"left_children":[1,3,5,7,9,-1,11,-1,-1,-1,-1,-1,-1],"loss_changes":[2.6322848E7,1.8302646E7,2.3335332E7,3.234245E7,1.7247198E7,0E0,1.2703832E7,0E0,0E0,0E0,0E0,0E0,0E0],"parents":[2147483647,0,0,1,1,2,2,3,3,4,4,6,6],"right_children":[2,4,6,8,10,-1,12,-1,-1,-1,-1,-1,-1],"split_conditions":[4.16E2,1E0,5.76E1,2.8E1,2.85E1,1.5987982E2,9.1E1,1.0136302E2,-1.7128717E2,-5.140347E1,3.9783604E1,-3.266981E1,4.0507366E1],"split_indices":[8,18,9,16,16,0,9,0,0,0,0,0,0],"split_type":[0,0,0,0,0,0,0,0,0,0,0,0,0],"sum_hessian":[2.48E2,1.03E2,1.45E2,2.2E1,8.1E1,1.3E1,1.32E2,5E0,1.7E1,4.1E1,4E1,3E1,1.02E2],"tree_param":{"num_deleted":"0","num_feature":"29","num_nodes":"13","size_leaf_vector":"1"}},{"base_weights":[1.7198445E2,-2.575062E2,5.1365247E2,-5.256089E2,-5.4437923E1,7.471003E2,9.344499E1,-3.4288067E1,-1.6866504E2,-2.268924E1,9.863375E1,1.667726E1,1.0550121E2,8.2354904E1,-2.8550085E1],"categories":[],"categories_nodes":[],"categories_segments":[],"categories_sizes":[],"default_left":[0,0,0,0,0,0,0,0,0,0,0,0,0,0,0],"id":22,"left_children":[1,3,5,7,9,11,13,-1,-1,-1,-1,-1,-1,-1,-1],"loss_changes":[3.535064E7,5.7968045E6,1.307512E7,9.180814E6,1.1351948E7,1.5191372E7,1.3791948E7,0E0,0E0,0E0,0E0,0E0,0E0,0E0,0E0],"parents":[2147483647,0,0,1,1,2,2,3,3,4,4,5,5,6,6],"right_children":[2,4,6,8,10,12,14,-1,-1,-1,-1,-1,-1,-1,-1],"split_conditions":[9.668E3,7.6E1,6.2E2,1E0,1E0,4.002E2,1E0,-3.4288067E1,-1.6866504E2,-2.268924E1,9.863375E1,1.667726E1,1.0550121E2,8.2354904E1,-2.8550085E1],"split_indices":[7,6,8,17,17,8,19,0,0,0,0,0,0,0,0],"split_type":[0,0,0,0,0,0,0,0,0,0,0,0,0,0,0],"sum_hessian":[2.39E2,1.06E2,1.33E2,4.5E1,6.1E1,8.5E1,4.8E1,4E1,5E0,5.3E1,8E0,3E1,5.5E1,1.6E1,3.2E1],"tree_param":{"num_deleted":"0","num_feature":"29","num_nodes":"15","size_leaf_vector":"1"}},{"base_weights":[6.0914516E1,-1.8018909E2,4.054264E2,-1.1215869E2,-1.2033009E3,1.4805171E2,6.5989813E2,2.2268736E1,-2.9321756E1,1.2157035E2,-3.3816452E2,-2.1953783E1,3.8465572E1,1.4115761E2,5.475076E1],"categories":[],"categories_nodes":[],"categories_segments":[],"categories_sizes":[],"default_left":[0,0,0,0,0,0,0,0,0,0,0,0,0,0,0],"id":23,"left_children":[1,3,5,7,9,11,13,-1,-1,-1,-1,-1,-1,-1,-1],"loss_changes":[2.058963E7,1.0027034E7,6.582748E6,8.4318E6,5.15359E7,4.607051E6,3.535708E6,0E0,0E0,0E0,0E0,0E0,0E0,0E0,0E0],"parents":[2147483647,0,0,1,1,2,2,3,3,4,4,5,5,6,6],"right_children":[2,4,6,8,10,12,14,-1,-1,-1,-1,-1,-1,-1,-1],"split_conditions":[7.2E1,1E0,3.858E2,1E0,4E0,1E0,3.91E2,2.2268736E1,-2.9321756E1,1.2157035E2,-3.3816452E2,-2.1953783E1,3.8465572E1,1.4115761E2,5.475076E1],"split_indices":[4,1,8,19,0,19,8,0,0,0,0,0,0,0,0],"split_type":[0,0,0,0,0,0,0,0,0,0,0,0,0,0,0],"sum_hessian":[2.46E2,1.45E2,1.01E2,1.37E2,8E0,5.1E1,5E1,4.8E1,8.9E1,4E0,4E0,2E1,3.1E1,5E0,4.5E1],"tree_param":{"num_deleted":"0","num_feature":"29","num_nodes":"15","size_leaf_vector":"1"}},{"base_weights":[-2.0054591E2,-1.4470642E2,-1.5412636E2,-2.0461276E2,7.6648486E2,-8.690665E0,-6.1491283E1,1.8280968E2,-7.767449E1],"categories":[],"categories_nodes":[],"categories_segments":[],"categories_sizes":[],"default_left":[0,0,0,0,0,0,0,0,0],"id":24,"left_children":[1,-1,3,5,7,-1,-1,-1,-1],"loss_changes":[1.4474126E7,0E0,1.1590508E7,1.1247548E7,2.2718006E7,0E0,0E0,0E0,0E0],"parents":[2147483647,0,0,2,2,3,3,4,4],"right_children":[2,-1,4,6,8,-1,-1,-1,-1],"split_conditions":[3.68E1,-1.4470642E2,1E0,1E0,1.79E2,-8.690665E0,-6.1491283E1,1.8280968E2,-7.767449E1],"split_indices":[9,0,2,17,5,0,0,0,0],"split_type":[0,0,0,0,0,0,0,0,0],"sum_hessian":[2.53E2,8E0,2.45E2,2.33E2,1.2E1,1.82E2,5.1E1,7E0,5E0],"tree_param":{"num_deleted":"0","num_feature":"29","num_nodes":"9","size_leaf_vector":"1"}},{"base_weights":[1.9830694E1,-5.0668542E2,1.7795558E2,-8.554275E1,1.0286634E2,-1.4029236E2,3.1237048E2,3.2945866E1,1.6841625E0,9.0707664E1,-4.941615E1,4.6192463E1,-8.5477705E0],"categories":[],"categories_nodes":[],"categories_segments":[],"categories_sizes":[],"default_left":[0,0,0,0,0,0,0,0,0,0,0,0,0],"id":25,"left_children":[1,3,5,-1,7,9,11,-1,-1,-1,-1,-1,-1],"loss_changes":[2.0903994E7,1.241742E7,8.299835E6,0E0,4.2328728E5,2.1944876E7,8.131463E6,0E0,0E0,0E0,0E0,0E0,0E0],"parents":[2147483647,0,0,1,1,2,2,4,4,5,5,6,6],"right_children":[2,4,6,-1,8,10,12,-1,-1,-1,-1,-1,-1],"split_conditions":[1.71E2,2.9E1,2.8E1,-8.554275E1,1E0,1E0,1.87E2,3.2945866E1,1.6841625E0,9.0707664E1,-4.941615E1,4.6192463E1,-8.5477705E0],"split_indices":[5,3,16,0,18,18,5,0,0,0,0,0,0],"split_type":[0,0,0,0,0,0,0,0,0,0,0,0,0],"sum_hessian":[2.49E2,5.7E1,1.92E2,3.6E1,2.1E1,5.7E1,1.35E2,5E0,1.6E1,1.4E1,4.3E1,9.8E1,3.7E1],"tree_param":{"num_deleted":"0","num_feature":"29","num_nodes":"13","size_leaf_vector":"1"}},{"base_weights":[1.9685957E1,-5.5381847E1,1.0473984E3,5.7128033E2,-1.7279869E2,1.5861188E3,-5.627539E1,-7.9679675E0,1.01873856E2,-4.731431E0,-1.345899E2,2.0410197E2,7.152308E1],"categories":[],"categories_nodes":[],"categories_segments":[],"categories_sizes":[],"default_left":[0,0,0,0,0,0,0,0,0,0,0,0,0],"id":26,"left_children":[1,3,5,7,9,11,-1,-1,-1,-1,-1,-1,-1],"loss_changes":[1.9267892E7,1.7243018E7,1.5638762E7,1.0858437E7,2.8935856E7,3.690384E6,0E0,0E0,0E0,0E0,0E0,0E0,0E0],"parents":[2147483647,0,0,1,1,2,2,3,3,4,4,5,5],"right_children":[2,4,6,8,10,12,-1,-1,-1,-1,-1,-1,-1],"split_conditions":[1E0,3.73E2,9.82E1,2.67E2,8.3E1,1.368E2,-5.627539E1,-7.9679675E0,1.01873856E2,-4.731431E0,-1.345899E2,2.0410197E2,7.152308E1],"split_indices":[2,8,6,8,4,12,0,0,0,0,0,0,0],"split_type":[0,0,0,0,0,0,0,0,0,0,0,0,0],"sum_hessian":[2.48E2,2.32E2,1.6E1,3.6E1,1.96E2,1.2E1,4E0,1.5E1,2.1E1,1.78E2,1.8E1,7E0,5E0],"tree_param":{"num_deleted":"0","num_feature":"29","num_nodes":"13","size_leaf_vector":"1"}},{"base_weights":[-1.0336738E1,-2.2934508E2,2.5377296E1,-9.863221E1,5.382691E2,-3.8692947E1,2.520542E1,1.0239873E2,-9.229278E1],"categories":[],"categories_nodes":[],"categories_segments":[],"categories_sizes":[],"default_left":[0,0,0,0,0,0,0,0,0],"id":27,"left_children":[1,-1,3,5,7,-1,-1,-1,-1],"loss_changes":[2.1176858E7,0E0,1.6335577E7,2.1025628E7,3.643156E7,0E0,0E0,0E0,0E0],"parents":[2147483647,0,0,2,2,3,3,4,4],"right_children":[2,-1,4,6,8,-1,-1,-1,-1],"split_conditions":[2.6E1,-2.2934508E2,1.8E1,5.74E2,1E0,-3.8692947E1,2.520542E1,1.0239873E2,-9.229278E1],"split_indices":[16,0,0,8,17,0,0,0,0],"split_type":[0,0,0,0,0,0,0,0,0],"sum_hessian":[2.58E2,3E0,2.55E2,2.06E2,4.9E1,1.13E2,9.3E1,3.7E1,1.2E1],"tree_param":{"num_deleted":"0","num_feature":"29","num_nodes":"9","size_leaf_vector":"1"}},{"base_weights":[1.2511321E2,5.689829E1,1.5358315E2,2.1175314E2,-1.814334E2,6.8245974E0,1.2127116E2,-2.7039661E1,7.382427E1],"categories":[],"categories_nodes":[],"categories_segments":[],"categories_sizes":[],"default_left":[0,0,0,0,0,0,0,0,0],"id":28,"left_children":[1,3,-1,5,7,-1,-1,-1,-1],"loss_changes":[2.5029174E7,9.265124E6,0E0,2.1751232E7,8.299534E6,0E0,0E0,0E0,0E0],"parents":[2147483647,0,0,1,1,3,3,4,4],"right_children":[2,4,-1,6,8,-1,-1,-1,-1],"split_conditions":[9.04E2,6.6E0,1.5358315E2,5.2E0,1E0,6.8245974E0,1.2127116E2,-2.7039661E1,7.382427E1],"split_indices":[8,13,0,13,2,0,0,0,0],"split_type":[0,0,0,0,0,0,0,0,0],"sum_hessian":[2.6E2,2.49E2,1.1E1,1.51E2,9.8E1,1.33E2,1.8E1,9E1,8E0],"tree_param":{"num_deleted":"0","num_feature":"29","num_nodes":"9","size_leaf_vector":"1"}},{"base_weights":[3.600329E1,1.268388E2,-9.3710706E2,8.524625E1,8.0999774E2,-1.1456587E3,3.3992825E1,-6.1634247E1,1.6131872E1,2.5392883E0,1.590975E2,-1.5126436E2,-8.803336E1],"categories":[],"categories_nodes":[],"categories_segments":[],"categories_sizes":[],"default_left":[0,0,0,0,0,0,0,0,0,0,0,0,0],"id":29,"left_children":[1,3,5,7,9,11,-1,-1,-1,-1,-1,-1,-1],"loss_changes":[2.3808176E7,6.920874E6,6.514984E6,1.2535009E7,8.538219E6,6.15776E5,0E0,0E0,0E0,0E0,0E0,0E0,0E0],"parents":[2147483647,0,0,1,1,2,2,3,3,4,4,5,5],"right_children":[2,4,6,8,10,12,-1,-1,-1,-1,-1,-1,-1],"split_conditions":[2.4E1,1E0,2.8E1,7.4224E3,1E0,3E0,3.3992825E1,-6.1634247E1,1.6131872E1,2.5392883E0,1.590975E2,-1.5126436E2,-8.803336E1],"split_indices":[0,2,0,7,19,13,0,0,0,0,0,0,0],"split_type":[0,0,0,0,0,0,0,0,0,0,0,0,0],"sum_hessian":[2.67E2,2.45E2,2.2E1,2.32E2,1.3E1,1.9E1,3E0,2.2E1,2.1E2,7E0,6E0,6E0,1.3E1],"tree_param":{"num_deleted":"0","num_feature":"29","num_nodes":"13","size_leaf_vector":"1"}},{"base_weights":[-1.5976448E2,-6.9929193E2,9.504751E0,-1.7621522E3,-3.6061072E2,1.6548012E2,-6.2868195E1,-1.3239766E2,-2.5265971E2,-7.4053154E1,3.3105015E1,3.5513462E1,-2.9259119E1],"categories":[],"categories_nodes":[],"categories_segments":[],"categories_sizes":[],"default_left":[0,0,0,0,0,0,0,0,0,0,0,0,0],"id":30,"left_children":[1,3,5,7,9,-1,11,-1,-1,-1,-1,-1,-1],"loss_changes":[2.2564018E7,2.0602826E7,2.2609198E7,1.344304E6,1.2332864E7,0E0,1.7580434E7,0E0,0E0,0E0,0E0,0E0,0E0],"parents":[2147483647,0,0,1,1,2,2,3,3,4,4,6,6],"right_children":[2,4,6,8,10,-1,12,-1,-1,-1,-1,-1,-1],"split_conditions":[1.03E2,1E0,1.112E2,6.74E1,2.9E1,1.6548012E2,1E0,-1.3239766E2,-2.5265971E2,-7.4053154E1,3.3105015E1,3.5513462E1,-2.9259119E1],"split_indices":[12,18,12,6,16,0,19,0,0,0,0,0,0],"split_type":[0,0,0,0,0,0,0,0,0,0,0,0,0],"sum_hessian":[2.46E2,5.8E1,1.88E2,1.3E1,4.5E1,7E0,1.81E2,1E1,3E0,2.9E1,1.6E1,6.4E1,1.17E2],"tree_param":{"num_deleted":"0","num_feature":"29","num_nodes":"13","size_leaf_vector":"1"}},{"base_weights":[-1.7025616E2,-2.3410881E2,7.0364764E2,-3.151623E2,5.090751E2,-1.3161021E2,1.2304584E3,-1.4056541E2,-1.9167562E1,1.3343065E2,1.3932841E1,1.8149152E2,5.6525154E1],"categories":[],"categories_nodes":[],"categories_segments":[],"categories_sizes":[],"default_left":[0,0,0,0,0,0,0,0,0,0,0,0,0],"id":31,"left_children":[1,3,5,7,9,-1,11,-1,-1,-1,-1,-1,-1],"loss_changes":[1.3891794E7,1.4015099E7,1.9707848E7,2.7740092E7,6.832003E6,0E0,4.417102E6,0E0,0E0,0E0,0E0,0E0,0E0],"parents":[2147483647,0,0,1,1,2,2,3,3,4,4,6,6],"right_children":[2,4,6,8,10,-1,12,-1,-1,-1,-1,-1,-1],"split_conditions":[1E0,3.1E1,4.84E1,4E0,3.2E1,-1.3161021E2,9.52E1,-1.4056541E2,-1.9167562E1,1.3343065E2,1.3932841E1,1.8149152E2,5.6525154E1],"split_indices":[2,16,11,13,10,0,6,0,0,0,0,0,0],"split_type":[0,0,0,0,0,0,0,0,0,0,0,0,0],"sum_hessian":[2.45E2,2.29E2,1.6E1,2.07E2,2.2E1,3E0,1.3E1,2E1,1.87E2,6E0,1.6E1,6E0,7E0],"tree_param":{"num_deleted":"0","num_feature":"29","num_nodes":"13","size_leaf_vector":"1"}},{"base_weights":[1.2759144E2,3.5827823E2,-2.0959895E2,1.256654E2,6.6888824E2,4.7792755E1,-2.8051028E2,-4.4580007E0,6.306895E1,1.3383568E2,4.366355E1,-3.546464E1,1.3358312E1],"categories":[],"categories_nodes":[],"categories_segments":[],"categories_sizes":[],"default_left":[0,0,0,0,0,0,0,0,0,0,0,0,0],"id":32,"left_children":[1,3,5,7,9,-1,11,-1,-1,-1,-1,-1,-1],"loss_changes":[1.9677008E7,1.0753726E7,5.1556665E6,7.508205E6,9.366722E6,0E0,2.933107E6,0E0,0E0,0E0,0E0,0E0,0E0],"parents":[2147483647,0,0,1,1,2,2,3,3,4,4,6,6],"right_children":[2,4,6,8,10,-1,12,-1,-1,-1,-1,-1,-1],"split_conditions":[2.95E1,7.4E1,4.18E1,8E0,9.7E1,4.7792755E1,2.2E1,-4.4580007E0,6.306895E1,1.3383568E2,4.366355E1,-3.546464E1,1.3358312E1],"split_indices":[16,4,10,13,6,0,0,0,0,0,0,0,0],"split_type":[0,0,0,0,0,0,0,0,0,0,0,0,0],"sum_hessian":[2.51E2,1.49E2,1.02E2,8.6E1,6.3E1,9E0,9.3E1,6.5E1,2.1E1,1.5E1,4.8E1,7.9E1,1.4E1],"tree_param":{"num_deleted":"0","num_feature":"29","num_nodes":"13","size_leaf_vector":"1"}},{"base_weights":[4.6397125E1,1.2068606E2,-8.51422E2,6.35162E2,3.389219E1,-6.426895E2,-1.307335E2,2.8051758E1,8.8171486E1,3.1678303E1,-1.2452624E1,-8.252283E0,-7.7585434E1],"categories":[],"categories_nodes":[],"categories_segments":[],"categories_sizes":[],"default_left":[0,0,0,0,0,0,0,0,0,0,0,0,0],"id":33,"left_children":[1,3,5,7,9,11,-1,-1,-1,-1,-1,-1,-1],"loss_changes":[1.6577167E7,1.0204092E7,9.67901E5,2.638137E6,8.868027E6,1.0548915E6,0E0,0E0,0E0,0E0,0E0,0E0,0E0],"parents":[2147483647,0,0,1,1,2,2,3,3,4,4,5,5],"right_children":[2,4,6,8,10,12,-1,-1,-1,-1,-1,-1,-1],"split_conditions":[1E0,6.56E1,1E0,6.9E1,1E0,1E0,-1.307335E2,2.8051758E1,8.8171486E1,3.1678303E1,-1.2452624E1,-8.252283E0,-7.7585434E1],"split_indices":[27,9,17,4,19,19,0,0,0,0,0,0,0],"split_type":[0,0,0,0,0,0,0,0,0,0,0,0,0],"sum_hessian":[2.46E2,2.28E2,1.8E1,3.2E1,1.96E2,1.4E1,4E0,1.4E1,1.8E1,7E1,1.26E2,3E0,1.1E1],"tree_param":{"num_deleted":"0","num_feature":"29","num_nodes":"13","size_leaf_vector":"1"}},{"base_weights":[1.3557439E2,2.1640747E2,-1.3111963E3,1.524341E2,1.3712189E2,-8.997582E1,-2.0119925E2,-1.2358034E2,1.971314E1],"categories":[],"categories_nodes":[],"categories_segments":[],"categories_sizes":[],"default_left":[0,0,0,0,0,0,0,0,0],"id":34,"left_children":[1,3,5,7,-1,-1,-1,-1,-1],"loss_changes":[2.8701864E7,1.6856612E7,1.938036E6,1.3894726E7,0E0,0E0,0E0,0E0,0E0],"parents":[2147483647,0,0,1,1,2,2,3,3],"right_children":[2,4,6,8,-1,-1,-1,-1,-1],"split_conditions":[1.16638E4,1.14668E4,1E0,2.168E2,1.3712189E2,-8.997582E1,-2.0119925E2,-1.2358034E2,1.971314E1],"split_indices":[7,7,17,8,0,0,0,0,0],"split_type":[0,0,0,0,0,0,0,0,0],"sum_hessian":[2.42E2,2.3E2,1.2E1,2.19E2,1.1E1,9E0,3E0,6E0,2.13E2],"tree_param":{"num_deleted":"0","num_feature":"29","num_nodes":"9","size_leaf_vector":"1"}},{"base_weights":[-4.1564404E1,-2.2522769E2,1.2322036E2,1.7195264E2,-4.4926285E2,4.546864E2,-5.5212875E1,-2.765734E0,1.0736548E2,-5.2208534E1,3.5354534E1,5.372285E1,-1.988894E1,4.26701E0,-3.6953808E1],"categories":[],"categories_nodes":[],"categories_segments":[],"categories_sizes":[],"default_left":[0,0,0,0,0,0,0,0,0,0,0,0,0,0,0],"id":35,"left_children":[1,3,5,7,9,11,13,-1,-1,-1,-1,-1,-1,-1,-1],"loss_changes":[7.6847755E6,1.0755134E7,7.9504755E6,7.949199E6,4.686191E6,2.642383E6,2.723272E6,0E0,0E0,0E0,0E0,0E0,0E0,0E0,0E0],"parents":[2147483647,0,0,1,1,2,2,3,3,4,4,5,5,6,6],"right_children":[2,4,6,8,10,12,14,-1,-1,-1,-1,-1,-1,-1,-1],"split_conditions":[2.9E1,1.112E2,3E1,2.85E1,1E0,3E1,1E0,-2.765734E0,1.0736548E2,-5.2208534E1,3.5354534E1,5.372285E1,-1.988894E1,4.26701E0,-3.6953808E1],"split_indices":[16,12,16,16,1,3,17,0,0,0,0,0,0,0,0],"split_type":[0,0,0,0,0,0,0,0,0,0,0,0,0,0,0],"sum_hessian":[2.52E2,1.19E2,1.33E2,4.3E1,7.6E1,4.6E1,8.7E1,3.6E1,7E0,7E1,6E0,4.1E1,5E0,6.7E1,2E1],"tree_param":{"num_deleted":"0","num_feature":"29","num_nodes":"15","size_leaf_vector":"1"}},{"base_weights":[1.043374E2,-8.004887E2,2.3188667E2,-1.1635957E3,4.2084913E0,-2.6181458E2,3.899027E2,-7.732927E1,-1.5980785E2,-1.1034598E-1,-7.542077E1,1.2973933E1,7.1785995E1],"categories":[],"categories_nodes":[],"categories_segments":[],"categories_sizes":[],"default_left":[0,0,0,0,0,0,0,0,0,0,0,0,0],"id":36,"left_children":[1,3,5,7,-1,9,11,-1,-1,-1,-1,-1,-1],"loss_changes":[2.7999412E7,9.227302E6,1.6640776E7,2.325398E6,0E0,6.6745295E6,1.3643782E7,0E0,0E0,0E0,0E0,0E0,0E0],"parents":[2147483647,0,0,1,1,2,2,3,3,5,5,6,6],"right_children":[2,4,6,8,-1,10,12,-1,-1,-1,-1,-1,-1],"split_conditions":[2.65E1,2.5E1,6.6E1,1E1,4.2084913E0,1.1E1,6.4E1,-7.732927E1,-1.5980785E2,-1.1034598E-1,-7.542077E1,1.2973933E1,7.1785995E1],"split_indices":[16,0,4,0,0,0,11,0,0,0,0,0,0],"split_type":[0,0,0,0,0,0,0,0,0,0,0,0,0],"sum_hessian":[2.4E2,2.9E1,2.11E2,2E1,9E0,5.1E1,1.6E2,1.2E1,8E0,3.4E1,1.7E1,9E1,7E1],"tree_param":{"num_deleted":"0","num_feature":"29","num_nodes":"13","size_leaf_vector":"1"}},{"base_weights":[-1.0124671E2,1.6136595E2,-4.6695828E2,-4.9295172E2,3.114447E2,-2.3400858E2,-1.592823E3,-7.527563E1,3.939986E1,9.6499725E1,2.0266531E1,-4.914975E1,8.089476E1,-2.3646935E2,1.699896E2],"categories":[],"categories_nodes":[],"categories_segments":[],"categories_sizes":[],"default_left":[0,0,0,0,0,0,0,0,0,0,0,0,0,0,0],"id":37,"left_children":[1,3,5,7,9,11,13,-1,-1,-1,-1,-1,-1,-1,-1],"loss_changes":[2.4373598E7,1.4687007E7,2.742787E7,6.7487295E6,8.406689E6,2.4298516E7,4.9767656E7,0E0,0E0,0E0,0E0,0E0,0E0,0E0,0E0],"parents":[2147483647,0,0,1,1,2,2,3,3,4,4,5,5,6,6],"right_children":[2,4,6,8,10,12,14,-1,-1,-1,-1,-1,-1,-1,-1],"split_conditions":[1.2E1,3E0,1E0,1E0,2.2E1,1.56E2,8E1,-7.527563E1,3.939986E1,9.6499725E1,2.0266531E1,-4.914975E1,8.089476E1,-2.3646935E2,1.699896E2],"split_indices":[0,0,17,2,3,9,4,0,0,0,0,0,0,0,0],"split_type":[0,0,0,0,0,0,0,0,0,0,0,0,0,0,0],"sum_hessian":[2.52E2,1.47E2,1.05E2,2.7E1,1.2E2,8.8E1,1.7E1,2.1E1,6E0,1.6E1,1.04E2,7.1E1,1.7E1,1.4E1,3E0],"tree_param":{"num_deleted":"0","num_feature":"29","num_nodes":"15","size_leaf_vector":"1"}},{"base_weights":[1.8238737E1,-2.824944E2,2.0376389E2,-1.3918692E2,-7.842579E2,4.1545807E2,-2.9290756E2,-4.2680866E1,-6.510669E0,-2.3559017E1,-1.3115083E2,5.3050983E1,-1.8772238E1,-1.3264807E2,-8.906249E0],"categories":[],"categories_nodes":[],"categories_segments":[],"categories_sizes":[],"default_left":[0,0,0,0,0,0,0,0,0,0,0,0,0,0,0],"id":38,"left_children":[1,3,5,7,9,11,13,-1,-1,-1,-1,-1,-1,-1,-1],"loss_changes":[1.461968E7,7.081487E6,1.715477E7,1.6554712E6,6.055298E6,8.010844E6,1.0205611E7,0E0,0E0,0E0,0E0,0E0,0E0,0E0,0E0],"parents":[2147483647,0,0,1,1,2,2,3,3,4,4,5,5,6,6],"right_children":[2,4,6,8,10,12,14,-1,-1,-1,-1,-1,-1,-1,-1],"split_conditions":[7E1,9.74E1,2.9E1,1E0,1.2E1,6E-1,1.03E2,-4.2680866E1,-6.510669E0,-2.3559017E1,-1.3115083E2,5.3050983E1,-1.8772238E1,-1.3264807E2,-8.906249E0],"split_indices":[4,6,3,18,0,14,12,0,0,0,0,0,0,0,0],"split_type":[0,0,0,0,0,0,0,0,0,0,0,0,0,0,0],"sum_hessian":[2.6E2,9.9E1,1.61E2,7.8E1,2.1E1,1.13E2,4.8E1,1.5E1,6.3E1,1.1E1,1E1,9.5E1,1.8E1,7E0,4.1E1],"tree_param":{"num_deleted":"0","num_feature":"29","num_nodes":"15","size_leaf_vector":"1"}},{"base_weights":[-7.397062E1,-1.4189944E2,1.0917349E3,-2.9972214E2,2.7021912E2,1.5161209E2,1.0949297E1,-1.9003632E1,-9.495746E1,5.5395393E1,-4.5413002E1],"categories":[],"categories_nodes":[],"categories_segments":[],"categories_sizes":[],"default_left":[0,0,0,0,0,0,0,0,0,0,0],"id":39,"left_children":[1,3,5,7,9,-1,-1,-1,-1,-1,-1],"loss_changes":[1.868421E7,1.4520238E7,5.253041E6,1.129556E7,1.2993997E7,0E0,0E0,0E0,0E0,0E0,0E0],"parents":[2147483647,0,0,1,1,2,2,3,3,4,4],"right_children":[2,4,6,8,10,-1,-1,-1,-1,-1,-1],"split_conditions":[1.16638E4,1.8E1,1E0,1.87E2,2.5E1,1.5161209E2,1.0949297E1,-1.9003632E1,-9.495746E1,5.5395393E1,-4.5413002E1],"split_indices":[7,0,17,5,0,0,0,0,0,0,0],"split_type":[0,0,0,0,0,0,0,0,0,0,0],"sum_hessian":[2.33E2,2.21E2,1.2E1,1.6E2,6.1E1,8E0,4E0,1.38E2,2.2E1,4.4E1,1.7E1],"tree_param":{"num_deleted":"0","num_feature":"29","num_nodes":"11","size_leaf_vector":"1"}},{"base_weights":[3.3710133E1,7.4428033E2,-4.7189705E1,1.1126669E3,-9.5179924E1,-7.812395E2,1.8130915E1,1.9224E2,7.3947525E1,-2.1373775E2,7.4944253E0,-1.0081853E1,3.7462376E1],"categories":[],"categories_nodes":[],"categories_segments":[],"categories_sizes":[],"default_left":[0,0,0,0,0,0,0,0,0,0,0,0,0],"id":40,"left_children":[1,3,5,7,-1,9,11,-1,-1,-1,-1,-1,-1],"loss_changes":[1.4061465E7,1.6679355E7,1.0562854E7,4.924332E6,0E0,2.1060044E7,8.645908E6,0E0,0E0,0E0,0E0,0E0,0E0],"parents":[2147483647,0,0,1,1,2,2,3,3,5,5,6,6],"right_children":[2,4,6,8,-1,10,12,-1,-1,-1,-1,-1,-1],"split_conditions":[7.1548E3,1E0,4.3E1,1E0,-9.5179924E1,1E0,1E0,1.9224E2,7.3947525E1,-2.1373775E2,7.4944253E0,-1.0081853E1,3.7462376E1],"split_indices":[7,17,10,19,0,19,17,0,0,0,0,0,0],"split_type":[0,0,0,0,0,0,0,0,0,0,0,0,0],"sum_hessian":[2.43E2,2.4E1,2.19E2,2E1,4E0,1.7E1,2.02E2,5E0,1.5E1,6E0,1.1E1,1.52E2,5E1],"tree_param":{"num_deleted":"0","num_feature":"29","num_nodes":"13","size_leaf_vector":"1"}},{"base_weights":[-9.91735E1,1.0220353E2,-6.6823914E2,2.6538486E2,-4.0375192E2,-8.2134015E2,5.4441067E1,-5.2989246E1,4.9226315E1,7.584399E1,-1.3269164E2,-4.030244E1,-1.3741286E2],"categories":[],"categories_nodes":[],"categories_segments":[],"categories_sizes":[],"default_left":[0,0,0,0,0,0,0,0,0,0,0,0,0],"id":41,"left_children":[1,3,5,7,9,11,-1,-1,-1,-1,-1,-1,-1],"loss_changes":[2.8946676E7,1.5546334E7,1.2700568E7,2.5882064E7,5.035951E7,1.3089356E7,0E0,0E0,0E0,0E0,0E0,0E0,0E0],"parents":[2147483647,0,0,1,1,2,2,3,3,4,4,5,5],"right_children":[2,4,6,8,10,12,-1,-1,-1,-1,-1,-1,-1],"split_conditions":[7.9E1,1E0,1E0,4E0,1E1,2.4E1,5.4441067E1,-5.2989246E1,4.9226315E1,7.584399E1,-1.3269164E2,-4.030244E1,-1.3741286E2],"split_indices":[4,17,1,0,0,3,0,0,0,0,0,0,0],"split_type":[0,0,0,0,0,0,0,0,0,0,0,0,0],"sum_hessian":[2.51E2,1.86E2,6.5E1,1.41E2,4.5E1,5.8E1,7E0,3.1E1,1.1E2,2E1,2.5E1,3.4E1,2.4E1],"tree_param":{"num_deleted":"0","num_feature":"29","num_nodes":"13","size_leaf_vector":"1"}},{"base_weights":[-1.1745181E0,-4.6181564E1,8.953137E2,2.7297766E2,-1.363915E2,1.7824637E2,2.2893085E2,-7.265644E1,3.6940075E1,-4.7620244E0,-1.15112724E2,4.0784454E1,-5.194397E0],"categories":[],"categories_nodes":[],"categories_segments":[],"categories_sizes":[],"default_left":[0,0,0,0,0,0,0,0,0,0,0,0,0],"id":42,"left_children":[1,3,5,7,9,-1,11,-1,-1,-1,-1,-1,-1],"loss_changes":[1.0128419E7,6.91836E6,6.686117E6,5.3764775E6,1.6790024E7,0E0,4.2320384E5,0E0,0E0,0E0,0E0,0E0,0E0],"parents":[2147483647,0,0,1,1,2,2,3,3,4,4,6,6],"right_children":[2,4,6,8,10,-1,12,-1,-1,-1,-1,-1,-1],"split_conditions":[1E0,2.3E1,2.9E1,3.8E1,1E0,1.7824637E2,1E0,-7.265644E1,3.6940075E1,-4.7620244E0,-1.15112724E2,4.0784454E1,-5.194397E0],"split_indices":[2,3,16,6,1,0,19,0,0,0,0,0,0],"split_type":[0,0,0,0,0,0,0,0,0,0,0,0,0],"sum_hessian":[2.49E2,2.38E2,1.1E1,5.2E1,1.86E2,4E0,7E0,4E0,4.8E1,1.72E2,1.4E1,4E0,3E0],"tree_param":{"num_deleted":"0","num_feature":"29","num_nodes":"13","size_leaf_vector":"1"}},{"base_weights":[6.434101E-1,1.4143826E2,-4.334848E2,-2.9598965E2,2.8415433E2,-7.8529663E2,2.098855E2,-4.7382874E1,9.685757E1,3.618511E1,-7.6208885E1,-1.26096985E2,-5.533904E1,9.491244E1,-7.1189237E-1],"categories":[],"categories_nodes":[],"categories_segments":[],"categories_sizes":[],"default_left":[0,0,0,0,0,0,0,0,0,0,0,0,0,0,0],"id":43,"left_children":[1,3,5,7,9,11,13,-1,-1,-1,-1,-1,-1,-1,-1],"loss_changes":[1.4975328E7,1.1633283E7,1.3745538E7,1.080384E7,1.1656322E7,3.604346E6,3.5359548E6,0E0,0E0,0E0,0E0,0E0,0E0,0E0,0E0],"parents":[2147483647,0,0,1,1,2,2,3,3,4,4,5,5,6,6],"right_children":[2,4,6,8,10,12,14,-1,-1,-1,-1,-1,-1,-1,-1],"split_conditions":[3E1,2.3E1,1.82E2,1E0,1E0,1E0,8E1,-4.7382874E1,9.685757E1,3.618511E1,-7.6208885E1,-1.26096985E2,-5.533904E1,9.491244E1,-7.1189237E-1],"split_indices":[3,3,5,1,1,18,4,0,0,0,0,0,0,0,0],"split_type":[0,0,0,0,0,0,0,0,0,0,0,0,0,0,0],"sum_hessian":[2.43E2,1.84E2,5.9E1,4.5E1,1.39E2,3.8E1,2.1E1,4E1,5E0,1.3E2,9E0,1.1E1,2.7E1,4E0,1.7E1],"tree_param":{"num_deleted":"0","num_feature":"29","num_nodes":"15","size_leaf_vector":"1"}},{"base_weights":[-2.5658548E2,-5.6670334E1,-9.321316E2,-6.88371E2,4.2144505E1,-1.4792253E3,-1.18857155E2,-2.4981066E1,-9.837847E1,6.914391E1,-5.435948E0,-1.1902993E2,-3.1319006E2,8.562705E1,-6.310014E1],"categories":[],"categories_nodes":[],"categories_segments":[],"categories_sizes":[],"default_left":[0,0,0,0,0,0,0,0,0,0,0,0,0,0,0],"id":44,"left_children":[1,3,5,7,9,11,13,-1,-1,-1,-1,-1,-1,-1,-1],"loss_changes":[3.0739012E7,1.1077598E7,2.2960924E7,2.863601E6,9.687152E6,1.1074624E7,1.1527241E7,0E0,0E0,0E0,0E0,0E0,0E0,0E0,0E0],"parents":[2147483647,0,0,1,1,2,2,3,3,4,4,5,5,6,6],"right_children":[2,4,6,8,10,12,14,-1,-1,-1,-1,-1,-1,-1,-1],"split_conditions":[1.07432E4,4.06E1,2.5E1,3.68E1,4.84E1,7.9E1,1E0,-2.4981066E1,-9.837847E1,6.914391E1,-5.435948E0,-1.1902993E2,-3.1319006E2,8.562705E1,-6.310014E1],"split_indices":[7,10,3,9,11,4,18,0,0,0,0,0,0,0,0],"split_type":[0,0,0,0,0,0,0,0,0,0,0,0,0,0,0],"sum_hessian":[2.27E2,1.76E2,5.1E1,2.3E1,1.53E2,3E1,2.1E1,1E1,1.3E1,1.9E1,1.34E2,2.7E1,3E0,7E0,1.4E1],"tree_param":{"num_deleted":"0","num_feature":"29","num_nodes":"15","size_leaf_vector":"1"}},{"base_weights":[3.584043E1,-1.004924E2,6.392282E2,3.5786862E2,-2.8773044E2,1.0783638E2,5.11688E2,5.669579E1,-3.2483116E1,-1.3238667E2,-1.1264329E1,8.693961E1,2.966091E1],"categories":[],"categories_nodes":[],"categories_segments":[],"categories_sizes":[],"default_left":[0,0,0,0,0,0,0,0,0,0,0,0,0],"id":45,"left_children":[1,3,5,7,9,-1,11,-1,-1,-1,-1,-1,-1],"loss_changes":[1.9642492E7,1.683838E7,1.91254E6,8.320642E6,2.506744E7,0E0,2.511807E6,0E0,0E0,0E0,0E0,0E0,0E0],"parents":[2147483647,0,0,1,1,2,2,3,3,4,4,6,6],"right_children":[2,4,6,8,10,-1,12,-1,-1,-1,-1,-1,-1],"split_conditions":[3.1E1,1.71E2,8.76E1,9.74E1,6.56E1,1.0783638E2,1E0,5.669579E1,-3.2483116E1,-1.3238667E2,-1.1264329E1,8.693961E1,2.966091E1],"split_indices":[3,5,9,6,9,0,19,0,0,0,0,0,0],"split_type":[0,0,0,0,0,0,0,0,0,0,0,0,0],"sum_hessian":[2.37E2,1.94E2,4.3E1,5.6E1,1.38E2,8E0,3.5E1,4.3E1,1.3E1,1.9E1,1.19E2,1.2E1,2.3E1],"tree_param":{"num_deleted":"0","num_feature":"29","num_nodes":"13","size_leaf_vector":"1"}},{"base_weights":[6.914312E1,1.0577316E3,-7.110979E1,-4.2042747E1,1.5834357E3,-3.9458484E2,1.4919855E2,1.3669759E2,-1.0424784E2,1.4981473E1,2.1468965E2,-1.5482518E2,-3.0748264E1,6.394582E1,-3.6202972E0],"categories":[],"categories_nodes":[],"categories_segments":[],"categories_sizes":[],"default_left":[0,0,0,0,0,0,0,0,0,0,0,0,0,0,0],"id":46,"left_children":[1,3,5,7,9,11,13,-1,-1,-1,-1,-1,-1,-1,-1],"loss_changes":[3.459966E7,1.7989408E7,1.5665742E7,1.6931E7,1.6641936E7,8.467277E6,1.193038E7,0E0,0E0,0E0,0E0,0E0,0E0,0E0,0E0],"parents":[2147483647,0,0,1,1,2,2,3,3,4,4,5,5,6,6],"right_children":[2,4,6,8,10,12,14,-1,-1,-1,-1,-1,-1,-1,-1],"split_conditions":[6.56E1,1E0,4.486E2,6E0,6E0,7.78E1,1E0,1.3669759E2,-1.0424784E2,1.4981473E1,2.1468965E2,-1.5482518E2,-3.0748264E1,6.394582E1,-3.6202972E0],"split_indices":[9,18,8,0,0,9,18,0,0,0,0,0,0,0,0],"split_type":[0,0,0,0,0,0,0,0,0,0,0,0,0,0,0],"sum_hessian":[2.48E2,3E1,2.18E2,1E1,2E1,8.8E1,1.3E2,4E0,6E0,6E0,1.4E1,5E0,8.3E1,3.5E1,9.5E1],"tree_param":{"num_deleted":"0","num_feature":"29","num_nodes":"15","size_leaf_vector":"1"}},{"base_weights":[1.09845184E2,4.445014E2,-1.76046E2,2.762882E2,1.8653073E2,-5.528843E2,7.426271E1,2.043406E1,7.242129E1,-6.629445E1,7.107704E0,8.070712E1,-1.0184474E1],"categories":[],"categories_nodes":[],"categories_segments":[],"categories_sizes":[],"default_left":[0,0,0,0,0,0,0,0,0,0,0,0,0],"id":47,"left_children":[1,3,5,7,-1,9,11,-1,-1,-1,-1,-1,-1],"loss_changes":[2.3901392E7,2.696944E7,1.2775056E7,3.2036335E6,0E0,3.755479E6,1.0664544E7,0E0,0E0,0E0,0E0,0E0,0E0],"parents":[2147483647,0,0,1,1,2,2,3,3,5,5,6,6],"right_children":[2,4,6,8,-1,10,12,-1,-1,-1,-1,-1,-1],"split_conditions":[1E1,9E0,2.5E1,8E0,1.8653073E2,2.176E2,2.7E1,2.043406E1,7.242129E1,-6.629445E1,7.107704E0,8.070712E1,-1.0184474E1],"split_indices":[0,0,3,0,0,9,3,0,0,0,0,0,0],"split_type":[0,0,0,0,0,0,0,0,0,0,0,0,0],"sum_hessian":[2.48E2,1.14E2,1.34E2,1.03E2,1.1E1,5.3E1,8.1E1,9E1,1.3E1,4.5E1,8E0,1.5E1,6.6E1],"tree_param":{"num_deleted":"0","num_feature":"29","num_nodes":"13","size_leaf_vector":"1"}},{"base_weights":[-1.9948578E1,3.704404E2,-2.2706897E2,7.555459E1,1.480256E3,-9.005773E2,-2.0505888E1,-2.572064E2,2.3487156E1,9.319271E1,1.8257263E2,-1.2189955E2,6.83703E1,-1.2175976E1,1.0399214E2],"categories":[],"categories_nodes":[],"categories_segments":[],"categories_sizes":[],"default_left":[0,0,0,0,0,0,0,0,0,0,0,0,0,0,0],"id":48,"left_children":[1,3,5,7,9,11,13,-1,-1,-1,-1,-1,-1,-1,-1],"loss_changes":[2.0055922E7,2.8033284E7,2.2519288E7,2.970903E7,1.708316E6,2.0003056E7,1.3548166E7,0E0,0E0,0E0,0E0,0E0,0E0,0E0,0E0],"parents":[2147483647,0,0,1,1,2,2,3,3,4,4,5,5,6,6],"right_children":[2,4,6,8,10,12,14,-1,-1,-1,-1,-1,-1,-1,-1],"split_conditions":[1E0,1E0,5E0,5.72E1,6.5E1,1E0,2.176E2,-2.572064E2,2.3487156E1,9.319271E1,1.8257263E2,-1.2189955E2,6.83703E1,-1.2175976E1,1.0399214E2],"split_indices":[19,26,0,9,4,2,9,0,0,0,0,0,0,0,0],"split_type":[0,0,0,0,0,0,0,0,0,0,0,0,0,0,0],"sum_hessian":[2.46E2,8.5E1,1.61E2,6.8E1,1.7E1,3.7E1,1.24E2,3E0,6.5E1,8E0,9E0,3.1E1,6E0,1.14E2,1E1],"tree_param":{"num_deleted":"0","num_feature":"29","num_nodes":"15","size_leaf_vector":"1"}},{"base_weights":[-2.0936487E2,-6.432173E1,-7.969536E2,-2.4398271E2,2.1150893E2,1.6794086E2,-1.2152781E3,-1.17825966E2,-1.5169299E1,6.6361976E0,7.970208E1,1.0570077E2,-6.410009E1,-1.6546892E2,4.745701E1],"categories":[],"categories_nodes":[],"categories_segments":[],"categories_sizes":[],"default_left":[0,0,0,0,0,0,0,0,0,0,0,0,0,0,0],"id":49,"left_children":[1,3,5,7,9,11,13,-1,-1,-1,-1,-1,-1,-1,-1],"loss_changes":[2.1510844E7,1.016103E7,2.0386044E7,1.0513062E7,6.830914E6,1.2184795E7,2.6774096E7,0E0,0E0,0E0,0E0,0E0,0E0,0E0,0E0],"parents":[2147483647,0,0,1,1,2,2,3,3,4,4,5,5,6,6],"right_children":[2,4,6,8,10,12,14,-1,-1,-1,-1,-1,-1,-1,-1],"split_conditions":[1E0,2.95E1,1E0,6.6E1,1E0,1.2E1,1.5E1,-1.17825966E2,-1.5169299E1,6.6361976E0,7.970208E1,1.0570077E2,-6.410009E1,-1.6546892E2,4.745701E1],"split_indices":[26,16,18,4,17,0,0,0,0,0,0,0,0,0,0],"split_type":[0,0,0,0,0,0,0,0,0,0,0,0,0,0,0],"sum_hessian":[2.52E2,2.03E2,4.9E1,1.23E2,8E1,1.5E1,3.4E1,1E1,1.13E2,6.5E1,1.5E1,7E0,8E0,2.7E1,7E0],"tree_param":{"num_deleted":"0","num_feature":"29","num_nodes":"15","size_leaf_vector":"1"}}]},"name":"gbtree"},"learner_model_param":{"base_score":"7.262645E3","boost_from_average":"1","num_class":"0","num_feature":"29","num_target":"1"},"objective":{"name":"reg:squarederror","reg_loss_param":{"scale_pos_weight":"1"}}},"version":[2,0,3]}