{"learner":{"attributes":{"scikit_learn":"{\"_estimator_type\": \"regressor\"}"},"feature_names":["jugador_anonimizado","gol","asistencia","edad","peso","altura","minutos_predictor","avg_dist_sess_m_predictor","zona_4_19.9_25.1_kmh_predictor","zona_5_mas_25.1_kmh_predictor","num_aceleraciones_intensas_predictor","num_desaceleraciones_intensas_predictor","num_acel_desintensas_predictor","num_sprints_total_predictor","gol_predictor","asistencia_predictor","max_vel_kmh_predictor","torneo_Libertadores","torneo_Torneo Local","categoria_partido_Normal","posicion_habitual_Delantero","posicion_habitual_Extremo","posicion_habitual_Lateral","posicion_habitual_Lateral ","posicion_habitual_Lateral / Volante","posicion_habitual_Volante / Extremo","posicion_habitual_Volante Central","posicion_habitual_Volante Ofensivo","posicion_habitual_Volante Ofensivo / Extremo"],"feature_types":["int","int","int","int","int","int","float","float","float","float","float","float","float","float","float","float","float","i","i","i","i","i","i","i","i","i","i","i","i"],"gradient_booster":{"model":{"gbtree_model_param":{"num_parallel_tree":"1","num_trees":"50"},"iteration_indptr":[0,1,2,3,4,5,6,7,8,9,10,11,12,13,14,15,16,17,18,19,20,21,22,23,24,25,26,27,28,29,30,31,32,33,34,35,36,37,38,39,40,41,42,43,44,45,46,47,48,49,50],"tree_info":[0,0,0,0,0,0,0,0,0,0,0,0,0,0,0,0,0,0,0,0,0,0,0,0,0,0,0,0,0,0,0,0,0,0,0,0,0,0,0,0,0,0,0,0,0,0,0,0,0,0],"trees":[{"base_weights":[7.738402E-1,-4.968555E0,3.2558033E1,-1.852403E1,2.6738605E0,3.835698E1,2.5760984E0,-1.1300939E0,-2.3569834E0,5.86571E-1,-5.0985044E-1,2.5180938E0,5.019914E0],"categories":[],"categories_nodes":[],"categories_segments":[],"categories_sizes":[],"default_left":[0,0,0,0,0,0,0,0,0,0,0,0,0],"id":0,"left_children":[1,3,5,7,9,11,-1,-1,-1,-1,-1,-1,-1],"loss_changes":[4.6521184E4,2.2426393E4,5.4910156E2,2.5764531E3,3.4782485E3,1.7005605E3,0E0,0E0,0E0,0E0,0E0,0E0,0E0],"parents":[2147483647,0,0,1,1,2,2,3,3,4,4,5,5],"right_children":[2,4,6,8,10,12,-1,-1,-1,-1,-1,-1,-1],"split_conditions":[9.3E1,6.14E1,1E0,1.6E1,1E1,9.84E1,2.5760984E0,-1.1300939E0,-2.3569834E0,5.86571E-1,-5.0985044E-1,2.5180938E0,5.019914E0],"split_indices":[11,11,19,0,0,6,0,0,0,0,0,0,0],"split_type":[0,0,0,0,0,0,0,0,0,0,0,0,0],"sum_hessian":[2.53E2,2.15E2,3.8E1,7.7E1,1.38E2,1.8E1,2E1,3.3E1,4.4E1,9.8E1,4E1,1E1,8E0],"tree_param":{"num_deleted":"0","num_feature":"29","num_nodes":"13","size_leaf_vector":"1"}},{"base_weights":[-1.4639298E0,-9.9350395E0,2.1661278E1,-2.4526606E1,-3.486855E0,1.6544296E0,2.6537401E1,-9.032988E-1,-2.5246758E0,-6.393737E-1,5.251915E-1,1.3409971E0,-4.3887836E-1,2.935394E0,-6.372146E-1],"categories":[],"categories_nodes":[],"categories_segments":[],"categories_sizes":[],"default_left":[0,0,0,0,0,0,0,0,0,0,0,0,0,0,0],"id":1,"left_children":[1,3,5,7,9,11,13,-1,-1,-1,-1,-1,-1,-1,-1],"loss_changes":[4.820976E4,1.685052E4,6.394783E3,3.856211E2,3.2343037E3,1.0534308E3,5.099668E3,0E0,0E0,0E0,0E0,0E0,0E0,0E0,0E0],"parents":[2147483647,0,0,1,1,2,2,3,3,4,4,5,5,6,6],"right_children":[2,4,6,8,10,12,14,-1,-1,-1,-1,-1,-1,-1,-1],"split_conditions":[1.4E2,1.03E2,2E0,2.1E1,1.10018E4,1E0,1E0,-9.032988E-1,-2.5246758E0,-6.393737E-1,5.251915E-1,1.3409971E0,-4.3887836E-1,2.935394E0,-6.372146E-1],"split_indices":[12,12,0,3,7,19,1,0,0,0,0,0,0,0,0],"split_type":[0,0,0,0,0,0,0,0,0,0,0,0,0,0,0],"sum_hessian":[2.44E2,1.79E2,6.5E1,5.4E1,1.25E2,1.3E1,5.2E1,3E0,5.1E1,9.4E1,3.1E1,4E0,9E0,4.8E1,4E0],"tree_param":{"num_deleted":"0","num_feature":"29","num_nodes":"15","size_leaf_vector":"1"}},{"base_weights":[-7.655956E-1,-1.6168388E1,7.667163E0,-2.1510815E1,-1.0704106E1,2.8132195E0,2.253024E1,-9.615445E-1,-2.2484305E0,-1.2186334E0,-5.0148267E-1,5.4986525E-1,-3.4320512E-1,2.649099E0,8.3949673E-1],"categories":[],"categories_nodes":[],"categories_segments":[],"categories_sizes":[],"default_left":[0,0,0,0,0,0,0,0,0,0,0,0,0,0,0],"id":2,"left_children":[1,3,5,7,9,11,13,-1,-1,-1,-1,-1,-1,-1,-1],"loss_changes":[3.1946535E4,2.309496E3,1.1407598E4,2.8174414E2,3.1836377E2,2.0481934E3,1.9610742E3,0E0,0E0,0E0,0E0,0E0,0E0,0E0,0E0],"parents":[2147483647,0,0,1,1,2,2,3,3,4,4,5,5,6,6],"right_children":[2,4,6,8,10,12,14,-1,-1,-1,-1,-1,-1,-1,-1],"split_conditions":[6.2E1,4.84E1,9.3E1,2.6E1,9.7E1,2.95E1,1E0,-9.615445E-1,-2.2484305E0,-1.2186334E0,-5.0148267E-1,5.4986525E-1,-3.4320512E-1,2.649099E0,8.3949673E-1],"split_indices":[11,11,11,16,6,16,17,0,0,0,0,0,0,0,0],"split_type":[0,0,0,0,0,0,0,0,0,0,0,0,0,0,0],"sum_hessian":[2.44E2,8.6E1,1.58E2,4.2E1,4.4E1,1.2E2,3.8E1,4E0,3.8E1,3.4E1,1E1,8.4E1,3.6E1,2.9E1,9E0],"tree_param":{"num_deleted":"0","num_feature":"29","num_nodes":"15","size_leaf_vector":"1"}},{"base_weights":[-5.70298E-2,-4.748374E0,3.0103241E1,-1.191873E1,1.2946751E0,3.858579E1,1.0629543E1,-1.0009365E0,-1.8897711E0,4.610889E-1,-5.4502136E-1,4.421072E0,1.4342543E0,1.2273139E0,5.8738834E-1],"categories":[],"categories_nodes":[],"categories_segments":[],"categories_sizes":[],"default_left":[0,0,0,0,0,0,0,0,0,0,0,0,0,0,0],"id":3,"left_children":[1,3,5,7,9,11,13,-1,-1,-1,-1,-1,-1,-1,-1],"loss_changes":[3.678942E4,9.764864E3,5.371385E3,1.1833643E3,2.7763318E3,2.6386992E3,2.1705688E1,0E0,0E0,0E0,0E0,0E0,0E0,0E0,0E0],"parents":[2147483647,0,0,1,1,2,2,3,3,4,4,5,5,6,6],"right_children":[2,4,6,8,10,12,14,-1,-1,-1,-1,-1,-1,-1,-1],"split_conditions":[1.618E2,1.186E2,2.5E1,1E0,1.182E2,1E0,1E0,-1.0009365E0,-1.8897711E0,4.610889E-1,-5.4502136E-1,4.421072E0,1.4342543E0,1.2273139E0,5.8738834E-1],"split_indices":[12,12,3,27,9,1,17,0,0,0,0,0,0,0,0],"split_type":[0,0,0,0,0,0,0,0,0,0,0,0,0,0,0],"sum_hessian":[2.58E2,2.24E2,3.4E1,1.02E2,1.22E2,2.3E1,1.1E1,8.2E1,2E1,8.2E1,4E1,1.8E1,5E0,7E0,4E0],"tree_param":{"num_deleted":"0","num_feature":"29","num_nodes":"15","size_leaf_vector":"1"}},{"base_weights":[1.5428147E0,-7.177769E0,1.4530387E1,-1.1888458E1,7.6382416E-1,7.5504704E0,2.655648E0,-1.8244957E0,-8.766586E-1,2.546962E-1,-5.531717E-1,1.5895627E0,3.4792656E-1],"categories":[],"categories_nodes":[],"categories_segments":[],"categories_sizes":[],"default_left":[0,0,0,0,0,0,0,0,0,0,0,0,0],"id":4,"left_children":[1,3,5,7,9,11,-1,-1,-1,-1,-1,-1,-1],"loss_changes":[3.1024062E4,6.144383E3,9.033008E3,1.8840039E3,7.100897E2,2.3569084E3,0E0,0E0,0E0,0E0,0E0,0E0,0E0],"parents":[2147483647,0,0,1,1,2,2,3,3,4,4,5,5],"right_children":[2,4,6,8,10,12,-1,-1,-1,-1,-1,-1,-1],"split_conditions":[5.72E1,9.7E1,7E0,4.8E1,1.5E1,1E0,2.655648E0,-1.8244957E0,-8.766586E-1,2.546962E-1,-5.531717E-1,1.5895627E0,3.4792656E-1],"split_indices":[10,6,0,11,0,18,0,0,0,0,0,0,0],"split_type":[0,0,0,0,0,0,0,0,0,0,0,0,0],"sum_hessian":[2.72E2,1.63E2,1.09E2,1.02E2,6.1E1,7E1,3.9E1,3.2E1,7E1,4.8E1,1.3E1,2.2E1,4.8E1],"tree_param":{"num_deleted":"0","num_feature":"29","num_nodes":"13","size_leaf_vector":"1"}},{"base_weights":[-7.1025246E-1,-8.312231E0,9.7770405E0,-2.9646626E0,-1.6234663E1,5.7946486E0,3.2754097E0,-1.0306815E0,-4.340163E-2,-1.3247218E0,-2.8950932E0,1.4237776E0,2.2740865E-1],"categories":[],"categories_nodes":[],"categories_segments":[],"categories_sizes":[],"default_left":[0,0,0,0,0,0,0,0,0,0,0,0,0],"id":5,"left_children":[1,3,5,7,9,11,-1,-1,-1,-1,-1,-1,-1],"loss_changes":[1.9533967E4,5.9678047E3,9.235077E3,1.5934402E3,1.7818643E3,2.6131074E3,0E0,0E0,0E0,0E0,0E0,0E0,0E0],"parents":[2147483647,0,0,1,1,2,2,3,3,4,4,5,5],"right_children":[2,4,6,8,10,12,-1,-1,-1,-1,-1,-1,-1],"split_conditions":[1.322E2,6E0,1.1157E4,5.86E1,1E0,1E0,3.2754097E0,-1.0306815E0,-4.340163E-2,-1.3247218E0,-2.8950932E0,1.4237776E0,2.2740865E-1],"split_indices":[12,13,7,11,17,19,0,0,0,0,0,0,0],"split_type":[0,0,0,0,0,0,0,0,0,0,0,0,0],"sum_hessian":[2.43E2,1.41E2,1.02E2,8.5E1,5.6E1,8.8E1,1.4E1,2.1E1,6.4E1,4.7E1,9E0,2.5E1,6.3E1],"tree_param":{"num_deleted":"0","num_feature":"29","num_nodes":"13","size_leaf_vector":"1"}},{"base_weights":[1.6196201E0,-1.5274311E0,2.178796E1,-1.3745069E1,9.661417E-1,2.705819E0,1.5236087E1,-2.4363246E0,-9.841189E-1,4.6913773E-3,1.2558947E0,2.3390396E0,8.6618835E-1],"categories":[],"categories_nodes":[],"categories_segments":[],"categories_sizes":[],"default_left":[0,0,0,0,0,0,0,0,0,0,0,0,0],"id":6,"left_children":[1,3,5,7,9,-1,11,-1,-1,-1,-1,-1,-1],"loss_changes":[1.5520153E4,6.471981E3,7.2722656E2,1.2525112E3,1.8855989E3,0E0,7.087324E2,0E0,0E0,0E0,0E0,0E0,0E0],"parents":[2147483647,0,0,1,1,2,2,3,3,4,4,6,6],"right_children":[2,4,6,8,10,-1,12,-1,-1,-1,-1,-1,-1],"split_conditions":[9.3E1,4.82E1,1E0,1E0,1E0,2.705819E0,2.5E1,-2.4363246E0,-9.841189E-1,4.6913773E-3,1.2558947E0,2.3390396E0,8.6618835E-1],"split_indices":[11,11,19,18,2,0,3,0,0,0,0,0,0],"split_type":[0,0,0,0,0,0,0,0,0,0,0,0,0],"sum_hessian":[2.43E2,2.11E2,3.2E1,3.5E1,1.76E2,1.6E1,1.6E1,8E0,2.7E1,1.64E2,1.2E1,6E0,1E1],"tree_param":{"num_deleted":"0","num_feature":"29","num_nodes":"13","size_leaf_vector":"1"}},{"base_weights":[3.8022962E-1,-9.585352E0,6.010588E0,-1.9695209E0,-7.4914145E0,3.6618965E0,2.8627062E1,-8.179161E-1,-5.372057E-2,-1.3139983E-1,5.347552E-1,3.8658032E0,1.1640524E0],"categories":[],"categories_nodes":[],"categories_segments":[],"categories_sizes":[],"default_left":[0,0,0,0,0,0,0,0,0,0,0,0,0],"id":7,"left_children":[1,3,5,-1,7,9,11,-1,-1,-1,-1,-1,-1],"loss_changes":[1.4141174E4,1.7788701E3,8.44735E3,0E0,3.6387646E2,1.24001E3,2.105872E3,0E0,0E0,0E0,0E0,0E0,0E0],"parents":[2147483647,0,0,1,1,2,2,4,4,5,5,6,6],"right_children":[2,4,6,-1,8,10,12,-1,-1,-1,-1,-1,-1],"split_conditions":[6.2E1,4.9E1,1.14668E4,-1.9695209E0,2.3E1,3.91E2,1E0,-8.179161E-1,-5.372057E-2,-1.3139983E-1,5.347552E-1,3.8658032E0,1.1640524E0],"split_indices":[11,6,7,0,0,8,19,0,0,0,0,0,0],"split_type":[0,0,0,0,0,0,0,0,0,0,0,0,0],"sum_hessian":[2.5E2,9E1,1.6E2,1.4E1,7.6E1,1.46E2,1.4E1,6.9E1,7E0,3.7E1,1.09E2,8E0,6E0],"tree_param":{"num_deleted":"0","num_feature":"29","num_nodes":"13","size_leaf_vector":"1"}},{"base_weights":[-7.17182E-2,-3.1512318E0,1.4396502E1,-9.657539E0,3.7224627E-1,1.650527E1,3.107479E0,-1.150693E0,-6.4064413E-1,-1.2174751E-1,5.817881E-1,1.8686609E0,6.5347594E-1,-1.3978703E0,1.6154928E0],"categories":[],"categories_nodes":[],"categories_segments":[],"categories_sizes":[],"default_left":[0,0,0,0,0,0,0,0,0,0,0,0,0,0,0],"id":8,"left_children":[1,3,5,7,9,11,13,-1,-1,-1,-1,-1,-1,-1,-1],"loss_changes":[1.0916806E4,4.6344116E3,9.7236523E2,3.5317285E2,1.1498126E3,6.608545E2,2.0092737E3,0E0,0E0,0E0,0E0,0E0,0E0,0E0,0E0],"parents":[2147483647,0,0,1,1,2,2,3,3,4,4,5,5,6,6],"right_children":[2,4,6,8,10,12,14,-1,-1,-1,-1,-1,-1,-1,-1],"split_conditions":[7.78E1,5.96E1,1E0,4.84E1,1E0,1.2E1,1.2E1,-1.150693E0,-6.4064413E-1,-1.2174751E-1,5.817881E-1,1.8686609E0,6.5347594E-1,-1.3978703E0,1.6154928E0],"split_indices":[11,11,1,11,17,0,0,0,0,0,0,0,0,0,0],"split_type":[0,0,0,0,0,0,0,0,0,0,0,0,0,0,0],"sum_hessian":[2.43E2,2.01E2,4.2E1,7E1,1.31E2,3.5E1,7E0,4.3E1,2.7E1,1.02E2,2.9E1,2.8E1,7E0,3E0,4E0],"tree_param":{"num_deleted":"0","num_feature":"29","num_nodes":"15","size_leaf_vector":"1"}},{"base_weights":[-3.0363363E-1,-5.4756403E0,6.7182293E0,-8.240301E0,-1.3295143E0,2.8600457E0,1.4783838E1,-1.5029601E0,-5.9888035E-1,-3.9498806E-1,6.4509064E-1,-2.3050514E-1,5.6952995E-1,8.613998E-1,1.9850854E0],"categories":[],"categories_nodes":[],"categories_segments":[],"categories_sizes":[],"default_left":[0,0,0,0,0,0,0,0,0,0,0,0,0,0,0],"id":9,"left_children":[1,3,5,7,9,11,13,-1,-1,-1,-1,-1,-1,-1,-1],"loss_changes":[9.588189E3,1.7313647E3,3.4430015E3,1.3010249E3,1.2895087E3,1.1407437E3,9.5445996E2,0E0,0E0,0E0,0E0,0E0,0E0,0E0,0E0],"parents":[2147483647,0,0,1,1,2,2,3,3,4,4,5,5,6,6],"right_children":[2,4,6,8,10,12,14,-1,-1,-1,-1,-1,-1,-1,-1],"split_conditions":[4.838E2,8E1,1.618E2,1E0,1E0,6.6E1,6.3E1,-1.5029601E0,-5.9888035E-1,-3.9498806E-1,6.4509064E-1,-2.3050514E-1,5.6952995E-1,8.613998E-1,1.9850854E0],"split_indices":[8,4,12,18,17,4,4,0,0,0,0,0,0,0,0],"split_type":[0,0,0,0,0,0,0,0,0,0,0,0,0,0,0],"sum_hessian":[2.62E2,1.51E2,1.11E2,9E1,6.1E1,7.6E1,3.5E1,2.1E1,6.9E1,4.6E1,1.5E1,2.7E1,4.9E1,1.7E1,1.8E1],"tree_param":{"num_deleted":"0","num_feature":"29","num_nodes":"15","size_leaf_vector":"1"}},{"base_weights":[-2.2601841E-1,-4.285919E0,6.087337E0,-8.084328E0,1.5864401E0,2.6279044E0,1.1025897E1,-6.7783254E-1,-1.7532154E0,7.7372164E-1,-7.825836E-2,-2.2446291E-1,1.4799153E0,1.4112439E0,1.3618699E-1],"categories":[],"categories_nodes":[],"categories_segments":[],"categories_sizes":[],"default_left":[0,0,0,0,0,0,0,0,0,0,0,0,0,0,0],"id":10,"left_children":[1,3,5,7,9,11,13,-1,-1,-1,-1,-1,-1,-1,-1],"loss_changes":[7.2029365E3,3.8270872E3,1.8503325E3,1.1644048E3,9.9690564E2,3.9473364E3,1.32306E3,0E0,0E0,0E0,0E0,0E0,0E0,0E0,0E0],"parents":[2147483647,0,0,1,1,2,2,3,3,4,4,5,5,6,6],"right_children":[2,4,6,8,10,12,14,-1,-1,-1,-1,-1,-1,-1,-1],"split_conditions":[6.14E1,9.7E1,9.82E1,5.46E1,1E0,1E0,1E0,-6.7783254E-1,-1.7532154E0,7.7372164E-1,-7.825836E-2,-2.2446291E-1,1.4799153E0,1.4112439E0,1.3618699E-1],"split_indices":[10,6,6,10,18,17,17,0,0,0,0,0,0,0,0],"split_type":[0,0,0,0,0,0,0,0,0,0,0,0,0,0,0],"sum_hessian":[2.79E2,1.7E2,1.09E2,1.03E2,6.7E1,6.5E1,4.4E1,9.2E1,1.1E1,1.8E1,4.9E1,4.7E1,1.8E1,3.3E1,1.1E1],"tree_param":{"num_deleted":"0","num_feature":"29","num_nodes":"15","size_leaf_vector":"1"}},{"base_weights":[-5.91964E-1,-1.0032945E1,3.1461818E0,-5.1585155E0,-1.251597E1,1.2629521E0,1.1610978E1,-8.255663E-1,-2.7068192E-1,-9.4153255E-1,-1.5342064E0,1.7326228E-2,1.2733278E0,1.7032741E0,8.513137E-1],"categories":[],"categories_nodes":[],"categories_segments":[],"categories_sizes":[],"default_left":[0,0,0,0,0,0,0,0,0,0,0,0,0,0,0],"id":11,"left_children":[1,3,5,7,9,11,13,-1,-1,-1,-1,-1,-1,-1,-1],"loss_changes":[8.960382E3,8.0687646E2,2.8866267E3,1.7507843E2,2.6739648E2,1.8726583E3,4.092583E2,0E0,0E0,0E0,0E0,0E0,0E0,0E0,0E0],"parents":[2147483647,0,0,1,1,2,2,3,3,4,4,5,5,6,6],"right_children":[2,4,6,8,10,12,14,-1,-1,-1,-1,-1,-1,-1,-1],"split_conditions":[1.112E2,6.9E1,9.3E1,1.4E1,4.002E2,1E0,1E0,-8.255663E-1,-2.7068192E-1,-9.4153255E-1,-1.5342064E0,1.7326228E-2,1.2733278E0,1.7032741E0,8.513137E-1],"split_indices":[12,4,11,0,8,2,18,0,0,0,0,0,0,0,0],"split_type":[0,0,0,0,0,0,0,0,0,0,0,0,0,0,0],"sum_hessian":[2.52E2,7.1E1,1.81E2,2.5E1,4.6E1,1.49E2,3.2E1,1E1,1.5E1,2.4E1,2.2E1,1.37E2,1.2E1,1E1,2.2E1],"tree_param":{"num_deleted":"0","num_feature":"29","num_nodes":"15","size_leaf_vector":"1"}},{"base_weights":[7.8295064E-1,-3.2125826E0,7.1041555E0,-6.5039477E0,2.052169E0,4.8908496E0,1.3242735E1,-7.587366E-2,-8.6805564E-1,7.8634924E-1,-1.2333484E-1,3.8665947E-1,1.1061984E0,2.158646E0,7.353651E-1],"categories":[],"categories_nodes":[],"categories_segments":[],"categories_sizes":[],"default_left":[0,0,0,0,0,0,0,0,0,0,0,0,0,0,0],"id":12,"left_children":[1,3,5,7,9,11,13,-1,-1,-1,-1,-1,-1,-1,-1],"loss_changes":[5.80658E3,2.456626E3,1.144435E3,1.0813555E3,1.0598246E3,3.807224E2,9.714094E2,0E0,0E0,0E0,0E0,0E0,0E0,0E0,0E0],"parents":[2147483647,0,0,1,1,2,2,3,3,4,4,5,5,6,6],"right_children":[2,4,6,8,10,12,14,-1,-1,-1,-1,-1,-1,-1,-1],"split_conditions":[1.322E2,9.7E1,1.822E2,6E0,2.65E1,1E0,1E0,-7.587366E-2,-8.6805564E-1,7.8634924E-1,-1.2333484E-1,3.8665947E-1,1.1061984E0,2.158646E0,7.353651E-1],"split_indices":[12,6,12,0,16,2,19,0,0,0,0,0,0,0,0],"split_type":[0,0,0,0,0,0,0,0,0,0,0,0,0,0,0],"sum_hessian":[2.28E2,1.4E2,8.8E1,8.6E1,5.4E1,6.6E1,2.2E1,2.4E1,6.2E1,1.9E1,3.5E1,5.8E1,8E0,8E0,1.4E1],"tree_param":{"num_deleted":"0","num_feature":"29","num_nodes":"15","size_leaf_vector":"1"}},{"base_weights":[2.962354E-1,-4.8483443E0,5.106518E0,-8.8133335E0,-1.8170335E0,3.513494E0,1.5639833E0,-7.706984E-1,-1.4508483E0,-6.0297894E-1,3.7653122E-2,6.8297E-1,2.1677236E-1],"categories":[],"categories_nodes":[],"categories_segments":[],"categories_sizes":[],"default_left":[0,0,0,0,0,0,0,0,0,0,0,0,0],"id":13,"left_children":[1,3,5,7,9,11,-1,-1,-1,-1,-1,-1,-1],"loss_changes":[5.9392627E3,1.3782029E3,2.0257473E3,2.0322485E2,6.214142E2,4.7164587E2,0E0,0E0,0E0,0E0,0E0,0E0,0E0],"parents":[2147483647,0,0,1,1,2,2,3,3,4,4,5,5],"right_children":[2,4,6,8,10,12,-1,-1,-1,-1,-1,-1,-1],"split_conditions":[4.634E2,4.9E1,2.582E2,2.9E1,5E0,1E0,1.5639833E0,-7.706984E-1,-1.4508483E0,-6.0297894E-1,3.7653122E-2,6.8297E-1,2.1677236E-1],"split_indices":[8,10,9,3,0,18,0,0,0,0,0,0,0],"split_type":[0,0,0,0,0,0,0,0,0,0,0,0,0],"sum_hessian":[2.38E2,1.15E2,1.23E2,4.9E1,6.6E1,1.08E2,1.5E1,4.3E1,6E0,2.2E1,4.4E1,3E1,7.8E1],"tree_param":{"num_deleted":"0","num_feature":"29","num_nodes":"13","size_leaf_vector":"1"}},{"base_weights":[5.661759E-1,-1.3071977E0,9.33971E0,4.2458814E-2,-5.866981E0,1.8877607E1,3.3417072E0,-1.451693E-1,2.2589023E-1,-1.185438E0,-2.1548164E-1,2.5174043E0,1.1183265E0,1.522575E0,1.2217957E-1],"categories":[],"categories_nodes":[],"categories_segments":[],"categories_sizes":[],"default_left":[0,0,0,0,0,0,0,0,0,0,0,0,0,0,0],"id":14,"left_children":[1,3,5,7,9,11,13,-1,-1,-1,-1,-1,-1,-1,-1],"loss_changes":[3.9240022E3,1.212615E3,2.3396665E3,5.099698E2,9.746356E2,4.9362256E2,6.6161145E2,0E0,0E0,0E0,0E0,0E0,0E0,0E0,0E0],"parents":[2147483647,0,0,1,1,2,2,3,3,4,4,5,5,6,6],"right_children":[2,4,6,8,10,12,14,-1,-1,-1,-1,-1,-1,-1,-1],"split_conditions":[7.78E1,3E1,1E0,9.7E1,3.2E1,1.1E1,1E0,-1.451693E-1,2.2589023E-1,-1.185438E0,-2.1548164E-1,2.5174043E0,1.1183265E0,1.522575E0,1.2217957E-1],"split_indices":[11,3,19,6,3,0,18,0,0,0,0,0,0,0,0],"split_type":[0,0,0,0,0,0,0,0,0,0,0,0,0,0,0],"sum_hessian":[2.37E2,1.96E2,4.1E1,1.52E2,4.4E1,1.5E1,2.6E1,9.1E1,6.1E1,1.6E1,2.8E1,7E0,8E0,3E0,2.3E1],"tree_param":{"num_deleted":"0","num_feature":"29","num_nodes":"15","size_leaf_vector":"1"}},{"base_weights":[2.1020004E-1,-2.4507892E0,1.351002E1,9.442488E-2,-6.428867E0,1.9910841E1,7.634993E0,5.6209916E-1,-1.6157961E-1,-9.5184004E-1,-1.7401853E-1,2.5273464E0,-6.5173626E-1,-5.868247E-2,1.0571331E0],"categories":[],"categories_nodes":[],"categories_segments":[],"categories_sizes":[],"default_left":[0,0,0,0,0,0,0,0,0,0,0,0,0,0,0],"id":15,"left_children":[1,3,5,7,9,11,13,-1,-1,-1,-1,-1,-1,-1,-1],"loss_changes":[8.703826E3,2.0762441E3,1.3897856E3,1.1999902E3,1.1423032E3,2.8574824E3,5.614702E2,0E0,0E0,0E0,0E0,0E0,0E0,0E0,0E0],"parents":[2147483647,0,0,1,1,2,2,3,3,4,4,5,5,6,6],"right_children":[2,4,6,8,10,12,14,-1,-1,-1,-1,-1,-1,-1,-1],"split_conditions":[7.78E1,2.95E1,1E0,1E0,9.52E1,1.7E1,1.1E1,5.6209916E-1,-1.6157961E-1,-9.5184004E-1,-1.7401853E-1,2.5273464E0,-6.5173626E-1,-5.868247E-2,1.0571331E0],"split_indices":[11,16,19,18,9,0,0,0,0,0,0,0,0,0,0],"split_type":[0,0,0,0,0,0,0,0,0,0,0,0,0,0,0],"sum_hessian":[2.44E2,2.04E2,4E1,1.25E2,7.9E1,1.8E1,2.2E1,2.9E1,9.6E1,4.7E1,3.2E1,1.5E1,3E0,6E0,1.6E1],"tree_param":{"num_deleted":"0","num_feature":"29","num_nodes":"15","size_leaf_vector":"1"}},{"base_weights":[-5.9966564E-1,-4.961192E0,1.2886461E0,-4.1259856E0,-1.7710602E0,-5.36054E0,2.9030378E0,1.2767197E-1,-6.79568E-1,-6.833324E-1,6.6572803E-1,1.743931E0,2.307885E-1],"categories":[],"categories_nodes":[],"categories_segments":[],"categories_sizes":[],"default_left":[0,0,0,0,0,0,0,0,0,0,0,0,0],"id":16,"left_children":[1,3,5,7,-1,9,11,-1,-1,-1,-1,-1,-1],"loss_changes":[1.908891E3,6.723135E2,1.7545331E3,9.750553E2,0E0,6.118803E2,1.0930728E3,0E0,0E0,0E0,0E0,0E0,0E0],"parents":[2147483647,0,0,1,1,2,2,3,3,5,5,6,6],"right_children":[2,4,6,8,-1,10,12,-1,-1,-1,-1,-1,-1],"split_conditions":[4.002E2,1.0033E4,6.3E1,1E0,-1.7710602E0,1E0,4.06E1,1.2767197E-1,-6.79568E-1,-6.833324E-1,6.6572803E-1,1.743931E0,2.307885E-1],"split_indices":[8,7,4,19,0,2,10,0,0,0,0,0,0],"split_type":[0,0,0,0,0,0,0,0,0,0,0,0,0],"sum_hessian":[2.3E2,6.9E1,1.61E2,6.6E1,3E0,3.1E1,1.3E2,2.2E1,4.4E1,2.8E1,3E0,4E0,1.26E2],"tree_param":{"num_deleted":"0","num_feature":"29","num_nodes":"13","size_leaf_vector":"1"}},{"base_weights":[1.0192937E-3,-1.9141796E0,1.209068E1,9.209541E-1,-4.155311E0,1.5778804E1,8.736763E-1,-1.8827228E-1,7.532598E-1,-1.5519057E-1,-1.2807016E0,1.8352635E0,4.7560692E-1],"categories":[],"categories_nodes":[],"categories_segments":[],"categories_sizes":[],"default_left":[0,0,0,0,0,0,0,0,0,0,0,0,0],"id":17,"left_children":[1,3,5,7,9,11,-1,-1,-1,-1,-1,-1,-1],"loss_changes":[5.41805E3,1.2873162E3,2.5797363E2,1.6825039E3,2.5253242E3,3.0990283E2,0E0,0E0,0E0,0E0,0E0,0E0,0E0],"parents":[2147483647,0,0,1,1,2,2,3,3,4,4,5,5],"right_children":[2,4,6,8,10,12,-1,-1,-1,-1,-1,-1,-1],"split_conditions":[1.618E2,8E0,1E0,1E0,1E0,1.2E1,8.736763E-1,-1.8827228E-1,7.532598E-1,-1.5519057E-1,-1.2807016E0,1.8352635E0,4.7560692E-1],"split_indices":[12,0,19,17,17,0,0,0,0,0,0,0,0],"split_type":[0,0,0,0,0,0,0,0,0,0,0,0,0],"sum_hessian":[2.32E2,2.01E2,3.1E1,8.9E1,1.12E2,1.3E1,1.8E1,6.3E1,2.6E1,8.7E1,2.5E1,1E1,3E0],"tree_param":{"num_deleted":"0","num_feature":"29","num_nodes":"13","size_leaf_vector":"1"}},{"base_weights":[-4.08502E-1,-1.9819361E0,9.043449E0,-9.553918E-1,-1.2870737E0,1.0321827E1,-9.468537E-2,-3.754759E-3,-3.4905776E-1,4.659597E-1,1.7269009E0],"categories":[],"categories_nodes":[],"categories_segments":[],"categories_sizes":[],"default_left":[0,0,0,0,0,0,0,0,0,0,0],"id":18,"left_children":[1,3,5,-1,7,9,-1,-1,-1,-1,-1],"loss_changes":[3.7508018E3,1.1241841E3,4.6954248E2,0E0,5.4778284E2,1.1783025E3,0E0,0E0,0E0,0E0,0E0],"parents":[2147483647,0,0,1,1,2,2,4,4,5,5],"right_children":[2,4,6,-1,8,10,-1,-1,-1,-1,-1],"split_conditions":[9.3E1,8.64E1,1E0,-9.553918E-1,6.4E0,9.84E1,-9.468537E-2,-3.754759E-3,-3.4905776E-1,4.659597E-1,1.7269009E0],"split_indices":[11,12,1,0,13,6,0,0,0,0,0],"split_type":[0,0,0,0,0,0,0,0,0,0,0],"sum_hessian":[2.5E2,2.15E2,3.5E1,1.7E1,1.98E2,3.1E1,4E0,1.27E2,7.1E1,1.8E1,1.3E1],"tree_param":{"num_deleted":"0","num_feature":"29","num_nodes":"11","size_leaf_vector":"1"}},{"base_weights":[-1.139546E0,-2.2008212E0,3.9918144E0,-3.5821242E0,6.997745E-1,1.0514522E0,3.2204647E0,1.5630002E-1,-4.2753887E-1,-2.4849129E-1,3.2630405E-1,4.255619E-1,8.228003E-2],"categories":[],"categories_nodes":[],"categories_segments":[],"categories_sizes":[],"default_left":[0,0,0,0,0,0,0,0,0,0,0,0,0],"id":19,"left_children":[1,3,5,7,9,-1,11,-1,-1,-1,-1,-1,-1],"loss_changes":[1.3321111E3,8.118402E2,1.7745251E2,4.9535217E2,5.4687964E2,0E0,9.329465E1,0E0,0E0,0E0,0E0,0E0,0E0],"parents":[2147483647,0,0,1,1,2,2,3,3,4,4,6,6],"right_children":[2,4,6,8,10,-1,12,-1,-1,-1,-1,-1,-1],"split_conditions":[3.1E1,9.84E1,4.84E1,2.3E1,2.3E1,1.0514522E0,1.1E1,1.5630002E-1,-4.2753887E-1,-2.4849129E-1,3.2630405E-1,4.255619E-1,8.228003E-2],"split_indices":[3,6,11,3,3,0,0,0,0,0,0,0,0],"split_type":[0,0,0,0,0,0,0,0,0,0,0,0,0],"sum_hessian":[2.42E2,2.01E2,4.1E1,1.36E2,6.5E1,3E0,3.8E1,1.6E1,1.2E2,2.9E1,3.6E1,2.6E1,1.2E1],"tree_param":{"num_deleted":"0","num_feature":"29","num_nodes":"13","size_leaf_vector":"1"}},{"base_weights":[2.1843256E-1,-1.8948225E0,5.792044E0,-1.0024379E1,-8.7943715E-1,3.994206E0,1.3644217E0,-6.9741684E-1,-2.1244233E0,-1.414078E-1,5.6861544E-1,7.53873E-1,1.587104E-1],"categories":[],"categories_nodes":[],"categories_segments":[],"categories_sizes":[],"default_left":[0,0,0,0,0,0,0,0,0,0,0,0,0],"id":20,"left_children":[1,3,5,7,9,11,-1,-1,-1,-1,-1,-1,-1],"loss_changes":[3.0851538E3,1.5595645E3,9.619214E2,5.705205E2,6.0478033E2,4.9995697E2,0E0,0E0,0E0,0E0,0E0,0E0,0E0],"parents":[2147483647,0,0,1,1,2,2,3,3,4,4,5,5],"right_children":[2,4,6,8,10,12,-1,-1,-1,-1,-1,-1,-1],"split_conditions":[6.5E1,3.338E2,1.07432E4,2.67E2,2.3E1,1E0,1.3644217E0,-6.9741684E-1,-2.1244233E0,-1.414078E-1,5.6861544E-1,7.53873E-1,1.587104E-1],"split_indices":[10,8,7,8,0,19,0,0,0,0,0,0,0],"split_type":[0,0,0,0,0,0,0,0,0,0,0,0,0],"sum_hessian":[2.6E2,1.89E2,7.1E1,2E1,1.69E2,5.9E1,1.2E1,1.7E1,3E0,1.57E2,1.2E1,2.3E1,3.6E1],"tree_param":{"num_deleted":"0","num_feature":"29","num_nodes":"13","size_leaf_vector":"1"}},{"base_weights":[4.922049E-1,-2.4813259E0,3.2332163E0,-8.938895E0,-5.104306E-1,-1.5670499E0,4.7521586E0,8.372199E-1,-1.3066186E0,-2.7498522E-1,2.3968811E-1,4.5239934E-1,-5.447876E-1,2.2186747E-1,5.874502E-1],"categories":[],"categories_nodes":[],"categories_segments":[],"categories_sizes":[],"default_left":[0,0,0,0,0,0,0,0,0,0,0,0,0,0,0],"id":21,"left_children":[1,3,5,7,9,11,13,-1,-1,-1,-1,-1,-1,-1,-1],"loss_changes":[2.0374928E3,1.5227007E3,9.5531934E2,2.1099343E3,6.120858E2,7.81071E2,2.684668E2,0E0,0E0,0E0,0E0,0E0,0E0,0E0,0E0],"parents":[2147483647,0,0,1,1,2,2,3,3,4,4,5,5,6,6],"right_children":[2,4,6,8,10,12,14,-1,-1,-1,-1,-1,-1,-1,-1],"split_conditions":[4.486E2,1E0,4E0,2.8E1,2.9E1,1E0,2.9E1,8.372199E-1,-1.3066186E0,-2.7498522E-1,2.3968811E-1,4.5239934E-1,-5.447876E-1,2.2186747E-1,5.874502E-1],"split_indices":[8,18,0,16,16,19,16,0,0,0,0,0,0,0,0],"split_type":[0,0,0,0,0,0,0,0,0,0,0,0,0,0,0],"sum_hessian":[2.48E2,1.19E2,1.29E2,2.7E1,9.2E1,3.1E1,9.8E1,5E0,2.2E1,5.2E1,4E1,1.2E1,1.9E1,3.1E1,6.7E1],"tree_param":{"num_deleted":"0","num_feature":"29","num_nodes":"15","size_leaf_vector":"1"}},{"base_weights":[8.449829E-1,-2.689949E0,4.011418E0,-6.770803E0,-1.1518964E0,6.460028E0,1.7918881E0,-1.3396492E0,-1.2413334E-1,2.2976303E-1,-4.4944134E-1,5.109773E-1,1.595342E0,5.8723982E-2,1.2205647E0],"categories":[],"categories_nodes":[],"categories_segments":[],"categories_sizes":[],"default_left":[0,0,0,0,0,0,0,0,0,0,0,0,0,0,0],"id":22,"left_children":[1,3,5,7,9,11,13,-1,-1,-1,-1,-1,-1,-1,-1],"loss_changes":[2.6971423E3,7.0772943E2,6.786393E2,1.1191034E3,9.788551E2,6.8759155E2,8.4588666E2,0E0,0E0,0E0,0E0,0E0,0E0,0E0,0E0],"parents":[2147483647,0,0,1,1,2,2,3,3,4,4,5,5,6,6],"right_children":[2,4,6,8,10,12,14,-1,-1,-1,-1,-1,-1,-1,-1],"split_conditions":[4.774E2,1E0,6.2E2,5.2E0,2.4E1,3E1,1E0,-1.3396492E0,-1.2413334E-1,2.2976303E-1,-4.4944134E-1,5.109773E-1,1.595342E0,5.8723982E-2,1.2205647E0],"split_indices":[8,19,8,13,3,3,2,0,0,0,0,0,0,0,0],"split_type":[0,0,0,0,0,0,0,0,0,0,0,0,0,0,0],"sum_hessian":[2.39E2,1.13E2,1.26E2,3E1,8.3E1,5.9E1,6.7E1,1.3E1,1.7E1,4.1E1,4.2E1,5.3E1,6E0,6.1E1,6E0],"tree_param":{"num_deleted":"0","num_feature":"29","num_nodes":"15","size_leaf_vector":"1"}},{"base_weights":[9.9885E-2,-2.449789E0,1.5264328E0,-1.1178733E0,-2.46024E0,2.6113796E0,-3.4271696E0,-7.546987E-1,-6.020801E-3,6.614487E-1,9.653214E-2,-8.3430797E-1,-4.007388E-2],"categories":[],"categories_nodes":[],"categories_segments":[],"categories_sizes":[],"default_left":[0,0,0,0,0,0,0,0,0,0,0,0,0],"id":23,"left_children":[1,3,5,7,-1,9,11,-1,-1,-1,-1,-1,-1],"loss_changes":[9.0213574E2,2.598479E3,8.6347845E2,5.7753284E2,0E0,8.568195E2,4.2810886E2,0E0,0E0,0E0,0E0,0E0,0E0],"parents":[2147483647,0,0,1,1,2,2,3,3,5,5,6,6],"right_children":[2,4,6,8,-1,10,12,-1,-1,-1,-1,-1,-1],"split_conditions":[9.46E1,1E0,8.6E1,2.572E2,-2.46024E0,1E0,1E0,-7.546987E-1,-6.020801E-3,6.614487E-1,9.653214E-2,-8.3430797E-1,-4.007388E-2],"split_indices":[6,1,4,8,0,18,19,0,0,0,0,0,0],"split_type":[0,0,0,0,0,0,0,0,0,0,0,0,0],"sum_hessian":[2.46E2,8.8E1,1.58E2,8.4E1,4E0,1.3E2,2.8E1,1.1E1,7.3E1,3.7E1,9.3E1,1E1,1.8E1],"tree_param":{"num_deleted":"0","num_feature":"29","num_nodes":"13","size_leaf_vector":"1"}},{"base_weights":[-1.1667719E0,-1.7661269E0,1.0080203E1,-3.4590125E0,1.9064077E0,1.7800114E0,-1.8930449E-1,-2.1241947E-1,-8.2201827E-1,3.0553368E-1,-2.0292675E-1],"categories":[],"categories_nodes":[],"categories_segments":[],"categories_sizes":[],"default_left":[0,0,0,0,0,0,0,0,0,0,0],"id":24,"left_children":[1,3,5,7,9,-1,-1,-1,-1,-1,-1],"loss_changes":[1.7299991E3,1.5111521E3,1.2353177E3,1.0375178E3,3.5437967E2,0E0,0E0,0E0,0E0,0E0,0E0],"parents":[2147483647,0,0,1,1,2,2,3,3,4,4],"right_children":[2,4,6,8,10,-1,-1,-1,-1,-1,-1],"split_conditions":[1E0,9.84E1,1.79E2,1E0,1E0,1.7800114E0,-1.8930449E-1,-2.1241947E-1,-8.2201827E-1,3.0553368E-1,-2.0292675E-1],"split_indices":[2,6,5,17,17,0,0,0,0,0,0],"split_type":[0,0,0,0,0,0,0,0,0,0,0],"sum_hessian":[2.53E2,2.41E2,1.2E1,1.65E2,7.6E1,7E0,5E0,1.3E2,3.5E1,5.9E1,1.7E1],"tree_param":{"num_deleted":"0","num_feature":"29","num_nodes":"11","size_leaf_vector":"1"}},{"base_weights":[5.390973E-1,1.8055661E0,-1.6183344E0,5.345502E0,5.6028694E-1,-2.641962E0,5.5113163E0,-8.797123E-1,8.515957E-1,-3.5752976E-1,2.8927848E-1,-3.3355054E-1,1.2957306E-1,6.1376095E-2,7.0756394E-1],"categories":[],"categories_nodes":[],"categories_segments":[],"categories_sizes":[],"default_left":[0,0,0,0,0,0,0,0,0,0,0,0,0,0,0],"id":25,"left_children":[1,3,5,7,9,11,13,-1,-1,-1,-1,-1,-1,-1,-1],"loss_changes":[6.860019E2,6.9350183E2,6.932847E2,1.9132972E3,1.1485991E3,2.2826074E2,8.759354E1,0E0,0E0,0E0,0E0,0E0,0E0,0E0,0E0],"parents":[2147483647,0,0,1,1,2,2,3,3,4,4,5,5,6,6],"right_children":[2,4,6,8,10,12,14,-1,-1,-1,-1,-1,-1,-1,-1],"split_conditions":[6.6E0,1E0,1E0,1.72E2,2.85E1,2.582E2,7.2E1,-8.797123E-1,8.515957E-1,-3.5752976E-1,2.8927848E-1,-3.3355054E-1,1.2957306E-1,6.1376095E-2,7.0756394E-1],"split_indices":[13,18,1,5,16,9,4,0,0,0,0,0,0,0,0],"split_type":[0,0,0,0,0,0,0,0,0,0,0,0,0,0,0],"sum_hessian":[2.49E2,1.57E2,9.2E1,4E1,1.17E2,8.1E1,1.1E1,7E0,3.3E1,4.2E1,7.5E1,6.9E1,1.2E1,3E0,8E0],"tree_param":{"num_deleted":"0","num_feature":"29","num_nodes":"15","size_leaf_vector":"1"}},{"base_weights":[4.9017113E-1,-1.1094047E-1,8.700103E0,-1.1700647E0,4.1053824E0,1.4926788E1,-9.2292994E-1,3.4492955E-1,-2.2942121E-1,6.0810554E-1,-8.052899E-1,2.4483438E0,9.6114504E-1],"categories":[],"categories_nodes":[],"categories_segments":[],"categories_sizes":[],"default_left":[0,0,0,0,0,0,0,0,0,0,0,0,0],"id":26,"left_children":[1,3,5,7,9,11,-1,-1,-1,-1,-1,-1,-1],"loss_changes":[1.2298014E3,1.0452906E3,2.0356564E3,9.7897473E2,1.177947E3,4.2503735E2,0E0,0E0,0E0,0E0,0E0,0E0,0E0],"parents":[2147483647,0,0,1,1,2,2,3,3,4,4,5,5],"right_children":[2,4,6,8,10,12,-1,-1,-1,-1,-1,-1,-1],"split_conditions":[1E0,7.72E1,9.82E1,3.73E2,1E0,4.08E2,-9.2292994E-1,3.4492955E-1,-2.2942121E-1,6.0810554E-1,-8.052899E-1,2.4483438E0,9.6114504E-1],"split_indices":[2,11,6,8,1,8,0,0,0,0,0,0,0],"split_type":[0,0,0,0,0,0,0,0,0,0,0,0,0],"sum_hessian":[2.48E2,2.32E2,1.6E1,1.86E2,4.6E1,1.2E1,4E0,3.6E1,1.5E2,4E1,6E0,3E0,9E0],"tree_param":{"num_deleted":"0","num_feature":"29","num_nodes":"13","size_leaf_vector":"1"}},{"base_weights":[-1.2702547E-1,-1.5445238E0,1.128178E-1,1.1307522E0,-3.627829E0,-1.5398416E-2,7.483391E-1,7.041783E-1,-8.586387E-1],"categories":[],"categories_nodes":[],"categories_segments":[],"categories_sizes":[],"default_left":[0,0,0,0,0,0,0,0,0],"id":27,"left_children":[1,-1,3,5,7,-1,-1,-1,-1],"loss_changes":[9.533008E2,0E0,9.7888196E2,1.6497684E3,2.9702866E3,0E0,0E0,0E0,0E0],"parents":[2147483647,0,0,2,2,3,3,4,4],"right_children":[2,-1,4,6,8,-1,-1,-1,-1],"split_conditions":[2.6E1,-1.5445238E0,1E0,2E1,8E0,-1.5398416E-2,7.483391E-1,7.041783E-1,-8.586387E-1],"split_indices":[16,0,17,0,0,0,0,0,0],"split_type":[0,0,0,0,0,0,0,0,0],"sum_hessian":[2.58E2,3E0,2.55E2,2.01E2,5.4E1,1.68E2,3.3E1,1.7E1,3.7E1],"tree_param":{"num_deleted":"0","num_feature":"29","num_nodes":"9","size_leaf_vector":"1"}},{"base_weights":[1.0023156E0,1.333847E-4,2.1797588E0,-3.324744E0,8.272167E-1,-9.4434893E-1,-1.3568036E-1,1.8461525E-1,-3.1941465E-1],"categories":[],"categories_nodes":[],"categories_segments":[],"categories_sizes":[],"default_left":[0,0,0,0,0,0,0,0,0],"id":28,"left_children":[1,3,-1,5,7,-1,-1,-1,-1],"loss_changes":[5.4394077E3,6.902379E2,0E0,5.892533E2,8.294966E2,0E0,0E0,0E0,0E0],"parents":[2147483647,0,0,1,1,3,3,4,4],"right_children":[2,4,-1,6,8,-1,-1,-1,-1],"split_conditions":[9.04E2,4.84E1,2.1797588E0,1E0,6.2E2,-9.4434893E-1,-1.3568036E-1,1.8461525E-1,-3.1941465E-1],"split_indices":[8,11,0,18,8,0,0,0,0],"split_type":[0,0,0,0,0,0,0,0,0],"sum_hessian":[2.6E2,2.49E2,1.1E1,4.9E1,2E2,1.1E1,3.8E1,1.6E2,4E1],"tree_param":{"num_deleted":"0","num_feature":"29","num_nodes":"9","size_leaf_vector":"1"}},{"base_weights":[4.0203092E-1,1.0707171E0,-6.440892E0,5.9586054E-1,8.86329E0,-8.225687E0,4.5395023E-1,-2.4849927E-1,1.6135384E-1,2.2340372E0,3.1567797E-1,-9.5983183E-1,-5.3290325E-1],"categories":[],"categories_nodes":[],"categories_segments":[],"categories_sizes":[],"default_left":[0,0,0,0,0,0,0,0,0,0,0,0,0],"id":29,"left_children":[1,3,5,7,9,11,-1,-1,-1,-1,-1,-1,-1],"loss_changes":[1.2332024E3,9.0130566E2,5.0768646E2,7.31403E2,1.00617566E3,3.2347046E1,0E0,0E0,0E0,0E0,0E0,0E0,0E0],"parents":[2147483647,0,0,1,1,2,2,3,3,4,4,5,5],"right_children":[2,4,6,8,10,12,-1,-1,-1,-1,-1,-1,-1],"split_conditions":[2.3E1,1E0,2.8E1,5E0,4.08E2,3.2E1,4.5395023E-1,-2.4849927E-1,1.6135384E-1,2.2340372E0,3.1567797E-1,-9.5983183E-1,-5.3290325E-1],"split_indices":[0,2,0,0,8,3,0,0,0,0,0,0,0],"split_type":[0,0,0,0,0,0,0,0,0,0,0,0,0],"sum_hessian":[2.67E2,2.44E2,2.3E1,2.31E2,1.3E1,2E1,3E0,5.7E1,1.74E2,3E0,1E1,1.2E1,8E0],"tree_param":{"num_deleted":"0","num_feature":"29","num_nodes":"13","size_leaf_vector":"1"}},{"base_weights":[-9.57318E-1,-5.0439944E0,3.234821E-1,-3.1440465E0,-1.2223452E0,1.3868527E0,-4.565027E0,-4.722669E-1,1.0270846E-1,3.8329262E-1,-6.0208794E-3,2.9810002E-1,-9.996296E-1],"categories":[],"categories_nodes":[],"categories_segments":[],"categories_sizes":[],"default_left":[0,0,0,0,0,0,0,0,0,0,0,0,0],"id":30,"left_children":[1,3,5,7,-1,9,11,-1,-1,-1,-1,-1,-1],"loss_changes":[1.2944828E3,7.66364E2,9.888092E2,3.2091336E2,0E0,5.5241125E2,1.4232722E3,0E0,0E0,0E0,0E0,0E0,0E0],"parents":[2147483647,0,0,1,1,2,2,3,3,5,5,6,6],"right_children":[2,4,6,8,-1,10,12,-1,-1,-1,-1,-1,-1],"split_conditions":[1.03E2,1E0,7.418E2,4.08E2,-1.2223452E0,1.77E2,1E0,-4.722669E-1,1.0270846E-1,3.8329262E-1,-6.0208794E-3,2.9810002E-1,-9.996296E-1],"split_indices":[12,17,8,8,0,5,19,0,0,0,0,0,0],"split_type":[0,0,0,0,0,0,0,0,0,0,0,0,0],"sum_hessian":[2.46E2,5.8E1,1.88E2,4.7E1,1.1E1,1.55E2,3.3E1,3.4E1,1.3E1,5.7E1,9.8E1,1.4E1,1.9E1],"tree_param":{"num_deleted":"0","num_feature":"29","num_nodes":"13","size_leaf_vector":"1"}},{"base_weights":[-1.4169769E0,-1.9852701E0,6.355048E0,-1.0763597E0,-1.6204494E0,-1.0364913E0,1.0678247E1,5.99227E-1,-2.2408174E-1,1.619091E0,4.519887E-1],"categories":[],"categories_nodes":[],"categories_segments":[],"categories_sizes":[],"default_left":[0,0,0,0,0,0,0,0,0,0,0],"id":31,"left_children":[1,3,5,-1,7,-1,9,-1,-1,-1,-1],"loss_changes":[1.0991467E3,7.191367E2,1.3395026E3,0E0,1.061864E3,0E0,4.021046E2,0E0,0E0,0E0,0E0],"parents":[2147483647,0,0,1,1,2,2,4,4,6,6],"right_children":[2,4,6,-1,8,-1,10,-1,-1,-1,-1],"split_conditions":[1E0,4.88E1,5E0,-1.0763597E0,8.96E1,-1.0364913E0,3E1,5.99227E-1,-2.2408174E-1,1.619091E0,4.519887E-1],"split_indices":[2,6,13,0,12,0,16,0,0,0,0],"split_type":[0,0,0,0,0,0,0,0,0,0,0],"sum_hessian":[2.45E2,2.29E2,1.6E1,8E0,2.21E2,3E0,1.3E1,1.6E1,2.05E2,6E0,7E0],"tree_param":{"num_deleted":"0","num_feature":"29","num_nodes":"11","size_leaf_vector":"1"}},{"base_weights":[6.039735E-1,2.7276995E0,-2.4946952E0,-4.220303E-1,3.0465074E0,4.557332E-1,-3.0563776E0,3.608031E-1,-1.0846038E-1,-3.8252375E-1,7.4157335E-2],"categories":[],"categories_nodes":[],"categories_segments":[],"categories_sizes":[],"default_left":[0,0,0,0,0,0,0,0,0,0,0],"id":32,"left_children":[1,3,5,-1,7,-1,9,-1,-1,-1,-1],"loss_changes":[1.665147E3,3.4511877E2,4.21912E2,0E0,3.379524E2,0E0,2.831656E2,0E0,0E0,0E0,0E0],"parents":[2147483647,0,0,1,1,2,2,4,4,6,6],"right_children":[2,4,6,-1,8,-1,10,-1,-1,-1,-1],"split_conditions":[2.95E1,4.88E1,3.32E2,-4.220303E-1,8.6E1,4.557332E-1,2.2E1,3.608031E-1,-1.0846038E-1,-3.8252375E-1,7.4157335E-2],"split_indices":[16,6,8,0,4,0,0,0,0,0,0],"split_type":[0,0,0,0,0,0,0,0,0,0,0],"sum_hessian":[2.51E2,1.49E2,1.02E2,6E0,1.43E2,7E0,9.5E1,1.26E2,1.7E1,7.9E1,1.6E1],"tree_param":{"num_deleted":"0","num_feature":"29","num_nodes":"11","size_leaf_vector":"1"}},{"base_weights":[1.2941842E-1,-6.3494027E-1,4.100848E0,2.252357E0,-1.401038E0,2.1052754E0,1.1819981E0,-7.737219E-1,3.1720144E-1,5.486359E-2,-2.4914098E-1,5.3324574E-1,8.592789E-2],"categories":[],"categories_nodes":[],"categories_segments":[],"categories_sizes":[],"default_left":[0,0,0,0,0,0,0,0,0,0,0,0,0],"id":33,"left_children":[1,3,5,7,9,11,-1,-1,-1,-1,-1,-1,-1],"loss_changes":[7.5239624E2,4.632417E2,5.912793E2,4.287699E2,3.5213528E2,1.2811282E2,0E0,0E0,0E0,0E0,0E0,0E0,0E0],"parents":[2147483647,0,0,1,1,2,2,3,3,4,4,5,5],"right_children":[2,4,6,8,10,12,-1,-1,-1,-1,-1,-1,-1],"split_conditions":[2.176E2,6.62E1,1E0,6.8E1,1E0,1E0,1.1819981E0,-7.737219E-1,3.1720144E-1,5.486359E-2,-2.4914098E-1,5.3324574E-1,8.592789E-2],"split_indices":[9,9,1,4,19,18,0,0,0,0,0,0,0],"split_type":[0,0,0,0,0,0,0,0,0,0,0,0,0],"sum_hessian":[2.46E2,2.07E2,3.9E1,4.3E1,1.64E2,3.2E1,7E0,3E0,4E1,5.9E1,1.05E2,8E0,2.4E1],"tree_param":{"num_deleted":"0","num_feature":"29","num_nodes":"13","size_leaf_vector":"1"}},{"base_weights":[1.1467388E0,1.7970505E0,-1.0497008E1,1.3182839E0,8.603402E0,-6.7055833E-1,-1.7351321E0,-4.7602412E-1,1.9256184E-1,2.036707E0,3.9652297E-1],"categories":[],"categories_nodes":[],"categories_segments":[],"categories_sizes":[],"default_left":[0,0,0,0,0,0,0,0,0,0,0],"id":34,"left_children":[1,3,5,7,9,-1,-1,-1,-1,-1,-1],"loss_changes":[1.8588752E3,7.414071E2,2.2148828E2,8.102647E2,7.376686E2,0E0,0E0,0E0,0E0,0E0,0E0],"parents":[2147483647,0,0,1,1,2,2,3,3,4,4],"right_children":[2,4,6,8,10,-1,-1,-1,-1,-1,-1],"split_conditions":[1.16638E4,1E0,1E0,4.06E1,4.08E2,-6.7055833E-1,-1.7351321E0,-4.7602412E-1,1.9256184E-1,2.036707E0,3.9652297E-1],"split_indices":[7,2,17,10,8,0,0,0,0,0,0],"split_type":[0,0,0,0,0,0,0,0,0,0,0],"sum_hessian":[2.42E2,2.3E2,1.2E1,2.16E2,1.4E1,9E0,3E0,1.9E1,1.97E2,3E0,1.1E1],"tree_param":{"num_deleted":"0","num_feature":"29","num_nodes":"11","size_leaf_vector":"1"}},{"base_weights":[-2.911611E-1,6.3124967E-1,-2.5309284E0,-6.7627924E-3,9.563988E0,-5.643754E0,-9.23897E-1,3.7280723E-2,-1.038055E0,1.0536617E0,4.9845773E-1,-1.5429313E0,-3.608027E-1,-2.654856E-1,4.7787115E-1],"categories":[],"categories_nodes":[],"categories_segments":[],"categories_sizes":[],"default_left":[0,0,0,0,0,0,0,0,0,0,0,0,0,0,0],"id":35,"left_children":[1,3,5,7,9,11,13,-1,-1,-1,-1,-1,-1,-1,-1],"loss_changes":[5.24292E2,1.0259203E3,3.649639E2,6.693207E2,9.2822266E-1,4.4234882E2,5.0623587E2,0E0,0E0,0E0,0E0,0E0,0E0,0E0,0E0],"parents":[2147483647,0,0,1,1,2,2,3,3,4,4,5,5,6,6],"right_children":[2,4,6,8,10,12,14,-1,-1,-1,-1,-1,-1,-1,-1],"split_conditions":[1.83E2,1.79E2,1E0,1E0,1.0033E4,3.73E2,1E0,3.7280723E-2,-1.038055E0,1.0536617E0,4.9845773E-1,-1.5429313E0,-3.608027E-1,-2.654856E-1,4.7787115E-1],"split_indices":[5,5,19,1,7,8,1,0,0,0,0,0,0,0,0],"split_type":[0,0,0,0,0,0,0,0,0,0,0,0,0,0,0],"sum_hessian":[2.52E2,1.79E2,7.3E1,1.68E2,1.1E1,2.4E1,4.9E1,1.63E2,5E0,8E0,3E0,3E0,2.1E1,3.8E1,1.1E1],"tree_param":{"num_deleted":"0","num_feature":"29","num_nodes":"15","size_leaf_vector":"1"}},{"base_weights":[5.5512285E-1,-4.8239794E0,1.313698E0,-1.197722E0,-1.6783817E0,3.5002337E0,-1.1388779E-2,-3.6942074E-1,1.1100296E-1,1.07938565E-1,6.581913E-1,5.7247665E-2,-8.1193656E-1],"categories":[],"categories_nodes":[],"categories_segments":[],"categories_sizes":[],"default_left":[0,0,0,0,0,0,0,0,0,0,0,0,0],"id":36,"left_children":[1,3,5,-1,7,9,11,-1,-1,-1,-1,-1,-1],"loss_changes":[9.897265E2,6.5493427E2,6.1427783E2,0E0,1.2776159E2,5.897178E2,6.3426575E2,0E0,0E0,0E0,0E0,0E0,0E0],"parents":[2147483647,0,0,1,1,2,2,4,4,5,5,6,6],"right_children":[2,4,6,-1,8,10,12,-1,-1,-1,-1,-1,-1],"split_conditions":[2.65E1,7E1,9.1E1,-1.197722E0,1E1,6.2E1,1E0,-3.6942074E-1,1.1100296E-1,1.07938565E-1,6.581913E-1,5.7247665E-2,-8.1193656E-1],"split_indices":[16,4,9,0,0,11,22,0,0,0,0,0,0],"split_type":[0,0,0,0,0,0,0,0,0,0,0,0,0],"sum_hessian":[2.4E2,2.9E1,2.11E2,8E0,2.1E1,7.9E1,1.32E2,1.2E1,9E0,4.5E1,3.4E1,1.24E2,8E0],"tree_param":{"num_deleted":"0","num_feature":"29","num_nodes":"13","size_leaf_vector":"1"}},{"base_weights":[-7.656472E-1,-2.983512E0,2.493219E0,-6.369772E0,-2.3252795E0,3.8934808E0,-3.512542E0,-1.6280565E-1,-8.638876E-1,8.6458355E-2,-3.9491463E-1,5.85756E-1,-5.531789E-1,-2.2110624E0,4.1608602E-1],"categories":[],"categories_nodes":[],"categories_segments":[],"categories_sizes":[],"default_left":[0,0,0,0,0,0,0,0,0,0,0,0,0,0,0],"id":37,"left_children":[1,3,5,7,9,11,13,-1,-1,-1,-1,-1,-1,-1,-1],"loss_changes":[1.8360527E3,3.2175928E2,8.798688E2,2.4416217E2,6.6644324E2,1.5874088E3,2.9462104E3,0E0,0E0,0E0,0E0,0E0,0E0,0E0,0E0],"parents":[2147483647,0,0,1,1,2,2,3,3,4,4,5,5,6,6],"right_children":[2,4,6,8,10,12,14,-1,-1,-1,-1,-1,-1,-1,-1],"split_conditions":[7.34E1,2.65E1,1.2E1,1E0,2.85E1,1E0,1E0,-1.6280565E-1,-8.638876E-1,8.6458355E-2,-3.9491463E-1,5.85756E-1,-5.531789E-1,-2.2110624E0,4.1608602E-1],"split_indices":[11,16,0,19,16,1,19,0,0,0,0,0,0,0,0],"split_type":[0,0,0,0,0,0,0,0,0,0,0,0,0,0,0],"sum_hessian":[2.52E2,1.5E2,1.02E2,2.3E1,1.27E2,8.3E1,1.9E1,8E0,1.5E1,4.3E1,8.4E1,6.9E1,1.4E1,5E0,1.4E1],"tree_param":{"num_deleted":"0","num_feature":"29","num_nodes":"15","size_leaf_vector":"1"}},{"base_weights":[3.672327E-2,-2.1966524E0,1.1278231E0,-1.3247775E0,-4.672798E0,2.17534E0,-5.2811354E-1,-4.0691257E-1,-5.604381E-2,6.1496314E-2,-7.738302E-1,-2.6103413E-1,2.584298E-1,1.17950015E-1,-2.787328E-1],"categories":[],"categories_nodes":[],"categories_segments":[],"categories_sizes":[],"default_left":[0,0,0,0,0,0,0,0,0,0,0,0,0,0,0],"id":38,"left_children":[1,3,5,7,9,11,13,-1,-1,-1,-1,-1,-1,-1,-1],"loss_changes":[6.384916E2,1.7947403E2,3.064422E2,1.3406436E2,3.6137115E2,2.1811731E2,2.6948038E2,0E0,0E0,0E0,0E0,0E0,0E0,0E0,0E0],"parents":[2147483647,0,0,1,1,2,2,3,3,4,4,5,5,6,6],"right_children":[2,4,6,8,10,12,14,-1,-1,-1,-1,-1,-1,-1,-1],"split_conditions":[6.9E1,9.74E1,2.8E1,1E0,1E0,3E0,3.774E2,-4.0691257E-1,-5.604381E-2,6.1496314E-2,-7.738302E-1,-2.6103413E-1,2.584298E-1,1.17950015E-1,-2.787328E-1],"split_indices":[4,6,3,18,18,0,8,0,0,0,0,0,0,0,0],"split_type":[0,0,0,0,0,0,0,0,0,0,0,0,0,0,0],"sum_hessian":[2.6E2,8.5E1,1.75E2,6.4E1,2.1E1,1.07E2,6.8E1,1.3E1,5.1E1,8E0,1.3E1,8E0,9.9E1,3.9E1,2.9E1],"tree_param":{"num_deleted":"0","num_feature":"29","num_nodes":"15","size_leaf_vector":"1"}},{"base_weights":[-1.978117E-2,-1.302214E0,6.6291413E0,1.651751E-1,-4.7372117E0,9.145922E-1,9.564123E0,-2.6532939E-2,8.321164E-1,1.4551704E-1,-6.696068E-1,7.8784525E-1,-3.8296026E-1,1.1811162E0,2.0987141E-1],"categories":[],"categories_nodes":[],"categories_segments":[],"categories_sizes":[],"default_left":[0,0,0,0,0,0,0,0,0,0,0,0,0,0,0],"id":39,"left_children":[1,3,5,7,9,11,13,-1,-1,-1,-1,-1,-1,-1,-1],"loss_changes":[2.0039028E3,9.937568E2,6.285925E2,4.902632E2,7.2541296E2,4.9270206E2,3.9458838E2,0E0,0E0,0E0,0E0,0E0,0E0,0E0,0E0],"parents":[2147483647,0,0,1,1,2,2,3,3,4,4,5,5,6,6],"right_children":[2,4,6,8,10,12,14,-1,-1,-1,-1,-1,-1,-1,-1],"split_conditions":[7.78E1,7.34E1,1.1E1,7.1E1,1E0,1E0,1E0,-2.6532939E-2,8.321164E-1,1.4551704E-1,-6.696068E-1,7.8784525E-1,-3.8296026E-1,1.1811162E0,2.0987141E-1],"split_indices":[11,11,0,11,18,18,17,0,0,0,0,0,0,0,0],"split_type":[0,0,0,0,0,0,0,0,0,0,0,0,0,0,0],"sum_hessian":[2.33E2,1.96E2,3.7E1,1.38E2,5.8E1,1.3E1,2.4E1,1.32E2,6E0,1.4E1,4.4E1,5E0,8E0,1.8E1,6E0],"tree_param":{"num_deleted":"0","num_feature":"29","num_nodes":"15","size_leaf_vector":"1"}},{"base_weights":[5.461993E-1,1.1445096E0,-7.5103264E0,1.2472154E0,8.345976E-1,-8.4913254E-1,-2.1992484E-1,1.4483787E-1,-3.491677E-1],"categories":[],"categories_nodes":[],"categories_segments":[],"categories_sizes":[],"default_left":[0,0,0,0,0,0,0,0,0],"id":40,"left_children":[1,3,5,-1,7,-1,-1,-1,-1],"loss_changes":[1.1847494E3,7.9000134E2,6.989819E1,0E0,5.972083E2,0E0,0E0,0E0,0E0],"parents":[2147483647,0,0,1,1,2,2,4,4],"right_children":[2,4,6,-1,8,-1,-1,-1,-1],"split_conditions":[9.1E1,4.88E1,1E0,1.2472154E0,1.14668E4,-8.4913254E-1,-2.1992484E-1,1.4483787E-1,-3.491677E-1],"split_indices":[4,6,17,0,7,0,0,0,0],"split_type":[0,0,0,0,0,0,0,0,0],"sum_hessian":[2.43E2,2.27E2,1.6E1,5E0,2.22E2,1.3E1,3E0,1.95E2,2.7E1],"tree_param":{"num_deleted":"0","num_feature":"29","num_nodes":"9","size_leaf_vector":"1"}},{"base_weights":[-6.6339785E-1,7.453469E-1,-4.6447897E0,2.242378E0,-3.892126E0,-6.392845E0,1.5812121E-2,-4.6147162E-1,4.198996E-1,6.6494644E-1,-1.225679E0,-1.9405732E-2,-1.2583547E0,-6.3345057E-1,9.539313E-1],"categories":[],"categories_nodes":[],"categories_segments":[],"categories_sizes":[],"default_left":[0,0,0,0,0,0,0,0,0,0,0,0,0,0,0],"id":41,"left_children":[1,3,5,7,9,11,13,-1,-1,-1,-1,-1,-1,-1,-1],"loss_changes":[1.4168707E3,1.3069641E3,5.3780237E2,1.9245508E3,4.137636E3,1.8395507E3,1.2094945E3,0E0,0E0,0E0,0E0,0E0,0E0,0E0,0E0],"parents":[2147483647,0,0,1,1,2,2,3,3,4,4,5,5,6,6],"right_children":[2,4,6,8,10,12,14,-1,-1,-1,-1,-1,-1,-1,-1],"split_conditions":[7.9E1,1E0,1E0,4E0,1E1,2.4E1,2.4E1,-4.6147162E-1,4.198996E-1,6.6494644E-1,-1.225679E0,-1.9405732E-2,-1.2583547E0,-6.3345057E-1,9.539313E-1],"split_indices":[4,17,17,0,0,3,3,0,0,0,0,0,0,0,0],"split_type":[0,0,0,0,0,0,0,0,0,0,0,0,0,0,0],"sum_hessian":[2.51E2,1.86E2,6.5E1,1.41E2,4.5E1,4.7E1,1.8E1,3.1E1,1.1E2,2E1,2.5E1,2.4E1,2.3E1,1.1E1,7E0],"tree_param":{"num_deleted":"0","num_feature":"29","num_nodes":"15","size_leaf_vector":"1"}},{"base_weights":[4.681497E-1,-6.2372033E-2,1.0995361E1,-1.8931684E0,1.4109933E0,2.3610814E-1,1.6825408E0,-5.9373695E-2,-3.5205097E0,9.416979E-1,8.914784E-2],"categories":[],"categories_nodes":[],"categories_segments":[],"categories_sizes":[],"default_left":[0,0,0,0,0,0,0,0,0,0,0],"id":42,"left_children":[1,3,5,7,9,-1,-1,-1,-1,-1,-1],"loss_changes":[1.3969146E3,6.473575E2,5.6433276E2,4.6107607E3,5.4478235E2,0E0,0E0,0E0,0E0,0E0,0E0],"parents":[2147483647,0,0,1,1,2,2,3,3,4,4],"right_children":[2,4,6,8,10,-1,-1,-1,-1,-1,-1],"split_conditions":[1E0,1.77E2,6.3E1,1E0,5.8E1,2.3610814E-1,1.6825408E0,-5.9373695E-2,-3.5205097E0,9.416979E-1,8.914784E-2],"split_indices":[2,5,4,1,6,0,0,0,0,0,0],"split_type":[0,0,0,0,0,0,0,0,0,0,0],"sum_hessian":[2.49E2,2.38E2,1.1E1,1.06E2,1.32E2,5E0,6E0,1.03E2,3E0,7E0,1.25E2],"tree_param":{"num_deleted":"0","num_feature":"29","num_nodes":"11","size_leaf_vector":"1"}},{"base_weights":[-1.8162182E-1,1.0563946E0,-3.9958122E0,-5.1485803E-2,3.891002E0,-8.683481E0,-2.514468E0,5.1831674E-2,-4.2861748E-1,5.0578606E-1,-2.2459726E-1,-1.1663346E0,-4.037423E-1,4.6699333E-1,-3.1104484E-1],"categories":[],"categories_nodes":[],"categories_segments":[],"categories_sizes":[],"default_left":[0,0,0,0,0,0,0,0,0,0,0,0,0,0,0],"id":43,"left_children":[1,3,5,7,9,11,13,-1,-1,-1,-1,-1,-1,-1,-1],"loss_changes":[1.1563966E3,5.8117554E2,3.9480865E2,3.2555508E2,3.8373083E2,1.4673486E2,2.157684E2,0E0,0E0,0E0,0E0,0E0,0E0,0E0,0E0],"parents":[2147483647,0,0,1,1,2,2,3,3,4,4,5,5,6,6],"right_children":[2,4,6,8,10,12,14,-1,-1,-1,-1,-1,-1,-1,-1],"split_conditions":[3E1,7.5E1,3.1E1,7.1E1,1E0,6.6E1,9.44E1,5.1831674E-2,-4.2861748E-1,5.0578606E-1,-2.2459726E-1,-1.1663346E0,-4.037423E-1,4.6699333E-1,-3.1104484E-1],"split_indices":[3,11,3,11,1,4,6,0,0,0,0,0,0,0,0],"split_type":[0,0,0,0,0,0,0,0,0,0,0,0,0,0,0],"sum_hessian":[2.43E2,1.84E2,5.9E1,1.33E2,5.1E1,1.3E1,4.6E1,1.18E2,1.5E1,4.3E1,8E0,7E0,6E0,3E0,4.3E1],"tree_param":{"num_deleted":"0","num_feature":"29","num_nodes":"15","size_leaf_vector":"1"}},{"base_weights":[-2.361471E0,-6.5160364E-1,-8.136184E0,-6.8812838E0,3.2348678E-1,-1.1356036E1,-3.229291E0,4.8472306E-1,-8.7876064E-1,3.784956E-1,-9.242652E-2,-9.650893E-1,-2.045303E0,8.996921E-2,-5.216129E-1],"categories":[],"categories_nodes":[],"categories_segments":[],"categories_sizes":[],"default_left":[0,0,0,0,0,0,0,0,0,0,0,0,0,0,0],"id":44,"left_children":[1,3,5,7,9,11,13,-1,-1,-1,-1,-1,-1,-1,-1],"loss_changes":[2.2459688E3,1.0774127E3,7.849004E2,5.791953E2,6.686328E2,2.8347168E2,1.8517255E2,0E0,0E0,0E0,0E0,0E0,0E0,0E0,0E0],"parents":[2147483647,0,0,1,1,2,2,3,3,4,4,5,5,6,6],"right_children":[2,4,6,8,10,12,14,-1,-1,-1,-1,-1,-1,-1,-1],"split_conditions":[1.07432E4,4.06E1,2.5E1,6.8E1,3.774E2,7.9E1,1E0,4.8472306E-1,-8.7876064E-1,3.784956E-1,-9.242652E-2,-9.650893E-1,-2.045303E0,8.996921E-2,-5.216129E-1],"split_indices":[7,10,3,4,8,4,18,0,0,0,0,0,0,0,0],"split_type":[0,0,0,0,0,0,0,0,0,0,0,0,0,0,0],"sum_hessian":[2.27E2,1.76E2,5.1E1,2.3E1,1.53E2,3E1,2.1E1,3E0,2E1,4E1,1.13E2,2.7E1,3E0,7E0,1.4E1],"tree_param":{"num_deleted":"0","num_feature":"29","num_nodes":"15","size_leaf_vector":"1"}},{"base_weights":[1.9813786E-1,-7.9334396E-1,4.5877023E0,-5.4159656E0,1.4137234E-2,8.283826E0,2.942786E0,-7.6255864E-1,-4.5512732E-2,-7.0563026E-2,3.772399E-1,-2.884634E-1,1.5624694E0,7.23738E-2,1.4780897E0],"categories":[],"categories_nodes":[],"categories_segments":[],"categories_sizes":[],"default_left":[0,0,0,0,0,0,0,0,0,0,0,0,0,0,0],"id":45,"left_children":[1,3,5,7,9,11,13,-1,-1,-1,-1,-1,-1,-1,-1],"loss_changes":[1.0394569E3,7.279492E2,2.4313434E2,3.1441498E2,4.544094E2,1.1108918E3,8.2992126E2,0E0,0E0,0E0,0E0,0E0,0E0,0E0,0E0],"parents":[2147483647,0,0,1,1,2,2,3,3,4,4,5,5,6,6],"right_children":[2,4,6,8,10,12,14,-1,-1,-1,-1,-1,-1,-1,-1],"split_conditions":[3.1E1,6.56E1,1E0,2.7E1,1E0,5E0,1E0,-7.6255864E-1,-4.5512732E-2,-7.0563026E-2,3.772399E-1,-2.884634E-1,1.5624694E0,7.23738E-2,1.4780897E0],"split_indices":[3,9,18,3,22,0,1,0,0,0,0,0,0,0,0],"split_type":[0,0,0,0,0,0,0,0,0,0,0,0,0,0,0],"sum_hessian":[2.37E2,1.94E2,4.3E1,2.8E1,1.66E2,1.2E1,3.1E1,1.9E1,9E0,1.4E2,2.6E1,5E0,7E0,2.7E1,4E0],"tree_param":{"num_deleted":"0","num_feature":"29","num_nodes":"15","size_leaf_vector":"1"}},{"base_weights":[6.657204E-1,-1.2537149E-1,5.6719007E0,5.9336777E0,-1.134539E0,1.3613954E1,1.7954636E0,3.8539454E-1,1.9008385E0,-3.608901E-1,8.5110106E-2,7.150921E-1,1.993941E0,2.1234004E-1,1.3546401E-1],"categories":[],"categories_nodes":[],"categories_segments":[],"categories_sizes":[],"default_left":[0,0,0,0,0,0,0,0,0,0,0,0,0,0,0],"id":46,"left_children":[1,3,5,7,9,11,13,-1,-1,-1,-1,-1,-1,-1,-1],"loss_changes":[9.8683795E2,1.3274846E3,1.0223102E3,7.696913E2,9.1692523E2,3.0711267E2,5.930557E-1,0E0,0E0,0E0,0E0,0E0,0E0,0E0,0E0],"parents":[2147483647,0,0,1,1,2,2,3,3,4,4,5,5,6,6],"right_children":[2,4,6,8,10,12,14,-1,-1,-1,-1,-1,-1,-1,-1],"split_conditions":[1.034E2,6.56E1,1E0,2E1,1.206E2,1.1E1,1.1E1,3.8539454E-1,1.9008385E0,-3.608901E-1,8.5110106E-2,7.150921E-1,1.993941E0,2.1234004E-1,1.3546401E-1],"split_indices":[11,9,18,0,12,0,0,0,0,0,0,0,0,0,0],"split_type":[0,0,0,0,0,0,0,0,0,0,0,0,0,0,0],"sum_hessian":[2.48E2,2.15E2,3.3E1,3E1,1.85E2,1E1,2.3E1,2.7E1,3E0,8.2E1,1.03E2,6E0,4E0,1.1E1,1.2E1],"tree_param":{"num_deleted":"0","num_feature":"29","num_nodes":"15","size_leaf_vector":"1"}},{"base_weights":[2.9652473E-1,3.5347831E0,-2.464188E0,2.1840706E0,1.4946393E0,-4.8703647E0,-8.495818E-1,4.8127705E-1,1.1522764E-1,-8.93314E-1,-3.364286E-1,-2.7251361E-2,-8.1136936E-1],"categories":[],"categories_nodes":[],"categories_segments":[],"categories_sizes":[],"default_left":[0,0,0,0,0,0,0,0,0,0,0,0,0],"id":47,"left_children":[1,3,5,7,-1,9,11,-1,-1,-1,-1,-1,-1],"loss_changes":[2.2347458E3,1.7399432E3,5.2034106E2,2.765312E2,0E0,3.0036475E2,3.4152365E2,0E0,0E0,0E0,0E0,0E0,0E0],"parents":[2147483647,0,0,1,1,2,2,3,3,5,5,6,6],"right_children":[2,4,6,8,-1,10,12,-1,-1,-1,-1,-1,-1],"split_conditions":[1E1,9E0,2.5E1,1E0,1.4946393E0,1E0,1E0,4.8127705E-1,1.1522764E-1,-8.93314E-1,-3.364286E-1,-2.7251361E-2,-8.1136936E-1],"split_indices":[0,0,3,18,0,18,2,0,0,0,0,0,0],"split_type":[0,0,0,0,0,0,0,0,0,0,0,0,0],"sum_hessian":[2.48E2,1.14E2,1.34E2,1.03E2,1.1E1,5.3E1,8.1E1,2.8E1,7.5E1,1.3E1,4E1,7.6E1,5E0],"tree_param":{"num_deleted":"0","num_feature":"29","num_nodes":"13","size_leaf_vector":"1"}},{"base_weights":[-1.1526305E-1,3.3966045E0,-1.9788764E0,4.708646E0,-7.045774E-1,-2.6249506E0,1.2702047E0,-8.9208835E-1,5.5776733E-1,-4.566276E-1,2.3705272E-2],"categories":[],"categories_nodes":[],"categories_segments":[],"categories_sizes":[],"default_left":[0,0,0,0,0,0,0,0,0,0,0],"id":48,"left_children":[1,3,5,7,-1,9,-1,-1,-1,-1,-1],"loss_changes":[1.6232781E3,1.2114475E3,1.5699069E3,9.617793E2,0E0,8.6783093E2,0E0,0E0,0E0,0E0,0E0],"parents":[2147483647,0,0,1,1,2,2,3,3,5,5],"right_children":[2,4,6,8,-1,10,-1,-1,-1,-1,-1],"split_conditions":[1E0,8.3E1,2.582E2,5.72E1,-7.045774E-1,1.79E2,1.2702047E0,-8.9208835E-1,5.5776733E-1,-4.566276E-1,2.3705272E-2],"split_indices":[19,4,9,9,0,5,0,0,0,0,0],"split_type":[0,0,0,0,0,0,0,0,0,0,0],"sum_hessian":[2.46E2,8.5E1,1.61E2,7.6E1,9E0,1.55E2,6E0,4E0,7.2E1,9.2E1,6.3E1],"tree_param":{"num_deleted":"0","num_feature":"29","num_nodes":"11","size_leaf_vector":"1"}},{"base_weights":[-1.0897979E0,1.2579162E0,-3.0553417E0,-1.6599842E0,4.638839E0,6.340552E-1,-4.463653E0,-2.751689E-1,7.466752E-1,5.370597E-1,-2.1103258E-1,2.867019E-1,-1.2125081E0,-1.8167482E-1,-1.1205096E0],"categories":[],"categories_nodes":[],"categories_segments":[],"categories_sizes":[],"default_left":[0,0,0,0,0,0,0,0,0,0,0,0,0,0,0],"id":49,"left_children":[1,3,5,7,9,11,13,-1,-1,-1,-1,-1,-1,-1,-1],"loss_changes":[1.1713208E3,1.152063E3,7.1985315E2,6.482594E2,2.780266E2,1.1458995E3,1.764039E3,0E0,0E0,0E0,0E0,0E0,0E0,0E0,0E0],"parents":[2147483647,0,0,1,1,2,2,3,3,4,4,5,5,6,6],"right_children":[2,4,6,8,10,12,14,-1,-1,-1,-1,-1,-1,-1,-1],"split_conditions":[9.52E1,2.95E1,1E0,1E0,1E0,1E0,1E0,-2.751689E-1,7.466752E-1,5.370597E-1,-2.1103258E-1,2.867019E-1,-1.2125081E0,-1.8167482E-1,-1.1205096E0],"split_indices":[6,16,18,2,1,22,26,0,0,0,0,0,0,0,0],"split_type":[0,0,0,0,0,0,0,0,0,0,0,0,0,0,0],"sum_hessian":[2.52E2,1.15E2,1.37E2,6.2E1,5.3E1,3.8E1,9.9E1,5.6E1,6E0,4.8E1,5E0,3.3E1,5E0,7.2E1,2.7E1],"tree_param":{"num_deleted":"0","num_feature":"29","num_nodes":"15","size_leaf_vector":"1"}}]},"name":"gbtree"},"learner_model_param":{"base_score":"5.3400967E1","boost_from_average":"1","num_class":"0","num_feature":"29","num_target":"1"},"objective":{"name":"reg:squarederror","reg_loss_param":{"scale_pos_weight":"1"}}},"version":[2,0,3]}