{"learner":{"attributes":{"scikit_learn":"{\"_estimator_type\": \"regressor\"}"},"feature_names":["Unnamed: 0","jugador_anonimizado","gol","asistencia","edad","peso","altura","minutos_predictor","avg_dist_sess_m_predictor","zona_4_19.9_25.1_kmh_predictor","zona_5_mas_25.1_kmh_predictor","num_aceleraciones_intensas_predictor","num_desaceleraciones_intensas_predictor","num_acel_desintensas_predictor","num_sprints_total_predictor","gol_predictor","asistencia_predictor","max_vel_kmh_predictor","torneo_Libertadores","torneo_Torneo Local","categoria_partido_Normal","posicion_habitual_Delantero","posicion_habitual_Extremo","posicion_habitual_Lateral","posicion_habitual_Lateral ","posicion_habitual_Lateral / Volante","posicion_habitual_Volante / Extremo","posicion_habitual_Volante Central","posicion_habitual_Volante Ofensivo","posicion_habitual_Volante Ofensivo / Extremo"],"feature_types":["int","int","int","int","int","int","int","float","float","float","float","float","float","float","float","float","float","float","i","i","i","i","i","i","i","i","i","i","i","i"],"gradient_booster":{"model":{"gbtree_model_param":{"num_parallel_tree":"1","num_trees":"50"},"iteration_indptr":[0,1,2,3,4,5,6,7,8,9,10,11,12,13,14,15,16,17,18,19,20,21,22,23,24,25,26,27,28,29,30,31,32,33,34,35,36,37,38,39,40,41,42,43,44,45,46,47,48,49,50],"tree_info":[0,0,0,0,0,0,0,0,0,0,0,0,0,0,0,0,0,0,0,0,0,0,0,0,0,0,0,0,0,0,0,0,0,0,0,0,0,0,0,0,0,0,0,0,0,0,0,0,0,0],"trees":[{"base_weights":[1.0234711E-2,-1.5825574E1,1.5227377E1,-2.745478E1,-5.6958656E0,3.1750908E0,1.9908978E1,-2.8861177E0,-7.0560366E-1,4.0063864E-1,-8.105785E-1,1.134584E0,-3.5905194E-1,2.8705866E0,1.6902773E0],"categories":[],"categories_nodes":[],"categories_segments":[],"categories_sizes":[],"default_left":[0,0,0,0,0,0,0,0,0,0,0,0,0,0,0],"id":0,"left_children":[1,3,5,7,9,11,13,-1,-1,-1,-1,-1,-1,-1,-1],"loss_changes":[6.0484918E4,1.4333078E4,7.1590566E3,1.4316094E3,1.5990454E3,2.0861013E3,1.9477539E3,0E0,0E0,0E0,0E0,0E0,0E0,0E0,0E0],"parents":[2147483647,0,0,1,1,2,2,3,3,4,4,5,5,6,6],"right_children":[2,4,6,8,10,12,14,-1,-1,-1,-1,-1,-1,-1,-1],"split_conditions":[9.64E1,6.74E1,9.82E1,1E0,1.69E2,2.5E1,1.52E2,-2.8861177E0,-7.0560366E-1,4.0063864E-1,-8.105785E-1,1.134584E0,-3.5905194E-1,2.8705866E0,1.6902773E0],"split_indices":[7,7,7,3,6,0,0,0,0,0,0,0,0,0,0],"split_type":[0,0,0,0,0,0,0,0,0,0,0,0,0,0,0],"sum_hessian":[2.49E2,1.22E2,1.27E2,5.6E1,6.6E1,3.6E1,9.1E1,5.2E1,4E0,1.3E1,5.3E1,1.6E1,2E1,2.1E1,7E1],"tree_param":{"num_deleted":"0","num_feature":"30","num_nodes":"15","size_leaf_vector":"1"}},{"base_weights":[2.0850106E-1,-2.422006E1,7.0818224E0,-2.6246359E1,-1.072202E1,-2.535259E-1,1.5615907E1,-3.6323628E0,-2.1878278E0,-1.3007574E0,-6.2920624E-1,-8.7542325E-1,7.796313E-1,1.6718477E0,-1.2820243E0],"categories":[],"categories_nodes":[],"categories_segments":[],"categories_sizes":[],"default_left":[0,0,0,0,0,0,0,0,0,0,0,0,0,0,0],"id":1,"left_children":[1,3,5,7,9,11,13,-1,-1,-1,-1,-1,-1,-1,-1],"loss_changes":[4.281948E4,1.2502461E3,1.2461454E4,1.3181797E3,9.279663E0,7.4586167E3,3.098793E3,0E0,0E0,0E0,0E0,0E0,0E0,0E0,0E0],"parents":[2147483647,0,0,1,1,2,2,3,3,4,4,5,5,6,6],"right_children":[2,4,6,8,10,12,14,-1,-1,-1,-1,-1,-1,-1,-1],"split_conditions":[7.88E1,6.74E1,9.82E1,4.06E1,3.29E2,5.74E2,3.93E2,-3.6323628E0,-2.1878278E0,-1.3007574E0,-6.2920624E-1,-8.7542325E-1,7.796313E-1,1.6718477E0,-1.2820243E0],"split_indices":[7,7,7,11,0,9,0,0,0,0,0,0,0,0,0],"split_type":[0,0,0,0,0,0,0,0,0,0,0,0,0,0,0],"sum_hessian":[2.53E2,5.5E1,1.98E2,4.7E1,8E0,1.07E2,9.1E1,1.2E1,3.5E1,4E0,4E0,5.2E1,5.5E1,8.8E1,3E0],"tree_param":{"num_deleted":"0","num_feature":"30","num_nodes":"15","size_leaf_vector":"1"}},{"base_weights":[-2.331017E0,-2.5901567E1,4.9531474E0,-3.5149078E0,-2.185827E1,-5.562627E0,1.1528133E1,-2.3591688E0,-3.9659578E-1,1.1338463E-1,-2.1137807E0,1.7406301E0,4.9192706E-1],"categories":[],"categories_nodes":[],"categories_segments":[],"categories_sizes":[],"default_left":[0,0,0,0,0,0,0,0,0,0,0,0,0],"id":2,"left_children":[1,3,5,-1,7,9,11,-1,-1,-1,-1,-1,-1],"loss_changes":[4.219278E4,1.4003438E3,1.3062648E4,0E0,1.2400762E3,7.637778E3,4.420741E3,0E0,0E0,0E0,0E0,0E0,0E0],"parents":[2147483647,0,0,1,1,2,2,4,4,5,5,6,6],"right_children":[2,4,6,-1,8,10,12,-1,-1,-1,-1,-1,-1],"split_conditions":[7.88E1,4.9E1,9.7E1,-3.5149078E0,3.75E2,9.52E1,1.182E2,-2.3591688E0,-3.9659578E-1,1.1338463E-1,-2.1137807E0,1.7406301E0,4.9192706E-1],"split_indices":[7,7,7,0,0,7,10,0,0,0,0,0,0],"split_type":[0,0,0,0,0,0,0,0,0,0,0,0,0],"sum_hessian":[2.44E2,5.7E1,1.87E2,1.5E1,4.2E1,7.2E1,1.15E2,3.8E1,4E0,5.1E1,2.1E1,6E1,5.5E1],"tree_param":{"num_deleted":"0","num_feature":"30","num_nodes":"13","size_leaf_vector":"1"}},{"base_weights":[-2.3572826E0,-2.1447792E1,5.2489276E0,-2.363181E1,-1.1864274E1,1.4400638E0,1.4303908E1,-2.512608E0,-3.3650482E-1,-1.14066E-1,-1.888661E0,-2.831465E-2,1.4095815E0,1.7004822E0,5.75823E-1],"categories":[],"categories_nodes":[],"categories_segments":[],"categories_sizes":[],"default_left":[0,0,0,0,0,0,0,0,0,0,0,0,0,0,0],"id":3,"left_children":[1,3,5,7,9,11,13,-1,-1,-1,-1,-1,-1,-1,-1],"loss_changes":[3.5688156E4,1.1847656E3,6.0494976E3,1.6113535E3,1.108029E3,2.7300564E3,1.1023027E3,0E0,0E0,0E0,0E0,0E0,0E0,0E0,0E0],"parents":[2147483647,0,0,1,1,2,2,3,3,4,4,5,5,6,6],"right_children":[2,4,6,8,10,12,14,-1,-1,-1,-1,-1,-1,-1,-1],"split_conditions":[8.66E1,7.88E1,9.9E1,1E0,1.02E2,3.45E2,1.76E2,-2.512608E0,-3.3650482E-1,-1.14066E-1,-1.888661E0,-2.831465E-2,1.4095815E0,1.7004822E0,5.75823E-1],"split_indices":[7,7,7,3,0,0,0,0,0,0,0,0,0,0,0],"split_type":[0,0,0,0,0,0,0,0,0,0,0,0,0,0,0],"sum_hessian":[2.44E2,6.9E1,1.75E2,5.5E1,1.4E1,1.24E2,5.1E1,5.1E1,4E0,6E0,8E0,1.1E2,1.4E1,3.8E1,1.3E1],"tree_param":{"num_deleted":"0","num_feature":"30","num_nodes":"15","size_leaf_vector":"1"}},{"base_weights":[2.940102E-1,-1.0379951E1,1.164335E1,-1.4779875E1,2.9957068E0,-6.1418915E0,1.2741153E1,-2.4804032E0,-1.1674364E0,1.241239E0,-3.424734E-1,6.6416997E-1,-2.0585907E0,1.4116352E0,3.659589E-1],"categories":[],"categories_nodes":[],"categories_segments":[],"categories_sizes":[],"default_left":[0,0,0,0,0,0,0,0,0,0,0,0,0,0,0],"id":4,"left_children":[1,3,5,7,9,11,13,-1,-1,-1,-1,-1,-1,-1,-1],"loss_changes":[3.149674E4,7.9304287E3,2.5383672E3,2.8545723E3,2.0981238E3,1.6138965E3,1.4345234E3,0E0,0E0,0E0,0E0,0E0,0E0,0E0,0E0],"parents":[2147483647,0,0,1,1,2,2,3,3,4,4,5,5,6,6],"right_children":[2,4,6,8,10,12,14,-1,-1,-1,-1,-1,-1,-1,-1],"split_conditions":[9.7E1,1.322E2,9E0,1E0,1E0,5E0,1.9E2,-2.4804032E0,-1.1674364E0,1.241239E0,-3.424734E-1,6.6416997E-1,-2.0585907E0,1.4116352E0,3.659589E-1],"split_indices":[7,13,0,19,20,0,6,0,0,0,0,0,0,0,0],"split_type":[0,0,0,0,0,0,0,0,0,0,0,0,0,0,0],"sum_hessian":[2.58E2,1.33E2,1.25E2,1E2,3.3E1,7E0,1.18E2,2.2E1,7.8E1,1.3E1,2E1,4E0,3E0,1.02E2,1.6E1],"tree_param":{"num_deleted":"0","num_feature":"30","num_nodes":"15","size_leaf_vector":"1"}},{"base_weights":[1.3815728E0,-1.8511034E1,6.2580237E0,-1.0138633E0,-1.996021E1,-6.36544E-1,1.0280301E1,-1.706642E0,-2.9639108E0,3.5634828E-1,-1.156546E0,-7.3986566E-1,1.0995177E0],"categories":[],"categories_nodes":[],"categories_segments":[],"categories_sizes":[],"default_left":[0,0,0,0,0,0,0,0,0,0,0,0,0],"id":5,"left_children":[1,3,5,-1,7,9,11,-1,-1,-1,-1,-1,-1],"loss_changes":[2.6598295E4,4.528164E2,6.1075547E3,0E0,7.545586E2,3.8051558E3,1.8380703E3,0E0,0E0,0E0,0E0,0E0,0E0],"parents":[2147483647,0,0,1,1,2,2,4,4,5,5,6,6],"right_children":[2,4,6,-1,8,10,12,-1,-1,-1,-1,-1,-1],"split_conditions":[6.74E1,3.8E1,9.7E1,-1.0138633E0,1E0,9.52E1,9E0,-1.706642E0,-2.9639108E0,3.5634828E-1,-1.156546E0,-7.3986566E-1,1.0995177E0],"split_indices":[7,0,7,0,18,7,0,0,0,0,0,0,0],"split_type":[0,0,0,0,0,0,0,0,0,0,0,0,0],"sum_hessian":[2.72E2,5.3E1,2.19E2,9E0,4.4E1,8.1E1,1.38E2,3.6E1,8E0,5.9E1,2.2E1,5E0,1.33E2],"tree_param":{"num_deleted":"0","num_feature":"30","num_nodes":"13","size_leaf_vector":"1"}},{"base_weights":[-2.0799353E0,-1.1241014E1,6.876277E0,-1.478582E1,-2.1084652E0,8.2144785E0,-2.0810766E0,-6.8599856E-1,-2.051374E0,1.2804964E0,-9.477326E-1,1.622763E0,4.2548808E-1],"categories":[],"categories_nodes":[],"categories_segments":[],"categories_sizes":[],"default_left":[0,0,0,0,0,0,0,0,0,0,0,0,0],"id":6,"left_children":[1,3,5,7,9,11,-1,-1,-1,-1,-1,-1,-1],"loss_changes":[2.0097146E4,3.8859717E3,4.765254E3,3.8089492E3,3.967681E3,3.706688E3,0E0,0E0,0E0,0E0,0E0,0E0,0E0],"parents":[2147483647,0,0,1,1,2,2,3,3,4,4,5,5],"right_children":[2,4,6,8,10,12,-1,-1,-1,-1,-1,-1,-1],"split_conditions":[9.7E1,1.322E2,3.92E2,6E0,1E0,1E0,-2.0810766E0,-6.8599856E-1,-2.051374E0,1.2804964E0,-9.477326E-1,1.622763E0,4.2548808E-1],"split_indices":[7,13,0,14,20,20,0,0,0,0,0,0,0],"split_type":[0,0,0,0,0,0,0,0,0,0,0,0,0],"sum_hessian":[2.43E2,1.2E2,1.23E2,8.6E1,3.4E1,1.18E2,5E0,3.7E1,4.9E1,1.1E1,2.3E1,3.8E1,8E1],"tree_param":{"num_deleted":"0","num_feature":"30","num_nodes":"13","size_leaf_vector":"1"}},{"base_weights":[2.6439145E0,-8.842586E0,6.7771287E0,-4.5345125E0,-1.4737853E1,5.6958904E0,1.9190676E0,-6.452224E-1,7.088274E-1,-3.3164966E0,-1.0091184E0,-1.0830714E0,6.37906E-1],"categories":[],"categories_nodes":[],"categories_segments":[],"categories_sizes":[],"default_left":[0,0,0,0,0,0,0,0,0,0,0,0,0],"id":7,"left_children":[1,3,5,7,9,11,-1,-1,-1,-1,-1,-1,-1],"loss_changes":[1.1644111E4,1.5839917E3,2.3066514E3,9.1501215E2,1.9771934E3,1.9545991E3,0E0,0E0,0E0,0E0,0E0,0E0,0E0],"parents":[2147483647,0,0,1,1,2,2,3,3,4,4,5,5],"right_children":[2,4,6,8,10,12,-1,-1,-1,-1,-1,-1,-1],"split_conditions":[8.7622E3,3.29E2,1E0,3.14E2,3.68E1,9E0,1.9190676E0,-6.452224E-1,7.088274E-1,-3.3164966E0,-1.0091184E0,-1.0830714E0,6.37906E-1],"split_indices":[8,0,3,0,10,0,0,0,0,0,0,0,0],"split_type":[0,0,0,0,0,0,0,0,0,0,0,0,0],"sum_hessian":[2.43E2,6.4E1,1.79E2,3.8E1,2.6E1,1.66E2,1.3E1,3.3E1,5E0,4E0,2.2E1,6E0,1.6E2],"tree_param":{"num_deleted":"0","num_feature":"30","num_nodes":"13","size_leaf_vector":"1"}},{"base_weights":[8.879644E-1,-1.3999761E1,4.9437685E0,-2.6216102E0,-9.06864E0,1.6725502E0,1.0522258E1,-1.2389183E0,3.745366E-1,6.616098E-2,1.122135E0,1.5311718E0,2.2780633E-1],"categories":[],"categories_nodes":[],"categories_segments":[],"categories_sizes":[],"default_left":[0,0,0,0,0,0,0,0,0,0,0,0,0],"id":8,"left_children":[1,3,5,-1,7,9,11,-1,-1,-1,-1,-1,-1],"loss_changes":[1.5225018E4,3.0152295E3,3.5955952E3,0E0,1.7483809E3,1.2088876E3,2.8475415E3,0E0,0E0,0E0,0E0,0E0,0E0],"parents":[2147483647,0,0,1,1,2,2,4,4,5,5,6,6],"right_children":[2,4,6,-1,8,10,12,-1,-1,-1,-1,-1,-1],"split_conditions":[7.88E1,4.9E1,9.84E1,-2.6216102E0,3.66E2,3.37E2,1.07432E4,-1.2389183E0,3.745366E-1,6.616098E-2,1.122135E0,1.5311718E0,2.2780633E-1],"split_indices":[7,7,7,0,0,0,8,0,0,0,0,0,0],"split_type":[0,0,0,0,0,0,0,0,0,0,0,0,0],"sum_hessian":[2.5E2,5.3E1,1.97E2,1.4E1,3.9E1,1.25E2,7.2E1,3.1E1,8E0,1.14E2,1.1E1,4.5E1,2.7E1],"tree_param":{"num_deleted":"0","num_feature":"30","num_nodes":"13","size_leaf_vector":"1"}},{"base_weights":[-4.2943302E-1,-9.021439E0,3.7389908E0,-1.048749E1,7.7655834E-1,1.164902E1,1.4412383E0,-1.1614856E0,7.393129E-1,1.4943942E0,6.8935865E-1,4.4664703E-3,1.0639566E0],"categories":[],"categories_nodes":[],"categories_segments":[],"categories_sizes":[],"default_left":[0,0,0,0,0,0,0,0,0,0,0,0,0],"id":9,"left_children":[1,3,5,7,-1,9,11,-1,-1,-1,-1,-1,-1],"loss_changes":[8.77262E3,2.050291E3,2.9821338E3,1.5775615E3,0E0,4.7672754E2,1.656677E3,0E0,0E0,0E0,0E0,0E0,0E0],"parents":[2147483647,0,0,1,1,2,2,3,3,5,5,6,6],"right_children":[2,4,6,8,-1,10,12,-1,-1,-1,-1,-1,-1],"split_conditions":[6.14E1,3.1E1,1.276E2,1E0,7.7655834E-1,2.81E2,1E0,-1.1614856E0,7.393129E-1,1.4943942E0,6.8935865E-1,4.4664703E-3,1.0639566E0],"split_indices":[12,4,13,3,0,0,24,0,0,0,0,0,0],"split_type":[0,0,0,0,0,0,0,0,0,0,0,0,0],"sum_hessian":[2.43E2,7.9E1,1.64E2,7.3E1,6E0,3.6E1,1.28E2,6.9E1,4E0,2E1,1.6E1,1.12E2,1.6E1],"tree_param":{"num_deleted":"0","num_feature":"30","num_nodes":"13","size_leaf_vector":"1"}},{"base_weights":[7.138546E-1,-1.063955E1,3.836706E0,-1.9346941E1,-8.603853E0,-2.017853E0,4.409314E0,-2.5581334E0,-1.3020582E0,-7.3459065E-1,-2.0604794E0,-5.1785585E-2,7.300374E-1],"categories":[],"categories_nodes":[],"categories_segments":[],"categories_sizes":[],"default_left":[0,0,0,0,0,0,0,0,0,0,0,0,0],"id":10,"left_children":[1,3,5,7,9,-1,11,-1,-1,-1,-1,-1,-1],"loss_changes":[9.365484E3,8.439009E2,2.935497E3,6.132617E1,5.732732E2,0E0,2.8954626E3,0E0,0E0,0E0,0E0,0E0,0E0],"parents":[2147483647,0,0,1,1,2,2,3,3,4,4,6,6],"right_children":[2,4,6,8,10,-1,12,-1,-1,-1,-1,-1,-1],"split_conditions":[6.74E1,1E0,9E0,7E1,4.08E2,-2.017853E0,9.7E1,-2.5581334E0,-1.3020582E0,-7.3459065E-1,-2.0604794E0,-5.1785585E-2,7.300374E-1],"split_indices":[7,19,0,5,0,0,7,0,0,0,0,0,0],"split_type":[0,0,0,0,0,0,0,0,0,0,0,0,0],"sum_hessian":[2.62E2,5.6E1,2.06E2,9E0,4.7E1,4E0,2.02E2,3E0,6E0,4.4E1,3E0,7.5E1,1.27E2],"tree_param":{"num_deleted":"0","num_feature":"30","num_nodes":"13","size_leaf_vector":"1"}},{"base_weights":[-1.7985623E-1,-6.3817315E0,5.721788E0,-9.415176E0,3.0847378E0,7.00661E0,-4.2887416E0,-1.4534028E0,-5.4191184E-1,1.258194E0,-7.152578E-1,7.899527E-1,-9.556595E-1,-1.9173117E0,2.7027566E-2],"categories":[],"categories_nodes":[],"categories_segments":[],"categories_sizes":[],"default_left":[0,0,0,0,0,0,0,0,0,0,0,0,0,0,0],"id":11,"left_children":[1,3,5,7,9,11,13,-1,-1,-1,-1,-1,-1,-1,-1],"loss_changes":[1.0284868E4,3.9631367E3,1.8821411E3,2.048581E3,3.3956726E3,1.9685562E3,1.1587701E3,0E0,0E0,0E0,0E0,0E0,0E0,0E0,0E0],"parents":[2147483647,0,0,1,1,2,2,3,3,4,4,5,5,6,6],"right_children":[2,4,6,8,10,12,14,-1,-1,-1,-1,-1,-1,-1,-1],"split_conditions":[9.7E1,6.14E1,1.16638E4,7E1,1E0,3.93E2,2.23E2,-1.4534028E0,-5.4191184E-1,1.258194E0,-7.152578E-1,7.899527E-1,-9.556595E-1,-1.9173117E0,2.7027566E-2],"split_indices":[7,11,8,5,20,0,0,0,0,0,0,0,0,0,0],"split_type":[0,0,0,0,0,0,0,0,0,0,0,0,0,0,0],"sum_hessian":[2.79E2,1.36E2,1.43E2,1.03E2,3.3E1,1.27E2,1.6E1,4.4E1,5.9E1,1.7E1,1.6E1,1.21E2,6E0,3E0,1.3E1],"tree_param":{"num_deleted":"0","num_feature":"30","num_nodes":"15","size_leaf_vector":"1"}},{"base_weights":[-7.7742094E-1,-1.2830166E1,2.2544382E0,-4.9056063E0,-1.5412104E1,4.8296833E0,-1.0325885E0,-1.0505351E0,-6.273766E-2,-1.279148E0,-2.364051E0,9.605153E-1,2.2183703E-1,-9.351768E-1,2.6812148E-1],"categories":[],"categories_nodes":[],"categories_segments":[],"categories_sizes":[],"default_left":[0,0,0,0,0,0,0,0,0,0,0,0,0,0,0],"id":12,"left_children":[1,3,5,7,9,11,13,-1,-1,-1,-1,-1,-1,-1,-1],"loss_changes":[9.274107E3,9.678906E2,1.7233615E3,3.2880704E2,5.1701855E2,1.4003005E3,2.8056958E3,0E0,0E0,0E0,0E0,0E0,0E0,0E0,0E0],"parents":[2147483647,0,0,1,1,2,2,3,3,4,4,5,5,6,6],"right_children":[2,4,6,8,10,12,14,-1,-1,-1,-1,-1,-1,-1,-1],"split_conditions":[6.74E1,8.74E1,2.13E2,1E0,1E0,1E0,2.52E2,-1.0505351E0,-6.273766E-2,-1.279148E0,-2.364051E0,9.605153E-1,2.2183703E-1,-9.351768E-1,2.6812148E-1],"split_indices":[7,10,0,20,18,20,0,0,0,0,0,0,0,0,0],"split_type":[0,0,0,0,0,0,0,0,0,0,0,0,0,0,0],"sum_hessian":[2.52E2,5E1,2.02E2,1.3E1,3.7E1,1.13E2,8.9E1,5E0,8E0,3E1,7E0,3.9E1,7.4E1,2.7E1,6.2E1],"tree_param":{"num_deleted":"0","num_feature":"30","num_nodes":"15","size_leaf_vector":"1"}},{"base_weights":[1.086069E0,-4.959103E0,6.8146553E0,1.2083368E0,-9.119449E0,3.5716188E0,1.0222613E1,-8.341166E-1,3.7566257E-1,-5.659267E-1,-2.8276558E0,1.0070112E0,-5.1903356E-2,1.0988251E0,-2.6691458E-1],"categories":[],"categories_nodes":[],"categories_segments":[],"categories_sizes":[],"default_left":[0,0,0,0,0,0,0,0,0,0,0,0,0,0,0],"id":13,"left_children":[1,3,5,7,9,11,13,-1,-1,-1,-1,-1,-1,-1,-1],"loss_changes":[7.964131E3,2.884791E3,1.2676401E3,1.1507397E3,4.2812104E3,1.6533771E3,5.9194336E2,0E0,0E0,0E0,0E0,0E0,0E0,0E0,0E0],"parents":[2147483647,0,0,1,1,2,2,3,3,4,4,5,5,6,6],"right_children":[2,4,6,8,10,12,14,-1,-1,-1,-1,-1,-1,-1,-1],"split_conditions":[9.7E1,1.1E1,2.5E1,3E0,1E0,1E0,2E0,-8.341166E-1,3.7566257E-1,-5.659267E-1,-2.8276558E0,1.0070112E0,-5.1903356E-2,1.0988251E0,-2.6691458E-1],"split_indices":[7,1,4,1,18,20,2,0,0,0,0,0,0,0,0],"split_type":[0,0,0,0,0,0,0,0,0,0,0,0,0,0,0],"sum_hessian":[2.28E2,1.11E2,1.17E2,4.5E1,6.6E1,6.1E1,5.6E1,9E0,3.6E1,5.7E1,9E0,2.3E1,3.8E1,5.3E1,3E0],"tree_param":{"num_deleted":"0","num_feature":"30","num_nodes":"15","size_leaf_vector":"1"}},{"base_weights":[8.193162E-2,-8.036537E0,3.916534E0,-2.72952E-2,-1.10395155E1,9.811423E0,4.7797725E-1,-7.284649E-1,9.4099945E-1,-1.4944396E0,-3.2635114E-1,1.235203E0,3.1971177E-1,-8.117296E-1,2.883018E-1],"categories":[],"categories_nodes":[],"categories_segments":[],"categories_sizes":[],"default_left":[0,0,0,0,0,0,0,0,0,0,0,0,0,0,0],"id":14,"left_children":[1,3,5,7,9,11,13,-1,-1,-1,-1,-1,-1,-1,-1],"loss_changes":[7.471808E3,1.8516709E3,3.2993062E3,1.575323E3,1.6516333E3,9.6877E2,2.1732886E3,0E0,0E0,0E0,0E0,0E0,0E0,0E0,0E0],"parents":[2147483647,0,0,1,1,2,2,3,3,4,4,5,5,6,6],"right_children":[2,4,6,8,10,12,14,-1,-1,-1,-1,-1,-1,-1,-1],"split_conditions":[6.14E1,1.05E2,1E0,9.4E1,2.9E1,2.44E2,7.1E1,-7.284649E-1,9.4099945E-1,-1.4944396E0,-3.2635114E-1,1.235203E0,3.1971177E-1,-8.117296E-1,2.883018E-1],"split_indices":[12,0,20,0,17,0,0,0,0,0,0,0,0,0,0],"split_type":[0,0,0,0,0,0,0,0,0,0,0,0,0,0,0],"sum_hessian":[2.38E2,7.6E1,1.62E2,2.1E1,5.5E1,5.9E1,1.03E2,1.2E1,9E0,3.6E1,1.9E1,4.2E1,1.7E1,2.2E1,8.1E1],"tree_param":{"num_deleted":"0","num_feature":"30","num_nodes":"15","size_leaf_vector":"1"}},{"base_weights":[5.470333E-1,-4.3807936E-1,1.522158E1,-4.5076933E0,3.0633912E0,4.8002416E-1,1.7426895E1,8.0808334E-2,-8.121738E-1,-3.88233E-1,4.8219442E-1,1.0861548E0,2.0564778E0],"categories":[],"categories_nodes":[],"categories_segments":[],"categories_sizes":[],"default_left":[0,0,0,0,0,0,0,0,0,0,0,0,0],"id":15,"left_children":[1,3,5,7,9,-1,11,-1,-1,-1,-1,-1,-1],"loss_changes":[3.4472156E3,3.205727E3,2.610813E2,2.0045535E3,1.496665E3,0E0,2.3850342E1,0E0,0E0,0E0,0E0,0E0,0E0],"parents":[2147483647,0,0,1,1,2,2,3,3,4,4,6,6],"right_children":[2,4,6,8,10,-1,12,-1,-1,-1,-1,-1,-1],"split_conditions":[1E0,2.9E1,2.5E1,3.858E2,7.9E1,4.8002416E-1,1E0,8.0808334E-2,-8.121738E-1,-3.88233E-1,4.8219442E-1,1.0861548E0,2.0564778E0],"split_indices":[3,17,0,9,0,0,20,0,0,0,0,0,0],"split_type":[0,0,0,0,0,0,0,0,0,0,0,0,0],"sum_hessian":[2.37E2,2.23E2,1.4E1,1.03E2,1.2E2,3E0,1.1E1,4.2E1,6.1E1,2.4E1,9.6E1,5E0,6E0],"tree_param":{"num_deleted":"0","num_feature":"30","num_nodes":"13","size_leaf_vector":"1"}},{"base_weights":[-4.8671618E-1,-6.7808247E0,1.8238275E0,-7.6162233E0,4.9342853E-1,9.061369E-1,1.1173523E1,-9.144997E-1,3.0309124E-2,1.6925013E-1,-1.1451762E0,5.3542346E-1,1.3331906E0],"categories":[],"categories_nodes":[],"categories_segments":[],"categories_sizes":[],"default_left":[0,0,0,0,0,0,0,0,0,0,0,0,0],"id":16,"left_children":[1,3,5,7,-1,9,11,-1,-1,-1,-1,-1,-1],"loss_changes":[3.575356E3,6.8350854E2,1.5342981E3,7.5339624E2,0E0,1.6228208E3,1.2958191E2,0E0,0E0,0E0,0E0,0E0,0E0],"parents":[2147483647,0,0,1,1,2,2,3,3,5,5,6,6],"right_children":[2,4,6,8,-1,10,12,-1,-1,-1,-1,-1,-1],"split_conditions":[8.64E1,1E0,3.45E2,3.74E2,4.9342853E-1,3.21E2,1E0,-9.144997E-1,3.0309124E-2,1.6925013E-1,-1.1451762E0,5.3542346E-1,1.3331906E0],"split_indices":[7,3,0,0,0,0,20,0,0,0,0,0,0],"split_type":[0,0,0,0,0,0,0,0,0,0,0,0,0],"sum_hessian":[2.44E2,6.5E1,1.79E2,6.1E1,4E0,1.64E2,1.5E1,5.1E1,1E1,1.55E2,9E0,5E0,1E1],"tree_param":{"num_deleted":"0","num_feature":"30","num_nodes":"13","size_leaf_vector":"1"}},{"base_weights":[-4.6592435E-1,7.202841E0,-2.1586728E0,-1.4997578E-1,1.3283428E0,-1.5481954E0,-2.0621948E0,1.4821223E0,-6.1284566E-1,1.8058764E0,-2.0812705E-1],"categories":[],"categories_nodes":[],"categories_segments":[],"categories_sizes":[],"default_left":[0,0,0,0,0,0,0,0,0,0,0],"id":17,"left_children":[1,3,5,7,-1,9,-1,-1,-1,-1,-1],"loss_changes":[3.0142268E3,1.8797888E3,2.1096418E3,1.8809318E3,0E0,1.9712017E3,0E0,0E0,0E0,0E0,0E0],"parents":[2147483647,0,0,1,1,2,2,3,3,5,5],"right_children":[2,4,6,8,-1,10,-1,-1,-1,-1,-1],"split_conditions":[6.62E1,8.64E1,3.98E2,1E0,1.3283428E0,4.06E1,-2.0621948E0,1.4821223E0,-6.1284566E-1,1.8058764E0,-2.0812705E-1],"split_indices":[10,7,0,20,0,11,0,0,0,0,0],"split_type":[0,0,0,0,0,0,0,0,0,0,0],"sum_hessian":[2.3E2,4.1E1,1.89E2,1.9E1,2.2E1,1.84E2,5E0,5E0,1.4E1,4E0,1.8E2],"tree_param":{"num_deleted":"0","num_feature":"30","num_nodes":"11","size_leaf_vector":"1"}},{"base_weights":[-6.345398E-1,2.7748182E0,-5.196734E0,1.4673325E-1,8.947149E0,-1.5380777E0,-1.9754456E1,-2.4559866E-1,9.435173E-1,-7.3843294E-1,1.0966879E0,-3.1763368E0,4.4457838E-2,-2.5376394E0,-5.688512E-1],"categories":[],"categories_nodes":[],"categories_segments":[],"categories_sizes":[],"default_left":[0,0,0,0,0,0,0,0,0,0,0,0,0,0,0],"id":18,"left_children":[1,3,5,7,9,11,13,-1,-1,-1,-1,-1,-1,-1,-1],"loss_changes":[3.6385378E3,2.172356E3,5.295786E3,2.3198171E3,1.4003894E3,4.8681567E3,1.4372031E3,0E0,0E0,0E0,0E0,0E0,0E0,0E0,0E0],"parents":[2147483647,0,0,1,1,2,2,3,3,4,4,5,5,6,6],"right_children":[2,4,6,8,10,12,14,-1,-1,-1,-1,-1,-1,-1,-1],"split_conditions":[2.34E2,1E0,1E0,1.82E2,3.73E2,2.39E2,9.7E1,-2.4559866E-1,9.435173E-1,-7.3843294E-1,1.0966879E0,-3.1763368E0,4.4457838E-2,-2.5376394E0,-5.688512E-1],"split_indices":[0,18,18,0,9,0,7,0,0,0,0,0,0,0,0],"split_type":[0,0,0,0,0,0,0,0,0,0,0,0,0,0,0],"sum_hessian":[2.32E2,1.33E2,9.9E1,9.4E1,3.9E1,8E1,1.9E1,7.4E1,2E1,4E0,3.5E1,4E0,7.6E1,1.3E1,6E0],"tree_param":{"num_deleted":"0","num_feature":"30","num_nodes":"15","size_leaf_vector":"1"}},{"base_weights":[-9.579329E-1,-1.2374167E1,-7.566729E-2,7.304907E-1,-1.6796976E1,-7.903322E-1,8.544219E0,-2.476125E0,-1.1649854E0,-8.2602865E-1,1.378597E-2,-1.4229673E0,1.4047642E0],"categories":[],"categories_nodes":[],"categories_segments":[],"categories_sizes":[],"default_left":[0,0,0,0,0,0,0,0,0,0,0,0,0],"id":19,"left_children":[1,3,5,-1,7,9,11,-1,-1,-1,-1,-1,-1],"loss_changes":[2.5271738E3,1.6893625E3,1.4482699E3,0E0,3.2643164E2,1.5057192E3,2.4559116E3,0E0,0E0,0E0,0E0,0E0,0E0],"parents":[2147483647,0,0,1,1,2,2,4,4,5,5,6,6],"right_children":[2,4,6,-1,8,10,12,-1,-1,-1,-1,-1,-1],"split_conditions":[3.68E1,3.3E2,1E0,7.304907E-1,3.8E2,2.65E1,4.84E1,-2.476125E0,-1.1649854E0,-8.2602865E-1,1.378597E-2,-1.4229673E0,1.4047642E0],"split_indices":[11,0,3,0,0,17,12,0,0,0,0,0,0],"split_type":[0,0,0,0,0,0,0,0,0,0,0,0,0],"sum_hessian":[2.5E2,1.7E1,2.33E2,3E0,1.4E1,2.16E2,1.7E1,4E0,1E1,2.3E1,1.93E2,3E0,1.4E1],"tree_param":{"num_deleted":"0","num_feature":"30","num_nodes":"13","size_leaf_vector":"1"}},{"base_weights":[-1.419509E0,-3.455633E0,1.7343017E0,-4.524988E0,9.040808E0,3.7201455E0,-5.114452E0,-3.210382E-1,-1.0901281E0,2.092709E0,2.753482E-1,1.8685173E0,2.8370863E-1,-2.6489532E0,4.556799E-1],"categories":[],"categories_nodes":[],"categories_segments":[],"categories_sizes":[],"default_left":[0,0,0,0,0,0,0,0,0,0,0,0,0,0,0],"id":20,"left_children":[1,3,5,7,9,11,13,-1,-1,-1,-1,-1,-1,-1,-1],"loss_changes":[1.5664297E3,2.0186532E3,1.3246797E3,1.1133796E3,8.391728E2,9.381138E2,4.66863E3,0E0,0E0,0E0,0E0,0E0,0E0,0E0,0E0],"parents":[2147483647,0,0,1,1,2,2,3,3,4,4,5,5,6,6],"right_children":[2,4,6,8,10,12,14,-1,-1,-1,-1,-1,-1,-1,-1],"split_conditions":[7.2E1,1E0,1.07432E4,1E0,2.9E1,4.84E1,1.81E2,-3.210382E-1,-1.0901281E0,2.092709E0,2.753482E-1,1.8685173E0,2.8370863E-1,-2.6489532E0,4.556799E-1],"split_indices":[5,3,8,23,17,12,0,0,0,0,0,0,0,0,0],"split_type":[0,0,0,0,0,0,0,0,0,0,0,0,0,0,0],"sum_hessian":[2.42E2,1.47E2,9.5E1,1.36E2,1.1E1,7.4E1,2.1E1,1.14E2,2.2E1,3E0,8E0,3E0,7.1E1,6E0,1.5E1],"tree_param":{"num_deleted":"0","num_feature":"30","num_nodes":"15","size_leaf_vector":"1"}},{"base_weights":[1.6105545E-1,-3.1305346E0,3.5534618E0,-9.655967E0,-1.2984579E0,-1.4849536E0,5.5197835E0,6.457979E-1,-2.1410396E0,-3.2330927E-1,8.9063036E-1,-8.188631E-1,4.012545E-1,-6.511509E-1,6.728746E-1],"categories":[],"categories_nodes":[],"categories_segments":[],"categories_sizes":[],"default_left":[0,0,0,0,0,0,0,0,0,0,0,0,0,0,0],"id":21,"left_children":[1,3,5,7,9,11,13,-1,-1,-1,-1,-1,-1,-1,-1],"loss_changes":[2.9255576E3,1.5774895E3,1.2862183E3,5.6311646E3,2.1017559E3,1.3964354E3,1.3965352E3,0E0,0E0,0E0,0E0,0E0,0E0,0E0,0E0],"parents":[2147483647,0,0,1,1,2,2,3,3,4,4,5,5,6,6],"right_children":[2,4,6,8,10,12,14,-1,-1,-1,-1,-1,-1,-1,-1],"split_conditions":[9.7E1,1E0,4.6E0,2.18E2,9.52E1,1.84E2,9E0,6.457979E-1,-2.1410396E0,-3.2330927E-1,8.9063036E-1,-8.188631E-1,4.012545E-1,-6.511509E-1,6.728746E-1],"split_indices":[7,19,14,0,7,0,0,0,0,0,0,0,0,0,0],"split_type":[0,0,0,0,0,0,0,0,0,0,0,0,0,0,0],"sum_hessian":[2.6E2,1.32E2,1.28E2,2.8E1,1.04E2,3.6E1,9.2E1,1.2E1,1.6E1,8.8E1,1.6E1,1.6E1,2E1,8E0,8.4E1],"tree_param":{"num_deleted":"0","num_feature":"30","num_nodes":"15","size_leaf_vector":"1"}},{"base_weights":[8.479899E-1,-2.8262255E0,3.823817E0,-1.1583071E0,-6.784021E0,-5.566541E-1,6.822147E0,-2.01846E-1,1.2147678E0,-1.6307122E0,-1.2812373E-1,3.7719E-1,-1.5497291E0,8.8381785E-1,1.8720679E-1],"categories":[],"categories_nodes":[],"categories_segments":[],"categories_sizes":[],"default_left":[0,0,0,0,0,0,0,0,0,0,0,0,0,0,0],"id":22,"left_children":[1,3,5,7,9,11,13,-1,-1,-1,-1,-1,-1,-1,-1],"loss_changes":[2.7333306E3,7.314853E2,1.8163032E3,9.401341E2,1.7084242E3,3.7447214E3,8.017744E2,0E0,0E0,0E0,0E0,0E0,0E0,0E0,0E0],"parents":[2147483647,0,0,1,1,2,2,3,3,4,4,5,5,6,6],"right_children":[2,4,6,8,10,12,14,-1,-1,-1,-1,-1,-1,-1,-1],"split_conditions":[2.9E1,3.08E2,4.486E2,2.95E2,3.8E2,1E0,6.546E2,-2.01846E-1,1.2147678E0,-1.6307122E0,-1.2812373E-1,3.7719E-1,-1.5497291E0,8.8381785E-1,1.8720679E-1],"split_indices":[17,0,9,0,0,18,9,0,0,0,0,0,0,0,0],"split_type":[0,0,0,0,0,0,0,0,0,0,0,0,0,0,0],"sum_hessian":[2.48E2,1.11E2,1.37E2,7.9E1,3.2E1,5.6E1,8.1E1,7.5E1,4E0,1.1E1,2.1E1,4.4E1,1.2E1,5.7E1,2.4E1],"tree_param":{"num_deleted":"0","num_feature":"30","num_nodes":"15","size_leaf_vector":"1"}},{"base_weights":[1.6708679E0,-2.1096427E0,4.6771646E0,-3.3717352E-1,-8.225384E0,-2.3971786E0,5.866814E0,-1.6782959E-1,2.1188219E0,-1.0350469E0,-1.2504864E-2,4.788048E-1,-1.9960715E0,7.469203E-1,-8.6748935E-2],"categories":[],"categories_nodes":[],"categories_segments":[],"categories_sizes":[],"default_left":[0,0,0,0,0,0,0,0,0,0,0,0,0,0,0],"id":23,"left_children":[1,3,5,7,9,11,13,-1,-1,-1,-1,-1,-1,-1,-1],"loss_changes":[2.7375479E3,1.1571025E3,1.1418062E3,2.4604878E3,4.118396E2,2.6195327E3,1.2474417E3,0E0,0E0,0E0,0E0,0E0,0E0,0E0,0E0],"parents":[2147483647,0,0,1,1,2,2,3,3,4,4,5,5,6,6],"right_children":[2,4,6,8,10,12,14,-1,-1,-1,-1,-1,-1,-1,-1],"split_conditions":[9.52E1,3.56E2,7.5E1,3.32E2,9.52E1,2.5E1,3.18E2,-1.6782959E-1,2.1188219E0,-1.0350469E0,-1.2504864E-2,4.788048E-1,-1.9960715E0,7.469203E-1,-8.6748935E-2],"split_indices":[7,0,0,0,10,0,0,0,0,0,0,0,0,0,0],"split_type":[0,0,0,0,0,0,0,0,0,0,0,0,0,0,0],"sum_hessian":[2.39E2,1.06E2,1.33E2,8.3E1,2.3E1,1.9E1,1.14E2,7.9E1,4E0,1.8E1,5E0,1.4E1,5E0,9.2E1,2.2E1],"tree_param":{"num_deleted":"0","num_feature":"30","num_nodes":"15","size_leaf_vector":"1"}},{"base_weights":[9.0486085E-1,3.0886143E-1,1.0102394E1,-2.4389637E0,2.6215262E0,1.3280805E1,-1.958437E-1,5.760726E-2,-4.107767E-1,1.0253984E-1,1.110954E0,5.915723E-1,1.6223881E0],"categories":[],"categories_nodes":[],"categories_segments":[],"categories_sizes":[],"default_left":[0,0,0,0,0,0,0,0,0,0,0,0,0],"id":24,"left_children":[1,3,5,7,9,11,-1,-1,-1,-1,-1,-1,-1],"loss_changes":[1.3508657E3,1.4870616E3,6.010237E2,5.407373E2,1.7091985E3,1.6413574E2,0E0,0E0,0E0,0E0,0E0,0E0,0E0],"parents":[2147483647,0,0,1,1,2,2,3,3,4,4,5,5],"right_children":[2,4,6,8,10,12,-1,-1,-1,-1,-1,-1,-1],"split_conditions":[1E0,9.64E1,1.79E2,4.048E2,3.35E2,2.5E1,-1.958437E-1,5.760726E-2,-4.107767E-1,1.0253984E-1,1.110954E0,5.915723E-1,1.6223881E0],"split_indices":[3,7,6,9,0,0,0,0,0,0,0,0,0],"split_type":[0,0,0,0,0,0,0,0,0,0,0,0,0],"sum_hessian":[2.46E2,2.32E2,1.4E1,1.06E2,1.26E2,1.1E1,3E0,3.8E1,6.8E1,1.07E2,1.9E1,4E0,7E0],"tree_param":{"num_deleted":"0","num_feature":"30","num_nodes":"13","size_leaf_vector":"1"}},{"base_weights":[-1.5526267E0,-1.2073327E1,-9.810493E-1,-2.5740302E0,-3.1390827E0,5.639866E-1,-5.2869925E0,-9.3845284E-1,1.5477282E-1,-8.926773E-2,3.9524248E-1,-6.133608E-1,8.945635E-1],"categories":[],"categories_nodes":[],"categories_segments":[],"categories_sizes":[],"default_left":[0,0,0,0,0,0,0,0,0,0,0,0,0],"id":25,"left_children":[1,3,5,-1,7,9,11,-1,-1,-1,-1,-1,-1],"loss_changes":[1.5155576E3,1.5065519E3,1.6129684E3,0E0,2.779657E2,8.8703925E2,8.2604065E2,0E0,0E0,0E0,0E0,0E0,0E0],"parents":[2147483647,0,0,1,1,2,2,4,4,5,5,6,6],"right_children":[2,4,6,-1,8,10,12,-1,-1,-1,-1,-1,-1],"split_conditions":[5.72E1,1E0,1.07432E4,-2.5740302E0,1.71E2,9.82E1,1E0,-9.3845284E-1,1.5477282E-1,-8.926773E-2,3.9524248E-1,-6.133608E-1,8.945635E-1],"split_indices":[10,20,8,0,6,7,2,0,0,0,0,0,0],"split_type":[0,0,0,0,0,0,0,0,0,0,0,0,0],"sum_hessian":[2.53E2,1.2E1,2.41E2,4E0,8E0,1.78E2,6.3E1,3E0,5E0,1.25E2,5.3E1,6E1,3E0],"tree_param":{"num_deleted":"0","num_feature":"30","num_nodes":"13","size_leaf_vector":"1"}},{"base_weights":[5.204041E-1,-4.5778694E0,2.0498314E0,2.8597407E0,-8.567657E0,-1.793871E0,3.755595E0,5.954477E-1,-1.178151E0,-3.9604214E-1,-1.4655081E0,1.457385E-1,-4.001858E-1,4.4438744E-1,-1.4890789E0],"categories":[],"categories_nodes":[],"categories_segments":[],"categories_sizes":[],"default_left":[0,0,0,0,0,0,0,0,0,0,0,0,0,0,0],"id":26,"left_children":[1,3,5,7,9,11,13,-1,-1,-1,-1,-1,-1,-1,-1],"loss_changes":[1.9587435E3,1.7456216E3,1.2721312E3,1.0216798E3,1.0077151E3,4.3655612E2,1.785918E3,0E0,0E0,0E0,0E0,0E0,0E0,0E0,0E0],"parents":[2147483647,0,0,1,1,2,2,3,3,4,4,5,5,6,6],"right_children":[2,4,6,8,10,12,14,-1,-1,-1,-1,-1,-1,-1,-1],"split_conditions":[1.71E2,1E0,8.64E1,2.55E2,9.64E1,1E0,3.98E2,5.954477E-1,-1.178151E0,-3.9604214E-1,-1.4655081E0,1.457385E-1,-4.001858E-1,4.4438744E-1,-1.4890789E0],"split_indices":[6,20,7,0,7,20,0,0,0,0,0,0,0,0,0],"split_type":[0,0,0,0,0,0,0,0,0,0,0,0,0,0,0],"sum_hessian":[2.49E2,5.7E1,1.92E2,2E1,3.7E1,5.9E1,1.33E2,1.7E1,3E0,2.2E1,1.5E1,2.4E1,3.5E1,1.29E2,4E0],"tree_param":{"num_deleted":"0","num_feature":"30","num_nodes":"15","size_leaf_vector":"1"}},{"base_weights":[1.5262E-1,8.251749E-1,-8.524345E0,1.7700366E0,-3.6196692E0,-2.7164302E0,-2.308164E0,9.850989E-2,1.250225E0,-3.933312E0,1.3043015E-1,-1.0528581E0,1.3451157E0],"categories":[],"categories_nodes":[],"categories_segments":[],"categories_sizes":[],"default_left":[0,0,0,0,0,0,0,0,0,0,0,0,0],"id":27,"left_children":[1,3,5,7,9,11,-1,-1,-1,-1,-1,-1,-1],"loss_changes":[1.4601322E3,9.807519E2,1.4591558E3,1.6051145E3,7.2612334E3,1.9098722E3,0E0,0E0,0E0,0E0,0E0,0E0,0E0],"parents":[2147483647,0,0,1,1,2,2,3,3,4,4,5,5],"right_children":[2,4,6,8,10,12,-1,-1,-1,-1,-1,-1,-1],"split_conditions":[9.1E1,1.1157E4,8.6E1,1E0,1.81E2,7.9E1,-2.308164E0,9.850989E-2,1.250225E0,-3.933312E0,1.3043015E-1,-1.0528581E0,1.3451157E0],"split_indices":[5,8,0,3,0,0,0,0,0,0,0,0,0],"split_type":[0,0,0,0,0,0,0,0,0,0,0,0,0],"sum_hessian":[2.48E2,2.31E2,1.7E1,1.91E2,4E1,1.3E1,4E0,1.79E2,1.2E1,4E0,3.6E1,9E0,4E0],"tree_param":{"num_deleted":"0","num_feature":"30","num_nodes":"13","size_leaf_vector":"1"}},{"base_weights":[-6.17745E-2,-3.0117083E0,1.7231346E0,2.2886736E0,-7.7445207E0,-8.9677405E-1,5.357961E0,-4.214674E-2,1.5553294E0,-1.7347088E0,-4.098868E-1,7.8819804E-2,-2.2191882E0,-2.4970196E-1,7.4406785E-1],"categories":[],"categories_nodes":[],"categories_segments":[],"categories_sizes":[],"default_left":[0,0,0,0,0,0,0,0,0,0,0,0,0,0,0],"id":28,"left_children":[1,3,5,7,9,11,13,-1,-1,-1,-1,-1,-1,-1,-1],"loss_changes":[1.3689188E3,2.4761243E3,1.5475168E3,1.6961577E3,1.7492935E3,3.4262493E3,1.1310394E3,0E0,0E0,0E0,0E0,0E0,0E0,0E0,0E0],"parents":[2147483647,0,0,1,1,2,2,3,3,4,4,5,5,6,6],"right_children":[2,4,6,8,10,12,14,-1,-1,-1,-1,-1,-1,-1,-1],"split_conditions":[6.9E1,2.32E2,1.84E2,2.24E2,2.56E2,1.73E2,1E0,-4.214674E-2,1.5553294E0,-1.7347088E0,-4.098868E-1,7.8819804E-2,-2.2191882E0,-2.4970196E-1,7.4406785E-1],"split_indices":[5,0,0,0,0,0,19,0,0,0,0,0,0,0,0],"split_type":[0,0,0,0,0,0,0,0,0,0,0,0,0,0,0],"sum_hessian":[2.58E2,9.7E1,1.61E2,4.6E1,5.1E1,9.4E1,6.7E1,3.9E1,7E0,1.3E1,3.8E1,8.8E1,6E0,1.4E1,5.3E1],"tree_param":{"num_deleted":"0","num_feature":"30","num_nodes":"15","size_leaf_vector":"1"}},{"base_weights":[9.9464804E-1,2.7401714E0,-1.5432096E0,2.055103E0,1.1521511E1,1.7170595E0,-4.656865E0,1.459016E-1,1.2080716E0,1.3823254E0,4.0376472E-1,-1.18577234E-1,8.5039693E-1,-2.48015E0,-2.1463719E-1],"categories":[],"categories_nodes":[],"categories_segments":[],"categories_sizes":[],"default_left":[0,0,0,0,0,0,0,0,0,0,0,0,0,0,0],"id":29,"left_children":[1,3,5,7,9,11,13,-1,-1,-1,-1,-1,-1,-1,-1],"loss_changes":[1.1604299E3,9.087738E2,1.094191E3,8.4891394E2,1.3367175E2,1.0542504E3,2.7282798E3,0E0,0E0,0E0,0E0,0E0,0E0,0E0,0E0],"parents":[2147483647,0,0,1,1,2,2,3,3,4,4,5,5,6,6],"right_children":[2,4,6,8,10,12,14,-1,-1,-1,-1,-1,-1,-1,-1],"split_conditions":[1.82E2,7.5E1,1.73E2,1E0,1E0,1.53E2,1.81E2,1.459016E-1,1.2080716E0,1.3823254E0,4.0376472E-1,-1.18577234E-1,8.5039693E-1,-2.48015E0,-2.1463719E-1],"split_indices":[6,5,0,3,18,0,0,0,0,0,0,0,0,0,0],"split_type":[0,0,0,0,0,0,0,0,0,0,0,0,0,0,0],"sum_hessian":[2.6E2,1.54E2,1.06E2,1.44E2,1E1,5.2E1,5.4E1,1.37E2,7E0,7E0,3E0,3.7E1,1.5E1,5E0,4.9E1],"tree_param":{"num_deleted":"0","num_feature":"30","num_nodes":"15","size_leaf_vector":"1"}},{"base_weights":[5.109477E-1,-8.211203E0,1.5221894E0,-3.47061E0,-9.346336E0,2.0265107E0,-1.562605E1,-1.752305E-1,-4.3212625E-1,-1.6656035E0,-6.216659E-1,5.242814E-1,1.0610884E-1,-2.3382225E0,-3.963363E-1],"categories":[],"categories_nodes":[],"categories_segments":[],"categories_sizes":[],"default_left":[0,0,0,0,0,0,0,0,0,0,0,0,0,0,0],"id":30,"left_children":[1,3,5,7,9,11,13,-1,-1,-1,-1,-1,-1,-1,-1],"loss_changes":[2.3763132E3,1.1823633E2,2.1158877E3,2.6595917E0,3.9974915E2,7.2413324E2,5.405327E2,0E0,0E0,0E0,0E0,0E0,0E0,0E0,0E0],"parents":[2147483647,0,0,1,1,2,2,3,3,4,4,5,5,6,6],"right_children":[2,4,6,8,10,12,14,-1,-1,-1,-1,-1,-1,-1,-1],"split_conditions":[6.32E1,3.6E1,3.98E2,3.3E1,2.66E2,2.8E1,4.03E2,-1.752305E-1,-4.3212625E-1,-1.6656035E0,-6.216659E-1,5.242814E-1,1.0610884E-1,-2.3382225E0,-3.963363E-1],"split_indices":[7,0,0,0,0,17,0,0,0,0,0,0,0,0,0],"split_type":[0,0,0,0,0,0,0,0,0,0,0,0,0,0,0],"sum_hessian":[2.67E2,2.7E1,2.4E2,6E0,2.1E1,2.34E2,6E0,3E0,3E0,5E0,1.6E1,5.3E1,1.81E2,3E0,3E0],"tree_param":{"num_deleted":"0","num_feature":"30","num_nodes":"15","size_leaf_vector":"1"}},{"base_weights":[-1.4775281E0,4.0964714E-1,-5.981338E0,-7.724139E-1,1.0762758E1,-1.3907501E1,-2.9349566E0,9.519581E-1,-1.9185643E-1,1.3785092E0,4.0440795E-1,-4.6083307E-1,-1.7563695E0,4.1351238E-1,-5.277546E-1],"categories":[],"categories_nodes":[],"categories_segments":[],"categories_sizes":[],"default_left":[0,0,0,0,0,0,0,0,0,0,0,0,0,0,0],"id":31,"left_children":[1,3,5,7,9,11,13,-1,-1,-1,-1,-1,-1,-1,-1],"loss_changes":[2.1018218E3,2.149965E3,1.7218486E3,1.8820594E3,3.0976147E2,5.99052E2,9.1618726E2,0E0,0E0,0E0,0E0,0E0,0E0,0E0,0E0],"parents":[2147483647,0,0,1,1,2,2,3,3,4,4,5,5,6,6],"right_children":[2,4,6,8,10,12,14,-1,-1,-1,-1,-1,-1,-1,-1],"split_conditions":[3.08E2,2.72E2,3.37E2,2.3E1,3.4E1,2.168E2,3.55E2,9.519581E-1,-1.9185643E-1,1.3785092E0,4.0440795E-1,-4.6083307E-1,-1.7563695E0,4.1351238E-1,-5.277546E-1],"split_indices":[0,0,0,0,4,9,0,0,0,0,0,0,0,0,0],"split_type":[0,0,0,0,0,0,0,0,0,0,0,0,0,0,0],"sum_hessian":[2.46E2,1.74E2,7.2E1,1.57E2,1.7E1,1.9E1,5.3E1,1.5E1,1.42E2,1.1E1,6E0,6E0,1.3E1,1.3E1,4E1],"tree_param":{"num_deleted":"0","num_feature":"30","num_nodes":"15","size_leaf_vector":"1"}},{"base_weights":[-1.6180643E0,3.7545094E-1,-5.5375633E0,-1.1841252E-1,2.0159593E0,-1.2395449E1,-1.421865E0,-1.1952626E0,1.8193725E-2,-2.1074662E0,-7.886923E-1,1.5181949E0,-3.4677196E-1],"categories":[],"categories_nodes":[],"categories_segments":[],"categories_sizes":[],"default_left":[0,0,0,0,0,0,0,0,0,0,0,0,0],"id":32,"left_children":[1,3,5,7,-1,9,11,-1,-1,-1,-1,-1,-1],"loss_changes":[1.9242197E3,1.604776E3,2.325049E3,5.7443353E2,0E0,1.0468296E3,1.8530029E3,0E0,0E0,0E0,0E0,0E0,0E0],"parents":[2147483647,0,0,1,1,2,2,3,3,5,5,6,6],"right_children":[2,4,6,8,-1,10,12,-1,-1,-1,-1,-1,-1],"split_conditions":[2.68E2,2.63E2,7E1,4E0,2.0159593E0,1E0,3.21E2,-1.1952626E0,1.8193725E-2,-2.1074662E0,-7.886923E-1,1.5181949E0,-3.4677196E-1],"split_indices":[0,0,5,0,0,20,0,0,0,0,0,0,0],"split_type":[0,0,0,0,0,0,0,0,0,0,0,0,0],"sum_hessian":[2.45E2,1.63E2,8.2E1,1.6E2,3E0,3E1,5.2E1,3E0,1.57E2,9E0,2.1E1,5E0,4.7E1],"tree_param":{"num_deleted":"0","num_feature":"30","num_nodes":"13","size_leaf_vector":"1"}},{"base_weights":[5.901258E-1,4.3181887E0,-7.2881687E-1,7.9400854E0,-3.2865179E0,2.3444474E0,-2.7621443E0,3.3510536E-1,1.258539E0,-8.1967777E-1,4.7168326E-1,3.875398E-1,-5.255117E-1,-4.3384567E-1,5.2647936E-1],"categories":[],"categories_nodes":[],"categories_segments":[],"categories_sizes":[],"default_left":[0,0,0,0,0,0,0,0,0,0,0,0,0,0,0],"id":33,"left_children":[1,3,5,7,9,11,13,-1,-1,-1,-1,-1,-1,-1,-1],"loss_changes":[1.2422566E3,1.843964E3,1.1750298E3,9.171106E2,9.0323047E2,8.929574E2,1.4526255E3,0E0,0E0,0E0,0E0,0E0,0E0,0E0,0E0],"parents":[2147483647,0,0,1,1,2,2,3,3,4,4,5,5,6,6],"right_children":[2,4,6,8,10,12,14,-1,-1,-1,-1,-1,-1,-1,-1],"split_conditions":[5.96E1,3.63E2,2.5E1,1.74E2,7.2E1,2.34E2,2.87E2,3.3510536E-1,1.258539E0,-8.1967777E-1,4.7168326E-1,3.875398E-1,-5.255117E-1,-4.3384567E-1,5.2647936E-1],"split_indices":[12,0,4,6,5,0,0,0,0,0,0,0,0,0,0],"split_type":[0,0,0,0,0,0,0,0,0,0,0,0,0,0,0],"sum_hessian":[2.51E2,6.5E1,1.86E2,4.4E1,2.1E1,7.4E1,1.12E2,2.3E1,2.1E1,1.3E1,8E0,6.2E1,1.2E1,9.4E1,1.8E1],"tree_param":{"num_deleted":"0","num_feature":"30","num_nodes":"15","size_leaf_vector":"1"}},{"base_weights":[1.9391663E-1,8.053121E-1,-7.185214E0,4.7883873E0,-3.3402947E-1,-9.073877E0,-8.218041E-3,2.9988173E-1,2.0652668E0,-1.3240485E-1,3.6353248E-1,-3.0063716E-1,-1.5578688E0],"categories":[],"categories_nodes":[],"categories_segments":[],"categories_sizes":[],"default_left":[0,0,0,0,0,0,0,0,0,0,0,0,0],"id":34,"left_children":[1,3,5,7,9,11,-1,-1,-1,-1,-1,-1,-1],"loss_changes":[1.1201434E3,1.0408206E3,2.5414392E2,1.3859688E3,7.08236E2,5.451843E2,0E0,0E0,0E0,0E0,0E0,0E0,0E0],"parents":[2147483647,0,0,1,1,2,2,3,3,4,4,5,5],"right_children":[2,4,6,8,10,12,-1,-1,-1,-1,-1,-1,-1],"split_conditions":[1E0,4.4E0,3.74E2,3.37E2,1E0,3.67E2,-8.218041E-3,2.9988173E-1,2.0652668E0,-1.3240485E-1,3.6353248E-1,-3.0063716E-1,-1.5578688E0],"split_indices":[28,14,0,0,18,0,0,0,0,0,0,0,0],"split_type":[0,0,0,0,0,0,0,0,0,0,0,0,0],"sum_hessian":[2.46E2,2.28E2,1.8E1,5E1,1.78E2,1.4E1,4E0,4.6E1,4E0,1.43E2,3.5E1,8E0,6E0],"tree_param":{"num_deleted":"0","num_feature":"30","num_nodes":"13","size_leaf_vector":"1"}},{"base_weights":[1.2885699E0,1.9502313E0,-1.0567765E1,-7.354406E0,2.8670425E0,-1.5168811E1,3.5767898E-1,-3.065029E-1,-1.0975201E0,1.103793E0,1.6590372E-1,-2.1904106E0,-9.1530985E-1],"categories":[],"categories_nodes":[],"categories_segments":[],"categories_sizes":[],"default_left":[0,0,0,0,0,0,0,0,0,0,0,0,0],"id":35,"left_children":[1,3,5,7,9,11,-1,-1,-1,-1,-1,-1,-1],"loss_changes":[1.9269155E3,1.9916528E3,9.002921E2,2.9251074E2,2.0643582E3,2.0468555E2,0E0,0E0,0E0,0E0,0E0,0E0,0E0],"parents":[2147483647,0,0,1,1,2,2,3,3,4,4,5,5],"right_children":[2,4,6,8,10,12,-1,-1,-1,-1,-1,-1,-1],"split_conditions":[1.16638E4,4.06E1,2.39E2,3.29E2,4.56E1,2.24E2,3.5767898E-1,-3.065029E-1,-1.0975201E0,1.103793E0,1.6590372E-1,-2.1904106E0,-9.1530985E-1],"split_indices":[8,11,0,0,11,0,0,0,0,0,0,0,0],"split_type":[0,0,0,0,0,0,0,0,0,0,0,0,0],"sum_hessian":[2.42E2,2.3E2,1.2E1,2E1,2.1E2,9E0,3E0,1E1,1E1,2.6E1,1.84E2,3E0,6E0],"tree_param":{"num_deleted":"0","num_feature":"30","num_nodes":"13","size_leaf_vector":"1"}},{"base_weights":[-3.3028176E-1,-1.467472E0,7.7577926E-2,-2.1923404E0,2.2050202E0,-4.1891438E-1,4.5181975E-1,6.7769146E-1,6.740342E-2],"categories":[],"categories_nodes":[],"categories_segments":[],"categories_sizes":[],"default_left":[0,0,0,0,0,0,0,0,0],"id":36,"left_children":[1,-1,3,5,7,-1,-1,-1,-1],"loss_changes":[1.4813193E3,0E0,1.1976268E3,1.6268823E3,8.9136896E2,0E0,0E0,0E0,0E0],"parents":[2147483647,0,0,2,2,3,3,4,4],"right_children":[2,-1,4,6,8,-1,-1,-1,-1],"split_conditions":[9E0,-1.467472E0,2.9E1,3.14E2,8.7E1,-4.1891438E-1,4.5181975E-1,6.7769146E-1,6.740342E-2],"split_indices":[0,0,17,0,0,0,0,0,0],"split_type":[0,0,0,0,0,0,0,0,0],"sum_hessian":[2.52E2,6E0,2.46E2,1.19E2,1.27E2,9.2E1,2.7E1,3.1E1,9.6E1],"tree_param":{"num_deleted":"0","num_feature":"30","num_nodes":"9","size_leaf_vector":"1"}},{"base_weights":[1.1641856E0,-6.7840047E0,2.2834382E0,-1.2415087E1,1.3491706E1,6.727443E-1,6.35265E0,-2.7228646E0,-5.9645313E-1,1.628322E0,7.327265E-1,2.6570734E-1,-4.812669E-1,1.1609094E0,-3.2543477E-1],"categories":[],"categories_nodes":[],"categories_segments":[],"categories_sizes":[],"default_left":[0,0,0,0,0,0,0,0,0,0,0,0,0,0,0],"id":37,"left_children":[1,3,5,7,9,11,13,-1,-1,-1,-1,-1,-1,-1,-1],"loss_changes":[2.1594346E3,3.592726E3,1.3852283E3,2.1309304E3,1.1453857E0,1.678172E3,3.0676985E3,0E0,0E0,0E0,0E0,0E0,0E0,0E0,0E0],"parents":[2147483647,0,0,1,1,2,2,3,3,4,4,5,5,6,6],"right_children":[2,4,6,8,10,12,14,-1,-1,-1,-1,-1,-1,-1,-1],"split_conditions":[2.65E1,1E0,2.81E2,1.84E2,1.9E2,2.07E2,3.55E2,-2.7228646E0,-5.9645313E-1,1.628322E0,7.327265E-1,2.6570734E-1,-4.812669E-1,1.1609094E0,-3.2543477E-1],"split_indices":[17,18,0,0,0,0,0,0,0,0,0,0,0,0,0],"split_type":[0,0,0,0,0,0,0,0,0,0,0,0,0,0,0],"sum_hessian":[2.4E2,2.9E1,2.11E2,2.3E1,6E0,1.52E2,5.9E1,6E0,1.7E1,3E0,3E0,1.12E2,4E1,3.8E1,2.1E1],"tree_param":{"num_deleted":"0","num_feature":"30","num_nodes":"15","size_leaf_vector":"1"}},{"base_weights":[-7.8257316E-1,2.6639738E0,-5.00831E0,-9.3069285E-1,8.406048E0,-1.7849258E1,-3.3226173E0,-5.9333885E-1,1.9446099E-1,6.127712E-1,1.3434114E0,-1.3059067E0,-2.2901752E0,-4.5372063E-1,9.732267E-1],"categories":[],"categories_nodes":[],"categories_segments":[],"categories_sizes":[],"default_left":[0,0,0,0,0,0,0,0,0,0,0,0,0,0,0],"id":38,"left_children":[1,3,5,7,9,11,13,-1,-1,-1,-1,-1,-1,-1,-1],"loss_changes":[3.6980847E3,2.8975413E3,2.408325E3,1.2629691E3,5.3628394E2,1.5556152E1,1.6615016E3,0E0,0E0,0E0,0E0,0E0,0E0,0E0,0E0],"parents":[2147483647,0,0,1,1,2,2,3,3,4,4,5,5,6,6],"right_children":[2,4,6,8,10,12,14,-1,-1,-1,-1,-1,-1,-1,-1],"split_conditions":[2.32E2,1.00218E4,2.53E2,7.3E1,1.84E2,2.44E2,4E2,-5.9333885E-1,1.9446099E-1,6.127712E-1,1.3434114E0,-1.3059067E0,-2.2901752E0,-4.5372063E-1,9.732267E-1],"split_indices":[0,8,0,0,0,0,0,0,0,0,0,0,0,0,0],"split_type":[0,0,0,0,0,0,0,0,0,0,0,0,0,0,0],"sum_hessian":[2.52E2,1.39E2,1.13E2,8.6E1,5.3E1,1.2E1,1.01E2,3.1E1,5.5E1,3.8E1,1.5E1,8E0,4E0,9.3E1,8E0],"tree_param":{"num_deleted":"0","num_feature":"30","num_nodes":"15","size_leaf_vector":"1"}},{"base_weights":[2.2019963E-1,8.5893214E-1,-6.7578006E0,3.3091223E0,-1.5380478E0,4.310079E0,-1.1177635E1,1.0985504E0,2.5811866E-1,1.13501325E-1,-3.1149668E-1,-2.9685593E-1,1.0511198E0,-1.611158E0,7.65209E-1],"categories":[],"categories_nodes":[],"categories_segments":[],"categories_sizes":[],"default_left":[0,0,0,0,0,0,0,0,0,0,0,0,0,0,0],"id":39,"left_children":[1,3,5,7,9,11,13,-1,-1,-1,-1,-1,-1,-1,-1],"loss_changes":[1.1691012E3,1.4146233E3,1.124377E3,6.3660583E2,5.177899E2,3.47153E2,1.609764E3,0E0,0E0,0E0,0E0,0E0,0E0,0E0,0E0],"parents":[2147483647,0,0,1,1,2,2,3,3,4,4,5,5,6,6],"right_children":[2,4,6,8,10,12,14,-1,-1,-1,-1,-1,-1,-1,-1],"split_conditions":[1.14668E4,6E0,2.31E2,1.71E2,1E0,2.26E2,2.87E2,1.0985504E0,2.5811866E-1,1.13501325E-1,-3.1149668E-1,-2.9685593E-1,1.0511198E0,-1.611158E0,7.65209E-1],"split_indices":[8,14,0,6,20,0,0,0,0,0,0,0,0,0,0],"split_type":[0,0,0,0,0,0,0,0,0,0,0,0,0,0,0],"sum_hessian":[2.6E2,2.39E2,2.1E1,1.18E2,1.21E2,6E0,1.5E1,9E0,1.09E2,4.5E1,7.6E1,3E0,3E0,1.2E1,3E0],"tree_param":{"num_deleted":"0","num_feature":"30","num_nodes":"15","size_leaf_vector":"1"}},{"base_weights":[-1.0638089E0,-2.4680712E0,3.778447E0,-3.2823014E0,8.369405E0,2.447732E0,1.1123704E0,-2.7227882E-1,-1.4272095E0,-5.7117575E-1,1.3164929E0,3.8762468E-1,-6.6270083E-1],"categories":[],"categories_nodes":[],"categories_segments":[],"categories_sizes":[],"default_left":[0,0,0,0,0,0,0,0,0,0,0,0,0],"id":40,"left_children":[1,3,5,7,9,-1,11,-1,-1,-1,-1,-1,-1],"loss_changes":[1.6004781E3,1.6334751E3,2.8975654E3,1.00645874E3,9.5304016E2,0E0,1.0524408E3,0E0,0E0,0E0,0E0,0E0,0E0],"parents":[2147483647,0,0,1,1,2,2,3,3,4,4,6,6],"right_children":[2,4,6,8,10,-1,12,-1,-1,-1,-1,-1,-1],"split_conditions":[3.35E2,1.16638E4,3.43E2,3.18E2,2.26E2,2.447732E0,3.92E2,-2.7227882E-1,-1.4272095E0,-5.7117575E-1,1.3164929E0,3.8762468E-1,-6.6270083E-1],"split_indices":[0,8,0,0,0,0,0,0,0,0,0,0,0],"split_type":[0,0,0,0,0,0,0,0,0,0,0,0,0],"sum_hessian":[2.33E2,1.81E2,5.2E1,1.69E2,1.2E1,5E0,4.7E1,1.62E2,7E0,3E0,9E0,3.5E1,1.2E1],"tree_param":{"num_deleted":"0","num_feature":"30","num_nodes":"13","size_leaf_vector":"1"}},{"base_weights":[1.24375306E-1,6.809122E0,-6.358203E-1,-9.4333744E-1,1.0352139E1,-1.6072601E-2,-8.035392E0,1.6565431E0,5.254311E-1,-7.5060976E-1,7.049783E-2,-2.4431257E-1,-2.0968206E0],"categories":[],"categories_nodes":[],"categories_segments":[],"categories_sizes":[],"default_left":[0,0,0,0,0,0,0,0,0,0,0,0,0],"id":41,"left_children":[1,3,5,-1,7,9,11,-1,-1,-1,-1,-1,-1],"loss_changes":[1.2442678E3,1.5363418E3,1.0087617E3,0E0,5.7812036E2,1.1070321E3,1.1782755E3,0E0,0E0,0E0,0E0,0E0,0E0],"parents":[2147483647,0,0,1,1,2,2,4,4,5,5,6,6],"right_children":[2,4,6,-1,8,10,12,-1,-1,-1,-1,-1,-1],"split_conditions":[7.1548E3,2.64E2,9.1E1,-9.4333744E-1,3.08E2,4.3E1,8.7E1,1.6565431E0,5.254311E-1,-7.5060976E-1,7.049783E-2,-2.4431257E-1,-2.0968206E0],"split_indices":[8,0,5,0,0,11,0,0,0,0,0,0,0],"split_type":[0,0,0,0,0,0,0,0,0,0,0,0,0],"sum_hessian":[2.43E2,2.4E1,2.19E2,4E0,2E1,2.03E2,1.6E1,8E0,1.2E1,1.7E1,1.86E2,1.2E1,4E0],"tree_param":{"num_deleted":"0","num_feature":"30","num_nodes":"13","size_leaf_vector":"1"}},{"base_weights":[-8.2490784E-1,-4.017637E0,1.8416771E0,1.4157807E0,-6.5115457E0,-4.509605E0,2.5951252E0,-1.0374687E0,4.5127127E-1,-1.00843444E-1,-8.8945687E-1,-1.0524892E0,2.0693818E-1,6.6258353E-1,1.4581427E-1],"categories":[],"categories_nodes":[],"categories_segments":[],"categories_sizes":[],"default_left":[0,0,0,0,0,0,0,0,0,0,0,0,0,0,0],"id":42,"left_children":[1,3,5,7,9,11,13,-1,-1,-1,-1,-1,-1,-1,-1],"loss_changes":[2.1528472E3,1.5675204E3,6.7208276E2,1.3978462E3,1.0270393E3,6.1539734E2,5.5861145E2,0E0,0E0,0E0,0E0,0E0,0E0,0E0,0E0],"parents":[2147483647,0,0,1,1,2,2,3,3,4,4,5,5,6,6],"right_children":[2,4,6,8,10,12,14,-1,-1,-1,-1,-1,-1,-1,-1],"split_conditions":[4.16E2,1.012E2,5.76E1,1E0,1E0,1E0,5.536E2,-1.0374687E0,4.5127127E-1,-1.00843444E-1,-8.8945687E-1,-1.0524892E0,2.0693818E-1,6.6258353E-1,1.4581427E-1],"split_indices":[9,13,10,19,19,20,9,0,0,0,0,0,0,0,0],"split_type":[0,0,0,0,0,0,0,0,0,0,0,0,0,0,0],"sum_hessian":[2.51E2,1.14E2,1.37E2,3.6E1,7.8E1,1.4E1,1.23E2,7E0,2.9E1,2.4E1,5.4E1,7E0,7E0,2.6E1,9.7E1],"tree_param":{"num_deleted":"0","num_feature":"30","num_nodes":"15","size_leaf_vector":"1"}},{"base_weights":[-1.0560414E-1,-5.6697965E-1,9.092258E0,-1.3881903E0,4.1022964E0,1.4486946E0,4.584047E0,-6.9766134E-1,-9.077513E-2,-3.2082236E-1,5.6713414E-1,5.8901054E-1,1.805462E-1],"categories":[],"categories_nodes":[],"categories_segments":[],"categories_sizes":[],"default_left":[0,0,0,0,0,0,0,0,0,0,0,0,0],"id":43,"left_children":[1,3,5,7,9,-1,11,-1,-1,-1,-1,-1,-1],"loss_changes":[1.0660723E3,9.221305E2,2.2543585E2,5.4138574E2,4.3113403E2,0E0,1.8397598E1,0E0,0E0,0E0,0E0,0E0,0E0],"parents":[2147483647,0,0,1,1,2,2,3,3,4,4,6,6],"right_children":[2,4,6,8,10,-1,12,-1,-1,-1,-1,-1,-1],"split_conditions":[1E0,2.176E2,2.9E1,5.7E1,7E0,1.4486946E0,1E0,-6.9766134E-1,-9.077513E-2,-3.2082236E-1,5.6713414E-1,5.8901054E-1,1.805462E-1],"split_indices":[3,10,17,0,0,0,20,0,0,0,0,0,0],"split_type":[0,0,0,0,0,0,0,0,0,0,0,0,0],"sum_hessian":[2.49E2,2.38E2,1.1E1,2.03E2,3.5E1,4E0,7E0,1.5E1,1.88E2,6E0,2.9E1,4E0,3E0],"tree_param":{"num_deleted":"0","num_feature":"30","num_nodes":"13","size_leaf_vector":"1"}},{"base_weights":[4.109245E-2,1.1385239E0,-3.3433394E0,1.9934362E0,-3.9381273E0,5.9532247E0,-5.791506E0,1.4554547E-1,1.0798078E0,-1.6951627E0,-1.6051221E-1,-6.212912E-1,1.205072E0,-1.8822011E0,-4.1791415E-1],"categories":[],"categories_nodes":[],"categories_segments":[],"categories_sizes":[],"default_left":[0,0,0,0,0,0,0,0,0,0,0,0,0,0,0],"id":44,"left_children":[1,3,5,7,9,11,13,-1,-1,-1,-1,-1,-1,-1,-1],"loss_changes":[9.100669E2,8.1076733E2,1.4000505E3,7.374247E2,7.9252563E2,1.0392485E3,9.298163E2,0E0,0E0,0E0,0E0,0E0,0E0,0E0,0E0],"parents":[2147483647,0,0,1,1,2,2,3,3,4,4,5,5,6,6],"right_children":[2,4,6,8,10,12,14,-1,-1,-1,-1,-1,-1,-1,-1],"split_conditions":[3E1,3.56E2,8.7E1,3.45E2,3.59E2,7.5E1,9.1E1,1.4554547E-1,1.0798078E0,-1.6951627E0,-1.6051221E-1,-6.212912E-1,1.205072E0,-1.8822011E0,-4.1791415E-1],"split_indices":[4,0,0,0,0,0,0,0,0,0,0,0,0,0,0],"split_type":[0,0,0,0,0,0,0,0,0,0,0,0,0,0,0],"sum_hessian":[2.43E2,1.84E2,5.9E1,1.58E2,2.6E1,1.2E1,4.7E1,1.5E2,8E0,3E0,2.3E1,4E0,8E0,4E0,4.3E1],"tree_param":{"num_deleted":"0","num_feature":"30","num_nodes":"15","size_leaf_vector":"1"}},{"base_weights":[-1.9809642E0,-2.4090065E-1,-7.8657775E0,-5.6128883E0,5.978565E-1,-6.0648804E0,-2.796032E0,3.349129E-2,-9.885241E-1,-1.24261215E-1,3.0706424E-1,-1.4084297E0,-1.749882E-1],"categories":[],"categories_nodes":[],"categories_segments":[],"categories_sizes":[],"default_left":[0,0,0,0,0,0,0,0,0,0,0,0,0],"id":45,"left_children":[1,3,5,7,9,11,-1,-1,-1,-1,-1,-1,-1],"loss_changes":[2.3328135E3,8.0088116E2,1.7122102E3,6.1317725E2,7.046827E2,1.6709388E3,0E0,0E0,0E0,0E0,0E0,0E0,0E0],"parents":[2147483647,0,0,1,1,2,2,3,3,4,4,5,5],"right_children":[2,4,6,8,10,12,-1,-1,-1,-1,-1,-1,-1],"split_conditions":[1.07432E4,4.06E1,2.93E2,3.29E2,6.6E0,1.84E2,-2.796032E0,3.349129E-2,-9.885241E-1,-1.24261215E-1,3.0706424E-1,-1.4084297E0,-1.749882E-1],"split_indices":[8,11,0,0,14,0,0,0,0,0,0,0,0],"split_type":[0,0,0,0,0,0,0,0,0,0,0,0,0],"sum_hessian":[2.27E2,1.76E2,5.1E1,2.3E1,1.53E2,4.8E1,3E0,1E1,1.3E1,8.8E1,6.5E1,1.6E1,3.2E1],"tree_param":{"num_deleted":"0","num_feature":"30","num_nodes":"13","size_leaf_vector":"1"}},{"base_weights":[2.291832E-1,1.1396706E0,-8.761951E0,2.8986368E-1,8.658875E0,5.1735587E0,-1.709464E1,9.384866E-2,-8.2092696E-1,1.3872789E-1,1.1299019E0,1.1358999E0,-5.3979915E-1,-2.5863955E0,-7.2846603E-1],"categories":[],"categories_nodes":[],"categories_segments":[],"categories_sizes":[],"default_left":[0,0,0,0,0,0,0,0,0,0,0,0,0,0,0],"id":46,"left_children":[1,3,5,7,9,11,13,-1,-1,-1,-1,-1,-1,-1,-1],"loss_changes":[1.9583286E3,1.3840925E3,2.643086E3,1.0881998E3,4.0668237E2,6.49823E2,1.0159651E3,0E0,0E0,0E0,0E0,0E0,0E0,0E0,0E0],"parents":[2147483647,0,0,1,1,2,2,3,3,4,4,5,5,6,6],"right_children":[2,4,6,8,10,12,14,-1,-1,-1,-1,-1,-1,-1,-1],"split_conditions":[1.14668E4,8.6E1,2.31E2,8.2E1,1E0,1E0,2.74E2,9.384866E-2,-8.2092696E-1,1.3872789E-1,1.1299019E0,1.1358999E0,-5.3979915E-1,-2.5863955E0,-7.2846603E-1],"split_indices":[8,5,0,5,19,18,0,0,0,0,0,0,0,0,0],"split_type":[0,0,0,0,0,0,0,0,0,0,0,0,0,0,0],"sum_hessian":[2.37E2,2.16E2,2.1E1,1.95E2,2.1E1,8E0,1.3E1,1.82E2,1.3E1,6E0,1.5E1,5E0,3E0,6E0,7E0],"tree_param":{"num_deleted":"0","num_feature":"30","num_nodes":"15","size_leaf_vector":"1"}},{"base_weights":[4.116334E-1,7.1910596E0,-9.5926815E-1,1.3742253E0,1.3520865E1,-3.9634326E0,1.2768143E0,1.7342873E0,-4.025003E-1,2.8612894E-1,1.6883305E0,-1.5547693E-1,-7.0115966E-1,2.4051459E-1,-4.847745E-1],"categories":[],"categories_nodes":[],"categories_segments":[],"categories_sizes":[],"default_left":[0,0,0,0,0,0,0,0,0,0,0,0,0,0,0],"id":47,"left_children":[1,3,5,7,9,11,13,-1,-1,-1,-1,-1,-1,-1,-1],"loss_changes":[2.3210857E3,1.5278352E3,1.402313E3,2.052828E3,6.685359E2,6.425366E2,8.4092346E2,0E0,0E0,0E0,0E0,0E0,0E0,0E0,0E0],"parents":[2147483647,0,0,1,1,2,2,3,3,4,4,5,5,6,6],"right_children":[2,4,6,8,10,12,14,-1,-1,-1,-1,-1,-1,-1,-1],"split_conditions":[6.62E1,2.74E2,4.486E2,1.02E2,1E0,2.9E1,2.5E2,1.7342873E0,-4.025003E-1,2.8612894E-1,1.6883305E0,-1.5547693E-1,-7.0115966E-1,2.4051459E-1,-4.847745E-1],"split_indices":[10,0,9,0,19,17,0,0,0,0,0,0,0,0,0],"split_type":[0,0,0,0,0,0,0,0,0,0,0,0,0,0,0],"sum_hessian":[2.48E2,4.1E1,2.07E2,2.2E1,1.9E1,8.8E1,1.19E2,5E0,1.7E1,5E0,1.4E1,5E1,3.8E1,1.01E2,1.8E1],"tree_param":{"num_deleted":"0","num_feature":"30","num_nodes":"15","size_leaf_vector":"1"}},{"base_weights":[9.3473846E-1,3.8151414E0,-1.5258622E0,1.9164616E0,1.1326537E1,-7.634519E-1,-1.0979647E1,7.02036E-1,3.9448286E-3,7.756409E-1,1.3476142E0,-4.2213327E-1,1.4185944E-1,-2.3544438E0,-2.2312453E-1],"categories":[],"categories_nodes":[],"categories_segments":[],"categories_sizes":[],"default_left":[0,0,0,0,0,0,0,0,0,0,0,0,0,0,0],"id":48,"left_children":[1,3,5,7,9,11,13,-1,-1,-1,-1,-1,-1,-1,-1],"loss_changes":[1.7706143E3,1.6183926E3,9.646521E2,8.90671E2,7.198389E1,9.5669055E2,1.0466848E3,0E0,0E0,0E0,0E0,0E0,0E0,0E0,0E0],"parents":[2147483647,0,0,1,1,2,2,3,3,4,4,5,5,6,6],"right_children":[2,4,6,8,10,12,14,-1,-1,-1,-1,-1,-1,-1,-1],"split_conditions":[1.92E2,1.53E2,3.98E2,4.6E1,1.68E2,2.5E1,4.01E2,7.02036E-1,3.9448286E-3,7.756409E-1,1.3476142E0,-4.2213327E-1,1.4185944E-1,-2.3544438E0,-2.2312453E-1],"split_indices":[0,0,0,0,0,4,0,0,0,0,0,0,0,0,0],"split_type":[0,0,0,0,0,0,0,0,0,0,0,0,0,0,0],"sum_hessian":[2.48E2,1.14E2,1.34E2,9.2E1,2.2E1,1.25E2,9E0,2.4E1,6.8E1,1E1,1.2E1,4.8E1,7.7E1,3E0,6E0],"tree_param":{"num_deleted":"0","num_feature":"30","num_nodes":"15","size_leaf_vector":"1"}},{"base_weights":[5.7965845E-2,4.046292E0,-2.0596516E0,7.1973357E0,-3.10589E0,-8.262086E0,-1.5763439E-1,4.2292306E-1,1.2922086E0,-2.738654E0,2.3075508E-1,-1.2038783E0,3.516546E-1,-1.1699965E-1,1.0440482E0],"categories":[],"categories_nodes":[],"categories_segments":[],"categories_sizes":[],"default_left":[0,0,0,0,0,0,0,0,0,0,0,0,0,0,0],"id":49,"left_children":[1,3,5,7,9,11,13,-1,-1,-1,-1,-1,-1,-1,-1],"loss_changes":[2.0944338E3,1.960522E3,1.9098334E3,9.648489E2,3.612126E3,1.7327397E3,1.3533564E3,0E0,0E0,0E0,0E0,0E0,0E0,0E0,0E0],"parents":[2147483647,0,0,1,1,2,2,3,3,4,4,5,5,6,6],"right_children":[2,4,6,8,10,12,14,-1,-1,-1,-1,-1,-1,-1,-1],"split_conditions":[1E0,1.79E2,9.1E1,2.63E2,4.3E1,1E0,2.176E2,4.2292306E-1,1.2922086E0,-2.738654E0,2.3075508E-1,-1.2038783E0,3.516546E-1,-1.1699965E-1,1.0440482E0],"split_indices":[20,6,0,0,11,2,10,0,0,0,0,0,0,0,0],"split_type":[0,0,0,0,0,0,0,0,0,0,0,0,0,0,0],"sum_hessian":[2.46E2,8.5E1,1.61E2,5.9E1,2.6E1,3.7E1,1.24E2,4E1,1.9E1,4E0,2.2E1,2.8E1,9E0,1.14E2,1E1],"tree_param":{"num_deleted":"0","num_feature":"30","num_nodes":"15","size_leaf_vector":"1"}}]},"name":"gbtree"},"learner_model_param":{"base_score":"6.8070045E1","boost_from_average":"1","num_class":"0","num_feature":"30","num_target":"1"},"objective":{"name":"reg:squarederror","reg_loss_param":{"scale_pos_weight":"1"}}},"version":[2,1,0]}