{"learner":{"attributes":{"scikit_learn":"{\"_estimator_type\": \"regressor\"}"},"feature_names":["Unnamed: 0","jugador_anonimizado","gol","asistencia","edad","peso","altura","minutos_predictor","avg_dist_sess_m_predictor","zona_4_19.9_25.1_kmh_predictor","zona_5_mas_25.1_kmh_predictor","num_aceleraciones_intensas_predictor","num_desaceleraciones_intensas_predictor","num_acel_desintensas_predictor","num_sprints_total_predictor","gol_predictor","asistencia_predictor","max_vel_kmh_predictor","torneo_Libertadores","torneo_Torneo Local","categoria_partido_Normal","posicion_habitual_Delantero","posicion_habitual_Extremo","posicion_habitual_Lateral","posicion_habitual_Lateral ","posicion_habitual_Lateral / Volante","posicion_habitual_Volante / Extremo","posicion_habitual_Volante Central","posicion_habitual_Volante Ofensivo","posicion_habitual_Volante Ofensivo / Extremo"],"feature_types":["int","int","int","int","int","int","int","float","float","float","float","float","float","float","float","float","float","float","i","i","i","i","i","i","i","i","i","i","i","i"],"gradient_booster":{"model":{"gbtree_model_param":{"num_parallel_tree":"1","num_trees":"50"},"iteration_indptr":[0,1,2,3,4,5,6,7,8,9,10,11,12,13,14,15,16,17,18,19,20,21,22,23,24,25,26,27,28,29,30,31,32,33,34,35,36,37,38,39,40,41,42,43,44,45,46,47,48,49,50],"tree_info":[0,0,0,0,0,0,0,0,0,0,0,0,0,0,0,0,0,0,0,0,0,0,0,0,0,0,0,0,0,0,0,0,0,0,0,0,0,0,0,0,0,0,0,0,0,0,0,0,0,0],"trees":[{"base_weights":[-1.3258812E0,-1.6599005E1,4.3320995E1,-4.0422062E1,-8.0815325E0,2.9300777E1,8.03592E0,-5.890652E0,-3.47904E0,-1.4910098E0,3.2801047E-1,4.7890754E0,2.1773822E0],"categories":[],"categories_nodes":[],"categories_segments":[],"categories_sizes":[],"default_left":[0,0,0,0,0,0,0,0,0,0,0,0,0],"id":0,"left_children":[1,3,5,7,9,11,-1,-1,-1,-1,-1,-1,-1],"loss_changes":[1.7119342E5,3.7617914E4,3.0879555E4,3.0514375E3,1.0833039E4,5.673676E3,0E0,0E0,0E0,0E0,0E0,0E0,0E0],"parents":[2147483647,0,0,1,1,2,2,3,3,4,4,5,5],"right_children":[2,4,6,8,10,12,-1,-1,-1,-1,-1,-1,-1],"split_conditions":[6.5E1,4.82E1,2.21E2,1E0,9.82E1,9.46E1,8.03592E0,-5.890652E0,-3.47904E0,-1.4910098E0,3.2801047E-1,4.7890754E0,2.1773822E0],"split_indices":[11,12,0,19,7,7,0,0,0,0,0,0,0],"split_type":[0,0,0,0,0,0,0,0,0,0,0,0,0],"sum_hessian":[2.49E2,1.86E2,6.3E1,4.8E1,1.38E2,4.7E1,1.6E1,9E0,3.9E1,8.6E1,5.2E1,1.2E1,3.5E1],"tree_param":{"num_deleted":"0","num_feature":"30","num_nodes":"13","size_leaf_vector":"1"}},{"base_weights":[1.2770905E0,-1.3631397E1,3.915176E1,-3.519968E1,-4.801242E0,1.8872938E1,5.7824352E1,-3.0351954E0,-5.867415E0,-9.01117E-1,1.2546974E0,2.3016255E0,-2.0027652E0,7.0054092E0,2.9857595E0],"categories":[],"categories_nodes":[],"categories_segments":[],"categories_sizes":[],"default_left":[0,0,0,0,0,0,0,0,0,0,0,0,0,0,0],"id":1,"left_children":[1,3,5,7,9,11,13,-1,-1,-1,-1,-1,-1,-1,-1],"loss_changes":[1.4395583E5,3.468359E4,2.617207E4,4.2504062E3,9.680613E3,6.2633486E3,1.056332E4,0E0,0E0,0E0,0E0,0E0,0E0,0E0,0E0],"parents":[2147483647,0,0,1,1,2,2,3,3,4,4,5,5,6,6],"right_children":[2,4,6,8,10,12,14,-1,-1,-1,-1,-1,-1,-1,-1],"split_conditions":[6.5E1,1.03E2,1.97E2,1E0,5.74E2,1.37E2,2.32E2,-3.0351954E0,-5.867415E0,-9.01117E-1,1.2546974E0,2.3016255E0,-2.0027652E0,7.0054092E0,2.9857595E0],"split_indices":[11,13,0,18,9,0,0,0,0,0,0,0,0,0,0],"split_type":[0,0,0,0,0,0,0,0,0,0,0,0,0,0,0],"sum_hessian":[2.53E2,1.82E2,7.1E1,5.2E1,1.3E2,3.5E1,3.6E1,4.5E1,7E0,1.05E2,2.5E1,3.2E1,3E0,2.4E1,1.2E1],"tree_param":{"num_deleted":"0","num_feature":"30","num_nodes":"15","size_leaf_vector":"1"}},{"base_weights":[-2.6918826E0,-1.7221584E1,3.697536E1,-4.1766537E1,-6.3708377E0,1.8984451E1,5.144044E1,-1.6944112E0,-4.2872753E0,-3.629657E0,-3.4781316E-1,-1.2277893E0,2.4070647E0,6.4355674E0,2.3639972E0],"categories":[],"categories_nodes":[],"categories_segments":[],"categories_sizes":[],"default_left":[0,0,0,0,0,0,0,0,0,0,0,0,0,0,0],"id":2,"left_children":[1,3,5,7,9,11,13,-1,-1,-1,-1,-1,-1,-1,-1],"loss_changes":[1.4184331E5,4.7673496E4,1.6199266E4,7.838047E2,1.0781115E4,5.2247354E3,1.140443E4,0E0,0E0,0E0,0E0,0E0,0E0,0E0,0E0],"parents":[2147483647,0,0,1,1,2,2,3,3,4,4,5,5,6,6],"right_children":[2,4,6,8,10,12,14,-1,-1,-1,-1,-1,-1,-1,-1],"split_conditions":[6.5E1,1.03E2,2.02E2,2.1E1,6.6E1,7E0,2.32E2,-1.6944112E0,-4.2872753E0,-3.629657E0,-3.4781316E-1,-1.2277893E0,2.4070647E0,6.4355674E0,2.3639972E0],"split_indices":[11,13,0,4,5,0,0,0,0,0,0,0,0,0,0],"split_type":[0,0,0,0,0,0,0,0,0,0,0,0,0,0,0],"sum_hessian":[2.44E2,1.79E2,6.5E1,5.4E1,1.25E2,3E1,3.5E1,3E0,5.1E1,1E1,1.15E2,4E0,2.6E1,2.3E1,1.2E1],"tree_param":{"num_deleted":"0","num_feature":"30","num_nodes":"15","size_leaf_vector":"1"}},{"base_weights":[-1.5447668E0,-2.7127192E1,1.2462879E1,-2.8775782E1,-7.525635E-3,5.140876E0,3.4860302E1,-3.3773363E0,-1.9464492E0,2.8638208E-1,3.3159356E0,4.175653E0,1.0685599E0],"categories":[],"categories_nodes":[],"categories_segments":[],"categories_sizes":[],"default_left":[0,0,0,0,0,0,0,0,0,0,0,0,0],"id":3,"left_children":[1,3,5,7,-1,9,11,-1,-1,-1,-1,-1,-1],"loss_changes":[8.813372E4,3.8778125E3,2.5895832E4,3.1584062E3,0E0,7.624791E3,6.055664E3,0E0,0E0,0E0,0E0,0E0,0E0],"parents":[2147483647,0,0,1,1,2,2,3,3,5,5,6,6],"right_children":[2,4,6,8,-1,10,12,-1,-1,-1,-1,-1,-1],"split_conditions":[6.2E1,1E0,9.3E1,7.88E1,-7.525635E-3,1E0,1E0,-3.3773363E0,-1.9464492E0,2.8638208E-1,3.3159356E0,4.175653E0,1.0685599E0],"split_indices":[12,3,12,7,0,3,18,0,0,0,0,0,0],"split_type":[0,0,0,0,0,0,0,0,0,0,0,0,0],"sum_hessian":[2.44E2,8.6E1,1.58E2,8.1E1,5E0,1.2E2,3.8E1,5.1E1,3E1,1.12E2,8E0,2.9E1,9E0],"tree_param":{"num_deleted":"0","num_feature":"30","num_nodes":"13","size_leaf_vector":"1"}},{"base_weights":[1.5424645E-1,-5.293229E0,7.3383965E0,-1.4932753E1,1.2687218E1,-2.1875923E0,2.4479137E-1,2.5413442E0,5.283578E-1],"categories":[],"categories_nodes":[],"categories_segments":[],"categories_sizes":[],"default_left":[0,0,0,0,0,0,0,0,0],"id":4,"left_children":[1,3,-1,5,7,-1,-1,-1,-1],"loss_changes":[1.0370797E5,4.2133605E4,0E0,1.9120496E4,7.874457E3,0E0,0E0,0E0,0E0],"parents":[2147483647,0,0,1,1,3,3,4,4],"right_children":[2,4,-1,6,8,-1,-1,-1,-1],"split_conditions":[1.16638E4,1.322E2,7.3383965E0,9.84E1,1E0,-2.1875923E0,2.4479137E-1,2.5413442E0,5.283578E-1],"split_indices":[8,13,0,7,20,0,0,0,0],"split_type":[0,0,0,0,0,0,0,0,0],"sum_hessian":[2.58E2,2.41E2,1.7E1,1.57E2,8.4E1,1.12E2,4.5E1,3E1,5.4E1],"tree_param":{"num_deleted":"0","num_feature":"30","num_nodes":"9","size_leaf_vector":"1"}},{"base_weights":[2.5435293E0,-1.3896713E1,2.2410408E1,-6.720922E0,-2.369946E1,1.2595961E1,4.3477898E1,-1.2785306E0,2.8275824E-1,-4.205316E0,-1.8086432E0,2.457972E0,7.281638E-1,4.6891847E0,2.1172426E0],"categories":[],"categories_nodes":[],"categories_segments":[],"categories_sizes":[],"default_left":[0,0,0,0,0,0,0,0,0,0,0,0,0,0,0],"id":5,"left_children":[1,3,5,7,9,11,13,-1,-1,-1,-1,-1,-1,-1,-1],"loss_changes":[8.947768E4,1.0392086E4,2.5091305E4,5.131862E3,5.7296562E3,5.2979795E3,1.9770234E3,0E0,0E0,0E0,0E0,0E0,0E0,0E0,0E0],"parents":[2147483647,0,0,1,1,2,2,3,3,4,4,5,5,6,6],"right_children":[2,4,6,8,10,12,14,-1,-1,-1,-1,-1,-1,-1,-1],"split_conditions":[5.7E1,3.08E2,1.97E2,9.64E1,1E0,1E0,1E0,-1.2785306E0,2.8275824E-1,-4.205316E0,-1.8086432E0,2.457972E0,7.281638E-1,4.6891847E0,2.1172426E0],"split_indices":[11,0,0,7,19,19,2,0,0,0,0,0,0,0,0],"split_type":[0,0,0,0,0,0,0,0,0,0,0,0,0,0,0],"sum_hessian":[2.72E2,1.49E2,1.23E2,8.7E1,6.2E1,8.5E1,3.8E1,5.3E1,3.4E1,1.3E1,4.9E1,2.5E1,6E1,3.2E1,6E0],"tree_param":{"num_deleted":"0","num_feature":"30","num_nodes":"15","size_leaf_vector":"1"}},{"base_weights":[-1.3557528E0,-1.57634945E1,1.6049591E1,-7.2265224E0,-2.7169115E1,9.671502E0,5.6224594E1,-2.0080953E0,-2.1383825E-1,-3.5180695E0,-2.3184578E0,1.876706E0,5.895115E-1,2.8677914E0,6.072144E0],"categories":[],"categories_nodes":[],"categories_segments":[],"categories_sizes":[],"default_left":[0,0,0,0,0,0,0,0,0,0,0,0,0,0,0],"id":6,"left_children":[1,3,5,7,9,11,13,-1,-1,-1,-1,-1,-1,-1,-1],"loss_changes":[6.1441297E4,1.2851168E4,2.7898832E4,5.058659E3,1.0039258E3,3.2211553E3,1.1673828E2,0E0,0E0,0E0,0E0,0E0,0E0,0E0,0E0],"parents":[2147483647,0,0,1,1,2,2,3,3,4,4,5,5,6,6],"right_children":[2,4,6,8,10,12,14,-1,-1,-1,-1,-1,-1,-1,-1],"split_conditions":[5.7E1,6E0,9.04E2,3.858E2,1.71E2,1E0,2.24E2,-2.0080953E0,-2.1383825E-1,-3.5180695E0,-2.3184578E0,1.876706E0,5.895115E-1,2.8677914E0,6.072144E0],"split_indices":[11,14,9,9,6,20,0,0,0,0,0,0,0,0,0],"split_type":[0,0,0,0,0,0,0,0,0,0,0,0,0,0,0],"sum_hessian":[2.43E2,1.33E2,1.1E2,7.7E1,5.6E1,9.6E1,1.4E1,2.1E1,5.6E1,1.6E1,4E1,2.7E1,6.9E1,3E0,1.1E1],"tree_param":{"num_deleted":"0","num_feature":"30","num_nodes":"15","size_leaf_vector":"1"}},{"base_weights":[3.0993168E0,-1.9942372E0,3.5727623E1,-2.1787775E1,2.0428338E0,1.9403929E1,5.402246E1,-1.630723E0,-4.2163286E0,5.5793006E-2,2.073255E0,2.8744364E0,-5.624411E-1,6.549478E0,2.5898187E0],"categories":[],"categories_nodes":[],"categories_segments":[],"categories_sizes":[],"default_left":[0,0,0,0,0,0,0,0,0,0,0,0,0,0,0],"id":7,"left_children":[1,3,5,7,9,11,13,-1,-1,-1,-1,-1,-1,-1,-1],"loss_changes":[4.0622598E4,1.6984988E4,8.806848E3,3.3325117E3,4.9006133E3,4.603406E3,3.1435664E3,0E0,0E0,0E0,0E0,0E0,0E0,0E0,0E0],"parents":[2147483647,0,0,1,1,2,2,3,3,4,4,5,5,6,6],"right_children":[2,4,6,8,10,12,14,-1,-1,-1,-1,-1,-1,-1,-1],"split_conditions":[9.3E1,4.82E1,2.23E2,1E0,1E0,2.13E2,2.42E2,-1.630723E0,-4.2163286E0,5.5793006E-2,2.073255E0,2.8744364E0,-5.624411E-1,6.549478E0,2.5898187E0],"split_indices":[12,12,0,18,3,0,0,0,0,0,0,0,0,0,0],"split_type":[0,0,0,0,0,0,0,0,0,0,0,0,0,0,0],"sum_hessian":[2.43E2,2.11E2,3.2E1,3.5E1,1.76E2,1.8E1,1.4E1,2.9E1,6E0,1.64E2,1.2E1,1.3E1,5E0,9E0,5E0],"tree_param":{"num_deleted":"0","num_feature":"30","num_nodes":"15","size_leaf_vector":"1"}},{"base_weights":[1.2036762E0,-1.5340842E1,1.054745E1,-3.403431E0,-1.1500027E1,6.4804163E0,4.9701218E1,-1.4340522E0,5.0810295E-1,-2.1921797E0,7.634873E-1,7.209926E0,2.1090527E0],"categories":[],"categories_nodes":[],"categories_segments":[],"categories_sizes":[],"default_left":[0,0,0,0,0,0,0,0,0,0,0,0,0],"id":8,"left_children":[1,3,5,-1,7,9,11,-1,-1,-1,-1,-1,-1],"loss_changes":[3.8963457E4,6.1422363E3,2.531551E4,0E0,3.6994414E3,4.9873706E3,8.0917383E3,0E0,0E0,0E0,0E0,0E0,0E0],"parents":[2147483647,0,0,1,1,2,2,4,4,5,5,6,6],"right_children":[2,4,6,-1,8,10,12,-1,-1,-1,-1,-1,-1],"split_conditions":[6.2E1,4.9E1,1.14668E4,-3.403431E0,3.66E2,9E0,2.31E2,-1.4340522E0,5.0810295E-1,-2.1921797E0,7.634873E-1,7.209926E0,2.1090527E0],"split_indices":[12,7,8,0,0,0,0,0,0,0,0,0,0],"split_type":[0,0,0,0,0,0,0,0,0,0,0,0,0],"sum_hessian":[2.5E2,9E1,1.6E2,1.4E1,7.6E1,1.46E2,1.4E1,6.5E1,1.1E1,5E0,1.41E2,7E0,7E0],"tree_param":{"num_deleted":"0","num_feature":"30","num_nodes":"13","size_leaf_vector":"1"}},{"base_weights":[-9.615748E-1,-7.5131197E0,1.6105852E1,-1.6063883E1,-1.7690331E0,3.673484E0,2.5824207E1,-1.8293608E0,-4.7086784E-1,1.2652617E0,-2.7510384E-1,7.8350043E-1,-2.637553E0,3.8745809E0,3.428037E-1],"categories":[],"categories_nodes":[],"categories_segments":[],"categories_sizes":[],"default_left":[0,0,0,0,0,0,0,0,0,0,0,0,0,0,0],"id":9,"left_children":[1,3,5,7,9,11,13,-1,-1,-1,-1,-1,-1,-1,-1],"loss_changes":[2.74046E4,8.66517E3,8.121041E3,1.7115078E3,1.550156E3,4.083189E3,1.0864164E4,0E0,0E0,0E0,0E0,0E0,0E0,0E0,0E0],"parents":[2147483647,0,0,1,1,2,2,3,3,4,4,5,5,6,6],"right_children":[2,4,6,8,10,12,14,-1,-1,-1,-1,-1,-1,-1,-1],"split_conditions":[1.4E2,5.96E1,1.97E2,1E0,3.6E1,1.36E2,2.32E2,-1.8293608E0,-4.7086784E-1,1.2652617E0,-2.7510384E-1,7.8350043E-1,-2.637553E0,3.8745809E0,3.428037E-1],"split_indices":[13,12,0,23,0,0,0,0,0,0,0,0,0,0,0],"split_type":[0,0,0,0,0,0,0,0,0,0,0,0,0,0,0],"sum_hessian":[2.43E2,1.76E2,6.7E1,7E1,1.06E2,3E1,3.7E1,5.8E1,1.2E1,6E0,1E2,2.7E1,3E0,2.3E1,1.4E1],"tree_param":{"num_deleted":"0","num_feature":"30","num_nodes":"15","size_leaf_vector":"1"}},{"base_weights":[4.9209174E-2,-8.512122E0,1.166772E1,-3.2619617E0,-1.884554E1,-3.1452258E0,1.3555981E1,-5.086625E-1,3.3153837E0,-3.5173957E0,-1.3475876E0,1.0474842E0,3.5266244E0],"categories":[],"categories_nodes":[],"categories_segments":[],"categories_sizes":[],"default_left":[0,0,0,0,0,0,0,0,0,0,0,0,0],"id":10,"left_children":[1,3,5,7,9,-1,11,-1,-1,-1,-1,-1,-1],"loss_changes":[2.6259906E4,8.1848467E3,9.5456045E3,6.9461914E3,3.997582E3,0E0,6.854965E3,0E0,0E0,0E0,0E0,0E0,0E0],"parents":[2147483647,0,0,1,1,2,2,3,3,4,4,6,6],"right_children":[2,4,6,8,10,-1,12,-1,-1,-1,-1,-1,-1],"split_conditions":[4.838E2,3.21E2,9E0,3.14E2,3.42E2,-3.1452258E0,9.04E2,-5.086625E-1,3.3153837E0,-3.5173957E0,-1.3475876E0,1.0474842E0,3.5266244E0],"split_indices":[9,0,0,0,0,0,9,0,0,0,0,0,0],"split_type":[0,0,0,0,0,0,0,0,0,0,0,0,0],"sum_hessian":[2.62E2,1.51E2,1.11E2,1.01E2,5E1,4E0,1.07E2,9.7E1,4E0,1.1E1,3.9E1,9.5E1,1.2E1],"tree_param":{"num_deleted":"0","num_feature":"30","num_nodes":"13","size_leaf_vector":"1"}},{"base_weights":[-4.3165833E-1,-8.765631E0,1.0277279E1,-2.1801609E1,-5.6660566E0,-1.2526878E0,1.155379E1,-1.18916705E-1,-2.404784E0,-3.3571455E-1,-2.298997E0,5.027743E-1,1.6020783E0],"categories":[],"categories_nodes":[],"categories_segments":[],"categories_sizes":[],"default_left":[0,0,0,0,0,0,0,0,0,0,0,0,0],"id":11,"left_children":[1,3,5,7,9,-1,11,-1,-1,-1,-1,-1,-1],"loss_changes":[2.507952E4,6.260615E3,3.7252334E3,1.3604111E3,5.0827383E3,0E0,3.330212E3,0E0,0E0,0E0,0E0,0E0,0E0],"parents":[2147483647,0,0,1,1,2,2,3,3,4,4,6,6],"right_children":[2,4,6,8,10,-1,12,-1,-1,-1,-1,-1,-1],"split_conditions":[5.7E1,4.06E1,9E0,3.06E2,7.5E1,-1.2526878E0,6.5E1,-1.18916705E-1,-2.404784E0,-3.3571455E-1,-2.298997E0,5.027743E-1,1.6020783E0],"split_indices":[11,11,0,0,12,0,11,0,0,0,0,0,0],"split_type":[0,0,0,0,0,0,0,0,0,0,0,0,0],"sum_hessian":[2.79E2,1.57E2,1.22E2,2.9E1,1.28E2,6E0,1.16E2,3E0,2.6E1,1.14E2,1.4E1,4.8E1,6.8E1],"tree_param":{"num_deleted":"0","num_feature":"30","num_nodes":"13","size_leaf_vector":"1"}},{"base_weights":[-1.2350868E0,-1.8015007E1,5.4099092E0,-9.99975E0,-2.2601944E1,1.4348628E1,4.4019228E-1,-1.7839317E0,-4.6533617E-1,-1.0324154E0,-2.497757E0,7.111091E-1,3.1496818E0,1.6985205E-1,-3.5846791E0],"categories":[],"categories_nodes":[],"categories_segments":[],"categories_sizes":[],"default_left":[0,0,0,0,0,0,0,0,0,0,0,0,0,0,0],"id":12,"left_children":[1,3,5,7,9,11,13,-1,-1,-1,-1,-1,-1,-1,-1],"loss_changes":[2.8307594E4,2.4210996E3,8.078653E3,1.0905618E3,1.0546621E3,7.843218E3,5.4488765E3,0E0,0E0,0E0,0E0,0E0,0E0,0E0,0E0],"parents":[2147483647,0,0,1,1,2,2,3,3,4,4,5,5,6,6],"right_children":[2,4,6,8,10,12,14,-1,-1,-1,-1,-1,-1,-1,-1],"split_conditions":[1.112E2,9.06E1,1E0,1E0,2.69E2,1.56E2,3.93E2,-1.7839317E0,-4.6533617E-1,-1.0324154E0,-2.497757E0,7.111091E-1,3.1496818E0,1.6985205E-1,-3.5846791E0],"split_indices":[13,10,20,20,0,10,0,0,0,0,0,0,0,0,0],"split_type":[0,0,0,0,0,0,0,0,0,0,0,0,0,0,0],"sum_hessian":[2.52E2,7.1E1,1.81E2,2.7E1,4.4E1,6.4E1,1.17E2,1E1,1.7E1,8E0,3.6E1,4.6E1,1.8E1,1.14E2,3E0],"tree_param":{"num_deleted":"0","num_feature":"30","num_nodes":"15","size_leaf_vector":"1"}},{"base_weights":[2.0896075E0,-5.5018883E0,1.4093104E1,-2.673043E0,-2.3525364E1,2.2350077E1,8.828281E0,-7.465319E-1,3.3876863E-1,-3.774376E0,-1.7217541E0,3.383176E0,1.2621311E0,-7.9502845E-1,1.0629127E0],"categories":[],"categories_nodes":[],"categories_segments":[],"categories_sizes":[],"default_left":[0,0,0,0,0,0,0,0,0,0,0,0,0,0,0],"id":13,"left_children":[1,3,5,7,9,11,13,-1,-1,-1,-1,-1,-1,-1,-1],"loss_changes":[2.0945047E4,7.1260884E3,3.6716523E3,3.597787E3,1.0542002E3,3.3708867E3,1.7765781E3,0E0,0E0,0E0,0E0,0E0,0E0,0E0,0E0],"parents":[2147483647,0,0,1,1,2,2,3,3,4,4,5,5,6,6],"right_children":[2,4,6,8,10,12,14,-1,-1,-1,-1,-1,-1,-1,-1],"split_conditions":[1.322E2,1.49E2,1E0,9.7E1,1E0,6.5E1,2.9E1,-7.465319E-1,3.3876863E-1,-3.774376E0,-1.7217541E0,3.383176E0,1.2621311E0,-7.9502845E-1,1.0629127E0],"split_indices":[13,10,20,7,20,5,17,0,0,0,0,0,0,0,0],"split_type":[0,0,0,0,0,0,0,0,0,0,0,0,0,0,0],"sum_hessian":[2.28E2,1.4E2,8.8E1,1.22E2,1.8E1,3.3E1,5.5E1,6.8E1,5.4E1,4E0,1.4E1,1.4E1,1.9E1,5E0,5E1],"tree_param":{"num_deleted":"0","num_feature":"30","num_nodes":"15","size_leaf_vector":"1"}},{"base_weights":[3.509781E-1,-1.138532E1,5.8929653E0,1.006177E0,-1.5750865E1,2.489829E0,2.089721E1,-7.008902E-1,2.2212024E0,-1.9846478E0,-7.181658E-1,3.3708575E-1,-2.6986303E0,3.274519E0,3.9646976E-2],"categories":[],"categories_nodes":[],"categories_segments":[],"categories_sizes":[],"default_left":[0,0,0,0,0,0,0,0,0,0,0,0,0,0,0],"id":14,"left_children":[1,3,5,7,9,11,13,-1,-1,-1,-1,-1,-1,-1,-1],"loss_changes":[1.56122295E4,4.181213E3,8.270991E3,3.724979E3,1.8579492E3,3.5708538E3,7.27379E3,0E0,0E0,0E0,0E0,0E0,0E0,0E0,0E0],"parents":[2147483647,0,0,1,1,2,2,3,3,4,4,5,5,6,6],"right_children":[2,4,6,8,10,12,14,-1,-1,-1,-1,-1,-1,-1,-1],"split_conditions":[6.14E1,1.02E2,9.3E1,9.7E1,2.9E1,3.93E2,2.27E2,-7.008902E-1,2.2212024E0,-1.9846478E0,-7.181658E-1,3.3708575E-1,-2.6986303E0,3.274519E0,3.9646976E-2],"split_indices":[12,0,12,0,17,0,0,0,0,0,0,0,0,0,0],"split_type":[0,0,0,0,0,0,0,0,0,0,0,0,0,0,0],"sum_hessian":[2.38E2,7.6E1,1.62E2,2E1,5.6E1,1.33E2,2.9E1,1.5E1,5E0,3.7E1,1.9E1,1.3E2,3E0,1.8E1,1.1E1],"tree_param":{"num_deleted":"0","num_feature":"30","num_nodes":"15","size_leaf_vector":"1"}},{"base_weights":[1.1313164E0,-2.7810526E0,1.2784362E1,-4.659859E0,2.9436766E1,2.2999771E1,5.335207E0,5.9139755E-2,-7.91627E-1,1.6300452E0,4.5066123E0,7.0544744E-1,3.5024326E0,-1.506385E-1,2.1021225E0],"categories":[],"categories_nodes":[],"categories_segments":[],"categories_sizes":[],"default_left":[0,0,0,0,0,0,0,0,0,0,0,0,0,0,0],"id":15,"left_children":[1,3,5,7,9,11,13,-1,-1,-1,-1,-1,-1,-1,-1],"loss_changes":[1.0886216E4,1.09722295E4,4.4430615E3,2.9117244E3,1.3185234E3,4.546299E3,3.8950898E3,0E0,0E0,0E0,0E0,0E0,0E0,0E0,0E0],"parents":[2147483647,0,0,1,1,2,2,3,3,4,4,5,5,6,6],"right_children":[2,4,6,8,10,12,14,-1,-1,-1,-1,-1,-1,-1,-1],"split_conditions":[6.5E1,1E0,1E0,5E0,9.44E1,6.546E2,6.5E1,5.9139755E-2,-7.91627E-1,1.6300452E0,4.5066123E0,7.0544744E-1,3.5024326E0,-1.506385E-1,2.1021225E0],"split_indices":[11,3,20,14,10,9,5,0,0,0,0,0,0,0,0],"split_type":[0,0,0,0,0,0,0,0,0,0,0,0,0,0,0],"sum_hessian":[2.37E2,1.78E2,5.9E1,1.69E2,9E0,2.4E1,3.5E1,6.5E1,1.04E2,6E0,3E0,1.1E1,1.3E1,2.5E1,1E1],"tree_param":{"num_deleted":"0","num_feature":"30","num_nodes":"15","size_leaf_vector":"1"}},{"base_weights":[4.7925907E-1,-3.2947621E0,2.3217522E1,-1.01367655E1,1.2210432E0,3.4327545E1,1.0817637E1,-2.045086E0,-5.419762E-1,-4.2244446E-2,1.4633902E0,4.1503344E0,-1.163578E-1,7.585121E-2,3.080947E0],"categories":[],"categories_nodes":[],"categories_segments":[],"categories_sizes":[],"default_left":[0,0,0,0,0,0,0,0,0,0,0,0,0,0,0],"id":16,"left_children":[1,3,5,7,9,11,13,-1,-1,-1,-1,-1,-1,-1,-1],"loss_changes":[2.1101094E4,6.5316777E3,4.4503633E3,3.9758965E3,2.827797E3,4.6324785E3,3.5964365E3,0E0,0E0,0E0,0E0,0E0,0E0,0E0,0E0],"parents":[2147483647,0,0,1,1,2,2,3,3,4,4,5,5,6,6],"right_children":[2,4,6,8,10,12,14,-1,-1,-1,-1,-1,-1,-1,-1],"split_conditions":[1.618E2,1.186E2,1E0,1E0,3.4E1,2.42E2,2.37E2,-2.045086E0,-5.419762E-1,-4.2244446E-2,1.4633902E0,4.1503344E0,-1.163578E-1,7.585121E-2,3.080947E0],"split_indices":[13,13,20,20,4,0,0,0,0,0,0,0,0,0,0],"split_type":[0,0,0,0,0,0,0,0,0,0,0,0,0,0,0],"sum_hessian":[2.44E2,2.1E2,3.4E1,8.3E1,1.27E2,1.7E1,1.7E1,2.5E1,5.8E1,1.14E2,1.3E1,1.4E1,3E0,1.2E1,5E0],"tree_param":{"num_deleted":"0","num_feature":"30","num_nodes":"15","size_leaf_vector":"1"}},{"base_weights":[-1.355626E0,-8.712139E0,1.8314822E0,-6.131951E0,-2.358007E1,-1.0156518E1,5.8452244E0,5.999035E-1,-1.1762613E0,-2.7097932E-1,-3.7041955E0,-1.3894746E0,2.7895777E0,3.3358371E0,4.6298772E-1],"categories":[],"categories_nodes":[],"categories_segments":[],"categories_sizes":[],"default_left":[0,0,0,0,0,0,0,0,0,0,0,0,0,0,0],"id":17,"left_children":[1,3,5,7,9,11,13,-1,-1,-1,-1,-1,-1,-1,-1],"loss_changes":[5.4319824E3,2.5407515E3,7.854279E3,4.237198E3,2.7091567E3,6.2197793E3,3.9249941E3,0E0,0E0,0E0,0E0,0E0,0E0,0E0,0E0],"parents":[2147483647,0,0,1,1,2,2,3,3,4,4,5,5,6,6],"right_children":[2,4,6,8,10,12,14,-1,-1,-1,-1,-1,-1,-1,-1],"split_conditions":[4.002E2,3.858E2,1.7E2,1E0,3.21E2,2.53E2,4.06E1,5.999035E-1,-1.1762613E0,-2.7097932E-1,-3.7041955E0,-1.3894746E0,2.7895777E0,3.3358371E0,4.6298772E-1],"split_indices":[9,9,6,20,0,0,11,0,0,0,0,0,0,0,0],"split_type":[0,0,0,0,0,0,0,0,0,0,0,0,0,0,0],"sum_hessian":[2.3E2,6.9E1,1.61E2,6E1,9E0,4E1,1.21E2,1.9E1,4.1E1,4E0,5E0,3.7E1,3E0,4E0,1.17E2],"tree_param":{"num_deleted":"0","num_feature":"30","num_nodes":"15","size_leaf_vector":"1"}},{"base_weights":[1.3867466E-1,-3.9412067E0,1.5149865E1,-1.7074583E1,-2.4142468E0,2.5496836E1,8.532917E0,1.7328085E-1,-2.391528E0,-1.7910353E0,-1.4118563E-1,1.5237745E0,3.5202744E0,1.5384707E0,-3.154369E0],"categories":[],"categories_nodes":[],"categories_segments":[],"categories_sizes":[],"default_left":[0,0,0,0,0,0,0,0,0,0,0,0,0,0,0],"id":18,"left_children":[1,3,5,7,9,11,13,-1,-1,-1,-1,-1,-1,-1,-1],"loss_changes":[1.4329531E4,3.6487393E3,3.205706E3,2.485898E3,2.5532158E3,1.3554922E3,9.272379E3,0E0,0E0,0E0,0E0,0E0,0E0,0E0,0E0],"parents":[2147483647,0,0,1,1,2,2,3,3,4,4,5,5,6,6],"right_children":[2,4,6,8,10,12,14,-1,-1,-1,-1,-1,-1,-1,-1],"split_conditions":[1.844E2,3E2,1E0,3.3E2,6.6E1,2.23E2,2.35E2,1.7328085E-1,-2.391528E0,-1.7910353E0,-1.4118563E-1,1.5237745E0,3.5202744E0,1.5384707E0,-3.154369E0],"split_indices":[10,9,20,0,5,0,0,0,0,0,0,0,0,0,0],"split_type":[0,0,0,0,0,0,0,0,0,0,0,0,0,0,0],"sum_hessian":[2.32E2,1.83E2,4.9E1,1.8E1,1.65E2,1.8E1,3.1E1,5E0,1.3E1,9E0,1.56E2,1E1,8E0,2.7E1,4E0],"tree_param":{"num_deleted":"0","num_feature":"30","num_nodes":"15","size_leaf_vector":"1"}},{"base_weights":[-7.565505E-1,-3.5170987E0,1.5827755E1,-1.260642E0,-1.02631235E1,2.2331524E1,6.3023214E0,-2.1500635E-1,3.4631374E0,-2.3333273E0,-5.9732413E-1,7.495005E-1,5.093385E0,-3.073497E0,1.7213618E0],"categories":[],"categories_nodes":[],"categories_segments":[],"categories_sizes":[],"default_left":[0,0,0,0,0,0,0,0,0,0,0,0,0,0,0],"id":19,"left_children":[1,3,5,7,9,11,13,-1,-1,-1,-1,-1,-1,-1,-1],"loss_changes":[1.1546894E4,3.2750383E3,2.089503E3,5.277929E3,2.888373E3,8.529789E3,6.995057E3,0E0,0E0,0E0,0E0,0E0,0E0,0E0,0E0],"parents":[2147483647,0,0,1,1,2,2,3,3,4,4,5,5,6,6],"right_children":[2,4,6,8,10,12,14,-1,-1,-1,-1,-1,-1,-1,-1],"split_conditions":[9.3E1,3.18E2,2.34E2,3.14E2,3.37E2,2.24E2,2.37E2,-2.1500635E-1,3.4631374E0,-2.3333273E0,-5.9732413E-1,7.495005E-1,5.093385E0,-3.073497E0,1.7213618E0],"split_indices":[12,0,0,0,0,0,0,0,0,0,0,0,0,0,0],"split_type":[0,0,0,0,0,0,0,0,0,0,0,0,0,0,0],"sum_hessian":[2.5E2,2.15E2,3.5E1,1.62E2,5.3E1,2E1,1.5E1,1.59E2,3E0,1.2E1,4.1E1,1.4E1,6E0,3E0,1.2E1],"tree_param":{"num_deleted":"0","num_feature":"30","num_nodes":"15","size_leaf_vector":"1"}},{"base_weights":[-1.916463E0,1.70766E0,-6.5387845E0,-3.4231666E-1,3.9827557E0,-9.787393E0,7.231107E0,-6.572568E-1,5.707066E-1,-1.1357069E0,9.7741956E-1,1.4736685E-1,2.536018E0],"categories":[],"categories_nodes":[],"categories_segments":[],"categories_sizes":[],"default_left":[0,0,0,0,0,0,0,0,0,0,0,0,0],"id":20,"left_children":[1,3,5,7,-1,9,11,-1,-1,-1,-1,-1,-1],"loss_changes":[4.081868E3,1.0719484E4,4.8572036E3,4.974792E3,0E0,2.782371E3,2.1545447E3,0E0,0E0,0E0,0E0,0E0,0E0],"parents":[2147483647,0,0,1,1,2,2,3,3,5,5,6,6],"right_children":[2,4,6,8,-1,10,12,-1,-1,-1,-1,-1,-1],"split_conditions":[2.31E2,2.21E2,3.75E2,2.6E1,3.9827557E0,1E0,1.83E2,-6.572568E-1,5.707066E-1,-1.1357069E0,9.7741956E-1,1.4736685E-1,2.536018E0],"split_indices":[0,0,0,4,0,21,6,0,0,0,0,0,0],"split_type":[0,0,0,0,0,0,0,0,0,0,0,0,0],"sum_hessian":[2.42E2,1.36E2,1.06E2,1.3E2,6E0,8.6E1,2E1,6.4E1,6.6E1,8E1,6E0,1.6E1,4E0],"tree_param":{"num_deleted":"0","num_feature":"30","num_nodes":"13","size_leaf_vector":"1"}},{"base_weights":[2.9423955E-1,-3.536408E0,1.0398806E1,-4.981528E0,1.4986639E1,-1.089671E1,1.3231007E1,-1.7481822E0,-2.9064372E-1,-1.686167E0,2.520542E0,-3.4943235E0,2.789725E0,9.8686564E-1,2.566264E0],"categories":[],"categories_nodes":[],"categories_segments":[],"categories_sizes":[],"default_left":[0,0,0,0,0,0,0,0,0,0,0,0,0,0,0],"id":21,"left_children":[1,3,5,7,9,11,13,-1,-1,-1,-1,-1,-1,-1,-1],"loss_changes":[1.013931E4,5.1605815E3,4.486723E3,4.540436E3,4.9813184E3,9.370559E3,2.421912E3,0E0,0E0,0E0,0E0,0E0,0E0,0E0,0E0],"parents":[2147483647,0,0,1,1,2,2,3,3,4,4,5,5,6,6],"right_children":[2,4,6,8,10,12,14,-1,-1,-1,-1,-1,-1,-1,-1],"split_conditions":[6.5E1,1E0,9E0,4.06E1,5E0,1E0,1.07432E4,-1.7481822E0,-2.9064372E-1,-1.686167E0,2.520542E0,-3.4943235E0,2.789725E0,9.8686564E-1,2.566264E0],"split_indices":[11,3,0,11,14,18,8,0,0,0,0,0,0,0,0],"split_type":[0,0,0,0,0,0,0,0,0,0,0,0,0,0,0],"sum_hessian":[2.6E2,1.89E2,7.1E1,1.76E2,1.3E1,8E0,6.3E1,2.4E1,1.52E2,3E0,1E1,5E0,3E0,5.1E1,1.2E1],"tree_param":{"num_deleted":"0","num_feature":"30","num_nodes":"15","size_leaf_vector":"1"}},{"base_weights":[1.3304721E0,-1.2441305E0,9.285708E0,5.875664E0,-3.3813007E0,1.2386987E1,-1.0506755E0,7.4285215E-1,-1.1510034E0,-2.5113657E-1,-1.4961281E0,8.001906E-1,3.2764015E0,-1.6421683E0,1.8862143E0],"categories":[],"categories_nodes":[],"categories_segments":[],"categories_sizes":[],"default_left":[0,0,0,0,0,0,0,0,0,0,0,0,0,0,0],"id":22,"left_children":[1,3,5,7,9,11,13,-1,-1,-1,-1,-1,-1,-1,-1],"loss_changes":[5.1114644E3,2.8957317E3,1.9684302E3,1.2733927E3,1.4332058E3,3.9375054E3,4.900949E3,0E0,0E0,0E0,0E0,0E0,0E0,0E0,0E0],"parents":[2147483647,0,0,1,1,2,2,3,3,4,4,5,5,6,6],"right_children":[2,4,6,8,10,12,14,-1,-1,-1,-1,-1,-1,-1,-1],"split_conditions":[6.5E1,6.9E1,2.34E2,3.82E2,3.98E2,2.24E2,3.45E2,7.4285215E-1,-1.1510034E0,-2.5113657E-1,-1.4961281E0,8.001906E-1,3.2764015E0,-1.6421683E0,1.8862143E0],"split_indices":[11,5,0,0,0,0,0,0,0,0,0,0,0,0,0],"split_type":[0,0,0,0,0,0,0,0,0,0,0,0,0,0,0],"sum_hessian":[2.48E2,1.88E2,6E1,4.3E1,1.45E2,4.6E1,1.4E1,4E1,3E0,1.36E2,9E0,3.9E1,7E0,8E0,6E0],"tree_param":{"num_deleted":"0","num_feature":"30","num_nodes":"15","size_leaf_vector":"1"}},{"base_weights":[1.7775533E0,-3.0672457E0,6.8125763E0,-2.4854597E1,-1.1291687E0,3.598041E0,2.864585E1,-6.900286E-1,-3.1563547E0,1.6453923E-1,-1.4251875E0,1.5269706E0,-4.8827942E-2,4.913191E0,-1.7856358E-1],"categories":[],"categories_nodes":[],"categories_segments":[],"categories_sizes":[],"default_left":[0,0,0,0,0,0,0,0,0,0,0,0,0,0,0],"id":23,"left_children":[1,3,5,7,9,11,13,-1,-1,-1,-1,-1,-1,-1,-1],"loss_changes":[5.8753774E3,5.165679E3,8.1786216E3,9.8674756E2,4.174161E3,4.967649E3,9.439053E3,0E0,0E0,0E0,0E0,0E0,0E0,0E0,0E0],"parents":[2147483647,0,0,1,1,2,2,3,3,4,4,5,5,6,6],"right_children":[2,4,6,8,10,12,14,-1,-1,-1,-1,-1,-1,-1,-1],"split_conditions":[4.838E2,7.5E1,2.37E2,3.3E1,1E0,1E0,2.55E2,-6.900286E-1,-3.1563547E0,1.6453923E-1,-1.4251875E0,1.5269706E0,-4.8827942E-2,4.913191E0,-1.7856358E-1],"split_indices":[9,0,0,0,18,19,0,0,0,0,0,0,0,0,0],"split_type":[0,0,0,0,0,0,0,0,0,0,0,0,0,0,0],"sum_hessian":[2.39E2,1.22E2,1.17E2,9E0,1.13E2,1.03E2,1.4E1,3E0,6E0,9.4E1,1.9E1,2.6E1,7.7E1,8E0,6E0],"tree_param":{"num_deleted":"0","num_feature":"30","num_nodes":"15","size_leaf_vector":"1"}},{"base_weights":[5.6749654E-1,-5.563967E-1,1.7987473E1,4.318015E-1,-2.2636396E1,2.3930506E1,-4.338499E-1,-1.046876E0,1.9789279E-1,-4.683603E0,-5.5742645E-1,8.3879536E-1,3.383405E0],"categories":[],"categories_nodes":[],"categories_segments":[],"categories_sizes":[],"default_left":[0,0,0,0,0,0,0,0,0,0,0,0,0],"id":24,"left_children":[1,3,5,7,9,11,-1,-1,-1,-1,-1,-1,-1],"loss_changes":[4.845822E3,5.093698E3,2.094083E3,3.798375E3,3.8678965E3,1.5633179E3,0E0,0E0,0E0,0E0,0E0,0E0,0E0],"parents":[2147483647,0,0,1,1,2,2,3,3,4,4,5,5],"right_children":[2,4,6,8,10,12,-1,-1,-1,-1,-1,-1,-1],"split_conditions":[1E0,2.582E2,1.79E2,4.06E1,2.02E2,4.4E1,-4.338499E-1,-1.046876E0,1.9789279E-1,-4.683603E0,-5.5742645E-1,8.3879536E-1,3.383405E0],"split_indices":[3,10,6,11,0,0,0,0,0,0,0,0,0],"split_type":[0,0,0,0,0,0,0,0,0,0,0,0,0],"sum_hessian":[2.46E2,2.32E2,1.4E1,2.23E2,9E0,1.1E1,3E0,2.7E1,1.96E2,3E0,6E0,5E0,6E0],"tree_param":{"num_deleted":"0","num_feature":"30","num_nodes":"13","size_leaf_vector":"1"}},{"base_weights":[-1.7740439E0,-2.6367478E0,1.4421989E1,-5.700189E0,4.001797E0,2.8497174E0,-6.748589E-1,-7.762868E-1,1.9548459E-2,7.313794E-1,-7.2605133E-1],"categories":[],"categories_nodes":[],"categories_segments":[],"categories_sizes":[],"default_left":[0,0,0,0,0,0,0,0,0,0,0],"id":25,"left_children":[1,3,5,7,9,-1,-1,-1,-1,-1,-1],"loss_changes":[3.5870127E3,4.9443145E3,4.066053E3,2.0202236E3,2.9252583E3,0E0,0E0,0E0,0E0,0E0,0E0],"parents":[2147483647,0,0,1,1,2,2,3,3,4,4],"right_children":[2,4,6,8,10,-1,-1,-1,-1,-1,-1],"split_conditions":[1E0,9.84E1,1.79E2,1.616E2,1E0,2.8497174E0,-6.748589E-1,-7.762868E-1,1.9548459E-2,7.313794E-1,-7.2605133E-1],"split_indices":[3,7,6,10,18,0,0,0,0,0,0],"split_type":[0,0,0,0,0,0,0,0,0,0,0],"sum_hessian":[2.53E2,2.41E2,1.2E1,1.65E2,7.6E1,7E0,5E0,1.22E2,4.3E1,5.9E1,1.7E1],"tree_param":{"num_deleted":"0","num_feature":"30","num_nodes":"11","size_leaf_vector":"1"}},{"base_weights":[7.6850414E-1,5.0660768E0,-1.722975E0,1.1525452E1,-4.4163365E0,1.2779026E0,-1.1652298E1,8.0211794E-1,2.649256E0,-9.4569176E-1,8.8157177E-1,-5.568926E-1,4.2883858E-1,-7.0225334E-1,-3.440233E0],"categories":[],"categories_nodes":[],"categories_segments":[],"categories_sizes":[],"default_left":[0,0,0,0,0,0,0,0,0,0,0,0,0,0,0],"id":26,"left_children":[1,3,5,7,9,11,13,-1,-1,-1,-1,-1,-1,-1,-1],"loss_changes":[2.6855566E3,5.6859434E3,4.752563E3,2.6721836E3,2.6178647E3,2.5591904E3,3.6555186E3,0E0,0E0,0E0,0E0,0E0,0E0,0E0,0E0],"parents":[2147483647,0,0,1,1,2,2,3,3,4,4,5,5,6,6],"right_children":[2,4,6,8,10,12,14,-1,-1,-1,-1,-1,-1,-1,-1],"split_conditions":[1E0,2.68E2,5.82E2,2.21E2,7.8E1,2.85E1,2.24E2,8.0211794E-1,2.649256E0,-9.4569176E-1,8.8157177E-1,-5.568926E-1,4.2883858E-1,-7.0225334E-1,-3.440233E0],"split_indices":[20,0,9,0,5,17,0,0,0,0,0,0,0,0,0],"split_type":[0,0,0,0,0,0,0,0,0,0,0,0,0,0,0],"sum_hessian":[2.49E2,9.1E1,1.58E2,5.4E1,3.7E1,1.22E2,3.6E1,4.5E1,9E0,2.7E1,1E1,3.7E1,8.5E1,3.1E1,5E0],"tree_param":{"num_deleted":"0","num_feature":"30","num_nodes":"15","size_leaf_vector":"1"}},{"base_weights":[9.920211E-1,8.9830175E-2,1.3298989E1,1.9310288E0,-7.6452003E0,2.3493832E1,-1.5867401E0,-1.1517657E0,5.7345E-1,8.385655E-1,-2.3343656E0,3.7898622E0,1.5382533E0],"categories":[],"categories_nodes":[],"categories_segments":[],"categories_sizes":[],"default_left":[0,0,0,0,0,0,0,0,0,0,0,0,0],"id":27,"left_children":[1,3,5,7,9,11,-1,-1,-1,-1,-1,-1,-1],"loss_changes":[2.763511E3,3.3330857E3,5.4276807E3,9.733718E3,1.15204375E4,9.359634E2,0E0,0E0,0E0,0E0,0E0,0E0,0E0],"parents":[2147483647,0,0,1,1,2,2,3,3,4,4,5,5],"right_children":[2,4,6,8,10,12,-1,-1,-1,-1,-1,-1,-1],"split_conditions":[1E0,1E0,9.82E1,9.4E1,1.9E2,4.08E2,-1.5867401E0,-1.1517657E0,5.7345E-1,8.385655E-1,-2.3343656E0,3.7898622E0,1.5382533E0],"split_indices":[3,18,7,0,0,9,0,0,0,0,0,0,0],"split_type":[0,0,0,0,0,0,0,0,0,0,0,0,0],"sum_hessian":[2.48E2,2.32E2,1.6E1,1.88E2,4.4E1,1.2E1,4E0,4.1E1,1.47E2,2.2E1,2.2E1,3E0,9E0],"tree_param":{"num_deleted":"0","num_feature":"30","num_nodes":"13","size_leaf_vector":"1"}},{"base_weights":[-3.994321E-1,-3.4771783E0,2.3667154E0,-1.7862613E0,-2.2405914E1,2.1292578E-1,1.42537E1,-1.1794285E0,6.004352E-2,-3.4013538E0,3.5089037E-1,2.4618606E-1,-1.3160919E0,1.7633031E-1,2.1804461E0],"categories":[],"categories_nodes":[],"categories_segments":[],"categories_sizes":[],"default_left":[0,0,0,0,0,0,0,0,0,0,0,0,0,0,0],"id":28,"left_children":[1,3,5,7,9,11,13,-1,-1,-1,-1,-1,-1,-1,-1],"loss_changes":[2.213226E3,3.8968286E3,3.5044482E3,2.7300989E3,3.1274443E3,3.5513982E3,1.9421035E3,0E0,0E0,0E0,0E0,0E0,0E0,0E0,0E0],"parents":[2147483647,0,0,1,1,2,2,3,3,4,4,5,5,6,6],"right_children":[2,4,6,8,10,12,14,-1,-1,-1,-1,-1,-1,-1,-1],"split_conditions":[9.64E1,9.52E1,3.37E2,1E0,2.56E2,2.42E2,1E0,-1.1794285E0,6.004352E-2,-3.4013538E0,3.5089037E-1,2.4618606E-1,-1.3160919E0,1.7633031E-1,2.1804461E0],"split_indices":[7,7,0,19,0,0,20,0,0,0,0,0,0,0,0],"split_type":[0,0,0,0,0,0,0,0,0,0,0,0,0,0,0],"sum_hessian":[2.58E2,1.22E2,1.36E2,1.13E2,9E0,1.16E2,2E1,2.1E1,9.2E1,6E0,3E0,1E2,1.6E1,8E0,1.2E1],"tree_param":{"num_deleted":"0","num_feature":"30","num_nodes":"15","size_leaf_vector":"1"}},{"base_weights":[2.158825E0,5.9923655E-1,3.447035E1,-4.7709336E0,1.8989351E0,3.9742277E0,1.3990921E0,-1.1903655E-1,-1.7031955E0,8.847042E-2,1.5455415E0],"categories":[],"categories_nodes":[],"categories_segments":[],"categories_sizes":[],"default_left":[0,0,0,0,0,0,0,0,0,0,0],"id":29,"left_children":[1,3,5,7,9,-1,-1,-1,-1,-1,-1],"loss_changes":[1.3131832E4,1.7539603E3,7.395615E2,2.1308955E3,2.7637056E3,0E0,0E0,0E0,0E0,0E0,0E0],"parents":[2147483647,0,0,1,1,2,2,3,3,4,4],"right_children":[2,4,6,8,10,-1,-1,-1,-1,-1,-1],"split_conditions":[1.16638E4,9E1,2.39E2,1E0,3.45E2,3.9742277E0,1.3990921E0,-1.1903655E-1,-1.7031955E0,8.847042E-2,1.5455415E0],"split_indices":[8,13,0,18,0,0,0,0,0,0,0],"split_type":[0,0,0,0,0,0,0,0,0,0,0],"sum_hessian":[2.6E2,2.49E2,1.1E1,4.8E1,2.01E2,8E0,3E0,3.8E1,1E1,1.88E2,1.3E1],"tree_param":{"num_deleted":"0","num_feature":"30","num_nodes":"11","size_leaf_vector":"1"}},{"base_weights":[6.441129E-1,2.0446985E0,-8.43868E0,1.3814226E0,1.5305225E0,-1.0784654E1,1.3025274E0,1.9728956E-1,-7.5893444E-1,-6.231829E-1,-2.0632968E0],"categories":[],"categories_nodes":[],"categories_segments":[],"categories_sizes":[],"default_left":[0,0,0,0,0,0,0,0,0,0,0],"id":30,"left_children":[1,3,5,7,-1,9,-1,-1,-1,-1,-1],"loss_changes":[3.4265432E3,2.0281818E3,1.9532126E3,1.1982032E3,0E0,1.3510613E3,0E0,0E0,0E0,0E0,0E0],"parents":[2147483647,0,0,1,1,2,2,3,3,5,5],"right_children":[2,4,6,8,-1,10,-1,-1,-1,-1,-1],"split_conditions":[3.55E2,3.45E2,4.11E2,3.3E2,1.5305225E0,3.98E2,1.3025274E0,1.9728956E-1,-7.5893444E-1,-6.231829E-1,-2.0632968E0],"split_indices":[0,0,0,0,0,0,0,0,0,0,0],"split_type":[0,0,0,0,0,0,0,0,0,0,0],"sum_hessian":[2.67E2,2.32E2,3.5E1,2.22E2,1E1,3.2E1,3E0,2.09E2,1.3E1,2.3E1,9E0],"tree_param":{"num_deleted":"0","num_feature":"30","num_nodes":"11","size_leaf_vector":"1"}},{"base_weights":[-1.363656E0,9.359381E0,-3.3580806E0,6.248298E0,3.5019276E0,-8.155675E0,-1.4612849E0,1.2403674E0,-7.096094E-1,-4.699975E-1,-2.1298838E0,-6.0187098E-2,-1.9054676E0],"categories":[],"categories_nodes":[],"categories_segments":[],"categories_sizes":[],"default_left":[0,0,0,0,0,0,0,0,0,0,0,0,0],"id":31,"left_children":[1,3,5,7,-1,9,11,-1,-1,-1,-1,-1,-1],"loss_changes":[5.313843E3,2.8945608E3,1.8899941E3,3.0450486E3,0E0,2.5796072E3,2.2716526E3,0E0,0E0,0E0,0E0,0E0,0E0],"parents":[2147483647,0,0,1,1,2,2,3,3,5,5,6,6],"right_children":[2,4,6,8,-1,10,12,-1,-1,-1,-1,-1,-1],"split_conditions":[1.7E2,2.53E2,1.03E2,2.07E2,3.5019276E0,1E0,3.93E2,1.2403674E0,-7.096094E-1,-4.699975E-1,-2.1298838E0,-6.0187098E-2,-1.9054676E0],"split_indices":[6,0,13,0,0,18,0,0,0,0,0,0,0],"split_type":[0,0,0,0,0,0,0,0,0,0,0,0,0],"sum_hessian":[2.46E2,3.8E1,2.08E2,3.5E1,3E0,5.8E1,1.5E2,2.4E1,1.1E1,4.7E1,1.1E1,1.44E2,6E0],"tree_param":{"num_deleted":"0","num_feature":"30","num_nodes":"13","size_leaf_vector":"1"}},{"base_weights":[-2.0230033E0,8.561334E-1,-7.6875267E0,-3.6333442E-1,2.1898449E1,-1.9623554E1,-3.32817E0,2.2508502E-1,-7.285514E-1,4.6495457E0,-7.078249E-1,-2.906496E0,-1.6603069E0,2.8197906E0,-5.988553E-1],"categories":[],"categories_nodes":[],"categories_segments":[],"categories_sizes":[],"default_left":[0,0,0,0,0,0,0,0,0,0,0,0,0,0,0],"id":32,"left_children":[1,3,5,7,9,11,13,-1,-1,-1,-1,-1,-1,-1,-1],"loss_changes":[4.01858E3,4.2162666E3,4.253462E3,2.839352E3,6.7437666E3,1.4481934E2,5.368894E3,0E0,0E0,0E0,0E0,0E0,0E0,0E0,0E0],"parents":[2147483647,0,0,1,1,2,2,3,3,4,4,5,5,6,6],"right_children":[2,4,6,8,10,12,14,-1,-1,-1,-1,-1,-1,-1,-1],"split_conditions":[2.68E2,2.53E2,3.13E2,3E1,1E0,2.76E2,3.21E2,2.2508502E-1,-7.285514E-1,4.6495457E0,-7.078249E-1,-2.906496E0,-1.6603069E0,2.8197906E0,-5.988553E-1],"split_indices":[0,0,0,4,20,0,0,0,0,0,0,0,0,0,0],"split_type":[0,0,0,0,0,0,0,0,0,0,0,0,0,0,0],"sum_hessian":[2.45E2,1.63E2,8.2E1,1.55E2,8E0,2.1E1,6.1E1,1.13E2,4.2E1,4E0,4E0,3E0,1.8E1,4E0,5.7E1],"tree_param":{"num_deleted":"0","num_feature":"30","num_nodes":"15","size_leaf_vector":"1"}},{"base_weights":[7.243439E-1,3.706189E0,-3.6251814E0,-1.1333807E1,4.7465706E0,-7.1078606E0,2.519082E0,-4.846444E-1,-1.9853241E0,5.4382765E-1,-1.5155482E0,-1.9073662E-1,-1.3284875E0,5.7380146E-1,-5.9035724E-1],"categories":[],"categories_nodes":[],"categories_segments":[],"categories_sizes":[],"default_left":[0,0,0,0,0,0,0,0,0,0,0,0,0,0,0],"id":33,"left_children":[1,3,5,7,9,11,13,-1,-1,-1,-1,-1,-1,-1,-1],"loss_changes":[3.2817778E3,2.4008962E3,2.2219507E3,4.56469E2,2.0234773E3,2.094814E3,1.0641294E3,0E0,0E0,0E0,0E0,0E0,0E0,0E0,0E0],"parents":[2147483647,0,0,1,1,2,2,3,3,4,4,5,5,6,6],"right_children":[2,4,6,8,10,12,14,-1,-1,-1,-1,-1,-1,-1,-1],"split_conditions":[2.95E1,5.7E1,2.87E2,5.2E1,1E0,8.4E1,3.64E2,-4.846444E-1,-1.9853241E0,5.4382765E-1,-1.5155482E0,-1.9073662E-1,-1.3284875E0,5.7380146E-1,-5.9035724E-1],"split_indices":[17,0,0,0,3,0,0,0,0,0,0,0,0,0,0],"split_type":[0,0,0,0,0,0,0,0,0,0,0,0,0,0,0],"sum_hessian":[2.51E2,1.49E2,1.02E2,9E0,1.4E2,6.5E1,3.7E1,6E0,3E0,1.36E2,4E0,3.6E1,2.9E1,2.7E1,1E1],"tree_param":{"num_deleted":"0","num_feature":"30","num_nodes":"15","size_leaf_vector":"1"}},{"base_weights":[-1.9105649E-1,2.755134E0,-2.5380847E0,-3.3737087E-1,7.770079E0,-3.9399729E0,5.9300537E0,4.9559805E-1,-1.355388E0,2.624416E0,1.9364163E-1,3.4198627E-1,-6.349474E-1,9.01831E-1,-8.6775464E-1],"categories":[],"categories_nodes":[],"categories_segments":[],"categories_sizes":[],"default_left":[0,0,0,0,0,0,0,0,0,0,0,0,0,0,0],"id":34,"left_children":[1,3,5,7,9,11,13,-1,-1,-1,-1,-1,-1,-1,-1],"loss_changes":[1.7149464E3,1.7085833E3,1.6616152E3,4.894387E3,4.475585E3,2.1320044E3,9.804968E2,0E0,0E0,0E0,0E0,0E0,0E0,0E0,0E0],"parents":[2147483647,0,0,1,1,2,2,3,3,4,4,5,5,6,6],"right_children":[2,4,6,8,10,12,14,-1,-1,-1,-1,-1,-1,-1,-1],"split_conditions":[1.77E2,2.64E2,1E0,2.35E2,2.79E2,1E0,3.55E2,4.9559805E-1,-1.355388E0,2.624416E0,1.9364163E-1,3.4198627E-1,-6.349474E-1,9.01831E-1,-8.6775464E-1],"split_indices":[6,0,2,0,0,19,0,0,0,0,0,0,0,0,0],"split_type":[0,0,0,0,0,0,0,0,0,0,0,0,0,0,0],"sum_hessian":[2.46E2,1.09E2,1.37E2,6.8E1,4.1E1,1.18E2,1.9E1,4.9E1,1.9E1,9E0,3.2E1,2.9E1,8.9E1,1.6E1,3E0],"tree_param":{"num_deleted":"0","num_feature":"30","num_nodes":"15","size_leaf_vector":"1"}},{"base_weights":[2.488332E0,3.534331E0,-1.6289677E1,2.7923062E0,1.4033334E1,-3.1926752E1,7.274704E-1,-8.5034066E-1,3.9191848E-1,2.5743368E0,5.6913186E-2,-4.234308E0,-1.720834E0],"categories":[],"categories_nodes":[],"categories_segments":[],"categories_sizes":[],"default_left":[0,0,0,0,0,0,0,0,0,0,0,0,0],"id":35,"left_children":[1,3,5,7,9,11,-1,-1,-1,-1,-1,-1,-1],"loss_changes":[4.8305254E3,1.7604246E3,5.022472E3,2.795497E3,2.3503428E3,4.9783984E2,0E0,0E0,0E0,0E0,0E0,0E0,0E0],"parents":[2147483647,0,0,1,1,2,2,3,3,4,4,5,5],"right_children":[2,4,6,8,10,12,-1,-1,-1,-1,-1,-1,-1],"split_conditions":[1.16638E4,1E0,2.37E2,4.06E1,9.6094E3,2.24E2,7.274704E-1,-8.5034066E-1,3.9191848E-1,2.5743368E0,5.6913186E-2,-4.234308E0,-1.720834E0],"split_indices":[8,3,0,11,8,0,0,0,0,0,0,0,0],"split_type":[0,0,0,0,0,0,0,0,0,0,0,0,0],"sum_hessian":[2.42E2,2.3E2,1.2E1,2.16E2,1.4E1,7E0,5E0,1.9E1,1.97E2,7E0,7E0,3E0,4E0],"tree_param":{"num_deleted":"0","num_feature":"30","num_nodes":"13","size_leaf_vector":"1"}},{"base_weights":[-4.5017487E-1,-2.4495956E1,3.3363175E-1,3.636345E-1,-4.210261E0,1.0689826E1,-5.308477E-1,-6.5303515E-3,2.913652E0,-2.1821165E-1,5.1000255E-1],"categories":[],"categories_nodes":[],"categories_segments":[],"categories_sizes":[],"default_left":[0,0,0,0,0,0,0,0,0,0,0],"id":36,"left_children":[1,3,5,-1,-1,7,9,-1,-1,-1,-1],"loss_changes":[4.776525E3,4.115623E3,2.208043E3,0E0,0E0,3.7714382E3,2.1310925E3,0E0,0E0,0E0,0E0],"parents":[2147483647,0,0,1,1,2,2,5,5,6,6],"right_children":[2,4,6,-1,-1,8,10,-1,-1,-1,-1],"split_conditions":[1.2E1,1E0,4.2E1,3.636345E-1,-4.210261E0,3.1E1,6.5E1,-6.5303515E-3,2.913652E0,-2.1821165E-1,5.1000255E-1],"split_indices":[0,19,0,0,0,0,11,0,0,0,0],"split_type":[0,0,0,0,0,0,0,0,0,0,0],"sum_hessian":[2.52E2,7E0,2.45E2,3E0,4E0,1.8E1,2.27E2,1.2E1,6E0,1.76E2,5.1E1],"tree_param":{"num_deleted":"0","num_feature":"30","num_nodes":"11","size_leaf_vector":"1"}},{"base_weights":[1.2551452E0,-1.1151426E1,3.0048716E0,-1.7267342E1,1.1410491E0,-5.012508E0,4.007053E0,-4.410625E0,-9.6942484E-1,8.190142E-2,-1.9291779E0,3.0130098E0,3.1334367E-1],"categories":[],"categories_nodes":[],"categories_segments":[],"categories_sizes":[],"default_left":[0,0,0,0,0,0,0,0,0,0,0,0,0],"id":37,"left_children":[1,3,5,7,-1,9,11,-1,-1,-1,-1,-1,-1],"loss_changes":[5.2651616E3,4.336633E3,1.7234768E3,4.4505083E3,0E0,2.0142776E3,4.2188545E3,0E0,0E0,0E0,0E0,0E0,0E0],"parents":[2147483647,0,0,1,1,2,2,3,3,5,5,6,6],"right_children":[2,4,6,8,-1,10,12,-1,-1,-1,-1,-1,-1],"split_conditions":[2.65E1,1E0,3.4E1,1.81E2,1.1410491E0,2.5E1,4.7E1,-4.410625E0,-9.6942484E-1,8.190142E-2,-1.9291779E0,3.0130098E0,3.1334367E-1],"split_indices":[17,18,0,0,0,0,0,0,0,0,0,0,0],"split_type":[0,0,0,0,0,0,0,0,0,0,0,0,0],"sum_hessian":[2.4E2,2.9E1,2.11E2,2.3E1,6E0,2.3E1,1.88E2,4E0,1.9E1,1.7E1,6E0,5E0,1.83E2],"tree_param":{"num_deleted":"0","num_feature":"30","num_nodes":"13","size_leaf_vector":"1"}},{"base_weights":[-1.4918752E0,2.9696412E0,-6.957844E0,-2.0333399E-1,2.7572906E1,-2.7995512E1,-4.2083583E0,-5.3779054E-1,8.498675E-1,3.8685424E0,2.2032678E0,-6.9689256E-1,-3.3606594E0,-1.3501756E0,-2.0561805E-1],"categories":[],"categories_nodes":[],"categories_segments":[],"categories_sizes":[],"default_left":[0,0,0,0,0,0,0,0,0,0,0,0,0,0,0],"id":38,"left_children":[1,3,5,7,9,11,13,-1,-1,-1,-1,-1,-1,-1,-1],"loss_changes":[6.190448E3,1.0934783E4,6.4762607E3,5.6743516E3,1.3271094E2,1.2995625E3,2.0123444E3,0E0,0E0,0E0,0E0,0E0,0E0,0E0,0E0],"parents":[2147483647,0,0,1,1,2,2,3,3,4,4,5,5,6,6],"right_children":[2,4,6,8,10,12,14,-1,-1,-1,-1,-1,-1,-1,-1],"split_conditions":[2.32E2,2.02E2,2.53E2,1.00218E4,2.07E2,1E0,1E0,-5.3779054E-1,8.498675E-1,3.8685424E0,2.2032678E0,-6.9689256E-1,-3.3606594E0,-1.3501756E0,-2.0561805E-1],"split_indices":[0,0,0,8,0,19,19,0,0,0,0,0,0,0,0],"split_type":[0,0,0,0,0,0,0,0,0,0,0,0,0,0,0],"sum_hessian":[2.52E2,1.39E2,1.13E2,1.24E2,1.5E1,1.2E1,1.01E2,7.8E1,4.6E1,3E0,1.2E1,3E0,9E0,1.8E1,8.3E1],"tree_param":{"num_deleted":"0","num_feature":"30","num_nodes":"15","size_leaf_vector":"1"}},{"base_weights":[1.9238655E-1,1.0140877E0,-8.78037E0,-9.92257E-2,5.8406506E0,-1.772955E1,-1.2209725E0,2.52091E-1,-1.7441106E-1,1.5143259E-1,1.2246008E0,1.6927186E-1,-4.7286134E0,1.2769097E0,-1.5036619E0],"categories":[],"categories_nodes":[],"categories_segments":[],"categories_sizes":[],"default_left":[0,0,0,0,0,0,0,0,0,0,0,0,0,0,0],"id":39,"left_children":[1,3,5,7,9,11,13,-1,-1,-1,-1,-1,-1,-1,-1],"loss_changes":[1.9332373E3,1.290214E3,1.4666619E3,8.4912164E2,1.2284801E3,5.8206E3,2.704668E3,0E0,0E0,0E0,0E0,0E0,0E0,0E0,0E0],"parents":[2147483647,0,0,1,1,2,2,3,3,4,4,5,5,6,6],"right_children":[2,4,6,8,10,12,14,-1,-1,-1,-1,-1,-1,-1,-1],"split_conditions":[1.14668E4,1.07432E4,2.37E2,3.858E2,1.84E2,2.31E2,2.79E2,2.52091E-1,-1.7441106E-1,1.5143259E-1,1.2246008E0,1.6927186E-1,-4.7286134E0,1.2769097E0,-1.5036619E0],"split_indices":[8,8,0,9,0,0,0,0,0,0,0,0,0,0,0],"split_type":[0,0,0,0,0,0,0,0,0,0,0,0,0,0,0],"sum_hessian":[2.6E2,2.39E2,2.1E1,1.95E2,4.4E1,9E0,1.2E1,7.5E1,1.2E2,2.7E1,1.7E1,6E0,3E0,6E0,6E0],"tree_param":{"num_deleted":"0","num_feature":"30","num_nodes":"15","size_leaf_vector":"1"}},{"base_weights":[5.1623672E-2,-1.7899739E0,9.597495E0,1.5189701E0,-6.5474615E0,-4.8602104E0,2.0333109E1,6.673717E-3,1.0057591E0,4.194901E-1,-9.9071354E-1,8.3633965E-1,-2.4945848E0,2.9961586E0,1.1362501E0],"categories":[],"categories_nodes":[],"categories_segments":[],"categories_sizes":[],"default_left":[0,0,0,0,0,0,0,0,0,0,0,0,0,0,0],"id":40,"left_children":[1,3,5,7,9,11,13,-1,-1,-1,-1,-1,-1,-1,-1],"loss_changes":[4.1308184E3,3.111171E3,5.996892E3,1.4501367E3,2.9649167E3,4.7239097E3,1.5597744E3,0E0,0E0,0E0,0E0,0E0,0E0,0E0,0E0],"parents":[2147483647,0,0,1,1,2,2,3,3,4,4,5,5,6,6],"right_children":[2,4,6,8,10,12,14,-1,-1,-1,-1,-1,-1,-1,-1],"split_conditions":[7.78E1,1.206E2,2.26E2,1.19E2,1E0,2.15E2,2.42E2,6.673717E-3,1.0057591E0,4.194901E-1,-9.9071354E-1,8.3633965E-1,-2.4945848E0,2.9961586E0,1.1362501E0],"split_indices":[12,13,0,13,19,0,0,0,0,0,0,0,0,0,0],"split_type":[0,0,0,0,0,0,0,0,0,0,0,0,0,0,0],"sum_hessian":[2.33E2,1.96E2,3.7E1,1.16E2,8E1,1.6E1,2.1E1,1E2,1.6E1,1.9E1,6.1E1,1E1,6E0,9E0,1.2E1],"tree_param":{"num_deleted":"0","num_feature":"30","num_nodes":"15","size_leaf_vector":"1"}},{"base_weights":[7.619078E-1,1.7745647E0,-1.2864428E1,7.4860394E-1,1.088645E1,-1.6281738E0,-3.3192863E0,2.3014024E-1,-6.4061075E-1,2.1977277E0,2.1868287E-1,-4.9560148E-1,4.022006E-1],"categories":[],"categories_nodes":[],"categories_segments":[],"categories_sizes":[],"default_left":[0,0,0,0,0,0,0,0,0,0,0,0,0],"id":41,"left_children":[1,3,5,7,9,11,-1,-1,-1,-1,-1,-1,-1],"loss_changes":[3.3897368E3,2.1232942E3,3.8290193E3,2.303367E3,2.1711172E3,2.4556793E2,0E0,0E0,0E0,0E0,0E0,0E0,0E0],"parents":[2147483647,0,0,1,1,2,2,3,3,4,4,5,5],"right_children":[2,4,6,8,10,12,-1,-1,-1,-1,-1,-1,-1],"split_conditions":[9.1E1,3.72E2,8.6E1,3.18E2,3.88E2,8.1E1,-3.3192863E0,2.3014024E-1,-6.4061075E-1,2.1977277E0,2.1868287E-1,-4.9560148E-1,4.022006E-1],"split_indices":[5,0,0,0,0,0,0,0,0,0,0,0,0],"split_type":[0,0,0,0,0,0,0,0,0,0,0,0,0],"sum_hessian":[2.43E2,2.27E2,1.6E1,2.05E2,2.2E1,1.1E1,5E0,1.69E2,3.6E1,9E0,1.3E1,7E0,4E0],"tree_param":{"num_deleted":"0","num_feature":"30","num_nodes":"13","size_leaf_vector":"1"}},{"base_weights":[-1.2222785E0,6.262061E-1,-7.147866E0,3.1955361E0,-6.989693E0,8.611193E0,-9.3917265E0,-8.18525E-1,7.915713E-1,1.3103694E0,-1.7129023E0,1.2198416E0,1.9743662E-1,-4.8767796E-1,-1.6039418E0],"categories":[],"categories_nodes":[],"categories_segments":[],"categories_sizes":[],"default_left":[0,0,0,0,0,0,0,0,0,0,0,0,0,0,0],"id":42,"left_children":[1,3,5,7,9,11,13,-1,-1,-1,-1,-1,-1,-1,-1],"loss_changes":[2.764722E3,3.7989133E3,2.202542E3,7.8540947E3,1.0207394E4,1.6637805E2,1.5125195E3,0E0,0E0,0E0,0E0,0E0,0E0,0E0,0E0],"parents":[2147483647,0,0,1,1,2,2,3,3,4,4,5,5,6,6],"right_children":[2,4,6,8,10,12,14,-1,-1,-1,-1,-1,-1,-1,-1],"split_conditions":[3E1,1E0,8.76E1,6E0,6E0,1.7E1,1.79E2,-8.18525E-1,7.915713E-1,1.3103694E0,-1.7129023E0,1.2198416E0,1.9743662E-1,-4.8767796E-1,-1.6039418E0],"split_indices":[4,18,10,1,1,1,6,0,0,0,0,0,0,0,0],"split_type":[0,0,0,0,0,0,0,0,0,0,0,0,0,0,0],"sum_hessian":[2.51E2,1.92E2,5.9E1,1.44E2,4.8E1,7E0,5.2E1,4.2E1,1.02E2,1.6E1,3.2E1,4E0,3E0,3.2E1,2E1],"tree_param":{"num_deleted":"0","num_feature":"30","num_nodes":"15","size_leaf_vector":"1"}},{"base_weights":[9.721491E-1,2.3410846E-1,1.55904455E1,1.2829753E0,-1.1315133E1,-9.5336534E-2,2.1210978E1,-1.6167106E-1,3.379755E-1,2.4444826E-1,-5.3082876E0,2.938938E0,1.2223549E0],"categories":[],"categories_nodes":[],"categories_segments":[],"categories_sizes":[],"default_left":[0,0,0,0,0,0,0,0,0,0,0,0,0],"id":43,"left_children":[1,3,5,7,9,-1,11,-1,-1,-1,-1,-1,-1],"loss_changes":[2.6935742E3,2.9096714E3,1.136042E3,1.3430647E3,1.1623922E4,0E0,3.0228296E2,0E0,0E0,0E0,0E0,0E0,0E0],"parents":[2147483647,0,0,1,1,2,2,3,3,4,4,6,6],"right_children":[2,4,6,8,10,-1,12,-1,-1,-1,-1,-1,-1],"split_conditions":[1E0,1E0,2.1E1,1.84E2,5.82E2,-9.5336534E-2,4.16E2,-1.6167106E-1,3.379755E-1,2.4444826E-1,-5.3082876E0,2.938938E0,1.2223549E0],"split_indices":[3,2,0,0,9,0,9,0,0,0,0,0,0],"split_type":[0,0,0,0,0,0,0,0,0,0,0,0,0],"sum_hessian":[2.49E2,2.38E2,1.1E1,2.19E2,1.9E1,3E0,8E0,9.2E1,1.27E2,1.5E1,4E0,3E0,5E0],"tree_param":{"num_deleted":"0","num_feature":"30","num_nodes":"13","size_leaf_vector":"1"}},{"base_weights":[-5.0692475E-1,3.878662E0,-2.7100608E0,-7.6213074E0,5.958961E0,-3.4501648E0,2.1367257E0,-1.5288352E0,3.8716355E-1,7.7731036E-2,1.1422553E0,-1.5457903E-1,-1.0674571E0],"categories":[],"categories_nodes":[],"categories_segments":[],"categories_sizes":[],"default_left":[0,0,0,0,0,0,0,0,0,0,0,0,0],"id":44,"left_children":[1,3,5,7,9,11,-1,-1,-1,-1,-1,-1,-1],"loss_changes":[2.3680503E3,2.0071318E3,2.9783345E3,1.2047104E3,1.9728508E3,2.171017E3,0E0,0E0,0E0,0E0,0E0,0E0,0E0],"parents":[2147483647,0,0,1,1,2,2,3,3,4,4,5,5],"right_children":[2,4,6,8,10,12,-1,-1,-1,-1,-1,-1,-1],"split_conditions":[1.32E2,1.7E1,1E0,1E0,8.8036E3,1E0,2.1367257E0,-1.5288352E0,3.8716355E-1,7.7731036E-2,1.1422553E0,-1.5457903E-1,-1.0674571E0],"split_indices":[0,0,25,18,8,18,0,0,0,0,0,0,0],"split_type":[0,0,0,0,0,0,0,0,0,0,0,0,0],"sum_hessian":[2.43E2,8.1E1,1.62E2,1.2E1,6.9E1,1.58E2,4E0,7E0,5E0,3.6E1,3.3E1,1.26E2,3.2E1],"tree_param":{"num_deleted":"0","num_feature":"30","num_nodes":"13","size_leaf_vector":"1"}},{"base_weights":[-3.3593962E0,-3.713479E-1,-1.346565E1,-1.0969611E1,1.2827408E0,-2.4698004E1,-8.244478E0,-4.7722813E-1,-1.5055398E0,1.2519126E-2,1.0603865E0,-4.716995E0,-6.497844E-1,-1.5791448E0,1.5632181E-1],"categories":[],"categories_nodes":[],"categories_segments":[],"categories_sizes":[],"default_left":[0,0,0,0,0,0,0,0,0,0,0,0,0,0,0],"id":45,"left_children":[1,3,5,7,9,11,13,-1,-1,-1,-1,-1,-1,-1,-1],"loss_changes":[6.880137E3,3.1169639E3,2.8459717E3,5.358545E2,1.6602805E3,6.237384E3,2.7633657E3,0E0,0E0,0E0,0E0,0E0,0E0,0E0,0E0],"parents":[2147483647,0,0,1,1,2,2,3,3,4,4,5,5,6,6],"right_children":[2,4,6,8,10,12,14,-1,-1,-1,-1,-1,-1,-1,-1],"split_conditions":[1.07432E4,4.06E1,2.4E1,2E0,3.75E2,1.84E2,2.37E2,-4.7722813E-1,-1.5055398E0,1.2519126E-2,1.0603865E0,-4.716995E0,-6.497844E-1,-1.5791448E0,1.5632181E-1],"split_indices":[8,11,4,14,0,0,0,0,0,0,0,0,0,0,0],"split_type":[0,0,0,0,0,0,0,0,0,0,0,0,0,0,0],"sum_hessian":[2.27E2,1.76E2,5.1E1,2.3E1,1.53E2,1.5E1,3.6E1,1E1,1.3E1,1.37E2,1.6E1,6E0,9E0,2E1,1.6E1],"tree_param":{"num_deleted":"0","num_feature":"30","num_nodes":"15","size_leaf_vector":"1"}},{"base_weights":[-1.4162269E-1,-2.6643505E0,5.950986E0,-4.0247793E0,7.672083E0,2.5032623E0,3.770948E0,-1.8932687E-2,-8.524523E-1,-6.037042E-1,1.1476679E0,-1.9187292E0,6.0417694E-1],"categories":[],"categories_nodes":[],"categories_segments":[],"categories_sizes":[],"default_left":[0,0,0,0,0,0,0,0,0,0,0,0,0],"id":46,"left_children":[1,3,5,7,9,-1,11,-1,-1,-1,-1,-1,-1],"loss_changes":[3.6739138E3,2.407353E3,2.817512E3,2.587169E3,1.1124392E3,0E0,3.4525059E3,0E0,0E0,0E0,0E0,0E0,0E0],"parents":[2147483647,0,0,1,1,2,2,3,3,4,4,6,6],"right_children":[2,4,6,8,10,-1,12,-1,-1,-1,-1,-1,-1],"split_conditions":[2.9E1,1E0,8.3E1,2.35E2,1.44E2,2.5032623E0,9.1E1,-1.8932687E-2,-8.524523E-1,-6.037042E-1,1.1476679E0,-1.9187292E0,6.0417694E-1],"split_indices":[4,23,0,0,0,0,0,0,0,0,0,0,0],"split_type":[0,0,0,0,0,0,0,0,0,0,0,0,0],"sum_hessian":[2.37E2,1.68E2,6.9E1,1.49E2,1.9E1,6E0,6.3E1,8.1E1,6.8E1,4E0,1.5E1,5E0,5.8E1],"tree_param":{"num_deleted":"0","num_feature":"30","num_nodes":"13","size_leaf_vector":"1"}},{"base_weights":[8.7645054E-1,8.819826E0,-7.317139E-1,6.3352933E0,3.0839062E0,-6.01992E0,3.8547835E0,2.319724E0,3.173323E-1,-2.0631876E0,-5.0015324E-1,5.76021E-1,-7.9377896E-1],"categories":[],"categories_nodes":[],"categories_segments":[],"categories_sizes":[],"default_left":[0,0,0,0,0,0,0,0,0,0,0,0,0],"id":47,"left_children":[1,3,5,7,-1,9,11,-1,-1,-1,-1,-1,-1],"loss_changes":[3.187243E3,2.1023408E3,5.0681094E3,2.0057496E3,0E0,1.3402305E3,2.56235E3,0E0,0E0,0E0,0E0,0E0,0E0],"parents":[2147483647,0,0,1,1,2,2,3,3,5,5,6,6],"right_children":[2,4,6,8,-1,10,12,-1,-1,-1,-1,-1,-1],"split_conditions":[6.62E1,3.34E2,7.34E1,1.02E2,3.0839062E0,7.78E1,2.5E2,2.319724E0,3.173323E-1,-2.0631876E0,-5.0015324E-1,5.76021E-1,-7.9377896E-1],"split_indices":[10,0,12,0,0,10,0,0,0,0,0,0,0],"split_type":[0,0,0,0,0,0,0,0,0,0,0,0,0],"sum_hessian":[2.48E2,4.1E1,2.07E2,3.8E1,3E0,9.6E1,1.11E2,5E0,3.3E1,5E0,9.1E1,9.6E1,1.5E1],"tree_param":{"num_deleted":"0","num_feature":"30","num_nodes":"13","size_leaf_vector":"1"}},{"base_weights":[1.2701374E0,6.094373E0,-3.5642593E0,2.8680723E0,1.5381183E1,-3.0531626E0,-2.4204488E0,1.2077436E0,-4.6195865E-2,2.1131275E0,6.4788324E-1,1.5486571E0,-3.489394E-1],"categories":[],"categories_nodes":[],"categories_segments":[],"categories_sizes":[],"default_left":[0,0,0,0,0,0,0,0,0,0,0,0,0],"id":48,"left_children":[1,3,5,7,9,-1,11,-1,-1,-1,-1,-1,-1],"loss_changes":[5.828967E3,3.7011406E3,3.781795E3,2.8883213E3,1.5011514E3,0E0,2.3701748E3,0E0,0E0,0E0,0E0,0E0,0E0],"parents":[2147483647,0,0,1,1,2,2,3,3,4,4,6,6],"right_children":[2,4,6,8,10,-1,12,-1,-1,-1,-1,-1,-1],"split_conditions":[2.13E2,1.57E2,2.21E2,4.6E1,1.89E2,-3.0531626E0,2.32E2,1.2077436E0,-4.6195865E-2,2.1131275E0,6.4788324E-1,1.5486571E0,-3.489394E-1],"split_indices":[0,0,0,0,0,0,0,0,0,0,0,0,0],"split_type":[0,0,0,0,0,0,0,0,0,0,0,0,0],"sum_hessian":[2.48E2,1.24E2,1.24E2,9.3E1,3.1E1,4E0,1.2E2,2.4E1,6.9E1,1.8E1,1.3E1,6E0,1.14E2],"tree_param":{"num_deleted":"0","num_feature":"30","num_nodes":"13","size_leaf_vector":"1"}},{"base_weights":[1.8412869E-1,-2.009666E0,1.2302885E1,3.690848E0,-4.8254557E0,3.7275505E0,7.3895946E0,1.1748964E0,-4.2459545E-1,-1.311032E0,-1.8600704E-1,-2.070295E-1,2.2102525E0],"categories":[],"categories_nodes":[],"categories_segments":[],"categories_sizes":[],"default_left":[0,0,0,0,0,0,0,0,0,0,0,0,0],"id":49,"left_children":[1,3,5,7,9,-1,11,-1,-1,-1,-1,-1,-1],"loss_changes":[6.5914824E3,3.3886138E3,4.387064E3,4.526783E3,3.4396758E3,0E0,4.6387876E3,0E0,0E0,0E0,0E0,0E0,0E0],"parents":[2147483647,0,0,1,1,2,2,3,3,4,4,6,6],"right_children":[2,4,6,8,10,-1,12,-1,-1,-1,-1,-1,-1],"split_conditions":[9.3E1,1E0,2.07E2,9.7672E3,8.9E1,3.7275505E0,2.37E2,1.1748964E0,-4.2459545E-1,-1.311032E0,-1.8600704E-1,-2.070295E-1,2.2102525E0],"split_indices":[12,20,0,8,0,0,0,0,0,0,0,0,0],"split_type":[0,0,0,0,0,0,0,0,0,0,0,0,0],"sum_hessian":[2.46E2,2.09E2,3.7E1,6.9E1,1.4E2,5E0,3.2E1,3.4E1,3.5E1,3.6E1,1.04E2,2E1,1.2E1],"tree_param":{"num_deleted":"0","num_feature":"30","num_nodes":"13","size_leaf_vector":"1"}}]},"name":"gbtree"},"learner_model_param":{"base_score":"9.8118355E1","boost_from_average":"1","num_class":"0","num_feature":"30","num_target":"1"},"objective":{"name":"reg:squarederror","reg_loss_param":{"scale_pos_weight":"1"}}},"version":[2,1,0]}