{"learner":{"attributes":{"scikit_learn":"{\"_estimator_type\": \"regressor\"}"},"feature_names":["jugador_anonimizado","gol","asistencia","edad","peso","altura","minutos_predictor","avg_dist_sess_m_predictor","zona_4_19.9_25.1_kmh_predictor","zona_5_mas_25.1_kmh_predictor","num_aceleraciones_intensas_predictor","num_desaceleraciones_intensas_predictor","num_acel_desintensas_predictor","num_sprints_total_predictor","gol_predictor","asistencia_predictor","max_vel_kmh_predictor","torneo_Libertadores","torneo_Torneo Local","categoria_partido_Normal","posicion_habitual_Delantero","posicion_habitual_Extremo","posicion_habitual_Lateral","posicion_habitual_Lateral ","posicion_habitual_Lateral / Volante","posicion_habitual_Volante / Extremo","posicion_habitual_Volante Central","posicion_habitual_Volante Ofensivo","posicion_habitual_Volante Ofensivo / Extremo"],"feature_types":["int","int","int","int","int","int","float","float","float","float","float","float","float","float","float","float","float","i","i","i","i","i","i","i","i","i","i","i","i"],"gradient_booster":{"model":{"gbtree_model_param":{"num_parallel_tree":"1","num_trees":"50"},"iteration_indptr":[0,1,2,3,4,5,6,7,8,9,10,11,12,13,14,15,16,17,18,19,20,21,22,23,24,25,26,27,28,29,30,31,32,33,34,35,36,37,38,39,40,41,42,43,44,45,46,47,48,49,50],"tree_info":[0,0,0,0,0,0,0,0,0,0,0,0,0,0,0,0,0,0,0,0,0,0,0,0,0,0,0,0,0,0,0,0,0,0,0,0,0,0,0,0,0,0,0,0,0,0,0,0,0,0],"trees":[{"base_weights":[-7.196035E-2,-8.3399785E-1,1.4801869E0,-1.8486693E0,-4.8930892E-1,2.0062222E0,2.2956093E-1,-2.730006E-1,-1.5692209E-1,-2.4942419E-2,-9.802743E-2,1.4324938E-1,2.2231643E-1,1.1649939E-1,-6.554526E-2],"categories":[],"categories_nodes":[],"categories_segments":[],"categories_sizes":[],"default_left":[0,0,0,0,0,0,0,0,0,0,0,0,0,0,0],"id":0,"left_children":[1,3,5,7,9,11,13,-1,-1,-1,-1,-1,-1,-1,-1],"loss_changes":[3.0166425E2,5.8901993E1,5.480081E1,6.3064117E0,1.4948484E1,4.1588287E0,2.228824E1,0E0,0E0,0E0,0E0,0E0,0E0,0E0,0E0],"parents":[2147483647,0,0,1,1,2,2,3,3,4,4,5,5,6,6],"right_children":[2,4,6,8,10,12,14,-1,-1,-1,-1,-1,-1,-1,-1],"split_conditions":[1.44E2,6.62E1,9.7672E3,7.88E1,7.6E1,6.36E1,1E0,-2.730006E-1,-1.5692209E-1,-2.4942419E-2,-9.802743E-2,1.4324938E-1,2.2231643E-1,1.1649939E-1,-6.554526E-2],"split_indices":[9,9,7,6,11,6,19,0,0,0,0,0,0,0,0],"split_type":[0,0,0,0,0,0,0,0,0,0,0,0,0,0,0],"sum_hessian":[2.53E2,1.7E2,8.3E1,4.2E1,1.28E2,5.8E1,2.5E1,8E0,3.4E1,8.7E1,4.1E1,1.8E1,4E1,1.2E1,1.3E1],"tree_param":{"num_deleted":"0","num_feature":"29","num_nodes":"15","size_leaf_vector":"1"}},{"base_weights":[-3.154493E-2,-8.922515E-1,1.1838795E0,-2.106299E0,-2.0383519E-1,1.5797379E0,8.1263E-2,-1.4523056E-1,-3.3673263E-1,-7.843662E-2,5.8306884E-3,8.4700376E-2,1.8679106E-1,9.6567675E-2,-4.6372667E-2],"categories":[],"categories_nodes":[],"categories_segments":[],"categories_sizes":[],"default_left":[0,0,0,0,0,0,0,0,0,0,0,0,0,0,0],"id":1,"left_children":[1,3,5,7,9,11,13,-1,-1,-1,-1,-1,-1,-1,-1],"loss_changes":[2.5735666E2,1.19921555E2,4.439261E1,3.79942E1,1.4198624E1,1.425441E1,1.3943707E1,0E0,0E0,0E0,0E0,0E0,0E0,0E0,0E0],"parents":[2147483647,0,0,1,1,2,2,3,3,4,4,5,5,6,6],"right_children":[2,4,6,8,10,12,14,-1,-1,-1,-1,-1,-1,-1,-1],"split_conditions":[1.182E2,5.96E1,9.7672E3,8.36E3,4.4E0,1.44E2,1E0,-1.4523056E-1,-3.3673263E-1,-7.843662E-2,5.8306884E-3,8.4700376E-2,1.8679106E-1,9.6567675E-2,-4.6372667E-2],"split_indices":[9,11,7,7,13,9,19,0,0,0,0,0,0,0,0],"split_type":[0,0,0,0,0,0,0,0,0,0,0,0,0,0,0],"sum_hessian":[2.44E2,1.43E2,1.01E2,5.1E1,9.2E1,7.4E1,2.7E1,3.5E1,1.6E1,2.8E1,6.4E1,2.2E1,5.2E1,1E1,1.7E1],"tree_param":{"num_deleted":"0","num_feature":"29","num_nodes":"15","size_leaf_vector":"1"}},{"base_weights":[2.3816774E-2,-6.3152796E-1,1.3342158E0,-1.4654195E0,-2.8402093E-1,1.6140668E0,2.4951966E-1,-2.3241627E-1,-1.2874047E-1,3.4558468E-2,-6.54543E-2,1.7937112E-1,1.3292079E-1,8.277234E-2,-1.0855913E-2],"categories":[],"categories_nodes":[],"categories_segments":[],"categories_sizes":[],"default_left":[0,0,0,0,0,0,0,0,0,0,0,0,0,0,0],"id":2,"left_children":[1,3,5,7,9,11,13,-1,-1,-1,-1,-1,-1,-1,-1],"loss_changes":[2.1123956E2,4.710823E1,2.4488617E1,4.3455734E0,2.7520275E1,9.420471E-1,3.8166213E0,0E0,0E0,0E0,0E0,0E0,0E0,0E0,0E0],"parents":[2147483647,0,0,1,1,2,2,3,3,4,4,5,5,6,6],"right_children":[2,4,6,8,10,12,14,-1,-1,-1,-1,-1,-1,-1,-1],"split_conditions":[1.44E2,7.78E1,9.84E1,1.71E2,3.774E2,7.1E1,1E0,-2.3241627E-1,-1.2874047E-1,3.4558468E-2,-6.54543E-2,1.7937112E-1,1.3292079E-1,8.277234E-2,-1.0855913E-2],"split_indices":[9,9,6,5,8,11,19,0,0,0,0,0,0,0,0],"split_type":[0,0,0,0,0,0,0,0,0,0,0,0,0,0,0],"sum_hessian":[2.44E2,1.63E2,8.1E1,4.7E1,1.16E2,6.4E1,1.7E1,6E0,4.1E1,4.3E1,7.3E1,3.6E1,2.8E1,6E0,1.1E1],"tree_param":{"num_deleted":"0","num_feature":"29","num_nodes":"15","size_leaf_vector":"1"}},{"base_weights":[8.625413E-3,-6.713549E-1,1.1511837E0,-8.9841944E-1,-1.679283E-2,1.6886634E0,6.7311275E-1,-7.606734E-2,-3.4117725E-1,-2.8005293E-2,6.12273E-2,1.5390472E-1,2.8374657E-1,1.10078335E-1,2.8122041E-2],"categories":[],"categories_nodes":[],"categories_segments":[],"categories_sizes":[],"default_left":[0,0,0,0,0,0,0,0,0,0,0,0,0,0,0],"id":3,"left_children":[1,3,5,7,9,11,13,-1,-1,-1,-1,-1,-1,-1,-1],"loss_changes":[2.019944E2,2.421125E1,2.3787827E1,3.9295494E1,7.2926097E0,3.367569E0,8.57328E0,0E0,0E0,0E0,0E0,0E0,0E0,0E0,0E0],"parents":[2147483647,0,0,1,1,2,2,3,3,4,4,5,5,6,6],"right_children":[2,4,6,8,10,12,14,-1,-1,-1,-1,-1,-1,-1,-1],"split_conditions":[1.408E2,1.85E2,2.4E1,8.3E1,8E1,1E0,1E0,-7.606734E-2,-3.4117725E-1,-2.8005293E-2,6.12273E-2,1.5390472E-1,2.8374657E-1,1.10078335E-1,2.8122041E-2],"split_indices":[9,5,3,4,4,2,19,0,0,0,0,0,0,0,0],"split_type":[0,0,0,0,0,0,0,0,0,0,0,0,0,0,0],"sum_hessian":[2.58E2,1.62E2,9.6E1,1.2E2,4.2E1,4.4E1,5.2E1,1.15E2,5E0,3E1,1.2E1,4.1E1,3E0,2.4E1,2.8E1],"tree_param":{"num_deleted":"0","num_feature":"29","num_nodes":"15","size_leaf_vector":"1"}},{"base_weights":[2.276225E-2,-5.693091E-1,1.0691231E0,4.2468733E-1,-7.862437E-1,1.270711E0,9.1383085E-2,1.121433E-1,1.8474123E-2,-6.723334E-2,-3.294125E-1,1.0127927E-1,1.4922331E-1,3.9402105E-2,-5.5325436E-3],"categories":[],"categories_nodes":[],"categories_segments":[],"categories_sizes":[],"default_left":[0,0,0,0,0,0,0,0,0,0,0,0,0,0,0],"id":4,"left_children":[1,3,5,7,9,11,13,-1,-1,-1,-1,-1,-1,-1,-1],"loss_changes":[1.697377E2,3.806954E1,1.939682E1,5.142631E0,3.8922234E1,3.1737213E0,8.209916E-1,0E0,0E0,0E0,0E0,0E0,0E0,0E0,0E0],"parents":[2147483647,0,0,1,1,2,2,3,3,4,4,5,5,6,6],"right_children":[2,4,6,8,10,12,14,-1,-1,-1,-1,-1,-1,-1,-1],"split_conditions":[6.8E0,2.3E1,9.84E1,1E0,8.3E1,8.8036E3,1E0,1.121433E-1,1.8474123E-2,-6.723334E-2,-3.294125E-1,1.0127927E-1,1.4922331E-1,3.9402105E-2,-5.5325436E-3],"split_indices":[13,3,6,18,4,7,19,0,0,0,0,0,0,0,0],"split_type":[0,0,0,0,0,0,0,0,0,0,0,0,0,0,0],"sum_hessian":[2.72E2,1.74E2,9.8E1,3.1E1,1.43E2,8.1E1,1.7E1,7E0,2.4E1,1.38E2,5E0,4E1,4.1E1,5E0,1.2E1],"tree_param":{"num_deleted":"0","num_feature":"29","num_nodes":"15","size_leaf_vector":"1"}},{"base_weights":[-4.75578E-2,-3.1426516E-1,1.2806339E0,3.796441E-1,-4.8058096E-1,1.5004437E-1,4.4917908E-1,1.0632417E-1,2.2773743E-2,-7.2454244E-2,1.860839E-2,6.297104E-2,2.2387315E-2],"categories":[],"categories_nodes":[],"categories_segments":[],"categories_sizes":[],"default_left":[0,0,0,0,0,0,0,0,0,0,0,0,0],"id":5,"left_children":[1,3,5,7,9,-1,11,-1,-1,-1,-1,-1,-1],"loss_changes":[8.6836655E1,2.3725697E1,6.819275E0,3.9115815E0,2.697052E1,0E0,2.6577258E-1,0E0,0E0,0E0,0E0,0E0,0E0],"parents":[2147483647,0,0,1,1,2,2,3,3,4,4,6,6],"right_children":[2,4,6,8,10,-1,12,-1,-1,-1,-1,-1,-1],"split_conditions":[1.12E1,2.3E1,1E0,1.74E2,6.8E0,1.5004437E-1,2E0,1.0632417E-1,2.2773743E-2,-7.2454244E-2,1.860839E-2,6.297104E-2,2.2387315E-2],"split_indices":[13,3,17,5,13,0,0,0,0,0,0,0,0],"split_type":[0,0,0,0,0,0,0,0,0,0,0,0,0],"sum_hessian":[2.43E2,2.03E2,4E1,3.9E1,1.64E2,3.1E1,9E0,6E0,3.3E1,1.2E2,4.4E1,4E0,5E0],"tree_param":{"num_deleted":"0","num_feature":"29","num_nodes":"13","size_leaf_vector":"1"}},{"base_weights":[7.5426884E-2,-5.067995E-1,1.0262117E0,3.0719766E-1,-6.1843497E-1,7.89644E-1,1.673442E-1,-4.246178E-2,6.776216E-2,-9.5819324E-2,-3.6976535E-2,6.7409955E-2,2.1569018E-1],"categories":[],"categories_nodes":[],"categories_segments":[],"categories_sizes":[],"default_left":[0,0,0,0,0,0,0,0,0,0,0,0,0],"id":6,"left_children":[1,3,5,7,9,11,-1,-1,-1,-1,-1,-1,-1],"loss_changes":[1.3559166E2,1.4002361E1,1.29181595E1,5.4382863E0,1.096703E1,9.604565E0,0E0,0E0,0E0,0E0,0E0,0E0,0E0],"parents":[2147483647,0,0,1,1,2,2,3,3,4,4,5,5],"right_children":[2,4,6,8,10,12,-1,-1,-1,-1,-1,-1,-1],"split_conditions":[1.408E2,2.2E1,1E0,1E0,5.3E1,1E0,1.673442E-1,-4.246178E-2,6.776216E-2,-9.5819324E-2,-3.6976535E-2,6.7409955E-2,2.1569018E-1],"split_indices":[9,3,24,19,10,2,0,0,0,0,0,0,0],"split_type":[0,0,0,0,0,0,0,0,0,0,0,0,0],"sum_hessian":[2.43E2,1.51E2,9.2E1,1.8E1,1.33E2,6.9E1,2.3E1,6E0,1.2E1,5.5E1,7.8E1,6.5E1,4E0],"tree_param":{"num_deleted":"0","num_feature":"29","num_nodes":"13","size_leaf_vector":"1"}},{"base_weights":[8.007535E-2,-1.7157918E-1,9.594363E-1,-1.6229959E0,-6.810095E-2,1.234433E0,4.4232595E-1,-3.428818E-2,-2.1538375E-1,1.14943914E-1,-2.1526882E-2,1.3755941E-1,-2.3875428E-2,6.0762286E-2,1.544164E-2],"categories":[],"categories_nodes":[],"categories_segments":[],"categories_sizes":[],"default_left":[0,0,0,0,0,0,0,0,0,0,0,0,0,0,0],"id":7,"left_children":[1,3,5,7,9,11,13,-1,-1,-1,-1,-1,-1,-1,-1],"loss_changes":[5.570971E1,2.9326717E1,7.4173813E0,8.095482E0,3.3217068E1,7.814869E0,9.055743E-1,0E0,0E0,0E0,0E0,0E0,0E0,0E0,0E0],"parents":[2147483647,0,0,1,1,2,2,3,3,4,4,5,5,6,6],"right_children":[2,4,6,8,10,12,14,-1,-1,-1,-1,-1,-1,-1,-1],"split_conditions":[7.32E1,3.68E1,1.1E1,1E0,7.1548E3,1E0,1E0,-3.428818E-2,-2.1538375E-1,1.14943914E-1,-2.1526882E-2,1.3755941E-1,-2.3875428E-2,6.0762286E-2,1.544164E-2],"split_indices":[10,10,0,19,7,1,19,0,0,0,0,0,0,0,0],"split_type":[0,0,0,0,0,0,0,0,0,0,0,0,0,0,0],"sum_hessian":[2.5E2,1.95E2,5.5E1,1.2E1,1.83E2,3.5E1,2E1,4E0,8E0,1.9E1,1.64E2,3.2E1,3E0,1.2E1,8E0],"tree_param":{"num_deleted":"0","num_feature":"29","num_nodes":"15","size_leaf_vector":"1"}},{"base_weights":[3.8647957E-2,-4.5294002E-1,5.5882806E-1,-7.870358E-1,8.812971E-2,1.1399843E0,1.9001707E-1,-9.3138464E-2,1.1003806E-1,-1.1275937E-2,1.1317811E-1,1.9140552E-1,8.9996554E-2,-4.901303E-2,6.392261E-2],"categories":[],"categories_nodes":[],"categories_segments":[],"categories_sizes":[],"default_left":[0,0,0,0,0,0,0,0,0,0,0,0,0,0,0],"id":8,"left_children":[1,3,5,7,9,11,13,-1,-1,-1,-1,-1,-1,-1,-1],"loss_changes":[6.2647404E1,2.2846273E1,2.5289463E1,2.2275692E1,1.0400869E1,6.823818E0,2.29224E1,0E0,0E0,0E0,0E0,0E0,0E0,0E0,0E0],"parents":[2147483647,0,0,1,1,2,2,3,3,4,4,5,5,6,6],"right_children":[2,4,6,8,10,12,14,-1,-1,-1,-1,-1,-1,-1,-1],"split_conditions":[6.4E0,9.9E1,2.4E1,1E0,7.9E1,2.65E1,2.9E1,-9.3138464E-2,1.1003806E-1,-1.1275937E-2,1.1317811E-1,1.9140552E-1,8.9996554E-2,-4.901303E-2,6.392261E-2],"split_indices":[13,6,3,2,4,16,3,0,0,0,0,0,0,0,0],"split_type":[0,0,0,0,0,0,0,0,0,0,0,0,0,0,0],"sum_hessian":[2.43E2,1.25E2,1.18E2,7.7E1,4.8E1,4.5E1,7.3E1,7.2E1,5E0,4.1E1,7E0,9E0,3.6E1,2.9E1,4.4E1],"tree_param":{"num_deleted":"0","num_feature":"29","num_nodes":"15","size_leaf_vector":"1"}},{"base_weights":[-3.0531734E-2,-5.335688E-1,6.850763E-1,-1.0495203E0,-2.2276518E-1,4.289187E-1,8.3321667E-1,-9.232305E-2,-1.723428E-1,-3.604221E-2,4.543309E-2,2.5388056E-2,1.0425162E-1,9.340042E-2,3.3496153E-2],"categories":[],"categories_nodes":[],"categories_segments":[],"categories_sizes":[],"default_left":[0,0,0,0,0,0,0,0,0,0,0,0,0,0,0],"id":9,"left_children":[1,3,5,7,9,11,13,-1,-1,-1,-1,-1,-1,-1,-1],"loss_changes":[9.503959E1,2.462194E1,3.7788734E0,3.345127E0,9.298033E0,4.2462506E0,3.101963E0,0E0,0E0,0E0,0E0,0E0,0E0,0E0,0E0],"parents":[2147483647,0,0,1,1,2,2,3,3,4,4,5,5,6,6],"right_children":[2,4,6,8,10,12,14,-1,-1,-1,-1,-1,-1,-1,-1],"split_conditions":[1.182E2,4.4E0,1.56E2,6.62E1,8.6E1,1E0,9.84E1,-9.232305E-2,-1.723428E-1,-3.604221E-2,4.543309E-2,2.5388056E-2,1.0425162E-1,9.340042E-2,3.3496153E-2],"split_indices":[9,13,9,9,4,1,6,0,0,0,0,0,0,0,0],"split_type":[0,0,0,0,0,0,0,0,0,0,0,0,0,0,0],"sum_hessian":[2.62E2,1.54E2,1.08E2,5.7E1,9.7E1,4.1E1,6.7E1,5E1,7E0,8.1E1,1.6E1,3.3E1,8E0,5.5E1,1.2E1],"tree_param":{"num_deleted":"0","num_feature":"29","num_nodes":"15","size_leaf_vector":"1"}},{"base_weights":[1.1618212E-2,-5.1049334E-1,3.5756424E-1,-4.0790442E-1,-3.1784186E-1,1.8089844E-1,9.22789E-1,-7.637869E-2,7.780826E-3,7.193063E-2,9.902273E-3,1.0808828E-1,1.5530348E-2],"categories":[],"categories_nodes":[],"categories_segments":[],"categories_sizes":[],"default_left":[0,0,0,0,0,0,0,0,0,0,0,0,0],"id":10,"left_children":[1,3,5,7,-1,9,11,-1,-1,-1,-1,-1,-1],"loss_changes":[5.0756813E1,2.9357866E1,1.6708708E1,1.8900797E1,0E0,5.659501E0,4.685524E0,0E0,0E0,0E0,0E0,0E0,0E0],"parents":[2147483647,0,0,1,1,2,2,3,3,5,5,6,6],"right_children":[2,4,6,8,-1,10,12,-1,-1,-1,-1,-1,-1],"split_conditions":[9.4E1,9.24E1,2.176E2,4.4E0,-3.1784186E-1,4.9E1,1E0,-7.637869E-2,7.780826E-3,7.193063E-2,9.902273E-3,1.0808828E-1,1.5530348E-2],"split_indices":[9,9,9,13,0,6,1,0,0,0,0,0,0],"split_type":[0,0,0,0,0,0,0,0,0,0,0,0,0],"sum_hessian":[2.79E2,1.11E2,1.68E2,1.08E2,3E0,1.29E2,3.9E1,6.2E1,4.6E1,1.6E1,1.13E2,3.2E1,7E0],"tree_param":{"num_deleted":"0","num_feature":"29","num_nodes":"13","size_leaf_vector":"1"}},{"base_weights":[-3.8567297E-2,-2.1098647E-1,6.319565E-1,4.55671E-1,-3.6823437E-1,1.06990635E-1,1.8682119E-1,-7.2236743E-4,6.8739615E-2,-9.819343E-2,-1.6890451E-2,1.4067993E-2,2.7882172E-2],"categories":[],"categories_nodes":[],"categories_segments":[],"categories_sizes":[],"default_left":[0,0,0,0,0,0,0,0,0,0,0,0,0],"id":11,"left_children":[1,3,5,7,9,-1,11,-1,-1,-1,-1,-1,-1],"loss_changes":[2.9382956E1,2.1343552E1,9.937359E0,4.1882763E0,1.9896055E1,0E0,7.5390875E-2,0E0,0E0,0E0,0E0,0E0,0E0],"parents":[2147483647,0,0,1,1,2,2,3,3,4,4,6,6],"right_children":[2,4,6,8,10,-1,12,-1,-1,-1,-1,-1,-1],"split_conditions":[7.32E1,7.4224E3,2.4E1,6.9E1,5.96E1,1.06990635E-1,1E0,-7.2236743E-4,6.8739615E-2,-9.819343E-2,-1.6890451E-2,1.4067993E-2,2.7882172E-2],"split_indices":[10,7,3,4,11,0,17,0,0,0,0,0,0],"split_type":[0,0,0,0,0,0,0,0,0,0,0,0,0],"sum_hessian":[2.52E2,2.01E2,5.1E1,3.8E1,1.63E2,2.5E1,2.6E1,1.3E1,2.5E1,3.9E1,1.24E2,1.9E1,7E0],"tree_param":{"num_deleted":"0","num_feature":"29","num_nodes":"13","size_leaf_vector":"1"}},{"base_weights":[-2.5135973E-2,-4.2047268E-1,6.371155E-1,-2.1687798E-1,-3.5502976E-1,5.3239983E-1,1.4738603E0,-2.0268125E-2,-8.628722E-2,-3.562148E-2,6.1139848E-2,1.7888251E-1,6.329479E-2],"categories":[],"categories_nodes":[],"categories_segments":[],"categories_sizes":[],"default_left":[0,0,0,0,0,0,0,0,0,0,0,0,0],"id":12,"left_children":[1,3,5,-1,7,9,11,-1,-1,-1,-1,-1,-1],"loss_changes":[6.0222908E1,1.5705681E1,6.75066E0,0E0,1.0656778E1,5.6933403E0,1.2514839E0,0E0,0E0,0E0,0E0,0E0,0E0],"parents":[2147483647,0,0,1,1,2,2,4,4,5,5,6,6],"right_children":[2,4,6,-1,8,10,12,-1,-1,-1,-1,-1,-1],"split_conditions":[6.6E0,4.88E1,1E0,-2.1687798E-1,1E0,2.65E1,7E1,-2.0268125E-2,-8.628722E-2,-3.562148E-2,6.1139848E-2,1.7888251E-1,6.329479E-2],"split_indices":[13,6,2,0,17,16,4,0,0,0,0,0,0],"split_type":[0,0,0,0,0,0,0,0,0,0,0,0,0],"sum_hessian":[2.28E2,1.43E2,8.5E1,4E0,1.39E2,7.7E1,8E0,1.08E2,3.1E1,6E0,7.1E1,5E0,3E0],"tree_param":{"num_deleted":"0","num_feature":"29","num_nodes":"13","size_leaf_vector":"1"}},{"base_weights":[4.6407435E-2,-1.02575496E-1,9.176958E-1,-5.0491107E-1,4.103435E-2,1.04908876E-1,-3.628707E-2,-3.2784365E-2,-2.1746032E-1,3.2179054E-2,-1.3080663E-2],"categories":[],"categories_nodes":[],"categories_segments":[],"categories_sizes":[],"default_left":[0,0,0,0,0,0,0,0,0,0,0],"id":13,"left_children":[1,3,5,7,9,-1,-1,-1,-1,-1,-1],"loss_changes":[3.1118032E1,1.1865484E1,6.269684E0,1.525207E1,7.3753953E0,0E0,0E0,0E0,0E0,0E0,0E0],"parents":[2147483647,0,0,1,1,2,2,3,3,4,4],"right_children":[2,4,6,8,10,-1,-1,-1,-1,-1,-1],"split_conditions":[2.176E2,4.56E1,1E0,7.5E1,6.84E1,1.04908876E-1,-3.628707E-2,-3.2784365E-2,-2.1746032E-1,3.2179054E-2,-1.3080663E-2],"split_indices":[9,10,1,4,11,0,0,0,0,0,0],"split_type":[0,0,0,0,0,0,0,0,0,0,0],"sum_hessian":[2.38E2,2.04E2,3.4E1,5.3E1,1.51E2,3.1E1,3E0,4.9E1,4E0,5.7E1,9.4E1],"tree_param":{"num_deleted":"0","num_feature":"29","num_nodes":"11","size_leaf_vector":"1"}},{"base_weights":[7.397664E-2,-1.6570948E-1,3.6897284E-1,1.15929455E-1,-4.6676224E-1,1.4248635E-1,4.725078E-1,3.424802E-2,-2.0836404E-2,-2.9892717E-2,-2.387431E-1,-1.1879425E-2,7.2335266E-2,5.4199386E-2,-2.6007382E-2],"categories":[],"categories_nodes":[],"categories_segments":[],"categories_sizes":[],"default_left":[0,0,0,0,0,0,0,0,0,0,0,0,0,0,0],"id":14,"left_children":[1,3,5,7,9,11,13,-1,-1,-1,-1,-1,-1,-1,-1],"loss_changes":[1.6889288E1,1.1246151E1,2.4417477E0,5.140717E0,1.9917093E1,5.3978477E0,3.856964E0,0E0,0E0,0E0,0E0,0E0,0E0,0E0,0E0],"parents":[2147483647,0,0,1,1,2,2,3,3,4,4,5,5,6,6],"right_children":[2,4,6,8,10,12,14,-1,-1,-1,-1,-1,-1,-1,-1],"split_conditions":[6.6E0,2.7E1,1.44E2,4.16E2,8.2E1,1E0,1E0,3.424802E-2,-2.0836404E-2,-2.9892717E-2,-2.387431E-1,-1.1879425E-2,7.2335266E-2,5.4199386E-2,-2.6007382E-2],"split_indices":[13,3,9,8,4,1,1,0,0,0,0,0,0,0,0],"split_type":[0,0,0,0,0,0,0,0,0,0,0,0,0,0,0],"sum_hessian":[2.37E2,1.31E2,1.06E2,6.8E1,6.3E1,3.4E1,7.2E1,4E1,2.8E1,5.9E1,4E0,2.4E1,1E1,6.6E1,6E0],"tree_param":{"num_deleted":"0","num_feature":"29","num_nodes":"15","size_leaf_vector":"1"}},{"base_weights":[-1.5556896E-2,-1.6946422E-1,4.8271477E-2,3.1191403E-1,-2.0280072E-1,4.2026818E-2,-1.2095476E-2,5.3223092E-2,-2.953479E-2],"categories":[],"categories_nodes":[],"categories_segments":[],"categories_sizes":[],"default_left":[0,0,0,0,0,0,0,0,0],"id":15,"left_children":[1,-1,3,5,7,-1,-1,-1,-1],"loss_changes":[2.6339256E1,0E0,1.5751072E1,5.491598E0,8.456257E0,0E0,0E0,0E0,0E0],"parents":[2147483647,0,0,2,2,3,3,4,4],"right_children":[2,-1,4,6,8,-1,-1,-1,-1],"split_conditions":[3.68E1,-1.6946422E-1,2.6E1,1E0,6.3E1,4.2026818E-2,-1.2095476E-2,5.3223092E-2,-2.953479E-2],"split_indices":[9,0,3,17,4,0,0,0,0],"split_type":[0,0,0,0,0,0,0,0,0],"sum_hessian":[2.44E2,8E0,2.36E2,1.15E2,1.21E2,9.2E1,2.3E1,1.3E1,1.08E2],"tree_param":{"num_deleted":"0","num_feature":"29","num_nodes":"9","size_leaf_vector":"1"}},{"base_weights":[6.8980075E-2,2.7566445E-1,-1.773521E-1,1.8711565E-1,9.184511E-1,-3.0374106E-2,-1.3261485E0,3.6572915E-2,-3.6178663E-2,2.916174E-2,1.4304784E-1,1.8569129E-2,-3.194771E-2,-3.4271166E-1,1.5272498E-2],"categories":[],"categories_nodes":[],"categories_segments":[],"categories_sizes":[],"default_left":[0,0,0,0,0,0,0,0,0,0,0,0,0,0,0],"id":16,"left_children":[1,3,5,7,9,11,13,-1,-1,-1,-1,-1,-1,-1,-1],"loss_changes":[1.1809795E1,6.9998083E0,1.7857586E1,1.1112949E1,4.397187E0,5.993513E0,3.7808197E1,0E0,0E0,0E0,0E0,0E0,0E0,0E0,0E0],"parents":[2147483647,0,0,1,1,2,2,3,3,4,4,5,5,6,6],"right_children":[2,4,6,8,10,12,14,-1,-1,-1,-1,-1,-1,-1,-1],"split_conditions":[9.7672E3,1E0,1.5E1,8E1,7.8E1,5.82E2,1E0,3.6572915E-2,-3.6178663E-2,2.916174E-2,1.4304784E-1,1.8569129E-2,-3.194771E-2,-3.4271166E-1,1.5272498E-2],"split_indices":[7,1,0,4,4,8,19,0,0,0,0,0,0,0,0],"split_type":[0,0,0,0,0,0,0,0,0,0,0,0,0,0,0],"sum_hessian":[2.3E2,1.25E2,1.05E2,1.11E2,1.4E1,9.4E1,1.1E1,8.4E1,2.7E1,7E0,7E0,5.4E1,4E1,4E0,7E0],"tree_param":{"num_deleted":"0","num_feature":"29","num_nodes":"15","size_leaf_vector":"1"}},{"base_weights":[1.169941E-1,3.9066955E-1,-1.2672603E-1,6.124564E-1,9.1435395E-2,-5.95998E-1,3.610654E-2,2.4063861E-2,9.0303525E-2,-3.8110975E-2,2.2581859E-2,-3.8314678E-2,-1.6687654E-1,-8.11839E-3,3.7669923E-2],"categories":[],"categories_nodes":[],"categories_segments":[],"categories_sizes":[],"default_left":[0,0,0,0,0,0,0,0,0,0,0,0,0,0,0],"id":17,"left_children":[1,3,5,7,9,11,13,-1,-1,-1,-1,-1,-1,-1,-1],"loss_changes":[1.559066E1,7.244282E0,9.496702E0,6.589363E0,3.1341636E0,6.667493E0,3.7457702E0,0E0,0E0,0E0,0E0,0E0,0E0,0E0,0E0],"parents":[2147483647,0,0,1,1,2,2,3,3,4,4,5,5,6,6],"right_children":[2,4,6,8,10,12,14,-1,-1,-1,-1,-1,-1,-1,-1],"split_conditions":[2.9E1,2.4E1,8.74E1,1E0,9.06E1,2E1,1E0,2.4063861E-2,9.0303525E-2,-3.8110975E-2,2.2581859E-2,-3.8314678E-2,-1.6687654E-1,-8.11839E-3,3.7669923E-2],"split_indices":[16,3,9,19,9,0,17,0,0,0,0,0,0,0,0],"split_type":[0,0,0,0,0,0,0,0,0,0,0,0,0,0,0],"sum_hessian":[2.32E2,1.09E2,1.23E2,6.2E1,4.7E1,3.1E1,9.2E1,2.8E1,3.4E1,1E1,3.7E1,2.7E1,4E0,6.9E1,2.3E1],"tree_param":{"num_deleted":"0","num_feature":"29","num_nodes":"15","size_leaf_vector":"1"}},{"base_weights":[-2.7337808E-2,-1.23076E0,3.823469E-2,-3.4427643E-4,-1.7758517E-1,2.286636E-1,-3.653776E-1,5.5274405E-2,-3.3825822E-3,-5.1957548E-2,-1.0648175E-2],"categories":[],"categories_nodes":[],"categories_segments":[],"categories_sizes":[],"default_left":[0,0,0,0,0,0,0,0,0,0,0],"id":18,"left_children":[1,3,5,-1,-1,7,9,-1,-1,-1,-1],"loss_changes":[1.9853819E1,8.690893E0,1.8452957E1,0E0,0E0,1.3884729E1,3.0186062E0,0E0,0E0,0E0,0E0],"parents":[2147483647,0,0,1,1,2,2,5,5,6,6],"right_children":[2,4,6,-1,-1,8,10,-1,-1,-1,-1],"split_conditions":[3.68E1,1E0,1.0662E4,-3.4427643E-4,-1.7758517E-1,2.4E1,7.64E1,5.5274405E-2,-3.3825822E-3,-5.1957548E-2,-1.0648175E-2],"split_indices":[9,19,7,0,0,3,11,0,0,0,0],"split_type":[0,0,0,0,0,0,0,0,0,0,0],"sum_hessian":[2.5E2,1.2E1,2.38E2,4E0,8E0,1.62E2,7.6E1,7.2E1,9E1,4.7E1,2.9E1],"tree_param":{"num_deleted":"0","num_feature":"29","num_nodes":"11","size_leaf_vector":"1"}},{"base_weights":[-1.0388433E-2,-1.4379739E0,4.432926E-2,-2.4669845E-1,4.6503544E-2,5.735659E-3,9.121116E-2,1.3929336E-2,-4.1204E-2],"categories":[],"categories_nodes":[],"categories_segments":[],"categories_sizes":[],"default_left":[0,0,0,0,0,0,0,0,0],"id":19,"left_children":[1,3,5,-1,-1,7,-1,-1,-1],"loss_changes":[1.9045488E1,1.8771185E1,7.8651175E0,0E0,0E0,1.2667551E1,0E0,0E0,0E0],"parents":[2147483647,0,0,1,1,2,2,5,5],"right_children":[2,4,6,-1,-1,8,-1,-1,-1],"split_conditions":[3.2E1,2E1,9.1E1,-2.4669845E-1,4.6503544E-2,7.8E1,9.121116E-2,1.3929336E-2,-4.1204E-2],"split_indices":[10,0,4,0,0,4,0,0,0],"split_type":[0,0,0,0,0,0,0,0,0],"sum_hessian":[2.42E2,8E0,2.34E2,5E0,3E0,2.25E2,9E0,1.71E2,5.4E1],"tree_param":{"num_deleted":"0","num_feature":"29","num_nodes":"9","size_leaf_vector":"1"}},{"base_weights":[-1.2813356E-2,5.3022124E-2,-7.677437E-2,2.5638378E-1,-2.5680938E-1,4.7798637E-2,7.7596577E-3,-1.3666235E-2,-4.4470165E-2],"categories":[],"categories_nodes":[],"categories_segments":[],"categories_sizes":[],"default_left":[0,0,0,0,0,0,0,0,0],"id":20,"left_children":[1,3,-1,5,7,-1,-1,-1,-1],"loss_changes":[1.3012721E1,1.5250734E1,0E0,5.747389E0,2.1063972E0,0E0,0E0,0E0,0E0],"parents":[2147483647,0,0,1,1,3,3,4,4],"right_children":[2,4,-1,6,8,-1,-1,-1,-1],"split_conditions":[1E0,1.0033E4,-7.677437E-2,2.9E1,5.82E2,4.7798637E-2,7.7596577E-3,-1.3666235E-2,-4.4470165E-2],"split_indices":[27,7,0,16,8,0,0,0,0],"split_type":[0,0,0,0,0,0,0,0,0],"sum_hessian":[2.6E2,2.4E2,2E1,1.45E2,9.5E1,6.4E1,8.1E1,5.9E1,3.6E1],"tree_param":{"num_deleted":"0","num_feature":"29","num_nodes":"9","size_leaf_vector":"1"}},{"base_weights":[1.633379E-2,5.440343E-1,-1.431608E-1,6.1414766E-1,-5.4527014E-3,-4.215228E-1,2.6270049E-3,7.4272655E-2,5.1761057E-2,-1.22636475E-1,-2.009698E-2,-1.417355E-2,5.4255243E-2],"categories":[],"categories_nodes":[],"categories_segments":[],"categories_sizes":[],"default_left":[0,0,0,0,0,0,0,0,0,0,0,0,0],"id":21,"left_children":[1,3,5,7,-1,9,11,-1,-1,-1,-1,-1,-1],"loss_changes":[2.1035065E1,2.4675827E0,7.7928104E0,2.6101494E-1,0E0,1.1469218E1,9.975911E0,0E0,0E0,0E0,0E0,0E0,0E0],"parents":[2147483647,0,0,1,1,2,2,3,3,5,5,6,6],"right_children":[2,4,6,8,-1,10,12,-1,-1,-1,-1,-1,-1],"split_conditions":[6.7E1,3.3E1,1E0,1E0,-5.4527014E-3,4.3E1,2E1,7.4272655E-2,5.1761057E-2,-1.22636475E-1,-2.009698E-2,-1.417355E-2,5.4255243E-2],"split_indices":[4,3,19,19,0,10,0,0,0,0,0,0,0],"split_type":[0,0,0,0,0,0,0,0,0,0,0,0,0],"sum_hessian":[2.48E2,5.7E1,1.91E2,5.1E1,6E0,6.5E1,1.26E2,1.9E1,3.2E1,1.3E1,5.2E1,1E2,2.6E1],"tree_param":{"num_deleted":"0","num_feature":"29","num_nodes":"13","size_leaf_vector":"1"}},{"base_weights":[-8.4745005E-2,-3.0103314E-1,2.1083142E-1,-2.2567956E-1,-1.1573583E0,4.3329862E-1,-3.0212402E-3,-7.6947376E-2,-1.633291E-2,-1.4226823E-1,-3.373709E-2,9.49183E-2,3.2724343E-2,8.737645E-3,-4.54674E-2],"categories":[],"categories_nodes":[],"categories_segments":[],"categories_sizes":[],"default_left":[0,0,0,0,0,0,0,0,0,0,0,0,0,0,0],"id":22,"left_children":[1,3,5,7,9,11,13,-1,-1,-1,-1,-1,-1,-1,-1],"loss_changes":[1.5406588E1,8.708082E0,4.8539796E0,4.2481728E0,1.9132147E0,2.4249973E0,2.2036312E0,0E0,0E0,0E0,0E0,0E0,0E0,0E0,0E0],"parents":[2147483647,0,0,1,1,2,2,3,3,4,4,5,5,6,6],"right_children":[2,4,6,8,10,12,14,-1,-1,-1,-1,-1,-1,-1,-1],"split_conditions":[9.8E1,3.2E1,9.6094E3,3.68E1,1E0,4.06E1,1E0,-7.6947376E-2,-1.633291E-2,-1.4226823E-1,-3.373709E-2,9.49183E-2,3.2724343E-2,8.737645E-3,-4.54674E-2],"split_indices":[9,3,7,9,17,10,17,0,0,0,0,0,0,0,0],"split_type":[0,0,0,0,0,0,0,0,0,0,0,0,0,0,0],"sum_hessian":[2.39E2,1.38E2,1.01E2,1.28E2,1E1,4.9E1,5.2E1,1.2E1,1.16E2,7E0,3E0,7E0,4.2E1,4.4E1,8E0],"tree_param":{"num_deleted":"0","num_feature":"29","num_nodes":"15","size_leaf_vector":"1"}},{"base_weights":[4.7145072E-2,1.0921367E-1,-7.485729E-1,2.8441238E-1,-1.4274676E-1,-4.8434338E-1,-1.338701E-1,2.2529539E-2,8.2642E-2,8.865039E-3,-2.1789653E-2,-7.176327E-2,-3.1926442E-2],"categories":[],"categories_nodes":[],"categories_segments":[],"categories_sizes":[],"default_left":[0,0,0,0,0,0,0,0,0,0,0,0,0],"id":23,"left_children":[1,3,5,7,9,11,-1,-1,-1,-1,-1,-1,-1],"loss_changes":[1.2280863E1,1.0193522E1,2.1583338E0,4.171506E0,1.6713139E0,3.1004143E-1,0E0,0E0,0E0,0E0,0E0,0E0,0E0],"parents":[2147483647,0,0,1,1,2,2,3,3,4,4,5,5],"right_children":[2,4,6,8,10,12,-1,-1,-1,-1,-1,-1,-1],"split_conditions":[1E0,1.0033E4,2.3E1,9.1E1,5.14E1,1E0,-1.338701E-1,2.2529539E-2,8.2642E-2,8.865039E-3,-2.1789653E-2,-7.176327E-2,-3.1926442E-2],"split_indices":[27,7,0,4,10,19,0,0,0,0,0,0,0],"split_type":[0,0,0,0,0,0,0,0,0,0,0,0,0],"sum_hessian":[2.46E2,2.29E2,1.7E1,1.35E2,9.4E1,1.3E1,4E0,1.23E2,1.2E1,2.3E1,7.1E1,4E0,9E0],"tree_param":{"num_deleted":"0","num_feature":"29","num_nodes":"13","size_leaf_vector":"1"}},{"base_weights":[-1.3222174E-1,-4.520057E-1,5.8476377E-2,-3.750371E-1,-1.3660346E-1,2.7425495E-1,-3.369927E-2,-2.0567397E-2,-9.881816E-2,1.9657057E-2,3.0695433E-2,-7.186631E-3,5.5452537E-2],"categories":[],"categories_nodes":[],"categories_segments":[],"categories_sizes":[],"default_left":[0,0,0,0,0,0,0,0,0,0,0,0,0],"id":24,"left_children":[1,3,5,7,-1,9,11,-1,-1,-1,-1,-1,-1],"loss_changes":[1.5515911E1,6.1710835E0,3.191567E0,9.038879E0,0E0,6.1592817E-2,2.5767913E0,0E0,0E0,0E0,0E0,0E0,0E0],"parents":[2147483647,0,0,1,1,2,2,3,3,5,5,6,6],"right_children":[2,4,6,8,-1,10,12,-1,-1,-1,-1,-1,-1],"split_conditions":[9.4E1,9.24E1,1.7E2,1E0,-1.3660346E-1,1E0,1E0,-2.0567397E-2,-9.881816E-2,1.9657057E-2,3.0695433E-2,-7.186631E-3,5.5452537E-2],"split_indices":[9,9,5,17,0,18,2,0,0,0,0,0,0],"split_type":[0,0,0,0,0,0,0,0,0,0,0,0,0],"sum_hessian":[2.53E2,9.4E1,1.59E2,8.8E1,6E0,4.7E1,1.12E2,7E1,1.8E1,1.6E1,3.1E1,1.06E2,6E0],"tree_param":{"num_deleted":"0","num_feature":"29","num_nodes":"13","size_leaf_vector":"1"}},{"base_weights":[-1.3793398E-1,-1.9107562E-1,7.0735663E-1,-5.223589E-1,-7.517019E-2,-2.773261E-2,9.7663784E-1,-7.867677E-2,-2.4109982E-2,-1.4536875E-2,2.3342868E-2,1.1894625E-1,4.4079095E-2],"categories":[],"categories_nodes":[],"categories_segments":[],"categories_sizes":[],"default_left":[0,0,0,0,0,0,0,0,0,0,0,0,0],"id":25,"left_children":[1,3,5,7,9,-1,11,-1,-1,-1,-1,-1,-1],"loss_changes":[1.136519E1,9.02255E0,4.2481956E0,4.346718E0,3.8466554E0,0E0,8.441925E-1,0E0,0E0,0E0,0E0,0E0,0E0],"parents":[2147483647,0,0,1,1,2,2,3,3,4,4,6,6],"right_children":[2,4,6,8,10,-1,12,-1,-1,-1,-1,-1,-1],"split_conditions":[1E0,5.86E1,2.3E1,2E1,9.3E1,-2.773261E-2,6.546E2,-7.867677E-2,-2.4109982E-2,-1.4536875E-2,2.3342868E-2,1.1894625E-1,4.4079095E-2],"split_indices":[2,11,3,0,11,0,8,0,0,0,0,0,0],"split_type":[0,0,0,0,0,0,0,0,0,0,0,0,0],"sum_hessian":[2.49E2,2.35E2,1.4E1,6E1,1.75E2,3E0,1.1E1,3E1,3E1,1.43E2,3.2E1,7E0,4E0],"tree_param":{"num_deleted":"0","num_feature":"29","num_nodes":"13","size_leaf_vector":"1"}},{"base_weights":[-3.9202534E-2,-8.508787E-2,5.920025E-1,5.0366163E-2,-1.2790853E-1,1.1594532E0,-3.8427734E-1,-1.8865107E-2,1.8441899E-2,1.9157271E-1,6.363845E-2,-5.35368E-2,-1.3711738E-2],"categories":[],"categories_nodes":[],"categories_segments":[],"categories_sizes":[],"default_left":[0,0,0,0,0,0,0,0,0,0,0,0,0],"id":26,"left_children":[1,3,5,-1,7,9,11,-1,-1,-1,-1,-1,-1],"loss_changes":[7.2621737E0,5.938503E0,9.863392E0,0E0,4.1705914E0,3.1322765E0,1.8799663E-1,0E0,0E0,0E0,0E0,0E0,0E0],"parents":[2147483647,0,0,1,1,2,2,4,4,5,5,6,6],"right_children":[2,4,6,-1,8,10,12,-1,-1,-1,-1,-1,-1],"split_conditions":[1E0,4.9E1,7.2E1,5.0366163E-2,2.1E1,2.4E1,7.9E1,-1.8865107E-2,1.8441899E-2,1.9157271E-1,6.363845E-2,-5.35368E-2,-1.3711738E-2],"split_indices":[2,6,4,0,0,3,4,0,0,0,0,0,0],"split_type":[0,0,0,0,0,0,0,0,0,0,0,0,0],"sum_hessian":[2.48E2,2.32E2,1.6E1,1.5E1,2.17E2,1E1,6E0,1.82E2,3.5E1,3E0,7E0,3E0,3E0],"tree_param":{"num_deleted":"0","num_feature":"29","num_nodes":"13","size_leaf_vector":"1"}},{"base_weights":[-3.0083122E-2,-2.1660963E-1,3.4095943E-3,6.1870533E-1,-5.4207068E-2,9.800999E-2,-1.3624764E-2,-5.472798E-2,3.7742164E-3],"categories":[],"categories_nodes":[],"categories_segments":[],"categories_sizes":[],"default_left":[0,0,0,0,0,0,0,0,0],"id":27,"left_children":[1,-1,3,5,7,-1,-1,-1,-1],"loss_changes":[1.8536472E1,0E0,9.109066E0,6.1359262E0,1.0675005E1,0E0,0E0,0E0,0E0],"parents":[2147483647,0,0,2,2,3,3,4,4],"right_children":[2,-1,4,6,8,-1,-1,-1,-1],"split_conditions":[2.6E1,-2.1660963E-1,3.53E2,2.6E1,7.78E1,9.800999E-2,-1.3624764E-2,-5.472798E-2,3.7742164E-3],"split_indices":[16,0,8,0,9,0,0,0,0],"split_type":[0,0,0,0,0,0,0,0,0],"sum_hessian":[2.58E2,3E0,2.55E2,2.1E1,2.34E2,1.4E1,7E0,3.6E1,1.98E2],"tree_param":{"num_deleted":"0","num_feature":"29","num_nodes":"9","size_leaf_vector":"1"}},{"base_weights":[7.814422E-2,2.9476514E-2,8.743295E-1,-2.0233924E-2,7.996802E-1,3.1138167E-1,1.4732154E-1,-5.259035E-2,3.7653241E-3,1.6460799E-1,-1.466794E-2,-5.2759172E-3,5.0224524E-2],"categories":[],"categories_nodes":[],"categories_segments":[],"categories_sizes":[],"default_left":[0,0,0,0,0,0,0,0,0,0,0,0,0],"id":28,"left_children":[1,3,5,7,9,11,-1,-1,-1,-1,-1,-1,-1],"loss_changes":[1.0087589E1,9.47311E0,4.5983906E0,6.840127E0,1.2256422E1,6.5200907E-1,0E0,0E0,0E0,0E0,0E0,0E0,0E0],"parents":[2147483647,0,0,1,1,2,2,3,3,4,4,5,5],"right_children":[2,4,6,8,10,12,-1,-1,-1,-1,-1,-1,-1],"split_conditions":[2.5E1,1E0,2.67E2,4.18E1,7.1E1,1E0,1.4732154E-1,-5.259035E-2,3.7653241E-3,1.6460799E-1,-1.466794E-2,-5.2759172E-3,5.0224524E-2],"split_indices":[0,2,8,10,11,19,0,0,0,0,0,0,0],"split_type":[0,0,0,0,0,0,0,0,0,0,0,0,0],"sum_hessian":[2.6E2,2.46E2,1.4E1,2.32E2,1.4E1,8E0,6E0,2.3E1,2.09E2,7E0,7E0,3E0,5E0],"tree_param":{"num_deleted":"0","num_feature":"29","num_nodes":"13","size_leaf_vector":"1"}},{"base_weights":[8.310104E-2,3.1441408E-1,-1.2129437E-1,3.875964E-1,7.764263E-2,-3.1246454E-1,-5.8796663E-2,2.5711462E-2,7.4788004E-2,-6.299494E-2,4.445888E-2,-1.3327375E-1,-9.798527E-4,2.5132988E-2,-1.4931862E-2],"categories":[],"categories_nodes":[],"categories_segments":[],"categories_sizes":[],"default_left":[0,0,0,0,0,0,0,0,0,0,0,0,0,0,0],"id":29,"left_children":[1,3,5,7,9,11,13,-1,-1,-1,-1,-1,-1,-1,-1],"loss_changes":[1.2708996E1,2.1531696E0,1.6901486E0,4.320711E0,8.329162E0,1.0795009E1,3.0975142E0,0E0,0E0,0E0,0E0,0E0,0E0,0E0,0E0],"parents":[2147483647,0,0,1,1,2,2,3,3,4,4,5,5,6,6],"right_children":[2,4,6,8,10,12,14,-1,-1,-1,-1,-1,-1,-1,-1],"split_conditions":[2.5E1,1E0,8.7622E3,7.9E1,2.3E1,1E0,6.84E1,2.5711462E-2,7.4788004E-2,-6.299494E-2,4.445888E-2,-1.3327375E-1,-9.798527E-4,2.5132988E-2,-1.4931862E-2],"split_indices":[3,17,7,4,3,18,11,0,0,0,0,0,0,0,0],"split_type":[0,0,0,0,0,0,0,0,0,0,0,0,0,0,0],"sum_hessian":[2.67E2,1.25E2,1.42E2,9.5E1,3E1,3.4E1,1.08E2,7.1E1,2.4E1,1E1,2E1,7E0,2.7E1,2.4E1,8.4E1],"tree_param":{"num_deleted":"0","num_feature":"29","num_nodes":"15","size_leaf_vector":"1"}},{"base_weights":[2.860748E-2,-2.1438523E-1,2.83413E-1,-8.4956497E-1,-5.0374836E-2,1.3882588E-1,2.3377502E-1,-3.82464E-2,-2.3428242E-1,6.1759293E-2,-1.13793295E-2,1.8555421E-2,8.675893E-2],"categories":[],"categories_nodes":[],"categories_segments":[],"categories_sizes":[],"default_left":[0,0,0,0,0,0,0,0,0,0,0,0,0],"id":30,"left_children":[1,3,5,7,9,-1,11,-1,-1,-1,-1,-1,-1],"loss_changes":[1.5353982E1,1.3187565E1,6.3113775E0,1.7239033E1,4.391149E0,0E0,3.4148898E0,0E0,0E0,0E0,0E0,0E0,0E0],"parents":[2147483647,0,0,1,1,2,2,3,3,4,4,6,6],"right_children":[2,4,6,8,10,-1,12,-1,-1,-1,-1,-1,-1],"split_conditions":[6.4E0,1.112E2,6.6E0,4E0,6.32E1,1.3882588E-1,1E0,-3.82464E-2,-2.3428242E-1,6.1759293E-2,-1.13793295E-2,1.8555421E-2,8.675893E-2],"split_indices":[13,12,13,13,6,0,2,0,0,0,0,0,0],"split_type":[0,0,0,0,0,0,0,0,0,0,0,0,0],"sum_hessian":[2.46E2,1.26E2,1.2E2,2.5E1,1.01E2,4E0,1.16E2,2E1,5E0,8E0,9.3E1,1.09E2,7E0],"tree_param":{"num_deleted":"0","num_feature":"29","num_nodes":"13","size_leaf_vector":"1"}},{"base_weights":[-6.937446E-2,-1.2854472E-1,7.352452E-1,-2.3135927E-1,2.7669832E-1,1.5704833E0,1.3688955E-1,-2.9573856E-2,3.7879076E-2,-5.0198745E-2,3.813511E-2,7.412858E-2,2.00706E-1,6.2365342E-2,-8.708606E-2],"categories":[],"categories_nodes":[],"categories_segments":[],"categories_sizes":[],"default_left":[0,0,0,0,0,0,0,0,0,0,0,0,0,0,0],"id":31,"left_children":[1,3,5,7,9,11,13,-1,-1,-1,-1,-1,-1,-1,-1],"loss_changes":[1.1806463E1,9.64694E0,8.281096E0,7.339731E0,4.0215397E0,1.0462551E0,5.939015E0,0E0,0E0,0E0,0E0,0E0,0E0,0E0,0E0],"parents":[2147483647,0,0,1,1,2,2,3,3,4,4,5,5,6,6],"right_children":[2,4,6,8,10,12,14,-1,-1,-1,-1,-1,-1,-1,-1],"split_conditions":[1E0,7.72E1,6.2E1,1E0,9.44E1,4.84E1,7.2E1,-2.9573856E-2,3.7879076E-2,-5.0198745E-2,3.813511E-2,7.412858E-2,2.00706E-1,6.2365342E-2,-8.708606E-2],"split_indices":[2,11,11,1,6,11,4,0,0,0,0,0,0,0,0],"split_type":[0,0,0,0,0,0,0,0,0,0,0,0,0,0,0],"sum_hessian":[2.45E2,2.29E2,1.6E1,1.83E2,4.6E1,6E0,1E1,1.66E2,1.7E1,5E0,4.1E1,3E0,3E0,7E0,3E0],"tree_param":{"num_deleted":"0","num_feature":"29","num_nodes":"15","size_leaf_vector":"1"}},{"base_weights":[1.997512E-1,3.0714062E-1,-2.2951175E-1,-1.2189293E-1,3.5759142E-1,3.912259E-1,-5.799513E-1,-1.7121574E-2,3.8170498E-3,3.1588156E-2,8.325675E-2,5.309558E-2,-2.6550008E-2,-7.3071666E-2,8.442252E-3],"categories":[],"categories_nodes":[],"categories_segments":[],"categories_sizes":[],"default_left":[0,0,0,0,0,0,0,0,0,0,0,0,0,0,0],"id":32,"left_children":[1,3,5,7,9,11,13,-1,-1,-1,-1,-1,-1,-1,-1],"loss_changes":[1.1687263E1,4.4158955E0,1.1320973E1,1.8022045E-1,3.322832E0,1.884489E0,3.3671207E0,0E0,0E0,0E0,0E0,0E0,0E0,0E0,0E0],"parents":[2147483647,0,0,1,1,2,2,3,3,4,4,5,5,6,6],"right_children":[2,4,6,8,10,12,14,-1,-1,-1,-1,-1,-1,-1,-1],"split_conditions":[1.9E1,4E0,2.85E1,1.5E1,1.6E1,1E0,1E0,-1.7121574E-2,3.8170498E-3,3.1588156E-2,8.325675E-2,5.309558E-2,-2.6550008E-2,-7.3071666E-2,8.442252E-3],"split_indices":[0,13,16,0,0,17,1,0,0,0,0,0,0,0,0],"split_type":[0,0,0,0,0,0,0,0,0,0,0,0,0,0,0],"sum_hessian":[2.51E2,2.01E2,5E1,2.1E1,1.8E2,1.8E1,3.2E1,1.6E1,5E0,1.67E2,1.3E1,1.5E1,3E0,2.6E1,6E0],"tree_param":{"num_deleted":"0","num_feature":"29","num_nodes":"15","size_leaf_vector":"1"}},{"base_weights":[-7.840299E-2,-2.1259794E-2,-5.245851E-1,7.985359E-2,-3.3356857E-1,-6.68855E-2,-9.775072E-1,2.6072174E-2,-1.3744062E-3,-4.8254192E-2,9.386419E-2,2.2441074E-2,-2.8601754E-2,-5.9757378E-2,-1.272073E-1],"categories":[],"categories_nodes":[],"categories_segments":[],"categories_sizes":[],"default_left":[0,0,0,0,0,0,0,0,0,0,0,0,0,0,0],"id":33,"left_children":[1,3,5,7,9,11,13,-1,-1,-1,-1,-1,-1,-1,-1],"loss_changes":[6.2864265E0,6.9739275E0,5.7390823E0,2.8306985E0,1.0687308E1,1.0216703E0,8.066578E-1,0E0,0E0,0E0,0E0,0E0,0E0,0E0,0E0],"parents":[2147483647,0,0,1,1,2,2,3,3,4,4,5,5,6,6],"right_children":[2,4,6,8,10,12,14,-1,-1,-1,-1,-1,-1,-1,-1],"split_conditions":[1.14668E4,7.9E1,1E0,1E0,1E0,1E0,1.2E1,2.6072174E-2,-1.3744062E-3,-4.8254192E-2,9.386419E-2,2.2441074E-2,-2.8601754E-2,-5.9757378E-2,-1.272073E-1],"split_indices":[7,4,19,19,1,17,0,0,0,0,0,0,0,0,0],"split_type":[0,0,0,0,0,0,0,0,0,0,0,0,0,0,0],"sum_hessian":[2.46E2,2.19E2,2.7E1,1.66E2,5.3E1,1.4E1,1.3E1,5.6E1,1.1E2,4.8E1,5E0,6E0,8E0,7E0,6E0],"tree_param":{"num_deleted":"0","num_feature":"29","num_nodes":"15","size_leaf_vector":"1"}},{"base_weights":[6.326035E-2,-4.963198E-1,1.8948068E-1,3.7970304E-1,-6.676846E-1,2.8233122E-2,6.694338E-1,-4.2275142E-2,9.45726E-2,-8.1371106E-2,4.588322E-2,1.3498197E-2,-2.4053684E-2,7.761922E-2,9.684647E-3],"categories":[],"categories_nodes":[],"categories_segments":[],"categories_sizes":[],"default_left":[0,0,0,0,0,0,0,0,0,0,0,0,0,0,0],"id":34,"left_children":[1,3,5,7,9,11,13,-1,-1,-1,-1,-1,-1,-1,-1],"loss_changes":[1.7257229E1,7.0088987E0,1.5381961E1,4.0334682E0,6.624405E0,4.3361006E0,2.9812527E0,0E0,0E0,0E0,0E0,0E0,0E0,0E0,0E0],"parents":[2147483647,0,0,1,1,2,2,3,3,4,4,5,5,6,6],"right_children":[2,4,6,8,10,12,14,-1,-1,-1,-1,-1,-1,-1,-1],"split_conditions":[9.1E1,1.4E1,1.2E1,1E0,7.2E1,1E0,5.7E1,-4.2275142E-2,9.45726E-2,-8.1371106E-2,4.588322E-2,1.3498197E-2,-2.4053684E-2,7.761922E-2,9.684647E-3],"split_indices":[12,0,0,19,4,17,10,0,0,0,0,0,0,0,0],"split_type":[0,0,0,0,0,0,0,0,0,0,0,0,0,0,0],"sum_hessian":[2.42E2,4.4E1,1.98E2,7E0,3.7E1,1.49E2,4.9E1,3E0,4E0,3.3E1,4E0,1.07E2,4.2E1,4.1E1,8E0],"tree_param":{"num_deleted":"0","num_feature":"29","num_nodes":"15","size_leaf_vector":"1"}},{"base_weights":[-9.578433E-4,4.797559E-1,-7.524561E-2,3.2286295E-1,6.012795E-1,-1.2008452E-1,3.3376285E-1,6.005121E-2,1.1682597E-2,2.695694E-2,7.878614E-2,5.9077115E-4,-2.8570114E-2,5.3136718E-2,-4.4436533E-2],"categories":[],"categories_nodes":[],"categories_segments":[],"categories_sizes":[],"default_left":[0,0,0,0,0,0,0,0,0,0,0,0,0,0,0],"id":35,"left_children":[1,3,5,7,9,11,13,-1,-1,-1,-1,-1,-1,-1,-1],"loss_changes":[9.071022E0,4.5411873E-1,4.0747676E0,9.023466E-1,9.016571E-1,4.1541033E0,3.6188743E0,0E0,0E0,0E0,0E0,0E0,0E0,0E0,0E0],"parents":[2147483647,0,0,1,1,2,2,3,3,4,4,5,5,6,6],"right_children":[2,4,6,8,10,12,14,-1,-1,-1,-1,-1,-1,-1,-1],"split_conditions":[1.69E2,2E0,1E0,1E0,1E0,9.7E1,5.702E2,6.005121E-2,1.1682597E-2,2.695694E-2,7.878614E-2,5.9077115E-4,-2.8570114E-2,5.3136718E-2,-4.4436533E-2],"split_indices":[5,0,1,19,19,6,8,0,0,0,0,0,0,0,0],"split_type":[0,0,0,0,0,0,0,0,0,0,0,0,0,0,0],"sum_hessian":[2.52E2,3.3E1,2.19E2,1.6E1,1.7E1,1.98E2,2.1E1,6E0,1E1,7E0,1E1,1.13E2,8.5E1,1.7E1,4E0],"tree_param":{"num_deleted":"0","num_feature":"29","num_nodes":"15","size_leaf_vector":"1"}},{"base_weights":[4.1246224E-2,1.266279E-1,-7.015166E-2,-1.2656784E-1,3.2482597E-1,-6.772217E-2,4.9972536E-5,1.4024146E-2,5.6248803E-2],"categories":[],"categories_nodes":[],"categories_segments":[],"categories_sizes":[],"default_left":[0,0,0,0,0,0,0,0,0],"id":36,"left_children":[1,3,-1,5,7,-1,-1,-1,-1],"loss_changes":[1.5372648E1,1.0930803E1,0E0,6.717483E0,5.273101E0,0E0,0E0,0E0,0E0],"parents":[2147483647,0,0,1,1,3,3,4,4],"right_children":[2,4,-1,6,8,-1,-1,-1,-1],"split_conditions":[1.14668E4,9.5934E3,-7.015166E-2,2.65E1,9E0,-6.772217E-2,4.9972536E-5,1.4024146E-2,5.6248803E-2],"split_indices":[7,7,0,16,0,0,0,0,0],"split_type":[0,0,0,0,0,0,0,0,0],"sum_hessian":[2.4E2,2.16E2,2.4E1,9.5E1,1.21E2,1.7E1,7.8E1,6.9E1,5.2E1],"tree_param":{"num_deleted":"0","num_feature":"29","num_nodes":"9","size_leaf_vector":"1"}},{"base_weights":[-4.2535804E-2,1.7208295E-1,-2.707677E-1,7.390833E-2,9.239253E-2,-1.3391642E-2,-7.0130163E-1,3.410268E-2,-3.7968028E-3,-3.095646E-2,1.6821204E-2,-1.8273197E-1,-5.505542E-2],"categories":[],"categories_nodes":[],"categories_segments":[],"categories_sizes":[],"default_left":[0,0,0,0,0,0,0,0,0,0,0,0,0],"id":37,"left_children":[1,3,5,-1,7,9,11,-1,-1,-1,-1,-1,-1],"loss_changes":[1.2439254E1,5.8508825E0,1.362013E1,0E0,3.7727518E0,4.2473884E0,6.802202E0,0E0,0E0,0E0,0E0,0E0,0E0],"parents":[2147483647,0,0,1,1,2,2,4,4,5,5,6,6],"right_children":[2,4,6,-1,8,10,12,-1,-1,-1,-1,-1,-1],"split_conditions":[1.78E2,3.464E2,1.6E1,7.390833E-2,1E0,1.85E2,1.9E1,3.410268E-2,-3.7968028E-3,-3.095646E-2,1.6821204E-2,-1.8273197E-1,-5.505542E-2],"split_indices":[5,8,0,0,19,5,0,0,0,0,0,0,0],"split_type":[0,0,0,0,0,0,0,0,0,0,0,0,0],"sum_hessian":[2.52E2,1.3E2,1.22E2,1.5E1,1.15E2,7.7E1,4.5E1,3.9E1,7.6E1,2.9E1,4.8E1,4E0,4.1E1],"tree_param":{"num_deleted":"0","num_feature":"29","num_nodes":"13","size_leaf_vector":"1"}},{"base_weights":[-3.6614882E-3,4.0267605E-1,-1.3228261E-1,2.8409106E-1,1.3107717E-1,2.1519336E-1,-2.5032952E-1,5.8127403E-2,6.5959203E-3,1.6216129E-1,6.0995673E-3,-1.9837061E-2,-2.084248E-1],"categories":[],"categories_nodes":[],"categories_segments":[],"categories_sizes":[],"default_left":[0,0,0,0,0,0,0,0,0,0,0,0,0],"id":38,"left_children":[1,3,5,7,-1,9,11,-1,-1,-1,-1,-1,-1],"loss_changes":[1.3694064E1,6.411873E0,8.216545E0,3.6566882E0,0E0,1.09612875E1,1.3784523E1,0E0,0E0,0E0,0E0,0E0,0E0],"parents":[2147483647,0,0,1,1,2,2,3,3,5,5,6,6],"right_children":[2,4,6,8,-1,10,12,-1,-1,-1,-1,-1,-1],"split_conditions":[3.774E2,1E0,1E0,2.3E1,1.3107717E-1,6.36E1,8.3E1,5.8127403E-2,6.5959203E-3,1.6216129E-1,6.0995673E-3,-1.9837061E-2,-2.084248E-1],"split_indices":[8,1,18,3,0,6,4,0,0,0,0,0,0],"split_type":[0,0,0,0,0,0,0,0,0,0,0,0,0],"sum_hessian":[2.6E2,6.2E1,1.98E2,5.6E1,6E0,5E1,1.48E2,2.3E1,3.3E1,4E0,4.6E1,1.45E2,3E0],"tree_param":{"num_deleted":"0","num_feature":"29","num_nodes":"13","size_leaf_vector":"1"}},{"base_weights":[5.7422206E-2,-5.5137914E-2,5.5868083E-1,3.0220336E-1,-1.763503E-1,1.9505624E-1,8.3842295E-1,1.7320959E-2,7.879581E-2,-3.459149E-2,1.8250017E-3,5.6899097E-2,-1.0164944E-2,4.4876035E-2,1.0052067E-1],"categories":[],"categories_nodes":[],"categories_segments":[],"categories_sizes":[],"default_left":[0,0,0,0,0,0,0,0,0,0,0,0,0,0,0],"id":39,"left_children":[1,3,5,7,9,11,13,-1,-1,-1,-1,-1,-1,-1,-1],"loss_changes":[1.3233489E1,8.369618E0,4.2104683E0,2.933826E0,4.7579265E0,2.2768087E0,1.1086483E0,0E0,0E0,0E0,0E0,0E0,0E0,0E0,0E0],"parents":[2147483647,0,0,1,1,2,2,3,3,4,4,5,5,6,6],"right_children":[2,4,6,8,10,12,14,-1,-1,-1,-1,-1,-1,-1,-1],"split_conditions":[1E0,9.06E1,1E0,1E0,1.44E2,1.71E2,1E1,1.7320959E-2,7.879581E-2,-3.459149E-2,1.8250017E-3,5.6899097E-2,-1.0164944E-2,4.4876035E-2,1.0052067E-1],"split_indices":[26,9,19,17,9,5,0,0,0,0,0,0,0,0,0],"split_type":[0,0,0,0,0,0,0,0,0,0,0,0,0,0,0],"sum_hessian":[2.33E2,1.91E2,4.2E1,4.8E1,1.43E2,1.9E1,2.3E1,3.9E1,9E0,7.6E1,6.7E1,8E0,1.1E1,8E0,1.5E1],"tree_param":{"num_deleted":"0","num_feature":"29","num_nodes":"15","size_leaf_vector":"1"}},{"base_weights":[-1.0293921E-2,6.994188E-1,-8.7320216E-2,-5.4391075E-2,1.2433728E0,4.7355562E-2,-2.6644132E-1,1.4262852E-1,6.703193E-2,-3.402437E-2,1.1035039E-2,-1.1191089E-2,-1.3259508E-1],"categories":[],"categories_nodes":[],"categories_segments":[],"categories_sizes":[],"default_left":[0,0,0,0,0,0,0,0,0,0,0,0,0],"id":40,"left_children":[1,3,5,-1,7,9,11,-1,-1,-1,-1,-1,-1],"loss_changes":[1.339971E1,1.6907822E1,5.3438606E0,0E0,8.258476E-1,3.1384723E0,1.54056225E1,0E0,0E0,0E0,0E0,0E0,0E0],"parents":[2147483647,0,0,1,1,2,2,4,4,5,5,6,6],"right_children":[2,4,6,-1,8,10,12,-1,-1,-1,-1,-1,-1],"split_conditions":[4.06E1,2.168E2,1.00218E4,-5.4391075E-2,2.5E1,6.32E1,3E1,1.4262852E-1,6.703193E-2,-3.402437E-2,1.1035039E-2,-1.1191089E-2,-1.3259508E-1],"split_indices":[10,8,7,0,0,6,3,0,0,0,0,0,0],"split_type":[0,0,0,0,0,0,0,0,0,0,0,0,0],"sum_hessian":[2.43E2,2.3E1,2.2E2,7E0,1.6E1,1.26E2,9.4E1,1.1E1,5E0,1.7E1,1.09E2,8.3E1,1.1E1],"tree_param":{"num_deleted":"0","num_feature":"29","num_nodes":"13","size_leaf_vector":"1"}},{"base_weights":[-3.2989707E-2,-1.3923904E-1,2.5655612E-1,2.3644997E-1,-2.2539715E-1,5.056735E-1,1.2642011E-1,-3.579059E-2,7.001122E-2,-2.7725473E-2,3.9839078E-2,2.0435989E-2,1.0450917E-1,-1.0763407E-3,1.9314643E-2],"categories":[],"categories_nodes":[],"categories_segments":[],"categories_sizes":[],"default_left":[0,0,0,0,0,0,0,0,0,0,0,0,0,0,0],"id":41,"left_children":[1,3,5,7,9,11,13,-1,-1,-1,-1,-1,-1,-1,-1],"loss_changes":[7.7882643E0,6.0414968E0,2.1405745E0,9.895885E0,4.995023E0,3.5247073E0,4.231515E-1,0E0,0E0,0E0,0E0,0E0,0E0,0E0,0E0],"parents":[2147483647,0,0,1,1,2,2,3,3,4,4,5,5,6,6],"right_children":[2,4,6,8,10,12,14,-1,-1,-1,-1,-1,-1,-1,-1],"split_conditions":[7.64E1,4.98E1,7.78E1,4.72E1,1E0,1E0,1.1E1,-3.579059E-2,7.001122E-2,-2.7725473E-2,3.9839078E-2,2.0435989E-2,1.0450917E-1,-1.0763407E-3,1.9314643E-2],"split_indices":[11,11,11,11,1,17,0,0,0,0,0,0,0,0,0],"split_type":[0,0,0,0,0,0,0,0,0,0,0,0,0,0,0],"sum_hessian":[2.51E2,1.84E2,6.7E1,3.4E1,1.5E2,2.2E1,4.5E1,1.5E1,1.9E1,1.39E2,1.1E1,1.5E1,7E0,1.5E1,3E1],"tree_param":{"num_deleted":"0","num_feature":"29","num_nodes":"15","size_leaf_vector":"1"}},{"base_weights":[1.1428211E-1,-9.924946E-2,1.4092039E-1,4.248415E-1,7.315551E-2,2.4352439E-2,8.3483726E-2,-1.946834E-2,2.6647717E-2],"categories":[],"categories_nodes":[],"categories_segments":[],"categories_sizes":[],"default_left":[0,0,0,0,0,0,0,0,0],"id":42,"left_children":[1,-1,3,5,7,-1,-1,-1,-1],"loss_changes":[7.510519E0,0E0,4.682691E0,3.2906418E0,1.0355912E1,0E0,0E0,0E0,0E0],"parents":[2147483647,0,0,2,2,3,3,4,4],"right_children":[2,-1,4,6,8,-1,-1,-1,-1],"split_conditions":[2.168E2,-9.924946E-2,1.7E2,1.1E1,1.78E2,2.4352439E-2,8.3483726E-2,-1.946834E-2,2.6647717E-2],"split_indices":[8,0,5,0,5,0,0,0,0],"split_type":[0,0,0,0,0,0,0,0,0],"sum_hessian":[2.49E2,5E0,2.44E2,4.6E1,1.98E2,3.3E1,1.3E1,8.3E1,1.15E2],"tree_param":{"num_deleted":"0","num_feature":"29","num_nodes":"9","size_leaf_vector":"1"}},{"base_weights":[-3.076684E-2,-3.6586958E-1,1.4426048E-1,-4.3941468E-1,2.9582998E-2,1.11646585E-1,7.935052E-2,-2.0749351E-2,-8.08132E-2,-5.329076E-3,2.6256496E-2],"categories":[],"categories_nodes":[],"categories_segments":[],"categories_sizes":[],"default_left":[0,0,0,0,0,0,0,0,0,0,0],"id":43,"left_children":[1,3,5,7,-1,-1,9,-1,-1,-1,-1],"loss_changes":[1.4363901E1,4.2178326E0,1.0071442E1,6.3313313E0,0E0,0E0,3.7078652E0,0E0,0E0,0E0,0E0],"parents":[2147483647,0,0,1,1,2,2,3,3,6,6],"right_children":[2,4,6,8,-1,-1,10,-1,-1,-1,-1],"split_conditions":[4.048E2,1E0,4.08E2,8.3E1,2.9582998E-2,1.11646585E-1,9.74E1,-2.0749351E-2,-8.08132E-2,-5.329076E-3,2.6256496E-2],"split_indices":[8,1,8,4,0,0,6,0,0,0,0],"split_type":[0,0,0,0,0,0,0,0,0,0,0],"sum_hessian":[2.43E2,8.3E1,1.6E2,7.5E1,8E0,9E0,1.51E2,4.7E1,2.8E1,8.8E1,6.3E1],"tree_param":{"num_deleted":"0","num_feature":"29","num_nodes":"11","size_leaf_vector":"1"}},{"base_weights":[-1.834378E-1,-3.6085027E-1,3.1562164E-2,-1.7413195E-2,-4.838504E-1,-4.541402E-1,1.1852481E-1,4.8844058E-2,-3.155353E-2,-2.553536E-2,-5.748359E-2,4.4983674E-2,-1.04151E-1,-1.9051217E-2,2.9536158E-2],"categories":[],"categories_nodes":[],"categories_segments":[],"categories_sizes":[],"default_left":[0,0,0,0,0,0,0,0,0,0,0,0,0,0,0],"id":44,"left_children":[1,3,5,7,9,11,13,-1,-1,-1,-1,-1,-1,-1,-1],"loss_changes":[8.708147E0,5.271923E0,4.446575E0,5.2815304E0,1.7658844E0,8.96401E0,4.9200397E0,0E0,0E0,0E0,0E0,0E0,0E0,0E0,0E0],"parents":[2147483647,0,0,1,1,2,2,3,3,4,4,5,5,6,6],"right_children":[2,4,6,8,10,12,14,-1,-1,-1,-1,-1,-1,-1,-1],"split_conditions":[9.74E1,4.82E1,6.5E1,1E0,6.3E1,1E0,1E0,4.8844058E-2,-3.155353E-2,-2.553536E-2,-5.748359E-2,4.4983674E-2,-1.04151E-1,-1.9051217E-2,2.9536158E-2],"split_indices":[6,11,4,19,4,19,19,0,0,0,0,0,0,0,0],"split_type":[0,0,0,0,0,0,0,0,0,0,0,0,0,0,0],"sum_hessian":[2.27E2,1.24E2,1.03E2,3.3E1,9.1E1,1.5E1,8.8E1,1.2E1,2.1E1,2.7E1,6.4E1,6E0,9E0,3.2E1,5.6E1],"tree_param":{"num_deleted":"0","num_feature":"29","num_nodes":"15","size_leaf_vector":"1"}},{"base_weights":[2.3668088E-2,-5.436212E-1,1.3417116E-1,7.639207E-2,-1.0261947E0,4.3206048E-1,2.6588002E-2,4.6060864E-2,-1.5410026E-2,-1.537069E-1,-6.244759E-2,1.3630292E-1,1.8385781E-2,-2.7197817E-2,1.682176E-2],"categories":[],"categories_nodes":[],"categories_segments":[],"categories_sizes":[],"default_left":[0,0,0,0,0,0,0,0,0,0,0,0,0,0,0],"id":45,"left_children":[1,3,5,7,9,11,13,-1,-1,-1,-1,-1,-1,-1,-1],"loss_changes":[1.4992492E1,1.1747271E1,6.3980875E0,1.6650413E0,3.5551472E0,1.1996048E1,6.304051E0,0E0,0E0,0E0,0E0,0E0,0E0,0E0,0E0],"parents":[2147483647,0,0,1,1,2,2,3,3,4,4,5,5,6,6],"right_children":[2,4,6,8,10,12,14,-1,-1,-1,-1,-1,-1,-1,-1],"split_conditions":[6.62E1,1.72E2,1E0,1E0,1E0,9.24E1,9.44E1,4.6060864E-2,-1.5410026E-2,-1.537069E-1,-6.244759E-2,1.3630292E-1,1.8385781E-2,-2.7197817E-2,1.682176E-2],"split_indices":[9,5,18,19,19,9,9,0,0,0,0,0,0,0,0],"split_type":[0,0,0,0,0,0,0,0,0,0,0,0,0,0,0],"sum_hessian":[2.37E2,3.8E1,1.99E2,1.7E1,2.1E1,5.2E1,1.47E2,6E0,1.1E1,8E0,1.3E1,1E1,4.2E1,4.7E1,1E2],"tree_param":{"num_deleted":"0","num_feature":"29","num_nodes":"15","size_leaf_vector":"1"}},{"base_weights":[1.18322335E-2,-3.3379626E-1,7.3728696E-2,3.5826433E-2,-6.68248E-1,3.770058E-1,-6.293808E-2,9.914449E-3,-1.6129304E-2,-8.861502E-2,1.6268883E-2,1.4158982E-2,1.1038313E-1,-1.8231092E-2,1.4005484E-2],"categories":[],"categories_nodes":[],"categories_segments":[],"categories_sizes":[],"default_left":[0,0,0,0,0,0,0,0,0,0,0,0,0,0,0],"id":46,"left_children":[1,3,5,7,9,11,13,-1,-1,-1,-1,-1,-1,-1,-1],"loss_changes":[5.3515124E0,4.721537E0,8.810683E0,2.5313455E-1,3.7654266E0,1.1136726E1,3.5876138E0,0E0,0E0,0E0,0E0,0E0,0E0,0E0,0E0],"parents":[2147483647,0,0,1,1,2,2,3,3,4,4,5,5,6,6],"right_children":[2,4,6,8,10,12,14,-1,-1,-1,-1,-1,-1,-1,-1],"split_conditions":[2.65E1,2.3E1,6.14E1,1E0,1E0,5.86E1,1.56E2,9.914449E-3,-1.6129304E-2,-8.861502E-2,1.6268883E-2,1.4158982E-2,1.1038313E-1,-1.8231092E-2,1.4005484E-2],"split_indices":[16,3,11,17,17,11,9,0,0,0,0,0,0,0,0],"split_type":[0,0,0,0,0,0,0,0,0,0,0,0,0,0,0],"sum_hessian":[2.48E2,3.7E1,2.11E2,1.8E1,1.9E1,6.5E1,1.46E2,1.4E1,4E0,1.5E1,4E0,5E1,1.5E1,9.2E1,5.4E1],"tree_param":{"num_deleted":"0","num_feature":"29","num_nodes":"15","size_leaf_vector":"1"}},{"base_weights":[4.5360412E-2,-6.752177E-1,9.1161735E-2,-1.6631698E-2,-8.451528E-2,-5.6719303E-2,2.2399653E-1,-3.2850794E-2,9.6111296E-4,4.142321E-2,8.541784E-3],"categories":[],"categories_nodes":[],"categories_segments":[],"categories_sizes":[],"default_left":[0,0,0,0,0,0,0,0,0,0,0],"id":47,"left_children":[1,3,5,-1,-1,7,9,-1,-1,-1,-1],"loss_changes":[8.279408E0,1.1566381E0,4.628986E0,0E0,0E0,2.0222774E0,3.2335782E0,0E0,0E0,0E0,0E0],"parents":[2147483647,0,0,1,1,2,2,5,5,6,6],"right_children":[2,4,6,-1,-1,8,10,-1,-1,-1,-1],"split_conditions":[5.72E1,1E0,9.7E1,-1.6631698E-2,-8.451528E-2,4E0,4.838E2,-3.2850794E-2,9.6111296E-4,4.142321E-2,8.541784E-3],"split_indices":[9,19,6,0,0,0,8,0,0,0,0],"split_type":[0,0,0,0,0,0,0,0,0,0,0],"sum_hessian":[2.48E2,1.4E1,2.34E2,4E0,1E1,1.11E2,1.23E2,2.1E1,9E1,5.1E1,7.2E1],"tree_param":{"num_deleted":"0","num_feature":"29","num_nodes":"11","size_leaf_vector":"1"}},{"base_weights":[-6.544989E-2,-2.8763145E-1,5.501747E-2,-2.021364E-1,-2.0111199E-1,2.9363003E-1,1.3120955E-2,-2.874924E-2,9.554069E-2,4.1788563E-2,-1.4878432E-2,1.6350433E-2,-3.9567617E-3],"categories":[],"categories_nodes":[],"categories_segments":[],"categories_sizes":[],"default_left":[0,0,0,0,0,0,0,0,0,0,0,0,0],"id":48,"left_children":[1,3,5,7,-1,9,11,-1,-1,-1,-1,-1,-1],"loss_changes":[6.626935E0,1.2412907E1,1.60567E0,8.574144E0,0E0,1.3815136E0,1.0999105E0,0E0,0E0,0E0,0E0,0E0,0E0],"parents":[2147483647,0,0,1,1,2,2,3,3,5,5,6,6],"right_children":[2,4,6,8,-1,10,12,-1,-1,-1,-1,-1,-1],"split_conditions":[1.19E2,8.3E1,6.9E1,1E0,-2.0111199E-1,1E0,1E0,-2.874924E-2,9.554069E-2,4.1788563E-2,-1.4878432E-2,1.6350433E-2,-3.9567617E-3],"split_indices":[12,4,11,2,0,17,18,0,0,0,0,0,0],"split_type":[0,0,0,0,0,0,0,0,0,0,0,0,0],"sum_hessian":[2.46E2,8.6E1,1.6E2,8.3E1,3E0,2.3E1,1.37E2,7.8E1,5E0,1.8E1,5E0,3.5E1,1.02E2],"tree_param":{"num_deleted":"0","num_feature":"29","num_nodes":"13","size_leaf_vector":"1"}},{"base_weights":[-2.6147842E-2,-6.174279E-1,1.18901916E-1,-2.2713952E-1,-9.159709E-1,-2.2736546E-1,2.5471556E-1,1.0617795E-2,-1.0041763E-1,-1.3462849E-1,8.8622764E-2,1.3219833E-2,-5.037683E-2,1.28813265E-2,5.038913E-2],"categories":[],"categories_nodes":[],"categories_segments":[],"categories_sizes":[],"default_left":[0,0,0,0,0,0,0,0,0,0,0,0,0,0,0],"id":49,"left_children":[1,3,5,7,9,11,13,-1,-1,-1,-1,-1,-1,-1,-1],"loss_changes":[2.1771963E1,5.6178417E0,9.651592E0,6.0636196E0,2.2907425E1,5.8308964E0,4.5467463E0,0E0,0E0,0E0,0E0,0E0,0E0,0E0,0E0],"parents":[2147483647,0,0,1,1,2,2,3,3,4,4,5,5,6,6],"right_children":[2,4,6,8,10,12,14,-1,-1,-1,-1,-1,-1,-1,-1],"split_conditions":[6.62E1,1E0,6.6E1,9.84E1,9.84E1,1E0,1.7E1,1.0617795E-2,-1.0041763E-1,-1.3462849E-1,8.8622764E-2,1.3219833E-2,-5.037683E-2,1.28813265E-2,5.038913E-2],"split_indices":[9,19,4,6,6,19,0,0,0,0,0,0,0,0,0],"split_type":[0,0,0,0,0,0,0,0,0,0,0,0,0,0,0],"sum_hessian":[2.52E2,4.9E1,2.03E2,2.2E1,2.7E1,5.7E1,1.46E2,1.6E1,6E0,2.2E1,5E0,2.5E1,3.2E1,9.8E1,4.8E1],"tree_param":{"num_deleted":"0","num_feature":"29","num_nodes":"15","size_leaf_vector":"1"}}]},"name":"gbtree"},"learner_model_param":{"base_score":"2.8321257E1","boost_from_average":"1","num_class":"0","num_feature":"29","num_target":"1"},"objective":{"name":"reg:squarederror","reg_loss_param":{"scale_pos_weight":"1"}}},"version":[2,0,3]}